-3122.6765799256427,-9.2936802973956247,1979.553903345718
-1759.6034696406384,-910.78066914497572,2214.9938042131212
-4656.1338289962687,-486.369268897148,1985.7496902106509
-2159.2317224287394,-1071.8711276332031,3051.4250309789245
-2211.8959107806522,-706.31970260221624,4244.1140024783081
-3500.6195786864832,-1691.4498141263919,3193.9281288723587
-2286.2453531598412,-2416.3568773234097,5229.244114002463
-3262.0817843866089,-985.13011152416493,1270.1363073110217
-4522.9244114002295,3568.7732342007389,508.05452292440526
-1747.2118959107704,666.04708798017884,932.4659231722361
-3094.7955390334464,582.40396530359283,241.63568773233692
-2568.1536555447428,-879.80173485305374,2273.8537793987298
-5452.2924411400081,2022.9244114002458,2732.3420074349378
-3500.619578686481,-1855.6381660470818,5325.2788104089068
-2518.5873605947841,-117.71995043370653,1666.6666666666579
-3897.1499380421155,2125.1548946716171,1443.6183395291152
-6753.4076827756917,1685.2540272614581,3494.4237918215467
-3522.3048327137435,-1877.3234200743464,1579.9256505576072
-3066.9144981412533,-1586.1214374225499,2078.6864931846249
-3568.7732342007293,1288.7236679058269,2639.4052044609593
-2342.007434944228,-1013.0111524163525,2131.3506815365467
-4804.8327137546266,1830.8550185873571,2320.3221809169672
-3100.9913258983761,1047.0879801734789,1895.9107806691395
-4975.2168525402558,2825.2788104089186,2682.7757125154808
-4002.4783147459557,-195.16728624535148,2688.9714993804114
-2781.9083023543863,557.62081784386601,3097.8934324659094
-2326.5179677818983,-2942.9987608426145,5517.3482032217889
1270.1363073110329,-3333.3333333333226,4876.0842627013444
-5746.5923172242674,-1886.6171003717438,3339.5291201982486
-2747.8314745972639,-1784.3866171003656,3909.5415117719813
-3330.2354399008523,-455.39033457248701,3385.9975216852463
-3974.597273853768,-2044.6096654275036,4557.0012391573609
-963.44485749690023,-5173.4820322180803,2664.1883519206831
-3252.7881040892066,644.3618339529138,2977.0755885997469
-3779.429987608416,312.88723667905862,3094.7955390334478
-3231.1028500619423,297.39776951673122,2221.1895910780572
-2363.6926889714919,-4460.9665427509171,4931.8463444857316
-2410.1610904584832,-238.53779429987654,3379.801734820313
-3271.375464684003,-415.11771995043381,2184.0148698884605
-2211.8959107806613,-433.70508054522685,2103.4696406443563
-1301.1152416356786,-1852.5402726146142,2673.4820322180808
-3348.8228004956518,12.391573729862053,2165.4275092936705
-991.3255992238777,-1465.3034439737698,1799.8765330105109
-4516.7286245353043,1093.5563816604672,2462.8252788104005
-2735.4399008673995,-2555.7620817843799,2338.9095415117608
-6390.9541511771795,2255.266418835186,1338.2899628252678
-3782.5278810408831,-1056.3816604708791,2366.7905824039585
-4169.7645600991173,749.69021065675224,2444.2379182156046
-4395.9107806691309,1889.7149938042098,2289.3432465923106
-4234.8203221808999,1013.0111524163559,2239.7769516728581
-3556.3816604708795,1037.7942998760682,2323.4200743494275
-5504.9566294919287,3008.0545229244067,2589.8389095415037
-3395.2912019826394,-272.61462205700019,2484.5105328376599
-700.12391573729269,-2475.2168525402622,3091.6976456009793
-4770.7558859975034,1462.205700123917,2050.8054522924344
-3100.9913258983793,-573.11028500619091,1081.1648079306026
-3965.3035935563657,9.2936802973959054,1871.1276332094083
-2431.8463444857407,-1499.3804213135031,1152.4163568773213
-5393.4324659231543,2345.1053283766996,687.73234200742911
-1868.029739776943,-3113.3828996282432,2908.9219330854921
-3014.250309789335,-1174.1016109045806,1171.0037174721137
-1403.3457249070611,-3063.8166047087911,1710.03717472118
-2537.1747211895822,-21.685254027260491,2431.846344485743
-3435.5638166046956,941.75960346963905,1756.5055762081713
-1998.1412639405107,-343.86617100371581,1945.4770755885945
-3556.3816604708704,139.40520446096562,1158.6121437422435
-3073.1102850061829,2159.2317224287476,591.69764560098167
-3426.2701363072997,-1118.3395291201919,4244.1140024783017
-647.45972738537728,-3884.7583643122612,1397.1499380421224
-4089.2193308550027,281.90830235440228,3739.157372986359
-3630.731102850049,1369.2688971499356,1530.3593556381595
-2912.0198265179565,427.50929368029796,2026.0223048327073
-3890.9541511771827,724.90706319702679,1301.1152416356776
-2605.3283767038261,-947.9553903345693,3070.0123915737195
-2874.8451053283661,-1375.4646840148644,3215.6133828996176
-1431.22676579925,123.9157372986415,2038.4138785625673
-4801.7348203221636,-167.28624535315672,3940.5204460966384
-4473.3581164807811,-1260.8426270136281,148.69888475835589
-3587.3605947955257,662.94919454770604,2438.0421313506786
-1363.0731102849966,-219.95043370507642,1957.8686493184614
-1394.0520446096607,-4312.2676579925546,2927.5092936802853
-4705.7001239157207,1239.1573729863669,4002.4783147459616
-5223.0483271375288,2822.1809169764492,1279.4299876084217
-5089.838909541495,1003.7174721189577,3404.5848822800385
-1149.3184634448514,-1313.5068153655473,-923.17224287485112
-3277.5712515489399,-755.88599752168261,3144.3618339529007
-5040.2726146220411,2060.0991325898326,1846.3444857496829
-4287.4845105329086,-467.78190830239652,4426.889714993662
-3410.7806691449732,306.69144981412541,-300.49566294919777
-2162.3296158612038,-2750.9293680297328,2785.006195786852
-1672.8624535315917,-1471.4993804213061,3051.4250309789254
-2623.9157372986292,-61.957868649319693,1960.9665427509208
-4711.8959107806522,-216.85254027261408,3863.0731102849963
-3193.9281288723564,-198.26517967781652,1508.6741016108981
-3550.1858736059335,-399.62825278810067,4052.0446096654146
-2698.2651796778105,-1991.9454770755801,3423.1722428748303
-1855.6381660470822,-1267.0384138785589,1759.6034696406359
-2750.9293680297269,604.08921933085605,1390.9541511771911
-2611.5241635687621,433.70508054523378,2372.9863692688837
-1957.8689456170277,-2137.5464684014792,4699.504139518408
-3197.0260223048213,114.62205700124207,3962.2057001239091
-1771.9950433705014,-687.73234200742968,2342.0074349442325
-2778.8104089219237,1830.8550185873567,545.22924411399708
-2419.4547707558791,-2208.7980173481938,2809.7893432465839
-2970.8798017348063,604.08921933085526,2115.8612143742171
-1270.1363073110215,-1957.8686493184528,2608.4262701363
-2506.1957868649197,-204.46096654275019,2314.1263940520375
-3565.6753407682622,-1877.3234200743445,4358.7360594795409
-3283.767038413861,2617.7199504337004,-309.78934324659662
-3441.7596034696257,40.272614622059464,2695.167286245342
-3283.7670384138678,-1096.6542750929332,1468.4014869888456
-2075.5885997521609,-796.15861214373967,938.66171003716636
-2057.0012391573641,-2032.218091697639,2518.5873605947791
-3051.4250309789245,9.2936802973937951,-452.29244114002796
-1635.687732342001,-501.8587360594766,1753.4076827757081
-6028.5006195786655,4154.275092936794,3519.2069392812823
-4225.5266418835063,9.2936802973963282,2280.0495662949088
201.36307311029108,-2280.0495662949097,1093.5563816604661
-2490.7063197025968,-1793.6802973977649,-712.51548946716946
-5151.7967781908064,3918.835192069384,743.49442379181676
-1858.7360594795459,-3568.773234200733,2218.091697645591
-4089.2193308550054,1239.1573729863635,1053.2837670384074
-2933.7050805452204,-2078.6864931846294,3841.3878562577333
-2050.8054522924303,-746.5923172242816,3150.5576208178309
-1081.1648079305974,-1090.4584882279987,1604.7087980173383
-2335.8116480792992,-718.71127633209312,2245.9727385377873
-4485.7496902106432,-681.53655514249988,3175.3407682775583
-6133.828996282512,2428.7484510532777,2360.5947955390252
-1189.5910780669089,-2010.5328376703767,2986.3692688971387
-1223.6679058240329,-3187.7323420074258,3900.2478314745858
-920.07434944237355,-1589.2193308550131,2484.5105328376594
-4399.0086741015957,-851.92069392812539,4662.3296158611956
-3197.0260223048199,-1226.7657992565009,1784.3866171003644
-2258.4097079235084,-2971.0343759328375,4209.336707812281
-2478.3147459727306,-867.41016109045813,1310.4089219330745
-2946.0966542750803,-929.36802973977092,2394.6716232961448
-3791.8215613382799,-1319.7026022304799,3023.5439900867282
-2530.9789343246493,1183.3952912019824,1307.311028500613
-4262.7013630730926,2298.6369268897101,2323.4200743494316
-5006.1957868649188,-2890.3345724906958,4253.4076827756908
-4086.1214374225397,-470.87980173481793,2515.489467162316
-3853.7794299875964,-1731.7224287484444,1626.3940520446006
-2419.4547707558745,-2245.9727385377846,3234.2007434944121
-3060.7187112763231,-1775.0929368029688,3429.3680297397723
-2958.4882280049478,-864.31226765798817,1177.1995043370393
-1781.2865899167307,-3317.8417033232231,3503.7197125576699
-1356.8773234200673,-2834.5724907063127,3828.9962825278658
-2654.8946716232858,-1685.2540272614547,3355.0185873605865
-3859.9752168525279,2022.9244114002461,1505.5762081784355
-2035.315985130102,-814.74597273853624,1914.4981412639361
-4281.2887236678953,185.87360594795518,2125.1548946716075
-3525.4027261462061,-1359.9752168525424,-142.50309789343822
-5731.1028500619395,254.0272614622053,2038.413878562573
-2128.2527881040824,-2078.686493184628,1614.0024783147371
-2320.3221809169668,-638.16604708797377,3469.6406443618189
-2651.7967781908192,-1641.8835192069321,3153.6555142502984
-3686.4931846344375,-1013.0111524163531,3578.0669144981257
-4368.0297397769291,2754.0272614621999,1353.7794299876052
-3429.3680297397668,-2766.4188351920648,1638.78562577446
-1799.8760842626923,-2657.9925650557534,3370.5080545229112
-1301.1152416356779,-1301.1152416356824,2589.8389095415032
-5839.5291201982482,641.2639405204452,2583.643122676569
-2202.6022304832645,-433.70508054522389,1009.9132589838877
-3184.6344485749601,418.21561338290121,1236.0594795538952
-1595.4151177199431,-1889.7149938042046,1895.9107806691359
-3401.4869888475732,-86.741016109046328,-86.741016109047038
-2884.138785625767,-1118.3395291201959,2450.4337050805343
-5374.8451053283625,1669.76456009913,3581.1648079305942
-920.07434944237332,-3125.7744733581053,3457.2490706319609
-3423.172242874833,-3534.6964064436065,6548.946716232942
-2007.4349442379091,-864.31226765798772,2366.7905824039576
-195.16728624534963,-2060.0991325898358,2057.001239157365
-1982.6517967781829,-1452.9120198265143,1468.4014869888347
-2407.0631970260133,-114.6220570012363,1852.5402726146183
-4086.1214374225369,-1189.5910780669085,4522.9244114002331
-2939.900867410156,-1490.0867410161056,1378.5625774473247
-4501.2391573729747,2496.9021065675306,436.8029739776909
-2044.6096654275052,-2772.6146220569949,1214.3742255266382
-3051.425030978925,-978.93432465923229,-99.132589838914996
-1363.073110285,-4268.8971499380332,1669.7645600991216
-2230.4832713754572,-672.24287484510216,1762.7013630731014
-2118.9591078066851,-762.08178438661139,1905.2044609665329
-2122.0570012391495,-1517.9677819082985,-418.21561338290348
-4166.6666666666542,-1877.32342007434,4770.7558859975043
-1815.3655514250245,-1003.7174721189554,2692.0693928128785
-3822.8004956629388,-105.3283767038449,1211.2763320941681
-1486.9888475836367,-1601.6109045848764,3925.0309789343141
-684.63444857496449,-2549.5662949194475,3447.9553903345686
-2214.9938042131239,-368.64931846344086,2199.5043370507979
40.27261462206075,-1449.8141263940456,1291.8215613382868
-1245.353159851295,-3206.3197026022208,5154.894671623284
-3509.9132589838814,-1886.6171003717427,3327.1375464683883
-3392.1933085501769,755.88599752168398,1982.6517967781826
-1917.5960346963964,-130.11152416356535,2410.1610904584772
-3565.6753407682622,1115.2416356877295,1539.6530359355545
-2007.4349442379109,-1579.9256505576166,2933.7050805452213
-3649.3184634448435,656.75340768277351,1050.1858736059451
-2658.1235322681237,-718.92060323808028,1124.4462141539566
-4845.1053283766887,145.60099132590059,3863.0731102849945
-1353.7794299875982,-566.91449814126099,1629.4919454770722
-5570.0123915737167,1298.0173482032155,250.92936802973676
-3751.5489467162242,-1995.0433705080522,1109.0458488227891
-4965.9231722428631,892.19330361259961,2633.2094175960256
-4126.394052044594,-619.57868649317834,4045.8488228004799
-2840.7682775712433,399.62825278810391,2255.2664188351823
-2314.1263940520375,-2416.3568773234138,3500.6195786864778
-1084.2627013630661,-622.67657992565,1648.0793060718634
-3082.4039653035825,-1347.5836431226703,4259.6034696406332
-5322.1809169764329,1496.2825278810399,3692.6889714993727
-3398.3890954151057,-1133.8289962825227,1895.9107806691336
-1564.436183395286,526.64188351920927,2348.2032218091636
-5201.3630731102685,2438.0421313506763,1548.9467162329572
-1198.884758364306,-1877.3234200743407,2781.9083023543894
-83.643122676572588,-2242.8748451053143,3872.3667905823922
-2456.629491945464,164.18835192069577,1837.0508054522859
-3246.5923172242774,-1545.8488228004874,1728.6245353159793
-4312.2676579925528,666.04708798017134,1849.4423791821509
-489.4671623296137,-3327.1375464683942,2372.9863692688859
-2174.7211895910687,-768.27757125154892,2645.6009913258936
-2193.3085501858632,21.685254027261195,1279.4299876084208
-709.41759603468813,-703.22180916976265,1521.06567534076
-3633.8289962825165,-2060.0991325898308,4271.9950433704907
-5133.2091534174169,799.25677585124038,3296.1587909723244
-1998.141263940515,-1514.8698884758344,4364.9318463444752
-5418.2156133828857,-2614.6220570012315,4718.0916976455856
-6040.8921933085294,4036.5551425030899,2688.9714993804191
-1068.7732342007341,-656.75340768277044,2403.965303593548
-2410.1610904584791,672.24287484510717,1713.1350681536444
-1607.8066914498072,-3305.4522924411322,2103.4696406443509
-4135.6877323419967,647.4597273853766,985.13011152415731
-1369.2688971499324,-1127.6332094175923,-805.4522924411441
-3627.6332094175855,-644.36183395290868,2549.5662949194457
-3853.7794299875959,-133.20941759603255,2131.3506815365463
-1421.9330856673396,-2103.4696408512141,1490.0867410160997
-3968.4014869888356,-2084.8822800495609,3717.4721189590964
-3801.1152416356745,331.47459727385348,904.58488228003728
-3602.8500619578567,-1610.9045848822766,799.25650557619565
-4030.359355638157,-1263.9405204460927,4696.406443618328
-2131.3506815365454,-1939.2812887236669,858.1164807930511
-3667.9058240396425,-944.85749690210264,3478.9343246592184
-1908.3023543989998,110.2004674085924,1942.3791821561281
-1378.5625774473297,-312.88723667905521,1387.856257744729
-3376.7038413878445,232.34200743494304,257.1251548946716
-1998.1412639405175,-1387.8562577447292,3051.4250309789236
-4649.9380421313354,-130.11152416356759,3193.9281288723519
-2785.0061957868566,3.097893432464176,1298.0173482032174
-5718.7112763320783,-1446.7162329615842,2283.1474597273727
-3692.688971499369,1694.5477075588583,1090.4584882280017
-1319.7026022304742,-2530.978934324653,2716.8525402726109
-1548.9467162329545,-1576.8277571251483,3023.5439900867332
-3875.4646840148539,2239.776951672859,1951.672862453526
-5563.8166047087789,2589.8389095415091,2589.8389095415037
-1586.121437422546,-1288.7236679058158,1288.7236679058212
-7143.7422552664038,2019.8265179677744,1387.856257744726
-2307.9306071871074,-2270.7558859975161,743.49442379181153
-4306.0718711276177,2741.635687732336,1440.5204460966481
-3218.711276332082,-1062.577447335809,2986.3692688971382
-415.11771995042926,-5213.7546468401315,4566.2949194547555
-2125.1548946716171,-1127.6332094175923,1090.4584882279969
-2788.10408921932,-947.95539033456816,1366.1710037174626
-3426.2701363072983,-650.55762081784076,3345.7249070631847
-1068.7732342007339,-3779.4299876084115,4653.0359355637993
-3540.8921933085339,1310.4089219330817,1456.0099132589773
-5786.8649318463222,-89.838909541510787,4374.225526641867
-3336.4312267657888,418.21561338290064,2385.3779429987508
-6397.1499380421128,-2537.174721189584,5724.9070631970062
-2902.7261462205533,1443.618339529118,1933.0855018587276
-4281.2887236678953,-1536.5551425030956,1016.109045848815
-1263.9405204460911,-2289.3432465923088,3726.7657992564932
-4473.3581164807802,1223.6679058240363,851.92069392812232
-1341.3878562577349,-1886.6171003717386,1846.3444857496804
-1533.4572490706232,-2118.9591078066865,2704.460966542742
-5870.5080545229039,2050.805452292439,2936.802973977683
-4210.0371747211775,-1288.7236679058228,3413.8785625774317
-3299.2565055761952,-1090.4584882280019,2887.2366790582305
-5096.0346964064247,2072.4907063196988,1539.6530359355563
-1096.65427509293,-1087.3605947955339,2162.3296158612061
-1322.8004956629429,-2196.4064436183303,4095.4151177199392
-4826.5179677818896,1118.339529120198,3045.229244113993
-517.34820322180542,-2989.4671623296076,3921.9330855018493
-3085.5018587360482,-1428.1288723667897,1775.0929368029697
-4575.5885997521573,1248.4510532837644,1477.695167286239
-3739.1573729863512,1040.8921933085521,4343.246592317214
-2620.8178438661571,-288.10408921932793,3478.9343246592239
-3271.3754646840048,-300.49566294919441,1905.20446096654
-2087.9801734820198,-1053.2837670384088,2345.1053283766964
-3918.8351920693808,-80.545229244112349,3983.890954151163
-4640.6443618339381,678.4386617100364,3776.3320941759453
-1945.4770755885902,789.96282527881249,1251.5489467162292
-5315.9851301115114,74.349442379179351,1583.02354399008
-4504.3370508054368,-755.88599752168386,3333.3333333333221
-7140.6443618339335,3125.774473358108,1378.5625774473274
-5675.3407682775523,3599.7521685253969,2280.049566294912
-3705.080545229232,-712.51548946715707,3435.5638166046961
-2992.5650557620706,-1657.3729863692656,820.94175960346377
-4389.7149938041985,895.29120198265127,3584.2627013630645
-5656.7534076827569,2785.006195786862,1892.8128872366742
-5328.3767038413735,672.24287484510126,1552.0446096654175
-1737.9182156133704,-851.92069392812232,2431.8463444857407
-3859.9752168525265,-458.48822800495452,2382.2800495662877
-3389.0954151177075,-334.57249070631696,2109.6654275092847
-5808.5501858735824,-2840.7682775712433,6099.7521685253823
-2218.0916976455901,-1319.7026022304776,3159.8513011152354
-1846.3444857496804,-1236.0594795538989,442.99876084262178
-5164.1883519206776,1452.9120198265152,2338.9095415117622
-5520.4460966542556,2524.7831474597256,2868.6493184634328
-1040.8921933085414,-1201.9826517967717,4036.5551425030899
-1905.2044609665352,551.42503097893382,1260.8426270136194
-5681.5365551424884,455.39033457248752,-198.2651796778255
-3308.5501858735938,-210.65675340768061,3051.4250309789222
-2685.8736059479456,-1013.011152416355,2853.1598513011122
-2484.5105328376599,-731.10285006195602,2961.5861214374099
-1685.2540272614569,-1248.4510532837614,3457.2490706319604
-5254.0272614621881,2868.6493184634382,2255.266418835185
-2125.1548946716143,-2283.1474597273759,1635.6877323419976
-3438.6617100371618,250.9293680297443,2995.6629491945432
-889.09541511771442,-3376.7038413878458,4522.9244114002331
-4919.454770755875,520.44609665426788,576.20817843865905
-2791.2019826517849,390.33457249070352,-2156.1338289962855
-1363.073110285,-4005.576208178426,3810.4089219330667
-2719.9504337050689,-1697.6456009913188,1722.4287484510446
-3283.7670384138646,851.92069392813107,2165.4275092936705
-2942.9987608426213,-1229.8636926889712,3004.9566294919359
-3026.6418835191935,-65.055762081778809,3020.446096654267
-508.05452292440737,-3525.4027261462097,1632.589838909533
-3035.9355638165989,-526.64188351920586,2630.1115241635612
-4646.8401486988723,170.38413878562415,1084.2627013630679
-4265.7992565055656,-740.39653035935305,3782.5278810408781
-5684.6344485749523,1623.2961586121407,3296.1586121437267
-3258.98389095414,1298.0173482032174,1344.4857496902082
-5467.7819083023351,2295.5390334572467,2115.8612143742184
-3661.7100371747119,-1208.1784386617067,2521.6852540272534
-3571.8711276331965,-37.17472118958834,1672.8624535315882
-5235.4399008673963,-1.8647388466066847e-12,2026.0223048327064
-3364.3122676579778,-1871.1276332094105,5083.6431226765626
-3190.8302354398875,353.15985130111608,1341.3878562577365
-1359.9752168525338,-3804.2131350681457,4426.8897149937884
-752.78810408921481,-879.80173482031637,2280.0495662949147
-1065.6753407682693,-1558.2403965303527,2289.3432465923088
-4219.3308550185748,-666.04708798017703,1759.6034696406305
-3825.8983890954069,-4126.394052044604,1155.5142503097775
-514.25030978934092,-2527.881040892185,2763.3209417595922
-1328.9962825278742,-1517.9677819082974,2307.9306071871029
-3364.3122676579783,-495.66294919454316,4120.1982651796643
-2788.1040892193209,-1573.7298636926871,3135.0681536554994
-3317.843866170992,-907.68277571251053,3426.2701363072974
-1124.5353159851254,-2385.3779429987494,2478.314745972727
-5281.9083023543881,-1322.8004956629463,2438.0421313506681
-3813.5068153655393,-381.04089219330473,1784.386617100356
-4321.5613382899464,-461.58612143741897,4674.7211895910632
-3494.4237918215504,-1858.736059479548,5817.8438661709888
-1741.0161090458425,-3770.1363073110192,3026.6418835191967
-2137.5464684014755,-288.10408921932799,1976.4560099132523
-3810.408921933074,-1341.3878562577418,3128.8723667905733
-1462.2057001239045,-539.03345724906808,2400.8674101610854
-4572.4907063196897,1548.9467162329574,2001.2391573729815
-2645.6009913258836,1548.9467162329606,2605.3283767038374
-3460.3469640644257,706.31970260222511,2214.9938042131253
-4470.2602230483089,1031.5985130111533,2744.7335811647999
297.39776951673332,-312.88723667905435,3553.2837670384047
-2565.0557620817763,43.370508054522112,1536.5551425030922
-4176.5043186541452,1244.8011210203197,2764.066031652027
-2862.4535315985008,-2227.3853779429942,709.4175960346912
-1375.4646840148655,-3228.0049566294815,5021.6852540272503
-5684.6344485749532,1486.9888475836387,1226.7657992564978
-2586.7410161090384,520.44609665427436,1496.282527881033
-2797.3977695167232,-1521.0656753407679,597.89343246591534
-3066.9144981412524,-687.73234200743127,3376.7038413878468
-3708.1784386617001,-802.35439900867141,1446.7162329615767
-2558.8599752168461,-1493.1846344485712,1136.9268897149821
-1960.9665427509215,-3197.0260223048258,2283.1474597273741
269.51672862453813,-3358.1164807930495,1003.7174721189459
-2785.006195786852,960.3469640644322,706.31970260222351
-4386.6171003717318,687.7323420074332,1675.9603469640529
-2087.9801734820244,-123.9157372986308,1496.2825278810326
-975.83643122676312,-2026.0223048327032,1592.3172242874737
-3130.2107609835848,-66.199788666721219,2690.3422634037242
-3562.5774473357988,793.06071871127506,2335.8116480792983
-1524.1635687732251,-529.73977695166911,1369.2688971499297
-2428.7484510532695,1982.651796778189,1747.2118959107709
-3190.8302354398875,-216.85254027261112,3336.4312267657883
-2719.9504337050676,278.81040892193613,2905.82403965303
-2193.3085501858645,-3943.6183395291087,5192.0693928128721
-3757.744733581208,991.32589838904835,2459.7273853778929
-1127.6332094175918,-1477.6951672862415,1614.0024783147362
-2255.2664188351887,-2376.0842627013581,3082.403965303587
-5024.783147459716,-532.83767038413964,2664.1883519206831
-3547.0879801734727,-1706.9392812887197,1511.7719950433598
-944.85749690209923,-1105.9479553903316,1242.2552664188277
-3500.6195786864805,-1929.9876084262667,2146.8401486988778
-3624.5353159851206,-1471.4993804213091,944.85749690209786
-1016.109045848817,-2973.9776951672766,3324.0396530359217
-4138.7856257744588,814.74597273853624,1880.4213135068046
-1524.163568773228,-5266.4188351920557,5061.9578686492996
-1796.7781908302304,-2763.3209417595999,1084.2627013630672
-3754.6468401486832,43.370508054523377,2013.6307311028461
-4730.4832713754477,3302.3543990086678,1390.9541511771936
-3342.6270136307185,-1809.1697645600927,2837.6703841387739
-4160.4708798017218,879.80173482031898,1750.3097893432368
-2874.8451053283634,-2069.3928128872326,2772.6146220569822
-3785.6257744733434,-430.60718711276058,4179.0582403965163
-3246.5923172242742,105.32837670383884,2171.6232961586061
-5015.4894671623151,836.4312267657989,3258.9838909541409
-2637.9682690358295,-1659.1867932729804,2581.3300093780094
-1592.3172242874737,749.69021065675281,1985.7496902106525
-5027.881040892179,30.978934324657523,1347.5836431226687
-2893.432465923162,-291.20198265179567,2366.7905824039576
-703.22180916976174,-2419.4547707558781,1384.75836431226
-5207.5588599752,616.48079306071611,2555.7620817843735
-2704.4609665427424,-430.60718711276184,2732.3420074349324
-4101.6109045848707,-762.08178438661434,1911.4002478314644
-2877.9429987608341,-136.30731102849765,3636.9268897149841
-2630.1115241635616,34.076827757127752,2289.3432465923079
-5480.1734820322054,3048.3271375464619,2112.7633209417509
-2831.4745972738478,-3392.1933085501796,2453.531598513006
319.08302354399336,-827.13754646839345,1747.2118959107743
-4160.4708798017173,-1260.8426270136242,4532.2180916976304
-1270.1363073110192,-1657.372986369262,3206.3197026022185
-1995.0433705080454,-3379.8017348203107,4271.9950433704935
-3801.1152416356772,-40.272614622054625,1409.5415117719945
-4027.2614622056858,2032.2180916976415,1483.8909541511766
-4033.4572490706182,-1074.9690210656722,3364.312267657981
-4222.4287484510351,-1167.9058240396457,4721.1895910780513
-4677.819083023528,1136.9268897149936,597.89343246591386
-684.63444857496006,1431.2267657992595,1356.8773234200635
-2732.3420074349333,-1710.0371747211836,439.90086741016182
-3395.2912019826376,-303.59355638165772,3091.6976456009793
-5176.579925650537,1220.5700123915706,3085.5018587360487
-2856.2577447335684,-117.71995043370347,3519.206939281275
-1775.0929368029672,-1502.478314745965,3110.2850061957756
-3395.2912019826422,-1759.6034696406407,3767.0384138785498
-2676.5799256505506,-1644.9814126394024,3565.6753407682727
-2558.8599752168461,-1607.8066914498067,1372.3667905823972
-5297.3977695167123,1620.1982651796739,1579.9256505576154
-1133.8289962825256,-2565.0557620817767,1802.9739776951585
-1149.3184634448519,-3324.0396530359249,3832.094175960342
-2757.1251548946598,-910.78066914497811,1316.6047087980062
-3547.0879801734636,2747.8314745972712,1521.0656753407627
-5173.4820322180758,1102.8500619578704,2490.706319702595
-1257.7447335811576,-1186.4931846344455,2407.0631970260156
-5145.6009913258831,3965.3035935563721,1434.3246592317084
-6843.246592317204,3609.0458488227937,1164.8079306071804
-2453.5315985130046,-3925.030978934315,3224.9070631970148
-864.31226765798567,-1555.1425030978887,2710.6567534076735
-3785.6257744733462,-2022.9244114002447,969.64064436182332
-2961.5861214374104,-461.58612143742329,2032.2180916976379
-3807.3110285006128,257.12515489467319,3404.5848822800449
-2791.2019826517844,446.09665427509231,2456.6294919454695
-2902.7261462205593,-588.59975216852411,2630.1115241635594
-2261.4622057001152,-201.36307311028193,2376.0842627013549
-1047.0879801734743,-1635.6877323420001,3794.9194547707398
-3627.6332094175859,381.04089219330996,3711.2763320941694
-2397.7695167286165,-1192.6889714993754,1502.4783147459646
-3277.5712515489363,-1592.3172242874812,545.22924411399504
-2636.3073110284922,241.6356877323438,1747.2118959107727
-2208.7980173481915,-749.69021065674951,2747.8314745972643
-3215.6133828996135,-697.02602230482773,3553.2837670384083
-2915.1177199504227,-1403.3457249070611,3711.2763320941635
-526.64188351920518,-4845.1053283766896,4674.7211895910623
-1861.8339529120153,-2893.4324659231643,3921.9330855018493
-2512.3915737298576,-3413.878562577439,1675.960346964056
-2543.3705080545142,-3482.0322180916855,4392.8128872366651
-2673.4820322180808,-346.96406443617821,4950.4337050805361
-3237.2986369268797,-263.32094175960333,2469.0210656753334
-4749.0706319702458,610.28500619578745,2682.7757125154794
-1384.7583643122618,-2394.6716232961517,2512.3915737298566
-867.41016109045665,-4609.6654275092787,3618.3395291201823
-3714.3742255266284,-879.80173482031978,2351.3011152416207
-4990.7063197025818,4151.1771995043291,712.5154894671557
-3274.4733581164733,188.97149938042105,-96.034696406448987
-3358.1164807930513,-514.25030978934228,1629.4919454770661
-3361.214374225518,-179.67781908302314,2072.4907063196965
-4411.4002478314596,1614.002478314741,1883.5192069392774
-2729.2441140024694,-2521.6852540272553,4039.6530359355538
-2053.9033457248961,-898.38909541511248,-18.587360594797442
-2196.4064436183298,-898.38909541511396,3770.1363073110151
-2983.2713754646743,1502.4783147459727,1375.4646840148635
-2304.8327137546344,-545.22924411400095,-412.01982651797312
-3091.6976456009784,1787.4845105328345,1254.6468401486923
-2180.9169764560002,-932.46592317224054,2357.4969021065626
-2726.1462205700027,-693.928128872363,2661.0904584882173
-2726.1462205700022,-2741.6356877323328,2379.1821561338184
-3187.732342007419,-1118.3395291201928,1248.4510532837596
-3540.8921933085417,504.9566294919415,-303.59355638166829
-4166.6666666666488,-269.5167286245325,3364.312267657976
-2822.1809169764492,-3200.1239157372879,5049.5662949194384
-2986.3692688971419,-1806.0718711276286,173.48203221809013
-3426.2701544141778,1960.9665238392934,678.43864400553218
-5362.4535315984949,-898.38909541511657,1734.8203221809047
-1771.9950433704976,-461.58612143741743,2983.2713754646743
-1251.5489467162258,96.03469640644758,746.59231722428081
-4399.0086741016021,1081.1648079306046,1908.302354399005
-4188.3519206939163,328.37670384138522,2286.2453531598453
-1152.416356877316,244.73358116481009,2853.1598513011077
-3026.641883519193,-2744.7335811647981,5216.8525402726009
-2075.5885997521623,-2115.861214374218,3894.0520446096525
-2515.4894671621969,-1375.4646840147293,2174.7211895912496
-2540.272614622048,-1186.4931846344446,1892.8128872366744
-4851.3011152416211,2026.0223048327107,1796.7781908302293
-2490.70631970259,1096.6542750929361,724.90706319702224
-2060.099132589829,-424.41140024782686,3255.8859975216737
-3844.4857496901932,687.73234200743389,3497.5216852540188
-4045.8488228004821,-1976.4560099132502,4993.8042131350494
-3162.9491945476934,2115.8612143742216,1260.8426270136254
-765.17967781907669,-2214.9938042131289,4024.1635687732196
-5130.1115241635516,-532.8376703841393,247.83147459726581
-3674.1016109045686,421.31350681536395,3565.6753407682622
-4575.58859975215,-1998.141263940513,6087.3605947955193
-2385.3779429987521,-1019.2069392812847,2249.0706319702495
-2611.5241635687662,-343.86617100371581,1781.2887236679005
-2846.783650001325,-155.9925822524186,1850.109040116597
-3048.3271375464601,551.42503097893257,2819.0830235439867
-2989.4671623301292,127.01363073058066,-176.57992565108967
-2416.356877323411,-690.8302354398985,1648.0793060718636
-2692.0693928128726,-2781.9083023543908,5151.7967781908146
-2289.3432465923115,-1220.5700123915688,2791.2019826517903
-3410.7806691449728,-622.67657992564807,3029.7397769516651
-3435.5638166046979,752.78810408922152,2716.8525402726023
-1102.8500619578629,-997.52168525402453,1403.3457249070591
-3358.1164807930495,-3246.5923172242742,6009.9132589838746
-2295.5390334572403,-1335.1920693928055,4817.2242874845006
-4711.8959107806513,2057.0012391573682,1864.9318463444829
-4615.8612143742066,232.34200743494523,3881.6604708797886
-3330.2354399008559,1192.6889714993804,1301.1152416356892
-2995.66294919454,-1186.4931846344439,2317.2242874844969
-2952.2924411400177,164.18835192069423,2013.6307311028454
-944.857496902099,-3131.9702602230418,2639.405204460953
-3280.6691449814011,-1815.3655514250245,3643.1226765799133
-3859.9752168525224,1316.604708798018,2063.1970260222956
-2729.2441140024689,746.59231722428615,802.35439900867027
-3296.158612143734,-690.83023543989941,3454.1511771994947
-4668.5254027261299,-1728.6245353159793,5164.1883519206776
-2942.9987608426145,-1570.6319702602207,2967.7819083023442
-2912.0198265179561,433.70508054523219,2707.55885997521
-2032.2180916976349,-192.06939281288456,154.89467162328748
-1644.9814126393981,-3732.9615861214247,4594.1759603469482
-2534.076827757116,-597.89343246591943,3039.033457249061
-4631.3506815365399,-963.44485749690057,2710.6567534076667
-4572.4907063196897,402.72614622056597,1124.5353159851218
-2029.1201982651767,-4581.7843866170879,2692.0693928128721
-1576.8277571251442,-2704.4609665427429,4005.5762081784233
-1301.1152416356813,-793.06071871127233,2019.8265179677755
-3794.9194547707489,-1669.7645600991318,1905.204460966532
325.27881040892129,-3166.0470879801592,1722.4287484510423
-5216.8525402726,-2555.7620817843826,3692.6889714993613
-4699.504337050791,-6.1957868649303229,1449.8141263940452
-1267.0384138785557,-1868.0297397769459,2710.6567534076689
-2921.313506815357,-963.44485749690011,3293.0607187112641
-2345.1053283766923,89.838909541514795,2754.0272614621986
-2184.0148698884668,802.35439900867357,889.09541511771295
-3822.8004956629361,1508.6741016109008,1583.023543990076
-873.60594795538464,-2115.861214374218,1524.1635687732269
-3537.7942998760709,114.62205700123975,2115.8612143742184
-4306.0718711276213,1933.0855018587301,1359.9752168525345
-5889.0954151177002,2546.4684014869845,1601.6109045848741
-4247.2118959107693,1480.7930607187081,988.2280049566225
-4395.9107806691309,340.76827757125221,4408.3023543989993
-4194.5477075588433,-127.01363073110159,1982.6517967781792
-4185.2540272614533,-1043.9900867410122,3299.2565055762002
-1688.3519206939234,-3097.8934324659131,3878.5625774473228
-2890.3345724906949,-269.51672862453108,1976.4560099132518
-926.27013630730619,-5545.2292441139862,5570.012391573714
-3113.3828996282386,-941.75960346963791,3389.095415117707
-1068.7732342007375,-2314.1263940520394,1214.3742255266366
-1288.7236679058144,712.51548946716559,2239.7769516728586
-3522.3048327137449,-2007.4349442379103,4625.1548946716121
-1152.4163568773195,-2806.6914498141177,4200.7434944237757
-2961.5861214374113,-758.98389095414836,2654.894671623284
-2044.6096654275027,-133.20919175154535,390.33457249069801
-3271.3754646840034,-2639.405204460958,5185.8736059479379
-4092.3172242874675,-254.02726146220149,4144.9814126393912
-901.48698884757516,-2478.3147459727306,1945.4770755885879
-1864.9318463444806,-1443.6183395291162,2611.5241635687698
-3401.4869888475728,-312.88723667905543,2438.0421313506708
-1109.0458488227914,-1917.5960346963993,3317.8438661709934
-3565.6753407682622,120.81784386617549,2534.0768277571142
-2741.6356877323269,235.43990086741215,2661.0904584882173
-3602.8500619578545,319.083023543992,1762.7013630731039
-3723.6679058240279,-1570.6319702602175,4228.624535315972
-1208.1784482333724,-1979.5539071743844,1561.338289962817
-5232.3420074349278,1146.2205700123891,3203.2218091697541
-1849.4423791821469,-151.79677819083486,1192.6889714993767
-1415.7372986369201,148.69888475836237,1214.3742255266347
-597.89343246591943,-1728.624535315975,2896.5303593556264
-3293.0607187112673,343.86617140072224,-653.65551425031776
-1889.7149938042039,-957.24907063196429,566.91449814126372
-2140.644361833949,-2611.5241635687644,3094.7955390334514
-3364.3122676579787,-458.48822800495725,-331.47459727385893
-3609.0458488227855,117.71995043370639,4460.9665427509208
-1908.3023543990032,-1236.0594795539027,1105.9479553903268
-3351.9206939281212,-1635.6877323420026,2286.245353159838
-5430.6071871127488,2214.993804213128,2097.2738537794239
-3627.6332094175827,-49.566294919448914,3175.3407682775633
-2769.5167286245301,86.741016109045063,2332.7137546468352
-3767.0384138785503,-2729.2441140024744,1809.1697645600864
-3262.0817843866071,-789.96282527880908,3135.0681536555026
-2503.0978934324608,-1558.2403965303542,3014.250309789335
-2534.0768277571151,-2716.8525402726045,4089.2193308550031
-3683.3952912019708,1586.1214374225499,1548.9467162329533
-139.40520446096329,-2512.3915737298566,2276.9516728624453
-3937.4225526641767,-2586.7410161090388,2800.4956629491789
-1322.8004956629418,-1970.2602230483189,1502.4783147459648
-1967.162329615853,-1759.6034696406384,2958.4882280049496
-3240.3965303593413,-1697.64560099132,3457.2490706319545
-1933.0855018587256,-535.93556381659994,1378.5625774473265
-780.66914498140591,-1905.2044609665345,2106.5675340768153
-2781.9083023543881,74.349442379183216,2837.670384138783
-5198.2651796778073,1548.9467162329568,-724.90706319702963
-3760.8426270136124,34.076827757126061,3277.571251548939
-3863.0731102849923,-1623.2961586121387,4008.6741016108858
-3404.5848822800403,1164.8079306071882,2057.0012391573687
-4454.7707558859765,117.71995043370498,4064.4361833952812
-2707.5588599752105,-2134.4485749690125,2506.1957868649192
-3618.3395291201878,-133.20941759603289,3274.4733581164714
-2757.1251548946602,331.47459727385376,2326.5179677819037
-3513.0111524163513,80.545229244112207,1198.8847583643098
-3776.3320941759471,-1471.4993804213111,2431.8463444857443
-755.88599752167875,-34.076827757123105,901.48698884757573
-1877.3234200743464,-1654.2750929368012,2112.7633209417527
-3900.2478314745799,1682.1561338289937,2574.3494423791717
-2778.8104089219191,820.94175960347025,1363.0731102849984
-2961.5861214374136,-2332.7137546468321,4541.5117719950294
-2410.1610904584768,1071.8711276332101,3113.3828996282418
-1734.820322180906,-1437.4225526641824,2503.0978934324608
-2719.9504337050666,-108.42627013630434,2654.8946716232858
-5514.2503097893277,210.65675340768178,3779.4299876084124
-4349.44237918214,105.32837670384289,2648.6988847583575
-1710.0371747211846,-1781.2887236678966,3283.7670384138705
-3330.2354399008536,-470.87980173481685,2806.6914498141168
-4780.0495662949024,851.92069392812834,2326.5179677818978
-5096.0346964064311,802.35439900866993,120.81784386616029
-3001.858736059467,517.34820322181179,1871.1276332094139
-4321.5613382899473,-734.20074349442223,3698.884758364301
-2171.6232961586097,-3574.9690210656699,1486.988847583631
-3909.5415117719831,-43.370508054523093,3293.0607187112614
-2134.448574969012,-2227.3853779429942,3088.5997521685117
-3435.5638166047015,551.42503097893598,635.06815365550881
-3410.7806691449732,-1620.1982651796766,2307.9306071871001
-2087.980173482023,-2459.7273853779338,4114.0024783147319
-4021.065675340757,-2153.0359355638107,2530.9789343246484
-551.4250309789312,-5009.2936802973854,5083.6431226765644
-1926.8897149937984,-312.887236679056,1486.9888475836337
-3986.9888475836328,-2038.4138785625712,3968.4014869888342
-3751.5489467162211,-876.70384138785107,2066.2949194547618
-2732.3420074349392,-207.55885997521696,1843.2465923172192
-3983.8909541511625,-991.32589838909144,3897.1499380421192
-3801.1152416356736,873.60594795538839,1821.5613382899551
-3934.3246592317078,1006.8153655514226,1812.2676579925565
-1957.8686493184555,-3032.8376703841282,4033.4572490706164
-1242.2552664188267,390.33457249070523,666.0470879801677
-4372.8968660007531,-24.456556575813352,3460.0238452757098
-591.69764560098224,-4287.4845105328222,5371.7472118958931
-3367.4101610904504,-1074.9690210656729,907.68277571250803
-353.1598513011138,-3959.1078066914415,1914.4981412639293
-4247.2118959107656,1548.9467162329572,1675.9603469640556
-2301.7348203221786,-2153.0359355638093,2499.9999999999918
-2865.5514250309725,-1180.2973977695146,802.3543990086655
-2543.3705080545133,-1006.815365551421,3054.5229244113852
-3875.4646840148553,1409.5415117719951,3367.4101610904509
-2236.6790582403873,-1022.3048327137495,-464.68401486989438
-1341.3878562577338,511.15241635687721,700.12391573729758
-3162.9491945476952,613.38289962825672,1644.9814126393958
-1189.5910780669089,-4027.2614622056881,4814.1263940520266
-5173.4820322180794,-120.81784386617169,2865.5514250309684
-4696.4064436183253,-1093.5563816604704,2859.355638166036
-1675.9603469640549,-2190.210656753402,3296.1586121437317
-3082.4039653035843,895.29120198265252,337.67038413878015
-2199.5043370507919,309.78934324659144,1948.5749690210607
-1282.5278810408827,-3330.23543990086,3020.4460966542611
-4470.2602230483099,-1161.7100371747163,5291.2019826517781
-4866.7905824039535,-9.2936802973980175,2187.1127633209285
-2828.3767038413748,195.16728624535591,2165.4275092936714
-2614.6220570012242,597.89343246592432,1601.61090458487
-3110.2850061957774,136.30731102850197,2419.4547707558795
-5334.5724907063031,997.52168525402487,1908.3023543989996
-3736.0594795538905,1787.4845105328361,2280.049566294907
-5340.7682775712356,182.77571251548954,2137.5464684014778
-1657.3729863692631,-1000.6195786864879,2168.5254027261331
-2843.8661710037063,-1031.598513011151,2137.5464684014773
-2524.7831474597156,-356.25774473357774,2066.2949194547582
-5105.3283767038229,3035.9355638165985,659.85130111523836
-2369.8884758364215,-706.3197026022259,2540.2726146220471
-377.9429987608371,-2487.6084262701215,2679.6778190830141
-2515.4894671623174,-1954.7707558859918,3262.0817843866016
-3794.9194547707443,1409.5415117719906,2335.8116480792978
-4120.1987384926733,-920.07482016897416,3153.6551573257361
-3203.2218091697523,-935.56381660470402,3717.4721189590905
-3850.6815365551342,1970.2602230483219,1765.7992565055697
-2450.4337050805325,975.83643122676733,1053.2837670384051
-2605.3283767038351,-1703.8413878562496,1254.646840148692
-2949.1945477075487,300.49566294919384,1328.9962825278747
-4268.897149938025,1201.9826517967779,2558.8599752168411
-1180.2973977695106,-4021.065675340757,1648.0793060718595
-3695.786864931832,-1211.2763320941724,2958.4882280049533
-1521.0656753407643,-1644.9814126394006,-34.076827757129017
-4776.951672862434,1220.5700123915699,3156.7534076827665
-4290.5824039652898,-229.24411400247359,4420.6939281288587
-4532.2180916976295,-1267.038413878558,4485.7496902106404
-3029.7397769516633,-2410.1610904584836,1583.0235439900787
-3760.8426270136188,-2487.6084262701261,3900.2478314745854
-3475.8364312267522,597.89343246592375,659.85130111523665
-2326.5179677818983,-1130.7311028500571,3584.2627013630631
-5297.3977695167132,1177.1995043370453,-86.741016109046186
-3416.976456009902,-529.73977695167412,319.08302354398211
-2568.1536555142388,1579.9256505576157,1750.3097893432439
-3540.8921933085421,-2583.6431226765776,1685.2540272614547
-3094.7955390334441,1022.3048327137589,3531.5985130111408
-4089.2193308550027,2503.0978934324621,-65.055762081785133
-4265.7992565055656,1837.05080545229,2908.9219330854953
-2537.174721189579,495.66294919454742,1914.4981412639329
-2118.9591078066815,-2109.665427509286,3190.8302354398888
-1586.1214374225419,944.85749690210685,1638.7856257744675
-5145.6009913258831,2273.8537794299828,1403.345724907058
-1428.1288723667774,-123.91573729863249,1905.2044609665318
-5167.2862453531425,-1480.7930607187081,3330.2354399008523
-4473.3581164807747,-291.20198265179647,5517.3482032217971
-4529.120198265161,2072.490706319702,2397.7695167286161
-4268.8971499380286,972.7385377942993,27.88104089218772
-4355.6381660470697,-1700.7434944237855,5368.6493184634328
-3553.2837670384056,-740.3965303593551,-275.71251548947748
-3516.1090458488084,1440.5204460966543,1490.0867410161047
-1607.8066914498042,-1171.0037174721137,2063.1970260222975
-1127.6332094175903,-1991.9454770755849,1050.1858736059389
-4631.3506815365408,1601.61090458488,2159.2317224287385
-1833.9529120198151,-1347.5836431226712,3190.8302354398907
-5436.8029739776784,1013.011152416356,1713.1350681536455
-3999.3804213134995,-105.32837670383969,2472.1189591078
-5783.7670384138637,2050.8054522924353,2224.2874845105239
-2915.1177199504264,-988.22800495662693,3850.6815365551288
-6279.4299876084051,2942.9987608426213,1177.1995043370409
-3571.8711276331983,1425.0309789343221,2075.5885997521582
-2122.0570012391472,-1378.5625774473331,2487.608426270122
-5824.0396530359176,653.65551425030787,1530.3593556381561
-4563.1970260222897,1524.1635687732321,2806.69144981412
-3410.7806691449687,898.38909541512032,3630.7311028500544
-3729.8636926889562,1483.8909541511739,2295.5390334572385
-4135.6877323419958,-188.97149938042043,2850.0619578686365
-2211.8959107806627,-740.39653035935169,3224.9070631970199
-3178.4386617100258,-3023.5439900867345,2128.2527881040787
-2565.0557620817744,-127.01363073110286,-6.7552803499713868e-12
-2729.2441140024671,-43.370508054520137,1208.1784386617055
-2939.9008674101533,-1071.8711276332062,-83.643122676588206
-2131.3506815365463,-204.46096654274962,913.8785625774417
-2032.2180916976367,-1486.9888475836372,4380.4213135068039
-1133.8289962825236,-3847.5836431226639,3835.1920693927996
-5799.2565055761906,3088.5997521685149,687.73234200743104
-2242.8748451053179,-2568.1536555142411,2822.1809169764442
-2224.2874845105225,625.77447335811723,1220.570012391564
-1948.5749690210555,-734.2007434944187,2013.630731102842
-3435.5638166046942,-418.21561338289791,1604.7087980173426
-4079.92565055761,-1741.0161090458466,-201.36307311029756
-3773.2342007434854,-1000.6195786864931,638.16604708797047
-4179.0582403965136,2.9554351531124817e-12,4684.0148698884623
-2286.2453531598449,-402.72614622057091,-765.17967781908555
-6096.6542750929229,3974.5972738537703,570.0123915737239
-2053.903345724897,-2314.1263940520375,3001.8587360594656
-4488.847583643108,3063.8166047087934,1552.0446096654248
-3348.8228004956509,439.90086741016302,2444.2379182156087
-4504.3370508054377,1282.5278810408886,99.132589838903172
-2596.034696406437,504.95662949194428,-315.98513011152653
-4114.0029022679055,2283.1470357742087,1378.5621534941565
-2304.8327137546353,123.91573729863995,1960.9665427509219
-2574.3494423791749,-2094.1759603469573,3243.4944237918107
-3268.2775712515345,-913.87856257744147,2487.6084262701247
-3965.3035935563698,-938.66171003717454,2376.0842627013562
-2106.5675340768194,-1474.5972738537739,3079.3060718711113
-3088.5997521685117,920.07434944237855,2004.3370508054456
-4361.8339529120085,1697.6456009913225,3125.7744733581085
-3039.0334572490633,-83.643122676578642,2184.0148698884691
-4429.9876084262542,-114.62205700124011,123.9157372986315
-3190.8302354398875,-1499.3804213135008,2825.2788104089072
-2512.3915737298576,-2335.8116480793001,381.04089219330081
-4934.944237918201,532.83767038413873,1217.4721189591007
-4702.6022304832604,539.03345724907047,2862.4535315985049
-1338.2899628252728,-452.29244114001847,1555.1425030978839
-3615.2416356877229,-1093.5563816604683,3835.1920693928023
-1728.6245353159802,-4389.714993804203,4538.4138785625628
-3748.4510532837508,-1152.4163568773176,4526.022304832697
-4148.0793060718615,-1359.9752168525367,2846.9640644361702
-889.09541511771465,-1533.4572490706273,2134.4485749690139
-2499.9999999999909,288.1040892193339,2648.698884758358
-470.879801734816,-4495.0433705080386,4705.7001239157225
-2707.558859975205,-247.83147459727061,2230.483271375459
-2453.5315985130046,-2989.4671623296081,3980.7930607186995
-1855.6381660470793,1192.6889714993806,2540.2726146220498
-5963.4448574968856,1960.9665427509251,2822.1809169764451
-3125.7744733581071,-1697.6456009913238,393.43246592316484
-2372.9863692688873,164.18835192069506,2184.0148698884673
-2881.1253943440274,-474.06522878530279,2970.7926470501998
-2187.1127633209308,58.859975216854252,1446.716232961581
-3237.2986369268779,-3243.4944237918112,3320.9417596034546
-1843.2465923172144,-1174.1016109045802,1750.3097893432428
-2205.7001239157298,-830.23543990086296,2577.4473358116384
-4237.9182156133647,1920.693928128868,1623.2961586121357
-4718.0916976455865,1759.6034696406412,-179.6778190830303
-4699.5043370507929,2961.5861214374154,2007.4349442379134
-1335.1920693928075,-3113.3828996282477,2704.4609665427402
-4910.1610904584704,-882.89962825278758,2276.9516728624385
-3457.2490706319609,-1672.8624535315944,3915.7372986369182
-3355.0185873605851,15.489467162329607,2704.4609665427452
-2345.1053283766882,1533.4572490706325,2952.2924411400181
-1837.0508054522827,-2382.2800495662873,2939.9008674101487
-1242.2552664188288,-1502.4783147459655,3181.5365551424925
-1964.0644361833877,-1654.2750929367971,1737.9182156133759
-322.18091697645224,-4237.9182156133693,4504.3370508054413
-3305.4522924411308,-1276.3320941759628,219.95043370507528
-5325.278810408905,1923.7918215613379,3296.1586121437317
-3497.5216852540116,1895.9107806691434,1034.6964064436152
-1558.2403965303561,-3107.1871127633131,631.97026022304124
-2884.1432908090728,-306.69783215714875,2122.0506188961258
-1700.7434944237791,-820.94175960346104,4569.392812887223
-3825.8983890954,260.22304832714053,2515.4894671623224
-5365.5514250309661,1338.2899628252744,2930.6071871127579
-2719.9504337050744,805.45229244113818,-408.92193308550543
-6084.2627013630554,1790.5824039652987,2713.7546468401365
-4021.0656753407543,-647.45972738537569,1976.4560099132477
-3200.1239157372852,-97.894901465278025,2729.2441140024675
-1350.6815365551347,-5315.9851301115077,6248.4510532837467
-3153.6555142502989,-693.92812887236437,2323.4200743494325
-1474.5972738537714,-910.78066914497299,2930.6071871127574
-2032.2180916976392,-3100.9913258983861,272.61462205699218
-1177.1995043370455,-2961.5861214374104,3748.4510532837539
-2295.5390334572394,-1415.737298636923,2450.4337050805352
-3838.2899628252649,-2165.4275092936746,3609.0458488227832
-1425.0309789343171,-2980.173482032209,3503.7174721189472
-2822.1809169764429,235.43990086740897,-148.69888475836939
-5043.3705080545096,666.04708798017396,3221.8091697645532
-2973.9776951672734,-758.98389095414711,1824.659231722419
-2214.9938042131239,-662.94919454770479,2682.7757125154803
-2487.6084262701229,1177.19950433705,1177.1995043370459
-2853.1965365771412,-703.09762385926808,3170.5420019329918
-1833.9529120198158,-312.88723667905333,2490.706319702595
-2580.5452292441082,-799.25650557620418,1474.5972738537687
-3311.6480793060614,1490.0867410161052,1421.9330855018529
-3317.8438661804516,2301.7348203127185,1703.8413878562526
-1279.4299876084181,994.42379182156299,346.96406443617786
-3385.9975216852395,337.67038413878743,3367.4101610904463
-4197.6456009913127,-731.10285006195465,4646.8401486988723
-3224.9070631970139,-1201.9826517967776,1979.5539033457176
-1009.9132589838836,-3993.1846344485643,1979.5539033457187
-5498.7608426269935,461.58612143742221,1332.0941759603363
-2760.2230483271246,-2214.9938042131303,4169.7645600991154
-1548.9467162329515,-1409.5415117719872,3125.7744733581085
-2512.391573729853,-1158.6121437422519,1310.4089219330738
-4107.8066914498013,944.85749690210548,2549.5662949194498
-4498.1412639405062,1344.485749690205,1710.0371747211827
-5058.8599752168411,-1787.484510532835,1223.6679058240286
-1561.3382899628205,-728.00495662948879,715.61338289962441
-3841.3878562577324,343.86617100371672,2704.4609665427442
-3962.2057001239032,-1322.8004956629457,2995.6629491945332
-2970.8798017348122,-1192.6889714993754,3565.6753407682681
-3630.731102850044,96.034696406451673,4526.0223048327016
-1124.535315985125,-4083.0235439900716,3890.9541511771849
-982.03221809169338,-2939.9008674101497,1248.4510532837571
-1973.3581164807842,947.95539033457567,2413.258983890948
-2980.1734820322094,250.92936802973708,548.32713754646124
-1957.8686493184543,-3925.0309789343128,3596.6542750929216
-5913.878562577429,2214.9938042131307,2391.57372986368
-3125.7744733581035,-102.23048327137509,312.88723667904759
-1384.7583643122618,-1198.8847583643071,2301.73482032217
-3280.6691449814016,514.25030978934444,2543.3705080545196
-3881.6604708797868,1062.5774473358124,2543.3705080545164
-3937.4225526641708,-269.51672862453546,3416.9764560099002
-3392.1933085501746,-1747.211895910774,3283.7670384138664
-1236.0594795538966,-1669.7645600991293,638.16604708797161
-4061.3382899628132,-830.23543990086557,4213.1350681536442
-4770.7558859975061,108.42627013630683,3125.7744733581053
-1892.8128872366708,-83.643122676578571,1654.275092936794
-3262.081784386608,-504.95662949194514,2289.3432465923047
-257.12515489466426,-3488.2280049566161,3794.9194547707452
-3497.5216852540134,681.5365551425017,2456.6294919454722
-5154.8946716232786,2973.9776951672811,1270.1363073110197
-2586.7410161090379,-2211.89591078066,2053.9033457248979
-4241.0161090458387,-2066.2949194547664,4699.5043370507901
-1028.5006195786814,-2791.201982651789,3333.3333333333221
-4048.946716232947,-254.02726146220627,458.48822800494833
-5071.2515489466996,-1183.3952912019838,1171.0037174721076
-3184.6344485749569,-1282.5278810408895,3221.8091697645505
-4070.6319702602086,176.57992565055403,2184.0148698884695
-4817.2242874844933,3649.3184634448521,1967.1623296158573
-170.38413878562073,-954.15117719949842,3240.3965303593427
-2357.4969021065563,-334.57249070631764,2050.8054522924335
-2837.6703841387753,-1778.1908302354327,3432.465923172233
-4820.32218091696,1954.7707558859934,982.03221809169099
-3643.1226765799129,2456.6294919454695,582.40396530358964
-2846.9640644361716,-650.55762081784167,3128.8723667905733
-3228.0049566294797,-619.5786864931847,-65.055762081785701
-4169.76456009912,991.32589838909337,1251.5489467162251
-3265.1796778208727,-2187.1127633227343,3116.4807930607053
-3553.2837670383988,1183.3952912019824,910.7806691449764
-4166.6666666666524,3221.8091697645496,1040.8921933085383
-2007.4349442379084,-1868.0297397769471,2967.7819083023428
-1431.2267657992527,-2698.2651796778105,3447.9553903345623
-3810.4089219330754,306.69144981412626,3918.8351920693776
-5458.4882280049396,504.95662949194372,4383.5192069392697
-117.71995043369978,-2403.9653035935457,3153.6555142503007
-3788.7236679058096,-548.32713754646898,2800.4956629491808
-303.59355638165789,-2642.5030978934224,2623.9157372986288
-2868.6493184634305,-752.78810408921493,3351.9206939281235
-3822.8004956629366,1254.6468401486961,2072.490706319692
-2403.9653035935462,916.97645600991325,1691.4498141263857
-2766.4188351920602,-489.46716232961552,3590.4584882279946
-1874.225526641872,-3618.3395291201864,4374.2255266418779
-4553.9033457248943,1651.1771995043339,1899.0086741016053
480.17348203222468,-1545.8488228004856,2915.1177199504259
-1672.862453531593,275.71251548946515,1641.8835192069348
-3683.3952912019663,1657.372986369267,1802.9739776951578
-4891.5737298636777,1601.6109045848782,3695.7868649318384
-3636.9268897149791,697.02602230483944,3311.6480793060673
-2952.2924411400122,223.04832713754945,3568.7732342007293
-4826.517967781896,700.12391573729644,1874.2255266418804
-2286.2453531598394,-889.09541511771636,1973.3581164807861
-2958.4882280049478,855.01858736059455,1096.6542750929279
-2685.8736059479493,-1322.8004956629463,1700.7434944237802
-3825.8983890953991,1161.710037174719,368.64931846343876
-2252.1685254027125,-405.8240396530324,2840.7682775712428
-2245.9727385377842,-6.1957868649275083,3999.3804213134913
-3125.7744733581103,-4101.6109045848725,3144.3618339528957
-2407.0631970260115,-1741.0161090458437,3125.7744733581035
-2732.3420129458855,266.41883519207113,2778.8104052479598
-2453.531598513001,-1675.9603469640583,3014.2503097893327
-2831.4745972738424,365.55142503097983,2156.1338289962796
-3280.6691449813979,-703.22180916975992,3677.1995043370357
-2379.1821561338202,-978.93432465922672,2676.5799256505452
-1229.8636926889646,-1849.4423791821496,2930.6071871127529
-4838.909541511759,2555.7620817843804,926.2701363073046
-1610.9045848822732,-1456.009913258981,3206.3197026022185
-2239.7769516728545,-4504.3370508054395,3029.7397769516642
-1496.2825278810251,1536.5551425031001,2549.5662949194484
-972.73853779429453,-2887.2366790582337,2273.8537794299768
-5520.4460966542583,3039.0334572490638,1140.0247831474537
-1006.8153655514159,-1025.4027261462129,2035.3159851301009
-3184.6344485749601,68.153655514252122,3677.1995043370403
-4005.5762081784214,188.97149938042213,1806.0718711276213
-3528.5006195786773,-839.52912019826283,3429.3680297397741
-4578.6864931846212,-480.17348203221496,4392.8128872366633
-4488.8475836431089,966.54275092936643,3066.9144981412555
-2097.2738537794235,-4098.5130111524068,2846.9640644361698
-1232.9615861214302,-322.18091697645349,1208.1784386617028
-1617.1003717472022,-3203.2218091697523,4600.3717472118806
-480.173482032214,-2385.3779429987521,1626.3940520445976
-3798.0173482032096,1062.577447335811,2276.9516728624444
-2211.8959107806572,-244.73358116480594,895.2912019826465
-2199.5043370507947,-24.783147459725583,1908.3023543990012
-3327.1375464683879,-731.10285006194965,3097.8934324659099
-1768.8971499380366,-319.0830235439883,1945.4770755885875
-889.0954151177142,-1638.78562577447,2698.2651796778091
-2846.9640644361743,1403.3457249070625,1824.6592317224188
-4969.0210656753252,-529.73977695166798,5192.0693928128694
-3732.7211142679962,2534.3234262819747,1406.6366084894109
-3943.6183395291068,-381.04089219330757,1552.0446096654177
-4671.6232961585974,-752.78810408921606,2509.2936802973832
-1682.1561338289887,-2369.8884758364215,4972.1189591077891
-938.66171003716727,-2013.6307311028427,3370.5080545229112
-4268.8971499380286,824.03965303593418,2998.7608426270003
-2069.392812887233,-3351.9206939281189,-424.41140024784335
-4002.478314745958,1282.5278810408922,3026.6418835191985
-4324.659231722414,-920.0743494423773,3076.2081784386469
-3147.4597273853656,-3141.2639405204377,4646.8401486988714
-2819.0830235514441,-195.16728625372843,2236.6790582338381
-3097.8934324659067,-1164.8079306071825,3116.480793060708
-3395.2912019826363,1976.4560099132561,464.68401486987761
-1818.4634448574911,-1586.121437422544,3506.8153655514143
-4433.085501858719,1477.695167286244,2094.1759603469573
-4820.322180916959,1415.7372986369253,4315.3655514250195
-2815.9851301115141,644.36183395291596,1706.9392812887163
-2252.1685254027129,1431.2267657992566,4203.8413878562487
-3265.1796778190737,-3859.975216852531,5504.9566294919287
-3190.8302354398857,1477.6951672862417,1431.2267657992534
-4615.8612143742112,3060.7187112763254,1087.360594795528
-3968.4014869888356,1796.7781908302306,830.23543990086318
-2636.3073110284899,-4021.0656753407566,5684.6344485749505
-4888.4758364312092,814.74597273853544,2868.6493184634382
-3531.5985130111358,-322.18091697645224,4021.0656753407602
-2673.4820322180867,-2877.9429987608391,415.11771995042227
-5009.2936802973836,356.25774473358138,2159.2317224287399
-5907.6827757125029,120.81784386617493,2791.2019826517876
-2877.9429987608337,-1524.1635687732287,4380.4213135068012
-3763.9416499602394,873.60482979313349,3271.3745451800169
-3302.3543990086619,331.47459727385376,288.10408921932321
-3001.8587360594711,-4117.1003717471967,5077.4473358116302
-412.01982651796243,-2639.4052044609607,842.62701363071983
-2094.1759603469541,-758.98389095414677,2304.8327137546394
-1988.8475836431144,-641.26394052044168,2289.3432465923074
-3404.5848822800403,-1682.1561338289928,3376.7038413878422
-1245.3531598512941,-3389.0954151177116,2905.8240396530264
-3178.4386617101577,-2342.0074349443589,4154.2750929366966
-3729.8636926889576,-2233.5811648079248,3825.8983890954019
-644.36183395290584,-811.64807930606821,1071.8711276332019
-3342.6270136307203,-554.52292441139957,3138.1660470879724
-3088.599752168514,824.03965303593361,1328.9962825278722
-1384.7583643122596,-30.97893432465316,1462.2057001239045
-3875.4646840148557,464.68401486988961,2930.607187112751
-4352.5402726146067,985.13011152416686,2843.8661710037104
-2162.3296669411811,1102.8499640545849,960.34674697454
-4324.6592317224149,2397.769516728622,1548.9467162329561
-5941.9420393382525,-269.3549247094009,3834.3423137717405
-4361.833952912003,449.19454770755618,2890.3345724906967
-2509.2936802973895,-219.95043370507895,2125.1548946716148
-3664.8079306071709,-604.08921933085378,5322.1809169764419
-1610.9045848822714,-1886.6171003717388,1211.2763320941672
-4287.4845105328232,1025.4027261462193,3801.1152416356695
-2357.4969021065572,-892.19330855018211,3017.3482032217962
-3116.4807930607058,1725.5266418835181,1589.2193308550129
-4807.930607187096,2939.9008674101569,2407.0631970260133
-5145.6009913258804,-2543.3705080545164,4337.0508054522743
-960.34696406442686,-1586.1214374225474,2431.8463444857384
-5904.5848822800308,861.21437422552424,2218.0916976455915
-2137.5464684014801,-508.05452292441163,2044.609665427505
-2205.7001239157275,-2029.1201982651703,4420.6939281288587
-2874.8451053283611,142.50309789343473,2905.8240396530264
-3621.4374225526481,-907.68277571250985,3475.8364312267527
-4364.9318463444679,-65.0557620817833,2286.2453531598449
-4680.9169764559938,-328.37670384138579,4067.5340768277415
-3584.2627013630558,167.2862453531622,1796.7781908302245
-2704.4609665427383,724.90706319702679,1412.6394052044536
-4101.6109045848661,-1022.3048327137509,873.60594795538407
-1536.5551425030842,1279.4299876084274,3144.3618339529048
-2791.2019815643998,-885.9975213745671,2955.3903345724802
-2850.0619578686387,-1421.9330855018563,2388.4758364312147
-3432.4659231722349,697.02602230483228,570.01239157372788
-3853.7794299875904,855.0185873605916,2837.6703841387766
-1920.693928128863,-1143.1226765799208,1799.8760842626932
-2933.7050805452168,-1307.3110285006162,1895.9107806691363
-1570.6319702602154,-2193.3085501858664,4188.3519206939181
-5737.298636926871,161.09045848822723,3351.9206939281166
-5529.7397769516556,-2351.3011152416298,6626.3940520445913
-1793.6802973977649,-1905.2044609665393,1183.3952912019708
-4374.2255266418688,-1372.3667905824004,3615.2416356877197
-3358.1164807930454,136.30731102850061,2775.7125154894543
-1084.2627013630643,-923.17224287483975,2233.5811648079239
-120.81784386616987,-3085.5018587360501,3897.1499380421201
-681.53655514249533,-2995.6629491945364,5442.9987608426127
-5111.5241635687507,3729.8636926889617,1279.4299876084187
-2723.0483271375347,-1087.3605947955366,3503.7174721189485
-2946.0966542750839,-2013.6307311028438,3909.5415117719813
-4439.2812887236523,133.20941759603755,2097.2738537794203
-4888.475836431212,285.00619578686354,2459.7273853779325
-4553.9033457248934,-1158.6121437422555,2103.4696406443486
-3420.0743494423664,-232.34200743494532,1229.8636926889637
-2441.1400247831343,-2208.7980173481988,2611.5241635687603
-3392.1933085501773,-1359.9752168525395,2190.2106567534033
-2546.4684014869777,238.53779429987793,2877.9429987608323
-2469.0210656753325,-1189.5910780669124,808.55018587360087
-4216.2329615860972,2202.6022304832691,2140.6443618339449
-4919.4547707558686,350.06195786864913,1115.2416356877188
-4076.8277571251392,1691.4498141263921,1809.1697645600907
-1093.5563816604686,-2329.6158612143722,2639.4052044609575
-4928.7484510532686,2936.8029739776916,1022.3048327137473
-1713.1350681536469,-594.79553903345209,2763.3209417595931
-5046.4684014869727,-188.97149938042057,1483.8909541511662
-1942.3791821561199,-929.36802973977149,2893.4324659231643
-3776.3320941759462,-449.19454770755453,2134.4485749690098
-3017.3482032218017,-662.94919454770638,3599.7521685253923
-3516.1090458488129,-2413.2589838909512,2744.7335811647936
-3330.2354399008568,-1657.3729863692636,3351.9206939281166
-5455.390334572473,495.66294919454862,1902.1065675340631
-4362.9583592293211,96.333126165319896,2169.0490988191345
-2050.963331261647,-1159.1050341827186,739.58980733373812
-3645.1211932877427,-40.397762585453791,2977.0043505282688
-2100.6836544437419,-2899.316345556239,5245.4940957116087
-2181.479179614661,-2193.9092604101847,1330.0186451211869
-3704.1640770664867,922.93349906774245,1267.8682411435566
-1991.9204474828985,-2172.1566190180165,3036.0472343070146
-1224.362958359224,-2131.7588564325565,2809.1982597886745
-2784.3380981976316,-1410.8141702921002,2271.5972653822237
-4111.2492231199358,568.67619639527777,4018.0236171535016
-3837.7874456183831,3169.6706028589165,1845.8669981354824
-4738.9683032939593,-2206.3393412057117,3430.7022995649313
-3517.7128651336075,1295.8359229334967,2327.5326289620825
-4300.8079552516965,-2607.2094468613996,4490.3666873834482
-3151.0254816656156,329.39714108142044,692.97700435052059
-3334.3691733996125,-711.62212554381256,5341.8272218769234
-5860.7830950901007,-1019.2666252330598,5584.2137973896615
-4117.4642635177015,1597.2653822249811,1444.9968924797977
-2588.5643256681033,-360.47234307022575,2445.6183965195723
-2927.2840273461629,-1392.1690490988121,5556.2461155997371
-3918.5829707892954,-1053.4493474207529,3688.6264760720833
-2846.4885021752534,-1973.2753262896151,3455.5624611559851
-2669.3598508390178,1628.3405842137956,2790.5531385953959
-3946.5506525792298,621.50403977625717,3144.8104412678576
-1799.2541951522555,229.95649471721995,1451.2119328775555
-3054.6923555003036,-1970.1678060907382,1609.6954630205012
-724.0522063393372,-3225.6059664387708,3082.6600372902299
149.16096954630237,-4300.8079552516947,3259.788688626465
-2781.2305779987501,-1314.4810441267789,3542.5730267246631
-3971.4108141702809,-1793.0391547544984,3694.8415164698436
-3576.7557489123556,-876.32069608452309,2961.4667495338595
-2604.1019266625094,562.46115599751556,3446.239900559342
-4841.5164698570397,2635.1771286513285,2103.791174642633
-1721.5661901802268,-1932.8775637041538,2989.4344313237962
-2924.1765071472855,879.42821628340312,1929.7700435052777
-2672.4673710378988,-957.11622125543124,2318.2100683654321
-2638.2846488502064,-2346.1777501553702,1177.7501553760026
-2352.3701354431282,2284.0473872365928,1100.0848055139734
-3303.293971410802,789.31013051585137,2653.8222498446203
-4331.8831572405088,-304.53697949036871,1367.3088875077606
-3502.175264139204,2165.9415786202576,223.74145431944703
-3685.5189558732031,-1535.1149782473581,1646.985705407076
-201.9888129272791,-1842.7594779366009,1637.6631448104295
-6603.4804226227279,1504.0397762585401,1233.6855189558667
-4005.5935363579765,-1550.6525792417635,3607.8309509011729
-3558.1106277190711,-1196.3952765692936,4052.2063393411986
-4387.8185208203704,506.52579241764965,2967.6817899316225
-2085.1460534493372,-1292.7284027346122,2862.0261031696587
-3514.6053449347291,-817.27781230577682,1314.4810441267812
-2697.3275326289504,-348.04226227469826,3107.5201988812819
-4260.4101926662415,1218.1479179614614,671.22436295835166
-1584.8353014294501,-2464.2635177128564,2958.3592293349766
-3582.9707893101204,-1208.8253573648196,2579.2417650714601
-2858.918582970779,1109.3847110006197,1121.8147917961394
-2075.8234928526922,338.71970167806103,1628.3405842137902
-5080.7955251708963,1948.4151646985649,1935.9850839030307
-4471.7215661901628,1942.2001243008015,-490.98819142325084
-3747.6693598508268,-2660.0372902423778,4773.1510254816476
-4866.3766314480872,3048.4773151025424,2371.0379117464181
-3197.6382846488382,-624.61155997513788,3533.2504661280209
-2582.3492852703425,-556.24611559974926,2700.4350528278355
-4471.7215661901801,354.25730267245495,49.720323182090148
-2632.5923656923737,-2697.8502898688816,4611.0372178998932
-1746.4263517712793,-926.04101926662042,2473.5860783095
-3266.0037290242258,1441.8893722809159,2057.1783716594109
-879.42821628339846,-2756.3704164076967,2694.2200124300739
-2731.5102548166442,-637.04164077066412,1668.7383467992449
-7349.2852703542403,671.22436295835166,174.02113113734686
-1880.0497203231773,-2395.8980733374692,2203.2318210068283
-2091.3610938470997,-1967.0602858918494,2579.2417650714651
-2945.9291485394542,267.24673710379062,2119.3287756370323
-2184.5866998135384,3.107520198885187,2824.7358607830924
-3626.4760720944564,77.688004972035799,2930.3915475450531
-2019.8881292728329,-3467.9925419515148,2750.1553760099296
-3147.9179614667405,-186.45121193287784,922.93349906773892
1566.1901802361754,-3868.8626476071954,2078.9310130515692
-3440.024860161579,-161.59105034182815,55.935363579856997
-444.3753884400216,-360.47234307022546,696.08452454940596
-2200.1243008079491,-745.80484773150602,2638.2846488502114
661.90180236172068,-3060.9073958980621,2905.5313859539933
-2557.4891236792942,-745.8048477315059,3144.8104412678572
-2510.8763206960753,-2386.5755127408206,2936.6065879428133
-4863.2691112492084,2172.1566190180206,1348.6637663144727
-5279.6768178992988,-1681.1684275947759,1967.0602858918428
-1678.0609073958894,-1053.4493474207559,2569.9192044748243
-4540.0870105655531,472.34307022995608,2889.9937849595863
-3300.1864512119228,459.91298943443036,2349.285270354249
-2352.3927905572423,-2284.0273461818579,776.88004971620194
-1619.0180236171429,-1963.9527656929706,2942.8216283405695
-1684.2759477936559,-1836.5444375388363,3054.6923555002995
-2653.8222498446153,-1230.5779842826846,2759.47793660658
-1361.0938471099996,-105.65568676196295,1215.0403977625767
-6112.4922311994833,1796.1466749533863,2007.4580484773005
-3455.5624611559824,-146.05344934741737,2712.865133623357
-5379.1174642635033,2097.576134244865,1693.5985083902981
-2949.0366687383353,577.99875699192,2784.3380981976279
-3570.5407085145926,-857.67557489123647,1196.3952765692934
-4229.0461208617389,2166.2241686573379,991.474777243978
-3710.379117464247,658.79428216283463,2970.7893101305012
-2588.5643155771318,-1948.4151586439789,3573.6482347680621
-3287.7563704163981,-919.82597886885992,1681.1684275947705
-2548.166563082646,130.51584835301438,2122.4362958359129
-910.50341827221166,-1395.2765692976946,1631.4481044126758
-3862.6476072094342,-1171.5351149782441,3275.326289620868
-2411.4356743318713,823.49285270354267,1597.2653822249804
-2022.9956494717135,-2607.2094468613941,3222.498446239887
-4732.7532628961944,-198.88129272840217,2442.5108763206836
-4232.4425108763062,820.3853325046606,2392.7905531385868
-3343.6917339962602,233.0640149160995,2734.6177750155243
-4568.0546923554857,3564.3256681168345,1973.2753262896135
-2871.3486637663045,-950.90118085767267,2709.7576134244741
-1724.6737103791079,-1451.2119328775568,3862.6476072094388
-5459.9129894344169,857.67557489123112,957.11622125543181
-5273.4617775015358,490.98819142324351,3095.0901180857586
-4732.7532628961926,410.19266625233269,3893.7228091982465
-2106.8986948415068,-776.88004972031877,2113.1137352392711
-2914.8539465506378,59.042883778748397,2411.4356743318763
251.70913610938626,-3536.3579863269001,2545.0590428837627
-6584.8353014294353,2796.7681789931562,1541.3300186451115
220.63393412057837,-2573.0267246737026,3101.3051584835193
-3614.0459912989309,-789.31013051584375,1883.1572405220529
-2100.6836544437406,49.720323182106384,2417.6507147296384
-2955.2517091360992,658.79428216283452,3415.1646985705329
-1174.6426192068191,-528.27841783951453,1093.8471259765186
-720.94468614045536,-4838.4089496581591,4453.076444996881
-372.90242386574772,-1684.2759477936536,2308.8875077687903
-3200.7458048477206,2091.3610938471102,518.95587321317282
-2150.4039776258451,-2613.4244872591617,5108.7632069608308
-5105.655686761952,-438.16034804226211,4092.6041019266449
-2106.8986948415081,65.257924176509377,1351.7712865133599
-4453.0764449968747,1615.9105034182687,1976.3828464884948
-3598.5083903045261,727.15972653821973,2389.6830329397026
-3443.1323803604623,341.82722187693918,-354.25730267246905
-1687.3834679925342,-770.66500932255542,1653.2007458048427
-1706.0285891858214,-2147.2964574269645,2787.4456183965071
-24.860161591039994,-242.38657551273175,3601.6159105034117
-4465.506525792407,1985.705407085142,422.62274704785494
-4748.2908638905992,2134.8663766314412,916.71845866997739
-2103.7911746426262,-1752.6413921690428,2725.2952144188848
-2224.984462398997,-2868.2411435674221,4055.3138595400746
-4176.5071472964464,335.61218147917725,3499.0677439403294
-4558.7321317588476,783.09509011808268,1979.4903666873763
-5285.8918582970573,1578.6202610316936,3064.0149160969449
-4266.6252330640045,-105.65568676196479,3234.9285270354153
-2072.7159726538134,-2660.0372902423774,5351.1497824735716
-3834.6799254195025,-941.57862026102873,3060.9073958980625
-3228.71348663765,2063.3934120571739,1401.491609695453
-4651.9577377252817,-1861.4045991298876,4627.0975761342306
-1780.6090739589715,-320.07458048476843,1295.8359229334897
-1870.7271597265274,-1298.9434431323753,3816.0348042262117
-3918.5829707892985,-77.688004972030441,3191.423244251077
-3095.0901180857554,80.795525170916051,1948.4151646985576
-4036.6687383467861,500.31075201988892,3182.1006836544316
-2383.4679925419437,-2063.3934120571726,891.85829707892697
-2855.8110627719029,-251.70913610938365,2862.0261031695532
-4313.238036047218,-621.50403977625592,4108.1417029210588
-5431.9453076444843,1469.8570540708511,2958.3592293349784
-1761.9639527656825,-817.27781230577682,2169.04909881913
-3803.6047234306852,-320.07458048476826,3760.0994406463478
-121.19328775636525,-1504.0397762585417,1687.3834679925326
-4757.6134244872464,87.010565568676824,3343.6917339962647
-3474.2075823492755,-1967.0602858918519,4282.1628340584111
-4592.9148539465341,947.79366065879242,403.97762585456189
-2526.41392169048,397.76258545680616,2784.3380981976325
-5043.5052827843228,-577.99875699191966,1671.8458669981301
-2796.7681789931517,1028.5891858297068,1134.2448725916652
-2489.1236793039056,-419.51522684897043,4530.7644499689141
-546.92355500310305,-1786.8241143567377,1559.9751398384014
-1960.8452454940864,-1895.5873213175848,3915.4754505904125
-2834.0584213797288,-55.935363579865466,975.76134244871469
-3828.4648850217436,-817.27781230577887,1855.1895587321208
-3881.2927284027205,-12.430080795523667,2837.1659415786048
-736.48228713485651,1211.9328775637036,2430.0807955251657
-4965.8172778122916,419.51522684897287,2523.3064014915994
-1718.458669981349,245.4940957116238,556.2461155997463
-4903.6668738346643,-730.26724673710225,4589.8073337476571
-1650.0932256059568,-1376.6314481044071,1706.0285891858198
-2085.1460534493394,49.720323182101019,1765.0714729645686
-1979.4903666873754,-1246.1155997513929,2318.2100683654371
-4711.0006215040239,-316.96706028589097,4210.6898694841357
-832.81541330017819,-1155.997513983833,4518.3343691733926
-2958.3592293349816,-1606.5879428216224,2905.5313859539979
-4471.7215661901637,1441.8893722809173,1472.9645742697248
-1417.0298192426683,-4030.4544992102201,4011.8074509330481
-139.83840894965343,-6712.2436295835769,4853.9465506525612
-3887.5077688004853,-338.71970167805881,2765.6929770043394
-3023.6171535114836,655.68676196395518,3160.3480422622661
-2218.7694220012322,-863.89061528899572,3067.1224362958269
-3681.3463663451676,-937.18054690302051,3515.1417230360989
-2131.7588564325606,-2162.8340584213706,4362.958359229322
-2799.875699192035,-1056.5568676196367,3126.1653200745686
-2666.2523306401399,-752.01988812927129,627.71908017401358
-4443.7538844002329,-1873.8346799254152,4940.9571162212369
-3592.2933499067631,83.903045369796288,2719.0801740211177
-1171.535114978243,-2905.5313859540029,2234.3070229956425
-1917.3399627097529,-2880.6712243629513,1951.5226848974403
-2600.9944064636284,1311.3735239279074,3306.4014916096867
-1392.169049098811,-4188.9372280919706,5164.6985705406914
-2747.0478558110508,-1047.2343070229877,3555.0031075201882
-3088.8750776879979,-6516.4698570540559,5239.2790553138393
-4589.8073337476553,-1072.0944686140472,2010.5655686761877
-2458.0484773150915,-2507.7688004971956,4757.6134244872419
-2663.144810441258,-618.39651957737283,2358.6078309508916
-1504.0397762585369,-3113.7352392790476,1852.0820385332413
-3623.3685518955735,-105.65568676196342,988.19142324424547
-605.96643878184898,-4387.8185208203731,3412.0571783716464
-3589.1858297078843,-2103.791174642633,543.8160348042228
-2917.9614667495262,-419.79635461752957,1330.0186451211853
-2476.6935985083828,-1525.7924176507081,3592.2933499067694
-3508.3903045369661,174.02113113735504,3045.3697949036596
-1988.8129272840188,882.5357364822878,1261.6532007457943
-3974.5183343691601,-1640.7706650653947,752.01988812925902
-2215.6619018023534,-1749.5338719701626,2877.5637041640648
-1513.362336855183,-313.85954008700924,1463.6420136730817
-5633.9341205717683,3244.2510876320653,1354.87880671224
-2949.0366687383384,-795.52517091360789,1479.1796146674876
-3489.7451833436799,-1457.4269732753189,5034.1827221876802
264.1392169049152,-6258.5456805469075,4773.1510254816476
-1942.2001243007994,-2768.8004972032263,3104.4126786824017
-3738.3467992541814,-534.49347420757886,3443.1323803604573
-4216.9049098819014,-2004.350528278427,4872.5916718458529
-2973.8968303293873,1155.9975139838377,186.45121193287139
-2700.4350528278328,-988.19142324424797,2806.0907395897975
-1121.8147917961423,-2082.0385332504611,2989.4344313237921
-3794.2821628340425,1031.6967060285847,770.66500932254939
146.05344934742584,-3163.4555624611485,3461.7775015537495
-3645.1211932877441,-1044.1267868241109,4300.8079552516929
-2945.9291485394565,1929.7700435052791,795.52517091360642
-4142.324425108749,2284.0273461777456,1323.8036047234257
-2765.6929770043403,-612.18147917961403,562.46115599750988
-3508.3903045369725,478.55811062771755,2529.5214418893647
-2933.4990677439323,65.257924176507046,913.610938471091
-5127.408328154118,285.89185829707736,1143.5674331883044
-2439.403356121808,-854.56805469235007,2439.4033561218062
-4039.7762585456658,441.26786824114345,3110.6277190801675
-3200.745804847721,1280.2983219390903,1923.5550031075129
-1000.6215040397715,-1706.0285891858236,-518.95587321318624
-3076.4449968924691,739.5898073337471,2256.0596643878071
-3387.1972132043702,195.77357610575041,2371.0377153226441
-2193.9092604101843,-2408.3281541329929,3113.7352392790453
-2964.5742697327428,-1892.4798011187011,3968.3032939713994
-3321.9390926040978,-829.70789310130374,2256.0596643878152
-1497.8247358607762,-559.35363579862928,-77.688004972039607
-2793.6606587942742,149.16096954630356,2936.6065879428179
-1796.146674953377,-1839.6519577377198,2535.7364822871264
-1572.4052206339281,-1389.0615288999315,2287.1348663766221
-2224.9844623989993,-21.752641392166169,1668.7383467992452
-665.00932256059434,-3784.9596022374026,4387.8185208203677
-4614.6674953387019,1821.0068365444322,1472.9645742697278
-4095.7116221255269,857.67557489123817,3573.6482287134736
-2709.7576134244769,739.58980733374915,2896.2088253573561
-1476.0720944686084,-1112.4922311994997,2529.5214418893624
83.903045369799116,-1957.7377252952103,1556.8672070298032
-3775.6370416407585,-245.49409571162133,2641.392169049092
-4033.5612181479078,919.82597886886151,2374.1454319453001
-3160.3480422622624,-1510.2548166563017,1640.7706650093148
-5068.365444375374,950.90118085767335,3172.7781230577916
-2520.1988812927175,-1715.3511497824657,2489.1236793039084
-3443.1323803604641,-1336.2336855189551,3175.8856432566677
-4431.3238036047051,1333.1261653200729,2899.3163455562335
-3527.0354257302556,-879.42821628340266,3719.7016780608933
-2237.4145431945208,-1075.2019888129232,3185.2082038533108
-3275.3262896208698,1923.5550031075179,285.89185829707725
-1124.922311995022,-3809.81976382845,5972.6538222498266
-4347.4207582349163,-1395.2765692976955,226.84897451832956
-4397.1410814170167,1920.4474829086362,2224.984462399003
-4521.4418893722623,3132.3803604723375,1917.3399627097538
-2038.5332504661214,-658.79428216283202,1435.674331883152
-3508.6499382887982,658.29165791971025,1685.1451973830583
-3057.799875699181,-692.97700435052684,2386.5755127408243
-4518.3343691877253,323.18210066931118,2321.3175885499759
-4331.8831572405061,379.11746426351806,3119.9502796768079
-4540.0870105655558,394.65506525792114,2019.8881292728299
-2364.8228713486528,-640.14916096954335,3032.9397141081367
-3088.8750776879929,-798.63269111248871,5310.752019888113
-5245.4940957116005,1006.8365444375373,4005.593536357972
-5329.3971410814038,-773.77252952143976,1339.3412057178225
-3387.197016780598,59.042883778743381,1264.7607209446787
-4257.3026724673527,1563.0826600372868,1559.9751398384005
-2377.252952144177,-652.5792417650664,2924.1765071472828
-4052.2063393411918,1715.3511497824702,2032.3182100683541
-2318.210068365433,-1395.2765692976971,3287.7563704163958
-3772.529521441872,745.8048477315084,1367.3088875077622
-3732.1317588564202,-717.83716594157647,2775.0155376009857
-1948.4151646985601,-1656.3082660037232,2464.2635177128541
-3287.7563704163958,-310.7520198881295,1323.8036047234227
-4714.1081417029081,1817.8993163455511,1998.1354878806578
-3567.4331883157083,379.11746426351453,2339.9627097576072
-1609.6954630205009,-354.25730267246581,2604.1019266625167
571.78371659415848,-4568.0546923554848,5214.4188937227973
-2771.9080174021124,-3095.0901180857663,4070.851460534469
-3722.8092089138818,-158.48353546999672,2613.424471278001
-4014.9161313052555,596.64383472113309,2672.4673130858041
-3244.2510876320571,-2697.3275326289531,3169.6706028589065
-4114.3567433188182,-242.38657551273769,3629.5835922933397
-2529.5214418893634,1852.0820385332481,543.81603480422405
-1982.5978868862569,-2877.5637041640648,3819.1423244250982
-1569.2977004350469,-901.18085767557227,1749.5338719701629
-3225.6059664387685,-2150.403977625846,4686.1404599129728
-2442.5108763206817,618.39651957737794,1622.1255438160267
-2917.9614667495221,-4303.9154754505798,5550.0310752019705
-5898.0733374766814,1873.8346799254152,2862.0261031696591
-3238.036047234295,-217.52641392168937,2899.3163455562385
-4176.5071472964401,1283.4058421379721,1121.8147917961319
-5273.4617775015377,-997.51398384089066,4698.5705407084988
-4577.3772529521293,2896.2088253573588,711.62212554381381
-466.12802983218933,-2445.6183965195701,1034.8042262274637
-1115.5997513983732,-736.48228713486128,1976.3828464884925
-2635.177128651329,-2259.1671845866949,1221.255438160335
-3287.7563704163981,146.05344934742283,2402.1131137352322
-2526.4139216904819,1124.9223119950268,1215.040397762577
-2961.4667495338604,-988.19142324424888,155.37600994405608
-3421.3797389682904,755.12740832814984,2697.3275326289545
-1519.5773772529467,-2156.6190180236149,559.35363579862224
-5515.8483530142748,2893.1033550797024,1702.9210689869424
-4729.645742697312,-2022.9956494717183,4195.1522684897282
-761.34244872591148,-3412.0571783716523,3707.2715972653696
-1755.7489123679211,-2395.8980733374692,3635.7986326911023
-1839.6519577377167,-1376.6314481044078,3694.8415164698495
-3806.7122436295676,981.97638284648974,3126.1653200745691
-2778.1230577998654,-1684.2759477936547,2243.629583592282
-1025.4816656308233,-2399.0055935363498,2374.1454319452973
-1914.2324425108691,-1342.448725916712,1650.09322560596
-2399.0055935363503,124.30080795525051,2193.9092604101907
-3132.380360472333,-397.7625854568048,1500.932256059652
-5705.4070851460356,-1783.716594157853,6653.2007458048247
-1830.3293971410747,692.97700435052855,1867.619639527649
-3250.4661280298233,-1149.782473586077,1274.0832815413262
-2016.7806090739532,-2206.4641302223208,3840.8949658172678
-1662.5233064014844,-1444.9968924797977,2203.2318210068297
-2921.0689869484031,-1274.0832815413248,3663.7663144810335
-1786.8241143567368,-876.32069608451934,2399.0055935363525
-3163.4555624611485,-1693.5985083903004,898.0733374766877
-1920.4474829086307,-1758.8564325668058,3511.4978247358449
-2147.2964574269649,-2517.0913610938401,3756.9919204474695
-2408.3281541329916,1171.5351149782448,627.71908017401506
-3486.6376631447993,369.7949036668731,2545.0590428837681
-1569.2977004350466,-3452.4549409571027,4633.3126165319936
-5099.4406463641863,-2622.7470478558043,3747.6693598508241
1718.4586699813549,-4807.333747669345,3384.0894965817129
-1062.7719080173943,-1522.6848974518241,2855.8110627718966
-3045.3697949036587,-3343.6917339962624,2939.7141081416894
-4692.3555003107376,-1330.0186451211898,4014.9160969546124
-2246.7371037911648,584.21379738968506,1839.6519577377173
-5267.2467371037692,2339.9627097576113,1404.5991298943366
-5099.4406463641817,-509.63331261652849,3635.7986326910973
-6215.0403977625683,2408.3281541329961,1985.7054070851398
-2802.9832193909097,-1149.7824735860704,4331.8831572405115
-888.75077688004626,-4863.2691112492121,4726.5382224984278
-3791.1746426351651,2498.4462399005561,1497.8247358607739
-4042.8837787445464,1563.0826600372868,1970.1678060907313
-2886.8862647607039,767.55748912367892,1796.1466749533784
-3946.5506525792221,1963.9527656929743,3623.3685518955804
-745.80484773150272,-2343.070229956485,1858.2970789310027
-1323.8036047234214,-1995.0279676817822,3461.7775015537431
-3477.3151025481475,643.25668116842837,3234.9285270354217
-4515.2268489745011,3182.1006836544375,1615.9105034182639
-3806.7122436295722,1090.7395898073325,2001.2430080795459
-891.8582970789239,-487.8806712243603,1948.4151646985597
-1326.911124922306,-4204.4748290863772,5391.5475450590257
-3070.2299564947057,-388.44002486015972,1320.6960845245387
-2256.0596643878102,-941.57862026103112,410.19266625232126
-3455.5624611559865,-1827.2218769421936,3384.089496581716
-2678.68241143566,124.30080795525348,2728.4027346177654
189.55872664129561,-4294.5929203444002,4412.6786769209511
-4366.0658794282008,316.96706028588864,1432.5668116842687
-3039.1547545058934,1084.5245494095702,1786.8241143567398
-3604.7234307022832,748.9123679303915,3197.6382846488436
-5503.4182722187488,-397.76258545680224,4319.4530764449828
-1330.018645121188,-2026.1031696705998,2843.3809819763715
-4409.5711622125373,2585.4568054692295,1361.0938471100028
-3738.3467992541828,1566.1901802361706,1112.4922311994978
-388.44002486015683,-2473.586078309499,1199.5027967681704
-5528.2784338097981,4279.0553138595342,1774.394033561211
-5024.8601615910366,-34.182722187691603,3135.4878806712118
-6609.6933813195656,4030.4557451466194,972.65535189748027
-3051.5848353014158,708.51460534493481,1976.3828464884962
-1752.6413921690382,-2265.3822249844502,6270.975761342429
-2734.6177750155271,-1929.7700435052759,3446.2399005593461
-1908.0174021131024,-1880.0497203231766,4067.7439403356043
-702.29956494716475,-677.43940335611649,1196.3952765692879
-4835.3014294592776,-83.903045369793617,3135.4878806712118
-2989.4344313237939,27.967681789931252,1022.3741454319404
-2569.9192044748211,-3446.2399005593434,3421.37973896829
-3353.0142945929028,-1438.7818520820315,3853.3250466127884
-1146.67495338719,-1581.7277812305724,2212.5543816034669
-4981.3548788066955,-447.48290863890458,2529.5214418893611
-2908.6389061528816,-801.74021131137033,2321.317588564315
-5167.8060907395648,-376.00994406463599,3210.068365444366
807.95525170914061,-2638.2846488502055,2880.6712243629468
-4533.8719701677928,2492.2311995027931,1656.3082660037178
-2010.5655686761895,-2268.4897451833349,3085.7675574891127
-3278.4338098197518,-689.86948415164477,1842.7594779365943
-2513.9838408949527,590.42883778744692,2573.0267246737048
-366.68738346798693,-2824.7358607830838,2709.7576134244723
-1553.7600994406391,-1463.642013673084,2355.5003107520124
-3871.9701678060756,-686.76196395276281,3197.6382846488432
-1581.7277812305738,-4397.1410814170204,3073.3374766935849
-3079.5525170913488,1466.7495338719709,1889.3722809198209
-1143.5674331883085,-1463.6420136730837,344.93474207581511
-3542.5730267246613,789.31013051584966,512.74083281540697
-5388.440024860146,845.24549409570591,-683.65444375389086
-3971.4108141702786,972.65382224984398,2197.0167806090676
-3216.2834058421249,87.010565568681088,1699.8135487880586
-2159.7265382224882,-1681.1684275947721,2852.703542573016
-4779.3660658794115,534.49347420758193,1236.7930391547407
-1100.0621504039693,-854.56805469234746,1730.8887507768718
-3188.3157240521973,783.09509011808689,2430.0807955251639
-5261.0316967060089,1628.3405842137945,4052.2063393411986
-3210.0683654443637,-789.31013051584455,3983.8408949658101
-2029.2106898694772,-1535.1149782473562,1572.4052206339252
-4151.6469857053926,-242.38657551273926,3729.0242386575319
-2784.3380981976275,335.61218147918299,2942.8216283405754
-4692.3555003107349,425.73026724674082,3433.8098197638155
-3272.2187694219874,-127.40832815413357,3244.251087632063
-1895.5873213175803,-1693.598508390301,1239.9005593536303
-3371.6594157861923,-556.24611559974733,3337.4766935984958
-1985.7054070851357,-463.0205096333118,3082.6600372902344
-3784.9596022374021,-105.65568676196253,2840.2734617774872
-1516.0157174875158,-1885.810621154385,2694.6741519966213
-1547.5451207205617,-1432.5669873722252,1715.3510114749217
-4471.7215661901655,640.14916096954244,2529.5214418893656
-3632.6911124922194,-947.79366065879151,3110.627719080162
-2877.5637041640648,-118.08576755748973,1659.4157862026022
-4167.1845866998001,-730.2672467371026,1016.1591050341781
-612.18147917960835,-1466.7495338719625,1942.2001243008035
-2715.9720245061126,-901.18016032527316,2632.0699826404084
-3427.5947793660548,-714.72964574269463,3663.766314481034
-2237.4145431945203,-991.29894344312595,2377.2529521441775
-2660.0372902423774,-1867.619639527649,3057.799875699181
-3477.3151025481543,-1460.5344934742038,3182.1006836544361
-3107.5201988812782,273.46177750155698,3374.766935985077
-916.71845866997546,-1578.6202610316891,2013.6730888750681
-2610.316967060277,-3477.3151025481557,2722.1876942199997
-3887.507768800484,-518.95587321317362,3017.4021131137242
-2100.6836544437438,-1438.7818520820342,2616.5320074580404
-2650.7147296457338,-1208.825357364818,3166.5630826600254
-2964.5742697327441,-1053.4493474207577,1973.2753262896069
-2750.1553760099364,-2346.1777501553711,1494.7172156618938
-6249.2231199502558,966.43878185207689,1211.932877563695
-3281.5413300186333,-1864.5121193287682,4033.5612181479055
-5003.1075201988642,-609.07395898073059,4922.3119950279479
-3983.8408949658033,-425.73026724673502,3095.0901180857545
-1923.5550031075163,-2091.3610938471065,748.91236793037945
-826.60037290242065,-2156.6190180236076,4620.8825357364722
-2026.1031696705954,-3231.8210068365324,2737.7252952144095
-2050.9633312616425,-3334.3691733996129,6174.6426351771097
-3443.1323803604664,-276.56929770043695,2315.1025481665579
-2038.533250466118,1398.3840894965804,2088.2535736482273
-4605.3449347420592,590.42883778744431,2771.9080174021019
-6131.1373523927723,966.43878185208052,2551.2740832815321
-3701.0565568676057,-2249.84462399005,2871.3486637662991
-2641.3921690490884,-907.39589807333346,2737.7252952144054
-4415.7862026103039,1311.3735239279029,3085.7675574891155
-3642.013673088863,484.77315102548204,1650.0932256059591
-1519.5773772529401,208.20385332504975,2134.8663766314403
-5624.611559975122,1755.7489123679254,3318.8315724052154
-2364.8228713486533,-590.42883778744522,3474.2075823492746
-3241.143567433181,-2113.1137352392752,-83.903045369803209
-1426.3517712865034,-879.4282162834005,652.57924176506594
-3582.9707893101186,-1308.2660037290211,3592.2933499067667
-3154.1330018645003,102.54816656308631,2333.7476693598396
-441.26786824114214,-4173.3996270975649,1653.2007458048345
-4204.4748290863754,-127.4083281541316,3250.4661280298224
-4089.4965817277698,-1413.9216904909881,3402.7346177750096
-3576.7557489123569,372.90242386575517,2504.6612802983141
-1796.1466749533827,-1799.2541951522642,1535.1149782473474
-5490.9881914232237,4422.0012430080751,1025.4816656308235
-5612.1814791795941,3017.4021131137288,1152.8899937849526
-4229.3349906774274,-1274.0832815413287,2361.7153511497736
-2038.5332504661194,602.858918582971,1448.1044126786753
-3589.1858297078797,-773.77252952143476,3523.9279055313741
-3303.2939714108006,696.08452454940868,1929.7700435052732
-1802.3617153511416,-503.418272218764,1528.8999378495882
-1870.7271597265342,-285.89185829707441,2464.2635177128568
-2619.6395276569247,-1246.1155997513895,2666.2523306401422
-1743.318831572396,-1435.6743318831498,2936.6065879428083
-720.94468614045275,-1174.6426351771217,1895.5873213175789
-2827.8433809819685,-2193.9092604101861,4005.5935363579788
-1199.5027967681767,-2237.4145431945185,2955.2517091361015
-3408.9496581727626,1510.2548166563088,1737.1037911746382
-2902.4238657551145,1532.0074580484772,730.26724673710237
-2743.9403356121725,-969.54630205096123,2529.5214418893606
-1824.1143567433105,-1702.921068986941,3039.1547545058888
-2737.7252952144117,-127.4083281541335,1482.2871348663682
-6205.717837165922,1420.1367308887463,407.0851460534434
-605.96643878185046,-3144.8104412678599,2380.3604723430567
-661.90180236170659,-3141.7029210689748,3502.1752641392013
-1379.7389683032886,-1556.8676196395177,2299.5649471721504
-5105.6556867619502,-2206.3393412057144,1988.8129272840172
-2439.4033561218034,-509.63331261653354,717.83716594157602
-5080.7955251709009,1544.4375388439983,1289.620882535731
-3573.6482287134722,-186.45121193287778,251.70913610938027
-978.86886264760335,-7013.6730888750553,3831.572405220616
-5466.1280298321808,-2277.8123057799849,1174.6426351771133
-2523.3064014916017,-1848.9745183343618,3054.6923555003009
-391.54754505903907,-3095.0901180857604,2274.704785581097
-5770.6650093225426,4651.957737725289,1876.9422001242929
-3803.6047234306889,295.21441889372392,2299.5649471721508
-1935.9850839030391,-3586.0783095090019,1796.1466749533788
-3206.9608452454854,-1808.5767557489073,2802.9832193909124
-3474.2075823492733,-379.11746426351749,2371.0379117464172
-2228.0919825978776,550.03107520198876,1339.3412057178286
-3825.3573648228617,-344.93474207582301,3844.0024860161475
-2628.9620882535664,-1522.6848974518298,1435.6743318831509
-1771.2865133623284,31.075201988816438,720.94468614045093
-4953.3871970167629,207.89700795376717,1824.1143567433089
-4683.0329397140949,2576.1342448725845,1749.5338719701651
-3890.6152889993655,-792.41765071472719,3325.0466128029675
-4148.5394655065102,1137.3523927905542,3225.6059664387731
-3632.6911124922199,-512.74083281541073,2809.1982597886804
-3791.1746426351624,1522.6848974518325,2557.4891236792964
-3694.8415164698458,217.52641392169156,2905.531385954002
-1594.157862026095,-758.23492852703282,1864.5121193287669
-3318.8315724052063,-3536.3579863268978,5609.0739589807163
-3396.5195773772421,692.97700435052798,1193.2877563704055
-1572.4052206339284,-4512.1193287756214,4291.4853946550511
-4540.0870105655522,531.38595400870349,2287.1348663766234
-5960.2237414543015,2597.8868862647541,-105.65568676197537
-1569.2977004350432,-1205.7178371659345,2545.0590428837654
-2541.9515226848894,-1016.1591050341793,2402.1131137352322
-4651.9577377252799,926.0410192666277,4108.1417029210616
-4437.5388440024726,-783.0950901180845,2548.1665630826474
-1668.7383467992474,-1507.1472964574184,-31.075201988818836
-5935.3635798632477,264.13921690490832,4378.4959602237268
-1880.0497203231703,497.20323182101077,2150.4039776258433
-3610.9384711000462,34.1827221876976,3057.7998756991865
-2389.6830247810135,-2088.2535736482182,3952.7656990960104
-2663.144810441253,-372.90242386575432,3353.0142945929042
-5285.8918582970646,3865.7551274083221,1019.2666252330587
24.86016159105284,-5537.6009944064481,5565.568676196378
-3088.8750776880001,-2321.3175885643213,-500.31075201989796
-1746.4263517712777,-1945.3076444996846,932.25605966437854
-3822.2498446239783,-1367.3088875077615,4285.2703542572863
-3620.2610316966939,-1398.3840894965781,4350.5282784337951
-2367.9303915475357,-1932.8775637041581,3390.3045369794845
-3436.9173399626957,-929.14853946550295,891.85829707892071
-2228.0919825978785,-189.55873213175713,1796.1466749533797
-3542.5730267246636,1811.6842759477915,3875.0776880049675
-4589.807333747659,233.06401491609356,2933.4990677439359
-742.69732753262713,-3750.7768800497088,4136.1093847109842
-1361.0938471100008,-326.28962088253201,1357.9863269111186
-4275.9477936606499,1124.9223119950277,2914.8539465506442
-2147.2964574269649,-2389.6830329397058,3850.2175264139046
-2237.4145431945235,-419.51522684897327,-758.23492852703953
-3614.0459912989327,-764.44996892479605,2243.629583592287
-3834.6799254195021,-1053.4493474207557,1553.7600994406355
-4353.6357986326793,-2119.3287756370355,5040.3977625854404
-2358.6078309508875,1435.6743318831577,3116.8427594779268
-2647.6072094468486,-2802.9832193909165,2765.6929770043371
-2231.1995027967591,-363.57986326911066,2327.5326289620798
-2402.1131137352286,-599.75139838408461,3029.8321939092498
-6314.4810441267691,3032.9397141081336,-264.13921690491651
-1109.384711000612,627.71908017402336,3194.5307644499576
-4527.6569297700262,-164.69857054070806,-133.62336855190551
-1650.0932256059607,-1469.857054070847,2041.6407706650016
-3573.6482287134736,-1587.9428216283343,4117.4642635177015
-2203.2318210068233,568.67619639527618,2977.0043505282683
-1960.8452454940855,-553.1385954008673,888.7507768800408
-5099.4406463641844,-90.118085767554533,3881.2927284027214
-4080.1740211311235,-783.09509011808302,4247.9801118707155
-4030.4536979490249,814.17029210689964,3931.0130515848277
-5817.2778123057597,-646.3642013673051,2259.1671845866867
-2523.3064014915994,-77.688004972030441,1911.1249223119892
-1100.06215040397,-789.31013051584432,1382.8464885021713
-3474.2075823492728,-630.82660037289952,4052.2063393411927
-3387.1970167805953,-1050.3418272218687,4042.8837787445495
-2454.9409571162128,-62.15040397762575,1678.060907395896
-6006.8365444375231,-596.64387818520947,2296.4574269732625
-3402.7346177750032,-1721.5661901802298,2203.2318210068188
-4002.4860161590918,-1140.45991298943,3812.9272840273356
-506.5257924176446,-3530.1429459291389,3001.8645121193176
-3890.6152889993659,-313.85954008700912,2364.8228713486496
-4443.7538844002293,1311.3735239279013,3157.2405220633823
-2436.2958359229201,-425.73026724673412,1395.2765692976918
273.4617775015588,-1917.3399627097467,3262.8962088253493
-2964.5742697327405,-217.52641392169065,981.97638284648178
-3881.2927328479554,-372.90243289092035,2893.1012963578164
-5316.9670602858769,-2172.1566190180192,2862.0261031696541
-739.58980733374267,-158.48353014294437,811.06277190801188
-2806.0907395897943,649.47172156619354,2563.7041640770535
-3784.9596022374021,1065.8794282162798,1190.1802361715277
-3918.5829707892981,-2445.6183965195696,4297.7004350528096
-3297.0789310130413,633.93412242201055,2336.8551895587257
-3803.6047234306898,1019.2666252330615,3144.810441267859
-4804.2262274704626,-282.78433809819541,3921.6904909881782
-4518.3343691733844,2560.5966438781802,1743.3188315724012
-4027.346177750142,295.21441889372346,1880.0497203231735
-4220.0124300807856,-574.89123679303941,696.08452454939936
-1491.6096954630184,-3172.7781230577898,3617.1535114978115
-3188.3157240521905,149.16096954630052,2461.1559975139821
-2722.1876942200038,-2287.1348663766212,4866.3766314480899
-5195.7737725294983,2684.897451833433,1230.5779987569883
-3467.9925419515125,-229.95649471721487,3042.2622747047794
-537.60099440645911,-3747.6693598508268,5447.4829086388927
-3374.7669359850743,-2054.0708514605317,419.51522684896946
-4981.3548788066983,-1687.3834679925374,2650.7147296457315
-4390.926041019251,3225.6059664387726,1093.8471100062141
-3607.8309509011679,-2122.4362958359129,5428.837787445601
-1516.4698570540668,-658.79428216283111,248.60161591049621
-6308.2660037290016,1050.3418272218744,3132.3803604723307
