-3131.9702602230373,786.86493184634196,1517.9677819082972
-3813.5068153655384,-1694.5477075588544,4600.3717472118797
-5724.9070631970098,2794.2998760842552,504.95662949194121
-3441.7596034696321,1161.7100371747156,1505.5762081784324
-3990.0867410160959,728.00495662949265,2549.566294919447
-5938.6617100371604,-1431.2267657992552,1071.8711276331951
-2298.636926889706,-173.48203221808816,2007.4349442379137
-4776.9516728624385,545.22924411400163,3051.4250309789254
-3385.9975216852436,-539.03345724906853,2955.3903345724771
-2066.2949194547623,-786.86493184634151,2199.5043370507956
-2986.3692688971369,-1465.3035935563789,783.76703841387257
-4950.4337050805316,-1570.6319702602207,2184.0148698884645
-5433.7050805452109,4107.8066914498067,1765.7992565055692
-4241.016109045835,731.10285006195693,2757.125154894657
-1691.4498141263848,-1195.7868649318393,1837.0508054522825
-2561.9578686493091,597.89343246592443,1527.2614622056956
-1174.1016109045779,-6675.9603469640497,3701.9826517967645
-2280.0495662949097,-1390.9541511771947,2949.1945477075469
-3302.3543990086605,157.99256505576471,1964.0644361833897
-4033.4572490706191,-2081.7843866170938,2568.1536555142379
-2677.3951964005837,-918.48738964495567,2722.0482694223138
-68.153655514244392,-2134.4485749690098,4340.1486988847455
-3986.9888475836324,-2205.7001239157312,3689.5910780669014
-3413.8785625774335,467.7819083023569,2187.1127633209335
-4284.3866171003574,1291.8215613382877,219.95043370507389
-2716.8525402726023,-390.33457249070057,1787.4845105328311
-3342.6269987900464,151.79679303150292,1140.0247979881246
-4185.2540272614488,1310.4089219330838,1719.3308550185802
-2422.552664188343,-2314.1263940520394,1037.7942998760752
-3754.6468401486877,982.03221809169679,1508.6741016108974
-2180.9169764559988,-2270.7558859975134,3822.8004956629347
-2521.6852615396137,-811.64807930606992,972.73852777781258
-3649.3184634448426,1499.7986895254826,3438.6617100371654
-3277.5712515489349,-504.95662949194241,3246.5923172242697
-1889.7149938042019,-1205.0805452292393,2840.7682775712392
-895.29120198264468,-1579.9256505576132,1775.0929368029661
-3085.5018587360482,-1545.8488228004908,71.251548946711793
-4021.0656753407534,-799.25650557620236,3822.8004956629361
-4002.4783147459589,1245.3531598512961,-328.37670384139307
-5498.7608426269962,1722.428748451046,-362.45353159851788
-2995.6629491945368,-498.76084262700903,2199.5043370507901
-4848.2032218091517,2695.1672862453493,2583.6431226765749
-5086.7410161090293,1415.7372986369251,1849.4423791821505
-3732.9615861214274,-3739.1573729863603,5275.7125154894484
-1706.9392812887136,-1273.2342007434856,3782.5278810408809
-3200.1239157372852,-1208.1784386617057,3649.3184634448453
-1812.267657992558,-3423.172242874834,4154.2750929367885
-1421.9330855018541,-2661.0904584882196,2376.0842627013481
-1679.0582403965223,-3714.3742255266302,4578.6864931846212
-1988.8475836431196,-805.45229244113534,1586.1214374225483
-3782.5278810408818,539.0334572490716,4055.1425030978817
-4256.5055762081629,771.37546468401308,2620.8178438661612
-1443.6183395291164,-697.02602230483069,1604.7087980173428
-3379.8017348203116,923.17224287484464,1617.1003717472095
-3652.4163568773101,-139.40520446096562,3203.2218091697546
-6490.0867410160909,15.489467162328621,4200.7434944237821
-2087.9801734820239,-1375.4646840148664,1301.1152416356783
-1403.3457249070595,-2602.2304832713694,551.42503097892484
-2475.2168525402599,-1431.2267657992477,5328.3767038413689
-2685.8736059479461,-387.23667905823845,2326.5179677819006
-353.15985130110761,-3835.1920693928005,3844.4857496901941
-1347.5836431226685,-1960.9665427509246,-27.881040892202638
-1412.6394052044582,-1945.4770755885902,2908.9219330854935
-2026.0223048327059,-92.93680297397735,130.11152416356492
-3200.1239157372847,111.52416356877677,3990.0867410160981
-1521.0656753407602,-1310.4089219330806,2695.1672862453429
-3324.0396530359262,-439.90086741015887,2534.0768277571169
-123.9157372986346,-3835.1920693928009,1310.4089219330742
-4563.1970260222879,-1047.0879801734761,5241.6356877323233
-2744.7335811647936,-985.13011152415959,2484.5105328376608
-3956.0099132589721,-5015.4894671623188,2605.3283767038229
-1951.6728624535249,-1440.5204460966493,3100.991325898377
-4024.1635687732241,-858.11648079305758,3147.4597273853665
-3116.4807930607076,-9.2936802973956247,130.11152416356154
-2939.9008674101506,-1421.9330855018552,2685.8736059479484
-3516.1090458488106,-421.31350681536361,3150.5576208178309
752.78821913125421,-2472.1189591077946,2038.4138785625744
-1124.5353159851247,-5597.8934324659049,4755.2664188351719
-3658.6121437422439,1171.0037174721188,2961.5861214374163
-2936.8029739776862,-982.0322180916952,2357.4969021065604
-6251.5489467162142,-350.06195786865146,2431.8463444857343
-4352.5402726146112,-61.957868649321291,1409.5415117719874
-2843.8661710037063,154.89467162330155,3240.3965303593473
-3785.6257744733457,1081.1648079306058,1626.3940520446033
-3181.5365551424916,-399.62825278810237,1434.3246592317075
-1307.3110285006103,-2574.3494423791753,2970.8798017348063
-650.55762081783428,198.26517967782127,-842.62701363073552
-2630.1115241635612,-1013.0111524163536,1524.1635687732285
-1747.2118959107731,-879.80173482031603,2091.0780669144838
-5495.6629491945278,4206.9392812887154,1201.9826517967765
-3581.1648079305946,182.77571251549068,579.3060718711215
-2335.8116480792964,-55.762081784384698,1902.1065675340681
-4662.3296158611993,-765.17967781907794,4442.3791821561181
-4473.3581164807756,275.71251548946947,3398.3890954151134
-5198.2651796777991,2775.7125154894607,1536.5551425030933
-3429.3680297397646,1081.164807930606,1586.1214374225476
-433.70508054522531,-907.68277571250917,1657.3729863692624
-2066.2949194547646,-4838.9095415117581,3345.7249070631847
-4306.0718711276213,913.87856257744647,2822.1809169764479
-954.15117719949933,-4306.0718711276149,4163.5687732341894
-3903.3457249070507,-1771.9950433705023,4857.4969021065499
-3974.5972738537648,-269.51672862453267,3265.1796778190769
-4231.7224287484414,365.55142503097755,1933.085501858727
-2617.7199504336963,1149.3184634448573,1403.3457249070582
37.174721189594742,-805.45229244113386,2707.5588599752118
-2843.8661710037036,-322.18091697645815,2484.5105328376599
-4903.9653035935426,-1759.6034696406377,4993.8042131350512
-2778.8104089219241,3.0978934324683984,2853.1598513011045
-2859.3556381660378,49.566294919456652,2685.8736059479425
-2233.5811648079221,-1096.6542750929345,1926.8897149937986
-625.77447335811246,-4179.0582403965191,1183.3952912019747
-2202.6022304832622,-1985.7496902106468,2949.1945477075456
-3760.8426270136192,-1121.4374225526603,2661.090458488216
-1127.6332094175862,-802.35439900866959,2518.5873605947882
-4104.7087980173374,2651.7967781908242,1316.6047087980169
-3574.9690210656645,-483.27137546468111,2211.8959107806613
-5405.8240396530191,-2760.223048327131,4829.6158612143527
-2273.8537794299791,99.132589838909368,-935.56381660471573
-2369.8884758364229,-2611.5241635687648,2264.5600991325741
-2952.2924411400149,709.41759603469461,951.0532837670296
-1827.7571251548829,-1013.0111524163518,1861.8339529120128
-2081.7843866170888,-281.90830235439722,929.36802973977046
-2695.1672862453465,-3664.8079306071809,1626.3940520446031
-1731.7224287484451,-1660.4708798017284,2806.6914498141141
-3974.5972738537635,1728.6245353159843,1923.7918215613317
-3441.7596034696294,-2180.9169764560042,4368.0297397769364
-5585.5018587360473,-622.67657992564841,2627.0136307310922
-4495.0433705080395,882.89962825278724,2822.1809169764515
-4002.478314745963,-1682.1561338289935,2342.007434944222
-5065.0557620817626,579.30607187112787,1830.8550185873519
-3519.2069392812791,-2001.2391573729826,3138.1660470879679
294.29987608426563,1397.1499380421344,1508.6741016108986
-2831.4745972738374,1979.5539100122332,2010.5328410036386
-2679.6778190830141,-542.13135068153599,-281.90830235440751
-1028.5006195786782,-3147.4597273853665,3209.4175960346893
-5235.4399008673972,-1409.5415117719922,2478.3147459727279
-3330.2354399008555,-142.50309789343177,3197.0260223048222
-2524.7831474597142,-554.52292441139446,1539.6530359355506
176.57992565055838,-2100.3717472118879,1412.639405204457
-3652.4163568773106,591.69764560099111,1787.4845105328302
-1967.1623296158484,18.58736059480082,3791.8215613382795
-3116.4807930607085,-1716.2329615861165,1970.2602230483201
-2478.3147459727256,-690.83023543989577,3940.520446096642
-3026.6418835191967,-1375.4646840148657,2162.3296158612047
-1688.3519206939161,254.02726146221093,1390.9541511771981
-3048.3271375464583,-1356.8773234200673,2673.4820322180803
-2438.0421313506663,-1152.4163568773176,2760.2230483271255
-755.88600999417179,-1335.192081714117,1731.7224200554963
-4318.4634448574834,-1350.6815365551386,4327.757125154877
-4696.4064436183189,-526.64188351920211,4640.6443618339399
-3339.5291201982577,-1991.9454770755813,3584.2627013630622
-5631.9702602230273,120.81784386617109,4278.1908302354277
-2887.23667905823,105.32837670384153,-229.24411400248303
-3206.3196715567897,37.174763496597734,2348.2032829869186
-3358.1164807930459,799.25650557621009,2372.9863692688896
-3853.7794299875959,1322.8004956629475,1899.0086741016025
-4052.0446096654123,957.24907063196974,2995.6629491945432
-2658.069595572641,-350.1428399113791,1651.1040205132933
-3881.6604708797909,477.07558859975364,1747.2118959107704
-3959.1078066914374,-2605.328376703837,3522.3048327137412
-3516.1090458488052,1951.6728624535292,359.35563816604088
-2348.2032218091622,-1065.6753407682727,2812.887236679052
-2785.0061957868502,-2180.9169764560029,5539.0334572490556
-3605.9479553903197,-1133.828996282524,3135.0681536555039
-1459.1078066914392,-154.89467162329404,1530.3593556381536
-3438.6617100371595,464.68401486988341,1437.4225526641808
-4330.8550185873464,2973.9776951672811,1434.3246592317146
-1626.3940520445954,412.01982651797033,83.643122676570755
-3271.375464684003,40.272614622058214,2530.9789343246466
-1415.7372986369153,-1068.77323420074,2499.9999999999945
-5498.7608426269944,2196.406443618338,1725.5266418835088
-3993.1846344485052,-712.51548946709693,3252.7881040892871
-2180.9169764560006,399.62825278810743,4052.0446096654146
-2868.6493184634337,-2149.9380421313426,4535.3159851301016
-2447.3358117240628,1350.6815364772938,743.49442377327989
-3661.7100371747065,-235.43990086740587,3023.5439900867282
-2546.4684014869781,350.06195786864924,-257.1251548946754
-3398.3890954151061,1452.9120198265155,2072.4907063196911
-4962.8252788103946,-492.5650557620811,2211.8959107806568
-4587.9801734820157,1257.7447335811637,2905.8240396530255
-3763.9405204460822,-721.80916976455558,4566.2949194547582
-2391.5737298636868,-2029.1201982651764,3305.4522924411299
-393.43246592316893,-4730.4832713754522,4005.5762081784255
-4144.9814126393967,247.83147459727385,1651.1771995043309
-4067.5340768277451,-718.71127633209142,3147.4597273853651
-5006.1957868649179,173.48203221809504,4151.1771995043237
-3624.5353159851229,-755.88599752168443,2812.8872366790565
-4073.7298636926739,1592.3172242874812,1809.1697645600941
-2503.0978934324544,1254.6468401487,2518.5873605947927
-1310.4089219330749,-1579.9256505576132,3596.6542750929257
-873.60594795538464,-421.31350681536122,1524.1635687732303
-2329.6158612143659,-2534.0768277571192,2097.2738537794194
-390.33457249069841,-1245.3531598512936,1951.6728624535249
-2084.8822800495545,1496.2825278810392,1270.1363073110224
-3695.7868649318339,2568.1536555142466,1632.589838909535
-4488.8475836431107,-532.83767038413907,3931.2267657992411
-1517.9677819082931,-1313.5068153655459,1660.4708798017271
-5777.5712515489313,2750.9293680297296,2512.3915737298566
-3066.9144981412501,114.62205700123856,1477.6951672862447
-6567.5340768277292,4965.923172242864,1601.6109045848764
-2475.2168525402662,-1576.8277571251529,-504.95662949194531
-1105.9479553903279,-3990.0867410160981,1960.966542750919
-1880.421313506806,1248.4510532837692,2754.0272614622036
-4107.8066914497986,755.88599752168659,3773.2342007434822
-3683.3952912019704,783.76703841387655,1211.2763320941697
-2053.9033457248961,-2744.7335811647959,4591.0780669144824
-5635.0681536554948,1868.0297397769471,1325.8983890954066
-3193.928128872355,207.55885997521639,1892.8128872366672
-2930.6071871127515,-294.29987608426279,368.64931846343961
-3667.9058240396394,582.40396530359351,2267.6579925650431
-1502.4783147459671,-2661.0904584882178,3968.4014869888338
-3536.8804442505261,-2508.5602362052541,4727.4402394992712
-3364.3122676579774,-951.05328376703073,2812.887236679047
-4017.9677819082876,2041.5117719950399,2091.0780669144883
-3540.8921933085367,2338.9095415117649,2205.7001239157307
-2670.3841387856128,709.41759603469711,27.881040892189407
-2586.7410161090365,-938.66171003717079,616.48079306071338
-662.94919454769683,-393.43246592316711,3243.4944237918153
-1533.457249070625,343.86617100371592,932.46592317223565
-204.46096654274865,-2323.4200743494321,2026.0223048327073
-780.6691449814075,294.29987608426717,2444.2379182156028
-2180.9169764560006,1623.2961586121437,263.32094175959872
-2444.2379182156023,-666.04708798016998,2063.1970260222947
-1140.0247831474521,43.370508054525907,2431.8463444857452
-2019.8265179677737,-1068.7732342007384,3011.1524163568652
-1861.8339529120146,-805.45229244113796,2627.0136307310941
-2713.7546468401388,-789.96282527880783,3193.9281288723564
-1868.029739776938,275.71251548946594,1833.952912019816
-3249.6902106567477,-5254.0272614621927,3228.0049566294756
-1830.8550185873532,-4222.4287484510432,5449.1945477075396
-2177.8190830235371,-1747.211895910779,675.34076827756587
-2754.0272614621963,-1477.6951672862397,2757.1251548946648
-1787.4845105328334,-1112.1437422552629,2035.31598513011
-1626.3940520446022,24.783147459731143,260.22304832712888
-4519.8265179677692,1425.0309789343223,2342.0074349442316
-2744.7335811647954,-3788.7236679058115,5291.2019826517808
-3426.2701363073029,-1991.9454770755842,789.96282527879953
-5164.1883519207531,746.59231722421009,2224.2874845104443
-1644.9814126393969,-1307.3110285006144,2726.1462205700027
-2775.7125154894561,-2307.9306071871056,3819.702602230469
-2075.5885997521641,-2326.5179677819019,1908.3023543989987
-4021.0656753407548,1824.6592317224261,1586.1214374225437
-3451.0532837670276,-1006.8153655514219,1567.534076827749
-4045.8488228004826,-2013.6307311028449,4584.8822800495509
-4783.1474597273718,1437.4225526641851,3333.3333333333226
-3311.6480793060614,768.27757125154551,551.42503097892791
-1406.4436183395198,-1985.7496902106527,408.92193308549616
-4649.9380421313363,-241.63568773234351,1703.8413878562494
-2283.1474597273759,315.9851301115304,1263.9405204460957
-3348.8228004956477,-3144.3618339529021,4711.8959107806504
-3333.3333333333235,-913.87856257744579,2208.7980173481947
-3317.8438661709943,343.86617100371848,2549.5662949194439
-3079.3060718711158,-870.50805452292241,1192.6889714993722
-1446.7162329615803,-1443.6183395291134,3497.5216852540161
-2695.1672862453406,-2354.3990086740923,3385.9975216852422
-2939.9008674101533,-1486.9888475836406,139.40520446096028
-6310.4089219330672,3240.3965303593445,2007.4349442379123
-4780.0495662949043,2565.0557620817781,1929.9876084262614
-1998.1412639405121,-2239.7769516728576,2583.6431226765667
-1548.9467162329586,-2239.776951672854,2698.2651796778114
-2547.9471315761693,-1398.6286681313165,2429.2530230982925
-3559.4795539033325,-1294.9194547707518,3550.1858736059376
-4250.3097893432277,210.65675340768473,2317.2242874844997
-2902.726146220557,-777.5712515489414,4526.0223048327007
-1499.3804213135015,-3531.598513011143,1877.3234200743384
-4002.4783147459584,-1722.4287484510503,1508.674101610892
-4956.1624025812998,446.56757224059817,1769.3068102820223
-1830.8550185873544,-1186.4931846344471,805.45229244113978
-2156.1338289962746,-1093.5563816604656,1285.6257744733491
-4182.1561338289839,-3107.1871127633103,5157.9925650557461
-1821.5613382899546,-2676.5799256505511,4938.0421313506649
-2877.942998760836,-1229.863692688964,2750.9293680297251
-3094.7955390334482,-1065.6753407682741,3509.9132589838823
-4575.5885997521527,1211.276332094174,2153.0359355638061
-2357.4969021065585,-1973.3581164807881,1279.4299876084151
-1852.5402726146128,-1332.0941759603436,2583.6431226765721
-3274.4733581164674,-638.1660470879757,2047.7075588599719
-3376.7038413878445,-4371.1276332094067,6304.2131350681329
-1694.5477075588501,-1149.3184634448523,2385.3779429987503
-2555.7620817843781,-4442.3791821561244,3472.7385377942833
-3581.1648079305946,-223.04832713754584,867.41016109045427
-2236.6790582403896,-895.29120198265048,1914.4981412639338
-4231.7224287484369,-5065.0557620817744,4231.7224287484332
-1648.0793060718638,-4975.2168525402622,2063.197026022292
-2837.6703841387757,-588.59975216852411,2410.1610904584809
-4349.4423791821428,-2283.1474597273846,1062.5774473357988
-4786.2453531598394,684.6344485749662,1090.4584882279989
-3079.3060718711176,-421.31350681536452,2682.7757125154808
-3959.1078066914347,281.9083023544033,4817.224287484496
-3977.6951672862324,-1105.9479553903309,2738.5377942998653
-4693.3085501858604,1127.6332094175968,4092.3172242874762
-2670.384138785616,151.79677819083301,1818.4634448574893
-4513.630731102834,-851.92069392812687,3181.5365551424884
-2586.7410161090384,-848.82280049565952,2184.0148698884709
-1183.3952912019765,-489.46716232961217,1586.1214374225453
-1542.7509293680228,-4197.6456009913163,3906.4436183395142
-3571.8711276331969,-669.14498141263527,3506.8153655514147
-3079.3060718711145,-495.66294919454504,2620.8178438661589
-2558.85992881526,495.66298294115245,1877.3234327293164
-3525.4027261462043,-1626.3940520446047,3983.890954151163
-2283.1474597273727,58.859975216851716,1675.9603469640583
-1982.651796778182,-2329.6158612143622,4048.9467162329497
-1747.2118959107731,-309.78934324659161,1809.1697645600923
-6781.2887236678844,1502.478314745973,1232.9615861214304
-2057.0012391573596,1003.7174721189585,139.40520446096929
-1353.7794299875984,-1821.5613382899578,597.89343246591443
-3472.7385377942896,-480.17348203221638,3918.835192069379
-2785.0061957868543,55.762081784386012,204.46096654274484
-4042.7509293680205,120.81784386617046,916.97645600990643
746.59231722429047,-4055.1425030978749,2726.1462205700004
-3159.8513011152322,944.85749688608723,1158.6121437422471
-4879.1821561338138,-381.04089219331053,2465.9231722428658
-2162.3296158684198,-1579.925650560916,1508.6741015820346
-2896.5303593556278,-3311.6480793060614,3159.8513011152195
-3689.5910780669051,-461.58612143742221,2887.2366790582282
-1775.0929368029679,-2552.6641883519133,2775.7125154894579
-4485.7496890273269,532.83767275076718,303.59355638165448
-3751.5489467162233,758.98389095414905,1171.0037174721087
-3224.9070631970103,387.23667905824425,2391.5737298636823
-2800.495662949188,-1905.2044609665397,1316.6047087980078
-2568.1536555142379,-2252.1685254027211,4179.0582403965127
-241.63568773233706,-1889.7149938042028,3729.8636926889612
-3073.1102850061866,-1985.7496902106525,1013.011152416348
-907.68277571261297,-2091.0780669145261,3020.4460966540178
-2754.0272614621963,-2211.8959107806641,4609.6654275092787
-3234.2007434944126,1679.0582403965275,-985.13011152416846
-2614.6220570012306,-1954.7707558859945,1456.0099132589796
-5139.405204460948,1548.9467162329606,3147.459727385366
-2952.2924411400154,-2168.5254027261421,3008.0545229244021
-2159.2317224287385,-2785.0061957868534,5142.5030978934174
-1973.3581164807858,-3246.592317224276,4931.8463444857316
-2596.0346964064361,-179.67781908302186,2149.9380421313449
-3754.6468401486845,-746.59231722428422,2933.7050805452186
-4169.7645600991173,393.43246592317399,3029.7397769516651
-1443.618339529113,-2156.133828996275,3045.2292441139871
-2726.1462205699991,1586.1214374225515,1226.7657992564982
-3689.5910780669019,1273.2342007434947,2915.1177199504295
-4848.2032218091572,-1852.540272614619,3420.0743494423646
-4612.7633209417427,-913.878562577445,4104.7087980173301
-3810.4089219330713,266.41883519207016,3587.3605947955284
-3212.5154894671509,-458.48822800495577,3017.3482032218008
-6304.2131350681348,1957.8686493184566,3410.7806691449709
-3525.4027261462074,-2162.3296158612056,1967.1623296158498
-3754.6468401486818,-789.96282527880533,4522.9244114002322
-4058.240396530347,-96.034696406443928,-473.9776951672917
-5167.2862453531407,1013.0111524163556,3612.1437422552558
-2050.805452292434,-1477.6951672862406,2394.6716232961503
-3432.4659231722321,882.89962825278781,2100.3717472118929
-2298.6369268897056,-1087.3605947955357,1471.4993804213123
-1561.3382899628191,-913.87856257744363,2177.8190830235339
-2022.9244114002445,377.94299876084341,1183.3952912019784
-2766.418835192057,-1883.5192069392747,4114.0024783147337
-3423.1722428748321,-879.80173482031876,3258.983890954144
-4454.7707558859811,-504.95662949194309,3057.620817843851
-2438.0421313506754,-796.15861214374161,1508.6741016108992
-2335.8116480792964,-1353.779429987605,3643.122676579917
-3838.2899628252635,384.13878562577838,5483.2713754646729
-1310.4089219330822,-4104.7087980173374,4169.7645600991154
-3667.9058240396398,777.57125154894482,2627.0136307310931
-5322.1809169764374,966.73002247292618,3513.0111524163426
-1610.9045848822764,-1446.716232961581,2902.7261462205615
-3166.0470879801624,1025.4027261462213,257.12515489466386
-2372.9863692688859,-1775.0929368029654,3897.1499380421233
-5752.7881040892007,997.52168525402692,3847.5836431226608
-5697.0260223048135,2760.223048327131,1799.8760842626968
-2295.5390334572453,-1363.0731102850002,2933.7050805452204
-3348.8228004956541,-817.84386617100199,1418.8351920693835
-3144.3618339529012,-631.97026022304533,1530.3593556381561
-2859.3556381660319,3153.6555142503034,2723.048327137536
-1728.6245353159745,-1697.6456009913188,3426.2701363072997
-2047.7075588599666,-120.81784386616873,2029.1201982651708
-3413.8785625774385,-1236.0594795539016,2778.8104089219182
-5182.7757125154694,2289.3432465923147,2809.789343246583
-5275.7125154894511,1409.5415117719906,-40.272614622061312
-1372.3667905823947,-114.62205700123251,2973.9776951672798
-2081.7843866170938,-3271.3754646840098,1350.6815365551352
-4315.365551425024,-92.936802973978203,873.60594795537895
-3692.688971499369,238.53779429987569,1310.4089219330801
-1570.6319702602159,-1741.0161090458409,3801.1152416356745
-4702.6022304832532,-1161.710037174716,6232.9615861214197
-3853.7794299875964,-916.97645600990995,2289.3432465923079
-2961.5861214374099,-1669.7645600991239,5133.2094175960146
-2741.6356877323337,-2214.993804213128,3413.878562577434
-5576.2081784386455,-920.07434944237991,2149.9380421313381
-2918.2156133828876,653.65551425031049,2760.2230483271319
-4829.6158612143572,213.75464684014665,3035.9355638165912
-3131.9702602230336,-377.94299876083892,3141.2639405204391
-346.96406443618093,-1657.3729863692643,2066.2949194547659
-2822.180916976447,-1031.5985130111444,2434.9442379182037
-3578.0669144981302,464.68401486988779,2261.4622057001225
-3718.8648805399166,-670.41334055992058,-55.164404428623826
-3559.4795539033339,-77.447335811644649,3116.4807930607099
-1003.7174721189533,-4036.5551425030862,4129.4919454770634
-4095.4151177199365,350.06195786864924,4532.2180916976331
-1226.7657992565021,-2032.2180916976388,1140.0247831474544
-3525.402726146212,-1511.7719950433675,1155.5142503097852
-1756.5055762081713,-805.45229244113443,99.132589838904863
-3971.4993804212945,55.76208178438803,3413.8785625774321
-2998.7608426270044,-786.86493184634378,1877.3234200743443
-5164.1883399789895,1691.4498252719643,2112.7633241262038
-4151.1771995043246,-2478.3147459727329,3420.0743494423655
-3113.3828996282436,-405.82403965303223,2475.2168525402681
-3832.0941759603324,-170.38413878562488,1397.1499380421239
-4780.0495662949033,1236.0594795539007,2379.1821561338224
-3187.7323420074235,1728.6245353159813,1589.2193308550138
-4578.6864931846203,2174.7211895910732,861.21437422551958
-954.1511771994966,-2081.7843866170911,2800.4956629491835
-1886.6171003717411,-3751.5489467162224,4944.2379182155964
30.978934324667094,-2506.1957868649206,4711.8959107806577
-3116.4807930607058,340.76827757125233,3698.884758364301
-2335.8116480792951,-2416.3568773234097,3859.9752168525251
-3361.2143742255121,309.78934324658934,-216.85254027261786
-4126.3940529482325,-1403.3457254970347,2822.1809163341904
-3131.9702602230373,-49.566294919452787,867.41016109044836
-1028.1777888094882,-263.00035287075423,2091.2731105042144
-2230.4832713754545,-3807.3110285006078,3813.506815365532
-6140.0247831474444,1517.9677819082997,3832.0941759603397
-3798.0173482032101,-473.97769516728465,3023.5439900867354
-740.39653035935225,-1214.3742255266366,2292.441140024775
-3100.9913258983761,675.3407682775694,2586.7410161090402
-951.05328376703221,-1047.0879801734764,1892.8128872366729
-4510.532837670371,1127.6332094175937,1899.008674101605
-3804.2131350681407,-1347.5836431226726,3968.4014869888356
-7153.0359355637984,4919.4547707558768,2196.4064436183317
-5641.2639405204282,529.7397769516715,1459.1078066914386
-1657.3729863692593,-650.55762081783985,1790.5824039653007
-2518.5873605947872,-3097.893432465919,1669.7645600991207
-2989.4671623296035,628.87236679058378,2109.6654275092865
-2475.2168525402644,-2902.7261462205624,3636.9268897149773
-2744.7335811647954,808.55018587360257,3218.7112763320865
-2459.7273853779325,2230.4832713754631,954.15117719949603
-3531.5985130111408,824.03965303593532,2815.9851301115123
-3937.4229715495349,-666.04751434562195,2267.6577868624177
-1775.0929368029667,-3847.5836431226658,830.23543990086137
-4783.1474597273682,523.54399008674261,2983.2713754646734
-4188.3519206941073,929.36802973977444,365.55142503096886
-4092.3172242874753,-504.95662949194684,2236.6790582403873
-1257.7447335811592,-1666.666666666657,1827.7571251548854
-2828.3767038413725,-3212.5154894671514,5009.2936802973818
-3680.297397769506,-455.39033457248524,4495.0433705080368
-1960.9665427509201,-573.11028500619182,2825.2788104089118
-2338.909541511764,18.587360594799552,2218.091697645596
-3435.5638166046965,-978.93432465923036,1214.3742255266357
-4547.7075588599637,926.27013630730698,1446.7162329615812
-1787.4845105328277,-1174.1016109045779,3212.515489467155
-3550.1858736059353,-458.48822800495424,2453.5315985130051
-3410.7806691449682,-2041.5117719950372,3937.422552664174
-2633.2094175960274,-2118.959107806686,1914.4981412639293
-3556.3816604708659,-117.71995043370421,315.98513011151346
-5114.6220570012219,303.59355638166085,855.01858736058944
-2543.3705080545151,539.03345724907103,1068.773234200735
-1771.9950433705042,-2122.0570012391499,1028.5006195786784
-3915.7372986369141,-111.52416356877184,2754.027261462199
-4337.0508054522825,-789.96282527881033,1998.141263940513
-4680.9169764559911,74.349442379182022,3135.0681536555026
-3584.2627013630586,548.32713754646932,3286.8649318463367
-5117.7199504336904,223.04832713754382,2791.2019826517849
-2360.5947955390225,-994.42379182155514,1620.1982651796682
-4786.2453531598348,-805.45229244113943,1675.960346964056
-4296.7781908302259,288.10408921932913,377.94299876083835
-5381.0408921932967,-49.566294919457853,2549.566294919448
-3066.9144981412487,1437.4225526641872,1607.8066914498093
-2007.4349442379125,-3590.4584882279933,4894.6716232961444
-5681.5365551424857,2255.2664188351882,2348.2032218091604
-2853.1598513011045,362.45353159851129,1474.5972738537691
-3807.311028500606,-387.23667905823856,1799.8760842626923
-3320.9417596034559,498.76084262701426,2757.1251548946648
-3367.4101610904495,244.73358116480827,2537.1747211895772
-2029.1201982651746,235.43990086741152,935.56381660470527
-4755.2664188351764,582.40396530359362,1778.190830235425
-161.09045848822407,-4371.1276332094039,3674.1016109045686
-2490.7063197025936,-2174.7211895910723,2345.1053283766964
-2444.2379182156064,-92.936802973974466,1502.4783147459675
-3605.9479553903157,170.38413878562707,4172.8624535315912
-2069.3928128872267,-892.19330855018325,1536.5551425030915
-1802.9739776951553,-1335.192069392808,2716.8525402726041
-3438.6617100371609,-15.489467162329289,1617.1003717472058
-1675.9603469640624,-1883.5192069392758,2995.6629491945446
-5988.2280049566143,-486.36926889715045,3773.234200743485
-690.83023543989771,-3500.6195786864832,2385.3779429987499
-3556.381660470865,628.87236679058458,2772.6146220569885
-3844.4857496901968,-1047.0879801734789,3348.8228004956477
-3293.0607187112628,-1037.7942998760805,3915.7372986369119
-2964.6840148698757,-622.67657992564807,3509.9132589838796
-1211.2763320941674,-1347.5836431226712,2019.826517967776
-1846.3444857496847,-5315.9851301115068,5086.7410161090302
-2218.0916976455896,-814.7459727385309,5907.6827757125011
-5334.5724907063031,3689.5910780669078,1824.6592317224213
-2843.8661710037059,1208.1784386617087,2369.8884758364275
-5123.9157372986265,570.0123915737247,864.3122676579834
-1899.0086741016039,-2908.9219330854953,3661.7100371747038
-3736.0594795538896,-1065.6753407682727,3807.311028500606
-1691.4498141263862,-65.055762081780074,1505.576208178431
-3175.3407682775596,226.14622057001264,2540.2726146220498
-1762.7013630731028,-2230.4832713754558,2047.7075588599664
-167.28624535315248,-647.4597273853733,3023.5439900867327
-5851.9206939281094,3869.2688971499301,1806.0718711276252
-6121.4374225526426,3599.752168525396,2546.4684014869822
-4383.5192069392651,142.50309789343288,1387.8562577447244
-5789.9628252787916,836.43122676579844,3395.2912019826399
-467.78190830234814,-1964.0644361833868,2301.7348203221704
-4820.3221809169645,1171.003717472116,1397.1499380421287
-3540.8921933085398,1889.714993804211,3070.0123915737208
-3996.2825278810351,-3203.2218091697619,2819.0830235439789
-3463.4448574968933,-80.54522924411755,563.81660470879319
-3100.9913258983765,-1991.9454770755815,3073.1102850061825
-2642.5030978934233,-2143.7422552664152,390.33457249069716
-1830.8550185873523,-6040.8921933085385,4513.6307311028349
-4095.4151177199342,325.27881040892061,2583.6431226765708
-2193.3085501858641,-477.07558859974921,2967.7819083023414
-4061.3382899628109,2032.2180916976417,802.35439900866891
-944.85749690210253,-3828.9962825278699,4368.0297397769391
-4228.6245353159684,2639.4052044609625,830.23543990086137
-5040.2726146220439,-452.29244114002501,4293.6802973977565
-1768.8971499380361,-811.64807930607037,2112.7633209417509
-824.03965303592997,-3788.7236679058115,4306.0718711276186
-2301.7348203221723,1502.4783147459696,2162.3296158612097
-5195.1672862453352,3574.9690210656709,2416.3568773234142
-2283.1474597273759,-2682.7757125154781,2050.8054522924326
-1988.8475836431157,-681.53655514249988,2577.4473358116361
-2428.7484510532754,-901.48698884757925,2487.6084262701283
-3423.1722428748367,-3828.9962825278722,3169.1449814126227
-1499.380421313499,-2450.4337050805348,3828.9962825278667
-4309.1697645600843,-576.2081784386595,3717.4721189590905
-3559.4795539033325,176.57992565055741,2630.1115241635589
-2512.3915737298548,-1706.9392812887172,2524.783147459716
-2986.3692688971373,542.13135068153633,2314.1263940520353
-4110.9045848822652,-424.41140024783141,-892.19330855019359
-4027.2614622056858,-266.41883519206795,3135.0681536554994
-3906.4436183395183,-1068.77323420074,3503.7174721189508
-2602.2304832713648,-1130.7311028500546,3516.1090458488143
-3946.7162329615717,-1425.0309789343171,5594.79553903344
-1936.1833952911954,-2069.3928128872294,3085.5018587360455
-2775.7125154894543,-213.75464684014469,2403.9653035935471
-3441.7596034696271,-272.6146226237488,3952.9120198265077
-3612.1437422552517,263.32094175960526,2193.3085501858641
-4804.8327137546266,724.90706319702701,1576.8277571251479
-6217.4721189590882,3711.2763320941613,600.99132589838291
-3633.8289962825161,71.25154894671455,1183.3952912019765
-4377.3234200743327,-384.13878562577247,3014.2503097893295
-1127.6332094175839,9.2936802974029433,4491.9454770755756
-1920.6939281288642,-721.80916976455785,2623.915737298631
-1905.2044609665363,-4814.1263940520321,5260.2230483271233
-2459.7273853779352,-1514.869888475833,2493.8042131350521
-3153.6555142503016,-1852.5402726146169,2602.2304832713671
-4433.0855018587263,-55.762081784391903,1118.3395291201859
-666.0470879801652,-551.42503097892984,1164.80793060718
-3457.2490706319559,-1716.232961586114,3788.7236679058083
-1366.1710037174644,-2199.5043370507992,1143.1226765799142
-3026.6418835191957,-306.69144981412558,3212.5154894671505
-2574.3494423791753,-2156.1338289962732,3825.8983890954014
-4872.9863692688859,969.64064436182753,-40.272614622062434
-2884.1387856257643,-1105.9479553903313,2865.5514250309702
-1400.2478314745883,-3277.5712515489367,3355.0185873605828
-3351.9206939281198,-4064.4361833952835,3277.5712515489272
-2840.7682775712397,238.53779429987682,1564.4361833952848
-4916.3568773234074,-762.08178438661389,3971.4993804213018
-3921.9330855018466,-2338.9095415117663,2128.2527881040787
-3863.0731102849945,-1359.9752168525345,4262.7013630730989
-2357.4969021065544,350.06195786864907,2431.8463444857366
-3519.2069392812755,923.17224287484862,3302.3543990086682
-2899.628252788094,-2661.0904584882255,2029.1201982651701
-3674.1016109045727,-1781.2887236679021,3023.5439900867304
-2592.9368029739617,-662.94936142042957,3327.1375464683883
-3091.6976456009829,288.10408921933276,1700.7434944237903
396.53035935564048,-3262.0817843866071,2769.5167286245296
-2704.4609665427365,1641.8835192069389,2986.3692688971419
-625.77447335811064,-1790.5824039652955,1700.7434944237853
-2908.9219330854912,-1301.1152416356811,3426.2701363073006
-2397.7695167286156,164.18835192069466,3320.9417596034623
-2053.9033457248993,-768.27757125154665,743.49442379181346
-5176.5799256505416,-1112.1437422552651,1462.2057001239032
-2754.0272614621945,-669.14498141263653,2428.7484510532713
-2103.4696406443518,-1121.4374225526594,2955.3903345724825
-5697.0260223048163,851.92069392812641,861.21437422551412
-545.22924411400106,-4423.7918215613281,1344.4857496902018
-5814.7459727385149,3965.3035935563721,-204.46096654275948
-3968.4014869888333,1548.9467162329606,1409.5415117719861
-2159.231722428739,-920.07434944237571,2599.1325898388986
-2431.8463444857407,-1381.6604708797954,2692.0693928128794
-272.61462205699638,-2273.8537794299796,2230.4832713754581
-5334.5724907063059,1344.4857496902034,359.35563816604076
-2410.1610904584782,-229.24411400247845,1762.7013630731021
-1781.2887236678955,-2391.5737298636845,2887.2366790582296
-3466.5427509293559,944.85749690210378,2970.8798017348163
-5554.5229244113816,-706.31970260223,3066.9144981412501
-3664.8079306071718,325.27881040892316,2376.0842627013549
-1644.9814126393994,-2026.022304832705,4352.5402726146121
-4454.7707558859793,1363.0731102850032,1855.6381660470793
-2927.5092936802898,-1387.8562577447303,3246.5923172242774
-811.6480793060656,-3209.4175960346879,3587.3605947955257
-4851.3011152416202,2428.7484510532822,2016.7286245353102
-4649.9380421313372,2379.1821561338238,322.18091697644957
-1493.1846344485634,-2970.8798017348113,3370.5080545229102
-2515.4894671623229,740.39653035935555,1868.0297397769482
-3509.9132589838778,-644.36183395291368,2199.5043370507974
-5362.4535315985013,359.35563816604287,-1486.9888475836506
-1607.8066914498065,185.87360594795584,309.7893432465865
-653.65551425030151,-771.37546468401297,994.42379182155753
-2812.8872366790506,-1970.2602230483217,5188.9714993804064
-5920.0743494423577,3726.7657992564946,1762.7013630731049
-2763.3209417595917,-387.23667905824016,901.48698884758051
-1806.071871127627,-2530.9789343246525,247.83147459726808
-4002.4783147459611,-21.685254027263447,2475.2168525402658
-2964.6840148698816,1462.2057001239164,978.93432465922604
-3754.6468401486886,458.48822800495617,1595.4151177199467
-4086.1214374225442,-229.24411400248007,1406.4436183395219
-2620.8178438661603,-991.3258983890928,2019.8265179677699
-2964.6840148698752,-693.92812887236119,3615.2416356877243
-910.78066914497299,-3203.2218091697528,3689.591078066906
-3277.5712515489295,489.46716232961626,2146.8401486988769
-1440.5204460966481,-3488.2280049566198,1418.8351920693858
-439.90086741015648,-2800.4956629491876,4501.2391573729792
-4600.3717472118824,2555.7620817843808,1620.1982651796714
-3618.3395291201864,-1298.0173482032183,3147.4597273853633
-4618.9591078066787,-1452.9120198265139,4293.6802973977574
-3624.5353159851174,2193.3085501858654,-179.67781908303044
-3931.2267657992402,-746.59231722428217,4786.2453531598394
-4894.6716232961471,1047.0879801734775,1840.1486988847503
-5198.2651796778036,535.93556381660221,1942.3791821561244
-2450.433705080532,232.34200743494662,1815.3655514250249
-1725.5266418835088,-285.00619578685956,3937.4225526641785
-3636.9268897149814,201.36307311028588,2555.7620817843754
-5408.9219330854812,3370.5080545229162,1821.5613382899503
-2177.8190830235326,-1703.8413878562505,3014.25030978933
-1443.6183395291141,-1837.0508054522859,3553.2837670384033
-4271.9950433704944,1065.6753407682747,2118.9591078066815
-4144.981412639394,-1074.969021065674,3240.3965303593477
-4055.1425030978826,560.71871127633199,3330.2354399008591
-3382.8996282527746,489.4671623296137,597.89343246591943
-2645.600947335769,-1750.3097893432425,758.98392028089211
-1384.7583643122618,-1998.141263940515,1945.4770755885922
-873.60594795538657,-3615.2416356877211,3869.2688971499279
-2503.097893432453,-827.13754646839698,1332.094175960339
188.97149938042654,-4052.0446096654155,1254.6468401486886
-2949.1945477075456,-2100.3717472118888,3339.5291201982564
-1827.7571251548834,-954.1511771995016,1102.8500619578645
-4522.9244114002322,851.92069392812755,944.85749690209639
-2741.6356877323315,49.56629491945457,2317.2242874845001
-4671.6232961585938,18.587360594801947,3581.1648079306001
-5046.4684014869745,982.03221809169634,1561.3382899628191
-2174.7211895910641,182.77571251549139,2165.4275092936737
-1818.4634448574882,-5697.0260223048135,5517.348203221788
-3522.3048327137449,-1152.4163568773206,2893.4324659231606
-6226.7657992564855,1688.3519206939245,3045.2292441139925
-3382.8996282527764,-2623.9157372986292,5356.2577447335616
-817.84386617099915,-2893.4324659231606,2812.8872366790511
-433.70508054522389,-3373.6059479553778,2434.9442379182019
-845.72490706319138,-4402.1065675340642,4185.2540272614488
-3999.3804213134958,811.64807930606878,1610.9045848822673
-2710.6567534076712,-127.01363073110258,975.8364312267579
-2874.845105328362,-3258.9838909541395,5123.915737298621
-4569.3928128872176,1338.2899628252765,2261.462205700117
-539.03345724906364,-3482.0322180916864,3760.8426270136174
-4947.3358116480649,-1056.3816604708757,3531.598513011138
-1468.4014869888435,-1084.2627013630702,1276.3320941759505
-1322.8004956629416,-3581.1648079305905,4423.7918215613263
-1428.1288723667842,-960.34696406443106,1081.1648079306015
-1118.3395291201932,-3370.5080545229148,3754.6468401486845
-3212.5154894671487,-885.99752168525174,3658.6121437422462
-1737.9182156133738,-356.25774473358013,1418.8351920693833
-3810.4089219330713,-92.936802973977223,3398.3890954151047
-3884.7583643122512,-1155.5142503097863,3203.2218091697528
-5074.3494423791681,294.29987608426308,2964.6840148698802
-405.82403965303126,-3649.3184634448448,3299.2565055761902
-4987.6084262701179,2419.4547707558831,2320.3221809169695
-3268.2775712554289,982.03221808377464,1081.1648079262911
-5368.6493184634273,2103.4696406443554,1899.0086741015994
-3475.8364312267549,-108.42627013630725,2707.5588599752064
-2091.0780669144929,-2921.313506815357,4092.3172242874721
-2493.8042131350594,-666.04708798017361,291.20198265178988
-1313.506815365542,-4265.7992565055629,4594.1759603469463
-4900.8674101610795,2388.4758364312206,889.09541511771567
-926.27013630730403,-1270.1363073110217,1239.1573729863626
-1895.9107806691359,-1025.4027261462161,2506.1957868649179
-4975.2168525402531,1025.4027261462174,2856.2577447335693
-4491.9454770755765,-1496.2825278810342,4538.4138785625628
-4724.2874845105189,-18.58736059479547,3011.1524163568702
-3807.3110285006064,-9.2936802973972785,2921.313506815351
-2843.8661710037072,1220.5700123915733,3574.969021065669
-3355.0185873605797,1530.3593556381668,1929.9876084262596
-1567.5340768277463,-771.37546468401149,988.2280049566242
-5154.8946716232786,-1146.2205700123873,4835.8116480792905
-4064.4361833952835,-1158.612143742253,204.46096654274723
-2270.755885997517,-1871.1276332094139,3172.2428748450948
-4160.4708798017218,-833.33333333333064,3701.982651796764
-4538.4138785625673,1877.3234200743468,1753.4076827757062
-2952.2924411400122,-734.20074349442018,2955.3903345724802
-3209.4165346231457,-1437.4212176074789,2645.6028985497533
-2942.9987608426136,-913.87856257744465,1651.1771995043302
-4615.8612143742084,1827.7571251548927,1542.7509293680228
-616.48079306071429,-3017.3482032217971,3432.4659231722394
-1877.3234200743427,-5535.9355638165935,2840.7682775712387
-3237.2944416782389,458.49122461112506,1016.111443133757
-2087.9801712629433,-331.47459391019055,1886.6171055106659
-2778.8104089219255,-1722.4287484510485,1505.5762081784296
-3091.6976456009811,-4101.6109045848698,5758.9838909541286
-3485.1301115241522,1189.5866100872504,1660.4708798017209
-3209.4175960346815,-467.7819083023486,3429.36802973977
-4454.7707558859865,1685.2540272614592,331.47459727385092
-4944.2379182156037,71.251548946714749,1784.3866171003654
-5210.6567534076612,3274.4733581164751,306.69144981412148
77.447335811651627,-3017.3482032217976,2781.9083023543844
-2376.0842627013503,-684.63444857496359,3568.7732342007348
-1561.3382899628191,15.48946716233397,1223.66790582403
-3729.8636926889576,1096.6542750929354,1877.3234200743441
-2803.5935563816497,1359.9752168525372,-789.96282527881488
-3042.1313506815204,-1837.0508054522804,3884.7583643122566
-4203.8413878562442,669.14498141263994,-294.29987608426507
-3640.0247831474526,-157.99256505576164,1378.5625774473313
-2874.8451053283666,-1443.6183395291182,1589.2193308550081
-5331.4745972738338,2834.5724907063145,2252.1685254027216
-5207.5588599752036,2041.5117719950379,2047.7075588599689
-954.15117719950194,-2168.5254027261381,2503.0978934324567
-2964.6840148698775,30.978934324654851,885.99752168524174
-3466.542750929355,-774.47335811647872,3277.571251548934
-3841.387856259224,-1666.6666666684871,3680.2973977676133
-3131.9702602230386,-731.10285006195511,2441.1400247831425
-5058.8599752168348,-1047.0879801734773,4092.3172242874662
-4708.7980173481883,-1164.8079306071841,3971.4993804212986
-3925.0309789343096,-3258.9838909541372,6158.6121437422389
-2273.8537794299777,-368.64931846344064,2137.5464684014801
-3370.508054522913,1016.1090458488237,1651.1771995043341
-3107.187112763314,-1161.7100371747176,882.8996282527828
-4110.9045848822689,-1248.451053283766,625.7744733581078
-260.22304832713127,-1753.4076827757044,2029.1201982651705
-3636.92688971498,511.15241635688051,1796.7781908302281
-1369.2688971499317,-2044.6096654275007,2856.2577447335752
-1725.526641883511,-2112.763320941749,4216.2329615861099
-244.73358116480361,-3011.1524163568656,3246.5923172242774
-4259.6034696406296,-2239.7769516728554,6031.5985130111312
-4587.9801734820167,-3324.0396530359285,4522.9244114002286
-3835.1920693928009,1412.6394052044529,1217.3387690148352
-3593.5563816604604,-2574.3494423791749,3664.8079306071741
-4138.7856257744606,1598.3628175188451,3097.8934324659135
-3695.7868649318411,-433.70508054522406,1105.9479553903309
-4897.7695167286129,-1328.9962825278808,1545.8488228004908
-4699.5043370507929,-848.82280049566202,3150.5576208178331
-492.5650557620765,-2131.3506815365431,3423.1722428748371
-5600.9913258983743,1459.107806691447,254.02726146220263
-2912.0198265179547,1564.4361833952903,1239.1573729863683
-718.71127683693214,-3677.1995043370384,4163.5687732341921
-3416.9764560098997,-1149.3184634448551,1431.226765799247
-4355.6381660470706,495.66294919454748,3571.8711276331946
-5498.7608426269981,-1347.5836431226737,3271.3754646839984
-1462.2057001239086,-1976.4560099132511,4349.4423791821455
-3175.3407682775623,-21.685254027261539,176.57992565055289
-1198.8847583643028,-2032.2180916976367,2165.4275092936696
-2314.1263940520398,-226.14622057001208,2614.6220570012333
-3841.3878562577315,1232.9615861214356,2379.1821561338193
-4114.0024783147337,-2496.9021065675288,4612.7633209417454
-5320.5298850643285,114.98473058305723,325.06197282120849
-3466.5427509293586,-2211.8959107806609,3314.7459727385231
-4135.6877323419903,1257.7447335811639,3661.710037174711
-3358.1164807930504,-610.28500619578494,3915.7372986369155
-2908.9219330854921,-442.99876084262263,3500.6195786864851
-3584.2627013630577,-1130.731102850059,4055.142503097878
-4671.6232961585956,836.43122676579969,3463.4448574968887
-1062.5774473358028,-2338.9095415117608,5638.1660470879669
-2738.5377942998639,796.15861214374058,1400.2478314745929
-3351.9206939281153,954.15117719950319,941.75960346963723
-1558.2403965303515,-2292.4411400247777,2961.5861214374108
-1090.458488227996,-2196.4064436183294,2933.7050805452191
-2986.3692688971387,-480.17348203221599,2983.271375464672
-4420.6939281288569,-542.13135068153804,439.90086741015341
-4290.5824039652907,-390.33457249070449,2695.1672862453388
-5511.1524163568592,-37.174721189591082,830.23543990085852
-3091.6976456009816,1688.3519206939254,-523.54399008674875
-978.9343246592274,-2078.6864931846299,1617.1003717472083
-2351.3011152416275,-1998.1412639405116,2156.1338289962709
-3153.6555142502971,-285.00619578686354,396.5303593556344
-3763.940520446085,-1242.2552664188286,4064.4361833952808
-3543.9900867410061,1118.3395291201975,1511.771995043362
-5477.075588599736,-1062.5774473358063,5703.2218091697487
-4064.4361833952798,-309.78934324658888,4507.4349442379016
-3844.4857496901968,-1425.0309789343212,3760.8426270136165
-6171.003717472101,-1102.8500619578674,2642.5030978934224
-3426.2701363072983,-1620.1982651796718,4959.7273853779279
-3246.5923172242788,439.90086741016245,2434.944237918206
-799.25650557620384,-1874.225526641877,2165.4275092936732
-3051.4250309789236,2735.4399008674059,-77.447335811651968
703.22180916976527,-1623.296158612138,1276.3320941759498
-3633.8289962825188,-1490.0867410161063,161.09045848821765
-4680.916976455992,-151.79677819082823,4371.1276332094039
-2651.796778190816,473.97769516728789,4408.3023543989975
-4017.9677819082881,229.24411400247823,2778.8104089219191
-4547.7075588599582,2190.2106567534042,2676.5799256505534
-2760.2230483271296,-1874.2255266418788,3014.2503097893305
-2391.573729863685,176.57992565055756,1976.4560099132532
-3320.9417596034586,529.73977695167434,3491.3258983890837
-1171.0037174721169,-2973.9776951672784,1933.0855018587263
-3314.7459727385281,1.7591875911383818e-13,-192.06939281288828
-4885.3779429987444,-576.20817843866143,3581.1648079305896
142.50309789343655,-4801.7348203221609,6195.7868649318289
-947.95539033456703,-926.2701363073063,1452.9120198265121
-2565.0557620817722,1037.7942998760859,2131.3506815365481
-2809.7893432465844,-2187.1127633209335,3767.0384138785516
-5690.8302354398811,4671.6232961586065,1028.5006195786839
669.14498141264482,-2537.1747211895781,2177.8190830235353
-3339.5291201982564,275.71251548946748,3361.2143742255194
-3553.2837670384024,-396.53035935563929,1917.5960346963964
-4061.3382899628109,-30.978934324659072,2930.6071871127556
-3835.1920693927973,2791.2019826517926,2989.4671623296058
-1158.6121437422501,-2314.1263940520389,2896.5303593556296
-3110.2850061957779,-390.33457249070801,343.86617100371171
-1344.6216346642173,-4460.3671752359178,3702.6405730018532
-3959.1078066914406,-1180.2973977695119,3401.4869888475669
-2187.1127633209312,-811.64807930606946,3240.3965303593436
-1096.6542750929302,-3159.8513011152318,2840.7682775712397
-2856.2577447335657,24.783147459728468,2484.5105328376585
-4014.8698884758237,-480.17348203221542,743.49442379181608
-4454.770755885982,-1171.003717472116,2645.6009913258881
-2530.9789343246471,244.7335811648108,2366.7905824039585
-2218.0916976455951,-4572.4907063196943,4897.7695167286038
-2273.8537794299709,-1304.2131350681439,4612.7633209417436
-3838.2899628252717,-368.64931846344484,2908.9219330854958
-3361.2143742255175,-1632.5898389095373,1840.1486988847489
-5157.9925650557489,1517.9677819080814,774.47335811647304
-2747.8314745972634,-728.00495662948913,3039.0334572490592
-3240.3965303593391,3460.3469640644321,2431.8463444857402
-3197.0260223048226,325.27881040891975,2549.5662949194416
-4306.0718711276249,-306.69144981412614,619.57868649318493
-1047.0879801734745,-2701.3630731102749,3568.7732342007243
-4436.1833952911911,-771.37546468401615,2097.2738537794153
-4622.0570012391445,1784.3866171003642,1784.3866171003665
-3283.7670384138664,-371.7472118959094,3305.4522924411276
-2199.504337050802,-4869.888475836422,3066.9144981412478
-4302.9740655374217,901.48690100531246,1737.9181277711059
-4575.5885997521536,-1270.136307311021,4857.4969021065544
-1344.4857496902034,-1443.6183395291196,796.1586121437382
-5703.2218091697468,3754.6468401486914,1809.1697645600955
-1877.32342007434,1143.1226765799265,666.04708798017066
-2970.8798017348095,120.81784386617127,585.50185873605096
-3565.675340768264,647.45972738537625,2196.4064436183312
-5641.26394052043,2174.7211895910714,2397.7695167286201
-4151.1771995043227,2599.1325898389046,1087.3605947955296
-3553.2837670384029,-464.68401486988836,3838.2899628252653
-3921.9330855018429,-365.55142503098114,1666.6666666666595
-1970.2602230483169,-1604.7087980173394,4175.9603469640506
-4767.6579925650431,-3070.0123915737222,4104.7087980173337
-1009.9132589838837,-1521.0656753407625,2651.7967781908201
-6864.9318463444642,315.98513011152261,1121.4374225526512
-2354.3990086740891,9.2936802974022399,4302.9739776951574
-4340.1486988847428,1022.3048327137508,2983.271375464677
-3054.5229244113889,-433.70508054522901,1338.2899628252717
-3169.1449814126267,-151.79677819082599,4042.7509293680159
-470.87980173481742,-3745.3531598512923,3519.2069392812746
-3742.2552664188233,-2193.3085501858723,-99.132589838920069
-1979.5539033457117,-1372.3667905823957,3952.9120198265064
-3897.1499380421224,-2431.8463444857434,3578.0669144981252
-6294.9194547707402,1954.7707558859918,1799.8760842626923
-1833.9529120198185,241.6356877323436,1096.6542750929282
-3032.8376703841286,-861.21437422552287,3011.1524163568693
-2462.8252788103964,1679.0582403965334,3509.9132589838791
-3085.5018587360487,164.18835192069142,-257.12515489467381
-1356.8773234200669,-3197.0260223048213,4293.6802973977537
-2834.57249070631,-758.98389095414984,2908.9219330854876
-1158.6121437422491,-1988.8475836431155,2868.6493184634287
-1902.1065675340642,-49.566294919450883,3999.3804213134972
-3509.9132589838769,-1412.6394052044582,2286.2453531598389
-2521.6852540272503,-1291.8215613382838,4690.210656753392
-1208.1784386617035,-585.50185873605119,1465.3035935563751
-1245.3531598512934,-1991.9454770755822,2995.6629491945364
-4222.4287484510414,-913.87856257744568,4138.7856257744579
-3277.5712515489349,-2487.6084262701252,5176.579925650547
-2930.6071871127538,-2041.5117719950349,2964.6840148698766
-4151.1771995043237,-659.85130111524188,1521.0656753407577
-3097.8934324659117,-520.44609665427345,2710.6567534076703
-4098.5130111524013,136.30731102850086,3070.0123915737208
-5814.7459727385258,1053.2837670384104,1031.5985130111414
-3587.3605947955248,-473.97769516728226,3107.1871127633112
-4835.8116480792887,1722.4287484510503,3342.6270136307203
-3221.8091697645496,-2422.5526641883439,4225.5266418835045
-4086.1214374225424,-15.489467162329467,3578.0669144981293
-3268.2775712515381,-3184.634448574961,4584.8822800495527
-3500.6195786864805,-6.1957868649316596,1533.4572490706209
-4172.8624535315848,-579.30607187112548,3234.2007434944103
-3432.4659231722289,-1140.0247831474542,3897.1499380421214
-2747.8314745972662,-1589.219330855012,2794.2998760842493
-5021.6852540272466,3376.7038413878504,1883.5192069392749
-2444.237918215606,-1047.0879801734764,3444.857496902097
-4278.1908302354268,616.48081114902277,3550.1858736059348
-3571.8711276331983,-390.33457249070335,4857.4969021065599
-3215.613382899618,1022.3048327137543,1294.9194547707561
-4649.938042131339,-24.783147459726358,3330.2354399008532
-4820.3221809169636,1180.2973977695137,2233.5811648079198
-3277.5712515489358,-991.32589838909257,2788.1040892193191
-2242.8748451053179,-1019.2069392812855,2168.525402726139
-3661.7100371747097,786.86493184634514,1920.6939281288633
-4962.8252788103955,-2.6739651385303405e-12,337.67038413877845
-1731.7224287484439,-3327.1375464683924,4643.7422552664084
-4550.805452292424,780.66914498141261,3454.1511771994919
-3395.2912019826408,-715.61338289962453,1960.9665427509237
-1880.421313506806,-2360.5947955390216,4684.0148698884595
-625.77447335811257,-2465.9231722428649,2546.4684014869763
-5108.4262701362904,-430.60316167519994,3996.2825278810237
-3810.4089219330717,2698.2651796778096,542.13135068153008
-1710.0371747211809,-3568.7732342007339,2450.433705080537
-2159.231722428739,-3469.6406443618221,4414.4981412639299
-1706.9392812887174,-5117.719950433695,5607.1871127633049
-1514.8698884758294,-213.75464684014608,1933.0855018587301
-4117.1003717471949,-1771.9950433874053,1545.8488228004856
-4773.8537794299709,-1474.5972738537751,4439.2812887236605
-1753.4076827757083,-396.53035935563412,2174.7211895910723
-3770.1363073110128,-1675.9603469640565,3249.6902106567413
-4405.2044609665263,-2357.4969021065576,4581.7843866170815
-2664.1883519206849,-2893.432465923162,6155.5142503097741
-3243.4944237918112,-2704.4609665427429,5102.230483271358
-4138.7856257744561,3990.0867410161027,2410.161090458485
-3104.0892193308441,-412.01982651796664,2825.2788104089104
-3358.1164807930495,-2936.8029739776862,5669.1449814126208
-3193.9281288723528,-1756.5055762081702,5405.82403965302
-2153.0359355638057,-1205.0805452292386,2490.7063197025927
-2580.5452292441014,1171.0037174721165,1022.3048327137506
-3429.3680297397668,272.61462205700377,2750.9293680297319
-2806.6914498141118,-538.91887675715645,3804.2704253140987
-3138.1660470879719,-2153.0359355638084,3184.6344485749646
-2868.6493184634314,768.27757125154847,2087.9801734820267
-4501.2391573729719,972.73853779429737,1536.555142503091
235.43990086741582,-3348.8228004956545,2459.7273853779279
-6267.0384138785384,-477.07558859974966,5687.7323420074135
-2214.9938042131266,-5092.9368029739653,3429.3680297397614
-4014.8698884758264,-219.95043370507685,3308.5501858735929
-3330.235439900855,-755.88599752167909,3788.7236679058142
-2685.8736059479479,-954.15117719949967,1517.9677819082958
77.44732852908983,-2465.9231758841474,2428.7484474119924
-4752.1685254027134,1459.1078066914456,731.10285006195397
-2614.6220570012279,-963.44485749689841,3110.2850061957765
-3082.4039653035829,346.96406443618281,1121.4374225526612
-3094.7955390334455,-1093.5563816604663,3537.7942998760718
-1415.7372986369187,-3066.9144981412533,4826.5179677818905
-4231.7224287484396,-631.97026022304431,4058.2403965303461
-3884.7583643122557,207.55885997521577,1583.0235439900782
-4736.6790582403801,-446.09665427509117,3500.6195786864805
-2304.8327137546348,-1102.8500619578631,4011.7719950433584
-3729.8636926889567,2518.5873605947927,1830.8550185873544
-2509.2936802973868,-1995.0433705080484,3770.1363073110106
-3094.7955390334446,61.957868649320886,762.08178438660218
-2493.8042131350589,-1688.3519206939268,2868.6493184634314
-3521.1237017081066,304.38770292860687,628.4995066725877
-2050.8054522924294,-2143.7422552664102,3420.07434944237
-2026.0223048327059,-3596.6542750929257,4402.1065675340633
-4615.8612143742112,381.04089219330803,1852.5402726146172
-2905.8240396530264,-1112.143742255264,1967.1623296158514
-4996.9021065675197,322.18091697645264,1446.7162329615769
-3051.425030978919,1164.8079306071859,1412.6394052044539
-2481.412639405195,731.10285006195988,1641.8835192069378
-7081.7843866170833,1053.2837670384104,3345.7249070631806
-4024.1635687732196,1341.3878562577438,2723.0483271375369
-3618.3395291201846,1710.0371747211873,2372.9863692688914
-2850.0619578686387,-4120.198265179667,3866.1710037174576
-5325.2788104089032,2611.5241635687657,142.50309789342811
-1976.4560099132539,37.174721189594322,2323.4200743494339
-1840.1486988847482,-1028.5006195786839,2264.5600991325796
-3776.3320941759503,-312.88723667905475,3801.115241635679
-2791.2019826517803,-173.48203221808765,2654.8946716232845
-4163.5687732341876,1028.5006195786821,662.94919454770013
-3956.009913258963,12.391573729873418,3060.7187112763268
-1034.6964064436138,-1830.8550185873582,498.76084262700482
-786.8649318463398,-858.11648079305849,2850.0619578686415
-2369.8884758364215,-1505.5762081784324,4182.1561338289821
-2918.2156133828898,780.66914498141148,2094.1759603469559
-2856.2577447335702,-2942.9987608426163,5136.307311028484
-6604.7087980173301,-1524.1635687732314,4811.0285006195627
-3234.200743494413,-1105.9479553903341,616.48079306070963
-3305.4522924411299,-1133.8289962825252,1037.7942998760755
-4866.7905824039462,1000.6195786864913,3094.7955390334437
-3367.4101610904454,1.6888200874928467e-12,2478.3147459727243
-2530.9789343246525,-1623.296158612138,4157.3729863692597
-3379.8017348203075,2230.4832713754595,799.25650557620509
-2501.3486691362532,-25.744047177692941,1866.1855541842181
-5508.0545229243962,1006.8153655514232,2695.167286245347
-4377.3234200743364,-37.174721189587849,3562.5774473357983
-2332.7137546468302,-1641.8835192069309,2627.0136307310922
-4110.9045848822661,926.27013630731062,2391.5737298636809
-1713.1350681536492,-3686.4931846344384,1883.5192069392701
-1623.2961586121357,-672.24287484510069,1787.4845105328311
-3720.5700123915658,-192.06939281288962,2184.0148698884723
-1982.6517967781801,-188.97149938042071,2379.1821561338197
-5009.2936802973827,2673.4820322180858,-560.71871127633779
-3760.8567490118653,-570.0276904051625,1697.640893658571
-4052.0446096654086,1592.3172242874823,1908.3023543990021
-1124.5353159851286,-3999.3804213134972,2744.7335811647945
-1502.4783147459659,-793.06071871127142,1431.2267657992459
-3200.1239157372834,-346.96406443618093,3051.4250309789254
-1486.9888475836367,-573.11028500619307,2537.1747211895804
-2552.6641883519101,-6.1957868649290564,2252.1685254027125
-3748.4510532837489,1719.330855018582,1685.2540272614551
-4420.6939281288551,1502.4783147459727,2902.7261462205556
-278.81040892192874,-2512.391573729853,2413.2589838909453
-1967.1623296158564,-1180.2973977695142,1530.359355638157
-5442.9987608426081,1465.3035935563782,2022.9244114002402
-300.4956629491889,-2868.6493184634301,3070.0123915737186
-1651.1771995043289,-839.52912019826238,2369.8884758364275
-4259.6034696406323,-4653.0359355638038,3342.6270136307166
-3107.1871127633112,-1706.9392812887206,-1316.6047087980228
-1121.4374225526594,-3088.5997521685158,2586.7410161090356
-1220.570012391571,-3076.2081784386514,2475.2168525402626
-5337.6703841387725,1846.3444857496877,2032.2180916976401
-882.89962825278053,-542.13135068153417,1053.2837670384033
-2661.0904584882169,504.95662949194485,1852.5402726146172
-2146.8401486988751,-145.60099132589355,1124.5353159851243
-3355.018600288538,799.25649480291327,2496.9020871755952
-2081.784386617092,-49.566294919455615,-396.5303593556452
-368.64931846343779,-2902.7261462205588,4869.8884758364184
-2419.4547707558777,-523.54399008673556,2106.5675340768189
-2013.6307311028463,-1483.8909541511721,1675.9603469640556
-808.55018587359757,-2307.9306071871047,2388.475836431217
-300.49566294918964,-532.83767038413748,861.21437422552117
-3181.5365551424907,-526.64188351920484,2627.0136307310909
-1545.5215737694014,-1390.6269021461007,2364.0199380025824
-4027.2614622056831,1040.8921933085483,2704.4609665427447
-3832.0941759603356,-52.664188351921396,3640.0247831474489
-1415.7372986369198,-1390.9541511771956,2512.3915737298485
-1725.526641883511,-1824.6592317224242,3150.5576208178313
-1521.0656753407625,-2335.8116480792992,3537.7942998760741
-5442.9987608426072,1381.6604708798,5374.8451053283588
-3472.7385377942842,-309.78934324658985,4343.2465923172058
-3621.437422552654,-1539.653035935559,3816.6047087980078
-5068.1536555142366,1855.6381660470861,1452.9120198265105
-1136.9268897149868,-1976.4560099132518,3801.1152416356745
-2456.6294919454663,-752.78810408922095,1648.0793060718636
-3268.2775712515377,-421.31350681536344,4083.023543990073
-1242.2552664188277,-1477.6951672862413,2732.3420074349374
-3385.9975216852417,988.22800495662773,570.01239157372629
-3367.4101610904486,-647.45972738537546,1908.3023543990021
-2676.5799256505416,2577.447335811647,1877.3234200743427
-1895.9107806691404,-1654.2750929367978,3138.1660470879742
-1208.1784386617092,-4978.3147459727252,3677.1995043370407
-4247.2118959107711,1793.6802973977667,247.83147459726737
-3438.6617100371604,2094.1759603469654,1372.3667905824036
-3051.4250309789277,-3336.4312267657897,5340.768277571231
-4835.8116480792887,-855.01858736059103,2785.0061957868511
-6102.8500619578545,1960.9665427509249,2273.8537794299832
-1474.5972738537725,-2187.1127633209358,1741.0161090458414
-2199.5043370507992,514.25030978934308,1006.8153655514191
-3726.7657992564868,408.92193308550662,4262.7013630730999
-3937.4225526641785,1158.6121437422532,2908.921933085493
-3348.8228004956541,641.26394052044645,2472.1189591077969
-3578.0669144981248,2255.2664188351919,628.87236679058162
-4860.594795539022,997.52168525402431,947.95539033456225
-3835.1920693927973,65.05576208178725,4343.2465923172103
-1381.6604708797984,-1926.8897149937995,1648.0793060718659
-3001.858736059467,-684.63444857496359,4931.8463444857371
-4265.7992565055638,662.94919454770513,-40.272614622061027
-4789.3432465923006,-1483.8909541511755,2481.4126394051909
-3289.9628252788025,-1951.6728624539066,3599.7521685253896
-1852.5402726146142,30.978934324661324,3317.8438661709943
-2908.9219330854889,2100.3717472118942,2329.6158612143663
-3711.2784496227064,690.82811791135668,3308.5480683450483
-2639.4052044609566,-529.73977695167264,2552.664188351911
-4640.6443618339454,-817.84386617100313,1555.142503097886
-4829.6158612143554,3667.905824039648,1353.7794299876089
-4290.5824039652889,1604.7088257162834,2304.8327137546366
-4699.5043370507892,-1084.2627013630736,845.72490706319013
-1660.4715016677844,83.642500810527906,3100.9907040323269
-5864.3122676579806,511.15241635687141,291.20198265178766
-6050.3418272218614,-537.60099440646241,3837.7874456183799
-4257.3026724673582,2119.3287756370351,1811.6842759477884
-3001.864512119324,-2787.4456183965112,3076.444996892466
-3297.0789310130376,-1096.9546302050928,1404.5991298943395
-1942.2001243007985,-481.66563082660082,2315.1025481665556
-1451.2119328775568,-1985.7054070851398,2977.0043505282729
-2057.1783716594041,1373.5239279055304,3082.660037290233
-3735.2392790553035,2206.3393412057135,1205.7178371659334
-4257.3846107914069,-2914.9358848746942,5332.4227229562275
-1737.1037911746303,-792.41765071472321,3234.9285270354135
-4509.011808576739,270.35425730267127,2703.5425730267125
-276.56929770042979,-3461.7775015537504,3412.057178371645
-5416.407706650074,1976.3828464884984,2159.7265382224878
-2573.0267246736998,-898.07333747668883,3023.6171535114895
-3847.1100062150267,1696.7060285891832,1889.3722809198166
-3026.7246737103678,-593.53635798632274,1221.2554381603422
-5304.5369794903463,820.38533250465969,1886.2647607209376
-3806.7122436295699,-459.91298943442905,3502.1752641392036
-4527.6569297700271,733.37476693598205,2936.6065879428115
-2041.6407706649982,-512.74083281541255,1510.2548166563013
-2921.0689869484031,-885.64325668116419,2936.6065879428115
-4201.367308887493,-15.537600994405608,2684.8974518334317
-2473.5860783095004,-1137.352392790546,3371.6594157861964
-4024.2386575512596,-671.22436295835519,2846.4885021752552
-6006.8365444375177,1407.7066500932262,3036.0472343070142
-4216.9049098818987,-118.0857675574874,-12.430080795530584
-3937.2280919825839,2588.5643256681124,708.51460534492924
-2762.5854568054597,-2430.0807955251644,2482.9086389061358
-3990.0559353635649,1270.9757613424485,2386.575512740822
-4033.5612122249304,279.67684159121092,1799.2542069982042
-1954.6302050963202,-773.7725295214392,3974.5183343691615
-5096.3331261653057,1687.3834679925369,1326.9111249223074
-3946.5506525792275,-612.18147917961096,4462.3990055935228
-6581.727781230561,3775.6370416407594,916.71845866997535
-12.430080795523949,-3054.6923555003009,2899.3163455562353
-2824.7358607830856,-1799.2541951522619,3312.6165320074438
-4061.5288999378372,-1504.039776258544,2852.7035425730105
-2715.9726538222394,-2271.5972653822191,1693.5985083902976
-4257.3026724673609,2865.1336233685433,1280.298321939086
-3440.0248601615795,-1062.771908017402,1535.1149782473501
-2287.1348663766203,-612.18147917961051,1867.6196395276506
-4086.3890615288892,997.51398384089237,2296.457426973273
-6193.2877563703987,2113.1137352392743,3039.1547545058988
-3138.5954008700933,-1053.4493474207504,4266.6252330640018
-5313.8595400869935,2750.1553760099378,-633.93412057179205
-1873.834679925412,-217.52641392168894,1904.9098819142255
-2604.1019266625144,-2110.0062150403896,3579.8632691112343
-4418.8937228091827,1407.7066500932217,3713.4866376631371
-1407.7066500932183,12.430080795525079,1516.4698570540629
-3458.669981354868,-450.5904288377867,668.11684275946868
-6037.9117464263309,2308.8875077687958,3943.4431323803474
-3371.6594157861928,531.38595400870167,1631.4481044126737
-2775.015537600982,941.57862026103169,1880.0497203231689
-640.14916096953948,-2855.8110627719007,2802.9832193909151
-2169.0982836256162,400.82174517557075,2153.475502240095
-1693.5985083902963,-1824.1143567433151,2576.1342448725845
-3116.8427594779296,-717.83716594157818,2532.6289620882462
-3676.1963952765527,-170.91361093846677,3253.5736482286998
-764.4499689247906,-74.580484773147504,3141.7029210689766
-3424.4872591671701,-2333.7476693598428,3424.487259167171
-2924.1765071472901,-2451.8334369173344,3073.3374766935867
-6336.2336855189351,1939.0926041019204,646.3642013673018
-4390.9260410192501,-118.08576755748616,4934.7420758234766
-5506.5257924176358,3610.9384711000553,997.51398384088952
-3772.5295214418757,-730.26724673710112,1308.2660037290166
-5792.4176507147131,-1749.5338719701651,3586.0783095089964
-2178.3716594157781,-873.21317588564114,2725.2952144188853
-4285.2703542572845,677.43940335612081,2759.47793660658
-4512.1193287756241,-114.97824735860736,2799.875699192035
-5487.880671224345,-180.23617153511768,3082.6600372902262
-2010.5655686761891,-839.03045369794427,2573.0267246736994
-3210.0683654443637,-155.37600994406327,2538.844002486007
-3931.0130515848209,-661.90180236171216,3297.0789310130376
-1149.7824735860731,-2436.295835922926,2078.9310130515737
-4114.3567433188164,105.65568676196833,4223.1199502796635
-3458.669981354868,-2573.0267246737058,1976.3828464884896
-1395.2765692976923,-2050.9633312616475,1995.0279676817756
-3427.594779366053,-2302.6724673710337,1799.2541951522564
-702.29956494716885,-2246.7371037911639,2743.9403356121734
-3259.7886886264605,1230.5779987569922,2162.8340584213752
-857.67557489123112,-3014.2945929148405,3505.2827843380878
-1609.6954630205032,-4325.6681168427494,1435.67433188315
-885.6432566811651,-1367.3088875077681,1765.0714729645706
-2958.3592293349793,-1149.7824735860711,4073.9589807333609
-1945.3076444996793,-630.82660037289725,2237.4145431945244
-4440.6463642013541,-152.26848974518177,2131.7588564325561
-3732.1317588564175,-2486.0161591050241,5248.6016159104911
-1895.5873213175835,-2545.0590428837681,3803.604723430693
-5829.7078931012838,2436.2958359229292,161.59105034182392
-3576.7557489123587,-640.1491609695446,1224.3629583592171
-4303.9154754505753,1435.6743318831564,2026.1031696705954
-4300.8079552516929,2234.3070229956461,668.11684275946868
-3091.9825978868694,-497.20323182100287,2106.8986948415081
-4105.0341827221764,1500.9322560596615,2066.5009322560491
-2902.4238657551191,546.92355500310612,2190.8017402113023
-1314.4810441267803,-2389.6830329397089,3598.5083903045252
-2793.6606587942747,-1128.0298321939053,1600.3729024238542
-2980.1118707271489,-3272.2187694219901,2830.9509011808436
-5394.6550652579081,1050.3418272218757,1749.5338719701588
-4477.9366065879285,-624.61155997513617,3996.2709757613302
-2426.9732753262788,-40.397762585453648,2284.0273461777374
-3502.175264139199,313.85954008700776,-605.96643878185705
-4664.387818520805,-637.04164077066537,3427.5947793660516
-3182.1006836544302,1622.1255438160354,3241.1435674331783
-2883.7787445618283,-1143.5674331883108,3306.4014916096835
-3663.7663144810331,-801.74021131137681,1361.0938471099971
-1625.2330640149082,-326.28962088252877,2557.4891236792996
-1954.6302050963227,-3197.63828464884,3548.7880671224193
-4801.118707271582,-366.68738346799199,3126.1653200745668
-4425.1087632069448,1528.8999378495951,2765.6929770043448
-3607.8309509011706,-680.5469235550039,264.13921690490292
-730.26724673709441,-2802.9832193909165,5332.5046612802862
-4108.1417029210515,-2237.4145431945221,5264.1392169048904
-2486.0161591050214,-708.5146053470562,2914.8539465506428
-304.53697949036308,-4875.699192044739,3495.9602237414365
-4583.5922933498905,612.18147917961551,4785.5811062771754
-3085.7675574891105,1121.814791796146,1563.0826600372845
-4965.8172778122862,1407.7066500932224,-155.37600994407046
-3561.2181479179521,-1466.7495338719689,758.23492852702884
-3380.9819763828309,-938.47110006214348,2380.3604723430576
-963.33126165319413,-3219.3909260410092,4021.1311373523795
-1625.2330640149069,49.720323182103336,661.90180236171057
-1323.8036047234261,-2889.9937849595922,4400.2486016158937
-6096.9546302050758,2569.9192044748215,2318.2100683654335
-1420.1367308887434,-860.78309509011717,-761.34244872592205
-1970.1678060907291,-494.0957116221208,4720.3231821006711
-3862.647607209432,-1457.4269732753178,5236.1715351149614
-4627.0975761342333,87.010565568670614,-469.23555003107754
-5055.9353635798489,2218.769422001239,2150.4039776258473
-1454.3194530764363,-2078.9310130515796,3225.6059664387667
-630.82660037289725,-2747.0478558110549,3244.2510876320539
-2423.8657551273982,-2815.4133001864429,2467.371037911736
-2215.661901802353,-164.69857054070712,2296.457426973268
-3458.6699813548653,-186.45121193287605,3847.1100062150308
-3160.3480422622633,-1354.8788067122389,4195.1522684897309
-734.37430602866061,-364.25912709593683,1348.1540599813336
-2224.9844623989934,27.96768178993365,574.89123679303259
-3831.5724052206174,-975.76134244872003,3881.2927284027228
-3918.5829707892976,-1612.8029832193852,3359.2293349906663
-2482.9086389061499,-2408.3281541329929,963.33126165319288
-4723.4307022995472,-2122.4362958359179,3993.1634555624505
-3573.6482287134736,-1998.1354878806644,5027.9676817899135
-829.70789310129783,-1342.4487259167131,2246.7371037911671
-2557.4891236792932,-3822.2498446239792,2799.8756991920277
-3521.9125971941212,328.80399720852876,1746.9290058310171
-248.6016159104976,-3374.766935985077,1286.5133623368472
-6802.3617153511259,4024.2386575512664,2582.3492852703407
-4533.8719701677901,2448.7259167184543,1323.8036047234245
-3523.9279055313682,2004.3505282784336,1628.3405842137961
-3756.9919204474681,400.8701056556846,2237.414543194524
-2311.9950279676691,2336.855189558732,2765.6929770043434
-4145.4319453076314,758.23492852703419,2178.3716594157777
-5435.0528278433658,174.02113113735041,2019.8881292728283
-2050.9633312616434,-3582.9707893101204,1003.7290242386468
-2980.111870727148,-484.77315102547709,1858.2970789310084
-4244.8725916718331,1311.3735239279063,3091.9825978868798
-2399.0055935363466,-139.83840894965667,1398.3840894965736
-3272.2187694219897,-3368.5518955873131,3182.1006836544302
-4524.5494095711483,-733.37476693598387,1749.5338719701601
-3566.768252467909,-1394.6194094941261,3937.8930278303892
-1013.0515848352933,-3060.9073958980634,5046.612802983208
-2122.4362958359093,-947.79366065878628,3325.0466128029716
-6062.7719080173856,-12.430080795527196,4990.6774394033464
-1432.5669095020003,-2520.1991828973942,2504.6610357539817
-1793.0391547544996,-1314.4810441267848,1208.8253573648133
-4331.8831572405088,-1395.2765692976959,4098.8191423244107
-2069.608452454936,-400.87010565568812,1429.4592914853893
-888.75077688004512,-3213.1758856432425,3719.7016780608933
-4328.7756370416264,-1606.5879428216251,2582.3492852703457
-304.53697949036166,-2420.7582349285194,2874.4561839651906
-2274.7047855810952,-447.48290863890071,3486.637663144802
-2324.4251087631974,-1945.3076444996821,4636.4201367308742
-4021.1311373523795,559.35363579862951,2402.1131137352327
-5043.5052827843183,-466.12802983219319,2377.2529521441788
-3377.8744561839567,1836.5444375388408,1525.7924176507106
-3107.5201988812828,-2060.2858918582901,3206.9608452454772
-1935.9850839030378,-1985.7054070851405,2911.7464263517636
-4965.8172778122844,3113.7352392790481,1988.8129272840251
-783.09509011808041,-1932.8775637041572,3234.9285270354158
-3784.9596022374012,-938.47110006214518,4863.2691112492084
-4254.1951522684794,-2131.7588564325611,3977.6258545680389
-4785.5811062771763,-444.37538844002466,2762.5854568054579
-3148.9601205559552,-1331.0608042104045,185.40905284365627
-2022.995649471711,-1963.9527656929686,4120.5717837165821
-2315.1025481665552,186.45121193288125,1575.5127408328092
-3337.4766935984944,288.99937849596074,1696.7060285891789
-3281.5413300186351,-335.61218147917953,-394.65506525793143
-2588.564325668106,-1081.4170292106837,1995.0279676817852
-3449.3474207582249,-1056.5568676196351,161.59105034182025
-6112.4922311994851,307.64449968924743,4310.1305158483374
-1572.4052206339265,-1718.4586699813478,1858.2970789310073
-5736.4822871348515,-2318.2100683654417,2246.7371037911594
-1286.5133623368524,-4770.0435052827725,5124.3008079552392
-3570.5407085145994,-1998.1354878806667,-540.7085146053488
-4564.9471721566024,-817.27781230577796,3029.8321939092498
-3076.4449968924682,-633.93412057178307,2019.8881292728333
-3228.7134866376532,-3722.8091982597794,4934.7420758234748
-2395.8980733374692,-2765.6929770043403,3965.1957737725133
-3725.9167184586577,-279.67681789931447,1935.985083903033
-1789.9316345556183,-1715.3511497824702,2666.2523306401408
-3337.4766935984958,-1413.9216904909827,3760.0994406463524
-1395.2765692976946,-4030.4536979490254,4449.968924797995
-1330.0186451211855,-3614.0459912989331,3477.315102548152
-1320.6960845248734,-1796.1466749535582,2029.210689869275
-929.14853946550261,-1746.426351771278,472.34307022995216
-1774.3940335612085,-1668.738346799247,2172.1566190180156
-966.43878185207859,-2060.2858918582892,2271.597265382215
-4468.6140459912849,848.35301429459298,3402.7346177750092
-3729.0242386575405,1724.6737103791133,761.34244872591205
-1886.264760720939,-1718.4586699813512,2299.5649471721499
-2526.4139216904832,-1842.7594779366002,3141.7029210689789
-2330.6401491609613,-1730.888750776872,3589.1858297078838
-4235.550031075185,1367.3088875077692,4269.7327532628869
-2137.9738968303191,295.21441889372352,975.76134244872185
-4241.7650714729498,3620.2610316966975,388.44002486015967
-3561.2181479179499,-1625.233064014911,2930.3915475450472
-4822.8713486637544,1330.0186451211903,1243.0080795525071
-985.08390304536385,-1491.609695463012,4266.6252330640064
-3859.5400870105509,1746.4263517712866,4282.1628340584175
-3054.6923555003032,410.19266625233308,2218.7694220012331
-2144.1889372280853,-1507.1472964574207,1911.1249223119828
-4648.8502175264002,-2259.1671845866931,3800.4972032318046
-2812.305779987561,183.34369173399875,2221.876942200116
-3471.1000621503895,-177.12865133623481,2750.1553760099318
-4773.1510254816458,907.39589807333664,3924.7980111870602
-2588.5643256681064,-1528.8999378495903,3182.1006836544307
-4036.6687383467815,-453.69794903666514,3300.1864512119241
-3958.9807333747508,3269.1112492231164,1149.7824735860654
-4894.344313238018,403.97762585456752,3154.1330018645044
-1687.3834679925335,-34.182722187695411,1277.1908017402068
-2231.19950279676,-87.01056556867259,3259.7886886264696
-4630.2050963331112,1087.6320696084479,1914.232442510872
-2134.8663766314407,-2852.7035425730182,3632.6911124922176
-2660.0372902423783,-1463.6420136730865,2818.5208203853231
-1916.5488882832287,-42.592008680645442,1447.4290909791885
-3023.6171535114868,-904.28837787445309,2451.8334369173317
-2510.876320696073,-254.8166563082608,4257.3026724673609
-3542.573026724659,798.6326911124919,1976.3828464884937
-3290.8638906152773,-96.333126165320238,2594.7793660658708
-4807.3337476693468,-1547.5450590428777,4801.1187072715848
-3778.7445618396341,-1224.3629583592231,4282.1628340584066
-3309.5090118085686,-2184.5866998135466,1488.5021752641303
-3387.197016780593,1432.5668116842733,1702.9210689869374
-804.84773151025115,-2078.9310130515796,2414.5431945307541
-6236.7930391547343,288.99937849595943,4857.0540708514482
-2218.7694220012318,1084.5245494095714,776.88004972031683
-3312.6165320074451,1140.4599129894345,2454.9409571162155
-4073.9589807333637,-167.80609073958777,4036.6687383467861
-2616.5320074580436,-1674.9533871970095,3937.2280919825871
-5500.0229765899421,4580.7564924410744,1311.6427730425955
-4863.2691112492057,-807.95525170913027,4897.4518334369086
-4055.3138595400715,-922.93349906773847,4651.9577377252826
-2249.8446239900445,-2924.1765071472851,4642.6351771286363
-2144.188937228088,-3710.3791174642561,1892.4798011186974
-1286.5133623368463,-4266.6252330640027,5503.4182722187534
-4872.5916718458484,795.52517091360937,2588.5643256681064
-4282.1628340584084,-1115.5997513983784,4008.7010565568517
-4885.0217526413753,-1370.416407706643,4428.216283405829
-2747.0478558110526,577.99875699192137,1417.0292106898598
-3847.1100062150281,1904.9098819142321,1444.9968924797915
-6833.4369173399409,-1479.1796146674947,4493.4742075823278
-5832.8154133001717,-494.09571162212404,3110.6277190801652
43.505282784341233,-5366.68738346798,1448.1044126786699
-1715.3511497824668,-1827.2218769421897,2802.9832193909187
-3931.0130515848205,-1367.3088875077638,3875.0776880049584
-2349.285270354248,-2433.1883157240445,3368.551895587309
-4623.9900559353491,1982.5978868862608,348.04226227469837
-2200.1243008079477,-2719.0801740211241,1451.2119328775543
-5037.2902423865562,-515.848353014292,2392.7905531385836
-2458.048477315092,-2784.3380981976302,3318.8315724052113
-1233.6855189558669,-1308.2660037290188,1768.1789931634498
-3545.6805469235433,-531.38595400870065,2886.8862647607084
-4058.4213797389571,-1087.6320696084529,2072.7159726538098
-2277.8123057799789,-456.80546923554732,758.23492852702589
-2374.145431945301,-2156.6190180236117,1124.9223119950243
-4061.5288999378367,2880.6712243629522,599.75139838408666
-5142.9459291485255,46.612802983218231,3974.5183343691592
-4061.5288999378395,-929.14853946550352,4179.6146674953243
31.075201988816438,-2190.8017402112987,2122.4362958359129
-1867.6196395276434,-1062.7719080173963,2625.8545680546831
-1180.8576755748875,-4515.2268489745065,4154.7545059042723
-1817.8993163455521,-2731.5102548166446,3169.6706028589083
-3222.4984462398897,301.42945929148499,2128.6513362336773
-4223.1199502796617,1410.814170292103,1056.5568676196326
-3822.2498446239792,1348.6637663144777,394.65506525792216
-5724.0522063393273,-1124.9223119950277,2877.5637041640639
-2172.1566190180115,680.54692355500401,2930.3915475450549
-2377.2529521441811,413.30018645121191,2137.9738968303222
-3666.8738346799137,-279.67681789931646,2433.1883157240445
-2827.8433809819639,-4151.6469857053926,5472.3430702299365
-4422.0012430080669,-236.17153511497708,3256.6811684275845
-4129.8943443132257,1025.4816656308249,720.94468614045854
-2917.9614667495239,-323.18210068365278,1768.1789931634462
-3365.4443753884311,248.60161591050439,2610.3169670602761
-3455.5624611559924,-2007.4580484773135,316.9670602858817
-1858.2970789310061,-2072.7159726538134,4142.3244251087453
-2481.0121037849904,-926.04101926662338,1188.2902378172976
-1128.0298321939042,-1233.6855189558703,2066.5009322560541
-4086.3890615288874,366.68738346799171,2364.822871348656
-4515.2268489745047,-2119.3287756370382,2874.4561839651847
-2896.2088253573525,351.14978247358641,1758.8564325668042
-2091.3610938471024,-1870.727159726533,1230.5779987569813
-3958.9807333747572,-2784.3380981976293,4698.5705407085034
62.150403977629487,-1485.3946550652547,2411.4356743318767
-4164.0770665009186,-926.04101926662179,186.45121193286786
-4223.1199502796626,-1513.362336855185,2980.1118707271517
-3744.5618396519417,-503.41827221876775,3408.949658172769
-2660.0372902423737,-2408.3281541329975,3206.9608452454804
-860.7830950901166,-2280.9198259788618,2526.4139216904814
-5034.1827221876756,456.80546923555249,3806.7122436295735
-3666.8738346799159,518.95587321317294,1044.1267868241093
-1783.7165941578546,-497.20323182099963,1587.94282162833
-2016.7806090739466,-1224.3629583592253,4564.9471721566033
-2734.6177750155261,192.66625233064443,2324.4251087631906
-2193.9092604101834,-3517.712865133612,4642.635177128639
-4754.5059042883622,633.93412057178455,1357.9863269111174
-3539.4655065257834,-1326.9111249223113,2802.9832193909219
-3278.4338098197486,-288.99937849595807,2641.3921690490861
-866.99813548787597,-6006.8365444375231,3206.9608452454772
-4201.3673088874957,-1081.417029210688,1168.4275947793562
-1022.3741454319429,-2464.2635177128577,4300.8079552516965
-1740.2113113735145,-43.505282784336437,4042.883778744555
-3191.423244251072,739.58980733374904,3060.9073958980657
-1889.3722809198175,1155.9975139838389,873.21317588563886
-5804.84773151024,2106.8986948415118,1932.877563704156
-3474.2075823492673,1115.5997513983855,2193.9092604101847
-397.76258545680128,-2063.3934120571726,1867.6196395276465
-845.24549409570284,-2004.3505282784261,3151.025481665622
-2479.801118707263,90.118085767559464,2215.6619018023534
-2169.049098819135,-1594.1578620260998,2408.3281541329939
-3315.7240522063266,602.85891858296941,1634.5556246115527
-3986.9484151646875,-1758.8564325668078,1929.7700435052739
-5124.3008079552355,3716.59415786202,1448.1044126786828
-4701.6780609073803,-860.78309509011524,3682.4114356743153
-3632.6911124922208,-2526.4139216904819,5413.3001864511971
-4394.0335612181343,-637.04164077065968,1873.8346799254041
-2019.8881292728299,-177.12865133623021,1522.6848974518275
-3545.680546923541,997.51398384089475,2855.8110627719002
-5481.6656308265856,273.4617775015526,3175.8856432566708
-3449.347420758219,-490.98819142324112,1659.4157862026041
-2625.8545680546804,-1721.5661901802343,1684.2759477936509
-3116.8427594779278,988.19142324424979,2010.5655686761868
-3520.8203853324935,-1848.9745183343609,2852.7035425730201
-1740.2113113735127,335.6121814791851,954.00870105655451
-3744.5618396519485,313.85954008701032,1084.5245494095625
-4390.9226003618123,1261.6575896159241,2858.9243264304441
-2625.8545680546858,-3418.2722187694153,3415.1646985705297
-3312.6165320074438,879.42821628340516,2433.1883157240459
-2054.4536349389537,-2658.9658552638061,4184.1823800072261
-5046.6128029832007,-164.69857054070826,1963.9527656929672
-4589.8073337476544,1814.7917961466726,1783.7165941578551
-3309.5090118085645,-24.860161591049593,2660.0372902423796
-2246.737103791163,-344.93474207582102,2893.101305158475
-2473.5860783095022,-2753.2628962088233,1311.3735239278933
-562.45905222837132,-2660.0113437563664,3390.3150558251618
-1286.5133623368511,-2538.844002486007,2827.8433809819671
-3433.8098197638137,-2197.0167806090649,4279.0553138595287
-6143.5674331882956,2830.9509011808541,574.89123679303236
-2013.6730888750692,-205.09633312616572,1898.6948415164629
-699.19204474828427,-997.51398384088782,3682.4114356743239
-6342.4487259167008,2010.5655686761879,863.89061528898822
-3688.6264760720833,149.16096954630072,2846.4885021752557
-2383.4679925419427,1152.8899937849585,1491.6096954630179
-2889.9937849595904,447.48290863890833,2728.4027346177631
-1016.1591050341777,-851.46053449346834,1995.0279676817852
-2218.7694220012359,-4627.0975761342324,3433.8098197638124
-4872.5916718458548,2122.4362958359211,1485.3946550652565
-1793.0391547545,-1435.6743318831529,525.17091361093583
-3803.6047234306889,596.64387818520868,2091.3610938471029
-3045.369794903655,208.20385332504708,1870.7271597265305
-3297.0789310130376,-12.430080795522652,3163.4555624611417
-3334.369173399612,90.118085767561581,4630.2050963331094
-3791.1746426351647,-807.95525170913356,3266.0037290242294
-2197.0167806090644,1668.7383467992561,2998.7569919204429
-3001.8645121193163,-898.07333747669134,220.63393412056453
-2610.3169670602751,71.47296457426981,618.3965195773676
-5059.0428837787258,2824.7358607830934,2169.0490988191345
-1544.4375388439948,-192.66625233064246,-1084.5245494095802
-3039.1547545058934,292.10689869484293,2268.4897451833372
-2908.6389061528794,-494.09571162212325,2197.0167806090667
-2069.6084524549333,-752.01988812927118,2625.8545680546849
-954.00870105654838,-2150.4039776258455,2678.6824114356668
-3390.3045369794786,9.3225605966420098,-649.47172156619729
-1274.0832815413166,-699.192044748287,4748.2908638905992
-3899.93784959601,-689.86948415164477,2719.08017402112
-596.64387818520458,-3614.0459912989359,665.00932256058854
-3750.7768800497074,-428.83778744561982,2169.049098819135
-3424.4872591671733,752.01988812927425,3390.3045369794777
-3899.93784959601,596.64387818520368,2153.5114978247307
-3396.5195773772366,-136.73088875077275,2728.4027346177668
-2799.8756991920345,31.075201988814619,2545.0590428837741
-3178.9931634555501,108.76320696084701,2451.8334369173267
-1246.1155997513893,273.46177750155272,733.37476693598023
-1497.8247358607748,-146.05344934741674,2016.7806090739555
-879.42821628339925,-1646.9857054070801,2666.2523306401386
-2110.0062150403905,-410.19266625232632,2060.2858918582879
-848.353014294584,304.53697949036734,3126.1653200745727
-4437.5388440024753,413.30018645121095,2315.1025481665497
-1435.6743318831518,-2311.9950279676727,3349.9067743940236
-2408.3281541329975,-276.56929770043212,2600.9944064636334
-3054.6923555002991,-3530.1429459291376,5127.408328154117
-3968.3032939713949,835.92293349906788,2476.6935985083815
-804.84773151024842,-2274.7047855810974,2492.2311995027899
-5059.0428837787276,3458.6699813548694,1373.523927905527
-3530.1429459291367,773.77252952144079,2240.5220633934032
-3642.0136730888585,618.39651957737897,2980.1118707271512
-2352.3927905531291,-273.4617775015526,2197.0167806090644
-4996.8924798011039,2284.0273461777447,2374.1454319452996
-3309.5090118085654,-74.580484773146807,2756.3704164076917
-1357.986326911117,-1413.9216904909815,3253.5736482287057
-2271.5972653822141,121.19328775637223,-1140.4599129894364
-3601.6159105034085,-3527.0354257302597,4014.9160969546106
-4468.6140459912831,-714.72964574269463,3387.1970167805998
-1587.9428216283309,640.14916096954732,3784.9596022374062
-4086.3890615288847,543.81603480422723,2691.1124922311906
-4518.334369173388,-1031.6967060285879,226.84897451832447
-2423.8657551273982,1942.2001243008065,2190.8017402113092
-3185.2082038533144,-2747.0478558110581,2454.9409571162091
-2063.3934120571703,-3794.2821628340471,4900.5593536357819
-1385.9540087010521,-245.49409571161823,3788.0671224362927
-1908.0174021131045,-2722.1876942200015,4698.5705407085006
-2784.3380981976316,-285.89185829708174,-111.87072715973432
-4369.1733996270787,2175.2641392169039,4052.2063393411972
-1016.1591050341764,-944.6861404599083,1603.4804226227393
-4129.8943443132239,388.44002486016205,1821.0068365444267
-5565.5686761963771,192.66625233064147,3912.3679303915378
-4024.2386575512605,1413.9216904909847,2600.9944064636352
-1264.7607209446821,-1976.3828464884966,2653.8222498446148
-4254.1951522684758,-882.53573648228303,1979.490366687374
-4782.4735860782903,254.81665630826419,-6.2150403977700925
-3095.0901180857554,-966.43878185207882,1389.0615288999295
-3679.303915475437,-394.65506525792284,3203.8533250466003
71.472964574269241,-2899.316345556239,2594.7793660658713
-2346.1777501553656,1957.7377252952099,764.44996892479162
-2697.3275326289486,-323.18210068365278,2809.1982597886813
-2234.3070229956415,543.81603480422712,1584.8353014294494
-2178.3716594157813,-1528.8999378495932,1497.8247358607689
-5823.4928527035272,745.80484773151034,2371.0379117464108
-1733.9962709757499,-879.42821628339948,1979.4903666873779
-4533.8719701677919,-879.42821628340562,3477.3151025481548
-4540.0870105655567,-3.1075201988807404,2784.3380981976275
-2862.0261031696582,254.81665630826672,2178.3716594157768
-1292.7284027346122,-2644.4996892479689,3688.6264760720783
-3719.7016780608919,1606.5879428216269,2153.5114978247293
-4561.8396519577254,-3617.1535114978146,5326.2896208825168
-1022.3741454319407,-4188.9372280919733,2604.1019266625099
-3290.8638906152814,2433.1883157240472,804.84773151025388
-329.39714108141339,-627.71908017401552,1124.9223119950236
-3349.9067743940232,-1177.7501553760069,2131.7588564325547
-1609.6378352646668,-1413.8457266310197,1892.5762839523352
-4061.5288999378372,1671.8458669981312,1749.5338719701617
-2165.9415786202535,335.61218147917867,1361.0938471100048
-1056.5568676196319,-1187.0727159726503,1398.384089496577
-4247.9801118707137,130.51584835301313,2905.531385953997
-5481.6656308265838,239.27905531385986,1606.5879428216158
-2613.4244872591644,-2945.9291485394542,3443.1323803604573
-3216.2834058421272,-1336.2336855189506,3844.0024860161425
-2973.8968303293882,-2678.6824114356687,3741.4543194530606
-2243.6295835922847,-950.90118085767301,2318.2100683654394
-301.42945929148198,-3663.7663144810354,1016.1591050341752
-3952.765692976991,-161.5910503418263,2799.875699192035
-2613.4244872591507,593.5363579863282,1609.6954630205025
-2821.6283405842032,46.612802983223105,2364.8228713486556
-4394.0335612181379,-2458.048477315097,4627.097576134227
-1597.2653822249754,316.96706028589438,2734.6177750155271
-2374.1454319452946,-761.3424487259125,3157.2405220633923
-2498.4462399005456,-1448.1044126786724,3893.7228091982465
-2635.1771286513253,-761.34244872591114,2862.0261031696609
-5335.6121814791604,313.85954008701032,4154.754505904275
-205.09633312616316,-3495.9602237414433,3085.7675574891136
-963.33126165319663,-2750.1553760099337,3020.5096333126107
-124.30080795525008,-1765.0714729645688,1699.8135487880588
-5764.4499689247805,1867.6196395276525,2641.392169049092
-5379.1174642635024,136.73088875077499,2001.2430080795421
-3582.9707893101222,-1914.2324425108736,745.80484773149624
-1761.9639527656886,-2504.661280298315,3175.8856432566754
-1970.1678060907307,-2106.8986948415086,3001.8645121193163
-4692.355500310734,2613.4244872591621,599.75139838407995
-1274.0832815413225,-2517.0913610938355,2296.4574269732648
-3443.1323803604555,1364.2013673088873,2610.3169670602765
233.06401491610202,-3572.8532522441642,4055.3138595400751
-4474.8290863890479,1348.6637663144811,-96.333126165320238
-2840.2734617774922,-5183.3436917339804,5490.9881914232201
-3499.0677439403275,186.45121193287815,1646.9857054070781
-5407.0851460534341,2408.328154132998,2395.8980733374751
-2520.1988812927175,-2858.9185829707799,4117.4642635177006
-1684.2759477936545,-1563.0826600372868,-431.94530764450866
-4098.8191423244116,195.77377252951806,-1385.9540087010594
-4108.1417029210552,-388.44002486016024,3480.4226227470372
-960.22374145431263,-1991.9204474829028,3147.9179614667369
-3887.5077688004858,-2150.4039776258533,848.35301429458298
-3495.9602237414465,-2414.5431945307564,4108.1417029210561
-4145.4319453076296,-102.54816656308397,1556.8676196395181
-3315.7240522063312,-2439.4033561218121,-198.88129272840578
-2936.6065879428124,155.37600994406716,410.19266625232535
-4039.7762585456667,1544.437538843998,2293.3499067743878
-3756.9919204474727,-3309.5090118085695,4083.2815413300036
-1793.0391547544989,-1277.1908017402038,2613.4244872591566
-2361.7153511497745,-1305.1584835301394,2591.671845866988
-1951.5226848974401,-1836.5444375388327,5012.4300807955105
-1898.6948415164563,-652.57924176506731,4238.6575512740728
-2371.0379117464195,1432.5668116842726,310.75201988812177
-3508.390304536968,68.365444375387369,-90.118085767563144
-6417.0292106898514,2321.3175885643186,-301.4294592914888
-2905.5313859539965,-1339.3412057178323,3312.6165320074524
-4465.5065257924034,-2137.973896830325,2085.1460534493335
-1392.169049098811,-2420.7582349285221,2430.0807955251562
-3567.4331883157138,-910.50341827221268,3508.3903045369652
-3576.7557489123537,-509.63331261652945,2600.9944064636311
-5590.4288377874291,2709.7576134244782,584.21379738967744
-2986.326911124916,-3750.7768800497097,2843.3809819763678
-1479.1796146674931,-1277.1908017402088,907.39589807332936
-2085.1460534493376,-2582.3492852703434,4390.9260410192519
-4999.9999999999827,1438.7818520820379,1805.4692355500265
-2240.5220633934014,-3359.2293349906658,4651.9577377252772
-1783.7165941578487,-341.82722187693679,1998.1354878806621
-4748.2908638906038,-149.16096954630441,2050.9633312616402
-2684.8974518334239,-403.97762585456417,2790.5531385953936
-3132.3803604723298,-18.645121193287547,2573.0267246737026
-1239.9005593536338,-4972.0323182100556,2075.8234928526904
-2535.7364822871182,2075.8234928527036,1681.1684275947755
-2594.779366065869,-1789.9316345556165,3949.6581727781117
-2178.3716594157768,-2507.7688004971965,3812.9272840273334
-1768.1789931634505,-2066.5009322560527,3601.6159105034076
-1665.6308266003641,1155.9975139838386,609.07395898072787
-739.58980733374358,-4294.5929148539299,4676.8178993163365
-3141.7029210689761,-587.3213175885594,2868.2411435674207
-2119.3287756370355,-5344.9347420758104,6103.1696706028388
-3107.5201988812814,59.04288377874574,2734.6177750155275
-3539.4655065257766,-2069.608452454936,3654.4437538843817
-776.88004972032161,-3266.0037290242281,3272.2187694219883
-4900.5593536357846,49.720323182098056,245.4940957116147
-2554.3816034804086,1556.8676196395268,1373.5239279055263
-2060.2858918582888,-1239.9005593536319,2467.3710379117383
-4655.065257924166,-1289.6208825357312,2097.576134244865
-2660.0372902423778,-1109.3847110006136,3573.6482287134768
-1482.2871348663712,-2125.5438160347999,2799.8756991920327
-4033.5612181479064,-18.645121193285007,1261.6532007457995
-3141.7029210689752,-2579.2417650714647,1584.8353014294476
-4860.1615910503242,764.44996892479583,2417.650714729637
-3371.6594157861905,-509.63331261653099,947.7936606587898
-2980.1118707271494,-764.44996892479435,2740.8328154132896
-6267.8682411435511,2464.2635177128586,-1106.2771908017471
-5823.4928527035245,1382.8464885021724,1768.1789931634478
-4422.0012430080687,2507.7688004971978,1096.954630205089
-4049.0988191423121,1230.5779987569852,1050.3418272218696
-1059.6643878185191,-4297.7004350528177,2672.4673710378979
-2545.0590428837663,922.93349906774483,1454.3194530764356
-4474.8290863890452,1404.5991298943427,2945.9291485394579
-1302.0509633312533,-1740.2113113735172,2840.2734617774963
-3924.7980111870588,-969.54630205095475,2097.5761342448682
-5596.6438781851875,-1628.3405842137922,5152.2684897451691
-2768.8004972032177,-2327.5326289620807,522.0633934120508
-2234.3070229956411,-1774.3940335612137,553.1385954008615
-4561.83965195772,-652.57924176506958,3306.4014916096858
-4732.7532628961944,1093.8471100062127,1497.8247358607705
-2669.3598508390191,630.82660037290157,599.75139838408461
-5612.181479179596,-609.07395898073412,4201.3673088874921
-4965.8172778122862,1799.254195152266,2311.9950279676709
-5254.8166563082477,2821.6283405842073,3446.2399005593443
-5714.7296457426801,-158.48353014294395,3822.2498446239724
-2526.4139216904805,-1522.6848974518291,2355.5003107520151
-5888.7507768800306,720.9446861404582,3191.423244251077
-4490.3666873834491,776.88004972032445,3051.584835301423
-1460.5435894080827,161.57403214295363,1591.0359643833337
-3601.6010613205981,49.739969793195939,2992.5718783372463
-4558.732131758843,2197.0167806090681,1563.0826600372811
-5261.0316967060126,1124.9223119950254,1516.4698570540656
-5475.4505904288199,3039.1547545058979,2855.8110627718997
-5174.0211311373341,699.19204474829019,2517.0913610938373
-4804.2262274704635,730.26724673710066,1544.4375388439905
-4841.5164698570443,966.43878185208018,2678.6824114356632
-3943.4431323803492,-1395.2765692976971,2001.2430080795432
-4956.4947172156481,195.77377252952041,1653.200745804839
-2010.5655686761863,-161.59105034182531,1224.3629583592228
-2445.618396519571,-71.47296457426684,3694.8415164698495
-4160.9695463020325,1103.1696706028549,351.14978247358374
-2551.2740832815325,-2290.2423865755077,105.65568676195829
-6000.6215040397628,335.61218147917685,4033.5612181479055
-3912.3679303915333,-1622.1255438160331,3710.3791174642474
-2085.146053449339,-34.182722187690757,1761.9639527656834
-3853.3250466127906,438.16034804226081,2579.2417650714642
-1162.2125543815976,-2271.5972653822168,3502.1752641392013
-1553.7600994406391,-2566.8116842759428,3623.3685518955767
-2560.5966438781802,-2287.1348663766262,2905.5313859539979
-4176.507147296441,-612.18147917961232,1780.609073958972
-2454.9409571162159,-1491.6096954630173,562.46115599750908
-1991.9204474829012,-2834.0584213797288,3617.1535114978133
-1960.8452454940846,-68.365444375386303,745.80484773150533
-3104.4126792269153,242.38657524048236,2827.8433801651881
-4487.2591671845712,1494.717215661901,2436.2958359229247
-6072.0944686140247,2930.3915475450513,2085.1460534493403
-4679.9254195152153,1031.6967060285863,2843.3809819763746
-3222.4984462398888,1246.115599751397,2476.6935985083874
-562.46115599750908,-2386.5755127408247,2498.4462399005479
-4844.6239900559194,1643.8781852081997,-329.3971410814234
-2619.6395276569215,-1441.8893722809098,2889.9937849595931
-111.87072715972465,-3095.0901180857568,3070.2299564947052
-1600.3729024238612,-1500.9322560596588,3020.5096333126048
