-309.06709712855263,-144.96049328271448,354.63141015839108
-555.50504593217829,-407.76434218058654,536.86698805345895
-638.23984403886197,-51.368310652813427,460.9509941419206
-317.68440495098264,-211.28292974375873,572.38394900786295
-532.77570852210022,-130.01182176464795,300.93644624885457
-571.40615719490131,209.5807872058765,285.94279722221933
-329.78857659048697,255.85104400041058,-216.68504831302269
-612.85082112379871,43.48378345925255,439.52882615404764
-200.47351563539056,-161.83327046451663,375.48681746970868
-335.54193535254058,143.85352810960157,202.91139433814359
-470.884600186824,34.624300518401547,562.43315566885815
-496.40876443312919,-208.20074552231904,122.73843076643111
-286.48444807616431,-226.02912130894524,533.11194136783058
-441.40549006423748,58.184921543685853,250.01959361668014
-647.9664130886365,9.4421256699595464,621.4610052593797
-378.21620147286131,-347.30430039095052,535.95781434675098
-490.79061437768456,165.05099431385574,194.43750654038899
-236.84055172417851,-167.74348763377509,67.277610143368449
-447.31340420188002,-2.2729459113218504,467.76978819779896
-492.23753276400237,-264.00266560422796,214.71920866229118
-690.51730663741262,43.185757278457181,416.40149775900699
-307.75524921450113,8.1825642936762879,387.30794043816974
-329.57506478501148,-192.28984346737832,409.12853514551387
-320.71539518307463,-116.49613330704157,329.57831938848375
-661.42376579688755,117.73797617965261,457.76888808073329
-549.14773863759888,-220.93608302820019,278.20197723060215
-730.48234095977648,-109.97105647027361,479.1667877567474
-502.20915201147182,108.46867147071887,435.04977706055092
-357.76072424619491,-96.373275330008582,320.48288693376264
-461.86034783364448,-193.65414726996156,461.86003605368512
-499.79580792827409,25.706510464302941,340.28056265086474
-594.59950904686809,-70.460917666190909,248.65899441314048
-373.9612426006438,-135.75067594945207,501.89188141281198
-437.57458854380542,-138.22332175641827,715.7632314068519
-527.58533454679309,-99.839094287020529,482.31742753489272
-504.59132648422178,-129.10264569506299,500.95463223929045
-659.15088715799754,-56.361021896915872,300.48182719987307
-367.76070551868179,-177.74343122101934,131.37557959814217
-300.02727520683544,-378.21600738417305,550.95917810702906
-477.3189830479198,7.2704847595936508,154.10358775259184
-504.06043140518267,-92.735673872468098,395.59222780909238
-532.77573972700952,40.003603218050038,426.40236595247143
-301.03726800324819,-35.003182107465427,298.71393298672069
-315.18871723858342,-227.90765006604551,319.40865369532793
-323.71245585640179,-116.88166035000432,203.1347786289555
-446.65790435411486,2.1893472563953789,580.74028349863352
-545.24912658283847,20.979854858064225,593.53776181858382
-358.85144105295115,140.45831496285314,357.13230350211819
-337.37474445126492,-75.269788808963241,476.981796406103
-443.21708727469314,7.732885777403169,397.76626602413023
-297.52681675711375,198.39242705143937,368.51268286758631
-684.16463921316574,121.81782327818435,433.20992104658757
-398.95370618950801,-173.77694715985328,388.66803535232253
-451.17321708399169,152.17106127418401,269.08438239304797
-553.23609029506417,-215.02235158324393,425.03980211728924
-452.09101949574148,-130.6737089541023,617.68928008779631
-558.68715337757783,-55.459587235202271,497.31793799436321
-299.11823760925387,-225.02072833242872,402.76370634127926
-545.91120583104669,-70.86814961717873,383.2641799806492
-663.2421129193533,-11.819256296025916,35.912355668695355
-332.83163977541892,-265.0252804076203,131.07720313577531
-605.65313194848045,321.55389431537128,356.61532755354852
-354.57768888080886,-422.76570597327435,732.79389035366614
-486.53424380921507,-275.49074741320186,567.89666475912816
-588.67242143133728,-31.785609747496498,215.53154048415155
-377.30702458503714,130.46640936350104,142.28566565952318
-528.68442585689172,-213.20120010910156,126.3751250113605
-338.66715155926533,-366.85153195748609,457.76888808072158
-385.03500318296545,7.2733884890152893,515.95599599901323
-459.40122531291235,-187.03479145395073,118.49578883029803
-667.78798043291624,-176.37965283536337,544.59496327600095
-203.20032876849024,-128.19351249776662,224.5658180224703
-438.22010089310533,-27.801776619996222,581.29582071688674
-430.03909446308563,-128.19347213378381,249.56814255846794
-213.20122485775781,-63.64218540100488,260.47863641095586
-581.51275468959341,-373.37897614429005,330.3603217496871
-645.81968406788781,60.606720765422303,387.07963300979475
-443.67669788162465,85.985044244027762,348.66806072823431
-520.0472770251813,-86.826075097735895,425.49322665696587
-511.41012844570776,-123.19301780329532,393.23090591242436
-133.69363248156461,-36.409739498294584,80.823072265344166
-308.66583813865003,-90.009683014359737,412.30868846064442
-606.66644456634731,-162.27227110092036,545.75641579868432
-347.54734467729696,-90.408987680055034,433.42104910561568
-601.41831201503078,203.65487483727281,364.12909529577422
-280.42921007330193,10.505826218561163,314.16098787405622
-530.95735976005631,86.826075097614577,423.67487953440929
-363.91209706523756,-246.17412088558626,472.98216604958344
-211.83743976724961,-107.73706700609208,263.20574597690404
-441.40376397860467,-164.56041458465805,559.141740158007
-502.31839264724084,115.46504224517128,289.11719237784774
-488.00512937549252,-59.809264266804007,469.93282105924675
-296.39030208947025,-75.9158359182928,335.94002118374158
-570.15631290082865,-8.4717698922160611,570.38228028064884
-454.13548528010574,-164.56931367330074,397.75721613795082
-529.13901263753382,-51.82289299028416,365.48777161555631
-360.37612835410795,-47.620423024738038,349.15970094341753
-406.50504680783268,-46.478775723315692,38.099034247338153
-452.98917206280879,-57.96777991851144,392.0829334955792
-390.03545762303628,-219.56541495925183,665.06046029439665
-449.44788052505737,-139.68494588830347,568.59198829735203
-436.85789617237629,-138.19438130738968,409.58268911834961
-188.19892717519514,-335.03045731430063,454.13219383580298
-420.94735885080001,-188.65351395581234,58.235009134962958
-664.60495084018339,69.098097068708597,386.40139070296766
-456.85971115133032,16.819715569957086,355.94145210933482
-366.39934055328496,165.4640978382489,23.636317251314523
-400.94554050367901,-137.73979452677335,507.31884716792348
-573.23393035730123,-25.456859714518153,441.40376397854106
-356.85229230425642,-74.548480836547498,134.55473527075719
-446.3494300120858,5.0296856166496724,454.10845521809313
-271.84289480861736,-245.02281834267455,61.368671792793869
-554.59579104495197,-157.28694478620491,196.38157053336718
-455.95054095826526,66.36966996999881,482.77116101463628
-530.63850979917186,-269.53572688521666,323.37378690919314
-526.41149196214269,-1.363760350456338,391.85380488774263
-265.93321116616261,-134.10304271281771,276.84343445223487
-550.50038567207605,-16.815457834452417,200.47779941233799
-453.66580861100033,-6.3967157850985483,332.75367304986554
-418.48959212976069,435.63067919970877,396.87146688629304
-330.5597825734107,-108.26684685198677,233.58241217156043
-249.11355577779509,2.272933903081348,390.49004454950131
-450.49549959086897,-170.92462951177293,505.04591326484041
-507.77343719553892,49.095961836243632,466.4060345951699
-332.57614167183351,-73.001960993480765,268.64727441095812
-322.30202745704014,-95.463223929447238,602.78207109737093
-513.11423583482133,-128.56494198524109,145.61568075451791
-330.40490120021644,-99.965226506851536,160.81824414124213
-540.95826893353797,-187.28975361396488,236.38512592053493
-664.15406111207437,4.6439543474846188,556.28805467943403
-410.94647201576407,-23.119537928038795,399.58175438487092
-516.87424795410072,-216.87043140669223,342.29739467002133
-496.24908226407661,-60.872282747304887,512.10878688640321
-529.59372246235682,354.57753250267228,262.75096950313105
-437.22016377880908,33.650839670766644,489.21216616055722
-443.79209636024365,-252.58542861438272,634.63522507817754
-350.94099463587423,-30.457314301298418,190.92644785889593
-293.01654984036111,-62.083586354739431,305.54569738684251
-362.76025229750644,-99.099913915467937,385.48955927252251
-561.75753798007133,21.86164869063116,399.74520947205326
-463.2241143792574,-283.66233416551768,190.92630244368516
-464.58768978998057,-139.10355486862309,459.13264842258155
-576.87062460223456,-68.64260387307823,372.30657332484424
-561.56167390806309,-3.0863599030001612,128.44678332762948
-354.88944874902791,-55.364369260867399,229.30217328112587
-620.32714921151546,420.73525072023358,108.04115292465703
-433.22120175318105,79.552686845820247,296.39058115479696
-598.69084629507893,212.74654033352141,555.9595657358642
-469.73757703559113,-176.37932991335262,-7.7647836212740593
-484.58950483955061,-235.9305335121025,602.78207949113335
-600.96372397490325,337.75797799800023,350.0318210746413
-269.39428541434256,-245.82524237174383,212.25916425831383
-298.66573499352381,106.82564114054642,199.56218095646636
-605.50959178106734,70.006364214930684,77.279752704791889
-609.39121678338699,-59.864547514871077,643.29510808310363
-442.76752432039029,-65.460496408764669,218.2016546958765
-506.86631053727695,-114.10469885134331,605.50617486444798
-564.98987670529175,7.1510009960818577,467.95574631117552
-483.2257331776957,152.30755504675349,205.94877710250879
-390.14416708065181,281.12512034767013,114.13469289543848
-574.59763189583691,-24.738194239062683,389.65441007594853
-687.33521229202211,-84.10163469834059,340.48549868169653
-520.00840141500385,259.60885780016514,234.15014686610809
-304.57309497475399,-358.66892184147036,292.75393628610021
-384.12582962086981,38.185278168760476,310.02817297737909
-430.9482680262476,-165.4695881460859,430.94826802244535
-573.68851713791878,-120.46549686334974,565.05136830621029
-641.42194744976825,69.551777434312925,185.016819710882
-332.7575234112166,-63.187562505682124,619.14719519956054
-571.85554152278553,-81.345123706263522,249.61148109026857
-629.53151550193513,-65.291808795840552,473.96351860267941
-542.32246771026428,4.5448019313278429,255.02156195250328
-386.86381247356036,249.10907201983346,482.30312290930885
-509.59871261677063,-305.03848075868979,237.27852667949739
-625.9645139699229,-20.548531020653634,234.1135266624282
-605.05500500044968,70.915036587205179,206.83623339703539
-226.38311978893816,-191.83460011437279,84.553998587138736
-418.21983886700519,-112.57624315014921,400.03636609744427
-454.60164215514493,15.905622539968677,609.58159176223376
-501.40922025101611,54.095822338253043,337.75798025103489
-560.77970326575428,156.10837757746737,366.1936575085075
-565.9605418674405,42.276570597327471,359.57814346758806
-536.35682540262439,169.35942567469607,428.0157921829873
-760.52367632373512,-6.3642072810983272,595.50869025504198
-633.82039301857651,156.29716720599214,177.24043247868994
-358.73223833318224,-229.17311204999444,493.6329543605039
-586.87920045556496,323.65857054717156,290.02545646294601
-68.606118686695609,-128.32747828393457,333.66934910476658
-437.76706972605245,81.372331195314914,235.47593015665794
-598.6948185316329,80.08132486611332,-17.415643448158963
-489.12685975543673,-287.29382851634119,192.74990469405779
-395.31535602476589,-3.0252393529006976,289.24296053102063
-571.41558323483605,145.01318301645986,420.03818528956913
-638.6944266593257,-184.56223281134436,761.88744447717011
-252.7502500226139,-38.18528957163749,455.04136739723936
-337.72964468042807,-172.18498081328269,386.81243521287149
-317.75659804454256,-88.190377161622649,370.94243845318448
-473.22483862169281,-165.92566294358056,478.67987998908643
-502.3155344507453,32.733080815759088,761.43438867378723
-474.47893966085257,-193.54430918604922,81.026106791021817
-227.74797442432981,-129.10263630634671,395.49061366821883
-351.85016819710785,-103.19119919992747,347.75951130215338
-466.40596647118144,-290.48088319171211,546.41336026508668
-258.65987853315283,-279.1162836507703,338.66715129804857
-593.76155461631697,20.100386754524319,471.48068293408687
-199.10900990998948,-98.190744613145526,225.02045640512725
-330.0865593050018,-263.78777941852445,425.84057231522377
-437.9863169301405,-179.7383963450967,564.6233381217379
-193.64791816018672,10.46148537098269,195.34390869690992
-366.85153195743311,118.6471497409137,267.75161378309497
-585.00616772447393,-120.32543854838144,374.39485504298409
-422.30769243319003,-98.187338607048545,348.21699055166329
-452.29085655312531,-48.152571127468136,340.56393427981925
-534.26019632524969,339.91858173544699,297.1139336733039
-838.78278390691696,128.11692272359323,206.60133072849663
-445.03944690330258,-218.65525437811922,334.1219740895595
-500.50004553299823,56.823347503113602,157.28702603628398
-260.47822529320729,-240.02182016547019,519.60615719396662
-388.78093455670614,-265.98788522571886,693.19022187508233
-674.60678302377721,19.547230960161347,322.7566138040263
-690.08221958562524,-201.88315926752972,204.98662434187582
-407.30975543233939,43.640330939147923,339.12173833982644
-516.63343586963117,9.5562498930360587,367.99242815238773
-473.67878784608018,148.19598313933088,333.66755167555436
-528.22987244845217,184.56190870395807,367.30586125610438
-381.85289571779003,-16.365124102189522,336.84880443676326
-493.20846297742764,136.39449877447822,253.66649118662909
-325.48413492136933,-56.823347577064133,345.03136648781594
-867.35149220549249,12.728926935839223,307.30063290246653
-358.04032747436696,0.30292067642918657,207.82271469353319
-703.408565067062,172.26154038114331,43.082446800640106
-571.1130631036873,-89.021074555532692,181.37332126705732
-443.22211110100818,193.65396854250656,375.48868078907321
-535.95781434682772,-520.50186380587002,342.30384580410947
-458.67806164196213,258.20529139012626,349.57723429401642
-441.9277772071186,-154.40351555721139,212.94879806958184
-411.00286927253967,-169.16268983272718,365.43206898159843
-240.02186844060279,-134.55770637307336,194.56310348469256
-503.22756897301667,-171.37921999399819,286.8442538221895
-442.47135892236929,-92.292152754609177,88.698951272997462
-290.02636603327147,-189.10810073642895,149.10446404218328
-180.0162604300414,-107.73697080075729,340.94017836646935
-610.50778269960949,-40.013507619040787,343.20004971150371
-397.31204500462684,-26.824105943343781,315.0748896608473
-559.59631804779394,-114.10127008003596,559.96568292825373
-585.50800829646289,-196.38177908825858,471.02140039391008
-338.66715156464511,-129.10617912818137,373.21221345234022
-470.0691197097604,-88.167575769485779,99.101127841730502
-563.85017314298113,27.618523431270557,439.75799657361887
-431.40285480497812,20.910991908354386,540.5036821529211
-438.22165651422711,-70.006364214928709,9.0917356123274971
-693.24521471653452,-95.008969839052995,406.85500230658346
-327.30247522269372,134.57590567728798,395.05413450884805
-499.59087189744332,-45.004091281025332,456.40512773888264
-541.41285571498349,-64.096736067735932,5.9096281479546899
-410.14567222690181,13.581606012413969,329.32579056480176
-206.38239840367604,-202.74570415894112,374.57349169377659
-345.94059396967748,8.1824002893253454,219.56519935536838
-561.89083269162973,181.80775473849585,428.19107992741482
-563.68760796435538,-157.74161287389543,134.10310077718188
-776.15731655844161,-191.58515105523065,525.2058969403721
-738.41170531950968,90.753093726777905,185.25056782153834
-288.20419348432392,-126.82565683990734,337.30629854150953
-403.21801144047481,-223.65620110346762,476.40750066089799
-295.48140740066987,-248.65896899717904,262.29657241567247
-677.70483543596674,1.126259214284191,505.54969145338976
-337.28342845071415,-151.61346482802529,233.04656915704189
-563.25243845634509,-104.59191499608639,566.35781637568539
-256.83968562802187,-169.55855121143415,435.49722368146274
-465.49686328427219,-18.638057932536864,404.12764806002787
-278.68860237253546,-340.06944466525368,446.20272026979745
-380.87493841836783,-28.101622887492098,238.30721524641643
-651.42290515976026,-4.545516017720292,350.03137189820734
-343.20103978572712,-81.369881559970921,443.69045354384662
-228.20256386944095,-114.5558687153402,324.5749613601194
-543.55935279406481,-58.353099120527304,523.50126147525339
-769.00050929489328,-73.34094993858514,209.8630701730049
-644.60405063490555,223.2021159804975,84.553151444731455
-724.99672530916223,-175.38269725526123,571.5372428098475
-728.22444336517356,-171.607309571153,222.13406768690194
-601.41824561029921,161.37845904591552,296.84525642276475
-399.1751465278528,-13.829290804785154,158.00286226293764
-523.55222667027567,151.8292434324168,334.5449810299869
-408.61963631667544,-91.626360665674852,280.79582410626034
-524.13855805072978,50.45913264842283,220.47458859896369
-684.15310488819068,-205.47322494211269,593.23574862378189
-571.41558323483707,-74.097645240475714,507.31884716792217
-329.57540514072275,63.642164329799158,205.01865900053662
-190.01727429954931,-160.92372034193943,329.57541594326182
-340.23112432144387,-111.3914084544773,40.967087769261489
-399.28765195646156,-154.50732815184199,470.18840815786177
-549.19683712919903,-87.332272453062146,445.55437746696003
-396.85434878933057,147.74055798138184,246.38594578277733
-296.89580898495552,-136.44240337986969,405.88860922109615
-156.09505369259514,-515.23434277279705,531.57562741623087
-572.77934357667561,-129.55723247566704,495.49959087191235
-510.01406443418921,162.14863615876163,336.47217938624277
-456.8586082897063,-88.188559020594568,296.39236021262036
-454.13354942115427,-121.37599451634536,517.31881846554586
-375.94326864641562,-82.734794505788102,196.38148836551571
-478.87115928215536,-137.4834962930253,661.50584740378611
-320.02921225135134,-32.730366296897579,208.65523758316019
-263.65374991331095,-288.67342384626556,377.82555006143446
-473.22483255797727,-74.097639373422467,348.66806519044121
-235.04583394339926,-401.88734434625133,566.39881121853716
-590.96282531963971,-227.29340508339985,468.6981052993761
-391.85564996665858,-363.29776154160692,419.21211045163369
-581.42327364443554,-45.465974831801169,351.84104723635477
-296.28677542334805,-171.26959670009671,282.03869636259645
-346.42572039729106,-173.68274377671491,339.09117580024474
-251.03428801294731,-142.36757042309054,313.1283837545601
-488.79397033031591,-58.772865386890913,514.06070473746468
-530.04840863894981,-225.02071921253821,562.32356451287001
-501.86395466665925,-93.190470279936434,75.006683387330867
-425.49320833195657,-23.183915484824837,450.95010687624961
-573.23216395362772,-59.093676017927748,479.138331120999
-575.49896835231561,-155.92129329044377,540.5096076213772
-738.70352500333286,120.9187152754908,355.03226482324163
-623.19328535611055,-97.347899186807211,414.4129285439023
-427.31157607751277,74.097644091436081,394.12673764539068
-384.08187717255913,-78.597558938632261,492.37234239724694
-281.38932718661624,12.728322656162907,333.21203272984019
-536.4124014191226,154.10491686663065,-69.097190809177505
-321.05108049720405,-61.48000518500686,113.20166595474102
-651.42284089175143,-1.3637453084549791,575.05228211028736
-546.86741109228456,-35.911816178682379,361.39703899732308
-692.01605147793862,125.32701986036427,463.62956678198123
-316.39239569638636,-98.645326076098002,441.85835897140203
-433.22120192744671,27.275206836983546,410.03727611600959
-300.48222280759052,-15.910898141716746,272.75170754970856
-375.034094008544,-191.88303791158063,451.76442694981313
-523.11147981160548,-94.497015583849119,175.33669833089911
-629.5297576194647,119.64546443103082,107.89335316762906
-507.21546295218411,-0.57034269799118065,456.51222784315996
-195.93931343464894,-99.113349244639807,240.90957201970323
-577.20474782724966,62.17582647608257,558.78624368242959
-589.59905445949221,32.275661423766778,424.65156946879875
-648.24074915901201,-176.83425765978711,691.42709044006085
-506.60549487805383,-82.570022773227976,357.3289895480188
-424.1294663151188,-161.83289395690343,350.48640785525913
-661.42797944124129,-185.02095161339705,417.76271994873593
-366.39694523546683,-495.95417780497183,309.57359757632383
-423.22029275570924,-165.0148916109309,146.8315301373284
-268.20619902661366,-46.82243528277818,455.0413693998816
-363.0681508471551,-257.32502446074221,202.8630538858514
-370.18463904514613,-255.16387089143967,541.70613021363022
-355.83129108438709,-257.82386779316067,434.95156153209291
-498.68155123725563,-252.29542788378569,267.29702700245105
-433.3026880727669,43.029609571373619,274.51580579528814
-575.39997430778328,51.922486320113151,553.1131044300223
-218.65624148718376,-96.826984281808123,-35.912355677232085
-465.49683585406365,-92.281043822490545,82.280260191815785
-752.11176414186355,191.08970448925066,315.10370580194723
-493.96049718499671,-71.640737425657704,-186.20746817499057
-243.2039276828684,-109.55718350842115,174.56073397244106
-462.44655828672001,-225.79045789165269,224.61471704078639
-383.67124284025738,35.457766485458549,22.729339030818188
-505.06911517189855,37.667123632052018,120.41196626686249
-772.3429402672931,217.29248113465084,252.29566324211123
-456.40512773888355,-150.46822438403828,435.94872261084362
-347.30320904980994,-174.56047493582045,425.94851071240311
-446.8558555821138,-87.733701507366689,268.66328788397328
-438.22165651422574,-146.83153013910237,440.49459041731023
-540.95837222829937,-135.01190330785704,350.94138377355227
-484.89009653700015,-56.668567478664272,568.81623066659552
-469.91314235131495,-185.88173409490261,642.74726862787759
-421.85653241203443,70.006364214929846,286.84425856895876
-364.57846335534055,-104.10020311045329,425.94805796295054
-344.57871080826664,-221.84038042426482,551.41162296366861
-386.87143027911321,109.08307734090131,514.57899895809305
-408.46870362923733,-311.67769812923382,547.36046776908688
-379.14398505235397,188.17996471221119,580.95467093701029
-291.84488892337038,-14.09243997416438,9.5461558762392187
-259.49887500379344,28.956488997230569,281.47695508283209
-461.8563542402818,-30.931766693226038,568.74742215383185
-288.20801891080669,27.274083174671201,233.65760523683755
-483.68130736929027,95.916813495049325,344.57576214090341
-402.30931967558928,-100.00911094995837,301.84561810214439
-418.67442494771865,152.28657150650136,20.456394791070895
-445.0333050859054,-18.176357858662286,486.86835726109769
-437.31248318522421,29.548140507839449,516.86326477893704
-340.71341490039038,-188.31044470188408,423.08450720422144
-597.1005905848549,26.602474213127032,440.62281381905223
-491.70808980337756,172.92411338188464,194.33695874918206
-346.84971713912444,-57.732525667463179,258.6598720111416
-358.50230557317008,-8.8510544379024712,227.10072730633721
-581.57998413035443,-208.40594607476834,183.23625394205044
-592.3265695723403,-180.01635371398956,399.58179128601438
-422.31111919265845,-88.644421007689061,478.22529482513272
-431.40285630130961,-100.00909384162817,271.84289380546107
-509.59178107100303,94.099463587599971,172.28838985362179
-640.05818710791482,-28.184380398218426,50.459132648420102
-665.97492168019198,-23.189278772943219,508.67874688901304
-510.50095463223346,139.10355486862559,68.188017092462445
-473.15986622421678,91.360609401291512,399.23599752140564
-492.07979607815258,-17.914554204153525,172.63181863206069
-422.80109328801444,-391.89159747831116,215.91556211142822
-799.61814710427757,96.826984271296482,540.04909476194723
-719.15628693376834,52.277479772563147,476.40694685758029
-505.95510293977367,-116.82885363109872,555.95961926366533
-206.57906337133184,-249.25824955369495,333.06773877739687
-545.93351730245786,35.488200970126684,-18.607007234246584
-493.95395758057066,18.367450073340024,309.35247827597817
-907.83813389482816,-88.686921725963714,-153.65033184835207
-470.47065664940521,-197.71889829453877,507.79234508232418
-465.48365228749378,93.757564191798451,253.93334624210038
-774.21955851863413,81.055906622672751,548.59426180718401
-263.66033275751869,-177.74343122102047,301.39103484392763
-457.88686865763788,-405.78063957496909,221.46818503654134
-214.47721428505352,-6.1962217973985583,245.6803479085774
-375.76075044695784,27.867658774494142,425.89019067871561
-538.9665834981688,-35.87658011051608,287.38493406513606
-598.51480299022398,-65.284509327162723,234.81987127030607
-570.46670974226151,-148.31169792304303,472.85729248372769
-327.30158001601797,-29.54730876404216,66.826288103966291
-328.66624238566624,123.64760432766766,520.95645058641412
-771.43021794493234,331.39731183050185,370.49112645893655
-570.49880512085588,159.11371073743834,268.67123215172313
-694.60860078188523,-110.01000090917853,424.1294663151196
-460.47455622730678,-89.362979720976341,676.54307005756402
-539.59451409046198,57.277927361937948,276.38875295907235
-519.08525157972906,-187.23464472840172,537.38545400132557
-555.50532736528839,121.37414290685784,433.2204930713167
-575.29271866050124,-47.063061963336239,292.51362156735257
-659.60541867442532,50.004545867792515,386.39876352395538
-783.33704795403855,61.49116887741971,434.12870742207184
-563.24005348720243,19.72287486147766,483.66918110874639
-560.54799790941922,49.010377487820463,387.76252386580734
-645.96781525592689,-128.64805891444627,310.02818438039759
-698.68836155935935,-321.37660428231698,119.58215291122981
-651.29099625518654,-67.908024213425179,154.46331985461705
-359.12355572020863,39.094466063496824,346.39512900491542
-441.85837056157089,61.369187291417312,346.84969979468724
-408.66037725299128,-206.36926622189787,314.10285663334469
-388.21711064652447,-68.642603873497379,367.76070551847204
-264.23488820337491,-120.465496750767,302.06027166780933
-367.30610172195247,47.731730613446359,345.03140240174639
-482.75876594565091,-83.350800886178291,338.67222792255933
-386.85335030457077,-199.10609124757312,454.13511249822187
-390.03546526943802,-23.638622049077519,414.58314110597331
-719.15628693517112,231.83973263067736,86.37148831711815
-563.12239002879062,-1.7979444631797012,400.14701183621133
-465.5399378462912,85.617913557985091,515.60650928971711
-135.50460016303023,-26.528750469108964,193.7900707030135
-631.4210382762036,23.183925811438478,362.76025093190145
-400.49095372306272,-11.364669515410974,392.30840331503089
-233.65663307164866,-99.553445544212579,175.92667944655614
-535.03856743957738,-11.809261038033025,504.60202453379384
-581.04666030067858,81.64035488463638,420.18531393666336
-479.85755511426095,152.58204249507489,306.24658238564507
-187.66244587611803,250.28666664107772,361.00340618481351
-494.59041731066225,-155.01409219019976,401.40019268543898
-490.96269780100693,-127.2843025976097,180.91835285959237
-463.6785162287448,-179.10719156295698,522.32021092826301
-532.77570688243816,-253.65942358522545,385.9910894467464
-405.94451387622439,-85.006237326550348,475.90139032339488
-659.60538836567173,202.29304896964334,432.34811819327319
-616.45085720850568,-170.52828099535597,643.19500455084392
-667.33339394490099,115.01049362545089,538.68533503045489
-597.23113693095877,214.20342265581107,198.61036165453854
-300.02825370707279,77.279263450305265,205.4707785836616
-704.15492317482779,58.641694699518013,218.65624147649896
-669.23245752534694,288.13024506281647,188.13749932766606
-152.44517081706709,-429.75187019908117,567.72541556128874
-595.91927856328664,71.646645099737881,402.00973342672171
-433.7178593893812,-190.52792557391271,226.76475294212679
-312.27505829005275,97.901200071511468,456.85971497980864
-102.22775361019126,-256.85588155004666,468.15712658760384
-285.48049822707429,-222.74752250200837,180.92553870194408
-371.8519865744214,-323.66578782908562,66.369669939802691
-427.38621408027205,126.76253552122756,610.90118889274993
-442.67752048034663,139.76535979259577,253.51461746209449
-478.67930880201288,-73.187900492169746,85.008299162342439
-418.67701489174561,61.366641798937465,341.39256232706231
-316.84698608964118,-285.48049822710959,249.56814375888351
-442.76737209946606,-383.671091680004,245.93153863879556
-620.6465655082917,10.487462416038017,507.55245093356672
-702.35269227423885,-60.477832426541326,388.64616280256985
-724.95659901560873,-183.09099733573592,74.632113077587491
-446.8588053459369,295.48140740067441,290.026366033275
-507.04251484837488,-10.797125569100853,478.38678388917486
-343.66869221039588,28.183244967268159,457.33783994596496
-279.46013258698252,-503.57115568465372,70.953676214559138
-400.03636694244716,-372.30657332484878,715.97417947085808
-377.76161393134606,-95.463223168549149,415.94690456838242
-338.20279513540015,272.77160765627741,470.49731793799288
-465.95145013182793,-205.92781161923688,166.83334848622312
-586.41695071821755,-245.0120042247967,203.20029268429539
-429.12992090189465,-64.551322848670125,75.006818800569874
-535.2278570291237,-67.995573308791123,199.96382857244231
-194.49569891278631,15.499939235118413,290.00858268760334
-407.56117675075706,-334.65078982736424,328.27264999300661
-314.11475246164747,39.815912374685418,245.95884598351694
-353.76330644047891,-183.6505055897965,329.96141484270237
-419.65723156925446,-183.43850324063709,413.72388732890465
-372.37348339011913,-150.56585824744843,454.31317280590059
-614.60130650700626,-84.098554414036741,209.10972268066706
-204.08167088890909,-79.498113481599603,374.66724676874441
-457.76888653255679,5.000456131901057,253.65942431636884
-517.92820744776623,73.684035798897483,323.4117264252165
-135.10089440937455,-180.54988514939089,217.8134444949886
-467.31084885263368,189.56704913716598,246.84410678800677
-564.59678152558979,22.274752250205847,249.11355577779705
-434.13037548867749,-201.38194381307454,495.96884070730653
-276.84334939539997,-80.916446949721916,610.51004754051917
-355.41243783564204,77.7827071499309,330.04863218847089
-625.51138605303061,10.909337579646571,126.37997297690708
-345.48595327000419,-88.64442222020098,308.20983725487093
-225.13507743374151,-219.59906633374905,482.8354474411064
-375.94326756977472,-56.368760796434778,552.77752522956234
-529.28632760943572,-127.68345951247314,438.78077420854493
-245.21185492247324,-167.79811054511146,336.24582431011777
-470.52396029398602,22.700978022919625,345.47520279249233
-357.30725866015462,-95.365470773182665,376.87375841641295
-375.26116665462854,96.58353751524858,168.29114501967004
-663.07377758979544,39.103653491492338,519.30293374442556
-397.30960325160765,-296.39136885243141,522.77530119889775
-300.73166675173854,131.57757122641999,181.50689525206488
-497.77252565913915,141.83107378400069,404.12764653331635
-444.58883551771481,-254.41530227806294,700.96917736679904
-480.95068412594338,-46.134996880932121,260.33005094451914
-207.29156330689233,-310.93735798214328,513.6830794539203
-277.2979362149963,-207.74619860847284,438.67621871955777
-146.83153013910172,-289.11719247204138,391.39921811073248
-459.5872347409769,7.7279757326995142,425.03864033857076
-570.50640967360471,-427.31157377943447,377.76162079550829
-113.61854385462284,-234.08112851458304,302.79815536329369
-408.16507903075689,-46.955507565843831,590.51347586404449
-650.15438584136143,-23.011542727401679,323.50819352677172
-526.41149195381183,-165.46958814437701,307.30066369669805
-583.23866264461344,-63.191320652265674,503.22438877112484
-530.51156522043084,-31.520794135650803,445.84830300986692
-570.05754022798476,-222.74942828020019,443.21544087693468
-308.86486157587933,-176.06466933307499,451.83692527798496
-615.79759436508755,61.477349721754933,405.56854016698134
-741.22946557892681,61.598284102740237,49.325424087684468
-315.53018420410825,13.467120338103204,246.50800979578551
-219.56528245733182,-194.10842406861923,328.66635043868979
-734.94710909961736,119.32520481481124,-1.3578888266071971
-458.24768687956589,118.80278928841352,259.12570118342893
-275.02500227293183,-54.550420053349917,430.94826164498096
-406.86678085144649,-174.12054211931135,463.12679245306367
-421.02095829956437,132.5238936781584,384.867494921434
-654.74828817434013,98.932081477918288,158.97718350152417
-555.36849297680521,-203.58833550110572,491.84193514806759
-540.95835517468174,-76.370665384702207,369.57898162614754
-287.75394713365841,-264.98391951113325,483.26601288156672
-180.02754832441215,-124.44356458972695,303.62826961147471
-398.23367437666428,-115.93801104255779,182.26579595036685
-709.60996454222845,-79.552686607871422,433.22120192744762
-335.03065513516026,-16.819796503338711,427.3114259694633
-555.40950834456112,-155.78367244360581,657.60068471263298
-258.20935560009849,-43.197928741372138,129.5450455071522
-548.68624420316462,-75.9159923617147,408.21892899522135
-391.20451582208739,-151.18046746159419,397.86526874137701
-497.3179719844826,-450.04059436628683,795.52790582860268
-600.96171386493324,-233.65522965232833,208.20330384409331
-477.30532801229685,-10.677393527009924,475.2866665868778
-530.04812192570807,-37.73063811804743,502.31845860965893
-806.43694881352178,168.65169560865957,247.2483186166973
-417.05760071446684,52.15931551461766,208.4291759410718
-286.84489647218209,-90.463419513263332,247.74956235592055
-588.22690069213729,183.29442599984174,319.48694678741708
-373.67014032545745,-215.0193393729615,440.94943928956019
-494.04900125944653,-57.511121348721154,615.81554366326077
-543.68578961723495,-119.10173652150095,456.85971451950081
-366.39694517683103,16.36512410219138,-104.5549595417977
-484.13336326616991,-50.002685423998045,250.93453072435787
-674.60746136603302,125.00994740053302,268.66011689968008
-358.21438312573702,-153.650331848349,363.66942449313188
-589.59905445949278,-10.910082734794253,581.87107918901518
-377.76161474473383,-30.002727568973281,585.0531864738789
-353.22700463569061,-99.570747856001447,452.29137208545126
-533.25236862567021,165.0156476671859,416.61883455455961
-452.35248628214345,-132.55528279905627,266.57465123843281
-329.12054184146587,-157.2919365835009,427.3117092325607
-510.13570012664655,-6.0007970401931479,479.8827247096354
-278.14810463311176,-278.2070993064209,281.94214194038273
-456.40444916147175,-30.456651137919359,249.16988213262997
-319.12284865194312,-323.66887766870758,313.66036472854671
-592.32657514319203,234.56677879807211,297.29975452313522
-475.77741954372408,-13.546238688825198,146.14221225225836
-495.04500579099937,-49.549960078685707,151.37739660608085
-208.65533230293187,-38.185289571778334,270.47913446676694
-394.67854224054491,-3.6360100491283269,284.57833765010338
-471.40649149691876,-74.097645235610258,237.29429948974342
-430.46192997074985,125.49752549551862,51.393848638936099
-380.56132557497506,-194.05783232662029,304.58581840002671
-460.89324864430654,-5.1891357388122792,522.02278715358921
-403.21830202026149,-65.914824609624304,225.92962996635177
-267.75176654162362,-320.93842276128436,459.05789913295445
-507.93982411264386,-52.662547447907208,479.30851319554733
-461.86016910605133,24.093099373011718,317.30157287077441
-278.17472897025738,50.9476674156287,480.59046019316077
-671.87926175106475,-217.74706791526501,620.51095554141125
-221.38375662072642,-222.02090602204581,344.39422713822074
-368.28320071478282,-197.05334025882314,53.92733765829901
-724.21428315824767,149.8435341777527,378.41497643361618
-537.04506645630613,-167.24219563845656,150.30853241051898
-396.85425947813161,-362.76025093190179,584.14401309209518
-531.12322520735847,-29.722749317567018,323.86941038122802
-250.44748147057686,-119.36002728272281,-59.39637583890633
-349.12264750207765,-233.20301844102661,595.05409584621714
-486.26721563558397,28.732336319420281,354.30920988732908
-282.32966216791436,-275.48240768196678,-25.552224706601187
-452.97529348231546,81.135880888373904,180.84988141751202
-450.9500073197936,5.9097253031455628,427.31171015868546
-537.22488492608568,-301.59631613765839,479.8334359943068
-540.50367168384184,75.006829384625675,388.21690675679827
-367.76070363058005,259.1149208582051,402.30930428153778
-360.79536745182725,22.243710758359811,397.33905136306623
-356.43503507346753,49.046623470026752,222.22750965393317
-309.5735975995388,96.826984271748586,505.04591326560939
-491.86280350894879,-82.279987194493842,378.6709406289869
-514.28991059651185,-84.573083124463594,469.25042664506555
-355.0944732898401,181.27732660787041,98.601274740295707
-328.66624238566982,-273.20665515046687,98.645331393762007
-429.58450768359171,-135.01227384414844,348.21347395141817
-478.65766338863904,37.453604948828016,439.1136588819133
-579.79211501039561,-12.500859820124928,93.33605641407496
-403.67269413962362,-10.455121227598362,623.6934392680688
-302.30020910991897,-108.64624056732448,399.58178016183132
-519.1381460155435,49.549937168688324,245.0221921283713
-352.30723725115735,-123.64884484978577,354.57396266751977
-392.76297845238054,78.643513046904204,470.95190471896672
-238.20183996827262,-186.97447268692329,297.96488017556953
-426.38261548278996,68.490277228022578,394.16158289436629
-618.23802163833022,-125.01136466951588,236.83971270115279
-541.41495809323681,-79.100761710454307,488.22237062660327
-265.02371834838641,-226.83842877661033,320.0295017222237
-657.33247003167594,-72.733825089836728,193.83621047174165
-341.39463430325475,82.280245336667662,190.01730269534175
-406.40058185081165,-28.184380377950781,343.21301939401621
-478.46032803438464,16.164725943556483,-100.88302313494033
-516.99999501710954,-15.59616523297518,569.3761828831407
-405.03682152932902,-160.01454677708037,369.57905264104505
-647.33161087658641,-106.37333908306584,97.281559264082276
-370.48822620105869,-225.92962996467415,402.30930084767681
-577.27875403636733,-109.9564685134194,416.64237650489463
-551.5480513952956,-25.135209828341431,-113.75668862514107
-441.82242114596244,-95.539462227036111,451.49361955560323
-352.30475497772153,-80.007273388489651,420.94735885080291
-388.66739824183952,-287.74917572250996,230.93359234498573
-641.87702575660785,-63.18805103479562,187.74400310298941
-538.67901564446788,109.57125762071406,337.78456182704207
-519.64275609821186,68.137086255488668,319.07204999758989
-277.75257437530126,-88.644459118041681,272.75058180494034
-323.62060484505423,-317.22995565459667,562.39915254556786
-348.05970985376752,-328.71214516148842,501.84519894807153
-470.68005772081159,-75.32420733229992,579.65412763507231
-527.03808078508291,177.67344258821521,353.94824599548281
-646.87698881716426,177.2888445923102,321.84943203605354
-421.7688586172884,0.90918521881404823,550.1669048651828
-512.77388853531886,-94.317709039309875,405.49140830984351
-434.58498454400683,-125.92053823069479,479.58900900086917
-567.7266492534568,-46.995382715694539,75.841532252420663
-55.043191559804683,-226.93946473494427,283.40877923051892
-284.05174499958656,-176.75494059152655,433.04653702078309
-348.2133956970643,-175.01583426745424,147.74076670146752
-601.87289753695427,-16.81971088546933,402.30930084400569
-620.51095884982499,47.731608656309689,349.57723167495209
-478.67987967285876,-289.11719215581257,577.32521169908034
-218.19807865851777,17.730672462720449,230.48086182856377
-586.87153203115633,1.9438962658757355,313.66488412778205
-636.61696996340629,24.480528591979223,479.1357623778274
-332.74874032475958,-2.2532698191968601,137.31733294191355
-497.77252406421741,254.11401150179978,514.13764973010541
-318.44252065698083,-369.03984138058956,91.255656966896851
-288.65433455220045,52.285750649675627,175.01877432677861
-316.84698609236722,-326.39330848258771,179.1071915519754
-669.10663596712754,82.739497822429115,522.80392139228991
-269.11739720914238,-481.409700921134,57.731185888262289
-227.20988756973787,-231.14957745446353,441.71287243836116
-404.11474878142366,-10.896013278161419,327.77417225057343
-257.588362505921,-93.48254726451033,369.35174983000218
-564.14219474497372,-188.19892717519861,514.5922356577853
-364.1767589899755,-95.473374802817673,553.0332946439911
-443.2221111023652,27.275206816403728,87.280661857065425
-433.22120296121921,-344.12219912922893,80.461570700612342
-420.03821688942048,-110.46461876876329,396.3996494316915
-647.78616237839469,-55.459587235202875,490.04454950449855
-409.80545961069043,10.212427589401898,316.49140189555743
-536.86712826909593,-19.547381806437286,438.22156902679848
-388.21868328921187,177.73934234975184,461.85953210700245
-76.370580401555287,-379.57996281062509,299.26527134489214
-664.4999865852883,230.61843990935498,144.83261563143787
-298.1395039377,-323.60855695285488,354.00562807818204
-469.94279484943962,77.805132745966276,299.30415755278148
-523.09728964845362,-0.63733474192803641,188.45257458525603
-732.80399339861697,367.7202909783349,179.92671046421518
-225.93495227090102,-181.88111580140361,427.72647991621437
-364.12784650284175,-16.487717491486496,456.40681614517894
-392.87526932627162,-214.16761506871262,137.90731882317061
-385.15165380179297,3.978509420727006,270.86137837152785
-418.21984198312271,21.820160350632811,71.817026326184518
-485.33996547701042,96.087136396804155,236.14224697837949
-696.42640535954581,-159.55942277233848,420.49331993577067
-455.67405320782649,55.705443717611381,324.10816748854745
-198.54822542090417,-404.09231147651678,230.96454327467976
-515.71539187468397,149.75161298615063,109.4379087423318
-778.57177355366389,94.285445212127456,417.11317136742565
-581.3664109957117,-53.183951419090072,426.92237406674559
-349.11536203082761,-38.63240564563246,464.14396949177512
-343.21301936539533,-92.735703245749662,424.78708858782772
-508.22802076029706,-125.46595148000252,370.0336393731431
-430.87641608525638,1.1214493416085782,505.71277582583184
-636.87607996839245,-28.184380746197004,250.93190276105182
-488.68595950559637,-107.2890308452718,126.82131949400076
-410.03711710679192,-229.56611876575639,348.21377649183034
-460.36095732001519,-235.11741060131143,310.31498320556477
-450.34282116880019,163.29901274033176,513.33081579654993
-408.65344522663247,-397.79850235849312,245.04402266693128
-268.66078736461867,11.364669495094295,352.75934174185318
-440.89350909176216,31.651970268163147,335.29314748929778
-391.52619723956064,210.34669981127283,463.59907256010194
-321.84201544138665,121.83969095795185,410.50622117835809
-647.78616237839549,108.64624056732529,172.74297663423602
-268.20620056368324,-175.47049731793462,44.095273544856077
-359.55064731819823,-26.802687283297317,337.85816492228275
-257.27839516003172,-45.832289976768671,316.28909105706254
-725.97508864440601,-262.75115919627257,411.96523236909604
-380.95353570781185,-20.964551038259952,-113.704836918309
-564.59647083208915,-70.00798441551008,84.097275113266534
-492.31742290584083,45.004132875971813,398.21806519628609
-300.59833948368907,209.04306285717072,365.55957568847634
-345.03136648786074,-94.554050368214291,500.5000454586775
-209.37009991573524,171.69161508839517,435.65040008275588
-402.76388732045223,64.096736066914929,120.02819027977493
-340.48549868169664,-250.02272933902964,462.76985402427988
-326.22952601142538,-63.049664860783857,384.7950071921789
-530.04818619873981,5.0004546086709167,234.56677881897906
-484.85055813188762,331.96333020125138,17.445879114027274
-208.9125700037975,-115.50769824656142,340.71067510188209
-459.13264842309354,-109.55541412903368,427.28249837311603
-679.60723702154382,-85.007727975271848,579.14353567356704
-200.85395212008632,-82.142204496189095,408.54011658629258
-435.03954689199963,-2.2729332197662706,324.57496471565844
-476.40694604136274,-292.75388669465389,33.639606456999019
-281.87269008193806,-161.86177999920446,369.10418193267355
-398.21818917057612,-255.47793493591399,189.56257310675758
-559.59199774255501,-227.28903186062058,529.14190851885462
-230.43509092188145,65.04554466053392,509.16683463833175
-374.12480106194374,12.728587228883354,129.1027705070353
-534.5940540049063,-96.826984271295046,178.65260478224883
-515.95599599963339,165.01500136376072,243.2039927363243
-390.03738048571893,-330.98293741454177,268.35147828726133
-450.0404328950894,-132.73886267628936,212.74697392771202
-475.3962918879036,-236.76470527390535,534.61170281131683
-623.23847622510777,58.64169469951625,617.32884807709377
-451.89004089784629,-134.08458532145761,574.67531438884544
-256.0470620927382,-149.57433428281638,317.36667149964381
-523.28531143981968,48.148914111790987,455.44624133291899
-513.68306240263632,-161.37830742491639,320.48368002848525
-631.13260736245638,-8.2894663440617791,360.50268778273386
-318.740799166903,-165.93308097517979,-59.786008605520756
-493.75269234123732,-99.898246125695067,636.75561133042447
-462.03460484762371,8.0510295473590023,552.27266353907578
-348.8709721295412,-145.77177982654646,462.68426065345136
-540.95826893353512,-58.187107918902441,438.22165651422648
-445.49501716944661,80.007301061302812,303.20940225249547
-545.0495484603606,-80.007272639127891,741.88562671535396
-637.33066614539371,70.460952110845767,482.31657479166836
-565.50595508682272,-190.47186107827983,321.84630122291503
-578.68687869318285,-177.73917040721648,511.41397787643666
-306.38455476467129,-188.18260865464799,284.14284751860134
-558.23256659696119,190.92644785889632,136.37603418369943
-238.20346742895646,-55.459584207019965,334.12128842015983
-425.94781343758376,-202.29111737430742,501.86380580052389
-273.64010389015669,-204.99771033354691,379.14262201998503
-619.60178198017456,149.11422816306461,396.18314597414906
-638.23983998544873,-306.84607691608164,264.56950631875571
-355.95757793971404,-124.10298332349056,372.53944516204751
-474.1340121830064,63.18756250560466,308.13969565063758
-629.16239039248501,285.46207218375832,280.92034440208505
-573.23392999697364,-186.38057969240464,338.66715191711393
-621.0054320105238,58.598960470869706,332.70594419864562
-273.66124193108232,-30.002727520681862,329.1208291662864
-372.30657332493138,230.93008455305119,115.46504227649642
-421.41697738606229,-95.150802884501957,253.33805369310255
-397.76343303827315,-380.03454716000152,399.58178016368123
-242.1752000820666,-100.23885730979275,395.0761058518753
-461.86021116457624,-140.01293873430848,431.85744155966688
-599.75779033053891,82.585541585365405,368.69453132124409
-478.61712614126554,37.682713331156499,300.48016058087893
-331.8483498499844,91.371942903901598,364.12401127374989
-438.8771766062539,104.86472817477326,321.29193319980232
-779.48997651642401,258.3810236930409,313.66197207880094
-377.47146704231699,-37.44803990938356,328.36333504423692
-419.58359850895442,-53.641240112736568,131.83016637875934
-401.40012728429497,-385.11256482020707,148.11764346343691
-686.00565314941559,-29.004607712142196,508.10523592231283
-225.65520763419278,-8.299792897315486,237.15837644756891
-577.77979816346885,147.74070370033374,182.28929902718141
-518.68351669587503,-69.551777441594382,165.92417490673424
-611.4192199290801,169.5608691699243,120.92008360726405
-604.60041821983316,-51.368306209654286,504.59132648422741
-592.32657514319112,312.30111828348157,130.47206574054525
-565.50306759180819,-235.01861989297359,160.01901855756427
-370.03117606089739,-20.907887673119841,376.85686716963801
-483.37171067600309,119.57848463761511,300.35020397394317
-434.7145669002366,332.03044506573372,594.32581770417471
-701.88198974517707,-17.728885148830781,364.57859763878417
-614.19498205044226,-56.226163338346495,159.96524625539888
-394.27603418398422,110.3213911881261,313.17081119019912
-588.68988089826212,-66.824260823569773,550.96345637904869
-484.39948028776428,180.76250172310759,388.45977443346231
-224.56586962450982,-336.84880443676525,432.76661514682837
-511.99327777814943,-342.17472869100015,613.24979815311235
-827.8011496293642,95.923754997487976,276.39096721179811
-615.05591417394987,-16.364926627755345,502.77297936184596
-388.98146534099675,155.45480992827945,259.57901545271591
-394.1267387944315,-130.46640599704145,446.85880542568032
-443.3590124633028,-106.5093158612944,556.22094464344548
-698.69294470031764,195.02466599156119,201.38440536720952
-289.11738132528512,-139.55893008272412,319.57434198148167
-312.30111728729139,-208.65533010302636,231.83926166328209
-711.11315454781038,235.90465143920812,111.28488346366717
-385.00799272283859,-125.46565797322955,501.11527607582798
-509.22725546902132,-11.015078263564789,473.13511346438867
-474.98588066993409,-94.305711267749246,631.05324884545507
-612.97860583753265,223.9227671784534,664.84453555095808
-311.09083012116309,-127.34726934402282,374.68073615599781
-472.77094555460258,67.278496674466652,422.31007862235941
-313.68071565571313,-307.76792049504405,275.91517632402963
-802.34566778797716,39.094463133013718,450.4954995908717
-389.12628413435687,-256.84153094515869,458.6780617602916
-429.98901707554501,-130.26990402893557,215.021451002753
-869.31991232254109,171.19573341323755,487.98736558018959
-592.8521282869051,-330.09831614246184,220.43877379889486
-304.57314008589753,-10.879642490993568,467.31521340079991
-596.06619347541903,-49.202433602025465,822.59571862450389
-486.40784622925679,17.728893042119385,430.03910981457199
-505.50050004545454,124.43815270903617,328.66624237879665
-574.13354747569997,-20.900717351318715,381.41145595101671
-260.47822529345382,-20.456405127944471,272.29801059963222
-195.12100414924484,-57.16150539157892,507.05965448279716
-725.52017455292037,-391.38418667915431,544.34365977663344
-392.76297845258421,135.01227384307822,309.57359759978056
-532.32112010182459,-125.92053823074687,515.95599599963555
-343.3725532503704,-89.1843587590608,357.88313752943526
-542.77661665742835,-309.11901140984997,590.05364079977721
-516.41165579763526,202.29004980371221,379.57910122208614
-342.7584325847771,-72.279298118010374,349.57723429402614
-416.29868781472851,-146.73475809779418,260.00541271542767
-715.86527341306237,-217.73422094916563,222.11452347828467
-125.01136466951313,-273.20665515046784,75.915992362940017
-416.81022939913993,-11.819256296025523,274.20462416454967
-408.328728119419,-168.60805099136991,-59.949884715631498
-519.21649208296947,-256.26605943519559,35.135791627933223
-538.2307482498411,-69.097190653700139,419.5835985089488
-536.41240112736944,-63.00750020729852,198.19983634876414
-491.408309861737,60.005455348912207,577.7797981403836
-690.06054230040002,20.458595770234915,514.13983956006496
-782.79843622128078,355.94144922305395,150.46732784719097
-684.2355196000002,192.24979157083763,434.29031154428839
-700.51822892990037,156.37785253204854,23.638512592050759
-412.7965251119885,-316.810142758464,425.70149909685955
-574.65750209190355,-250.63338246081835,245.46253318327396
-280.48004364032823,-37.730702791162855,280.02545689348574
-276.38883042161189,-15.91067745568782,401.39991482289827
-112.28290978369543,-413.21936689461961,483.22578116666637
-699.15446858830012,45.913264842159357,401.29080363313
-746.35132112111944,145.35585519120579,267.44552805668889
-420.74425834078698,34.274879019961077,337.70589722215436
-235.78245193325728,-205.55020150921735,75.892524005532096
-517.77476567623364,236.3836857010738,350.03016269243955
-458.67820680021026,-218.6563989937126,395.49033436519841
-606.40282455704107,-39.345212548304403,483.80473858436176
-442.07577642941493,-21.926871330177885,321.83974708354441
-357.30627618819483,30.456013527450622,358.2125967213936
-565.05136830620734,-41.821983816707224,547.77707064278366
-305.49754965289503,-120.30388513653887,345.70152733756402
-419.51621826350396,75.681463066333137,53.384211864359457
-460.04096044015097,125.92105628249513,199.56503261063332
-498.6816426765696,136.83067621291448,165.01503983243396
-452.31387766567229,-15.001456781421169,300.48186256231406
-664.15128648058578,-117.28338939903607,304.5731430129976
-342.95287197293561,-222.8795783798092,384.32001015425391
-471.86127358943361,-36.821806018138197,339.12160207734064
-482.58677427775802,-50.098302644101189,607.61998087902339
-339.57929987809575,-195.47623416857672,258.99124883027218
-290.93553959450611,-241.40054510390004,646.8769888171621
-540.29945782975483,-112.02628123745274,635.05789325795286
-528.68442625786633,189.56268738436273,126.82971132444544
-536.72564400887848,-226.32302079637881,443.33994733830474
-246.84062187471352,-400.03636694244875,520.95645058641446
-543.68578965806989,-235.47595240014169,386.85335027678514
-363.51204441861273,-155.92152454263797,382.38585061299892
-423.22046433253843,76.370389993597968,312.30087125155984
-582.75079803189988,116.82506026354183,257.43516945079728
-491.86282724906636,-189.53260341665722,375.48882076007612
-547.76988907522366,-169.70601448118759,511.64340622340865
-256.84153104827476,45.458678061642594,185.47140649149833
-88.703694785160863,-237.82651758632252,300.3711848975197
-397.48470539305742,-40.805856128172657,499.58038959449362
-707.519363383925,103.00769747862485,403.94533353194532
-287.7743634584387,-195.49303662819884,521.84816384368321
-573.6885171379173,-265.02409309937315,165.46958814437477
-201.38261455550273,28.184292852691236,490.04354622227419
-195.91128318150561,-280.76875310576924,378.76105996469897
-474.13401349359458,64.356318564834424,230.93008134657535
-511.41012814932031,170.01545599803123,300.02727526673272
-611.41872609961172,-0.454049629088215,165.92472521529641
-367.30611873806276,103.07372694981049,282.29838376352126
-367.27479604264124,54.670177303096125,514.97232911673018
-360.69476286645278,60.686413457317059,343.2451067993037
-603.69124466296546,-23.638512596415399,506.8642603829453
-615.25937378396679,-98.854975011208012,341.5434569364798
-348.00104918499284,-86.218110317668248,320.01983390498191
-485.95326847895012,114.55586871533966,296.84516774251665
-358.15820874258998,23.143046228603602,256.44311889265316
-482.29527838719753,-298.67009675543898,261.59612253022158
74.336812104180794,-182.15322649612068,365.19338013289996
-710.51925738232842,-158.1963189333924,814.61939158573557
-688.70033330839999,67.277002618637255,309.57101346160397
-575.05227747012998,-377.76161468081614,322.75661425225024
-356.59294434013862,-361.48024964149226,-9.297705418256248
-307.27013288494277,-19.054543234701146,302.80371035991925
-599.59996363305459,205.01863805800625,411.40103645785814
-447.31339868575145,-115.01046172582051,465.951443956849
-331.85031746363796,-25.515598246503039,141.33203911478881
-689.60814619510722,98.190744613146123,305.48231657423133
-215.92870631132277,-130.92097078049915,233.20302915992036
-476.40694608600569,117.73799966025183,250.93192638085935
-528.9763237528955,24.901486855431017,449.74249487054374
-469.71219259289421,-356.19732373213498,570.60401608468828
-733.24851213452882,196.83446591818486,412.30864387758504
-397.7634348780324,-199.10901358733253,365.48776793825988
-290.92848165786756,146.32248009948754,174.34070611948272
-198.19983634875413,-273.20665515046738,519.59269024456523
-270.0245476861495,-94.099855964474159,447.76797890717319
-364.12401127374716,22.848531653112708,203.20029093553833
-550.50459132649939,111.82834803162376,409.58268933537698
-335.03045731429864,62.278388944450668,212.7466133284822
-32.730248204379869,-516.41058276614694,504.59132651243289
-344.58414782158695,-28.648857448307425,320.46954178324341
-639.14901354668257,-10.000909173560979,785.07137012455598
-637.78569650374845,125.01044855929413,446.8584211554026
-354.57277482912485,-203.18647016499378,193.66286890194345
-575.96145104100106,-197.74524956814335,332.30293663060218
-382.28233853731604,-298.1281082093592,602.82517503070494
-432.19501045105721,-78.067170420001602,321.39941410760383
-643.7762313234216,-207.39616476295376,740.87185964728974
-769.24552741792866,81.977324252278649,218.77294588373283
-368.2152896882784,-263.6603297948302,349.57723834779426
-309.08926298045503,-231.38461260401951,345.05450184760269
-419.12901172833858,-150.92281116464994,237.13771277893957
-349.54888395772701,-313.00665687322112,560.88723606786891
-449.13245650942832,-282.29916674627947,590.05264294784592
-721.91956131247912,-67.403500419029186,56.094798222125718
-407.76434221290555,-403.21847440672735,714.14343957786843
-597.57417450537957,-73.010617428836895,371.47778846878606
-636.38970404907877,-220.46165639920488,314.23270936341936
-772.79342474963448,143.66244379768608,134.55770211944989
-247.74981560647541,-233.65765182040178,291.39001301181065
-448.67493599603279,9.0938321756378482,425.49498688079774
-251.84108197367314,-149.10446949572577,392.76297420116549
-290.65225993344603,-53.485453849017311,328.15881267629021
-345.87375856291652,-38.69914319611663,342.36010404355511
-600.50913719428718,284.57132466587927,173.6521501954669
-554.29629920967625,-248.37651939157828,405.70202234294288
-350.03180780657499,-6.3626084399172633,328.211679014114
-367.38868448955617,-318.85105813029293,328.61323228076765
-244.56768797162982,-264.11491953813959,379.57996181470816
-404.12176070874278,-152.75590340800497,231.82908602751905
-355.60371111433238,-149.39305428223861,414.89832419221392
-302.76359971030115,-28.650632240025512,221.82264879556001
-383.67124284025522,-148.19529048095018,582.32566596963136
-624.45466968469225,-238.45902176253639,249.37271884643977
-683.7579996724462,-251.44114647015417,464.98359875098669
-553.4864781059116,97.336752475459065,49.226954356383636
-435.14366268610388,-38.742864451987558,311.31203012293651
-363.68289567832483,-334.13515857326917,554.59123900941427
-512.31930175435991,-104.97443541984482,50.948830331744063
-590.0540733543985,199.10852373547525,449.58594788369237
-360.67636296130252,-155.89561261978582,547.70043245138322
-406.95649347735537,-35.639417807032771,499.7739099918274
-367.21487913724468,-219.51897226338608,466.29071566018797
-769.16058046088585,-310.02749125372867,220.02049841130267
-491.86296370048967,-73.188543284755411,342.30374519389596
-606.88629417784944,28.21012810090048,420.30490703505916
-280.61097798462532,-262.35361637856857,489.97676503998287
-694.1538675844206,-240.87890061699949,414.58346059117156
-368.19276719342156,55.03490763636843,345.98064319596386
-436.40330939175806,34.094008546234427,385.03500318210513
-412.76551423068992,-145.01389644378375,478.22475123145858
-516.81616437221101,12.840961903089156,290.46887951000815
-307.30363101197622,-145.17475577649563,527.94151017580714
-232.29384489498622,-281.84380398218156,234.56677879805474
-667.59580279701538,-150.27333128647521,32.187821080217958
-365.490044495056,-99.273340857822745,462.31080611715919
-634.60314574052029,-153.19574506773367,270.93372124738204
-540.86099371748981,-39.561531062150749,193.43270115889729
-607.32785418326102,108.64641605931568,520.95659380401696
-435.23782858648724,-100.71718199697527,252.6454488526922
-187.57793995739678,-316.94215504161417,123.72853828496633
-492.79267629454927,-16.622014711744704,333.64589058066912
-480.07942319955544,179.52334603076662,539.99255399633273
-621.95069381799851,91.29366087685915,502.24471873870755
-321.3928538957918,-306.39149013543982,494.59041731068726
