-790.81024218032633,251.03812641395496,372.0273123756516
-506.40967360668833,49.549959087191795,-35.457768888079073
-490.95379123599906,252.75017624257441,199.10891494746301
-556.86853257345126,-38.184985536493848,544.14068899558345
-240.47384746207692,-84.553141194652923,295.48524662667876
-146.83153013911428,-152.74115828712729,340.03091190107085
-271.84289244535569,-98.645331393760827,430.4936823018889
-507.31884716792035,330.93917628875414,379.57996181470764
-686.88062553707766,75.461405556713416,279.11628328306506
-673.69760887348946,-96.826984271247085,379.12537503415473
-512.3193017547012,-163.19665424129479,100.46367851622468
-749.15789987172104,70.00745355789293,150.01442794382663
-523.22938448949753,-285.93508500772668,180.92553868533577
-373.04813230737557,-200.79919941378239,342.40033658905128
-441.33175251420175,-90.375823867375644,391.05392958427456
-394.97942218635086,181.01968896752459,546.02902239768719
-320.95478909150717,113.5928504937186,150.34871053530406
-173.55068063382305,-297.05898563819886,133.41361905068413
-281.84380398217496,-37.276116010544214,165.01500136375836
-302.75502297617891,-187.74370566393338,376.85231889236081
-538.20389717280023,-411.8287721614372,612.35524456735141
-572.77889773004131,8.6375757706909528,70.006780984619567
-377.30702791162747,53.641240112738558,433.67578870806375
-322.3021153608675,-286.38975969217313,458.22338701651501
-405.03729061920512,118.64668623531072,250.93142264150123
-231.83924627909738,-133.19391488683405,345.03137832350791
-334.34354748230845,-312.97797277765198,500.27770801966415
-350.94046547720967,-162.28735613014177,389.1271138761773
-113.192108373485,-285.48049822711215,439.13083007545873
-648.24074915901531,17.274297663422807,259.11446495135704
-357.76682670071801,86.819774490694115,330.47594684840317
-225.47494676660193,-189.10797554408495,462.7695024454888
-406.53775895846604,-204.76708410272963,423.05109876729415
-488.68078916264869,15.455950540959613,189.56268751704582
-583.72567666078976,66.786570548113872,544.55813055014482
-656.74807953422021,-68.032234944653936,552.88137999480614
-380.64345274412693,-144.40825720242879,445.88718160404426
-492.26614685608786,-111.44234022418676,373.1601058412694
-462.97984614585448,-213.08764335377057,421.1550713713529
-514.13763602526205,-144.5585830283124,620.05638105031096
-612.78303390966767,268.20613926227463,229.11171661041459
-337.30339121736881,138.6489680880218,171.37921628540442
-424.58405309573294,76.370590296981277,390.03546892230895
-450.04091281025399,-142.74070608276955,517.3197563414833
-534.5940540052477,-93.190290026765624,-14.092190199422284
-610.08648816268021,-13.054089769347648,313.29057290097705
-639.15313422355916,-285.93514282674215,725.51225753262725
-751.72791050200408,43.606432028894908,457.49703360417857
-549.14083098464607,-129.55723247569503,492.31748340756366
-580.91312125818786,39.610263031126841,321.34531260141409
-396.39967269751492,44.094917719793486,510.50095463223687
-429.48331954936572,-81.084349767070563,183.46973242655307
-356.90176889100871,-271.99776517001652,65.358204196361555
-589.59905445949346,-234.11219201745487,335.03045730508092
-265.70372314167417,272.48550982047595,276.01300978469112
-308.20983725792951,4.5458678061648232,277.41158919205446
-382.76206806178641,-7.2733876783702955,266.84244265630912
-394.58132557504956,100.91826529684626,203.65487771615315
-253.20483680334186,-369.57905264114737,567.32430220929007
-405.48470700170623,-299.11810164559216,615.21191063966694
-514.14406740001675,-186.84224665525716,600.50039173372352
-226.28200770109467,22.681551844308256,133.19724967057806
-415.49231756822917,35.457768259059144,275.47088119733263
-735.97599781797965,-147.7407037003367,349.57723429401796
-469.89284933635395,-88.951950782373501,481.52711379603357
-677.8617122955452,532.63701540357295,-49.804541324463742
-343.6526768260332,300.50159465388873,371.87924878088057
-70.006364214931025,-549.59541776525418,378.21620147285023
-568.8399908396301,16.066654064286869,628.69179986452059
-443.67669788162345,-160.92372033821312,595.50868259607444
-500.50004545867858,33.63942176561698,358.21398236455047
-560.05091371942524,-12.728429857270601,440.04000363669246
-799.97771345206252,-113.40155351850299,330.43917007814537
-528.68441854083414,-243.73915675368647,235.47595830116643
-509.82477811075637,-168.29138773558839,335.66889494255219
-547.62401567767631,-64.474799691904238,365.71735022732872
-599.59876584501239,16.366331549229304,325.93992914885871
-608.43162012982759,-250.47428775213737,426.16878369605377
-463.59413847328091,-455.70574287559094,34.517869299717795
-443.67669788162948,-216.83792312912496,624.14764978633468
-562.37259774212714,172.75275354968215,152.83171427678448
-276.61847898988475,-261.39223215567199,405.94113645250007
-629.60268697104755,-342.30384580416256,631.87562840297096
-588.8374920395471,194.4413167784771,-3.7366077742444737
-330.48401729922028,49.096001563215211,255.93317300309849
-580.61786518551048,6.6498826503041082,243.4329401291206
-760.29746105494507,217.57016084251262,416.72849244031431
-535.80922963010755,-34.909510026307316,491.64235051877273
-476.40695265453689,-437.31249121195674,528.22982869220016
-259.56905173197026,178.31835679169279,44.549504500408062
-392.76725029190089,-16.373430472783305,-169.11439097319791
-497.77275235697732,-39.094475943333101,470.95145185621465
-564.13971088994845,46.370383244341951,9.0926425257041679
-305.48231657611592,-117.28338939999139,305.48231657142924
-593.31282840593519,-32.703329438729078,239.96965365420471
-237.15795413258175,-307.85036399507334,409.95974986184058
-556.86880625506933,-14.092872045018098,385.03432133622056
-214.12887135952096,-443.69677920418638,215.3921153419943
-276.70817706028748,-158.65078651328756,288.02377695672357
-335.48551472959588,-82.281945251513335,512.31615527909423
-677.45101176000696,-250.74127056366294,554.16798525389686
-396.48666073663765,180.66176625243421,153.89834792141437
-558.68894641683278,-92.007527112909571,438.03717990794235
-511.86471497410912,-50.458606161426175,270.93398438977528
-584.7884326776325,-91.853103894094517,279.09290103339259
-542.25363200130153,-250.02548919573127,235.97689613879089
-758.02524392295436,-110.12454123028387,204.2204307624574
-512.77389322338922,-60.914628602597993,523.6842884775624
-716.32613679978999,-92.062697529697473,615.64687206542123
-456.85971451949939,-34.548595326847469,505.0459132648383
-358.77539562368048,35.020699229021922,201.80087376799381
-465.49686335478418,-82.060137206009216,399.80185024025781
-378.67071650921696,-44.094841516851126,293.66315674788422
-412.76221563780939,220.02263172043757,30.914541475327184
-268.59499281252374,-175.96961113364392,531.23096932200394
-214.96442533543487,-157.96577028680503,337.670675659675
-362.76025093190066,-174.56132375670458,151.38271672676152
-292.30358688722384,-215.02390222915346,384.12290360697978
-421.85639854408004,-18.183337377072167,390.03556443515765
-416.26792770868957,24.216985279376399,359.12314863756251
-598.23587760847101,10.001750564429086,137.28654612360143
-460.49640876442913,52.277479770888348,394.12673879443275
-395.24236489445161,-214.38443981349837,743.39610058781363
-631.87624842216383,-382.76270161365198,56.822921535989124
-486.86244204589445,-38.185289577423902,333.6666969684191
-296.39058752358841,-174.10674342165046,559.59632216689261
-532.06567519352859,-40.657279597664477,157.59240142348278
-710.20253714583316,312.65145259736136,157.62190598114753
-421.56674148486644,-41.182925854724672,513.92553076681133
-487.5507617132497,72.942476991795019,400.2860239805355
-326.3933084825855,-31.821074643149608,244.11310119101333
-597.78161621991501,150.46822563122137,-5.898539970133573
-434.58495353133384,-29.093549590470072,445.04048006837905
-121.37467042458353,-197.74524956813917,294.5722338394379
-502.03031579238211,-56.544272726408487,353.27695687489239
-407.41861785536463,108.0827899136962,192.18546332051463
-379.52908056342915,184.37327268263311,165.97507649557872
-584.68304946097044,-276.93988071402947,486.69658913912758
-643.23950291704011,-50.912927773847542,251.8418681166892
-357.76001993779039,-172.29960019784897,37.729808421797898
-370.48813790319377,-145.46764980092325,192.29036819585065
-574.14310391853496,-12.273843076641773,327.7570688244374
-495.64295152642535,24.8283751309386,391.57655077283727
-597.33637886446456,-72.743032133484135,404.1187178745879
-190.01715077981677,-156.83243931266429,349.57748132971267
-597.32704285661896,-7.7279752883236359,502.77298207961024
-354.58611205538404,-82.288630466150195,357.29678638992624
-561.86926084189372,-527.77525212315527,340.94008563481702
-341.39467918405262,78.188917342031345,536.40250283027524
-200.47218832473214,-335.02988497719775,249.11398422981813
-475.70673556818366,-427.45392699580606,310.917816593856
-180.98161638355177,-251.44951008097095,354.5235289511761
-394.12673879443747,287.75343213019033,159.10525807276306
-616.87426129647861,130.92099281753082,360.48731702881929
-580.59838966153234,-323.7568586179205,609.05521521163291
-465.03734789444138,-69.546851772921045,493.23159770401816
-558.21735476825086,194.12453106324784,324.13860875181393
-596.41848828823095,-300.02790422425613,410.94592613025827
-378.21620138295299,72.279030035976689,241.38558873880021
-284.99273495877497,-171.51212979106157,333.13199213898747
-464.9555607648586,95.590082488232952,128.93411238571403
-545.50415220104821,-380.94373684484145,346.39511239912042
-454.13219351054454,-33.639419553376484,-75.461406988937455
-531.4652289876866,-160.07998629818948,485.04069866146705
-584.45817686395901,27.055944004439731,302.64209131869688
-450.04108083396255,49.549765649923167,432.31180245828654
-534.59405400449475,15.455950541567553,360.48731702967365
-97.795569742941353,-7.7845020779942846,424.92383538041207
-644.67601880583788,-88.690475867795911,361.21538281376172
-620.05636877416862,-194.10855533645082,143.19483588328376
-400.49095372306124,-6.364214928628563,353.21392853895492
-441.06807332951087,-88.31467554237075,346.21214478681077
-293.20847349759009,-263.20574597690575,390.49004454950244
-311.39194472224466,-10.000909173561846,293.66306027820451
-259.29711192943626,-90.349850627298409,404.49261361376244
-93.190290026362831,-35.457768888079961,153.65033184834601
-600.95302726070395,-289.5215869830763,500.99001367625323
-341.39463873965303,155.46871272411633,131.83019013108228
-562.04074423510008,-155.6246883522268,428.5581602670477
-420.03731177269464,40.911004668890826,380.48465805797264
-528.22983907627679,119.10173652150051,189.56268751704511
-553.23211201017909,-64.876664954144317,359.57814346758778
-525.50218745273946,-69.551646494472777,401.40022291451618
-366.29912648648667,8.3403144319154787,408.09747263773846
-695.06318756246651,-41.821983522680533,569.14264962581046
-502.15293269202698,125.19752206996282,355.39797136315798
-612.32850181145682,-205.01878311005839,262.75097335470355
-417.76531961606349,-143.64949469095725,598.69070290480511
-380.38318786864335,-420.73961494769731,232.1151880889075
-684.28146702855827,17.874468764472642,482.64877107834377
-381.16330243014869,14.462815389070332,66.672930834086557
-398.67260660059537,-27.737610715752584,364.12401127375182
-265.10252944048295,106.22637794067037,284.5165690599315
-313.66487862541743,-433.2212019276277,372.76099409658923
-695.97440267801176,-143.19714248839998,165.46677035195322
-308.65989564038699,-37.726186336670651,469.59176192191518
-692.35354766024659,-59.109020334889863,394.10803274634833
-262.33840741675249,39.520916791985705,164.81527844215555
-297.75436843081269,-335.0304335155642,252.2957324312743
-548.68624420401443,-106.37330666424043,540.50368215292008
-375.48868078829457,-93.190290025424943,361.39652142008322
-119.55632330213443,-255.02318392581026,258.65987817070129
-364.12401127374818,-345.03136648786062,463.67851622874645
-598.69078991105425,224.56586986727189,267.75161414318899
-273.661241962708,-387.76252389728779,475.95235929265544
-614.60140722556741,-48.640878092093701,521.8655085624182
-405.54972863391697,-70.028631975027281,503.43190571425691
-389.5752047582809,-257.74514536580551,343.67179540969278
-506.86426038730468,42.276570597326625,424.96254299632835
-430.49368122822375,-246.38603220715476,35.45776888807589
-530.95703383026216,-69.551308494623768,592.32731347376375
-345.65118961044919,14.922721639828115,271.9125324475865
-383.21664251852968,-3.1820939232048486,1.363773882956546
-758.63894947666802,-83.607710807371177,386.55350218472046
-380.94371128920125,199.10901815007279,88.630687762549499
-598.23695865853438,-196.38223605839926,220.02227475461041
-382.40122365651661,-295.93599418081527,98.003262296800202
-521.86562414764671,74.097647498630906,365.94235797305737
-393.21756523320011,-144.55859623601998,103.19119919992461
-615.96508773524488,212.29202654786761,398.67260660059935
-629.41403027484284,-72.240506681281303,345.17397255618636
-559.14887040161841,-177.4287798876687,50.04454373096106
-540.48748848710932,54.116679010974643,411.88301937174958
-521.41103736703099,137.73979452677645,274.11582870485705
-121.37467042457979,-334.57587053368258,609.10002952089496
-517.18853456341344,66.993241957509127,316.99246183563559
-499.2599173554699,-55.741580482422563,549.34514907898529
-489.53804297202402,-184.49525661251232,399.21845275704675
-538.73611629222682,-58.736807772019652,510.33533146447138
-315.99153890621335,-303.23984840400794,392.2314046492184
-367.30611874389308,-354.1231021001895,385.48958995806026
-478.22529195958629,-208.20074302455242,55.914174015815377
-216.77232935248503,-146.10834483583264,231.40955168978971
-599.77424542197627,-155.78836684411721,535.35138462128009
-425.95811421726273,-225.47504318574127,559.58259256485621
-300.17278423429144,-93.490719838963429,188.03388790298663
-393.21757818205157,-111.3737834052628,461.86014998752296
-631.99776282277378,134.90097042703746,581.66803451847011
-349.41228530020743,-96.658938351729802,430.06232146792905
-551.0502163317891,-156.97573936577913,648.28562000077648
-782.34384944085468,46.367851622874873,400.03636694244312
-541.86744249476999,-377.26654245392405,491.07521693313265
-375.94385374929288,-60.915282798650424,354.5770285199024
-297.60410831920609,-180.86191822410748,5.822021034715994
-787.3443197450282,-76.370594213066539,256.38641016131874
-751.43194835893928,-206.836985180471,569.59723611237109
-469.17610628238452,-184.81786437620093,71.366544456517232
-765.97872533866439,98.190744613146421,390.94463133012067
-481.40792428428557,168.19658521657564,-83.189798147250542
-338.21256477861476,114.10128168147708,210.9697694722386
-446.73259084505315,-175.81464641019073,541.0608182157174
-370.57698100300638,88.973330284939522,394.17032685930582
-594.31927133474449,-4.8333269803231298,486.88415783586896
-599.441727465491,-74.998820428147653,571.84874824794565
-539.13975614994456,155.92342777165467,267.75172756130803
-547.45172601339311,-224.33940940472419,262.75617741357405
-482.31657423401975,301.39103554868609,145.01318301663474
-768.27407573325365,231.15819003629591,508.19170679180905
-505.04899250876758,61.823694834292475,318.21720535748835
-539.06165160820183,-63.903351260036899,551.23128948291765
-381.39980943564547,35.001633409172783,245.02117662059999
-441.95328403618083,-139.43160970715769,455.76130904371973
-320.36748726711903,-133.11644184172835,304.89236793745192
-663.24147956953959,-136.83000249792983,483.22623816623235
-579.59814373789163,-243.65851255073525,600.96372707099147
-656.87789799072289,-21.365578688970071,343.66760614601077
-306.27323540903711,-20.830269797043762,768.67630861261659
-365.03316899350318,91.826527015008281,259.11444645369329
-606.44740410594682,-223.22730078771716,303.63506551438343
-476.51856909624814,-81.37252058002116,490.73359308200776
-454.58678061641751,-300.93644876806906,401.85471350635271
-577.34980220458056,-92.487658013740742,448.78102627492166
-767.78263883068553,-50.07407350892511,597.8565625299824
-634.41232715898161,105.67532190941304,496.83653915531806
-352.30475497772488,-235.4759523593051,497.31793799436161
-244.56777140396551,-61.823884604258588,198.19975291641757
-321.84628530815866,-31.364947371514361,-81.823694897186073
-296.85496347641219,-49.713783131669011,290.33375255761882
-359.5781434675838,-81.371033730337899,448.22256568778755
-297.29975452313545,-37.730702791161384,225.02045640512404
-411.855623239088,398.67260659995765,197.29066278703081
-450.95549408187082,-180.01636512410093,-3.6475096657067105
-408.67443553919821,-58.155792287915979,148.22684650506574
-282.8651851743266,-196.03911007739811,414.50996503081637
-573.23393035730373,-6.3642149286270548,433.22120192744597
-164.56041458314061,-195.01772888445149,83.643967633029163
-554.01719270855563,-225.7897587530762,538.25036342329054
-276.84334939539605,-66.369669969996195,323.66578779888505
-351.85016819710921,211.38285298663601,576.41603782161712
-399.76695264849917,-8.637186636497443,163.35114196522608
-577.23708674815816,-114.79584978476626,510.20752447280705
-297.75434130589434,-86.371488319062991,347.30430038667879
-688.70393404827826,-147.29279882460517,545.04082747247026
-413.6147848959165,65.519681873790304,317.80338845630001
-337.09785766555189,-187.74434041930971,394.21493008942963
-556.95939893533011,128.97316112046491,270.39268911088197
-538.23041265604923,334.57619640876754,451.40476554662149
-465.34522673337136,22.897787338585644,524.18800041215911
-431.54475910167497,145.73961998402223,169.28287081638322
-388.81938216793435,-195.74068125388902,320.45975464859214
-696.53265665780373,1.4555542208386016,602.41502377204949
-268.56004000949929,-49.603393934138609,368.45440285539803
-810.52822983907424,-1.8183471224677259,560.05091371942558
-387.35309681370001,-236.90318999607325,499.48985940859558
-506.4096736066852,-48.640785525950008,74.097645240479864
-466.29676456777156,-390.74633605014208,24.145239591357484
-249.09621962707587,-70.941926688429888,311.60151727564437
-362.30975324255871,8.1728175644908401,167.73612833811251
-565.05319530047871,-177.74551021450421,331.39086507845059
-424.58509997682177,137.284144114974,237.74737037856943
-458.39641461321042,-191.11196575243139,472.37278279310266
-535.9491317252382,-25.436438435569578,229.02944386616932
-495.04500409127735,-432.3120283662148,178.65260478225019
-722.81918910855427,13.604932195741881,314.53334154333288
-531.84092181059611,-49.013948568127645,447.83496135768553
-446.40421856532174,78.643513046641786,249.56814255841206
-535.35903382016375,6.4137563318611406,406.31299205317208
-562.32343550022915,-320.93786193879367,667.33369724837621
-350.48652037850093,-135.92156053122284,643.24020616333928
-455.20526484448931,-58.189060761652392,516.62211724665963
-610.63952988409892,-5.3149449920295231,245.51447538541771
-543.72415710129462,-141.39849483513089,297.71013240746748
-587.7807074039489,182.28929901973876,486.40731469287124
-465.95144975751538,-315.93907563929861,127.73635987974741
-747.79718138738417,-95.920250126005357,404.5791484158002
-527.77527047391379,-269.11538803756497,113.19209016110955
-664.00521863979816,-93.036720461206059,631.19053386639644
-582.82014442169043,-182.79267857310896,588.62427546798722
-601.41831445457012,57.27793056690733,280.48003816817811
-462.31748937681851,-16.369998826608608,527.30904817949101
-258.65987816958108,-69.097190652220917,226.38421674914386
-481.79724189398746,-106.28286589996847,492.81858152471472
-478.22529320846968,173.65156577666261,228.20256386944027
-170.46637311925576,-440.96956555096722,333.80435438353857
-530.7254873389802,-152.99119956202986,81.952284308078049
-544.83308435106505,-115.47201286425877,33.360940269389339
-454.13219392708652,-35.003182198175757,374.12492037257761
-709.6016284572836,-67.727188421061328,-38.17108144327851
-424.15788452227838,-92.280059028299718,212.89779897247436
-214.78061686984691,-231.38475653302433,517.63054310862469
-403.44418669148513,-56.691193013474546,159.48578545259525
-529.59396327413992,39.094042891440537,316.84675590606196
-892.35384832351394,-25.456865322368973,280.02546010978295
-503.22756614237278,45.458678061642118,503.22756614237341
-607.32727725760765,-40.002829728813111,620.95152583637605
-452.76843349394909,208.2007455223191,227.7479770888246
-507.53273436459131,-96.54483766902095,369.57373095712705
-638.62047850404588,-86.539016793448582,332.93356424644156
-373.21590418712941,-46.368025970898749,378.4212368651186
-375.48868078915893,158.65078582485143,211.83743946211047
-715.51982328954068,-108.19188827376146,92.735472646490095
-411.40103645785763,-146.83153013910237,522.32021092826437
-423.26263706547098,40.678927214520108,311.70841541737167
-227.69745836428825,-205.42483990173412,481.03288710748831
-339.69754903517389,-94.296561525067773,149.1317013933278
-420.03818495611307,-247.29520845606865,416.85219224733447
-665.06046004182531,-277.75252295663813,426.85698699880999
-487.7716052736472,11.364680285352303,347.30431498162613
-401.85471406505695,83.643967633279303,382.76206927888069
-360.53210492899569,41.85369966227745,171.03793880387974
-416.68972286051462,-41.468242186915397,401.99339461515842
-600.27350108981454,-30.264934318841686,91.468291112631249
-371.23596514890454,-103.19119919992525,446.27250101411948
-609.60087280661674,-380.94372215655903,461.40558232566167
-657.78707155198367,105.46413310294692,638.69442676600829
-797.79979998181227,-202.29111772561888,644.60405491358165
-374.86113640212506,-129.76607583289766,50.567520229600923
-533.23049617348727,28.638607850976008,-44.09551906063362
-345.03136648785926,-247.29520865533121,-31.366487862535635
-187.28975361396058,-66.823971879507894,602.32776940578515
-300.04069226411082,61.358613523291609,273.19055335019004
-583.54388936862097,-231.96040789050221,526.35907232323927
-580.0527355437298,-110.01000699497148,310.93735359441808
-462.91922030728387,56.823577532565608,225.94673430597851
-415.57461140072246,-143.0444190302195,389.15110464607625
-210.89399946634708,-174.03649785692437,375.34601366457935
-619.601781980174,-82.734794072187469,-85.007727975277618
-445.04045822347365,20.910991908356884,235.93053770988703
-402.307326849589,-52.274026387603939,396.8593920855302
-277.29793617601365,-32.275661423764404,339.57632512046342
-471.44201646558651,-83.681635443307954,451.8198108938879
-470.04273115737419,-20.001818347121358,386.39874772820559
-489.59001203407399,185.01681971014398,297.75427555730892
-325.93519222994979,-249.56045605632383,560.96565605417743
-441.89086193635535,8.644029992993163,589.07580925630862
-300.48196050327806,126.82967110995948,324.12150142176012
-698.66312140916261,-249.53185126643035,425.51871479885097
-546.67794063503948,122.03339438009995,314.05418569864912
-427.47961398044151,-99.965447712202106,448.90851945625599
-383.67185371061038,-243.20458023681473,477.76983755135655
-460.27755640985509,-235.02419783042316,-119.98410563723651
-291.39181770792914,-133.65011140189733,88.642843496271226
-500.57178380546088,-98.077493593237989,134.82438090458487
-315.93969879545438,-3.2279911335438367,405.7543700264946
-372.76116010546207,140.01272842985722,32.730248204379002
-539.13992181107119,-163.19665424129323,640.51277388853362
-379.73273010050394,-268.91391991706246,478.21304176784338
-365.0329555396504,-340.48525097936374,364.57897875790366
-249.56814255841027,-178.6526047822523,306.39149013546694
-415.46571092631552,-176.70152620584204,722.96167803518415
-713.02251413848194,-32.897770198926459,409.77484967859732
-356.39572948361672,-164.10604423371225,213.201680945703
-459.13341978038756,26.365194843353851,470.04197656821526
-242.74984538094293,-158.65000426617604,56.823206596039633
-278.66169651786294,-15.910537321576147,200.01818347122222
-306.8460769160809,-5.9096281480145274,367.7607055186823
-397.30837773722135,100.00960190349689,-130.92036031347138
-448.67715246840038,33.184834985000059,367.3061187380643
-340.03091186100869,-11.364669475340396,267.75161750951702
-432.76938160821049,17.270206417715304,416.39443851632177
-329.25083443870386,-195.05023001951906,608.1396085714623
-364.13741676957136,118.17196082984152,440.91827400228675
-588.67483680917167,196.58247942361857,473.86853619506439
-409.58215841447691,190.47446437415584,455.49606792999424
-608.6916992702902,-82.280207319071266,274.57041543337385
-695.51775943800067,74.097660563787812,605.50960111087682
-490.95299179416509,88.644422219392354,405.94745763478869
-428.22347584334909,-95.466221913878272,309.1146654260022
-548.23165742339984,-215.01954723157309,630.96645149558822
-278.22603548916896,90.898430371359964,415.47339173148248
-305.93722780901697,194.56278452561813,470.04245957760713
-465.7192205551957,38.528689165271636,352.88040368287375
-566.44879769004717,151.21867376531051,414.05640959557485
-315.48322574779201,-258.20529139012569,510.95554141285658
-287.74949334453288,-312.29724263072347,525.64380458042945
-536.63105503281815,-151.98108675324312,390.20183876598333
-641.87668484607048,-320.03072313775112,222.29124039268936
-45.714278742752391,-45.096887416373605,313.92863038982989
-492.31748340758014,-116.82880261855973,33.184834984854483
-499.59087310112517,-87.735250004265396,535.95781293065636
-443.07580384863132,-197.21246859844175,151.98687402391448
-485.04412038539544,171.83377745829608,128.19344662413968
-512.70966468622214,124.61941829552232,221.9009893474371
-523.18595057781738,-88.238866654109685,287.29001909416297
-443.82289338587441,14.801032544647292,440.44771945889318
-532.77583981611292,-122.28402056935086,280.02522670589235
-210.48463431774084,-322.75659408666701,105.00409605163514
-524.1385580507291,-176.3796708791713,358.66896990634842
-480.5110755733732,361.83537369984367,416.84380040937936
-477.9480090093968,-12.987384109938318,188.57145942920874
-548.23165060420172,40.912824663782601,276.38878472217931
-453.62911462521612,-9.9522250739089113,327.35135781315648
-499.59087189744105,-81.825620510954977,471.40649149922626
-519.13810322836366,-43.640330621050147,426.40240062970958
-614.14721962498993,-23.638991604251327,450.94959173942317
-311.84653150286073,-228.65715065005955,507.31884716792428
-703.96348945724344,96.503243978787694,285.76783129812304
-394.12672752231083,-271.84289009482018,26.366080823613601
-372.4718087354874,-41.174731876956116,404.05116785153217
-157.76192452226238,-184.0531871873591,169.01458999221506
-659.15083189381164,3.1821074643123621,299.57268842621244
-535.9578288341022,-150.92286187035864,653.69575101546616
-704.15492317483915,-14.092190199118953,232.29384489498298
-579.59789725868802,-21.819925654772213,340.48563001476174
-241.78491390380432,-189.03630107898283,586.50849511130878
-540.04909537048798,37.730702794987046,253.20483680933427
-388.17989987231186,181.02023812629037,264.66135182386682
-326.56029089873118,-8.0205878969628657,113.11441222388872
-494.9581509104533,-127.6400123915562,405.81610529905674
-481.59227060099528,152.52739072843707,448.01097761045372
-518.34339181149232,-31.936934060997928,430.83380611558584
-543.23120283595858,102.27609797130398,428.67533412219041
-220.28489535195359,-355.36149921226229,409.61240232978849
-424.12946666834966,-149.10446440900128,96.372397345762465
-369.12044999568968,-46.359988387817886,314.13134450593645
-552.32371265026302,-361.85107494546207,163.65020875348571
-605.05500500045036,-24.09309937266946,402.7638876261463
-447.31339212655519,-25.456859714517968,141.6546121138052
-724.156392499959,-52.287564845107873,566.466889455726
-700.51822892990094,-73.188471679246661,405.94599509046151
-511.39474324108193,77.752424279547526,185.02718783097072
-772.79752704791076,3.1821074643168936,499.59087189744366
-585.88933883744653,-56.970403848949736,530.88529033535872
-544.59507251304501,-293.20858561776106,360.48719862451998
-537.69486540367996,124.78732467470435,411.62897476948763
-400.94819720795743,107.27576855150647,270.47591845632081
-318.66531557626814,-208.20074552232103,412.3100692116418
-469.97346880741622,39.618452920471768,364.19395332867083
-565.5059550266734,102.28202567879411,325.93872178217111
-469.59227996205482,-246.85172403379622,471.51369830242407
-378.87763070045071,-132.48442910840811,304.41260857516113
-483.22574779524854,-50.004545867807742,464.58768978997819
-492.77211279290628,-159.88429371959381,495.49952228665461
-534.59433294824441,-197.74560458693358,294.11733007775763
-606.87321661954718,248.20454897580174,287.29908011089987
-569.96147676313001,-72.414851328062468,520.66984423420229
-477.09653573448372,239.42527517960465,65.300853375292803
-190.56210828615451,-210.74189052507532,291.70133092102634
-229.11173716728786,-48.641155374537938,274.11582908108397
-597.42320934006307,15.941929075038411,191.64205741162735
-285.96062898468296,-34.853596474535905,294.54387018762219
-530.96172028181184,-183.82413403127146,569.00889128638221
-514.13764887717048,-158.19619965451554,144.10400945539837
-98.190100969470137,-148.19421772807556,349.12371670471856
-529.1390126375087,-73.188471679242937,225.92962996635907
-477.32926207217508,120.54806822343316,141.45248270127973
-435.11707000598784,-147.81185536469525,365.41998823312201
-514.592235657787,63.641363717043838,396.85268832449231
-347.46562641774972,-148.28252528962832,480.4382174077175
-576.34567539604438,122.22589683903027,453.6136994379778
-375.48455296739326,-567.77437484511802,45.045445078749495
-343.00772215552479,-182.05726618340341,287.92300082403892
-548.66763963773849,-183.18146247722521,492.79027076857255
-326.39330848228201,-109.55541407170864,400.03636618800181
-427.18274347195131,-19.73867559141647,186.31522526492469
-598.77419122580568,55.532855792519044,413.70086418420038
-492.23629701519161,6.7052418682404067,145.23612140065012
-518.23655112361587,20.903321987747255,383.20845507922996
-528.22983907627474,38.602823466372726,50.839613352049781
-598.69079007175048,7.7567188784417587e-11,417.29342512905197
-539.5945085916843,-269.11537412492009,677.33431034177909
-488.20626090205155,53.327308084026178,313.58540582601631
-529.66538015328319,-124.59665812026711,839.9068910999066
-590.31800058812064,43.715073663887196,356.04804579041098
-675.51929633396389,-94.102803925568253,126.82682650261243
-564.59514870770636,11.820847866665259,108.19254368805376
-348.66806073279326,-13.183016637877273,-75.062965039274971
-562.32384762250945,-45.004091281023271,228.65715065005008
-436.40330939175954,-119.10173652150233,151.37739794526453
-271.80320316651938,66.401423283675683,243.70614438091496
-494.42857218770951,43.196126768539216,114.84657381044842
-594.14291471500712,109.10082734498879,436.86090749638606
-456.03286124718613,110.74317449694466,313.14454871017347
-398.44936209154048,-309.99316435973282,19.803539177627297
-288.66260595235821,-318.66533356023422,486.40785491483456
-518.68351683003698,-41.367397187288176,365.94235826897432
-237.29429964022353,-52.732066875971057,271.38830789218758
-304.45086277801141,-2.8152667593544485,139.63150979022811
-630.5118647149726,-72.733884898627494,181.83471224656321
-563.22799850092963,344.12741492217452,265.93652942829948
-367.32329570609249,-16.382116332074283,384.56686245793861
-509.77726874339311,-65.283098486163212,640.91440011342718
-480.05965970921767,-368.68685554072641,429.54477665231508
-628.04903138401028,-12.313442953400456,519.61910729014915
-561.98875711041387,-110.54007091514181,88.424689704996723
-512.00117754835151,116.87174670985337,411.09945918604984
-642.39672150339754,-33.703427003453285,446.79625542821839
-517.02883195242282,287.44430754410644,154.83222960160924
-365.00966051440071,-127.26077425405285,527.79877661424575
-491.40806729486934,-354.12280564917438,754.61422650705902
-417.15523431973685,-26.576819184833262,224.0446316033015
-445.95819163652527,-305.03634361848543,441.84945037339679
-299.57268849060898,-244.5291583921009,480.95310145878949
-442.31660539691745,-451.75404017315952,457.07198481629285
-533.22378892107338,175.02302037117747,174.11687226966799
-652.28358526918942,280.72239875209203,348.27998707899013
-493.76749141124668,-129.19310018929383,336.32534750738938
-465.04227665184726,-123.19301762698555,439.13083001671464
-702.37466962744463,-62.803448838957131,412.65432543198142
-286.29856234678431,-253.1489860769496,113.02305003073141
-345.11690056676218,-107.82259615756998,326.39713540530158
-495.5012170729662,15.435554173008223,-20.009674784929306
-484.30983625656586,-282.37245869775478,526.94098333132388
-401.40044664319885,76.824756000803802,347.30376177000522
-623.23809993048064,-10.909698964113467,160.44199802929239
-580.05273206654738,-130.46640603691131,153.19574506773182
-516.42066429918771,-91.831596305335623,120.90496136818311
-719.15631086620783,78.643501081123702,418.67438905116921
-221.38397597031579,-16.82518488638167,165.01290943324514
-406.40058187111498,-131.37557959818176,334.46672966608992
-644.60405061663107,-23.183918344033362,497.31794134082418
-598.90271557640131,225.67577787546037,389.1527068832072
-459.58723520900543,-190.92644786470544,461.86016910047022
-546.69320573180619,56.518481114924242,215.38409811032233
-438.22165651422807,-51.822892990270823,333.21211019183181
-460.95093128295946,75.006904484496076,288.66271975663335
-288.66260569142219,130.01181901850438,271.8426429171347
-514.49745491133535,-48.507306773900993,510.26807424314273
-475.95502106382395,-204.56724557167186,195.01559959102175
-364.12401127374989,70.460950995547563,350.9409946358748
-469.58814437612909,73.196830679977992,307.30066369816842
-481.40742236302725,64.096725221824542,256.38679162855942
-636.00558764157006,-121.4384102812394,482.46514837823827
-666.8788101504424,126.37512196351199,122.73842768156587
-483.57184082586326,145.10666346625646,282.86609808826182
-649.1463431895927,-400.03329877278657,292.75597477929136
-500.95463223928863,116.3742158378022,-53.641240112739666
-400.9455286306561,-20.001800195951972,233.20302483414446
-454.58896492732941,-71.829874219498251,365.48419730277203
-500.50004513397249,106.82789380067008,404.1276484074167
-233.86549371172646,-96.955348477126094,354.7025038101275
-437.5960967107776,-105.71799040602573,559.40874353857748
-770.97917992544421,-221.38376216019662,257.75070460950741
-313.21029184471081,97.73615783253257,306.84607227133654
-508.90850908990757,-36.143916576433732,433.85249839657399
-388.08770074503218,-261.37095318399003,361.54689791722353
-256.84058813376538,8.6381369260958714,269.11683898579815
-602.51805245290552,100.46176290446357,349.04526936023996
-503.68215295201122,-177.28884446941859,466.40603688344981
-478.22529322052281,117.28338940957104,191.38103428512628
-424.5840530957334,-159.10534185287764,337.75800936086659
-223.20326195875995,81.824124049075181,122.73639840414907
-545.95872352031506,-165.92417492499163,26.820619333183103
-308.66442403854882,-316.84698608964328,501.42551917078293
-318.21074643021183,-478.67987998756041,261.38739885563274
-59.091925660237862,-204.51811322249083,519.17466594309496
-334.71910856844897,-12.870235511677176,218.53950247816113
-241.53425879446138,218.88705974046789,379.70265032255418
-485.95326847894933,-194.10855532321162,7.7279752704772351
-596.58397042468937,296.47919865186628,255.4850191899437
-399.12719338121411,-99.099918182977234,121.37467041598136
-640.86034991271163,-78.961144702860324,418.40374356457227
-525.0731793647924,160.64464211697967,344.18583899007342
-536.41240112737114,33.184834984998446,473.22483862169105
-603.02221550852926,-133.45828094133108,531.77253133424836
-784.1621987675835,50.913719429040256,263.6603298185035
-523.68421194495522,-152.74145828879963,219.56502204969306
-455.04682170414321,49.80637886068213,340.50167695315645
-501.42333150781394,-394.27058754326958,749.91064937385045
-336.84880443676445,-147.74070370033544,396.854259478134
-216.83789435447133,70.006364214486666,259.56905173166984
-435.6024340119352,-201.9049342136876,56.145239302295572
-497.58772595392566,42.461559708690899,29.760678075186252
-543.129263054283,44.327223107502185,397.62114400978527
-605.98310045536539,61.768200020737403,20.63946231810618
-516.41057583502152,52.277368761402279,329.57543171879001
-599.4206502007404,257.54952349388577,161.39148522616594
-502.77297936159459,118.19256296047826,229.11173743095344
-360.94206396181454,-192.29037245959597,464.58756864907514
-635.51231930175106,-125.46595145012995,535.957814346757
-510.95554141285294,-75.915992362940571,133.19392672060775
-559.1728103590624,-221.09804822958867,496.38004202481414
-576.41603960344537,-30.002727520682502,385.94417317968043
-330.58244429165092,-195.53346711720624,448.95698977651466
-347.25945206464559,20.10245737412858,389.28263130209183
-470.95154910127081,105.46449266130175,230.02132506689171
-463.01563288973733,-13.640414062705934,233.52672404046282
-491.4083265953476,-112.28295102474803,198.65441212643208
-662.78752613873689,83.189380852805897,469.13356979183123
-475.04306787313203,-78.188793020518148,430.94831927263459
-331.13385963149574,107.94803140669144,208.29209187815573
-429.21564790832673,243.02312584661161,221.76157379466488
-322.30194869719185,-23.183610772051701,536.86714542768311
-218.73782334587332,39.010307743871209,534.45140802089315
-322.75640234409695,-42.507103197682774,303.20952393352121
-552.32293845036429,84.553141193237408,682.33475770382483
-632.29665799263296,252.95233691055066,473.62784335403097
-321.84744069101055,-61.369215395785076,289.11719244805715
-511.34741623843922,-98.510926326776854,331.25623767905353
-272.92168931520365,-52.130737193660003,376.65554870980316
-348.95684863489407,-61.823910214871425,376.7294296315805
-430.94826802436364,-111.54185935230721,440.04000363669263
-559.24450977374715,-118.26464748551525,401.7891158916388
-400.03702333057697,31.365847681515717,384.12547306435931
-463.22392944812731,46.367928954636724,501.86380580052554
-122.72969583098721,-39.084333034267217,400.95943147740502
-637.78805677685023,-201.86885417219651,-21.069909305574157
-130.01181925629189,-459.58723520319842,360.48731734729267
-384.125829620871,14.546776979726854,284.57132466587797
-662.133749775213,-111.68001954041264,523.29074846959497
-384.58041605190664,-0.90919934968766503,294.57220805098228
-397.30884625874859,-221.83834884422083,428.22074743725688
-548.67004612422261,-211.08844996034921,286.40839829905246
-467.40125203740638,-131.46162115172737,261.89861122436116
-437.37108011601549,-261.53190502358245,708.14422376605046
-410.42304850441974,-152.53560083827361,509.72722221847624
-470.33451493741353,183.38761614854562,84.027661844920388
-525.50327078083137,-133.19470315576314,402.53082111764553
-450.95008637148783,-138.64896808800657,245.47686153286432
-728.70261390405312,167.74338037599534,456.85999268498858
-516.3880064391617,-74.076344845124396,160.4844432486332
-427.28443590972381,-175.43883630315202,380.53888828492398
-312.7572665231682,-231.38639393788998,434.58300641076352
-539.59450691345728,4.5458699473542836,423.22029584992725
-702.09718042582301,-83.425627089324664,453.32396762691172
-411.84562322766493,75.558201194813506,334.20017406432873
-555.29999563089859,-9.8368689476695188,562.5699079613463
-345.43508320229978,259.09735691230787,-131.64318265207589
-626.42058368942764,-240.4764069460918,89.099009000815741
-359.81900778388791,-50.40596494712625,704.85195147955869
-586.42888308441309,-15.451775226651323,487.29119825774131
-367.10351984941548,57.51678603618862,185.82884737679012
-199.54855075323582,-190.45711704762564,303.67456458120319
-247.2952086553282,-123.64760432787027,369.57905264073378
-607.21507875685359,-318.99838725948689,263.81939360328505
-533.23029366335834,-7.2733884905229109,509.13709213376069
-252.54227325705423,-44.382525688772724,295.93835888605065
-317.30157287025889,-374.57950722793225,351.85016819710665
-318.29098363607255,-179.34020617021571,416.91568632031931
-396.8542594781286,-213.65578688971749,513.22847531593584
-534.59404716435438,139.10356170917296,451.85926677326984
-439.1316542336607,-140.01364304444789,445.49374846245672
-566.86815726475322,-244.94048929019789,194.56470026785126
-376.8524411310085,-30.002728228544537,425.03863916848928
-560.05091371942683,-168.6515432219721,340.03091190107739
-234.11214325528911,55.91422307713902,219.56544914132664
-434.0724723263404,-5.2401955122547061,17.364617431350794
-439.58541685607764,-30.911901081916685,532.75169637343538
-383.43075629828508,-89.805774624730859,481.07972639522552
-410.0372761160167,70.460950995545048,363.66942449311108
-464.62349845409921,-132.49523480292214,311.07622225692995
-249.88018081017796,-96.212634003306988,376.45432808663298
-427.17974816615293,-57.177474049879791,432.29594674698501
-731.43005065269756,127.28432124663087,376.85282173085426
-277.32808427971821,6.7514118303843835,250.8866807447082
-315.03706281071538,-41.830160733030176,334.56732322653301
-573.68851713791491,127.73888535321478,532.77570688244066
-335.93964357581376,-84.09856520927606,389.126282302611
-595.50868260795119,-117.73798342876304,557.7779653192614
-277.29247865406745,-88.623716492092186,106.18699430935983
-469.96224165193803,-211.58415597023509,566.81657963157943
-657.59845658035317,23.183925504438719,475.42041605761881
-352.75771649336093,-103.64516835046624,299.57279000528229
120.46559458138421,-354.57756451239288,416.4016618803613
-386.85335030456872,-37.276116010546076,536.8669879079896
-549.59565927442623,-80.462128145043323,359.577743157854
-438.10205568821692,-77.103472780003898,404.15200494380599
-385.95333160055964,5.9005648570784288,455.94307966480432
-245.65000863032427,-77.535650868653306,304.78860654861728
-536.46649479127291,85.19055599313954,33.964836112925674
-455.11849814198541,-20.463095471858992,419.03359791194083
-551.86833814591432,-18.638043591406849,150.46823006830064
-485.49868169833292,-162.74206746067676,620.05636876079211
-239.77964014780477,-108.42959470114123,65.697648480405746
-410.23135977901279,-219.59298718746834,542.71226648172217
-488.39432886554482,267.1069859422123,195.6360329913376
-636.87607964359893,-112.73742432349667,375.03414264323118
-376.8580390178837,40.912810233230338,379.56875335242489
-248.65890020018074,-251.38641905741585,469.58824848548704
-680.51569434298301,201.38409253245152,552.32508716832524
-382.76206933516556,-43.185744212999616,499.59087187703022
-377.75772596485228,10.459324707671033,359.58096971636223
-695.97740819455032,-269.12015556073658,321.84372178229131
-329.85283378731651,69.257941577156629,216.52883488107162
-476.404760014575,-180.46858681177699,576.87361609122138
-665.39659073710175,146.7983194385518,7.8984663112302949
-117.29961222740671,-57.748268820864787,136.81507691706614
-239.56723338488288,-229.11173743070856,393.67215201380753
-324.57496136055875,-136.83062096618218,393.21756523258313
-580.02713046649728,-104.94439867883648,311.42268660863567
-441.86208916711786,-153.6334057687836,151.76420120932858
-585.78309858690147,-99.876546190044991,501.61714809206472
-256.39380801599123,128.18742549839459,162.73651109298066
-645.90137614492664,191.17345184239787,351.65998221826675
-368.20743253110066,-238.20347304303519,275.0406885033961
-362.75808670878212,-88.615026074709078,307.14779228531899
-499.03777550659754,110.09861463505563,279.21479678238808
-306.16324038321557,-83.317896558782806,367.56697397986727
-351.39558177222887,10.00090875856865,349.56312476871739
-765.88887873030319,39.184309741374491,308.2996838662948
-628.23849472161055,202.74613486126981,403.21877590103713
-452.91096443971605,123.253022062496,417.72123729031699
-311.87375642780273,-679.17647027973385,517.75221965681999
-780.07939865958213,373.66013097823287,262.75054185104028
-812.78820651987746,-5.8754724591350866,203.92785061780992
-581.04775561464191,320.09555481732332,209.47135487047126
-399.54118184086764,-403.63170090011471,520.58364558752862
-382.30748249840525,46.822438403490644,405.94599509046014
-495.49959088306906,375.48868078753401,296.66252404105046
-422.76570597326719,-84.098554414035618,475.9523593053886
-321.84744067642259,-2.2729339030793962,200.47276973298281
-446.80657158927573,-193.64968235257373,343.76812297407042
-495.39789498063675,61.016324501480796,521.96330898062809
-564.57030805782301,-211.36751030020491,666.48080497526803
-445.94963178470397,-112.73752159287109,315.93781252840893
-609.11944810396744,14.148345872847573,175.09876404342592
-479.5892246127687,-80.919696583762089,534.5938143597516
-685.76459781768619,95.91490942170293,446.36430880588563
-323.77018845892547,-15.506794352817886,349.67609979779655
-135.46686062370583,-173.65215019548228,238.20346657216146
-401.40009554580536,309.11904255765688,365.48780335409117
-469.82778540932566,-101.32347677493837,448.68585944502183
-520.50186381255719,-204.56405128076639,200.47277024169739
-653.62825863642058,-210.70297773769298,265.35828921098624
-514.21290812893301,-96.851091762560515,390.0894030791344
-464.13302404668923,34.548674289518964,465.49694231388088
-393.67215696133132,40.003632619826547,260.932810327661
-463.14389123597783,92.28111646513392,525.62237571080504
-534.59405400490527,157.74161287390066,526.41149195381513
-631.79781815269723,144.76199643273537,382.46309630644873
-395.27569750483315,-75.107580043588712,421.41254470053002
-605.87793857126042,-432.41588137626655,298.48714833842126
-360.33621589289191,158.80417917652608,175.14869508536984
-305.93690360080546,103.19119919992885,212.29202624041827
-400.49036410193315,-15.455307362813697,-1.3632242777365802
-366.76512086580601,-223.56912260006783,-111.64337062248853
-215.36113110817161,-260.20761375263629,284.40951137685221
-470.03642028654122,-24.530984160307568,319.10933133956411
-281.44072213516188,-199.61479783455465,451.81977805444279
-522.3205820900987,-149.1051754355712,468.22402741377891
-468.22438403500814,43.18574415849838,627.32975725056929
-796.4360396399627,255.47777070643028,32.73024820437999
-392.68071188598606,-153.38892363077056,308.01130415355044
-778.25253558348595,-69.551744764877384,344.12221938818874
-419.44541942178455,51.961079519128965,502.9110989163662
-349.79984715010852,-74.002584569012669,216.56443301511848
-549.14083098462959,66.824256750613742,462.31475588689443
-550.58879603256753,135.04587890133379,182.88417310091103
-605.12223424067531,-24.268802989630519,366.68570437529172
-535.5032275801816,251.84107645026231,297.29975450066951
-304.63027810446505,-13.183016633473414,355.81612970360931
-503.68215292298999,-56.823347577051663,425.94781343743864
-391.39921811073498,-94.099463587598024,284.11673788525837
-526.86607873522178,-62.290341736637806,462.75738987453309
-415.49226007383635,6.3642775572494026,300.93650095858658
-487.78407338054109,20.898029084132695,450.48506199214296
-578.93099893924409,-47.837105994413584,353.20927918199203
-464.68257652800258,-33.28047479237344,148.12376203200401
-424.33786440172213,-31.22684372178702,392.49337900469487
-470.04853943026433,-296.39681947723415,383.21020242309623
-292.6973400423467,-4.3606915202860845,605.00223385098218
-335.46413390643374,-132.26529757009578,577.79870830690732
-256.99874419893013,68.075447481541573,236.32137289172536
-319.98261768196613,89.825430498980097,577.66634879058461
-477.76911855941921,-130.46465929113504,336.85015627070385
-779.61334170152327,124.55677788889943,535.50920167741037
-637.76903666752344,-144.96421111250308,245.50388909504625
-451.8592549612689,134.55768706246158,186.38058999562648
-500.95455049153094,31.366590543045255,493.22677832378236
-237.29429948244933,-175.47049731907384,302.75479588996825
-717.792535059226,417.31065622462876,377.30702062476803
-406.73688135984014,-92.599527406687471,206.56264331168947
-580.50684647067249,80.462340164575338,88.644566980736315
-464.13310300936354,65.460496408766573,443.22211110100761
-382.23603017346932,-545.15349554328577,484.74165240928977
-669.43274276645457,-253.73135562597761,197.00530989060383
-331.06182086107759,-111.78706050631673,323.80779313264122
-269.11537375246456,-71.370124184323288,294.57223397487439
-321.8586923807988,43.595324132795362,250.909399495217
-408.21840636778393,20.913343724257619,340.94170560215485
-487.79818398847146,18.14965691386482,69.964521424484687
-404.5822349627071,-80.461860383205234,245.93144809938511
-811.81653549675866,299.58495442764229,231.58650338340061
-299.57198360574421,-177.74271805947092,423.67540085141945
-545.50413673969922,94.099463587599516,416.85607782525625
-358.21438312573713,-111.37376125102297,199.56359669060561
-572.77142774977574,81.379832546226524,77.73575514113773
-565.74103909143594,32.239454721670015,426.49047322632856
-473.2248381116022,-187.28975297117179,-89.553594869084975
-578.69395816701547,-437.31604469750641,259.56548998746291
-417.76525202380537,69.097189978890626,442.76752372054511
-483.22574753602231,34.54859564460881,148.19529090742265
-360.48731702882492,-88.189835439590894,111.82834803163533
-367.76071752880614,-97.281509834200364,206.38253204157442
-420.49284065905988,-76.370648128902303,323.66573863692031
-569.14264933175559,-312.30111829103237,455.04136739653109
-542.88645015543023,-166.0043859570759,525.49779179902021
-427.76603240396793,-10.455367798098024,225.02058456120625
-467.93015960346833,-148.79060497849767,274.2124138683028
-432.76474712348818,-63.641402076963402,238.20496746167305
-170.47004405283573,-90.917357416670868,129.10264441767575
-323.49410157471937,-42.684592512335364,232.21069979139017
-622.66758021750638,-161.62625742930854,561.10166382526597
-562.88711051990992,-15.133767305489858,269.7060903559065
-388.21836005587409,-9.0929499267546952,267.29612855037163
-626.55621148727232,-134.64007366772341,696.63109638301421
-333.21211019183579,-137.73979452677813,330.48458950813489
-545.04954995908417,-109.10082734794024,188.19892717519792
-558.57901043110144,-109.55868903372756,332.58222200512694
-493.78842077602326,39.74416480118186,503.56881465331315
-230.47500565725568,-125.01087255424852,185.01731182134881
-864.62405673242586,-90.462769342665197,242.29475406854871
-289.97721066983922,-180.48796763979556,272.33674137443154
-451.85925993271928,46.822438403493287,386.85333776982418
-673.69760388445604,80.916452652963528,39.094467403549061
-320.02909362680202,-76.370579305901757,263.6603326263986
-370.034091077124,-219.1112957600275,430.94808577746579
-475.49777199887251,-198.65442249540973,292.29930085131269
-549.14083098463141,31.821074643148805,454.58678061641712
-648.24058150608835,20.911165770647091,394.58148701860449
-685.51689933559908,-148.64991310241726,118.64092354846727
-767.79707246113196,-238.65805982362016,185.92545406073759
-422.51872714062665,-176.54897869951026,402.59445909412722
-346.4070689059227,-118.30240599423463,491.56324221324934
-419.56719852876165,-288.70567946257484,125.74160920822544
-671.90410238424283,-70.082602981137754,381.35516467955398
-498.2271115555908,-134.55768706245726,36.366942449310443
-93.181207327228705,-142.72662506485187,217.75159206287998
-469.54494676137193,-46.429160924538792,503.21617641029155
-543.23120484651793,304.58481282162063,79.098095807455422
-475.93903525531545,-138.96760791069619,119.69095388955937
-303.38919540894193,-279.72075952868391,238.34064745650485
-471.60988819079813,-226.52780784654658,303.34491016314513
-634.96323744564359,117.10334378746583,434.62851037490816
-818.99171080289273,-40.367851101516031,292.42334819310469
-499.13589622203324,-179.10676383170454,103.64643892271334
-527.77525228768354,-16.89970382802391,83.189380865858027
-699.94657909728221,7.361788160343651,385.31999418384908
-550.05000454586684,59.096281480134252,339.57632512046342
-555.05065078964014,141.83668648048183,324.12296394106914
-555.05045605936721,-81.825612315546849,517.31975839033498
-280.55638892032869,-87.338223579534585,310.44173067941796
-331.99009282366416,-284.62513998944348,221.64280360930528
-299.11810164595784,-239.56723338520956,487.57311857147141
-345.48594782833078,-172.74296847401817,45.389671552836383
-160.92251825618928,-50.003646467612676,200.01968738161673
-466.86062359680648,74.552232121236628,330.48458965980984
-553.13547179464865,-167.29477334023511,198.85529911145258
-548.71352063072368,106.07430658391556,152.04796928054861
-524.10846962265543,-46.355816225868246,310.96142870083611
-530.73014247732181,-63.377501419658934,638.6001601421525
-416.40206597883781,-328.66683978050071,525.56600345236552
-152.28657150672686,-34.094008547143751,99.554504643526585
-311.15871701682852,-197.963228525891,144.64647916733671
-444.00645646492143,-391.78529597713515,455.92252067519951
-400.58458533657603,1.4157841586456406,438.39258387175926
-784.61678334418093,-200.01818347146789,512.77388853512457
-574.36965636181537,74.669395106391391,596.0787875473635
-277.1782673968915,-226.14245572746142,349.29063924107908
-535.50936195498514,-73.219143692594841,341.84925905195149
-164.21200555646848,-105.5958740723638,254.69246990617827
-563.08312452590997,-22.762331934725868,384.82045335334135
-105.73760055728879,-332.2528785013576,408.24731290722536
-737.79434494044517,31.366487862534541,330.03000272751797
-438.03261793667218,-27.971552252418746,263.95644059779431
-404.9035841349683,-195.25806125602026,199.89432869448694
-471.55870796986835,-172.52052340377529,606.69027983188516
-602.81784164555972,-178.69268243245739,563.20711386758876
-334.5758705336799,55.914097787283346,302.75479589053396
-385.03500318411585,-52.732066553512539,695.97236112174846
-654.32989986160305,127.81477957555886,331.78671196342339
-283.51150121652347,-127.56654312016502,311.43730723668358
-450.49549959087005,-220.92917537957885,448.22256568778937
-364.22831088264877,-107.29143522160899,390.77677828520666
-242.78499191295225,337.20700130417617,251.30726509468133
-584.832516077793,-158.43011585959439,478.1324810177374
-561.86859417982384,-313.20940385896688,646.87687210413435
-358.21438312573605,-84.096534047049815,390.49206491649039
-662.7856537535057,79.104420959650923,242.30199762602015
-486.86237797462894,-69.551706609206903,384.58051755182072
-479.58913043841125,-162.74174878260447,492.31743949666503
-410.05545102026548,-83.221870454526069,462.2505761230363
-457.76890685105531,-32.730271406586553,405.39474573368454
-435.94872261114386,-85.462314755885927,513.68306209655202
-455.95054310951468,-5.9096308348288593,458.67806163679415
-521.07089668835965,76.256169873668156,282.1839841168977
-515.50481537297844,-111.82841306104103,555.19742932923714
-399.12719338121229,-163.65124102191061,471.86107827984051
-488.22610082785178,39.549253021990026,325.02968336053391
-162.40086917742664,-345.8613756728991,354.54258030736025
-426.91493550827283,-90.810319008179377,434.86587300707089
-374.20004424691126,-169.21732606795601,-61.006050617964036
-303.56993539756223,6.4851104051507251,222.45723149364741
-427.7661605600494,143.54975388092146,295.48139635632037
-399.12724334025171,-155.46883217858513,484.58944485580378
-585.94177364317045,-14.490652361853023,398.89710507760793
-459.49680515305852,-245.86655571229593,695.71908562654244
-498.227111555595,-40.003636694241848,376.39785435039425
-417.76574011735704,-35.912870191236919,410.94575117708234
-516.41193866630238,-0.0027704494359282674,369.12045728230947
-366.83857919702797,524.61905035218206,190.01727429766129
-610.05545958723076,142.7402491135575,371.85198654422987
-524.59307599288047,-150.46815237928354,547.77710672852447
-550.5046198952009,50.004516458831915,486.4078275311071
-301.39060426859942,73.643603234699711,236.84021207866635
-526.42106494397751,-78.198391710709103,407.75654372319838
-365.03118966780141,48.188184070803622,274.57202375470683
-595.96326938812513,-69.097190653693431,347.30430039094301
-481.04121425837042,87.447097919620546,408.01405786841593
-208.22032188407033,85.861638232064976,435.86958765491738
-362.30566415128067,-67.733430311847698,435.03954904991247
-375.03324861555683,276.38969940160587,122.73974455283093
-602.93905927764695,-328.82322783062421,347.60191086211933
-481.42799376652187,27.682821869603949,94.069284360184298
-712.13305582543171,-116.2079914430206,609.45485953111552
-400.40585815621205,-159.38703949074656,112.40569781418662
-483.67911745192322,-290.47962689674557,530.50439127823802
-628.23891495006637,133.64852899417127,480.04364586413135
-502.31868005674545,5.000407500321888,459.13217099252586
-534.21638400951861,-233.34417208310722,570.45385693537776
-314.11929258434878,-16.365037691480271,309.57385683238522
-516.61997430477754,26.022486325898651,411.67042011108583
-389.12628446159948,-271.84289531650711,297.29974399860282
-399.54200856293011,-54.065998194287033,323.23605826743471
-553.23531807107884,-221.81624506120178,19.606916865754155
-538.15721869619142,93.436925330208624,279.14245049401342
-379.12536211659085,45.458684041950342,289.11724868719011
-313.28117326289475,-282.87826893344828,123.14670845694198
-429.56390385788859,-116.85140490813956,165.6951206834789
-548.03437858011796,-151.91115007725494,393.5648349553631
-495.37326447278747,-15.16023602978456,419.85334668412622
-649.15393867861292,-144.10804836180412,383.66812187100624
-548.24557840102307,-144.57459183006171,282.27424204984618
-298.66354772107439,167.74248754030785,-40.912851366866967
-546.41329703611768,-143.64946845794356,659.60567411910995
-509.84870871155937,9.6321179875858896,611.61501684926611
-205.47319834067147,-60.460041856640814,246.84067486561631
-390.94463133011811,-213.65578976522042,502.77297648625364
-498.68169833620755,4.5458678061642441,431.85744158559618
-477.73573016265402,161.41158247497509,433.25767858096077
-500.44936135693848,58.238233180869244,65.712249462236443
-144.55855759888215,-219.56537355001618,598.23624361256077
-335.95916952544735,-141.39612190108045,-11.378451103743418
-514.82910426324145,-321.94055039845597,96.830868226085201
-578.68897172469713,-208.65533230293761,423.22029275388434
-570.63790167748141,-83.315388325036054,246.16470604105396
-516.93000134283022,-81.188776473477702,562.46431698650713
-330.48459040825497,99.554504044224345,371.85198585715449
-314.57374414476607,29.093869245311573,198.20028253073741
-610.9646331484646,-142.28566233293634,352.75934175833987
-270.09559350182622,-312.15888618874061,519.88596285227857
-545.62070281744479,9.2639780898418476,351.44054848949258
-315.48322574779439,-90.917356123284577,239.11192517747278
-560.96008735030955,45.458677989770749,407.30966469057552
-696.08483203351159,-90.143563094586014,572.09987530306864
-595.50985854939222,-30.459064122733615,344.57496785523659
-358.25858020652583,-206.8630798642665,501.08135378917444
-168.65169560353561,-427.31157377318567,270.47913447528566
-421.95990933187818,-233.95083230084128,498.67777090638549
-355.34202126463833,-171.85121022429752,636.22717215101727
