-256.84547443665122,-316.39634302586649,293.65911261976902
-443.16907638357526,14.603469264409423,62.751263560943713
-391.07079469698289,-106.7208518036267,476.26788897425661
-413.67397036093973,73.188471679242582,226.83880352759405
-399.50231155058901,116.89296150499234,253.86295456390025
-391.40599514412293,94.968345211664754,308.79723072376231
-428.87000343423227,176.17175144186089,122.52256125450695
-711.86481238248246,-154.98153727733413,206.85145403041491
-656.01588573726701,-37.682878093033544,637.71276358071088
-94.770561934267235,187.05595879119835,442.48651183604659
-451.0582433297796,137.20585109075628,151.3629298504469
-489.14226647913148,49.985885991325134,551.85957491847068
-537.9677979611896,125.79586272957363,219.08370097144245
-715.5920604582908,440.87670942987995,313.45762470840043
-698.68531774356688,270.50127982416353,153.68378774143272
-530.25522076027721,-49.598208735097842,431.61657211712804
-438.67624249594951,-169.10628153140428,220.02000287597139
-369.57905264114726,-149.55839966183044,449.58632602963667
-335.93962424252004,215.92873291519777,394.12675823601347
-485.49868171639235,24.093099300435554,332.75752337510045
-254.98715849676677,19.91691440380789,94.898299674343903
-333.21202769591423,-208.20065778152536,517.33540164498243
-652.33189326296269,214.1105098383504,91.826641148435499
-278.20494066841269,-373.66445540852965,235.45778045172665
-447.30303682304043,-51.812211535581824,398.23298759258029
-421.98868253190903,-15.579654753583641,538.8219617398546
-352.74863049535242,-261.82043101949341,560.99438048141019
-575.96122890747233,75.916222271144647,355.03255332833186
-439.19350028325135,66.102128914178721,186.37791537921501
-221.38376216019356,-321.84744067642356,297.2997545231371
-475.10491915101153,-157.31772001690427,596.32467658058738
-250.93190054935624,-230.63387887839818,315.32484699282327
-535.50325087518468,-192.74482700185953,320.02904976122926
-422.74783526640641,-187.36514894884431,316.76021659809891
-410.00153940568612,-2.6917839733740232,468.26012074523351
-463.7537234501342,-440.91808885743438,400.65759609419297
-385.94417762447239,57.277933799684369,531.8665311592523
-513.80790292647907,-99.985507869436944,582.69889770933958
-683.00953157746494,-164.73387955527906,641.83356617312711
-348.17408611524871,-75.569875646451209,395.4465944460008
-337.75796469875058,-48.186185517215151,595.96326920607669
-511.56211423432325,-265.61096402665913,520.83261010868114
-425.94781343920374,-182.28929902879227,46.822438402147071
-196.38148922474559,-220.92917537774895,328.2116605026597
-605.02502204007772,80.4618601691854,180.5309178254374
-528.85547629712562,-52.706016061830589,351.47736440140852
-229.59363827351166,-29.230492953861681,196.89828476485738
-504.13663580496802,-112.28281875956448,155.01429784820132
-708.37100204599631,240.26299607278213,606.23599993186076
-593.69033548503921,24.547686153288183,66.369693493577302
-665.96963360305017,-102.73661213648285,592.32657514319317
-664.60587265262177,-173.65214956476311,650.96827069103358
-541.28943976032258,61.369211582541482,386.19101002571239
-480.6820921349285,110.33417912078031,453.49271399985412
-410.9464497725794,-32.275661518255269,316.84698599515178
-393.01323505497135,-94.781009615732899,456.73345062706323
-489.61860966441816,83.132086969127357,418.67442494772013
-593.69033559186028,-244.29251615084391,352.40051208326258
-657.33248477134771,-89.09900900081584,222.29293572142123
-447.06510835998841,-70.259488809468891,448.58405523282045
-567.7788889899042,39.094441751049864,732.79388322634691
-682.3780671913903,142.52028558170514,426.95497503100069
-279.57087007909774,-388.67169742703766,334.12128375306719
-563.06653329645235,-37.096075779978733,456.04307423825645
-464.58766959069789,-110.46456749050965,-4.5458476070997689
-752.79423142960343,42.733170040357969,223.20522375683623
-357.30643496543598,-139.10477420321814,252.74926120910285
-531.41194654059098,8.1825620510950188,174.10673697608743
-403.21847442205666,-146.83153015469321,-98.190744624890925
-420.50891575050554,-9.1401666532792163,377.2585968706743
-670.51550140925906,-106.82789344489385,607.78252568409846
-477.77070642785401,-66.369669969994376,273.6612419310822
-652.30858748680964,-108.05796284082632,271.60353629434553
-485.04409491771798,-19.547231566504824,575.9614510410039
-606.85604568114809,-54.072883991592477,272.24145484111909
-389.12629750897406,-192.29022358854868,340.94006238060598
-460.95097132356301,9.5463535348537309,350.94102001076266
-324.12047064005083,-178.19801800743016,257.75051249532498
-290.93553959450446,-127.7388853532146,351.39558141648962
-608.69169939243216,77.318241672023504,419.12901160639308
-401.89759521879125,-107.56205965240484,878.45238534907219
-563.23300604181486,176.40514339767782,377.30706198095618
-370.94281298299444,11.364669515410519,167.74252204745648
-194.56310776090677,-63.187507651617693,222.27616468919399
-477.6855011017953,205.64630592849412,179.65826614803092
-291.03071611550388,8.1210577587690924,224.43702118759109
-387.76251636530748,-285.4804937085637,551.86834248572848
-504.31571570035811,9.3562123812448483,433.13732688076504
-377.08982452754202,13.302420953752431,451.21298877509804
-482.2041300968317,-107.49172305789293,230.77706378931472
-489.58996272388026,-102.73661241931126,407.3097554323075
-542.2006313723648,-185.74101780573972,519.96485121251862
-128.19235640818852,-158.1940611803694,362.76150612324614
-366.67820377322028,-16.628344053320355,348.86049590666289
-529.13901230649799,153.65033221033397,260.93281452151666
-292.29228900401273,-162.73488412835923,558.69749737611676
-643.24029457223139,-26.366032677497447,481.40740067278688
-373.19468225239876,-323.18241974259388,585.46779414861851
-410.49186496716828,99.099807135140182,337.30338945538125
-401.40013427429972,-118.64715678042343,410.49185745071316
-486.30985143714707,-163.20715113875198,570.32460803877314
-576.41603787019744,95.463223879764982,351.85016814963222
-357.83183394864392,-126.95652026883123,403.66795066051475
-522.74687254185426,-94.507477243646136,471.90762589388879
-670.45650697376959,-34.001684768282857,491.29454089566059
-605.05500522979366,-159.10537345331591,340.0309116818255
-464.63749265225164,-8.6745842513317122,444.38465068593473
-373.21574688607643,-40.912810255477602,455.95054095826441
-530.02909066769644,49.114467837618974,209.97905483470521
-236.84285954098155,9.9977623337341193,246.83879619304324
-732.70840583642234,212.08351916938844,617.19938895769781
-337.77616483298027,-39.135824737287706,361.25361640398813
-552.81362490094511,-16.805938790141813,335.54737858029853
-411.81612639914374,-13.877837596960701,360.30495476941638
-380.03454859532411,-99.099918174379468,337.30339140545311
-431.40770089629228,-142.29234480159496,465.03673819677874
-384.12582958347343,-87.735248620318231,332.75752346756173
-787.88245019397687,17.505326156776235,436.1507030590771
-389.16888987401524,-172.33421104197706,407.292070061365
-426.73619886171286,-6.7264343102853976,597.79582687966354
-658.21101486679356,63.238274294056197,140.57572342605837
-687.45082468336625,-174.38945588623648,304.3531921572345
-577.79142975100888,-330.51278987395528,310.45085168914665
-340.43585927217975,-257.70106519999371,461.45913556280078
-605.97307909916913,-32.280782417429876,543.71664519553542
-173.65215019546841,-375.94326756977836,69.096366507279768
-485.32765713378234,-48.391480734834659,591.67954965586682
-349.12264751340712,-82.734794078309093,306.39149012934223
-476.40482531699462,-77.731180776079057,355.03691714263414
-386.85335030457071,120.01091008273562,214.56496045094741
-581.86919184758983,-67.729951683035452,793.71388492616325
-403.21849036198836,-287.29886165164953,433.6757781868838
-402.57596368923799,110.63011476958901,290.18781039662321
-463.67867736104324,-87.280821296474628,682.33463257058781
-312.75570506409235,-202.29111726127368,-235.02136546566254
-484.13368344449788,-50.457482099106258,407.7643417409659
-92.280507592412064,-84.097762879504018,-21.364908928983169
-523.23062991503252,-80.463581879397765,429.58175468275817
-597.82956877972572,-48.042686941396717,617.28099491254795
-358.10848805067872,-84.117296725253496,278.57603069663372
-543.23120084122172,-78.64350909084996,497.31794401556743
-386.23619839071898,-345.9874478575162,155.61706361419959
-514.59223430331508,-99.099915916927344,268.66078842787783
-335.48468248195081,-96.826626292632028,304.11885061077487
-538.27922334880793,24.818582627580231,207.4691362132501
-520.95645368130909,-130.01182228834591,288.20801642860681
-256.45971676782113,-100.22740923610552,415.94690426402423
-501.82612295905562,62.333653795098485,516.90280257505083
-407.30975543231148,46.367851622873822,349.12264751340598
-606.87327299190247,-63.187481696416704,283.2076759621749
-439.01410077357122,-67.278692954284395,311.62515835755306
-601.41831075552057,-124.10219110828162,476.40694608600529
-351.6615924603571,-176.43833776338411,407.42242723579329
-572.32475470949691,-341.84925702193885,301.3910362603358
-442.76752283589775,-135.92144805179825,520.95645058641537
-495.70810376796237,-83.873228279326327,448.44747766342289
-477.21686069937977,18.948982548703025,391.82804168256462
-386.16601158814592,-20.584739932137154,379.33843879861661
-454.78816561695044,243.69783817529679,542.79952538859391
-585.07577394763825,37.976904115300492,195.05500881865882
-523.25395229032108,-80.929027100991135,471.38951648941941
-522.77416191528698,-180.92484794661621,440.04089845729277
-341.94183545330003,-139.10357832970018,560.38206433747121
-84.112599794416241,-171.83661214907718,311.37509026578743
-276.3454066965445,-168.56497939744406,290.93553628530492
-102.736637530024,-292.299333197039,389.58082407088375
-503.68215292299169,-75.915728478980569,421.40220951537771
-436.13343649568446,-95.558953183475111,342.31642837455485
-646.82210543379279,-48.099746585505194,333.32257187271466
-103.17828418848629,-265.83988771679503,335.82474188545967
-555.50504591326251,163.55471783579162,233.96740723827421
-443.90810101150333,-212.66080704760506,386.95474606062322
-348.03018856937655,85.592922524343393,253.31647595704973
-676.87971633784593,-388.21711064642022,80.007273387371697
-494.75844065478731,1.1186000638563225,536.3428386914361
-702.23745798995458,-263.10662791449477,243.30304569219265
-449.58633307798272,-184.56223896310433,431.40285064443998
-383.714893273852,64.936293118238211,217.60193595868228
-315.69554580074123,-365.01003452344821,582.19014595567603
-237.74557132615055,-151.80378537924864,334.52357886002693
-343.21290682309109,-246.38591890670179,444.58598717461797
-480.95281389216899,-120.46549686335025,228.12993579536817
-366.39694517718578,128.19347213347245,162.28748067981979
-338.83853270149177,-112.59726397912648,270.79113865308187
-600.05454265411549,45.004109393292168,447.96812994153163
-446.23957182405371,-273.13887844802321,409.45438620805976
-454.83082210913051,71.123998457252753,166.09615498688927
-425.03864013656556,-267.75161404485357,294.11764685816541
-649.85255267397986,-60.253498214476558,537.1325248436126
-293.54356434584548,107.4027338224371,97.372359464421208
-473.62036521368975,-215.47413401218256,622.9020098217228
-561.88367021393822,-13.343042588638804,360.17382476862548
-340.52922777756072,-24.829394210984844,270.97733059186885
-103.64578598054192,-216.38330757341561,217.74706791526279
-229.70669592975685,-243.74913549917659,422.13826566049983
-465.49686335121021,-417.31066460587283,203.65487970762447
-470.2244189809644,-265.67177865493653,250.98555315029068
-419.58359850895272,-133.64851350122686,183.19847258841546
-598.43807171493256,-333.78650849562263,348.67460838797734
-451.87922661605182,-16.851333952991212,365.43949067808717
-431.25501909949537,-365.34562189878847,327.83098667718025
-497.71251954496449,173.73502453967586,314.60380749143508
-423.16859125741115,54.654036865050358,231.43956938193847
-431.40841711713688,-132.2905141255408,498.67957936014022
-880.53459405399951,-32.27563761145899,366.40168382525178
-242.29475406854937,-285.02591145054521,363.21483771251667
-460.53402916581666,8.0412244146218335,402.86045774491032
-387.30807057779839,-175.47063748509368,394.58119687425386
-546.97835423348818,-231.9546884603885,447.68237743963101
-599.89646614598564,87.281395814597985,480.49326196593705
-364.14988866349535,-133.66655363451125,456.84157223270194
-796.89062642058309,-140.92190199109058,194.56314210382578
-290.02635053035021,-48.186189523774281,310.48279347987659
-594.68097480554718,448.22243759846856,130.06907962148924
-132.28475315937393,-241.3855805073195,240.02182016546448
-534.71910622581231,-55.998068188344092,380.55438322354877
-399.12719334792837,20.910991950615017,370.48822625821788
-387.12291644459219,-169.361616173458,316.6968911096634
-512.99671674782792,-44.640509236792383,276.71499866821802
-562.37153130729314,24.532766635945105,717.21254965420474
-387.62903754417829,-61.505018488835361,507.15292218391011
-484.57621291472225,-99.09991817428957,479.1411143809861
-666.42422038366647,-109.10082730940674,120.01091008273332
-497.8015013163963,-128.01971423105553,565.27045286226917
-335.45473727444102,102.61000946922327,340.98659753203714
-491.46082386870376,-52.981532281316213,501.29563267776064
-324.57515203476618,13.182833714447767,343.66747923936873
-589.95545094761144,-339.93507063907123,293.75382100188256
-152.20150417607823,-176.0835583453219,193.75117168913098
-506.87297647133147,-249.5775895073522,185.00460678538155
-472.68660697632561,-29.009237248399437,192.94260114058685
-340.03080695384693,10.455675852068815,320.48381526355348
-374.60769646185145,-259.02033962598671,405.80704850455476
-370.8985086244395,-235.08620924645879,465.83199681593533
-566.55563622635884,145.46776979725558,226.30218207349608
-397.30884625874961,230.47549777251234,474.58859896353425
-539.45542097382213,-18.835707758111099,44.345962309304802
-493.2266569688141,193.65396854259598,339.12173833984599
-669.60589105988981,170.92507504842121,443.67693387305007
-839.62204673519545,-178.65260478225255,110.00947503582557
-430.49367918264608,3.1821095557242116,321.3928548051158
-531.00006566939828,-195.07048324313777,1.2922038599713308
-485.49868147328374,-124.16417630301292,392.76297890268239
-581.87107920024994,-342.30384581451028,508.68260749996716
-485.044059294573,80.916445009628561,620.05642377633376
-565.05070598067834,-55.913511690287606,477.77136875338465
-342.30384580419297,11.819256296027124,363.66942449306896
-532.61397966290599,-174.31206240419297,479.44748896731085
-593.6903354850424,-95.917810710062611,600.96372397490518
-51.00777763923773,-261.17386776006856,210.93121626711513
-465.62049244348526,-355.12440449315267,321.87051160802031
-310.08982915061506,-29.153550408809888,318.16449832673874
-651.42285662332608,-198.65442312937373,19.905925839413552
-507.31884716792297,-260.47822530254905,538.68533503045592
-494.56485189421676,1.4276738829602631,429.62285580717747
-277.74752805279036,-171.37461059757919,209.56757992785586
-444.21821760331534,-135.11204062338675,251.97132149142595
-677.33430311859445,30.457314301219373,610.51004636770608
-415.51914102353572,-276.40146850221367,883.24992221468142
-691.46714268967321,-368.71021882352539,449.55355471406978
-445.17236134152751,-129.25434656250437,103.54576559018652
-164.10582780252307,180.47095190472044,520.9564505864156
-703.70047488946625,126.82957406614742,263.66022888608313
-623.47620080890704,-212.10992412921254,293.33724041033446
-546.4570441509909,-97.179585237229318,396.85648373755612
-328.66624238566908,-213.65578688971641,449.13173971772352
-566.41099433410704,-186.37625547699702,390.04015595776178
-384.08177043237959,3.2526216318244443,357.56084669115842
-511.41011279906229,51.368317161894581,354.12311672870533
-564.59678153854838,-26.820620069169667,390.94463132108672
-397.30884626480366,-187.28975362772357,-77.279752717616873
-591.87814035149211,-70.007902212154761,499.58625780686839
-72.850679188373704,-436.08324835317325,62.097623182605787
-475.51392303461148,-26.88684837613788,695.94954191045963
-670.97087889327031,344.57543086020354,518.22813919928012
-707.79161741976407,-336.39421765614941,262.75115919628854
-551.86836635605175,200.47275267910814,274.57040302404761
-307.7526409774029,-3.6340847442981987,332.76020160908774
-428.22074794026605,99.828967776633945,305.93690289492514
-392.76342240211989,-468.22482713277753,396.85399807532582
-494.13573546844765,-1.8182731856660836,261.84211134406729
-563.9260325622638,-6.9201922106350926,436.27773640275063
-443.01727772071359,-159.55618132042926,293.60437127517366
-411.4898529712068,99.284704207765571,241.38871776040523
-764.70950510294404,-33.733961939552813,138.09984126907534
-265.02353883594066,102.73721263385481,168.19787949540179
-378.49241503063428,-284.7502342050899,270.69003102673747
-413.67397286507895,-155.01409777838336,517.77433819289865
-338.24862300630025,4.0603739732448885,282.7478263680274
-395.37952596900527,-94.366416968284554,519.00779706385299
-390.94466545501194,20.909924562271826,43.183642466285313
-434.58496009104937,-120.46549381162865,190.92644831979769
-249.50638530592539,-110.70921325652313,322.25832551237784
-593.04839279168164,-59.467791247526868,513.98283155693593
-344.57677970768185,-125.47128005617085,171.83380307213918
-548.22229096484227,495.5089030391249,327.31026887458512
-560.2940511630527,17.343030257335091,-70.616245333861187
-624.1467226729128,-92.275955349634657,490.50007319002668
-343.21301936539169,-20.910991908354848,310.9373579416303
-218.93403497231009,-146.47769524373018,65.169716106523467
-316.63131760069894,-196.95418946915504,452.58491582786877
-574.14310392635468,-103.64578598836223,523.6839712622957
-338.16105534070147,-312.67356464557224,238.60616439274114
-560.05120126111342,-54.550723333855856,520.04680147534384
-548.35115898046706,285.2344221029154,279.76166708074919
-241.04354800689833,40.346818332885476,230.36486791611028
-533.68488044367496,-65.915083189380042,252.29566324211328
-534.78120974729279,201.17374704454096,200.66932299295553
-577.16042496131479,-299.5740867924477,398.43842146915409
-400.91023729669826,-124.53605523181875,412.89106973212733
-335.03046030800414,-210.47368529981992,355.94143984615187
-337.69545804760986,-90.441945039053493,346.10198934175105
-286.94117512836658,-487.91949642148762,362.63385322989041
-636.57995891339522,67.554504640766666,500.16760823750315
-753.70486759166556,-115.01042278824899,174.10676008699895
-598.998189259583,222.53430018708542,408.25010511767897
-460.04182528154962,250.9318350155925,557.77796888097612
-599.77596581298144,-62.936277923638713,117.77354914422654
-299.58340024515553,-113.2032956741522,138.63690815774572
-526.86609543388499,145.46775309779636,340.94006876285516
-455.88184593766096,-56.264814383673489,228.8288882015716
-445.6042918705229,-149.70222685436329,381.27460604395287
-448.61412168752372,13.821511739422128,319.97124679478577
-253.20260539198748,-14.544297633772649,174.10988183068739
-574.14310391853496,-70.460950995543897,175.92508409855245
-563.23302118374295,160.46913297019441,359.57814229278102
-38.185314894776333,-282.29842080925579,344.57675500078608
-541.41236286926596,-14.54611259653206,352.76026313013023
-304.57314301300073,-30.457314301298624,289.57177925265654
-334.29720452715105,54.985347812965507,189.36098513153618
-503.12586607817724,-216.73619428983491,486.05496854314669
-347.91141710962518,-268.74576224653589,335.43136139264078
-553.22459746775917,-261.38743062442734,362.32069641318253
-282.6306183888683,-215.55756531426761,415.77109310156499
-277.75252295663103,-94.553909157224226,299.11810164560268
-447.29614914453862,-129.09919827777634,400.0570604441848
-462.48825342880622,-167.91601958936994,463.37053387820845
-544.78951707187571,-78.545765327939847,290.15638247687679
-473.24362611975869,88.411474365505555,451.56238225435447
-456.85971109968489,-44.549500961644213,-7.7279701556305982
-855.53230999792549,381.39832064032521,178.65261318112368
-457.24234812671068,-75.26029089311136,474.25960891837832
-630.96645149558799,-73.643058459859745,718.24711337394172
-646.42784386246308,-135.03997095163709,48.135386718919406
-454.13566648555576,-154.56657011320988,527.76513943459838
-384.1255428715578,-184.10735785088391,388.21742520163133
-465.45469406606338,-37.431624638935318,409.99947237957082
-302.53382319024314,-85.198650046968666,356.23278062590651
-236.38475761490614,-230.47493357940567,311.84666301104852
-343.02942140825866,18.351973003262767,265.41319089143286
-185.47104728665087,-210.47311728252612,492.3183603114764
-492.52951432615174,138.43691262607908,225.71800956507408
-625.51141012819176,72.733883275622176,120.92008364396438
-484.68349537364946,-372.58339288873646,200.90816223225846
-595.17827068889414,-204.28191935578525,586.72291964391616
-547.77616274699437,210.47508982780988,168.65362438399526
-522.77362796710747,-143.64864284695838,726.43123508077554
-256.85864460125271,-272.53003486249236,404.27896719977377
-558.68715337757772,-106.37330666424097,282.29839076279245
-755.41827868614882,85.718485230325356,42.948852432346044
-622.13665383959085,136.51712164909529,233.42964669130248
-444.27626400024161,-144.33691004122238,279.63542965056905
-458.92891694679338,60.497295059607055,359.04144845137517
-483.32173037683168,-303.83836120619134,250.22316678370646
-722.37760037142232,-126.18470742609966,53.861324332635164
-320.69508414631542,-353.11056642844773,575.20855116642997
-501.40921901990703,-298.20892808437236,163.19665424129343
-507.31884713196536,259.11446498824409,470.04273121642086
-342.98419364694041,66.120315799261718,362.85502146391269
-7.2733885010083617,-180.47095191580644,149.55905081384739
-321.84744391598531,56.823347577046832,199.1090077502727
-512.1932422069857,19.218703069303903,642.91176300458085
-483.31089451158948,99.895562779419151,311.27841577572349
-617.56534585032182,-132.54789872027695,324.72963016402781
-271.84289480861656,53.18665333212315,703.24574961359951
-407.79223264585897,103.61573628828847,329.98281778428458
-690.51731889662619,-82.280205167568582,525.95690702748914
-251.38643447914058,-19.092589906967113,264.11495827620013
-762.30301822922377,12.21343902160134,407.50650813277383
-492.54474067659424,-89.38344649711847,317.69261413200718
-425.0417256547446,-170.92747876784861,465.94877377294875
-462.454791450708,-542.91664257150364,210.78719609904817
-246.59450022232338,-9.9060075966575454,179.09046668713563
-426.91450206216587,-97.914707704390111,604.97167176298296
-434.58498803700314,-389.58089675597739,598.69076430411428
-390.03536115397549,-32.730152070140612,501.86388366925888
-687.78979907263829,25.456859714521233,299.57268842621869
-710.51913810346002,-189.56268751704496,344.57677970724382
-549.41249354679337,-61.640877945379444,304.75606723145353
-323.6657527344812,-122.73839226776118,436.40335764688331
-615.05417891759294,335.94126734986662,335.48655016652481
-660.9690761019782,-46.367747715715872,419.12908839411284
-565.04745752710198,-60.000441894996861,322.69315453962133
-601.87317039686002,202.74533417427713,313.66435834004164
-466.34574716909998,-102.6766666980697,430.98204576351947
-321.05193554567376,43.482427688561017,269.35518596178872
-549.27937102121336,-266.93055334135067,196.63972518299121
-269.10563513091392,-129.10264569506165,407.329233420322
-596.87158513160045,219.56639924660649,364.12529599202975
-540.50368118954566,-104.55495800037497,470.49731793799151
-522.32021092826324,176.0165199106375,204.10946449676882
-452.31384671333291,-247.29520870172954,507.25954244198442
-631.87562505682934,-53.641240112744207,622.32930266386711
-517.31691019986033,-33.636399458669757,415.49458765515254
-485.97803487439967,-15.627110983822295,526.39901587063036
-574.59768931957785,233.20301991840387,234.56678070634192
-361.39648980133882,-139.10355366236598,441.85835143187967
-286.43396518925158,-230.7310711678121,528.38501493007141
-155.92326575142957,-124.10219110828142,225.02045640512591
-485.46642314003174,182.26808940612099,293.45046463837525
-572.77934349981069,-89.099008901296671,356.85062291572251
-615.05591417401126,81.825620510956767,136.3760341849227
-257.62809066546538,-144.61760036292566,328.6876427645592
-691.88159987822678,-141.37648877170534,641.46494729649635
-468.22439510302905,-95.00865010088539,531.41192887853049
-256.52473889322658,-290.82826858867963,414.07412468403317
-411.85785603301036,238.25258634841552,392.47331464043805
-390.94463133011936,-406.85516865169387,427.3115737794306
-618.23809333409031,-145.46786790494653,443.70862650020501
-477.31564091469085,30.912475560972506,-90.462386356618339
-365.77602975729098,-230.54621957078689,537.97967864063469
-454.58678061641712,-179.56177834348475,735.97632279843924
-328.78450244454524,-147.40504852752605,332.66195278245965
-400.87026027258867,-77.65905925431835,136.30781879528823
-606.48796066826128,60.491706926016747,463.34391801502198
-509.13717839286227,-274.57039710170994,399.12721457237939
-419.58359850895147,-74.552232021090916,109.55541412855543
-384.13213838052377,-396.23054478657969,307.74266038016015
-500.50004553463344,146.83152999478156,94.55405027326357
-391.78343330617605,0.59532995096260288,297.44049769348157
-755.51540286492809,11.826987948679967,631.88079530307243
-500.66362824720392,-121.58894840138049,329.62524226813753
-311.42626616417652,-88.678743662132163,342.60954918899409
-564.59677327766326,15.910547450762149,191.83563603551488
-510.57860936557233,17.19235065981642,375.86132045298524
-434.13037548867999,15.455950540952509,346.84971361032353
-579.80596202767367,-8.0965027157286755,128.55135966778698
-428.52624868746727,33.072084487437088,310.13727074144532
-595.96447846121384,-59.552500856807164,-40.458971343956122
-590.66423034217371,-84.254741467540796,538.53530785100929
-550.04593140415147,32.734275581656682,494.13875953018845
-380.71274436758199,-85.797728243351244,369.49704578971733
-408.66717858821949,-50.816498686968409,402.90693692625149
-362.44644051695366,-314.61123714392585,193.86008467873904
-549.59541776524918,-98.973399235685179,250.47731611964653
-509.80777309000371,225.65964002994252,591.86993869762978
-552.77752521250568,-94.554050349472149,524.59314485566824
-567.77888898990579,-235.02136557868883,114.55480502784152
-582.78120533331935,-235.47713509667662,195.47078769623747
-77.734339485405883,-269.56996090553667,542.32203048302949
-468.24346781866222,-215.03029556954263,441.84167986760247
-563.68760796434083,79.097604509484768,121.82826656963145
-457.24636504741312,-58.319108371293652,391.67556040006059
-535.54903898347322,-174.2005413036166,254.05947296433803
-347.30430039094176,-75.915992362941367,338.21256477861721
-494.13730035614452,-93.193698771997262,350.47843326685262
-161.65131307502617,-51.34400050568015,443.3305990364608
-557.78573360361816,-44.102671507070923,358.6612161191199
-737.33975815983752,201.38194381306781,78.188926266015997
-581.87107260425046,-108.1916486652234,627.7843491527583
-566.85766731390549,57.289982472416312,260.94264726953082
-633.23938539894334,-315.48322574793218,250.4773161192343
-195.21688853131207,-209.31974799721948,353.36444121586982
-331.84900255910776,182.28838196343852,172.28929216146975
-725.42260533311094,-155.97758506493025,253.11130499406764
-461.86017183936997,-218.20165866163759,573.23392372342255
-486.86244317141649,18.183470099108952,447.313391217022
-493.55573621042333,167.39529961271808,296.08623169388767
-267.65956329708933,-253.56362858315643,485.07350266523201
-217.40549641485705,-362.30565712012361,533.45884453822123
-463.67851622874645,62.732981089538775,254.56859867583245
-549.35049042128901,-212.93723882807086,222.47564386622309
-458.67858104549231,-72.280245801635814,324.11893482731091
-521.67995862244993,25.776847581904221,484.56186251617561
-534.13946722429,-266.3878534412197,280.02545685971319
-513.80054670575373,-127.73866475872344,325.70370222153258
-404.57922626499237,-185.92299608560782,475.04620128561481
-901.44558254308038,12.27384564110398,610.05546272157244
-438.22165643380828,-88.644422116626558,272.29748172974706
-417.76525138648475,-273.66124193108266,623.23847622510675
-548.4963156393078,11.574815860769593,454.65014413574767
-485.04409491771816,-295.02682062005465,487.31702882079952
-346.08916646626113,177.43402952203292,-75.394819472217009
-340.94008546231072,-94.099462857244461,337.75797799799795
-342.2871945336002,-169.95521173725822,555.54588925138512
-525.68306969339778,217.12101705322542,235.33599684686953
-468.224384034911,-122.73843076643429,19.547231566502326
-554.14128564176985,-62.278396775739409,297.29975448404616
-642.07405704695577,-185.30766286511181,277.5731696026063
-310.9373577902881,325.93871806853531,230.02091128333677
-487.31702694730228,-232.29384313169803,453.67760727559579
-306.84607691608045,17.725141241830222,311.84653150286044
-382.32081495443498,165.90209506007707,213.18788160886459
-396.85425951848077,-52.249744762981578,285.93508496738019
-368.21529229984463,-30.45731430166304,125.92053823001658
-345.48595382144032,157.74161232093275,170.0154553975737
-493.01026840512014,76.168719615127159,310.35911718921579
-600.05455041367031,-170.01545595056157,281.38921720156037
-351.39681790158818,-138.19574213177259,0.90752943067575298
-469.58814437676125,-85.916901536501896,283.2075643240272
-602.32338749603423,142.74525923825362,416.86273189711881
-454.50010661949767,160.47916983444901,330.21101095693149
-350.44136392512274,-257.30639374206845,453.26409823516479
-700.51467553342093,30.461100707384581,582.32916111370957
-464.66068907097923,8.9365385612112256,500.84303323432948
-639.57393883288898,-58.813313603838331,577.14629547038226
-606.18313387897217,-2.4499280603891518,510.29616277918603
-399.33136436198561,-35.661939868854034,502.70606089305176
-482.45989324983498,-185.51198158730566,602.33438074015316
-687.78973892866156,-70.006302614017756,203.65494575584322
-522.32395516952886,-80.920285981905025,488.22321646811014
-473.22495941298439,-263.2058667682021,184.10756071190391
-474.78075622261775,33.997925679071422,415.70671390535472
-343.66759262648208,-2.2729192701791314,474.58861979951945
-390.77209743825125,-163.49746161041764,330.39230011855261
-442.59817875042233,-17.526986015551593,453.96975681274466
-291.84471306845808,-161.82342729547435,399.12719250396088
-275.4792654503733,-26.36465588975744,287.75484224101422
-258.38387103141196,-170.58209342173282,241.98333289150821
-328.95314558403396,-306.29857580194601,495.23031642728802
-459.48369899039022,86.797301512952117,352.21802546363114
-476.98748414408561,174.67863851615198,228.37995943065016
-286.84425856895672,49.095372306530969,12.728429857250569
-740.97729921660448,231.4401010356913,374.1245308640224
-507.80193161392384,-36.494059868249124,348.6298351889385
-698.24529502681708,-118.19256296026816,503.22756614237511
-400.49286157736992,-263.20741689640391,410.94566139994657
-532.69279024988066,-362.68186614395205,349.96002337154312
-402.84557482897145,-215.70868297429891,247.06618646289618
-437.7670696117695,20.910992045261814,141.83107574014801
-431.41391175023017,-42.81821797674494,183.01119106731704
-787.53922316139506,152.48249986342572,465.36521245867215
-389.34750646564788,-102.14662875304731,530.62552637695444
-505.95508895886428,-84.098556575457351,312.30111678050417
-499.1618728083472,-244.1452716610554,460.45075288940069
-561.96774885958098,250.54858569743269,241.35831620277577
-720.0654648501262,-20.001822485312065,478.21731962484876
-601.44712866254531,94.200493579026329,276.76489152927803
-221.9639606993849,-82.861249839910116,-13.445224548907307
-291.38938704386737,-61.369217333094944,267.75259910617217
-582.3034255032984,91.7318594659355,449.41187845298754
-417.43989135338705,-98.325246196375275,414.37875486338203
-318.21084117163821,14.092097064725133,317.3015038223536
-476.4071387969899,-22.729770452949481,366.39647389353485
-383.20234577785862,5.9999757912633678,492.66128892239522
-632.17187416442903,-1.6336193412031799,361.95663398275792
-581.41649240839627,207.74615874170581,275.47958905354841
-666.87880716428515,140.92190199108913,321.84744067642288
-382.32405753438746,-148.66645229782196,404.56565972327229
-473.22609657720943,201.51089424980006,212.29071483356208
-402.63408663360201,62.84429638640961,220.15957508584006
-413.6739703610059,13.641542782909042,397.76737453596752
-573.47833399727062,-169.10571665680342,577.74487323065921
-343.58800085249379,104.59822948740739,195.35957042150562
-517.76235945485007,-174.54934008945395,514.14963254441966
-545.0495499590827,-85.462314755885785,477.31611964723777
-608.23718841025618,47.731518465574965,411.40091920963886
-316.33076677827597,-55.339642131866874,286.89774261252217
-263.20574597738954,168.19710882759307,353.6685153192206
-315.03188120198826,120.4596608406854,397.30333445956495
-321.45443046528646,-64.625953453943566,484.45455402563965
-169.9021848641174,-184.05101060638592,384.6009795446306
-409.33434075305018,-207.63774523765815,503.90103434727558
-674.59457247223838,-298.19059853207023,393.6863277718756
-356.39603594946857,-245.02227475225007,405.49140841744884
-48.640785525926042,-292.75388671694162,425.49301928740852
-426.49644706670199,-72.658029772508527,420.91297802033483
-529.59359941812545,-213.65578688971578,130.92099281752533
-284.5713246658762,-45.458678061640775,203.20029093553543
-342.30384580416046,-127.28429857259536,403.67306118737645
-508.22802075150133,-9.0917356345615374,222.70832291984942
-650.5136833897858,130.92099265313527,265.47867938936662
-392.33921350505386,-49.101536673192221,325.4471487216511
-474.60254837995302,-65.577835701198069,508.20942150726717
-342.75843258477698,-40.458223474864702,-21.820165469590737
-433.67734440289746,129.10111197115333,173.65137820490432
-510.05444804129655,-60.922766864847929,470.49208636519938
-574.77644316978171,158.01723931832842,313.48463683960063
-518.34170370379513,0.81374957570199502,516.32661116007182
-510.0463481005811,-114.55584896431778,405.49142446978567
-504.65635133435325,-170.0479683768778,150.37068710934608
-413.6930576489118,-82.299294579543755,385.64470247180583
-801.89105051967897,-139.55808242402077,240.02186780922375
-297.76676621683026,-35.928453929102808,263.18392121944424
-433.5615187083846,-257.37896855983718,141.53146704485039
-523.42216728661651,-183.86488244785096,531.69279080578679
-323.66565500961167,-143.1952738120689,206.83710967041256
-618.24728012763831,55.450159383282625,322.74374267934337
-552.32293844894821,215.47413401218378,385.48958996272086
-691.6081967102117,273.08938255776678,345.97107929154504
-398.67261892797507,-374.12493215739858,215.01953525612697
-528.22991830023284,-164.10591590990288,701.42734259533825
-455.04136739703335,-221.38376216019589,500.04545867806098
-593.70842341479727,-108.64624056732403,403.64894394770062
-619.65506199758079,-192.34478634050521,436.80592126519753
-562.32384762251036,-54.550413673967654,233.65760523683764
-639.09683126695177,-2.6830893363152599,512.62894822907299
-611.18525063237632,-23.390498201656818,440.13317538777846
-535.04864078552362,-263.66033275752187,285.93508500772469
-587.95900795989814,9.7074912698272904,292.09958473819518
-536.46889546742568,-176.8922180940159,416.62373920275621
-427.31117505247539,-64.096334937987478,403.21887073175043
-342.30332411948245,135.92196295542519,159.10575066614666
-559.59606100222106,-379.57948831785734,363.21514905291343
-411.40103645785626,-186.38058005273143,201.38194381307014
-546.87466923125237,-149.11114529054956,424.57605377796136
-491.28305430920295,-13.424455987184286,606.3130060144498
-661.85605801460963,-86.139473561797843,649.30389680993494
-52.025171235939418,-221.26713120301943,329.96403100813666
-529.85568976305717,-353.13874965014026,396.62922946065839
-27.03457494248854,-337.10098802725412,394.22982808486876
-419.11488247637186,-139.99924141662351,234.57769685640184
-262.19858260933341,125.13770099646547,3.3456961345464289
-358.21449058968801,64.551214778901141,145.46765504217095
-301.49454527994914,-121.08564735264271,244.53025108246581
-390.03545776888757,-220.9291753795776,340.03086088133676
-341.91797037396407,-157.81001380453165,266.32897321424872
-569.2768700161995,19.431986740499987,-47.867572787822382
-696.92933873468894,-137.8492805293829,338.58543250230571
-655.96872442949063,155.9232657514317,358.66896990635416
-118.19259030309817,-3.1816118085141265,165.92412996530112
-513.22847542734144,-65.915083295805644,617.32884797248335
-395.36852243748609,-20.305125296130701,229.13176307239519
-603.37416065577349,-16.047356006057484,541.30203257970572
-753.70488228345857,50.004545867792856,161.83289387085742
-560.0509137194241,-88.189835439585352,424.12946631511653
-419.22463860574459,-154.43197753438042,422.75571260483889
-435.25620571197521,86.826075097737245,319.14119344921045
-695.28659987583376,-403.67307452471937,320.17857336081875
-642.60102819063025,-70.942190484627673,361.74977380926384
-501.18816915165286,-181.97412096172351,589.60485490265546
-541.86744249476885,242.74934084916842,182.28458657123457
-752.79581105909631,-113.18809356613099,395.95539576020695
-566.41512865575271,-72.279298125633446,362.30810216278644
-424.58799913225914,-29.097499996019433,374.57556119316695
-609.60087280661867,98.6453313937632,587.3261205564113
-540.94572044765346,-267.7365668912833,442.68150298735026
-506.34353725404253,-216.57987900499856,637.4944034686298
-223.20210928265305,-32.727101001470807,264.11491953814726
-514.59171084319121,-21.819931636659891,519.13820265090851
-636.42149286298297,169.56086916992493,216.38330757341296
-470.9519047186061,-148.19529048095305,463.67851622874588
-703.2458111392433,91.826446292566402,452.34399952565764
-381.39928258619113,-322.53456671918229,344.63921607811295
-369.45489034553941,-36.663846792934962,398.88957593578186
-403.68149285395862,-88.198738528145157,341.38880493001579
-488.76710239475767,170.11294095002179,318.12984981587027
-378.67078552645887,-18.183468527121544,307.30066578986555
-509.39150321064528,-327.60764878442893,281.53618028842459
-433.24547433308271,-254.71653373184273,473.59669251187324
-256.90901730354915,-296.39001157352766,262.1610305102916
-576.87412119885437,-213.20456691026061,478.22387862299274
-480.33246614758576,219.59929743383097,120.60257607852981
-847.8043458496187,47.731611964723626,480.49859032281506
-558.50668310630488,340.21138203509912,77.45490126259908
-243.83641382262471,-146.37694335895767,113.52809553222906
-301.89232117299417,-375.08643432328722,311.8850033039821
-558.68715337757453,-345.03136648786295,624.14764978634059
-458.22347486134709,-26.366033275752276,520.04727702518085
-451.40468647967867,-262.29658870493353,550.50458194674763
-402.76388762614778,-215.01954723156635,8.7850891928931087
-385.48958996272268,-141.83107555232326,403.67306118737696
-402.95047230896097,-161.85051755406883,190.49379505232091
-346.39512682970962,-47.277025184102612,436.40330939175954
-426.85754671007783,-10.45633552104762,309.11873096352633
-797.45796425776973,26.010450698564551,291.48912923597288
-239.56723125562326,-340.48549592622516,385.48959182355895
-420.48970955856737,-95.007238102740786,353.6664340630569
-759.13795990273991,107.73706700583936,479.17107298107339
-482.77208213719229,132.28125778130996,287.30117667685522
-388.67169742703788,-294.57223383943989,317.30157287026168
-844.30107145226816,-87.086289236609488,615.68640485082847
-774.61587417037617,-88.644423127680241,674.15219474666821
-498.2893327472438,-130.10717863189652,701.83486480368356
-254.08142589646815,-201.34199905909159,220.05284906442358
-497.77252477497728,-150.90557013589071,317.30157287025685
-696.06306786510788,-127.37894908533227,323.61057484800676
-490.2553046637355,-165.27917972014006,388.40556118558732
-382.2888623150069,-66.18039265092807,374.84318485228266
-519.3121271217999,89.472807915936002,339.86847707582115
-474.58859896353908,-139.10355486862341,295.48140740060165
-395.95417514941806,-85.472175196015399,230.00813098011633
-279.64208237332207,-220.25481402665869,311.52951479448791
-598.23620329120956,-197.29066278753166,255.47777070639856
-497.31793799435962,-12.273843076642699,161.83289389944488
-579.24754981103683,-120.63030396038104,226.0680096882285
-255.46548319735112,111.84632803951689,121.85509414014476
-395.49049913628198,-217.74706791526563,583.23483953086463
-470.17069003377867,-382.63391269467132,134.6011215560803
-341.50896311982359,146.71726560142122,123.53337306055923
-389.5835514302056,1.3608525573251797,423.26886458994113
-156.37732231964705,162.28800148040648,233.65798485636589
-466.4060369124532,-79.552686607884425,387.76252386579625
-514.59223567022616,20.45640510261779,369.57905262163581
-384.58041640148707,-196.83607600690775,414.57567064820773
-471.4376546995083,-56.262377644335203,337.09759894582004
-136.37534303280006,-277.2969249107079,361.85264883496257
-606.83552671922689,-21.222410544135325,404.23034356614261
-258.67009255288906,-91.014343007430838,368.63213036987872
-446.09166816600975,-54.540177323199657,413.8364812672782
-567.76503124893031,-188.6391931682619,491.41852094530213
-616.01850681307485,-13.708592328864576,396.221040140816
-431.40285480497988,171.83380307300706,280.93463042094527
-334.88899303328412,200.62094117570726,491.96667835677692
-380.03454837757073,-224.56586918900319,332.75752384672381
-360.48731702879985,-280.93463042092452,570.05182289299148
-516.41054133351167,-15.082952571187763,496.40884795458368
-496.86335121374407,-5.4550413673961557,377.30702791162759
-680.73650893896911,-141.52775669798581,496.33359344963725
-511.28532804168367,-107.00417289215856,456.08439094032121
-501.86380580052696,-95.463223929445959,269.11537412491754
-699.15446858810083,103.32675406755347,574.73324556677278
-535.04862639455212,14.092217907102668,427.31161652276825
-318.13139850277878,-104.20864425691772,303.65648810510066
-341.39450777426788,-210.47367942540083,496.86368015106308
-603.20317065498784,-110.42686121678605,496.91338617905774
-201.65916821443423,114.48926203155446,536.76712588647615
-160.35327268450692,-7.6993148809639962,-29.945232553797286
-491.40830984773135,-136.83062096750308,13.183016636473527
-331.39258537499262,-214.11076912779859,304.1193215096875
-248.20423779874633,-286.84403894216445,582.32588999612312
-423.67484839507927,21.365609838836686,507.76325033811918
-322.7566142376557,-134.55768706245917,315.93781252841018
-494.14474798534195,99.537318478014839,268.18941949941063
-337.30339116805197,-168.19710877894681,416.85607787455945
-388.62555081547129,-140.88344648145051,270.98755896087562
-661.87835236990702,29.548140974278958,462.31475622756835
-326.39836233784348,-291.39685057070989,454.57740100876151
-370.39319635118107,-50.251014489753274,183.44789656848454
-439.10347051015515,-186.80795202764835,505.97593220915905
-534.62824998796668,-262.44957261672363,502.88879922029503
-480.95281389216944,135.01227384307705,401.4001272842948
-440.49119938326635,124.65414661710133,375.2254019784387
-656.8778979907238,-80.007273388489153,462.76934266751311
-467.77046383941388,-102.28402539405531,441.85635100379625
-392.76297750675411,23.638676487516058,458.67822543233547
-470.21677645757853,15.730778921063648,419.51471740037971
-511.60156937540643,-157.89045339082961,102.24458688588277
-415.49231748340412,-216.38327866928296,382.30748249840707
-487.52468906096959,45.705604602085522,329.36775570672887
-460.9522155268474,108.18987464662369,646.94939733121691
-284.11673788526264,-230.93008455313836,795.5268660787317
-404.12745901489956,-253.65885624785756,762.34259788884435
-155.37379853981525,11.45859586849676,303.28900394374477
-417.31065028889498,-54.095971019688051,110.91916622167743
-723.24756798432247,-311.39194474572622,366.85153193861441
-350.91373614569335,48.216790584107521,274.15426312539586
-468.22440952548465,-110.46477684566035,428.27496736971074
-437.76706715456089,-201.38194035677267,35.457773456034239
-676.42513742601852,-49.549959087291143,767.34246994303783
-450.95008637148663,-10.910082735277454,26.366033275749778
-569.14267281036848,120.46547212540989,235.47591735355817
-522.77479770888283,-188.65351395581527,581.87107918901199
-290.94667908257912,-149.11317787260845,450.12437397050968
-241.81647109909849,-169.88453104839667,358.7474252661757
-359.58195147100281,-180.47507914195526,288.20270594795602
-481.17149397424828,5.2294907034389677,254.67739816084475
-210.99099001246091,-236.05432347195656,236.3336977708895
-288.66260569142133,-37.276116010545927,350.03182107463971
-595.36363288621135,-40.767760534180532,710.00278216335346
-456.40512773900014,130.01184211872021,115.00465556079271
-425.47998274110086,20.469584771043305,187.75502524007757
-268.20617613744065,12.72846173118689,274.57045979075491
-409.33994777877831,-77.036872692444433,-32.032919867157979
-339.44330453079453,-31.265153046452987,317.39663019102312
-143.64942267478631,-245.93144831348235,28.638967178830445
-715.51960166892627,-129.55723954030597,608.69169229907413
-468.67897751714719,-255.02319046526151,428.22074831301433
-414.50457549162991,-125.14878760521644,341.06925357269995
-365.03318483498111,-96.826994349918778,55.005000454583708
-237.74687732538368,-286.38614344692036,666.42484376477159
-612.90258249042768,-70.496788539384056,419.90494038620528
-610.03630542232872,-387.74336970045795,163.20127536110365
-390.4900464374681,139.10355302708285,269.11537232206439
-453.61225674587854,35.770235509649275,333.09256086744699
-147.59872169306939,-381.01138425011942,265.05135905021501
-622.73127509352491,-14.649137550099175,308.22842025793801
-389.25097779392235,-53.653213395556655,455.2877663700495
-374.12492044731056,-182.74388580779976,473.6831842966476
-358.21430586155924,-50.459051245089341,320.48370792892069
-435.17559692747716,-92.528918889881666,481.48374625904813
-384.58041640148889,-155.46867897081648,521.41076660819635
-328.33213599840929,-395.59543602878568,528.065138819509
-210.91042348876181,164.65503300343315,202.60028489380414
-443.4092342601308,122.03346076310677,235.9973312052287
-274.513520135509,-186.04329064145367,318.172188865735
-174.24801690714102,-125.80524022733181,90.571571864173038
-780.52550231839052,-9.0917356123270014,384.58041640148747
-622.01949119127255,-49.887536448415069,0.38716030305516808
-288.82218360992897,-23.79212579978654,180.37594244134402
-237.77830320539266,-329.60434739376882,482.74949118170628
-226.83881524073456,-409.12813081097096,169.10625443050466
-307.30066369669549,-10.455495954178133,407.30975543231023
-494.50152075584526,-73.098418230833801,381.94275985651268
-177.54256399332058,-257.67259513551875,362.71826923821715
-500.50004545867512,60.005455041367526,386.39876352395345
-559.1417387625977,336.39421919137715,258.20529362382393
-515.44486533160659,-444.52448313335282,395.09406893971902
-423.67487953449921,-319.57450677334253,386.85335030457151
-470.49731793930044,-71.824711338681098,15.455950540017799
-365.94235839621246,102.73661241931251,302.75479589053674
-189.6555647073221,-274.64659845104984,353.73979204311269
-333.74036387723532,147.99028395145254,524.52378382487314
-728.697661293853,-97.731237037718316,285.02962966542447
-540.94198149923182,-116.33361776226104,588.25971635628161
-438.0719574744802,-53.886416109119281,369.36374373327629
-493.68124374943045,-104.55495954177466,408.21895397799409
-349.20806009774725,-134.18711265988395,363.15182842896866
-894.71424374935896,401.29906685190764,200.33149256003858
-382.76206927902166,-33.184834984998361,402.30930084552745
-608.70266266514318,1.8183471224648966,408.19700215402293
-649.30391798985352,11.13101255515096,28.482802917266191
-464.58713545766568,124.10274238825687,290.48125623091096
-445.07834281308271,162.68113786682375,-39.821808138520325
-763.70625766844489,343.21276693821517,380.48891122544393
-586.87153377579352,131.37557959814529,392.76297845258205
-570.50640967360175,77.279752704791889,262.2965724156723
-647.78616237839458,-185.01681971087962,347.30900170535909
-485.95326325045505,-245.93144841664852,246.61780129634928
-532.78149396177002,-90.468527630555641,531.40728232740184
-384.42115985700622,-163.8869424894568,469.07955679380592
-596.3901232830932,-202.46347225192414,540.00225456824614
-534.59409749256474,-236.38517562071507,618.23798113854218
-403.63937886988901,316.42511516955545,202.32123051967275
-224.46005702454386,-62.968605029065976,423.11249158639532
-390.49009906180743,-163.19674282386657,335.03041302304507
-698.70008816850907,157.28680837288252,440.03974237221558
-525.5023183925764,-39.094463133010805,259.56905173197327
-300.93001684071584,-87.274534434813759,315.03547628142024
-365.03318483498271,185.92599327211497,38.639876352391418
-495.07582076839213,14.381796715504008,117.80059333639223
-293.06244528244486,-63.682472092400332,301.62236878712764
-419.12901172833614,-289.11719247204223,285.02591144649227
-642.35272420608612,-188.65351395581874,304.07534984221383
-433.67564035177503,454.13237574886892,432.31224030376245
-417.76525149871151,-177.74343133258606,281.38921711887309
-523.39282155731519,-139.19329121520818,247.17755654329386
-170.47004273116681,-173.65215019548722,424.5840530957251
-508.64395294442573,-216.7280095651131,436.4312235190489
-240.93099372670127,-60.914627730938605,390.94463162067416
-668.00211537030793,44.42937354013776,-112.16474002088796
-802.48466695928971,58.384451749576634,163.12560613397417
-820.5489210645527,112.71195709500779,324.53387555998012
-485.04408996719593,151.80472555430214,357.75977058071481
-438.51433739931815,263.38703318807916,210.37199492905881
-406.4782251091155,-0.35547349925352167,346.44492852794338
-228.98485740426133,-303.03709658162217,241.71495059037031
-473.22483862168849,-189.56268751704806,423.18408989512727
-477.96830816899609,146.19793067497406,394.34075708854846
-625.29742325116024,-18.233172287408692,524.64360132507534
-424.12946631511687,2.2729339030841773,468.67897081552951
-618.17867156730813,151.0612284437247,266.28906909757342
-485.23587665420052,101.17422099324594,281.76846115712902
-299.57268842621698,-286.38967178834326,481.02027041022228
-681.8801709300642,35.015558032072661,344.57677970320907
-509.971026480077,167.48104619958212,181.03121730253795
-621.420129102641,-125.46595145013069,259.56905173197413
-394.38744546906565,163.51693466643769,474.63092640524019
-361.85107641033835,38.241947555066936,288.20802034031578
-410.03727611600999,52.277479770886593,45.91326484225749
-324.57496136022365,-133.64851350132795,461.86016916960602
-396.27830252168604,-139.77586082864639,305.40554340546606
-358.99445062468897,-56.420830553546125,501.58618762571831
-273.71920517878129,-118.71960895984679,351.80668278481187
-381.40715293685554,-16.374717006251796,324.5627956561537
-396.39967269751446,-292.29929993635659,18.183471224653239
-400.49095372306118,-191.83562143030412,432.76661512647559
-423.22031245204761,-128.19352069370146,458.22344912296069
-331.38297662464976,-156.36708585496552,256.84903873000815
-457.30452812938694,16.85610549833974,235.7519399780476
-465.95144799535478,-270.93372124756178,445.0404596476763
-482.31704916938065,253.65891189764821,236.83904270305334
-564.58372161023829,-43.068835397332855,498.61660848324829
-543.23255458797792,-137.74109446616447,552.77647859313254
-560.87344070566769,39.903590442820999,406.65005761623786
-743.09784401785453,161.88899022881051,398.43038686177397
-704.15521205955883,238.65778597353346,314.57383168216859
-376.3978074975721,-320.48363167972246,15.001381233842093
-286.88210773132721,-38.230070175139339,88.611558999862453
-293.49836715728196,22.116576384898902,163.34299071685024
-503.68220774755196,21.820109940508498,369.12442193413824
-437.43011031346276,-348.45283804821366,391.34601821378999
-565.50551308734089,-218.65579591250031,604.14627700322751
-404.33730506844495,-52.880019458766448,612.98261478165796
-255.93203917158704,137.74014389739617,142.74075376084576
-407.96184538784297,75.594260868477306,287.56283052856583
-362.27026810910309,-178.65618370999246,351.73163913394478
-358.66896990635036,-41.36739703609399,311.39194472224642
-716.7676051544147,-27.585809164678317,442.02827193741115
-359.57814346758488,-27.729793617598883,238.20347304300202
-456.85971451976889,-379.12537503437068,484.58950813688455
-380.67226910468725,198.13713533033058,393.54445011479953
-421.85760403810878,22.729304280066717,334.11968934548992
-533.90900768373899,-150.39095041985769,298.55213242003197
-401.41005165789034,-234.11717480902772,354.11707801145599
-285.48049822710936,-520.95645058842751,597.78161650857601
-400.49095372306505,-249.56814255841545,535.50322756613855
-267.77872372889186,-90.489947057594151,416.83574536588833
-442.80261989324362,-65.475114403079189,463.86336692253167
-606.87421724508818,80.460995046935409,200.47190512967097
-424.77625173155144,4.889218775086241,456.09375138230331
-445.47986120629395,-243.54555367404839,491.06081525993898
-480.55966207103677,-54.288796902069549,97.438315988824058
-322.18871235182115,-51.832607951057106,310.78053606717208
-166.37861062684675,-230.01888303017131,336.10251084176571
-529.35879315831573,-101.5640764680858,566.86670081429361
-500.04545867805837,140.25147628130605,263.43685752092648
-537.64048007823294,-84.698147717735566,303.19189999422179
-535.3994322930314,-56.283621536207121,528.7932140327523
-411.53495368275736,9.3373247301951086,470.80734349025954
-224.56586962778874,57.277934354276091,180.92553868275843
-523.26353118932536,0.45466899842895525,363.14642388113015
-490.95372210043223,7.2733894551616487,413.6866520362608
-494.60962189437049,-113.67333522037742,330.897799361002
-149.00390580845598,-74.151097501245346,138.50665708303154
-524.19356777128974,-33.54829702341646,270.56992993767489
-659.95496422172084,108.89191220079175,453.23040685411416
-747.79525411613292,221.38376215808282,75.915992361344607
-488.56089601896338,-0.33469363693299586,117.85786932333549
-600.49257728287398,-65.878966791831004,569.62158908016374
-410.03727674619211,-273.66124254321431,139.55814122936374
-605.94420518989386,-197.72285889725387,136.40131436876638
-440.05511063883245,-41.391568239522094,320.46555193200214
-238.65798512357125,72.279378351420988,129.10267751186183
-390.48951533948775,-179.10793448708182,484.13564132824894
-477.56729036389982,-33.80667484042575,534.25932661269633
-306.51114680593832,-268.17082877611745,442.6180318675294
-465.44892587848329,-59.836687609346058,63.402000584792738
-609.60087280661537,191.8356214201298,238.20347304300236
-209.5645140796031,-220.02000944981273,496.86334537799627
-398.21801981997976,-3.6366942449321886,504.13673970360787
-599.66738132939099,-254.95897409365361,368.9655764605094
-326.77551833793922,-275.49836417550614,430.11616516914711
-556.54269664497644,-182.45631935067831,-71.61208988852357
-365.48777162040687,-129.55723248044086,417.31066460195132
-616.67207618861278,57.014436158365285,427.05361342245925
-435.0302837619335,221.51027736510247,309.66384940701522
-417.31059420276296,-15.001293357411392,434.13044589178764
-505.04591330775497,228.42629599670283,256.84153100535809
-395.94508595018209,-177.28884445704406,422.76570589006002
-383.25507627732935,-45.951298927107302,110.43311786323817
-452.05170461984255,132.62304769574766,332.43749949228726
-658.69622604449034,299.57270727190735,146.37695685146912
-501.40921915709856,105.46413287174887,269.56996071347163
-401.85496368165735,143.19483387080879,341.8490112849646
-514.13764887716627,82.734794072190027,324.57496136012185
-453.67760705518401,-175.47049731793683,591.87198836249615
-420.05676533378016,-16.682902495013415,156.25389613470207
-450.62660882593303,41.820194583988261,379.70755608204757
-453.67760706280501,-97.736157832530239,314.11946539324072
-257.29611663011013,-138.64896688922707,365.94236072786919
-581.87107918901495,-219.56541503772974,385.03500197173724
-563.23302118374238,-114.10128193471992,390.19815130441594
-511.20421358932299,-130.71957415199671,280.23320766037745
-425.4982680705312,-80.471942996238852,3.1821074643154068
-643.24029457222775,111.37376125102661,246.38603509410243
-548.5651753238111,-234.94069303668454,427.09796390778234
-542.42077960802942,185.90106049873788,159.72934044877047
-210.47367942539799,181.83471224656961,440.04000363669331
-449.58632602963883,176.37967087917124,250.47731611964281
-279.1162832984798,-94.554050368216053,439.13083007545737
-419.58359850895152,-108.64624056732428,265.3692953123807
-237.74888626238442,10.000909173563043,667.78798072551933
-499.59086903472917,135.92145104372372,474.13401706506505
-640.96736066914934,166.83334848622547,309.52424838583562
-807.80070915538056,-100.91826394487566,274.11582916235523
-390.94451557476748,80.46197109193011,146.83162002128708
-164.1041230262631,-429.12753986447257,9.0951150337951052
-424.12946631511647,-140.01272842985423,595.05409582689288
-734.15765488179943,-7.727978678559448,516.86516818345558
-391.85380489135156,-115.46504227657212,139.10355486862102
-478.62895151810091,-99.296372080244993,230.14768384985706
-290.48095345617259,12.728429217883303,554.90894325926695
-271.45257996885482,-2.027754370005149,509.62288602667383
-441.40376397854294,-80.916446961792886,-38.185289575819823
-617.52516122477687,-208.39565163742063,695.25752078664493
-431.85367470945431,-197.9640572909683,76.434002171504829
-388.23462425593306,-127.74764184910968,320.02471576931526
-618.23802163990013,-23.638512594048539,388.21711064472078
-614.60132770739961,-105.46413404502123,521.86562399064394
-537.79343140043363,-114.11865169212645,591.40422452461871
-346.44591317378251,-90.967626708217466,352.40956004510673
-422.8502328178256,-131.10944426459909,266.24445207870474
-569.94186081841667,-30.935639411803908,340.06957790419619
-582.78025275137225,-124.10219110940676,120.46549686222285
-676.87971633785776,-229.11173743068599,450.49549959085795
-379.42490955619593,-132.58803827436262,390.45652659813118
-577.58932686831508,112.95983868302518,513.46650043547925
-287.56241277391632,-22.360876863577232,178.03262754472337
-475.88199985136163,-81.276729769747789,578.58103654358706
-606.70222105041591,-99.623717976666356,484.80595203069197
-489.13537594326476,93.190290583695557,376.39785490772056
-459.5872352030139,256.38694426786071,159.10537321603491
-395.91864806491878,-236.3242819408039,-68.381850654670558
-238.66034266423105,-80.46414300971955,380.48714396178997
-247.29520865534269,-378.67078830612189,255.93235748703211
-425.94782067101363,-136.3715989716527,553.68669358922989
-539.44189371219636,-10.302944516476765,194.26116738306359
-227.29981180983347,-152.29299362928714,680.05540210642266
-295.481409248028,101.82743654888169,414.58314253665549
