-473.65433679659191,-218.99250754068052,206.0488032065133
-670.77642649558607,-133.71496408422317,623.4969626886683
-334.57588887406553,5.4550163261032143,91.826490654032696
-248.52169567294405,-123.18430682610487,260.61268231817184
-596.87244294935806,-214.11037367033342,596.87244294935454
-282.7472559119966,-196.37011749428746,541.87581216095668
-335.48504409491437,-185.47145608570557,308.20983725792991
-505.52935912157824,86.715194823108718,433.72011556013075
-569.69472070927941,103.04386157193149,374.72537837147621
-422.76570597326821,-344.1221929266282,661.4250936992604
-347.77941721431876,311.36451282721697,162.70242495839426
-228.19818150292937,-70.7116019026396,200.33531722286764
-235.74945442957144,-207.19912341477945,538.01553677003301
-390.68307881806555,-209.58700649732478,266.81719066360029
-658.69622630499828,285.48049822711062,277.29797379239761
-761.95911459868171,89.867356313973858,457.14000031091086
-463.6785152130513,-238.20347018938003,485.49868380227417
-662.72760316247468,-76.037356407333206,457.80409222692447
-579.59814528630704,-235.47595235965017,457.31430129998932
-562.88913750215704,49.848471952535718,229.53910377985426
-368.18553574800535,-120.69764077842575,458.25305316885022
-355.08500958920445,-267.35129158364737,279.07373935317975
-574.59769069915035,-114.10128193472079,112.73752159286873
-123.40702164660171,143.7830479798819,177.86572530074434
-410.94644966391604,-174.56132380215936,374.12492040712846
-251.39267173841475,-28.191092346402208,462.30641894073125
-390.49004748269454,-40.912814271513497,295.9359880263201
-353.46947283750052,-323.92133202462918,108.39069648057861
-707.27517896174436,-11.218857388798083,533.40325863488431
-720.06550930327069,2.2727612090809819,475.95224292421375
-407.93704448890327,-265.9453224505661,346.56900253322868
-462.31475558582719,-7.2733886361131814,60.225533531120483
-755.31216745261645,150.53021969297302,155.81936174947299
-286.29781112888105,-104.46404589942085,296.46681583908543
-505.06682425328358,-59.10033980753947,300.8667086886565
-892.25790422343346,-126.77473585500401,463.84504478043419
-524.60994159510835,104.53785172683391,76.808680211594023
-496.88401508850848,-288.22820891899994,430.916338000623
-326.39330849094534,-123.19301755540512,352.30475497158852
-517.32062260275484,73.642176090157207,218.20098278145309
-572.7832433919516,85.458414987014109,474.58469914824349
-559.5570492897524,-128.74402046861795,627.55915108354031
-388.67169786206387,152.7411576311242,433.67578827993941
-445.94963178470135,158.64926685830378,270.47913446676938
-476.40694608600938,92.735703245746791,116.82880261841241
-392.33299725573642,-61.386216519205796,342.74609122881424
-368.22903947614088,13.294855952106769,421.09168303252352
-295.08682644156755,-167.80252786897154,265.41867405847017
-323.66578779888732,180.4709519047197,185.47140649149597
-355.48727602323396,39.548636304944147,245.02170050413184
-1030.998353835533,377.31308704082267,227.7549738934824
-268.20620057307008,-59.550868273262708,281.38921719575131
-401.40012728429554,135.01227384306739,292.7554228487237
-643.69228602214798,80.066079976613253,350.05350659736581
-865.5332302936597,-159.55995999636312,414.12855714155472
-274.57041549231445,-126.82971179197969,529.59359941812534
-526.34717802465775,24.634409328381455,155.61776659051861
-627.82994052798836,-252.43245273225713,223.97449335375006
-600.96304547456043,197.29066278752697,462.7706996681959
-582.32566596962988,-414.58314432880633,466.4060367769037
-431.40285480499,-6.3642149286408198,76.680060144685385
-483.23195328556494,-84.701560442459183,125.22567666253126
-429.4714443506607,-21.648577375400237,452.00175216187006
-373.8411693156346,38.598504805102678,253.44721638772347
-547.27869253351219,-128.95573005472443,661.11793900919406
-348.16735608606393,-2.1325730371873068,384.11811478180567
-590.14012250117037,-87.839237832247989,158.69523582046511
-217.7474426330819,-103.1915726812872,303.72164673224273
-382.30746636807839,-4.5458466888769831,306.39152005257216
-591.21938142292265,2.0898483097189184,413.79850981700724
-548.2316574362909,-120.92008365667598,513.68306208713955
-594.4228771963725,-102.07226146850073,532.53458452162761
-700.5182289033379,-179.10719162849398,380.9437222006996
-284.80363907324607,-250.71075521976678,669.37288873445038
-471.75677714411302,-212.17865523955226,471.1363212194596
-521.86307551911591,56.82487675417277,438.6777724719604
-389.58050496056569,-198.19831801149306,474.58981905595658
-652.89209827773925,-160.69181191102786,215.86309797212226
-414.42749320274447,-286.59047007060394,424.6885737120727
-220.92917537957658,-153.19574506773179,321.39291317531899
-503.68215300706248,-107.28248031570104,525.5023183559573
-553.9365853867954,-166.1740615209367,110.66928787456077
-425.49323078712393,126.82970711478991,215.47412833360775
-410.94580300440555,-102.73570581061168,367.30742476174333
-348.77098665082588,245.47686156238299,170.86458664960341
-638.00512023442582,-152.78078224699442,505.46201231396009
-549.59302667325585,-53.184660755461856,425.95060304490465
-441.40376613392721,109.55541200949897,271.84289322235048
-597.0551884123895,-46.09598291686823,265.10899243321575
-335.48504409491483,92.281116465132015,192.29064240469199
-635.96690608512199,-170.47004273386591,307.75525047398145
-487.77861776819873,17.333278490051292,279.80943475287893
-202.59553984092415,-357.30122572394242,145.24262170588008
-123.970758453548,-3.8887265272089504,74.608761722521976
-510.50095463223653,-155.92326575143321,651.42285662332711
-535.503227566139,-10.000909000177495,-64.551322847533129
-518.6807447275861,-12.726131739579539,251.38885886884481
-540.9582829422684,-523.22938448949753,55.004979415052993
-634.14855895990468,17.72888444404224,468.68201772103714
-140.02951394825678,-93.151526323194858,252.44291277806579
-345.44634870147109,-304.98624911960263,360.53783804641654
-268.66080149789036,9.5462445514412586,267.75159854120938
-260.58937398261463,-180.60351457140473,275.87117404537832
-514.56556755865836,-233.17625371612655,172.31535058845006
-355.02179387719463,209.57358971249116,340.94357806831965
-800.46291097376468,-293.89906051198005,473.36452228602212
-471.86107827984159,-11.364646351506105,429.58453084641712
-440.50974592213902,-151.89765986293435,480.83410544273522
-634.51154311642154,-82.40114289338257,605.34824181017382
-482.0969260337863,152.96017832585343,315.53858162464479
-338.51114421818863,18.057660900839316,303.4701717476168
-565.01822167644571,81.734070689182431,382.32634125314462
-525.57509076078929,-159.73880418054677,420.87198863377722
-260.30417981387785,-105.23736362768852,327.27697215530753
-90.811978841348648,-96.456374072939042,419.09227074499017
-554.65686576621806,34.488140921226197,13.58951012970809
-363.94829304227181,-37.667309376898821,307.85149494918147
-469.13355760461599,-10.000909181572496,-53.64124012646478
-695.972361123734,-267.75161378307121,190.4718610782769
-124.53711320356591,-84.523644166660063,156.41210416324893
-339.26772376568721,-94.540309143398403,428.09585529842906
-411.53440727816405,-99.640395287535441,499.01425174676297
-199.11423456847709,-372.7591496366199,399.55244147346542
-538.78322987601337,-145.57372657127152,595.37278152778879
-249.61618543970025,-137.3778529371117,465.31756447452767
-191.89240011632333,-86.347021294331938,174.33580306299493
-365.73601918384179,292.56885260002116,127.17120000408823
-369.57905264844163,147.28574758869314,332.7575234061768
-509.35178278573153,-138.86355658566274,473.52466157608126
-614.99413455329045,-149.49727120207774,335.09223693502418
-395.03591316467646,85.921972081696438,289.57177882345513
-417.3106656938478,-415.94690926917224,644.14338195199173
-244.03748595675583,-46.725130438851281,24.608027585730554
-372.30656070656124,-169.98784756079201,291.85394539499043
-423.95100669335511,-356.16212784681215,610.38024647265297
-406.40059196827724,-145.46777970080402,515.50139904546518
-360.03590826872517,-251.84238505818161,265.89756066531334
-599.59932186985031,-156.83182347042623,406.85589121228998
-446.22644168270432,-6.5897520971342427,366.591812969638
-458.67806186174676,-97.28157126951065,451.40467297278087
-526.86605081299172,139.55815560995981,63.634065876581175
-684.15310482770974,-50.459132648421431,785.98054368578573
-341.70564927945486,-210.2595146625489,626.80342307701176
-423.55157849768517,64.682182713789615,396.94287477099829
-301.89607085303879,-0.95455029009919701,380.44375864707467
-209.86340101291273,226.41757335056673,200.74269054925543
-615.05591348931273,286.84425959953933,363.66942608841515
-423.71976124512952,-151.43632370800967,25.365285503286508
-419.12901161274522,17.958898743273689,387.19837175541346
-193.75055861763974,-124.55251447864897,-151.17228024648264
-375.17197680746864,151.71571832311665,326.36165767265379
-417.11564897808637,-109.81498528138776,402.43683923494643
-351.84905598549574,-230.47426880942123,322.75815658634832
-594.14492226565812,120.4654968633523,141.37648877170525
-497.09693526701648,-105.4641337863339,380.47655454842902
-579.59814528615095,-0.90917356149769668,209.10991908342336
-604.14583143921766,6.5205072138665789,400.54305115147298
-365.09271463913791,60.835059676444544,543.93543483815358
-600.62598758498802,-161.26989237206266,314.11932655832254
-498.21094266239948,-135.90631056824569,229.12666785541492
-540.9586217646364,-97.335449844702993,504.8624678203177
-233.22824990794308,220.99976931919247,221.02498410986749
-495.04489165258383,-313.21013264933424,280.93485529833487
-306.39149013546273,-396.09563539032291,440.49461004049436
-438.61056676308647,169.26967042335127,229.58394374424151
-527.82534739949449,-72.912142903824204,558.03813804297022
-237.93224158193547,405.3080529902137,241.20222518772093
-707.87123654367588,209.0244943193654,385.45745224450644
-429.5876510676631,10.907401916780106,238.20111509063054
-307.7533449956037,-136.82622777160094,299.57623473939913
-492.72802961483956,65.052610370364761,416.46681296888494
-517.91554139652317,110.46292023198463,302.24538388309287
-217.46206953658941,-163.19665040099991,373.33112614045803
-733.70306573785956,-133.1939290698829,360.03272687012793
-870.53368488044089,235.93052524150102,150.92281116464497
-512.31930503551996,-17.728888334748618,291.3901211220645
-331.12977332189115,-342.84256522510498,82.700559394953757
-370.48822194260435,-65.460491540449766,350.94099828711018
-766.863602946127,-1.0970005946148855,180.37532284043198
-448.22256568778681,191.3810346395139,186.91119959251606
-601.61000872145121,169.93813565913186,356.11796831030375
-272.7520683698495,-7.2676484092955365,427.3121384058187
-610.83976656688765,12.054364309628733,458.60380489899427
-525.90288745083797,-158.59706881122966,448.71766576017171
-280.93463042094527,175.92508409855515,163.65124101676861
-468.36525959964973,-42.040449691483367,419.78537237653711
-400.48995263000427,-88.642710674002117,142.28698635924189
-545.95872222218895,86.371490517340646,566.87045035500353
-541.34391707356906,48.54390970761262,375.12812545409872
-356.00325750253296,-187.351561639533,434.06856322455593
-519.44733087336704,-59.576143184366103,651.05892101893994
-360.94177099308325,-358.668835096745,18.638157173747153
-587.3261205564105,-79.552686607872076,585.96258686648241
-444.58587174933484,-262.29657328796156,449.586325499194
-612.32838689632376,125.92054544531726,99.099927173233112
-503.22756614237221,-110.01000090917347,432.76661514682644
-448.2225656892295,75.91599236214266,212.74661332688012
-419.56996095331397,155.25283566800579,264.81242035124455
-332.74734644367533,-20.456364504936612,313.68516353788613
-495.41494533665832,9.7615690529861094,290.66909551833345
-68.99011754978541,-380.89613411037931,309.19039279654442
-450.31351657840213,-55.836179735463006,462.98732797608142
-479.13446676970358,-275.02500227293257,267.75161378307001
-367.08619288429065,-197.75202387073298,453.95888770122644
-662.42571657693918,300.27744733709449,319.75449564492402
-393.66668495160155,45.009661350227731,305.48518744860121
-400.93496370365176,-169.63571533446836,689.74494083915067
-550.92679217068985,-182.69625943072739,204.63453831545394
-266.38745573996744,-11.805271998891957,181.38052538899831
-324.96349235569102,-144.15978708376764,116.78969158698494
-820.08748895924771,-6.335820225333344,228.74431038852742
-590.50822874512187,12.728428736299358,562.87723117152314
-257.2563392526468,-395.43936738610239,453.2948378248015
-553.70765289299516,-49.576588895135039,459.09961618443316
-643.95963971760671,-343.17428059757634,669.82159518613548
-215.72574669697866,-320.2723472505532,582.02490042634145
-387.76252386580376,-120.01091008273494,401.85471406491286
-381.39830893717368,-4.5458169852595303,155.92331657233092
-216.38152062395551,4.5643555624888839,200.92978084918295
-478.67988000878887,110.91917096758596,321.84744067640008
-403.80300240617055,-121.10160086270741,255.12777188785677
-565.96054186002095,-93.64487679525925,394.5813255921156
-307.36167463967502,-148.4646519715798,324.60437732479005
-435.94872261114278,93.644876806984996,374.12492044731187
-558.96514436311008,23.453005859903215,174.65328832706555
-399.45795523922374,-74.851012607699175,426.15446165278365
-538.66542019131191,-195.45143710881499,704.1655212662406
-629.73535162192866,48.507263266528646,449.47429218772447
-671.42380091102564,-25.001403812672098,244.11375303193881
-626.03643321851371,-344.19232079506816,311.79848539102551
-510.97413144235628,-69.097190697311433,316.3645142647714
-366.85143309689715,-64.096634883499249,218.65635653523509
-508.14896572765156,-149.86571370135243,62.119624406146897
-499.59105739325389,55.913869272699749,252.29541481021934
-373.67033366669312,-113.64669515410374,367.76070563987662
-366.85153196511459,-105.91871990279266,300.48186197595237
-617.90449884851284,-68.371183387314517,536.29132513316597
-563.23301832167056,-49.095368911835607,647.78609157122173
-540.95826895478558,35.003182096841613,427.31157372631094
-153.50951889251004,-76.20661621972171,52.016552795294658
-522.32021096365008,-304.11855633834227,284.11673786746741
-836.16765623405024,158.06207287782337,550.73215400581091
-535.04864078549463,-80.007273388433447,324.57496136020961
-281.78995738712814,-156.69058825092239,367.86895583486881
-505.50050004545881,17.274297663423877,371.85198654422931
-745.46743951104065,36.047177584729347,129.82687630087804
-544.80032146677127,-289.61905056935456,604.52892551657328
-552.77752522956621,-4.5458678061688085,154.55950540957681
-416.50668136734453,-6.9239431695064813,407.6596039664318
-336.39421754953599,29.093554093309276,250.47731629936342
-434.13498644207266,99.542977571510917,291.38320994502982
-584.55508144755981,44.167526627276715,317.41779241878311
-351.85016819710529,-102.28202563869465,337.30339121737995
-574.69253605829624,-196.48241954776154,155.6111469441916
-356.39603553436956,-8.6371488317126364,487.31702470807937
-290.77909921966932,-64.388108598753931,108.03099848663716
-297.06260860302103,62.970177796119096,244.80509615747232
-534.13946215166641,-56.3687511217694,452.76843841463921
-576.87129276012729,-13.638271576385948,354.57759342967881
-219.05300945434644,-3.9753654042881794,267.89393116536593
-541.8803055469424,-242.20640932298542,408.38275543267116
-532.11491515579155,-42.127559604741421,225.08248687297487
-458.2234748614764,-147.74070370055981,278.66169651768377
-147.71605886112408,-121.8030316113168,280.51233292477599
-323.71094176615179,164.96483001607774,259.98350192551908
-514.99921095371917,-69.956256792624785,318.24254925677627
-350.19357961429478,-176.83426550980789,392.97493686966538
-384.12568819080468,155.92342754693021,47.731611098057456
-400.94554050365133,-146.83153013907219,427.76720560489082
-534.59405400490778,32.275661423764404,162.28748101133135
-633.14748666980609,209.20181781241706,331.38134927274115
-463.67851622874463,-43.185744158561441,471.40649149922734
-409.25433763681184,-74.226951473470194,492.13157500538273
-300.93642455477772,-245.93142237103478,180.92554617990663
-564.99552653000171,-127.97328690800705,633.50374590674357
-160.48095335907075,-2.3111813230742833,227.26105556367463
-513.92623466214525,-156.22235922465839,449.12766686494365
-623.69200927334907,-88.644422220202159,339.1233189384136
-227.74797708882315,-206.83698518047061,229.47314574989147
-482.69312718538856,-13.124491149474016,12.370595309461926
-461.40558350675173,-215.92872195965791,418.67442415084236
-611.02217242415281,-305.56545355772334,587.22067660840685
-283.03891392770794,22.403157233365945,372.53979333807507
-350.4974413857235,-161.38952765830425,465.02600678837649
-623.52711790973467,-30.542150085471679,284.36548923720136
-527.32066552653839,183.19847258294863,255.93235748578792
-380.48913537620581,-100.91826529684448,492.77207018779893
-567.32430220928961,-227.29339030820978,299.15871307794293
-372.1887081197155,-312.18324814221069,565.16852996589841
-152.28279028424177,-1.8145659002058132,269.11897238480981
-289.57177925609705,21.365578684429934,202.74570415105075
-487.72605639844744,167.35319607475893,301.93468873811378
-579.5889885291939,200.49741142576681,430.49041186994509
-439.12760804095257,-96.818614774219967,407.77921325393822
-476.86153809971512,67.733423347499368,255.02318043419478
-485.23298632034891,-76.906671461573467,327.2180521672214
-583.64049212254156,96.581016304648514,221.07855729674711
-485.2924869665103,-53.687606279032892,526.96967677305508
-323.53108848260763,-93.1442672548703,407.97997490441952
-392.51557908396518,2.0751892150783893,377.66773996818233
-460.37959191942696,25.644261021818764,417.19318074567764
-656.76640983100185,-30.858398808876991,-10.245054770230636
-397.76343413848826,-112.73752224163253,475.4977710481848
-387.76252386580416,-102.28202563960447,574.59769069732783
-226.83880353948024,-13.183016700178342,181.3801254570333
-378.74389672145293,99.547069348319596,241.87879785242316
-600.05452312829755,218.20168481609991,253.65946681299846
-675.51595599599523,35.912355824272197,406.85516865169171
-308.90508985749602,54.776312902940681,-69.765215040374969
-298.48489607789429,-156.21057974865423,378.3387324421318
-525.04773161197863,-1.3637603418671143,603.69124465858886
-331.84834986002983,-314.11946543967468,409.12810253181289
-570.41508787081136,115.36173922344607,262.72196444358093
-259.56905173197282,-430.03909446312963,465.49686335121129
-432.38439463275819,56.295276141721992,581.84102291200679
-474.58860180240538,20.91099190835482,462.76947853869984
-447.61376205346647,13.337233617959566,352.38763377164474
-455.04136739703353,360.03273024820555,234.56677879807012
-357.00203385730413,-172.43900112407374,331.44790131501514
-385.48958996272165,-129.55723249237209,432.31202836621071
-451.42758399634482,-96.719574084044908,191.46907031456016
-577.24582449554873,-93.089376051502398,558.74576079039355
-280.93471249697308,-12.273940075586271,550.04990754692392
-417.76525138648788,-301.84739041815186,61.823788350634196
-627.33415168583588,-173.65634993479784,370.93825165159575
-115.01045549595291,-208.20948751143359,79.525588798236029
-484.43398792360523,-114.85370593297242,260.33336715874509
-476.62422270865369,-69.728079234158486,443.53418044456504
-286.38967271926896,69.097189261406243,260.02363690145762
-546.20906328610215,-66.727888411429063,302.68405957483156
-615.51050095462961,225.02045640497929,284.11673708003508
-441.18974811887858,111.60163360775609,182.67757604189055
-612.01383825611572,-261.00636658480687,541.58617832192078
-502.16108550727552,35.759438255586069,316.99536431049779
-386.85335311540257,-74.097650112586265,84.098547059024952
-333.21211020619819,17.72888444404251,304.11855622280569
-343.21318832317735,96.826968880579813,189.56236477309682
-417.31066461195979,-85.007727982375286,312.30111837183404
-417.75309777292927,-72.267389954876862,164.06224434412056
-498.22711155559153,-33.184834984997721,492.31748316336632
-356.6286557110584,-31.209102466479717,291.9021057434565
-190.99624895331957,-238.71949998511366,187.81443476786788
-546.41331030093352,270.02454768615479,505.50050004545716
-371.85198654425636,-210.01909264480943,346.84971361028443
-576.41602004519632,-41.367379329631426,466.86063838065917
-438.67624330099375,219.11082825069352,114.55586871158958
-327.09632455507966,34.25961158036349,455.09742535165481
-433.68262015564528,-402.61364633369942,527.60745338435675
-591.41671416555459,-204.10875700981279,236.84017432384871
-457.31430130011631,-248.65896899718007,508.68260750977396
-371.43560023522519,90.386174043401397,161.10973831998282
-602.32668109662609,65.006372053269203,669.1529788917145
-396.41687437621675,181.3629224299346,190.45465338859557
-287.75380639550087,-95.009022606185368,405.03657723066328
-514.14731555175717,-63.197945230242027,461.40146503834751
-400.81174756998718,-8.0511582769441201,423.3278049326816
-542.32205633595004,26.820620056369265,132.28471707862255
-443.22211309524806,-191.83565165694893,480.04358927579688
-482.10830012987219,-95.264421636153926,196.29628790095384
-517.3201831529135,-127.28471218173875,544.59456905789568
-465.49686337672057,60.00545499544949,301.84562230889179
-320.44117345048966,-139.19184808034544,345.96385490296552
-265.02409318845207,-230.02091118657,260.93281193524609
-358.21438312570137,-331.39376306932991,35.457768888128307
-348.66806073279002,-74.552232021091967,439.13079203423496
-545.04954995908611,13.637603418492526,321.84744067642379
-424.43998464778895,-94.511172407917201,404.91419070683793
-493.72333172570734,-76.4512477647597,309.08043017424052
-330.0300027275178,-121.82925720520048,42.731157377937627
-594.0788876768836,-121.74884466444821,249.30440248711696
-389.72602870282776,70.785888576990786,366.99218725438402
-392.7621615812136,93.766589515638728,336.63580517659182
-567.78044178399966,-295.93752114228386,361.39534668360989
-511.40674131427392,59.099392255047739,275.93625581975709
-547.77707064281083,-75.006818801738135,511.41012819346639
-374.25397297011642,-10.102856371701446,324.87339029326864
-434.13037548867715,-205.47322483862004,38.18483948936467
-303.56070731250787,-25.813641902922235,169.95063544004239
-389.97889504840964,-237.6904567818859,456.44680410347115
-785.80749204041263,430.58377292378339,422.03370811046744
-462.27661868055822,-38.601800799501248,303.70179497352365
-240.47483061862158,-177.74186472267928,227.74921915907248
-516.05912164044207,-55.96985656620641,327.37564463185714
-417.31066460587419,-225.47504318574275,39.094463133010024
-366.40101033923747,-229.12556139035286,451.85490929626542
-400.49095372306215,37.276115642759201,195.47231537929449
-360.48731773722045,-88.189838144389455,105.91871814482076
-494.82468180455533,-136.27914912866387,295.04805101408476
-520.07482398112984,298.80300922512339,186.35051506383124
-529.59359941812727,76.370579143558487,414.583143922175
-632.91350621937727,-56.088440099663224,569.78362841370119
-428.81728721966141,-211.45012965924181,399.49672059139698
-464.5860531611346,61.825422430144513,340.48677236008433
-584.14401309209541,-147.74063176202111,341.39467224292906
-642.33112101099664,-92.735703245750798,580.05273206654556
-177.55932330129255,-43.358083261493874,216.16015839964277
-361.85107736999061,56.368673590310777,339.5763234610144
-326.10049970968737,-131.78151641492948,552.27159616435711
-337.30339121737893,0.90917356123205584,140.46731521047363
-602.32748431675395,23.638512592051832,439.2062734530067
-430.9482674598101,-276.38875954667066,75.915995659157744
-506.63920248644689,54.988092529653471,394.32335393202163
-625.77276466984188,126.90723395846969,275.81597842480306
-554.21702290938185,-84.982877523735382,533.05380979428287
-344.14257068120634,-110.74897007377257,365.89545827987769
-529.05359691270553,-18.347456254460177,509.68939283303325
-458.67806663015938,11.819251112245839,390.49004288676451
-648.24074916018344,-133.64851346623843,715.51959268907024
-364.57859747617704,85.007728090900699,429.58450849197931
-712.4145207385485,285.88311884118451,359.37349920334992
-549.14083098463232,58.187107918904715,-54.716376329195654
-265.47867987998592,21.820165469590076,457.31430130011637
-493.6859309249748,17.269795062597822,340.48203128528633
-581.6362309667478,-233.33352109137553,133.19962628401777
-521.86562414764649,90.002043765592816,54.998819120261395
-684.86511916411541,-118.94641063031379,189.7075551111304
-573.23503505445944,131.37448503585551,360.03224377620359
-486.76298346666988,-7.670027730332226,51.937916896952672
-472.29721151321047,-87.260789431235196,185.04781220562126
-483.22688262608955,15.908466753025088,384.57731054865877
-515.49852711198321,38.188390572830158,465.04694631345257
-337.43923350227954,-255.62153821368383,346.43363943664127
-405.94609988633562,92.281074930988808,350.48623683092831
-399.12719338121144,23.196662479624791,8.6626221680796647
-623.23818217846213,-42.730322501098463,324.12077281616502
-435.49407576429581,-81.835866612882498,669.59620187851806
-478.67987998659635,-186.83516683061643,172.74297663776622
-464.58768977904089,73.18847169471583,353.21392856376218
-294.88077314342814,-173.08284256456528,415.05567851704586
-401.4409044663368,15.455950744446177,147.20455325013609
-537.21021666995352,11.020073043842816,336.92191071168799
-160.83476896874723,-500.65880039943244,489.21868367542157
-545.81791533944261,-121.43028647527879,374.67228724149072
-314.58211895978559,144.09644545041905,152.28311007107925
-436.40528848454096,-279.11825202951883,259.11288938991908
-568.68806499509458,-35.003183329443473,306.84607325014395
-626.45214799445614,-321.89417592694866,315.44595104352737
-451.29083463793523,74.489469266631218,520.77066530211448
-341.39479447898771,-166.39037260365495,491.86289661032379
-615.03556957010744,-115.50740599081173,639.46418168053333
-717.73148515271919,-64.282137726566233,343.09926324328177
-210.01909264478348,-21.365578688968625,368.66987907991324
-385.48959000079537,2.7275206468151376,346.84971358669338
-464.51952643089663,-54.015799198356142,196.44603277507045
-516.09834763212427,-386.33631649432897,281.76389937931509
-775.52504967310995,-23.63851259206476,431.85608449699436
-580.96190562778304,0.90917356123445148,576.41603782161792
-358.29401628240475,-21.820165469584715,272.59280205651538
-614.90880005924851,10.944797268844841,442.15127974229313
-590.22025571157474,28.589654112921647,124.29218622231777
-360.48731702881656,-367.3061187380664,455.49595417764783
-340.94008546230964,-121.37467042460383,359.12354579714867
-323.23320503854967,-212.31608925169985,291.36014429376866
-657.78707155195548,200.92735703245941,120.01091008273323
-372.83456391634388,-0.8917767431218635,301.64543292972826
-526.86611093577631,-233.2030617816776,512.31928390532937
-450.96843671613158,18.608414732227207,198.64243571057273
-526.86614701446354,158.19612525281809,256.84142462559572
-238.20347304300091,125.92045877396869,150.46822438403393
-327.05026241670504,-181.70534362456297,377.26124269440186
-618.90086615616451,87.924206689263301,105.82968905967502
-610.41820470661958,-239.56326690535644,278.54803802653203
-326.68859433156518,-307.36717657911015,491.10398945442216
-705.06444121916911,-135.01262698258859,494.47139253313406
-329.12089205029463,-115.91970161582604,552.32282135169862
-399.59695547324651,-125.02653918584606,536.85532175210835
-277.23110627948301,-138.52397155015277,51.560132564968072
-451.7603825350904,-47.633286522155302,364.19816300190621
-440.04000363669132,-136.83062096554181,390.49004454949983
-388.13165121727553,-101.41416264072475,605.62167391563457
-145.92258302260637,-182.28975191665629,508.6821546202969
-340.33901217070724,-67.55552435340671,415.47102209551758
-267.75616919457866,12.269065729182765,304.5699903721972
-328.62938264894228,-98.839893662001629,257.34879082000685
-549.59547287436874,58.490062601447264,481.10425379228411
-513.35873615628134,-82.122018231265045,435.95104356552588
-541.19299768828216,71.415668536379542,283.41146226210446
-808.70988271660747,219.56541503772917,295.93599418128974
-511.41012820769834,-124.55677794581881,48.640785497495813
-277.32410380385051,-109.19531022670516,294.61438113525134
-310.0281887046724,-80.916451171283768,398.67260348522973
-474.58859896320354,-375.03409400786944,166.83337218212895
-582.46673790106786,444.98090825877836,241.92169191648881
-684.15356286352562,-134.10356071575413,-38.185773986634672
-476.91811559234759,-246.43206222890436,299.55587361595417
-831.91584209829455,46.793060309824767,453.18455053846134
-256.83966808602224,-174.10484996684806,351.85150230066097
-792.34475915861481,190.47186053775931,260.93281171715239
-784.16440037350628,3.6343140227047734,246.38300013264035
-406.40466541321257,-100.9410034683405,161.35797127513203
-402.16565342228279,165.46969222706409,293.96395110357793
-450.49549883656243,-296.39058286720962,311.84653177982989
-489.58996272388049,-81.371033730337871,358.66897285921311
-511.8647149740865,57.732521138283573,283.207564361099
-394.71921241696003,45.142677783621885,281.53322061166313
-423.5109043365095,-248.47859577792048,1.6261215634634894
-391.08905423171933,-301.88422178560609,241.30696171576321
-397.30884625874893,-46.367851622874696,339.57632512046115
-615.51018446449427,-82.279923320089864,-84.552650308583694
-667.11341295163732,81.40879840976153,412.66190474120953
-396.3996726975173,56.82334757703449,257.75070460950644
-450.49549972540592,-130.01181943583569,310.93735776494634
-583.49448621148065,-236.39014249721376,67.977105745042564
-537.77616146922082,-101.37285200783342,291.3901263751228
-372.76116010546247,24.547686153287462,278.20710973724812
-464.99661694750051,185.12455177796446,304.2043752008646
-250.4773161196448,-256.84153104828005,411.40103645785689
-607.87127204245621,-209.22046920399291,326.25760018000909
-194.98929788209711,-385.17656691192849,394.04481981398897
-279.17994020627003,-49.412425406585847,211.22029746979516
-425.82030314812329,15.542487796006593,117.72640260968119
-956.44622721609585,31.371122386837381,437.31954957162247
-276.84214186843587,-163.19539803202903,130.01241858337872
-461.39687246796143,172.29713657225579,273.74755923358333
-565.05141294948726,-267.29702700302568,621.42006957859849
-494.82011566797541,-483.22951379690682,35.643867575774742
-411.85562292315609,-187.28975264432873,463.71172858835286
-402.30930084552847,-34.548595326846105,-59.550868260753099
-538.23074793785474,-60.914628290616726,386.39876383593702
-368.66987907991336,-258.20529139012564,508.2280207291538
-206.83698759654388,14.09218504475046,151.83198142543847
-404.92632496379201,-74.08287510633825,421.338574000888
-356.95737882824386,-45.004908246798891,349.25064912132382
-523.22938448949719,-38.185289571778029,460.04182198381346
-665.96963360305108,8.6371488317126985,115.91962905718566
-504.99522086913163,-94.733971476354114,202.820848783012
-150.01337225742876,-238.65779595177756,278.66189552735159
-611.87520702845791,-187.29565189112256,368.21257519836234
-412.31098383465343,-76.825936016760338,162.74144657119373
-350.48639733399557,-65.005889788648943,240.02183840330659
-537.38807999532821,-55.27373320767137,363.8596378153369
-558.21825028390583,-22.747560890452878,62.143569367731857
-597.78161928289853,-1.8183498637994002,451.40467115418062
-482.77116101463304,-93.644876806980207,420.94735885080269
-399.12719338121087,-197.29066278752211,634.6031457405229
-450.31156952354729,-16.636695892386513,447.46163426842088
-335.19353422456862,-130.22999087743401,560.25584941936404
-745.52190198172218,-135.91932356939563,189.10894590035588
-233.3069159992948,-236.14160846500633,472.36059266372388
-269.5699617489027,-108.19165447300871,318.21074581288917
-649.78408694740926,-47.447624310436552,663.4786420686014
-418.58400305699655,216.655811905479,460.85933499442825
-457.76888808072988,-143.19483589417129,408.67351577415917
-488.68072473905733,-134.10310374217116,338.66721598282089
-580.05273206654942,-134.55768706245894,374.57950722792674
-550.20166669656703,-6.8787202991545433,421.24326694637722
-784.26406491657406,10.816688410409061,271.52411376513408
-400.67133060304877,-258.88007127403,121.00538582580886
-469.133557596142,-237.74888626238607,435.9487226110594
-496.01953539696768,-221.61190570363922,349.15223619190056
-456.93698836007513,-272.11995828828447,159.17807621240715
-635.44847738791611,8.652813876679561,-5.8003737850539556
-516.6810584341348,-151.37734057696255,210.21324962917782
-389.12628420772256,-212.74661332855374,291.84471315568118
-506.40973267906293,-56.821121832581461,421.4018787363255
-342.30384580416126,20.00181834712264,419.12901172833961
-308.59563456643167,-268.7654173094553,481.69703196282239
-632.89207173510545,10.432675555556807,288.93914345618049
-618.23802163832738,87.735220366426006,423.67487953450041
-492.7559767134814,-12.47289005172208,509.13956937543384
-382.20780605611787,99.494054170836478,363.75939832563682
-502.72791667273549,-174.72968473334168,23.135942619597181
-273.58749037039189,-104.01358325618723,294.65422338959411
-442.52752414250466,-37.475357660952419,-40.191461413171041
-430.93720533310614,-202.73419546680731,536.42927724632023
-464.13310357817494,-280.93463097303186,502.77297921118998
-427.82872744414163,-28.783169962692345,404.8549249041817
-654.60496408764152,-98.645331393762163,358.66896990635263
-419.12901172833875,-190.92644785889786,530.50277297936043
-625.96649729559181,-161.37584810885875,531.86764712982404
-481.66785878621039,-6.6805234259629263,353.31123087463845
-635.51231930175209,28.638967178835813,397.76343273053521
-415.48523257495413,-300.83898747611789,395.68097873947113
-350.37344564125686,-147.6073789567287,432.30745600706268
-629.61934463267994,65.892544947397795,422.28833074812189
-482.31657423402004,-118.19256296026728,474.58859896353863
-480.30439763678152,75.183491588916681,286.03176689939954
-630.96645325199324,-108.19165634482508,342.75842876443096
-99.099922494932144,-236.38513127684186,424.58404625978602
-686.42703867835235,-150.01499835680133,14.544756467120902
-544.14011461195491,-45.912994914685299,365.94293770750414
-435.4941358305278,-53.186653332120898,509.59178107100604
-619.60178198027756,201.83446725874668,501.40921901982585
-694.75076228224793,-10.546593221817075,600.48467216308302
-560.95634600789924,173.65413794050878,467.32976831996149
-340.86196635579688,-270.55660307613266,131.2857847852861
-570.61524075244995,-19.621527379634415,604.13469318288605
-585.94479584066403,134.68920917508569,293.2264118176451
-712.79644019617206,254.56438461345641,351.39191047478226
-292.75388671697209,-374.12492044731391,279.11628329848037
-647.70004732485665,167.28793526230024,356.96544284618273
-593.65976827927864,-131.79711719107999,332.80824336267119
-410.03548584475811,-167.26384393148277,298.68463564425565
-481.86198745340056,-47.277025300960887,490.95372289045179
-623.23847622510755,-234.11219201745425,488.68078916265114
-613.24446884826284,-33.194689127975195,454.57318354096356
-558.23259595838056,20.001792625605066,567.77888153571075
-488.29478656626162,-221.78068531664158,346.9775157436286
-304.02259737211165,113.77198667224401,330.24623174722996
-581.47638590650195,103.12681374120376,302.20512832738422
-272.05370579071274,93.979960489342204,145.09692823466628
-721.87837170640546,-49.998530982381425,340.94761211070869
-525.95687816778923,124.55677788890135,370.48828021319122
-468.15414304011529,-155.85049278536522,159.6463325347292
-412.54293762386766,-108.33442060792987,483.92045734855765
-555.95962884708138,56.368766951309944,190.92645247505001
-753.24984290358793,-276.84204244385074,715.06583835649712
-460.16805866334062,134.17047138123533,289.31930601699111
-432.31202840658051,-123.19301758741447,544.14037637611614
-610.206980188015,230.80562343269912,341.5137339564364
-515.04647262845708,99.554725988616781,410.94730910234512
-403.21847441692398,59.748534287074619,327.75706880919154
-516.33689832008781,88.288081678028533,405.36360884689839
-430.62946206380627,-14.049940005928953,-45.856583855456137
-495.38871156896408,-181.05899811640171,523.47902122079165
-376.85244116082754,53.641240051260553,326.3933084527693
-280.51312120241209,-204.60829430026129,550.05036836196223
-304.57314301299954,-128.19347260515266,433.22120162702373
-320.02911345802784,-60.914657782346161,391.85376018492411
-464.03513234711147,-10.395947570921175,392.43295955090406
-384.42953824984909,140.3089784909379,-6.6148878853588249
-386.8423188975076,-400.02557665903578,504.59839691029532
-561.51479510720037,-182.74004276491408,361.81798805891253
-376.41628825714997,-253.24756008646656,47.543161864756236
-106.82789344485181,35.00328084259597,305.93721948882262
-321.73914596864859,31.324105734699682,257.16587449784174
-538.23071666101623,186.38061164155442,222.74755409086904
-498.68169833620868,-476.40693996287047,404.12765409113263
-812.19423601695144,-13.18281757872542,296.61240572889909
-510.49922782651726,-23.182083875038099,335.04170358144177
-347.94104062403301,-219.31469425617291,376.10250662374324
-603.68964359371273,290.93881987728321,246.39101382709606
-444.26661046095739,-178.37471389389006,342.58173729393536
-245.02218293745403,100.46378391395058,473.6794789122053
-285.9350850077239,-145.01318301663753,163.19665424129141
-419.25292324320901,21.227960180396114,432.35561307230904
-412.31021000025038,-50.45913262490371,119.55632333187226
-340.48543122682827,11.364812601490458,228.65722832535357
-184.56357472815372,-210.02025728267284,310.93604152748065
-154.555332794398,-7.2692173343467505,388.22128926086259
-312.78733528831339,-8.6631903162937629,221.79510561870268
-466.86332262559552,-233.20513565529248,449.58256867691455
-560.96008728065965,22.274752250205431,543.68578961723699
-329.57542858440553,91.826513144253809,460.04180051864398
-559.92960561192308,20.998727760983002,799.31844068604175
-483.22576879488309,-287.75345277982814,253.20482315358501
-677.78888989907955,-22.27475225020407,703.24574961359701
-258.20529139090684,-24.093099373481067,193.65396854219097
-448.87457398145511,-241.97056894666594,494.13219248014337
-237.74888626238581,-40.003636694245337,271.38830802800288
-583.2328156313821,6.8217039047279542,441.40802180480858
-569.16355411078462,184.57699943688573,346.36595921531062
-524.59300504809278,-263.20560445721594,141.3765903533241
-482.31805676397039,-86.831256212581224,556.86516592170915
-466.46038844387829,-113.70187524285704,492.27790110542855
-498.96184771033484,-53.209325872823136,488.46926536325617
-562.32384762250842,-95.008637148829663,620.0563687607945
-655.514137648874,255.02318392581427,-40.003636694247632
-461.96101460470152,-325.13039363916226,352.3654897786592
-507.53576812463081,-102.95749447308413,318.38503470235685
-389.55255310138517,78.219369299815938,363.71528936561089
-478.03753382551167,249.40118717295238,129.73300721719252
-487.54308425411051,-40.337560418976111,449.27233220011118
-390.14876292831815,232.63554771901147,158.15576839621463
-370.48822620237905,84.553141194655751,59.550868260746014
-325.47985262210034,121.83364763362819,-35.90907356426429
-782.34384527224722,-144.55859181009004,808.25530411857096
-440.94862147611224,-117.06787174154928,303.42484156732445
-171.68377836041623,-257.62490496797926,64.137769159298372
-216.83789435403006,-99.099918174380306,274.11582871169702
-442.77002127910788,-183.6530593690434,347.91519053140098
-548.45334169326009,-174.53888318407675,566.88093499764727
-351.85143351418867,47.730273775978837,297.29812484773396
-277.93283143204621,-356.91935655940665,130.87587658832024
-494.32076672001784,17.309418113291354,480.04341363782379
-398.36340960522057,-277.42549726592017,604.11443339273092
-522.32021092826074,-3.6366940997705024,525.04756304505338
-517.85232987388167,-392.4725135453437,598.59134667559363
-469.01417185201029,-39.45490639575717,344.30197940466098
-393.27315631222064,4.8730250669994337,366.54861811294091
-456.0123092035995,-137.78718186530205,580.63221338139397
-481.21232305025802,-475.29432485565843,235.48661962324582
-470.49630158361344,47.278528540039524,263.20807511069745
-584.95048869126799,-97.281571051949484,444.99666329109692
-500.95463230578525,2.7275209540850618,265.93326706888422
-518.1066997721058,-162.92862501518709,517.00151077304724
-306.96373186948171,-94.220333382201446,619.61593551607314
-764.16052954522013,24.092949110862538,270.9350237970861
-703.24574961359747,-78.643513046640166,234.56677879807017
-444.58587144285354,-326.83823617189813,657.83085524440889
-540.95826893096682,35.912355671874785,377.30702793173657
-629.6026911537391,38.185289571780068,453.67760705518293
-500.95463224064412,-99.554504956075832,651.87744340232143
-493.68124374319291,-115.0111553828325,207.74240740700074
-572.77523927697484,93.64487680698403,550.05513492050284
-219.11081114122894,-236.38510855659393,434.58498029472088
-214.09207132799625,-205.44951003584907,355.51784229673109
-525.96540794706209,68.63331017709362,234.55516174162983
-285.02591819664025,-44.549511605824996,358.21437128867996
-632.78479751446218,143.64945894067174,279.57086491921626
-151.99355334551592,-173.83419169971518,372.11685448887187
-421.85666463259042,12.728204799861953,186.83490410075152
-351.85016818996155,74.552232030256576,213.65578690193396
-239.82337930699913,-28.38616119319245,23.057521634594274
-433.22120192744393,129.10264569506359,260.93281207382586
-315.864540741079,-31.718256853361655,279.66467597478299
-444.5718625369874,-124.99617291744734,540.97716379655924
-316.84698572494591,-215.92872042812553,612.32839385519469
-363.67346227390891,-99.556970502548481,238.19761290099279
-414.58314392217073,-110.92444534031458,438.67097242493219
-76.825165924171941,17.274297663424715,327.1495129227003
-226.83928570525293,-184.10803209622048,349.57665577889537
-191.14284612021521,-134.31880252388768,429.2590313535548
-583.91202899112932,-59.367924937041508,171.07175184353812
-328.66624347715725,-71.824712428146199,305.93690225822155
-652.50190247232547,199.65715304501228,-10.468000595904098
-263.20593646712081,-60.005661302785697,403.67276798550154
-393.67214915098123,-284.11673509979852,497.77252713488087
-345.38668655223603,-3.8901353110607828,659.76476787680576
-497.79450794963844,-4.5735438397763701,435.45918887924893
-319.56817487536404,-328.20535489869354,457.77412827216
-318.21074647754028,-49.549959418354675,318.21076572535605
-200.47083284940487,-443.2201615259923,746.88800592165217
-290.48095281387469,-149.55905082278366,422.31111919267539
-256.38699478743422,-63.187562505679566,206.83691782076284
-462.75188143121375,-196.83732439286732,506.40510705529812
-222.74752259481065,-345.03136657048475,259.11446487426821
-505.76304215132876,62.757060707920736,517.98066084337574
-716.4287662514721,181.83471224656722,446.85880534594037
-478.6239769443431,-187.14094462949947,314.37563625492214
-654.60497918042529,-21.820165469303205,227.2933601225848
-335.93963125407981,-268.66078771684352,271.38830782370354
-545.23145064364712,-86.112193965583216,465.20935559453881
-475.95235559876227,91.826518630000677,223.65668871538816
-581.87107918883146,19.547231566774524,459.58723520361468
-230.16541940830297,-51.093243727132595,128.1902548810983
-425.94781670689491,-124.55194159805842,125.01136204238622
-362.78803911586664,-5.7685103032447902,261.42277150132071
-281.10816548744106,233.21051726580021,498.65018888869213
-592.32657513640345,299.57268844205731,228.20256389345437
-502.3183783844292,64.096749474922561,345.48596352165657
-558.68715337757521,-32.275661423763992,246.84062187471625
-290.03267444865679,-172.29312116516033,395.94035460536134
-564.82126729612639,-22.306295868215695,403.36734429659344
-309.96220614699678,182.29792545055739,373.39024720249495
-442.99036001487451,244.31072888276012,68.383097529448918
-505.92373618085639,6.8876293086246063,387.25848193512212
-322.73343405988487,46.373646667317225,198.21722148208354
-601.41831075552477,11.819256296022612,381.39830893716362
-560.50550050003926,-107.28248717989906,518.22892990271782
-705.06429516256412,-427.76675579901695,401.40003052960873
-317.25352082142456,16.621798728620242,260.17222604176311
-541.86744249476942,-133.64851350140214,392.76297845240822
-559.60133449489467,55.453578168506702,530.04418015326701
-423.72870408762282,14.493203101780036,533.63341733251707
-515.50136323564743,-157.74156670949037,303.20942847348402
-422.93039647447256,-183.24717852124635,465.90274419899845
-417.31066460588403,-388.67169742705283,413.21938306900245
-310.48010103339556,-13.403460079044471,363.41051064394611
-546.86789708155197,27.275206646217626,395.49049913628272
-667.32791379359014,88.64173679643396,265.29903722826407
-495.49959086723624,-140.921901986987,337.75797801187758
-350.48730875996677,67.732239032893361,210.63804826034183
-151.37739794526664,-516.86516956086894,594.14492226565881
-478.67827328711962,120.01254712319036,473.22528627165451
-249.87314927724577,34.218413491985785,562.85334147290337
-419.31156697962342,-112.55676768918872,459.49595757755537
-464.13317043396705,-109.10090929396465,460.95095296108383
-529.5612250171564,181.86637512193732,458.70243138335644
-605.96417551373509,140.46933782195543,226.38490314256688
-179.561778343485,-54.550413673970411,244.11310119101614
-550.95917810709705,-10.000909173561144,344.57677970724404
-428.38646024352431,-128.35918503669842,214.46680046634398
-570.86604703985597,-162.23587078857773,271.73606305066789
-257.75070460950633,-259.56905173197362,-46.822438403492939
-576.4236009192025,-250.03256478387348,244.09765188740306
-229.11173743067187,-310.02818438039458,439.13083007546237
-193.78686342869935,242.96547381771956,270.41777572427651
-527.59699758459362,-137.15345701494806,613.94413169290704
-232.74843167577447,12.480413741336216,191.13301852363554
-486.40785525956539,-50.913719429035915,383.21665605963898
-678.40386328667205,4.4426867885020753,473.77237783373675
-246.10170655045422,-213.57037521751843,296.36248707008554
-317.75600756399422,188.65377159858241,82.280427391437684
-583.23483953085019,153.65033184836807,418.2198381671252
-401.26365821233992,-181.71387056433511,616.26703687786767
-647.78616245209935,26.36603320204901,350.03182100093738
-617.32884807709604,-262.29657241567384,335.03045731429887
-315.02863896717685,-139.1035548686246,472.77025184107333
-560.13792340906184,-45.086497799049738,432.2731469827288
-542.85215362652173,36.693165656854774,384.49633347320014
-328.93386214323471,-210.64056855304219,83.817925897434179
-260.78963832406646,13.325390534279796,198.30687172943121
-643.70053097876519,91.366323489518848,394.12244868305896
-573.23389299905591,13.183065116007096,572.7794069250557
-416.17353267028255,-18.405145092136017,192.2030353325521
-241.84016285778637,-300.02726988279159,464.58769285200856
-358.21415530545511,-72.279084537047225,394.12696424140364
-283.66215110464623,-276.3887626147806,341.3946722429319
-186.83516683334335,-213.65578688971448,38.185289571778149
-544.6041511634005,15.896755344173229,404.99900943738038
-343.55653566105553,-71.131794657735384,531.31599444703284
-693.69942722065196,-118.19256296026937,508.21922331566651
-465.91380905683224,-4.0346004296566935,304.31231726362898
-573.67459429466373,-394.00255071711695,674.62200191694001
-387.30793446286549,-155.46867503788206,374.12492438329224
-439.5854168560665,-400.03636694243545,208.20074552233433
-445.94952709498455,252.42519279398974,200.6023350858847
-319.11119190922523,-38.628659879269968,331.3970892620502
-406.53121771196516,-24.233707608581987,364.88865207806305
-315.85804922392725,-204.49343126633306,357.39411770313353
-432.32329534301385,-324.58641930263553,320.01247953738249
-476.59437438103163,-165.48862386377704,264.30373236184226
-421.92881824055581,-89.609188754009921,-21.012895277653854
-533.23029366305911,59.096281480134969,459.06626131246065
-420.94735885080109,117.28338939903614,447.31339212655536
-565.96156132846363,99.554119753928532,455.03756337056893
-550.06467342789176,-75.025069992287968,517.30599672803351
-392.76332092801027,151.37739247500352,241.38506952921699
-416.85630509759301,-139.55839991320627,507.31860956521393
-174.10671973529628,-6.8187834970851853,142.28568086893864
-282.75297754341472,-141.3764887717094,171.83380307299873
-427.7661883538351,89.099009000820473,402.76385056776189
-402.05018750897744,-187.64154275014465,7.1748100137183455
-667.7879807255182,-144.10400710209964,403.21847558341619
-484.14722350461801,-92.747935358082643,291.50089486633493
-417.78176167090254,-40.46346455573854,414.1065516919067
-521.56323461736304,-175.18969417491547,478.67789758244919
-235.26093245961783,-315.40349357892268,44.581411598596276
-641.38313812277306,53.169771459482497,522.06678487512443
-388.70188585380123,-104.1416682493861,144.95252139040548
-593.89020530354264,-127.0293031273966,326.69016304984245
-377.67537487281737,-23.316519751289942,368.45325226843153
-639.12943208552201,-117.71894501917453,614.16092988315643
-406.8137638235238,-141.76048346721888,386.89397318039784
-476.40691397703097,-489.14216322444503,67.733490304927841
-475.73077197707045,-216.92376869164283,345.87436938873736
-654.8024324779858,260.28081101212706,318.71258752284115
-745.52311798187918,223.65599354855112,371.39668534185705
-413.67286996418147,11.819874327084101,295.03064939781791
-862.35112282934483,-398.21801981998448,302.7547959087762
-469.58814437676034,-175.47049731793612,284.5713246658762
-354.11426923006047,-34.994282195908163,-85.909472467921091
-180.33903728881367,-349.97691102839298,309.46515925526012
-570.96099645600964,-180.92553868529774,429.58450768016837
-562.69412684720885,292.84731873474459,278.52046693508612
-181.3781234735649,-338.25937912776197,435.4466227993658
-641.42194747041083,133.648513501228,407.30975539101661
-305.59756003795371,-14.320936032698608,275.04015916368093
-704.73047857355391,-289.83663672044838,192.94180045399801
-171.57886301914652,-153.85183720719877,375.41460520269419
-367.3061107973146,27.45724276988868,183.75381727905119
-102.73661241930932,-50.004545830074711,381.39821244489298
-600.42754723075859,389.66994292469855,537.88523935848229
-457.77278511128395,-261.39279885486343,459.12791631405531
-224.11105987513096,-4.9979318970661364,149.55934824966636
-339.5763251049446,-385.94417672759363,636.42149288484916
-539.78523591099122,24.697211523828223,550.73325950802234
-675.4748832579171,-65.275328376555521,444.08981772574748
-133.93968903942491,-192.22385547706628,219.20545034759027
-484.58964504814071,-186.38063111068357,377.30690530945219
-426.14991226054855,39.226857571197968,568.65758894789371
-744.15856006276476,-250.93190358120162,395.49049865079786
-597.32702972997311,-106.37330666423971,720.06546049640644
-575.59122404375012,-48.849336977396796,509.17591396126642
-577.77979816346783,-60.914726002539645,528.22983907627679
-574.57966574360216,60.043072198013064,383.73237065482573
-340.48549868168681,-16.819710882902228,284.84008037862276
-447.27159924590893,-18.5942514958471,306.95834680403726
-219.56541503772908,-331.39376306936714,424.68403947787453
-645.05836050573782,10.910363923754423,535.95809553571576
-305.4823094632651,-39.094455745891075,425.03865092251044
-375.95908366660063,-3.2209399505706222,-122.75490311636568
-328.11145937380968,-150.82227455812065,304.69928192267622
-451.4977093317828,154.01188244928798,317.66312347119691
-786.43513046641078,45.60461841435469,332.75752341121057
-612.26983222196429,-10.420077559254842,537.83647653917365
-265.0240930993703,21.36557868897129,95.008637148830047
-466.14049979358822,19.678779019115016,218.18962701351674
-495.49959087129525,-171.83380307236953,285.48049822789795
-467.31517567838955,-116.37415494527835,194.56317834714969
-586.87153377579477,87.28066187835266,136.37603418492617
-413.67397036093689,-217.29248113478903,429.58450768251589
-390.4220942269871,232.36437153305098,120.54761692136563
-668.68562870952405,-155.00256661298582,425.05016545356995
-392.77816986724133,-34.148983753714077,359.08666362085415
-527.32066551504488,-96.826984271297462,395.49049913628312
-497.3132466607438,-88.638138084999582,47.739636348476147
-458.44691860203903,260.89467236730167,163.79512245259127
-415.58497699604749,-108.43163328621384,241.68074875393683
-299.19884704305895,-36.469510929349127,159.79918431246952
-537.7761614793983,327.30248203376556,4.5458677993936165
-363.21490281022949,-89.095616143091135,488.22615105843687
-320.7907646662772,114.96436623494115,244.99116022978438
-416.55104672050089,-282.49481109106864,554.52428478690638
-350.48640799458246,-51.368306347587648,371.39739965006316
-469.3615755147473,-335.2348751124959,122.03107224761592
-379.12562564234315,-152.30258091150816,530.95618953963924
-98.190308007499823,-96.826257738000137,251.38811085190974
-610.05545958723735,-226.38421674697869,54.095826893349937
-480.8556927649712,-99.56043562757938,239.62564853048087
-815.9832554151476,-121.82923673737697,404.58226094970689
-293.66306027820639,-395.94508591690038,64.096736066913266
-318.21095508377113,-104.10065034321012,454.82912950703184
-474.25159659964265,68.426170302270393,521.05548819962178
-428.22074580338608,-230.93008278811365,455.49595670182765
-418.21981199056853,-99.554456500560349,296.39065614981951
-473.67942540230541,-111.82834803163952,205.01863805800323
-585.96236419206787,-4.5458707892912882,571.41557627420002
-347.66771818339259,92.806936246283257,319.34373294855203
-590.15603030119348,-7.7594292109605503,318.64203284227773
-331.84834984998366,6.818801709246852,285.935085007726
-389.58087098826775,-33.639421765613982,264.56950631875492
-53.222868364532609,-426.91465193879708,450.31623645709317
-340.03064026785546,-200.01786802618847,422.76601265594149
-562.32384762251002,81.371033730340699,319.57450677334094
-162.28748068005831,-107.73704353525663,188.19897411686708
-498.6729789333948,209.88822379303704,243.8690749672358
-557.7775270965974,-33.6389233603254,331.39442049808207
-494.9230489225759,181.02848633335657,148.35526069101303
-229.92380092563715,-39.387199623933611,328.86046277935287
-557.32339303645733,-12.273843077360752,39.549049913452919
-526.47621250163024,281.96797809345293,104.6325284771499
-536.16718117679341,134.26727500789315,271.62339595659881
-352.75934176378746,12.273843092768619,270.02454768179962
-329.78965356474293,-176.21319675703415,174.11314851017627
-489.10068325023769,124.21710559326077,404.25123562623111
-457.76886953095743,32.730266986340915,182.74390495256841
-263.10266984654169,-188.38677260406473,524.49825660193778
-523.68397046839846,43.158803926616216,485.25763879611537
-345.42328487008444,76.944085521832164,380.09243059032843
-413.21846085541404,-285.025194474952,400.03708321060054
-654.15037732192661,183.1984725674333,-23.638512621316782
-491.86289662696214,-177.74343122101993,-71.370124556780937
-607.32868330493864,235.92911988717361,610.9637712099983
-424.58440873034846,-388.21782843801759,681.88017744699948
-502.31839541763117,-34.094010437223979,373.21574310409028
-334.12128375306429,-212.75225180737644,410.94644967724025
-527.17513027397627,-490.73003686064186,626.91166480884351
-420.03818528956714,260.02363851259179,90.917356123280911
-669.21266203273058,-20.511079992499724,542.75184599316481
-496.60648243190712,-69.569626795185783,36.090017141256133
-190.47174980521311,-33.184655925661239,220.4747876423032
-658.24165833257177,-45.004091281024692,20.362533724207658
-460.42126465490617,-247.12012288594184,16.58848372172875
-466.40604318708267,255.93228739145729,216.38330268458279
-320.03083984207444,-14.548609486207519,385.94194111520369
-298.66353575296273,-140.92192391057159,407.76432416158571
-451.85925992687737,10.910082741131756,345.03136649606131
-460.04182898459084,-130.92099981588422,701.88214396692558
-345.94065805403619,-101.37285207746116,328.21147859763795
-562.23460679302491,64.302977663610122,477.97691740712531
-708.7007909809945,-39.094463133008638,265.93326666060381
-580.65970205586382,-75.155439157784116,604.90515832717813
-661.50074679572367,32.245026229987246,482.29682537544016
-424.58405309561994,229.11173743079976,145.46776979740244
-446.40452956525445,170.01512776696546,245.02193794491353
-397.30915808148109,-152.28741589082253,377.76103463008712
-313.94266129518093,-252.57277463751237,421.12600466403507
-127.7388853518565,-65.00590962560662,221.3837621640632
-368.98566020115231,-153.92841592658141,247.78305653002334
-344.57677970724365,-17.728884444040361,588.68988089825984
-564.20482503930486,-35.516715047448692,12.960945195179733
-435.80550141408821,-244.90736134159664,-13.540166865459101
-319.57450801493798,29.093552707241891,461.40558160405163
-435.09752784164027,-137.33932247491197,323.17254750625779
-415.03773028152148,-204.84432579954313,432.67319076057589
-224.56586962874408,8.6371488275196722,451.40467314863594
-379.24133136306767,-182.69109117527631,239.44272848319292
-305.41118785127202,-68.827976232216855,378.3760564365283
-597.78161651058974,117.73797617965243,505.50050004545477
-302.02534778947768,182.62862200436246,142.6079798195253
-295.4814091898582,-42.276434569352091,313.21029047647647
-307.30206430030853,49.996142246128819,256.38694426765744
-498.22712248641267,131.3755562860633,374.57947970207863
-530.96747049212149,-290.95170405776435,334.58588729030771
-412.31021001908698,66.824256750613984,385.48958996272194
-281.84380398217837,-127.73888535330724,208.65533230293377
-348.21347395217475,61.823802163832212,440.49459041730989
-411.85539375602684,58.187268262810619,209.56449852630263
-375.03229129838417,-127.28249586244037,329.12263187644231
-462.841981225437,-265.44431764649192,42.69006450742696
-376.3978543497908,-111.37376125025403,243.20392763074324
-626.31581411346122,72.995800035569232,261.54455321968857
-441.4074084329456,253.94722695526502,164.25408949988659
-592.78115572741626,-2.7275113891056288,402.58507129245862
-316.85233340994637,-22.740271330105493,261.82463655140492
-450.99256113031674,117.19634445704297,263.64814171630354
-262.29657241567247,-518.68351668333514,252.29566324211058
-563.53861336504394,-190.21149488007507,518.47333573980563
-645.11420176433887,-348.56370186906952,188.76859065503081
-432.76661435645246,167.74252312869351,203.65487935677757
-358.21438298358783,78.643513215169918,203.6548779653628
-643.2402992505065,-14.092194830601244,395.9450821041018
-91.852737326562305,-49.576025827937812,400.47108663957499
-341.91706403435478,-97.844341210657319,365.77961874521685
-491.859881965547,-20.907987632633432,117.73922124759113
-493.68124374942744,-135.92480316938335,502.31503681606711
-305.02894092759283,30.001398227295308,220.92749899291508
-643.19571050696334,-54.664393223926155,254.30974410418872
