-5083.643122676559,2902.7261462205629,-74.349442379190748
-3243.4944237918148,-1127.6332094175955,2627.0136307310968
-4030.3593556381588,303.59355638166545,2261.4622057001134
-2837.6703841387753,-1555.1425030978878,1998.1412639405105
-3187.7323420074263,-811.64807930606742,3531.5985130111412
-2577.4473358116397,244.73358116480827,1762.7013630731033
-2335.8116480792992,-594.79553903345425,1756.5055762081656
-1505.5762081784285,-2599.1325898388991,4374.2255266418688
-2949.1945477075474,-811.64807930606582,4417.5960346963966
-3026.6418835191935,-1040.8921933085442,2187.1127633209321
-4175.9603469640533,-2955.3903345724857,2964.6840148698757
-2543.3705080545096,1291.8215613382911,356.25774473357336
-3770.1363073110151,1198.8847583643108,2664.1883519206845
-5895.2912019826344,-789.96282527880737,2518.5873605947818
-1121.4374225526572,-2549.5662949194461,2627.0136307310922
-2819.0830235439803,-1161.7100371747176,3039.0334572490624
-3410.7806691449691,597.89343246592364,1731.7224287484451
-1706.9392812887183,-2942.9987608426209,3729.8636926889612
-2431.8463444857434,-613.38289962825183,3104.0892193308446
-424.41140024782658,-3004.956629491935,1164.8079306071782
-3231.1028500619432,-889.09541511771522,4516.7286245353025
-3937.4225526641758,-77.44733581164698,2930.6071871127524
-4287.484510532825,2159.2317224287472,1496.2825278810353
-4814.1263940520275,1954.7707558859927,1078.0669144981357
-4141.8835192069228,786.86493184634162,2366.790582403959
-1620.1982651796752,-3813.5068153655429,52.664188351911825
-4265.7992565055602,-3296.1586121437344,2360.5947955390202
-6239.1573729863558,2388.4758364312215,2958.4882280049483
-2419.4547707558754,350.06195786865061,2047.7075588599655
-3416.9764560098988,-272.61462205699837,3172.242874845092
-5563.8166047087816,904.58488228004978,1183.3952912019772
-3878.5625774473228,396.53035935563815,3494.4237918215522
-2341.8007560926621,-898.16437856727953,1837.3308236112307
-3150.55762081783,-2143.7422552664084,4823.4200743494248
-4024.1635687732269,-1669.7645600991293,898.38909541510702
-3054.5229244113907,1164.8079306071843,1691.4498141263846
-3351.9206939281166,-2583.6431226765726,4615.8612143742112
-3063.8166047087884,-2791.2019826517881,5065.0557620817672
-2496.9021065675229,-647.45972738537591,604.08921933084821
-3701.9826517967663,-910.78066914497879,610.2850061957746
-4544.6096654274916,-458.48822800495265,5588.5997521685085
-4420.6939281288569,170.38413878562665,3658.6121437422416
-3940.5204460966388,1635.6877323420035,2360.5947955390247
-2094.1759603469568,-3856.8773234200657,4197.645600991309
-2887.2366790582269,693.92812887236698,2156.1338289962696
-3097.8934324659181,-1366.1710037174707,1449.8141263940463
-1524.1635687732321,-5049.566294919443,4891.5737298636759
-2977.075588599741,-2122.0570012391508,3193.9281288723564
-2757.1251548946625,65.05576208178303,669.14498141263641
-3262.0817843866071,-1053.2837670384097,2785.0061957868606
-2379.1821564789511,-1208.1784388534472,2843.8661706545354
-3667.9058240396371,-1629.4919454770677,5712.5154894671405
-2447.3358116480681,-2701.3630731102776,3581.1648079305896
-4807.9306071871006,-480.17348203221712,2902.7261462205588
-3980.793060718695,157.99256505576389,3119.5786864931729
-2208.7980173481928,-1753.4076827757058,966.54275092935973
-2245.9727385377878,-154.89467162329254,2372.9863692688914
-1694.5477075588524,-2004.3370508054454,2874.8451053283643
114.62205700124348,-3091.6976456009766,2685.8736059479479
-3590.4584882279914,-1635.6877323419994,4727.3853779429828
-545.22924411400129,-3193.9281288723587,3671.0037174721092
-3726.7657992564937,-278.81040892193306,1725.5266418835072
-5684.6344485749569,-477.07558859975398,1796.7781908302272
-368.64931846344143,-2329.6158612143649,2648.6988847583539
-2592.9368029739649,-151.79677819082823,2856.2577447335739
-1756.5055762081702,-4389.7149938041994,3776.3320941759489
-3175.3407682775569,-2989.4671623296035,4451.6728624535162
-3135.0681536555026,263.32094175960219,910.78066914497401
-2199.5043370507969,-1294.919454770753,334.57249070631076
-3776.3320941759462,-1957.8686493184568,3965.303593556368
-4154.2761181510514,1016.108148786341,-21.686663696883322
-5161.0904584882137,111.52416356877227,2791.2019826517917
-5947.9553903345532,2100.3717472118906,997.52168525401555
-1394.0520446096596,-557.62081784386032,2196.4064436183285
-4098.5130111524022,-1279.4299876084226,2617.7199504336927
573.11028500619966,-3128.8723667905724,1592.3172242874771
-1028.5006195786798,-1149.3184634448521,554.52292441139036
-2952.2924411400127,365.55142503098261,334.57249070631286
-1806.0718711276263,-2884.1387856257638,1564.4361833952794
-2060.0991325898322,-3289.9628252788016,4541.5117719950304
-5920.0743494423623,731.10285006195443,3519.2069392812768
-2890.3345724906994,1310.4089219330806,1403.3457249070611
-3178.4386617100236,-350.06195786865021,2140.6443618339435
-3968.4014869888333,3200.1239157372947,4011.7719950433629
-1595.4151177199456,-1626.3940520446031,2815.9851301115123
-1136.926889714983,-2803.5935563816506,3336.4312267657883
-4622.0570012391418,1703.8413878562569,1672.8624535315971
-4736.6790582403819,929.36802973977444,2540.2726146220493
-3379.8017348203116,-2242.8748451053216,3023.5439900867254
-3875.4646840148566,-1016.1090458488213,1245.353159851293
-3937.422552664174,377.94299876084341,2509.2936802973882
-1651.1771995043287,-1205.0805452292395,662.94919454770093
-4454.7707558859856,-932.4659231722394,2419.4547707558786
-5362.4535315984922,374.84510532837288,1579.9256505576188
-712.51548946715752,-2035.3159851301054,2605.3283767038261
-2707.5588599752041,545.22924411400038,870.50805452292229
-1542.7509293680225,-353.15985130111432,1465.3035935563753
-5446.0966542750721,1375.46468401487,3314.7459727385294
-5641.2639405204272,3872.3667905823963,1632.5898389095389
-4061.3382899628104,-1226.7657992565014,3404.5848822800376
-4485.7496902106423,498.76084262701522,2580.5452292441046
-3110.2850061957779,-1109.045848822796,2069.3928128872294
-1610.904584882277,-2791.2019826517917,3454.1511771994947
-3156.7534076827642,-1456.0099132589785,3001.8587360594715
-855.01858736058875,-4910.1610904584732,6133.8289962825093
-5365.5514250309652,2304.8327137546394,517.34820322180349
-2391.5636946941163,275.73404726105707,2050.8288352118097
-3878.5625774473242,-151.79677819082963,2633.2094175960256
-3268.2775712515336,-982.03221809168951,3209.4175960346797
-1536.555142503089,-58.859975216850451,1384.7583643122612
-3447.9553903345591,71.251548946720391,2750.9293680297287
-1660.470879801725,-1781.2887236679001,2580.5452292441068
-3017.3482032218008,-1409.5415117719922,2676.5799256505466
-2115.8612143742139,-1084.2627013630663,2788.1040892193191
-2332.7137546468307,-1753.4076827757078,3698.8847583643033
-4182.1561338289839,892.19330855018154,873.60594795538361
-3667.9058240396412,2174.7211895910759,904.58488228004239
-5009.2936802973882,-1109.0458488228001,3779.4299876084151
-2382.280049566285,-3048.3271375464574,4767.6579925650394
-916.97645600990631,-1456.0099132589771,1595.4151177199378
-1626.3940520445974,-2165.4275092936714,5337.6703841387725
-2620.8178438661603,508.05452292441311,1920.6939281288678
-994.42379182155389,-3100.9913258983802,4067.5340768277438
-2552.6641883519151,-4321.5613382899537,2518.5873605947841
-4380.4213135068021,-1899.0086741016062,5195.1672862453343
-3330.2354399008545,-622.67657992564693,3726.7657992564918
-5018.5873605947809,2961.5861214374172,1146.2205700123857
-467.78190830235076,-4684.0148698884595,4618.9591078066769
275.71251548946822,-5012.3915737298457,3630.7311028500412
-2970.8798017348063,15.48946716233608,4662.3296158612047
-3525.4027261462097,548.32713754646852,3206.3197026022181
-2670.3841387856141,-368.64931846344075,3342.6270136307203
-3581.1648079305974,-1558.2403965303638,3441.7596034696212
-3726.7657992564937,-938.66171003717102,2320.3221809169663
-4817.2242874844987,-2286.2453531598449,2218.091697645591
-6446.7162329615639,3057.620817843861,2735.439900867405
-3277.5712515489363,-300.49566294919271,1539.653035935552
-4358.7360594795437,-746.59231722428763,982.03221809169247
-5315.9851301115068,1471.4993804213107,2326.5179677819019
-4742.8749856006625,3410.7805286496227,1387.8561529553779
-2825.2788104089091,-266.41883519206709,1957.8686493184548
-2571.2515489467119,-2026.0223048327066,37.174721189583344
-824.03965303592895,-2763.3209417595922,3565.6753407682668
-1784.3866171003654,-1381.6604708797972,2469.0210656753316
-5024.7831474597142,387.23667905823959,3416.9764560099011
-3404.5848822800381,-167.28624535315763,2719.9504337050716
-1022.3048327137492,-4637.5464684014723,5021.6852540272448
-2146.840148698876,108.42627013630626,1700.743494423785
-780.66914498140898,-2952.2924411400168,2893.4324659231643
-2673.4820322180808,-2481.4126394051982,1583.0235439900782
-3534.6964064436061,229.24411400248007,855.0185873605883
-3618.3395291201837,-1152.4163568773206,994.4237918215556
-2856.2577447335671,-300.49566294919015,1694.5477075588565
-3441.7596034696289,-783.76703841387598,2190.2106567533933
-3444.8574969020924,368.64931846344581,1799.876084262693
-6948.5749690210469,4535.3159851300989,-430.60718711276832
-2273.8537794299718,-108.42627013630471,2239.7769516728526
-3999.3804213134936,2239.7769516728613,2778.8104089219305
-3441.759603469628,-2459.7273853779402,1118.3395291201825
-3565.6753407682668,-1855.6381660470852,1363.0731102849977
-4337.050805452277,-61.957868649316737,1827.7571251548852
-1929.9876084262655,-2081.7843866170929,3249.6902106567404
-2890.3345724906976,501.85873605948154,-105.32837670384842
-2608.4262701362932,2115.8612143742234,2196.4064436183385
-1809.1697645600866,-740.39653035934964,3900.2478314745867
-2165.4275092936718,-2245.9727385377887,1074.9690210656693
-2552.6641883519078,-455.39033457248752,2754.0272614621936
-2286.2453531598435,-1400.2478314745913,3240.3965303593482
-1694.547707558854,-1871.1276332094099,3076.2081784386496
-3122.6765799256368,-1638.7856257744668,1477.6951672862351
-1570.6319702602173,-5272.6146220569908,2726.1462205699972
-4584.8822800495554,-2735.439900867404,3376.7038413878381
-4507.4349442379025,-102.23048327137221,4684.0148698884595
-4420.6939281288587,-331.47459727385672,1694.5477075588517
-2831.4745972738397,-192.06939281288166,4200.7434944237802
-3921.6974951852199,-668.56780216992581,2991.8818779099065
-2785.0061957868543,-1521.065675340762,2211.8959107806627
-4557.0012391573582,2800.4956629491885,1294.9194547707568
-3280.6691449814039,-1130.7311028500567,4290.5824039652907
-5573.1102850061789,520.44609665427345,3587.3605947955234
-2153.0359355638097,-2242.8748451053202,3711.2763320941672
-3643.1226765799147,-1437.4225526641846,4962.8252788103955
-3928.1288723667776,1028.5006195786875,1595.4151177199465
-2258.3643122676472,-2171.6232961586006,5464.6840148698748
-3107.1871127633094,-923.17224287484396,1886.6171003717388
-2509.2936802973877,1855.6381660470838,1387.8562577447278
-1908.3023543990005,-1437.4225526641833,1644.981412639396
-3748.4510532837539,-207.55885997521534,3073.1102850061889
-1081.1648079306017,-3413.8785625774326,5294.2998760842402
-5108.426270136295,1716.2329615861167,817.84386617099403
-2521.6852540272553,-573.11028500619238,1911.4002478314692
-6133.8289962825129,2066.2949194547664,653.65551425030628
-656.75340768276976,-2512.3915737298557,3150.5576208178263
-3029.739776951662,628.87236679058276,2561.9578686493091
-4863.692688971485,-223.04832713754635,1505.5762081784289
-2453.5315985130023,-1025.4027261462204,771.37546468400853
-350.06195786864345,-2425.6505576208074,2295.539033457238
-5068.1536555142347,-848.82280049565998,4913.2589838909362
-4854.3990086740869,1152.416356877321,2329.6158612143622
-4702.6022304832586,882.89962825278462,1344.4857496902034
-4872.9862905493401,1301.1152888673544,2149.938073619137
-4941.1400247831352,-1105.9479553903309,3522.3048327137449
-2323.4200743494339,-700.12391573729496,2645.600991325889
-4597.2738537794166,1682.1561338289905,1270.1363073110226
-3141.2639405204327,-1099.7521685253976,4349.4423791821464
-2620.8178438661585,399.6282527881059,40.272614622053148
-5554.5229244113816,3482.0322180916878,830.23543990085989
-2840.7682775712428,-3392.1933085501764,5687.7323420074208
-3550.1858736059366,-1167.9058240396535,3348.8228004956536
-3503.7174721189463,-535.93556381660267,2741.6356877323306
-1161.710037174714,-573.11028500619602,470.87980173481657
-3677.1995043370348,1545.8488228004965,1861.8339529120133
-1843.2465923172181,-1490.0867410161056,1632.5898389095373
-737.29863692688264,-2382.2800495662855,3726.7657992564918
-6304.2131350681357,3863.073110284995,356.25774473357507
-4668.525402726128,3385.9975216852472,954.15117719949865
-2599.1325898388977,1325.8983890954144,2016.7286245353068
-3079.3060718711167,-1112.1437422552588,4182.156133828983
-2019.8265179677742,-3875.464684014858,4888.475836431212
-1127.6332094175827,2242.8748451053266,2521.6852540272575
-3926.6392312941848,892.32596279921654,478.53635761226406
-1403.3457249070589,-3618.3395291201859,3023.5439900867254
-1508.6741016108979,-306.69144981412558,1815.3655514250247
-3506.8153655514111,-241.63568777024142,2283.1474597273791
-2630.1115241635634,-2311.0285006195763,2208.7980173481942
-585.50185873605596,-4879.1821561338165,4925.6505576208028
-5511.1524163568638,-415.11771995043665,315.98513011151402
-3413.878562577434,1050.1858736059487,1995.0433705080463
-1957.8686493184525,-145.6009913258944,1995.0433705080468
-3884.7583643122521,1589.2193308550159,1359.9752168525358
-2094.1759603469541,-907.6827757125111,3085.501858736046
-4724.2874845105152,2196.4064436183353,3004.9566294919346
-3475.836431226754,226.14622057001364,3385.997521685249
-1332.0941759603395,-659.85130111523711,1598.5130111524015
-768.27757125154517,-1205.0805452292391,1598.513011152412
-4408.3023543989939,2199.5043370507992,1078.0669144981366
-4826.5179677818905,3243.4944237918157,1158.6121437422523
-3454.1511771994915,1375.4646840148685,638.16604708797968
-2270.7558859975134,486.36926889715153,1719.3308550185816
-5833.3333333333157,-1675.9603469640629,3246.5923172242706
-1561.3382899628173,-2788.1040892193241,2001.2391573729749
-1381.6604708797943,-2047.7075588599703,449.19454770755158
-4343.2465923172131,1555.1425030978908,2970.8798017348181
-5374.8451053283588,-1679.0582403965273,4845.1053283766896
-5021.6852540272457,-1009.9132589838892,412.0198265179626
-3342.6270136307335,-1239.1573729863801,2242.8748451053102
-2372.9863692688859,21.685254027261337,1861.8339529120144
-3921.9330855018534,-3187.7323420074299,492.56505576207195
-2509.293680297385,1006.8153655514278,2069.3928128872303
-3039.0334572490588,328.37670384138886,2035.3159851301079
-1471.4993804213052,-1806.0718711276247,2372.9863692688873
-4141.8835192069228,675.34076827757008,3008.0545229244044
-4287.484510532825,-1171.0037174721137,2199.5043370507988
-5969.6406443618152,1567.5340768277497,-1084.2627013630797
-2013.6307311028393,-2530.978934324648,4222.4287484510414
-5012.3915737298476,2255.2664188351837,1421.9330855018529
-2174.7211895910705,-641.26394052044213,1031.5985130111492
-718.71127633208982,-4680.9169764560011,3841.3878562577315
-5879.801734820302,2797.3977695167246,2190.2106567533992
-3150.5576208178354,1006.8153655514238,1719.3308550185827
-4426.8897149937884,2537.1747211895845,969.64064436182809
-3224.9070631970117,-5099.1325898388914,7069.3928128872185
-3835.1920693928046,198.26517967782127,2400.8674101610814
-715.61338289962293,-1273.2342007434879,3221.8091697645546
-1146.2205700123825,-824.03965303593361,2592.936802973973
-2657.9925650557511,-3243.4944237918126,4532.2180916976286
-2016.7286245353057,-1440.5204460966509,3630.7311028500499
-3763.9405204460818,-74.34944237918269,2503.097893432458
-2908.9219330854935,-99.132589838908245,2214.9938042131284
-3584.2627013630604,356.25774473358149,3788.7236679058096
-2255.2664188351846,-495.6629491945418,1412.6394052044534
-5563.8166047087807,-170.38413878562665,3283.7670384138623
-3940.5204460966402,1050.1858736059462,1068.7732342007409
-2719.9504337050716,-783.76703841387553,2530.978934324653
-2236.6790582403855,-827.13754646839766,2496.9021065675256
-2583.643122676569,-2214.9938042131262,5424.41140024782
-2091.0780669144942,-2868.6493184634355,2022.9244114002358
-2651.7967781908214,-2834.5724907063127,3599.7521685253882
-2812.8872366790506,731.10285006195727,1586.1214374225449
-1734.8203221809094,-1864.9318463444786,2385.377942998748
-3760.8426270136169,-1902.1065675340692,5325.2788104089077
-2738.5377942998684,-1728.6245353159786,4216.232961586109
-2627.0136307310959,1335.1920693928109,932.46592317223963
-4885.3779429987471,-1152.4163568773199,3584.2627013630563
-2499.9999999999873,-458.48822800495265,4011.7719950433598
-1468.401486988842,-1279.4299876084197,3832.0941759603311
-2044.6096654274993,746.59231722428547,2066.2949194547623
-5610.2850061957697,-27.881040892196655,811.6480793060656
-3432.4659231722339,-1595.4151177199481,1449.8141263940392
-4278.1908302354259,-3122.6765799256427,3209.4175960346834
-2419.4547707558772,-1694.547707558856,1595.4151177199456
666.04708798017634,-3401.4869888475678,2292.4411400247777
-3946.716232961574,594.79553903345732,3215.6133828996176
-3153.6555142503003,-1799.8760842626991,306.69144981411785
-1201.9826517967722,-4114.0024783147337,4798.636926889696
-1115.2416356877218,-24.783147459722418,2608.4262701362973
-2298.6369268897051,226.14622057001293,1291.8215613382818
-3674.1016109045704,2221.1895910780659,585.50185873605142
-4965.9231722428585,-337.67038413878032,4622.0570012391445
-2602.2304832713648,-2639.4052044609571,3770.1363073110178
-4265.7992565055629,557.79717616687492,3286.8649318463335
-4944.2379182155964,-684.63444857496734,4433.0855018587254
-3128.8723667905697,-1617.1003717472074,2193.3085501858623
-2289.3432465923092,-563.81660470879558,786.86493184634014
-2230.4832713754572,235.43990086741144,864.31226765798885
-4104.7087980173355,1279.4299876084219,3921.9330855018516
-5223.0483271375315,2156.1338289962782,2097.2738537794216
-2329.615861214364,2193.3085501858723,1979.553903345721
-2952.2924411400131,-1929.9876084262655,4640.6443618339354
-2487.6084262701261,-1567.5340768277524,1254.6468401486893
-5334.5724907063004,1620.1982651796723,2890.3345724906931
-2794.2998760842552,-3289.9628252788002,2273.8537794299764
247.83147459727923,-3965.303593556368,3822.8004956629361
-1298.0173482057983,-2267.6579925676338,4135.6877323394092
-4643.7422552664011,2208.798017348201,473.97769516727959
-4005.5762081784287,-1610.904584882277,1685.2540272614531
-1208.1784386605682,-1775.0929368015068,2010.5328376730324
-5839.5291201982491,3159.8513011152331,1477.695167286239
-1626.3940520446024,-37.174721189591089,1970.2602230483233
-3488.2280049566202,-1762.7013630731076,1685.2540272614551
-2735.4760202315024,-978.97487375666935,396.45232789921835
-4244.1140024783008,-1322.8004956629463,1459.1078066914417
436.80297397770272,1251.5489467162356,1688.351920693922
-2428.7484510532749,1043.9900867410122,1366.1710037174644
-1706.939281288714,-3884.7583643122557,4959.7273853779279
-371.74721189590724,-4597.2738537794212,61.957868649311386
-3122.6765799256386,597.89343246592421,511.15241635687181
-1877.3234200743427,-901.48698884757823,3677.1995043370416
-2908.9219330854917,-539.03345724906694,1394.0520446096534
-5170.3841387856082,1387.856257744734,3212.5154894671491
-3912.6394052044448,198.26517967782408,4014.8698884758242
-944.85749690210389,-4950.4337050805325,4999.9999999999845
-2475.2580103663995,-2215.0032544507931,3888.4016903052902
-3677.1995043370371,-269.51672862453495,2862.4535315985022
-2936.8029739776844,-697.02602230482751,2456.6294919454681
-4557.00123915736,848.82280049566054,2202.6022304832613
-4919.454770755875,796.15861214374183,2654.8946716232904
-1034.6964064436115,-3097.8934324659144,3717.4721189590973
-4866.7905824039508,297.39776951673048,3023.5439900867309
-3181.5365551424961,-1452.9120198265134,151.79677819082289
-5966.542750929355,1737.9182156133779,2369.888475836422
-2010.5328376703778,-1096.6542750929343,2286.2453531598394
-4656.1338289962687,-975.83643122676153,4897.7695167286083
-4098.5130111523968,-3317.8438661709965,926.27013630729698
-1378.5625774473258,-3178.4386617100249,3794.9194547707439
-5706.3197026022153,1933.085501858729,1276.3320941759532
-1527.2614622056929,-260.22304832713507,1926.8897149937984
-1322.8004956629391,157.99256505576503,1192.6889714993738
-3878.5625774473215,1375.4646840148689,2862.4535315985067
-1499.3804213134938,-715.61338289962089,3931.2267657992443
-3986.9888475836292,-1121.4374225526594,3463.4448574968887
-2704.4609665427388,1130.7311028500608,1973.3581164807842
-2611.5241635687603,-650.55762081783951,2208.7980173481965
-2100.3717472118929,-4767.6579925650422,4776.9516728624358
-1319.7026022304783,-3441.7596034696271,1694.5477075588512
-4773.8537794299755,672.24287484510535,2834.5724907063113
-2273.8537794299818,-2555.762081784379,2834.5724907063072
-3020.4460966542606,1025.4027261462206,3379.8017348203152
-3355.0185873605806,2329.6158612143695,2283.14745972738
-4330.8550185873428,3878.5625774473283,-167.28624535316104
-2469.0210656753261,697.02602230483365,2177.8190830235367
-3767.0384138785489,-1217.4721189591041,2165.4275092936691
-4783.1474597273655,-2214.9938042131271,5219.9504337050612
-3782.5278810408809,219.95043370507923,2524.7831474597201
-4969.0210656753216,839.52912019826181,610.28500619577437
-4857.4969021065554,-1248.4510532837687,2803.5935563816474
-2270.7558859975147,-1691.4498141263894,3528.5006195786777
-1459.1078066914445,188.97149938042276,1127.6332094175914
-3624.5353159851152,418.21561338290303,2921.313506815357
-3742.2552664188211,-98.323328636520159,3088.599752168519
-377.94299876084045,-978.93432465922569,1617.100371747204
-4693.3085501858668,-3485.1301115241617,1387.8562577447249
-1830.8550185873535,-1415.7372986369203,2642.5030978934196
-3832.094175960337,-2032.2180916976395,257.12515489466426
-1561.3382899628191,957.24907063196792,-306.69144981412643
-4687.1127633209217,-966.54275092936462,4755.2664188351773
-1759.6034696406343,-148.69888475836026,2561.9578686493087
-3587.3605947955298,-254.02726146220473,1561.3382899628168
622.67657992565159,-3680.2973977695056,3596.654275092922
-2580.5452292441032,-2630.1115241635621,1644.9814126393958
-1679.0582403965175,-89.838909541509665,1112.1437422552624
-2657.9925650557511,-291.20198265179073,3178.4386617100249
-4222.4287484510432,-2115.8612143742239,1747.2118959107729
-4402.1065675340587,2698.2651796778127,2400.8674101610777
-4473.3581164807747,213.75464684014989,3218.7112763320811
-390.3345724907021,-3438.6617100371641,3379.8017348203107
-5009.2936802973882,-319.08302354399268,161.09045848821964
-3863.0731102849904,-814.74597273853067,4092.3172242874721
-3001.8587360594693,-532.83767038413635,3252.7881040892057
-4693.3085501858568,1524.1635687732307,3240.3965303593459
-1003.7174721189565,-4622.0570012391436,3574.9690210656618
-3048.3271375464556,588.59975216852717,2506.1957868649201
-470.87980173481697,-920.07434944237457,1245.3531598512907
-3463.4448574968901,-1889.7149938042076,2270.7558859975138
-1359.9752168525288,-377.94299876083443,3562.5774473358078
-3599.752168525396,-901.48698884758426,164.18835192068775
-2239.7769516728572,-5176.5799256505461,2967.7819083023405
-3677.1995043370393,1304.2131350681484,-861.21437422553004
-2478.3147459727234,154.8946716233007,2611.5241635687657
-1579.9256505576145,195.16728624535358,2710.6567534076753
-3339.5291201982564,-820.9417596034715,2326.5179677819006
-4811.0285006195627,2416.3568773234147,1440.5204460966463
-3798.0173482032078,2933.7050805452232,3339.5291201982554
-3813.5068153655393,1756.5055762081745,127.01363073109793
-4203.8413878562405,272.61462205700258,3890.9541511771899
-4495.0433705080413,3187.7323420074304,2146.840148698881
-777.57125154894061,-1672.8624535315944,1502.4783147459655
-4829.6158612143572,-514.25030978934103,2707.5588599752041
-2338.9095415117636,-1140.0247831474571,1945.4770755885943
-3039.0334572490633,-1542.7509293680262,1040.8921933085426
-4324.6592317224149,-607.18711276331817,2323.4200743494275
-2596.0346964064333,-1263.9405204460916,1868.0297397769402
-2159.2317224287403,-2908.9219330854917,3627.6332094175832
-3141.2639405204332,-2772.6146220569931,5365.5514250309625
-4383.5192069392679,3184.6344485749628,523.54399008673522
-3119.5786864931747,-142.50309789343163,2568.1536555142466
-3866.171003717458,-1161.7100371747154,5362.4535315984949
-2918.2156133828889,-43.370508054521544,3553.2837670384069
-2205.700123915728,-1604.7087980173435,1657.3729863692629
-2812.8872366790465,1090.4584882280044,907.6827757125086
-3125.7744733581071,-532.83767038413725,1428.1288723667806
-2577.4473358116397,-969.64064436182889,2828.3767038413753
-4597.2738537794121,1762.7013630731101,2713.7546468401406
-5065.055762081769,-235.43990086740715,4473.3581164807747
-2038.4138785625662,-229.24411400247374,1951.6728624535162
-3277.5712515489327,-1059.4795539033428,446.09665427508259
-2877.9429987608332,99.132589838910917,3029.7397769516597
-2506.1928563926522,-991.32191189077719,1462.2112178599896
-4972.11895910779,-449.19454770755931,2044.6096654274991
-5192.0693928128676,1288.7236679058235,2286.2453531598421
-3568.7732342007289,-2019.8265179677733,5830.2354399008518
-647.45972738537114,-2970.8798017348095,3556.3816604708709
-2630.1115241635575,-802.35439900867073,3317.8438661709943
-2942.9987608426168,-117.71995043370386,2527.8810408921809
-3903.3457249070539,687.73234200743207,820.94175960346638
-3370.5080545229148,1229.8636926889699,309.7893432465824
-1610.9045848822711,-3537.7942998760755,3928.1288723667803
-1595.4151177199476,-2670.3841387856128,3599.7521685253978
-4414.4981412639236,851.92069392812414,1347.5836431226678
-3584.2627013630599,765.17967781908465,2499.9999999999877
-2267.6579925650462,600.99132589839041,1319.7026022304719
-4934.944237918201,1728.624535315982,2874.8451053283688
-5545.2292441139844,3200.1239157372925,1899.0086741015975
-3054.5229244113866,-1781.2887236679021,2091.0780669144883
-5232.3420074349324,947.95539033456919,1022.3048327137482
-4151.1771995043264,-350.06195786864839,3522.3048327137426
-3317.8438661709938,15.489467162334391,3348.8228004956541
-1285.6257744733509,-715.613382899621,2630.1115241635589
-3416.9764560098997,-356.25774473357518,4092.3172242874721
-3162.9491945476948,1496.2825278810399,1477.6951672862381
-1821.5613382899558,-2267.6994600428943,3358.1164807930513
-2673.4820322180785,232.34200743494551,2967.7819083023446
-4123.2961586121264,755.8859975216825,2149.9380421313381
-579.30607187112378,-2679.6778190830173,2586.7410161090334
-3097.8934324659131,-1691.4498141263905,-315.98513011153273
-4510.5328376703692,-1310.4089219330806,4389.7149938041985
-2801.878530743983,80.545229244111653,2414.9740095286106
-2438.0421313506722,27.88104089219588,-269.51672862454177
-5427.509293680283,-173.48203221809209,2112.7633209417445
-3664.8079306071759,-3218.7112763320852,5975.8364312267468
-3070.0123915737195,545.22924411400459,3928.1288723667831
-2654.8946716232863,-563.8166047087941,3203.2218091697541
-5015.4894671623151,703.22180916976151,774.47335811647258
-1301.1152416356801,-1006.8153655514207,2239.7769516728558
-647.45972738537409,-2472.1189591077964,2828.3767038413725
-4467.162329615845,1378.5625774473344,535.93556381659994
-2363.6926889714896,-418.21561338289837,1465.3035935563739
-535.93556381660039,-2602.2304832713689,3131.97026022304
-3903.3457249070511,-1242.2552664188313,4120.1982651796661
-5458.4882280049387,4188.35192069392,1598.5130111524081
-3921.9330855018438,120.81784386617338,3537.7942998760723
-2153.0359355638116,-2534.0768277571246,-192.06939281289516
-2527.8810408921795,-433.70508054522594,2586.7410161090379
-6387.8562577447165,1059.4795539033425,2589.8389095414996
-5015.4894677884186,-520.44609726970543,4138.7856253191103
-2887.2366790582305,-1310.4089219330815,709.41759603468734
-960.34696406442515,-1493.1846344485655,1694.5477075588517
-3351.9206939416254,-1276.3320941897521,-427.50929368943923
-5560.7187112763131,669.14498141264062,3283.7670384138678
-3280.6691449813993,-133.20941759603232,2512.3915737298544
-4764.5600991325746,647.45972738537841,3937.4225526641808
-1418.835192069381,-154.8946716232893,4250.3097893432332
-4941.1400247831307,1384.7583643122637,3004.9566294919368
-4541.5117719950258,2794.2998760842588,724.90706319702088
-2788.1040892193168,-1257.7447335811573,3017.3482032218003
-3754.6468401486891,-1186.4931846344462,3705.0805452292329
-2010.5328376703737,427.50929368029921,1542.7509293680289
-3404.5849498945504,1232.961051268541,1149.3182592755361
-3652.4163568773147,-2106.567534076823,1236.0594795538932
-2763.320941759594,-1270.1363073110276,3209.417596034687
-2081.7843866170888,1657.3729863692683,55.762081784385849
-2342.0074349442248,1356.877323420073,662.9491945476999
-3302.3543990086628,-703.22180916975969,3912.6394052044493
-2236.6790582403883,-1929.9876084262603,4798.6369268897033
-1793.680297397759,377.94299876084551,244.73358116480347
-3537.79429987607,1508.6741016109015,1694.5477075588524
-814.74597273853237,-1291.8215613382861,1112.1437422552601
-7177.8190830235262,1579.9256505576168,2837.6703841387766
-1818.4634448966935,-148.69888480031869,1917.5960346792058
-1948.57496902106,1706.9392812887208,1778.1908302354368
-3497.5216852540184,-3776.3320941759462,5944.8574969020847
-2072.4907063196965,-1372.3667905823984,1347.5836431226664
-3190.830235439887,-164.18835192069042,3091.6976456009806
-4197.6456009913081,-99.132589838907265,2385.3779429987535
-3516.1090458488129,-433.70508054523037,1858.7360594795502
-1768.8971499380348,-2785.0061957868561,4553.9033457248888
238.53779429987864,-1006.8153655514162,2450.4337050805402
495.66294919454748,-5089.838909541495,3215.613382899613
-4488.8475836431089,2558.8599752168489,2329.6158612143622
-2862.4535315985045,-2633.2094175960251,3587.3605947955248
-3946.716232961573,-724.90706319702224,3333.333333333323
-1824.6592317224206,-2075.5885997521623,1198.8847583643028
-1672.8624535315903,-1415.7372986369242,1527.2614622056917
-662.84912692607759,-1170.8207148948013,1365.6612265773574
430.60718711276354,-3454.1511771994942,3057.6208178438528
-1936.1833952911902,-238.53779429987273,3757.7447335811516
-2484.5105328376644,-2227.3853779429942,2791.2019826517871
-1539.6532428689291,-2757.1253779366189,3609.0455687812191
-2298.6369268897074,1006.8153655514263,2527.8810408921877
-3063.8166047087834,-238.5377942998723,2400.8674101610814
-3407.6827757125043,-2472.1189591078019,-433.70508054523236
-3983.8909541511612,1078.0669144981396,2354.3990086740946
-5672.2428748450893,635.06815365551188,1663.5687732341933
-2292.4411400247768,-188.9714993804179,2574.3494423791744
-4222.4287484510351,-1009.9132589838844,3894.0520446096484
-3317.8438661709947,520.44609665427697,2905.82403965303
-3785.625774473348,-136.30731102849765,1629.4919454770693
-4996.9021065675242,2908.9219330854921,1195.7868649318391
-1542.7509293680243,-2933.7050805452204,3993.184634448558
-1177.1995043370443,-2242.8748451053202,3066.9144981412533
-1276.3320941759532,-3265.1796778190728,2118.9591078066828
-966.54275092936314,-1787.4845105328322,1226.765799256498
-3162.9491945476962,858.11648079305905,1700.7434944237841
-2428.7484510532713,1493.1846344485728,2035.3159851301045
-3943.6183395291059,-2385.3779429987535,3203.2218091697459
-2558.8599752168416,-963.44485749689738,4281.2887236678907
-1617.1003717471983,-1115.2416356877286,2899.6282527880976
-4364.9318463444715,-2311.0285006195718,4584.8822800495509
-3004.9566294919387,-3293.0607187112687,2388.4758364312152
-5275.7125154894502,1047.0879801734786,2778.8104089219241
-3184.6344485749564,-3949.8141263940361,5591.6976456009706
-3156.7534076827642,-1679.0582403965248,4154.2750929367839
-3643.1226765799156,1301.1152416356836,2465.9231722428672
-4767.6579925650422,-1288.7236679058155,4284.3866171003592
-3816.6047087980082,1009.913258983889,2066.2949194547637
-5554.5229244113807,-61.957868649318108,2196.4064436183244
-3571.8711276332019,-241.63568773234113,2453.531598513006
-4309.1697645600843,1431.2267657992525,2332.7137546468325
-2902.7261462205611,-1149.3184634448548,2159.2317224287385
-3413.8784894983687,-1895.9107075900688,4684.0149429675312
-4110.9045848822661,814.74597273853715,2097.2738537794203
-1970.260223048316,901.48698884758267,889.09541511771158
-2843.8661710037068,-393.4324659231691,1864.9318463444829
-6592.317224292523,2444.2379182066929,1087.3605947900794
-3240.3965303593423,-381.04089219331019,-260.22304832714394
-3076.2130777267989,-585.50721166199605,2964.6822003187121
-1688.3519206939181,666.04708798017407,2323.4200743494389
-3940.5204460966411,-1864.9318463444786,4944.2379182155964
-4789.3432465923088,1034.6964064436156,1009.913258983886
-1071.8711276332044,-1102.8500619578642,2376.0842627013544
-2803.5935563816497,-374.84510532837231,4092.3172242874734
-4823.4200743494248,-315.98513011151886,1762.7013630730983
-4533.0928020389447,-189.869028252379,2188.8947881529862
-1384.7583643122618,-2041.5117719950365,2044.6096654274995
-1601.6109045848741,145.60099132589636,1576.8277571251481
-2345.105328376701,-2338.9095415117663,3711.2763320941672
-5898.3890954151002,154.8946716232966,3166.0470879801605
-2475.2168525402631,439.90086741016114,1456.0099132589773
-3940.5204460966388,1706.9392812887193,1936.1833952911968
-4572.4907063196824,114.62205700124152,2654.8946716232799
-2267.6232435619495,-542.09385833608383,876.76099435347214
-6034.6964064435961,3333.3333333333258,2391.573729863685
-2695.1672862453393,-2726.1462205700059,4705.7001239157207
-3150.5576208178359,-2193.3085501858686,3506.8153655514143
-1821.5613382899578,-638.16604708797661,576.20817843865552
-2351.3011152416252,142.5030978934314,1152.4163568773158
-3872.36679058239,1524.1635687732321,1245.3531598512932
-4758.3643122676449,1319.7026022304801,1771.9950433704998
-799.25650557620372,-2918.2156133828921,2868.6493184634328
-2871.747211895899,-1425.0309789343169,4160.4708798017227
-3364.3122676579801,436.80297397769613,1177.1995043370416
-783.76703841387553,-1728.6245353159793,2286.2453531598408
-3568.7732342007284,526.64188351920973,1973.3581164807838
-4017.9677819082858,-1394.052044609663,4532.2180916976295
-3664.8079306071759,2211.895910780665,-105.32837670384349
-3928.1288723667776,-1251.5489467162299,1040.8921933085426
-4126.3940520445949,830.23543990086773,4216.2329615861063
-3934.3246592317105,1443.6183395291175,2840.7682775712456
-2806.6914498141155,-2475.2168525402685,2394.6716232961476
-1954.7707558859893,-2716.8525402726054,3980.7930607186972
-1245.3531598512959,-4042.7509293680173,2723.0483271375338
-4609.6654275092769,1003.7174721189587,2729.2441140024689
-2682.7757125154817,-2239.7769516728567,1214.3742255266322
-4479.5539033457071,-498.76084262700823,4033.4572490706169
-5142.5030978934155,1697.6456009913252,2360.5947955390247
-2270.7558859975147,-2936.8029739776857,3968.4014869888333
-3581.1648079305933,-579.30607187112787,1226.7657992565005
-4563.1970260222879,1567.5340768277515,-805.45229244114319
-889.09541511771533,-3221.8091697645505,2122.0570012391504
-1527.2614622056951,-4027.2614622056899,1756.5055762081663
-4941.1400247831389,1180.2973977695117,1409.5415117719865
-3581.1648079305905,-1124.5353159851236,3937.4225526641758
-4213.1350681536396,2366.7905824039622,1635.6877323420028
359.35563816604963,-2304.8327137546389,2973.9776951672766
-2939.9008674101506,-5520.446096654262,4758.3643122676385
-5703.2218091697487,1623.2961586121403,1406.4436183395198
-2503.0978934324594,-706.31970260222727,-179.67781908302891
-3646.2205700123795,154.89467162329817,3045.2292441139939
-4386.6171003717327,2230.4832713754613,2134.4485749690148
-1954.7707558859861,-1474.5972738537776,1474.597273853771
-2060.0991325898308,-1536.5551425030949,2831.4745972738401
-4999.9999999999882,1394.0520446096571,498.7608426270051
-2636.3073110284895,-346.96406443618076,2692.0693928128844
-1840.1486988847498,-2623.9157372986278,3949.8141263940397
-6415.7372986369091,3289.9628252788025,923.1722428748393
-3119.5786864931711,824.03965303593475,111.52416356876812
-1431.2267657992491,-1372.3667905824002,2134.4485749690143
-3497.5216852540175,-892.19330855018575,2503.0978934324567
-1226.7657992564991,-2298.6369268897083,1254.6468401486934
-1062.5774473358049,-2128.252788104081,2611.524163568763
-3026.6418835191976,377.94299876084142,-591.69764560099793
-2592.9368029739685,-700.12391573729792,2617.7199504337
-3562.5774473357978,-92.936802973977919,2599.1325898389014
-1322.8004956629413,-1013.0111524163502,1279.4299876084169
-2506.1957868649238,-315.98513011152289,1232.9615861214324
-6607.8066914497913,3627.6332094175887,1192.6889714993747
-4801.7348203221663,-529.73977695166855,2035.3159851300977
-3587.3605947955284,-1338.2899628252744,3828.9962825278712
-5096.034696406432,-706.31970260222988,2317.2242874845006
-1071.8711276332037,-2967.7819083023437,2255.2664188351805
-2710.6567534076712,-631.97026022304522,2326.5179677818983
-3956.0099132589703,117.71995043370667,2837.6703841387744
-2357.496902106554,-40.272614622053574,2983.2713754646707
-4166.6666666666533,675.34076827757065,1118.3395291201873
-7053.9033457248861,4114.0024783147337,-142.50309789343822
-4027.2614622056885,-4482.6517967781783,4600.3717472118797
-2912.019826517957,-796.15861214373956,3001.8587360594688
-1071.8711276332026,-594.79553903345345,613.38289962825024
-2255.2664188351828,-1431.2267657992513,2221.1895910780577
-3333.3333333333258,-855.01858736059717,975.83643122676244
-2558.8599752168452,-1465.3035935563764,820.94175960346149
-1778.1908302354302,-1716.2329615861163,123.91573729863009
-3828.9962825278653,771.37546468401399,3299.2565055762016
-2549.5662949194475,43.370508054525907,2577.4473358116393
-3869.268897149926,-61.95786864931744,3813.506815365537
-3881.6604708797868,1998.1412639405166,3070.012391573724
-2255.2664188351841,-1496.282527881034,3550.1858736059376
-2881.0408921932985,-2202.6022304832686,2726.1462205700013
-2332.713754646833,-2881.0408921932999,4544.6096654274925
-4417.5960346963939,-653.65551425030958,932.46592317223553
-3556.3816604708677,-951.05328376703437,2952.2924411400122
-2140.6443618339417,-2264.5600991325819,4002.4783147459611
-2695.1672862453438,-957.24907063196599,3206.3197026022185
-2846.9640644361698,-619.57868649317868,2317.2242874845015
-5793.0607187112546,-619.578686493183,4352.5402726146085
-2351.3011152416261,-213.7546468401485,374.84510532836885
-4947.3358116480649,-1759.6034696406423,2692.0693928128712
-2001.2391573729783,-2837.6703841387762,3519.2069392812768
-3188.838644591824,967.64705263728217,1779.6160335516654
-3373.6059479553746,-830.23543990086205,5127.0136307310895
-1688.3519206939204,-1691.4498141263887,3540.8921933085367
-3004.9566294919327,-2760.2230483271269,6384.7583643122534
-1236.0594795538943,-2707.5588599752082,5424.4114002478127
-2812.8872366790497,-4578.6864931846258,5099.1325898388868
-1762.7013630730971,-1022.3048327137485,2156.1338289962746
-1917.5960346963918,635.06815365551313,2221.1895910780572
-4241.0161090458332,-1929.9876084262623,5517.3482032217908
-4064.4361833952739,1558.2403965303588,1617.1003717472024
-3643.1226765799129,-548.3271375464642,1542.7509293680218
-1586.1214374225485,-1942.3791821561304,780.66914498140613
-3258.9838909541459,-2754.027261462199,2586.7410161090388
-2022.9244114002422,-4055.1425030978808,3286.8649318463285
-5040.2726146220421,2094.17596034696,1437.4225526641835
-3785.6257744733466,-374.84510532837459,3460.3469640644221
-1155.514250309785,-3404.5848822800376,3277.5712515489336
-3925.0309789343114,-1635.6877323419999,3825.8983890954019
-3587.3605947955298,195.16728624535273,2242.8748451053179
-932.46592317223963,-1099.7521685253998,2565.0557620817749
-4560.0991325898285,-1013.0111524163536,4197.6456009913118
-1762.7013630731003,-1868.0297397769411,3088.5997521685149
-4368.0297397769391,1998.1412639405178,2778.8104089219214
-3317.1897854137474,-582.81649101783705,2637.9782407127782
-2230.4832713754499,-74.349442379179436,830.23543990086603
740.39653035935703,-4944.2379182155973,3977.6951672862315
-2831.4745972738474,-941.75960346963825,402.72614622056386
-700.12391573729417,-3231.1028500619445,960.34696406442538
-5920.0743494423577,1031.5985130111505,1239.1573729863612
-1143.1226765799208,-4014.8698884758282,5195.1672862453333
-2723.0483271375397,-1164.8079306071847,1164.8079306071761
-2143.7422552664125,-2388.4758364312183,3370.5080545229107
-3026.6418835191962,337.67038413878618,405.8240396530324
-975.83643122675846,-4501.2391573729719,1682.1561338289866
-966.54275092936302,-3959.1078066914374,3587.360594795528
-2704.4609665427424,-1387.8562577447281,1208.1784386617046
-4993.8042131350503,-396.53035935563815,4070.6319702602104
-2667.286245353152,-1087.3605947955361,2676.5799256505511
-2884.1387856257606,-573.11028500618909,5139.4052044609489
-1087.360594795533,-5467.7819083023369,5244.7335811647936
-982.0322180916927,-2915.1177199504273,2311.0285006195686
-4188.3519206939191,312.88723667905248,328.37670384138687
-4894.6716232961453,-1000.6195786864919,2781.9083023543885
-4711.8959107806513,250.92936802973759,1830.8550185873507
-2667.286245353147,2741.6356877323365,1093.5563816604697
-2682.7757125154767,-356.25774473357842,2571.2515489467096
-2747.8314745972611,405.82403965303308,-622.67657992565944
-1638.7856257744647,-1861.833952912013,2311.0285006195718
-2859.3556381660405,-1282.5278810408884,2651.7967781908228
-864.31226765798624,-1771.9950433704967,2332.7137546468284
-1902.1065675340699,-2416.3568773234124,1775.0929368029649
-3918.8351920693844,-3906.4436183395223,2159.2317224287358
-5542.1313506815195,2063.1970260223029,966.54275092935632
-3014.2503097893305,588.59975216852649,1545.8488228004849
-2695.1672862453452,-2803.5935563816529,1477.6951672862378
-5672.2428748450866,1976.4560099132557,2927.5092936802885
-5446.0966542750739,560.71871127632892,895.29120198264093
-1933.085501858729,-2221.1895910780572,3004.9566294919368
-3147.4597273853719,-3751.5489467162265,3039.0334572490619
-3085.5018587360505,83.643122676583488,136.30731102849299
-3212.5154894671532,-1474.5972738537753,2032.218091697634
-4045.8488228004821,374.84510532837527,3773.2342007434831
-3534.6964064436083,2323.4200743494403,867.41016109045484
-2995.6629491945359,46.468401486991354,2778.8104089219228
-1703.841387856246,-1390.954151177192,3410.7806691449646
-2908.9219330854935,480.17348203221712,2016.7286245353052
-2636.3073110284927,-1443.6183395291146,4148.079306071857
-3856.8773234200617,-368.64931846344194,3671.0037174721001
-1685.2540272614565,-1601.6109045848766,3324.0396530359212
-1208.1784386617069,-5065.0557620817681,2549.5662949194402
-542.13135068153281,-4990.70631970259,2072.4907063196865
-2218.0916976455924,-1124.5353159851268,2307.9306071871033
-5226.1462205699954,2534.0768277571151,2478.3147459727315
-1561.3382899628173,-1006.8153655514227,300.49566294919032
-4491.9454770755729,-584.09770345257039,4764.5600991325782
-4064.4361833952785,30.978934324658297,3559.4795539033335
-2394.6716232961489,653.65551425031072,2332.7137546468325
-3308.5501858735934,-1140.0247831474549,2583.6431226765681
-3497.5216852540143,876.70384138785528,3339.5291201982554
-1806.0718711276265,-2342.0074349442289,4126.3940520445994
-4693.3085501858568,1263.9405204460954,4262.7013630730953
-4138.7856257744597,-1065.6753407682747,4460.9665427509126
-2964.6840148698761,-2942.9987608426159,4083.0235439900707
-3274.4733581164733,1056.3816604708757,1564.4361833952867
-4631.3506815365427,-780.66914498140852,4625.1548946716048
-2754.0272614621949,-1985.7496902106552,2314.1263940520371
-2094.1759603469573,-2670.3841387856191,2311.0285006195686
-1960.9665427509251,-2252.1685254027188,2667.2862453531538
-4479.5539033457026,3739.1573729863649,2097.2738537794248
-2190.2106567533997,-3100.9913258983834,1093.5563816604604
-3339.5291201982504,1548.946716232959,1462.2057001239102
-21.68525402725458,706.31970260223329,2754.0272614621999
49.566294919457782,-4073.7298636926757,3856.8773234200594
-4098.5130111524013,1214.3742255266425,2413.2589838909466
-2214.9938042131239,-1824.6592317224229,3835.1920693927982
-5312.8872366790383,1951.6728624535267,1796.7781908302279
-3627.6332094175827,-1675.9603469640595,4699.5043370507901
-3262.0817843866066,-71.251548946718231,-170.3841387856358
-2803.5935563816479,579.30607187112844,1951.6728624535274
-2719.9504337050694,139.40520446096954,2022.9244114002411
-3265.1796778190701,-2112.7633209417563,3528.5006195786705
-2537.1747211895818,-105.32837670384124,982.03221809169474
-3045.2292441139894,-563.8166047087941,3952.9120198265077
-5021.6852540272494,1663.5687732341914,-387.23667905824749
-3519.2069392812732,-1186.4931846344437,2444.2379182155978
-2016.7286245353073,1452.9120198265177,3305.4522924411299
-2038.4138785625757,-3624.5353159851215,4383.5192069392679
-3197.0260223048181,1332.0941759603497,3107.1871127633131
-2710.6567534076703,-337.67038413878259,1908.3023543989959
-1877.3234200743382,-768.27757125154426,2338.9095415117622
-3358.1164807930495,-1378.5625774473324,2692.069392812874
-5328.3767038413725,-2568.1536555142447,3293.0607187112614
-2422.552664188343,269.51672862453518,2561.9578686493119
-4067.5340768277438,2100.3717472118915,1025.4027261462177
-2165.4275092936705,-1409.5415117719888,3863.0731102849941
-4411.3991014645235,-12.390446155830624,1604.7096499621657
-3661.7013478906333,-2100.3665478861726,3760.8489659175743
-3469.6406443618234,-3983.8909541511653,5477.0755885997341
-3460.3469640644275,-573.11028500619318,2540.2726146220498
-1923.7918215613292,-3838.2899628252676,4603.4696406443454
-3100.9913258983775,-260.22304832713348,3748.4510532837558
-1465.3035935563762,-390.3345724907021,1899.0086741016
-3138.1660470879665,-1644.9814126393983,4052.0446096654155
-2949.1945477075501,-2202.6022304832663,3646.2205700123773
-6728.6245353159684,3073.1102850061852,-52.664188351928431
-2596.0346964064361,-1706.9392812887197,625.7744733581078
-4194.5477075588478,737.2986369268898,2177.8190830235376
-4182.156133828983,1771.9950433705037,563.81660470879206
-3296.1586121437294,-1201.982651796774,2989.4671623296058
-4820.32218091696,1443.618339529118,1558.2403965303524
-4671.6232961585956,2273.8537794299805,1908.3023543990032
-3097.8934324659144,-238.53779429987765,2490.7063197025914
-3317.8438661709915,-269.5167286245337,2843.8661710037036
-3011.1524163568656,-3609.0458488227891,5139.4052044609498
-2992.5650557620706,1778.1908302354386,1099.7521685254026
-5145.6009913258795,-232.34200743494256,3962.2057001239091
-2967.7819083023446,-1744.1140024783099,3336.4312267657879
-3791.8215613382772,-133.20941759603275,1815.3655514250211
-3720.5700123915603,-1353.779429987605,2233.5811648079198
-4869.8884758364202,1062.5774473358065,2149.9380421313454
-895.29120198264513,-2230.4832713754568,-130.11152416357703
-2729.2441140024675,-991.32589838909087,2323.4200743494321
-1923.7918215613297,-1843.2465923172167,4179.0582403965154
-5659.8513011152236,-1911.4002478314685,3633.8289962825152
-3444.8574969020924,210.65675340768277,780.66914498140272
-2735.4399008674022,-2843.8661710037113,1737.9182156133734
-3828.9962825278667,-1053.2837670384088,3863.0731102849954
-2831.4745972738428,-247.8314745972705,1363.0731102849986
-4414.4981412639299,-1201.9826517967788,241.63568773233411
-715.61338289961907,-1936.1833952911954,2444.2379182156051
-2131.3506815365495,-1124.5353159851236,1409.5415117719863
-5030.9789343246466,374.84510532837555,3447.9553903345618
-3258.9838909541395,96.034696406445192,3500.6195786864828
-3869.2688971499279,-266.41883519206942,2270.7558859975134
-3100.9913226434546,-1449.814122113115,1703.8413945783684
-2115.8612143742166,-2992.5650557620716,4789.3432465923024
-2428.748451053274,-486.3692688971484,1205.0805452292398
-4349.4423791821464,-1019.2069392812853,3135.0681536555071
-2372.9863692688846,-529.73977695166832,3701.9826517967667
-4811.0285006195636,-1644.9814126394008,5260.2230483271187
-1954.7707558859922,-2732.3420074349342,3351.9206939281144
-1765.7992565055665,-1062.5774473358067,2543.3705080545128
-3621.437422552654,585.50185873606074,2918.2156133828962
-3714.3742255266307,71.251548946715602,1415.7372986369171
-3732.9615861214238,901.48698884758232,2506.1957868649265
-3020.4460966542583,-365.55142503097585,4631.3506815365436
-3416.9764560099011,223.04832713754664,1071.8711276332028
-1279.4299876084185,-1056.3816604708729,2679.677819083015
-2927.5092936802857,836.43122676579992,328.37670384138494
-3605.9479553903266,346.96406443618133,2255.2664188351819
-3389.0954151177093,-213.7546468401485,3646.2205700123823
-2537.1747211895818,-1332.0941759603413,2673.4820322180822
-3488.2280049566202,412.01982651796681,1824.6592317224224
-3228.0049566294842,-2097.2738537794257,1369.2688971499235
-4098.5130111524068,-520.44609665427174,1570.631970260217
-5752.7881040891989,-260.22304832713365,6734.820322180899
-2224.2874845105225,-2134.4485749690143,3401.4869888475705
-1338.2899628252726,-966.54275092936371,1759.6034696406361
-5889.0954151177039,-1517.9677819082997,3674.1016109045686
-2032.2180916976322,876.70384138785255,728.00495662948606
-3478.9343246592189,170.38413878562412,3959.1078066914383
-2431.8463444857371,-526.64188351920154,2713.7546468401438
-1728.6245353159745,-2400.8674101610814,2977.0755885997423
-4411.4002478314578,-1359.9752168525345,5322.1809169764392
-3234.2007434944103,2992.5650557620775,-238.53779429987992
-3221.8091697645514,-1363.0731102850009,4117.1003717471995
-2063.1970260222988,-1257.7447335811589,2388.4758364312174
-3128.8723667905724,-371.74721189590986,470.87980173481122
-1840.1486988847487,-452.29244114002137,2208.7980173481956
-2639.4052044609566,-461.5861214374184,4027.2614622056885
-2586.7410161090343,-817.8438661709996,2902.7261462205615
-6186.4931846344307,-656.75340768277329,3674.1016109045686
-3243.4944237918107,-535.93556381660221,2115.8612143742139
-2980.1734820322076,371.74721189591139,1995.0433705080488
-2902.7261462205543,1483.8909541511773,2239.7769516728549
-4337.0508054522807,-362.4535315985114,4048.9467162329443
-4618.9591078066778,551.42503097893189,1347.5836431226687
223.04832713755073,-1592.3172242874766,2078.686493184628
-4581.7843866170888,1855.6381660470834,1409.5415117719917
-672.24287484509875,-4569.3928128872258,5133.2094175960192
-1313.5068153655434,-2580.5452292441055,3169.1449814126299
-3937.4225526641731,-662.9491945477015,4340.1486988847437
-3599.7521685253882,1112.1437422552685,1812.2676579925565
-4377.3234200743345,2190.2106567534024,2611.524163568768
-1669.7645600991243,-978.93432465922911,371.74721189590184
-4315.3655514250177,-1074.9690210656722,3640.0247831474471
-3729.8636926889562,765.17967781907987,721.80916976455251
-2007.4349442379109,-362.45353159851345,80.545229244109251
-3859.975216852522,582.40396530359465,2772.6146220569949
-3609.0458488227891,2936.8029739776889,-12.391573729865993
-873.60594795538714,-5188.9714993804046,3612.1437422552531
-3667.9058240396425,-210.65675340768092,1601.6109045848707
-3853.7794299875959,-951.05328376703289,3212.5154894671505
-4327.7571251548825,-889.09541511771874,2010.5328376703746
-2199.5043370507974,-3364.3122676579819,1988.8475836431085
-2930.6071871127533,-820.94175960346377,2809.7893432465812
-1737.9182156133772,666.04708798017521,4423.7918215613327
-1552.0446096654221,-1440.5204460966515,461.58612143741868
-2633.2094175960206,281.90830235439796,1359.9752168525306
-539.03345724906376,-523.5439900867392,789.96282527880317
-2481.4126394051955,-1177.1995043370441,3336.4312267657924
-3001.8587360594665,514.25030978934308,2967.7819083023446
-1363.0731102849959,-734.20074349441848,1669.7645600991232
-2905.8240396530236,709.4175960347003,1121.4374225526603
-3934.3246592317059,-563.81660470879785,2596.034696406432
-2893.4324659231597,758.98389095415405,1759.6034696406355
-2738.5377942998648,133.20941759603571,2983.2713754646752
-2695.1672862453465,377.94299876084494,2131.3506815365499
-3054.5229244113875,-1174.1016109045793,1248.4510532837608
164.1883519206983,1003.7174721189591,1985.7496902106509
-1143.1226765799188,-1669.7645600991266,3426.2701363072997
-5043.3705080545051,3751.5489467162242,690.83023543989771
-2211.9027958177539,-412.02556404887542,3590.4504556847164
-1307.3110285006119,-4464.0644361833793,4854.3990086740878
-1936.1833952911927,-542.13135068153053,2112.7633209417527
-5461.5861214374036,539.03345724906876,4067.5340768277515
-5164.1883519206776,-3.0978934324643168,1874.2255266418726
-2605.3283767038306,-2831.4745972738474,2292.4411400247709
-498.76084262700988,-1307.3110285006139,2565.0557620817749
-2825.2788104089109,-486.36926889714863,3008.0545229244012
-5489.4671623295981,421.31350681536185,2490.7063197025927
-619.57868649317675,508.05452292441623,1332.0941759603447
-4699.5043370507929,1133.8289962825238,1456.0099132589773
-3478.9343246592171,1601.6109045848809,1936.1833952911979
-1446.7162329615778,-1960.9665427509167,3621.4374225526535
-3491.3258983890855,-923.17224287484146,2397.769516728612
-3184.6344485749587,-709.41759603469291,1384.7583643122575
-3500.6195786864769,-229.2441140024743,3525.4027261462106
-2977.0755885997396,-1663.5687732341946,4197.6456009913081
-3856.8773234200598,963.44485749690307,2338.9095415117654
-5591.6976456009743,2295.539033457243,1787.4845105328295
-4052.0446096654168,1446.7162329615858,709.41759603469279
-3351.9206939281175,92.936802973977152,3249.690210656745
-1421.9330855018475,-842.62701363072688,1598.5130111524106
-1799.8760842626907,-2496.9021065675229,4389.7149938042057
-4024.1635687732228,1239.1573729863676,2521.6852540272562
-2608.4262701362968,-1400.2478314745913,3135.0681536555026
-1127.633209417588,1155.5142503097936,2605.3283767038365
-1840.1486988847516,-3054.5229244113902,3652.4163568773083
-1889.7149938042041,-2648.6988847583552,4835.8116480792942
-4098.5130111524031,1043.9900867410151,3345.7249070631869
-2574.3494423791722,1270.1363073110299,1155.5142503097823
-6242.2552664188215,4504.3370508054422,913.87856257744272
-1273.2342007434893,-2376.0842627013558,3197.0260223048217
-3051.4250309789259,-929.36802973977808,3262.0817843866043
-4302.973977695151,-1431.2267657992541,4801.7348203221673
-1697.6456009913175,-2989.4671623296094,3274.4733581164655
-2153.0359355638047,1084.2627013630738,731.10285006195704
-4811.0285006195618,1313.5068153655507,2332.7137546468311
-4479.5539033457135,151.79677819083119,3392.1933085501787
-3224.9070631970126,1109.0458488227953,1285.6257744733475
-4191.4498141263821,-151.79677819082886,3416.976456009897
-2667.2862453531502,-1991.9454770755794,4628.2527881040778
-1167.9058240396455,-384.13878562576951,1982.6517967781879
-2193.3085501858618,728.00495662949322,1440.5204460966511
-3001.8587360594729,-1316.6047087980123,3602.8500619578635
-4148.0793060718552,201.36307311028418,2788.1040892193168
-2317.2242874845024,-1638.7856257744679,3187.732342007424
-1812.2676579925558,-783.76703841387416,1694.5477075588497
-2893.4324659238173,-3463.4448574971525,4538.4138785620398
-2955.3903345724825,-2617.7199504337,913.87856257743999
-2276.9516728624467,-6.1957868649284933,2280.0495662949165
-3993.1846344485607,-504.95662949194303,2785.0061957868515
-4538.4138785625619,2097.2738537794239,2202.6022304832636
-4259.6034696406259,619.64162162053753,3141.263940520435
-3305.4522924411253,1047.0879801734816,2106.5675340768162
-4913.2589838909398,-2704.4609665427429,2493.804213135058
-1586.1214374225472,-1533.4572490706284,2326.5179677819001
-2998.7608426270003,-120.81784386617014,2295.5390334572398
-3039.0334572490565,-83.643122676578784,2973.9776951672716
-4070.6319702602145,-697.02602230483092,3345.724907063191
-2589.8389095415018,-1545.8488228004917,2868.6493184634337
-3141.2639405204391,-2834.5724907063122,3686.4931846344334
-2964.6840148698775,-2670.3841387856182,3076.2081784386478
-4950.4337050805298,-173.4820322180914,4268.8971499380277
-3925.0309789343096,-526.64188351920325,3859.9752168525297
-2744.7335811647986,-597.89343246592239,1703.8413878562494
-5027.8810408921827,867.41016109045529,1812.2676579925519
-3138.1660470879688,-92.936802973975389,1768.897149938035
-2636.3073110284918,-1960.9665427509219,1929.9876084262617
-4299.8760842626853,-932.46592317223792,3494.4237918215476
-1421.9330855018529,-1917.5960346963964,728.00495662948617
-1521.0656753407577,-2193.3085501858668,2568.1536555142393
-3169.1449814126258,-185.87360594795496,3283.7670384138719
-2729.2441140024703,-4312.2676579925537,2630.1115241635516
-1133.8289962825183,-3695.7868649318343,4306.0718711276195
-957.20812845502235,-1170.9625386351904,2038.4455910002005
-3742.255266418822,1635.6877323420026,-1338.2899628252856
-3017.3482032217971,-1443.6183395291123,4820.3221809169636
-2029.1201982651708,-557.62081784386248,1939.2812887236605
-3246.5923172242806,-2041.5117719950363,1787.4845105328291
-2283.1474597273746,-374.84530698730686,1552.0446096654191
-3398.3890954151052,-2397.7695167286165,3692.688971499364
-1682.1561338289882,-1976.4560099132473,3612.1437422552572
-3881.6604708797909,-92.936802973978274,2431.8463444857375
-2809.7893432465839,1043.9900867410163,604.08921933084616
-808.55018587360019,55.76208178438754,1648.0793060718688
-1130.7311028500553,1917.5960346964107,2165.4275092936787
-3215.6133828996212,-799.25650557620725,2131.350681536544
-2255.2664188351819,-978.93432465922808,37.17472118958672
-6651.1771995043155,913.878562577445,591.69764560097951
-1815.3655514250206,-1409.5415117719883,1939.281288723658
-2438.0421313506722,-2729.2441140024675,4244.1140024783044
-2828.3767038413771,133.20941759603713,2140.6443618339431
-4368.0297397769373,381.04089219330729,2351.3011152416275
-2620.8178438661644,-2828.3767038413803,2165.4275092936705
-4535.3159851300925,-709.41759603469495,3460.3469640644271
-1868.0297397769434,-2007.4349442379091,4749.0706319702449
-4597.2738537794194,-1750.3097893432441,2775.7125154894543
-3903.3457249070534,-1288.7236679058217,3317.8438661709934
-5762.0817843865952,-492.56505576207843,5260.2230483271196
-3698.8847583642951,-548.32713754646579,3640.0247831474467
-3460.3469640644239,-1239.1573729863619,3367.4101610904472
-1149.3184634448537,-2812.8872366790465,3605.9479553903234
-2410.1610904584786,-1651.1771995043316,2057.0012391573623
-3705.0805452292316,257.12515489467495,1353.779429987597
-3828.9962825278699,-1180.2973977695121,752.7881040892122
-746.59231722427876,334.57249070632241,2156.1338289962791
-2729.2441140024634,421.31350681536634,3166.0470879801683
-1902.1065675340733,-2125.1548946716139,4036.5551425030867
-2828.3767038413807,-2723.0483271375406,2989.4671623296076
-684.6344485749612,-241.63568773233888,1034.6964064436088
-1871.1276332094094,-1161.7100371747147,2450.4337050805343
-1313.5068153655457,-415.11771995043176,954.15117719950172
-2856.2577447335716,-1059.479553903343,1273.2342007434827
-3581.1648079305924,1316.6047087980169,1118.3395291201919
-2766.4188351920598,-1229.8636926889681,3215.613382899618
-5030.978934324643,362.45353159851675,2735.4399008674027
-2239.7769516728526,-1267.0384138785573,3856.8773234200662
-2524.7831474597151,-461.58612143742135,1341.3878562577345
-266.41883519206806,-2936.8029739776862,2379.1821561338193
-5520.4460966542583,-2596.0346964064397,4414.4981412639227
-2475.2168525402612,-1065.6753407682725,2617.7199504336936
-4005.5762081784246,734.20074349442268,2627.0136307310918
-2363.6926889714873,-1988.8475836431173,3097.893432465909
-5610.2850061957752,2100.3717472118897,2509.2936802973913
-3770.1363073110142,2369.8884758364284,1595.4151177199444
-2890.3345724906935,3457.2490706319677,2657.9925650557534
-1731.7224287484426,-1087.360594795535,1651.1771995043291
-3150.557620817835,1074.9690210656743,1251.5489467162297
-3503.717472118949,-1719.3308550185834,3869.268897149926
-4755.2664188351791,145.60099132589778,2794.2998760842506
-1548.9467162329543,-5842.6270136307157,5074.3494423791635
-1939.281288723658,-71.251548946712077,2125.1548946716125
-4061.3382899628109,783.76703841388019,3547.0879801734682
-672.24287484509978,-2949.1945477075487,2964.6840148698802
-4684.0148698884614,-1880.4213135068101,2103.4696406443486
-3543.990086741007,-2156.1338289962764,2091.0780669144815
-2695.1672862453424,102.23048327137805,2230.4832713754545
-4058.2403965303452,-755.88599752168136,3859.9752168525288
-3760.8426270136188,-275.7125154894627,1474.597273853776
-5656.7534076827606,-988.22800495662773,982.03221809168599
-4529.1201982651664,-9.293680297399284,1694.5477075588478
-384.13878562576912,-1644.9814126394019,672.24287484509614
-2332.7137546468325,-3361.2143742255153,4265.7992565055592
-4814.1263940520266,1533.4572490706314,1576.8277571251467
-1657.3729863692595,-2094.1759603469563,3237.2986369268801
-2868.6493184634351,-1406.4436183395242,1858.7360594795427
-1440.5204460966436,1093.5563816604736,1923.7918215613317
-4333.9529120198104,-811.64807930607117,1425.0309789343153
-3534.6964064436015,1037.7942998760839,2639.405204460958
-842.62701363072654,-2422.5526641883421,2729.2441140024675
-941.75960346963564,-1347.5836431226696,2617.7199504336932
-2877.9429987608323,-789.96282527880544,2270.7558859975115
-6201.9826517967622,4872.9863692688832,-424.41140024783942
-2723.0483271375319,1201.9826517967799,1037.7942998760798
436.80297397769567,-5619.5786864931706,3296.1586121437299
-1858.7360594795466,-3110.2850061957774,3866.171003717458
-3358.1164807930481,123.91573729863629,666.04708798016691
-5613.3828996282336,-470.87980173481913,3355.0185873605815
-4402.1065675340606,405.82403965303541,4017.967781908289
-4888.4758364312129,-458.48822800495651,1183.3952912019756
-3045.2292441139925,1282.527881040889,1102.850061957861
-3355.0185873605842,-1353.7794299876059,4532.2180916976313
-4386.61710037173,545.22924411400538,4411.4002478314633
-4445.4770755885856,495.66294919454697,2688.9714993804096
-3351.9206939281194,-2354.3990086740987,786.86493184633594
-3048.3271375464533,-309.78934324659036,2778.8104089219237
-2921.313506815352,-229.24411400247521,2797.3977695167196
-5003.1075201988697,-674.33188315723601,3343.6917339962629
-1674.9533871970057,-74.580484773147361,2647.6072094468514
-2339.9627097576022,686.76196395276941,832.81541330017842
-3694.8415164698449,-1740.2113113735179,4288.3778744561687
-4114.3567433188164,3635.7986326911096,3415.1646985705306
-1193.2877563704114,-5093.2256059664242,6041.0192666252124
-2768.8004972032209,1286.513362336852,1973.2753262896185
-3579.863269111233,1659.4157862026102,988.19142324424513
-3337.4766935984999,-938.47110006214916,2395.8980733374651
-2324.4251087631937,-354.25730267246416,792.417650714724
-2069.6084524549283,-152.2684897451802,1634.5556246115525
-3008.0795525170765,1342.4487259167145,416.40770665008614
-3262.8962088253479,338.71970167805881,1031.6967060285815
-3657.551274083271,-612.18147917961301,3107.5201988812814
-2893.101305158475,-1062.7719080173983,3390.3045369794759
-5354.2573026724485,-388.44002486016052,3359.229334990664
-2772.0088859944162,1044.0460919502589,1494.5961733511126
-1746.4263517712814,-1755.7489123679234,2653.8222498446212
-3517.7128651336125,-506.52579241764755,1109.3847110006154
-2507.7688004971956,-562.46115599751226,2753.2628962088133
-4101.9266625232913,2877.5637041640675,1485.394655065252
-2743.9403356121738,-2883.7787445618328,3561.2181479179499
-4101.9266625232949,-1889.3722809198232,789.31013051584
-3113.7352392790449,-435.05282784337993,1715.3511497824632
-3231.8210068365356,-1438.7818520820354,752.01988812926663
-2824.7358607830897,-1752.6413921690428,4176.5071472964464
-2541.9515226848853,-2237.414543194523,2001.2430080795389
-2299.5649471721481,-686.76196395276156,1836.5444375388388
-851.46053449346618,-2206.3393412057094,3499.0677439403207
-3306.4014916096871,-528.27843380981813,3228.7134866376527
-3545.6805469235396,-3427.5947793660548,5515.8483530142794
-2641.3921690490897,-164.69857054070442,2165.9415786202526
-3676.1963952765541,257.92417650714697,2377.2529521441797
-5052.8278433809637,2815.4133001864466,-27.967681789939014
-5839.030453697932,2672.4673710379034,602.85891858296213
-4300.8079552516938,-1106.2771908017357,4344.3132380360303
-2287.1348663766262,-534.49347420757897,494.09571162211967
-2066.5009322560495,-2473.5860783095022,814.17029210689429
-1880.0497203231723,-1084.5245494095661,3070.2299564947089
-3937.2280919825871,-854.56805469235155,4937.8495960223554
-4891.2367930391383,3079.5525170913552,1115.5997513983768
-3129.2728402734538,-1824.1143567433196,2476.6935985083792
-2765.6929770043403,-1662.5233064014885,1162.2125543815923
-2877.5637041640675,-1939.0926041019245,963.3312616531914
-4990.6774394033437,192.66625233064204,3511.497824735849
-2237.4145431945176,-683.6544437538812,2852.7035425730196
-2818.5208203853213,-717.83716594157556,1727.7812305779923
-4623.9900559353446,-198.88129272839984,4080.1740211311189
-2604.101926662514,-1625.2330640149116,4359.8508390304423
-3306.4014916096876,-2672.4673710379052,2032.3182100683578
-2162.8340584213693,500.31075201988961,1743.3188315723971
-3551.8955873213072,-46.612802983219218,2265.3822249844534
-4238.6575512740701,469.23555003107464,177.12865133622472
-2134.8663766314385,-1230.5779987569858,3194.5307644499626
-2169.049098819135,-736.48228713486196,3436.9173399627016
-3380.9819763828318,49.720323182103208,1072.0944686140347
-4658.1727781230429,1799.2541951522653,1892.4798011187004
-3483.5301429459146,-388.44002486015853,3775.6370416407531
-4546.3020509633152,1743.318831572403,3325.0466128029739
-4909.8819142324264,385.33250466127998,3455.5624611559856
-2747.0478558110549,-1065.8794282162817,167.80609073958215
-5845.2454940956959,-497.20323182100196,2796.7681789931517
-1836.5444375388395,-3023.6171535114913,4235.550031075185
-2100.6836544437465,-1914.2324425108691,3135.487880671214
-4875.6991920447326,2644.4996892479739,1600.3729024238557
-2228.0919825978731,-1311.3735239279038,3026.724673710371
-3909.2604101926554,-1081.4170062075841,4086.3890615288865
-3039.1547545058952,90.118085767560814,1926.6625233063878
-829.70789310130237,-1696.7060285891778,2880.6712243629481
-4129.8943443132239,2402.1131137352349,786.20261031695975
-1239.9005593536303,-3377.8744561839517,3791.174642635166
-1426.3517712865068,-161.59105034182602,1395.2765692976952
-2728.4035448208942,-1128.0304398462549,1724.6732040021557
-2600.994406463632,229.95649471721529,1718.4586699813494
-2280.9198259788623,-2802.983219390921,1302.0509633312547
-4536.9794903666698,-435.05282784337817,4394.0335612181343
-3694.8415164698449,-783.09509011808439,1783.7165941578505
-3716.5941578620154,1357.9863269111215,1709.1361093847058
-1541.330018645112,90.118085767560174,1681.168427594773
-363.57986326910839,-795.52517091360744,1193.2877563704074
-2945.929148539451,1168.4275947793662,1547.5450590428768
-5074.5804847731379,-1087.6320696084517,3607.8309509011669
-3272.2187694219929,-2054.0708514605253,2116.2212554381472
-2187.6942200124199,-2265.3822249844538,3648.2287134866201
-1208.8253573648194,-267.24673710379022,-310.75201988813797
49.720323182101637,-3328.1541330018522,1690.4909881914116
-2656.929770043499,-2927.2840273461725,2268.4897451833322
-292.10689869483474,-1615.9105034182633,2706.6500932255981
-3337.4766935984967,1155.9975139838371,1727.7812305779933
-854.56805469234723,-2905.5313859539947,4334.9906774393894
-5960.2237414543024,2420.7582349285185,848.35301429458923
-6096.9546302050794,1998.1354878806671,661.90180236171113
-1404.5991298943366,-1516.4698570540622,2613.4244872591635
-5267.2467371037737,1134.2448725916697,692.97700435051695
-3862.647607209432,-2930.3915475450481,5699.1920447482753
-3986.9484151646843,-205.09633312616401,2517.0913610938337
-2389.6830329397048,-1196.3952765692911,4440.646364201355
-2458.0484773150874,-226.84897451833294,2675.5748912367881
-1367.3088875077628,-3213.1758856432471,4089.4965817277689
-2200.1243008079496,-2569.9192044748215,3197.6382846488386
-3527.0354257302552,-1087.6320696084479,4602.2374145431786
-3300.1864512119214,93.225605966436888,2305.7799875699102
-1199.5027967681701,-1401.491609695456,1407.7066500932176
-4378.4959602237204,1152.8899937849608,2899.3163455562367
-5770.6650093225453,366.6873834679896,4114.3567433188173
-2022.9956494717096,-1444.9968924797995,2939.7141081416935
-3850.2175264139046,-717.8371659415742,3032.9397141081326
-1059.6643878185148,-1078.3095090118011,3141.7029210689766
-3663.7663144810322,-463.02050963331084,1985.705407085137
1289.6208825357389,-3091.9825978868735,4819.763828464871
-1852.0820385332436,15.53760099441083,4073.9589807333682
-3946.5506525792252,102.54816656308201,1395.2765692976984
-2775.0155376009811,-3312.6165320074479,5034.1827221876765
-2678.6824114356632,-444.37538844002205,2650.714729645736
-1286.5133623368524,-1702.9210689869446,2060.2858918582865
-3713.4866376631303,211.31137352392903,3119.9502796768056
-1320.6960845245435,-1622.1255438160267,2504.6612802983136
-3738.3467992541832,-531.38595400870031,1208.8253573648135
-4748.2908638905992,1311.3735239279024,1612.8029832193804
-3850.2175264139059,292.10689869484133,2681.789931634542
-1594.1578620260955,-574.89123679303668,2389.6830329397039
-3082.6600372902308,-1702.9210689869487,-826.60037290243008
-2007.4580484773073,-9.3225605966420098,1532.0074580484702
-3116.8427594779268,-2541.9515226848894,2529.5214418893584
-4509.0118085767426,201.98881292728376,2812.3057799875555
-5705.4070851460392,1780.6090739589763,755.12740832814393
-3104.4126786824022,-220.6339341205728,2573.0267246737035
-4176.5071472964455,929.14853946550522,376.0099440646319
-5121.1932877563586,798.63269111249133,2371.0379117464195
-3579.8632691112384,124.30080795525276,2911.7464263517672
-1221.2554381603441,-3744.5618396519467,3999.3784959602108
-1121.8147917961405,-2560.5966438781752,3756.9919204474695
-6361.0938471099898,2597.8868862647519,1963.9527656929683
-2557.4891236792951,167.80609073959315,2106.8986948415054
-3753.8844002485894,-882.53573648228485,1584.8353014294521
-2684.8974518334308,31.075201988812484,87.01056556867033
-4437.5388440024644,2787.4456183965162,3045.3697949036596
-2712.8651336233556,1308.2660037290234,1221.2554381603427
-2535.7364822871236,149.16096954630547,3844.0024860161529
-1889.3722809198193,-3408.9496581727672,2461.1559975139689
-3977.6258545680444,546.92355500310646,2134.8663766314407
-1721.5661901802271,-475.45059042883423,-459.91298943443849
-5801.7402113113503,4061.5288999378399,994.40646364200563
-3729.0242386575374,-139.83840894965775,807.95525170912515
-3704.1640770664858,2576.1342448725864,276.56929770042819
-1183.9651957737647,-3169.6706028589106,4179.614667495327
-3822.249844623977,640.14916096954596,888.75077688004319
-3011.1870727159612,-369.79490366691448,1507.1472964574193
-4807.3337476693468,885.64325668116703,3691.7339962709652
-2911.7464263517572,382.22498446240178,1768.1789931634491
-267.24673710378613,-4487.2591671845757,4052.2063393411895
-1973.2753262896133,-1255.4381603480324,2756.3704164076958
-251.7091361093787,-1674.9533871970118,2072.7159726538225
-4707.8931013051415,-1339.3412057178334,4835.3014294592758
-2218.7694220012309,-1308.2660037290218,1637.6631448104295
-4024.2386575512592,2330.6401491609677,1354.8788067122405
-4745.1833436917186,2399.005593536353,1945.3076444996784
-2952.1441889372177,537.60099440646684,2725.2952144188894
-6342.4487259166945,3607.8309509011706,2731.5102548166515
-1472.964574269726,-2262.2747047855714,2933.4990677439268
-2930.3915475450494,-1873.83467992541,4045.9912989434329
-3253.5736482287048,407.0851460534509,3440.0248601615835
-3328.1541330018522,692.97700435052695,2240.5220633934064
-2681.7899316345438,-2256.059664387813,4555.6246115599606
-1395.2765692976911,-938.47110006214837,1559.9751398384012
-3781.8520820385243,-1395.2765692976923,6081.4170292106719
-4596.022374145412,1171.5351149782466,3685.5189558732018
-2613.424487259158,-1177.7501553760076,3343.6917339962602
-2411.4356743318758,257.92417650715231,1737.1037911746344
-2653.8222498446148,90.11808576755439,1075.2019888129207
-1510.2548166562992,425.73026724674264,2902.4238657551186
-4098.8191423244116,-1373.5239279055277,2607.2094468613918
-2315.1025481665579,-3356.1218147917884,1631.448104412668
-922.93349906773778,-2818.5208203853226,-680.54692355501425
-3281.5413300186356,-699.19204474829087,3405.8421379738875
-1457.4269732753198,-2635.1771286513313,-174.02113113735675
-4428.2162834058236,382.22498446240184,4748.2908638905992
-1187.0727159726473,-2855.8110627718979,2380.3604723430622
-1634.5556246115507,-1479.1796146674862,2647.6072094468491
-4042.8837787445527,-969.5463020509618,80.795525170913791
-4378.495960223725,-403.97762585456883,3701.0565568676066
-2346.1777501553638,-403.977625854564,2423.8657551273927
-3837.7874456183808,-233.0640149160954,3405.842137973882
-2249.8446239900463,-323.1821006836505,2125.5438160347935
-2784.3380981976275,-714.72964574269474,2144.1889372280812
-2834.0584213797265,2032.3182100683634,1013.0515848352934
-1261.6532007457965,-1693.5985083902985,3480.4226227470363
-801.74021131137067,-3206.9608452454845,3710.3791174642538
-2501.5537600994253,-1221.2554381603459,2628.962088253566
-3486.6376631447947,-1845.8669981354817,4751.3983840894834
-2200.1243008079496,-2336.8551895587266,2377.2529521441738
-4788.6886264760569,-767.5574891236779,2799.8756991920272
-2973.730569710573,192.83251294945148,2251.1917232200822
-4574.2697327532451,2072.7159726538216,2252.9521441889278
-1998.1354878806603,-118.08576755748126,5248.6016159104884
-3172.7781230577893,776.88004972032422,2666.2523306401399
-4279.055313859526,-285.89185829707947,3760.099440646351
-2486.0161591050246,1028.5891858297064,1118.7072715972586
-6469.8570540708279,3871.9701678060837,1715.3511497824666
-2871.3486637663036,-167.80609073958581,3455.562461155987
-3608.425504861767,-558.17175240421,5100.6103245421882
-5988.1914232442314,2787.4456183965081,-1743.3188315724087
-4648.8502175264002,49.720323182098483,2840.273461777489
-3788.0671224362814,394.65506525792409,2684.8974518334294
-5705.4070851460356,1348.6637663144775,3819.1423244250973
-2554.3816034804131,108.76320696084349,-1106.2771908017421
-1438.7818520820322,-2169.0490988191368,2085.146053449339
-2902.4238657551164,-1351.7712865133628,674.33188315723521
-1973.2753262896106,-792.41765071472344,2625.8545680546827
-4042.8837787445491,531.38595400869974,2486.0161591050228
-4695.4630205096155,1587.9428216283391,3266.003729024229
-3458.6699813548671,-3909.2604101926554,5009.3225605966281
-1634.5556246115559,-2563.7041640770581,2840.2734617774895
-4257.3026724673591,1165.3200745804834,3147.9179614667446
-3915.4754505904139,-310.75201988812415,3871.9701678060733
-4400.2435996641943,1852.0883253899704,1314.4889371147804
-745.80484773150567,-3020.5096333126057,935.36357986325822
-4673.7103791174495,-111.87072715972755,1622.1255438160238
-2458.0484773150947,-593.5363579863232,1988.8129272840176
-1581.7277812305708,-1025.4816656308224,2740.8328154132851
-1873.8346799254109,-1898.6948415164625,4586.699813548772
-2461.1559975139776,-1006.8365444375374,981.97638284647826
-3517.7128651336093,-1572.4052206339265,5214.4188937227973
-5245.494095711605,4192.0447482908558,1898.6948415164641
-2812.305779987561,167.80609073959167,2305.7799875699125
-5261.0316967060135,-531.38595400870042,2364.8228713486515
-4058.4213797389598,-1441.8893722809182,3144.8104412678572
-310.75201988812188,-3088.8750776879956,4334.9906774393912
-4042.8837787445477,2190.8017402113092,1758.8564325668042
-2740.8328154132873,1183.9651957737708,1143.5674331883106
-3589.1858297078811,1140.4599129894307,31.075201988806697
-4310.1305158483374,932.25605966438604,1435.6743318831495
-1727.7812305779953,-2206.3393412057148,192.66625233063485
-2330.6401491609654,-1420.1367308887461,1625.2330640149098
-5195.7737725295065,1252.3306401491584,2818.5208203853203
-4515.2268489745011,779.98756991920595,3104.4126786823986
-4117.4642635177015,702.2995649471701,1056.5568676196356
-5714.7296457426792,2072.715972653818,649.47172156618171
-3147.9179614667351,-301.42945929148738,866.99813548787711
-4136.1093847109869,714.72964574269361,466.12802983218779
-4602.2374145431841,599.75139838408393,985.08390304536476
-4993.7849596022252,1963.9527656929736,1013.0515848352981
-894.9658172778071,-3440.0248601615799,2374.1454319452992
-1923.5550031075129,-2302.6724673710305,292.10689869483804
-425.73026724673025,-2069.608452454931,2032.3182100683555
-4008.7010565568535,-795.52517091360676,3318.8315724052113
-4704.7855811062682,1103.1696706028558,2339.9627097576054
-4353.6357986326766,1398.3840894965815,2411.4356743318763
-487.88067122435677,-2846.4885021752566,3306.4014916096808
-4493.4742075823397,310.75201988812967,2057.1783716594032
-5068.3654443753758,-484.77315102548329,2321.3175885643132
-1699.8135487880606,-4689.2479801118552,4291.4853946550493
146.05344934742379,-3729.024238657536,3101.3051584835193
-3489.7451833436776,-466.12802983219177,2917.9614667495221
-6227.4704785580943,-553.13859540087083,2600.9944064636293
-2224.9844623989984,-1898.6948415164641,919.82597886885355
-2392.7905519775691,-2162.8340561212517,3648.2287167944164
335.61218147918362,-3561.2181479179512,2470.4785581106171
-6311.3735239278867,2311.9950279676746,3234.9285270354135
-2952.1441889372172,522.06339341205671,2921.0689869484081
-1559.9751398383994,-1864.5121193287691,2840.2734617774881
-2060.285891858286,-1100.0621504039752,2641.392169049092
-6929.7700435052629,4083.2815413300077,1671.8458669981301
-2513.9838408949531,1165.3200745804886,686.76196395275588
-3312.6165320074479,515.84835301429428,2439.4033561218098
-5798.6326911124725,-320.07458048476997,5040.397762585445
-1320.6960845245408,-2190.8017402113046,1420.1367308887429
-2905.5313859539992,-2302.6724673710332,1718.458669981349
-3980.733374766924,-1093.847110006212,1044.1267868241034
-3151.0254816656184,3.1075201988822228,2660.0372902423805
-2886.8862647607098,-3663.7663144810331,4782.4735860782921
-2249.8446239900472,-581.10627719079935,1615.9105034182655
-3244.2510876320566,-671.22436295835485,3483.5301429459187
-3020.5096333126025,-12.430080795523244,4331.8831572405097
-879.42821628339425,1761.9639527656939,2576.1342448725827
-1758.8564325668042,-326.28962088253172,2374.1454319453019
-3113.7352392790435,-357.36482287134618,3175.8856432566686
-3974.5183343691574,-960.22374145431422,4729.645742697312
-1650.0932256059596,-2069.608452454936,-671.22436295836803
-3539.4655065257812,59.042883778745569,435.05282784337732
-5077.6880049720148,2131.7588564325629,689.86948415163499
-2156.6190180236104,-285.89185829707753,1970.1678060907325
-4294.5929148539371,-2122.4362958359197,671.22436295834746
-3999.3784959602085,-798.63269111248849,3328.1541330018499
-1908.0174021131056,-1068.9869484151584,5161.5910503418118
-2029.2106898694801,-2986.3269111249097,3384.0894965817192
-2361.7153511497736,-826.60037290241792,2666.2523306401399
-4695.4630205096155,2153.5114978247343,2924.1765071472878
-3405.8421379738843,-2206.3393412057153,391.54754505903554
-7252.9521441889201,4049.0988191423098,593.53635798632013
-767.55748912367608,-2209.4468614045945,2507.7688004971933
957.11622125543772,-4832.1939092603943,4527.6569297700289
-4201.3673088874957,-1653.2007458048429,3166.5630826600259
-3032.9397287995416,108.7631855915248,1752.6413721353028
-3865.7551274083185,-661.90180236171364,2706.6500932255949
-3477.3151025481498,-1612.8029832193833,6317.5885643256452
-4179.6146674953243,870.10565568676111,4005.5935363579756
-1441.8893722809153,941.57862026103135,2284.0273461777456
-4247.9801118707146,-229.95649471721512,3362.3368551895433
-1497.8247358607764,-1441.8893722809119,3001.8645121193176
-3238.0360472342927,-142.94592914853854,1876.9422001242945
-2224.9844623989966,-288.99937849595887,1103.1696706028526
-2545.0590428837686,-829.70789310129851,2656.9297700434922
-3536.3579863268997,2532.6289620882494,1205.7178371659347
-5301.4294592914703,24.860161591054251,4754.5059042883631
-1706.0285891858236,-2367.9303915475366,4282.1628340584066
-5553.1385954008492,1768.1789931634551,3272.2187694219861
-2927.2840273461679,-1559.9751398384035,1864.5121193287666
-2287.1348663766194,-3278.4338098197509,4226.2274704785432
-2203.2318210068261,-2644.4996892479753,83.903045369784863
-1817.8993163455461,-2442.5108763206854,3551.8955873213054
-2489.1236793039079,-584.2137973896821,2156.6190180236117
-2802.9832193909147,-1746.4263517712805,3387.1970167806007
-6939.0926041019038,6187.0727159726357,-111.87072715972867
-2417.650714729637,-1379.7389683032889,3250.466128029821
-2964.574269732741,410.19266625233308,3760.0994406463519
-5055.9353635798498,428.83778744561823,2029.2106898694781
-3412.0571783716491,-174.02113113735365,1839.6519577377185
-1606.5879428216219,-1457.4269732753203,2131.7588564325592
-1326.9111278175619,-2389.6830358349625,1967.0602829965997
-419.51522684896543,-543.81603480422439,-1081.4170292106933
-5652.5792417650555,-1469.8570540708522,2827.8433809819585
-4378.4959602237222,2628.9620882535723,1805.4692355500229
-3788.0671224362859,2193.909260410187,1395.2765692976957
-2066.5009322560504,-515.8483530142903,2311.9950279676768
-5012.4300807955096,1289.6208825357328,2054.0708514605271
-1768.1789931634476,-3191.4232442510752,2967.6817899316216
-4512.1193287756278,-755.12740832815143,3816.0348042262121
-2964.5742697327478,-3787.5921647812952,2423.8657551273991
-2510.8763206960739,-503.41827221876895,1901.8023617153412
-4773.1510254816485,-62.150403977622432,3716.5941578620118
-3135.4878806712122,-550.0310752019858,3676.1963952765554
-5478.5581106277014,-59.042883778742606,4860.1615910503251
-1786.8241143567354,-3825.3573648228598,2327.5326289620734
-3803.604723430688,-655.68676196394995,2321.3175885643141
-5985.0839030453508,-1435.6743318831557,3210.0683654443551
-3592.2933499067658,-879.42821628340505,1796.1466749533747
-1988.812927284016,-1578.6202610316907,3272.2187694219901
-1128.0298321938974,-292.10689869483872,3729.0242386575433
-2830.9509011808418,-1932.8775637041542,3729.0242386575364
-2983.2193909260345,-31.07520198881079,2607.209446861395
-4888.1292728402586,711.6221255438137,2986.3269111249124
-2172.1566190180165,-453.69794903666542,-366.68738346799495
-3001.8645121193158,1224.3629583592287,1550.6525792417551
-3614.0459912989286,-307.64449968924532,3545.6805469235405
-3555.0031075201864,24.86016159105208,1354.8788067122352
-4291.4853946550493,-18.6451211932843,3464.8850217526306
-2088.2535736482191,-2650.7147296457365,4195.1522684897318
-3213.1758856432421,-1389.0615288999318,4440.6463642013514
-1898.6948415164602,-779.98756991919981,2507.7688004971978
-5087.0105655686557,1547.545059042882,3747.6693598508264
-3247.3586078309418,767.55748912367756,1413.9216904909879
-3962.0882535736373,-1224.362958359226,1668.7383467992449
-3079.5525170913511,-1196.3952765692968,267.24673710378715
-2874.4561839651842,969.54630205096203,1817.8993163455407
456.80546923555443,-4847.7315102548027,4645.7426973275187
-2287.1348663766203,282.78433809820035,3452.4549409571091
-4002.4860161590927,1078.3095090118047,2066.5009322560527
-1128.0298321939063,-1789.9316345556192,2510.8763206960748
-3250.4661280298214,1765.0714729645717,1500.9322560596581
-2305.7799875699111,186.45121193287758,1914.2324425108707
-3160.3480422622615,180.23617153511645,2765.6929770043416
-770.66500932255246,-2066.5009322560527,2582.349285270343
-4543.1945307644346,233.0640149160954,2862.0261031696632
-3188.3157240521923,2181.4791796146665,1224.3629583592208
-3753.8844002485935,-487.88067122435859,2834.058421379732
-1702.9210689869424,-1622.1255438160269,2961.4667495338622
-1563.0826600372873,-2899.3163455562385,2843.3809819763746
-3020.5096333126044,323.18210068365499,3586.0783095090028
-3694.841516469844,680.54692355500356,2290.242386575505
-3070.2299564947016,1995.0279676817893,1842.759477936597
-3840.8949658172633,643.25668116687405,3573.6482287134781
-3844.002486016147,-3356.1218147917866,6208.825357364809
-4157.8620261031583,-2719.0801740211241,2364.8228713486519
-1715.3511497824663,-792.41765071473003,-860.78309509012536
-4080.1740211311244,-2128.6513362336818,4204.4748290863736
-3182.1006836544275,758.23492852703612,2100.6836544437456
-3362.3368551895455,192.66625233064232,2420.7582349285185
-1842.7594779365979,-637.04164077066275,2523.3064014916017
-6295.835922933481,1053.4493474207566,3610.9384711000525
-3676.1963952765577,-720.94468614045581,4052.206339341195
-1746.4263517712802,-3048.4773151025406,4434.4313238035902
-1143.5674331883113,-3794.2821628340489,4027.3461777501384
-705.40708514604921,-3735.2392790553013,4207.5823492852578
-978.86886264759721,-885.64325668116578,3788.0671224362859
-3076.4449968924705,-1883.1572405220613,2917.9614667495239
-1637.6631448104363,-376.00994406463195,1693.5985083903015
-5711.6221255438022,1637.6631448104356,1407.7066500932194
-3054.6923555003004,-640.14916096954391,2035.4257302672333
-4689.2479801118543,403.97762585456798,2852.7035425730132
-4052.2063393411895,1929.7700435052793,1637.6631448104326
-5372.9024238657366,-363.57986326910901,3247.3586078309395
-1438.7818520820279,-146.05344934741504,1587.9428216283391
-3840.8949658172678,167.80609073958979,2408.3281541329907
-4070.8514605344799,-1146.6749533871987,-326.28962088254912
-3812.9272840273311,-1252.3306401491541,5745.8048477314942
-1410.8141702920934,-1330.0186451211832,3697.9490366687269
-1765.0714729645663,-416.40770665008796,1942.2001243008053
-3216.2834058421308,-3036.0472343070173,2408.3281541329939
-3017.4021131137256,594.3922348163444,1689.9947611578646
-2579.2417650714583,1476.0720944686095,1093.847110006207
-4021.1311373523822,1211.9328775637011,1650.0932256059643
-3163.455562461148,-506.52579241764982,2032.3182100683566
-2019.8881292728295,-1339.3412057178334,1199.5027967681685
-3542.5730267267122,3.1075201964453054,-584.21379739180134
-5438.1603480422473,1687.3834679925371,935.36357986326368
-3067.1224362958274,-1162.2125543816028,341.82722187693491
-2899.3163455562335,-323.18210068365249,1945.3076444996807
-6239.9005593536158,1833.4369173399605,2893.1013051584746
-2498.4462399005502,155.37600994406736,1283.4058421379686
-3175.8856432566699,-214.41889372280855,2554.3816034804158
146.05344934742217,-4347.4207582349172,3424.4872591671733
-1392.169049098813,-929.14853946550363,2100.6836544437424
-2628.9620882535628,-1298.9434431323766,3064.0149160969404
-1886.2647607209376,-1202.6103169670575,3032.9397141081304
-3172.7781230577857,-1730.8887507768763,3853.3250466127902
-2318.2100683654357,-155.37600994406222,-180.23617153511893
-3903.0453697948915,1765.0714729645713,245.49409571162076
-1647.0688980848204,391.54754505904077,941.5786202610243
-3349.9067743940168,1892.4798011187033,487.88067122435734
-640.149160969543,-3642.0136730888676,3828.4648850217395
-4325.6681168427458,87.010565568677805,3393.4120571783592
-2973.8968303293877,-379.11746426351471,1976.382846488495
-2793.6606587942724,-1429.4592914853877,2684.8974518334262
-5080.7955251709009,-742.6973275326277,2156.6190180236063
-2212.5543816034724,587.32131758856372,2153.5114978247284
-4509.0118085767399,1218.1479179614664,2371.0379117464176
-2318.2100683654398,-93.225605966434841,335.61218147917276
-1488.502175264133,-1264.7607209446837,1892.4798011186988
-919.82597886885765,-3203.8533250466016,3980.7333747669218
-3147.9179614667382,-615.28899937849178,1892.4798011186995
-4872.5916718458548,1793.0391547545021,3701.0565568676084
-2358.6078309508885,531.38595400870156,1765.0714729645676
-3048.4773151025352,1065.8794282162817,1917.3399627097479
-2672.4654472952775,-1351.7712865133574,2078.9334177298624
-1597.2653822249763,-2333.7476693598396,3017.402113113727
-1224.3629583592199,-2479.8011187072625,4182.722187694204
-3123.0577998756844,357.36482287135044,-537.60099440647025
-1128.0298321939038,-1404.5991298943388,2439.4033561218062
-3865.7551274083166,226.84897451833604,2672.4673710379057
-4322.5605980976925,1556.8676181857018,2405.2206324802864
-5546.9235550030935,2402.1131137352349,1904.9098819142216
-195.77377252951749,-2464.2635177128532,4027.346177750142
-3001.8645121193135,-2955.2517091361015,6295.8359229334801
-3272.2187694219897,-68.365444375384612,2100.683654443751
-5074.5801807454327,3228.7137906653566,1998.1357919083703
-3638.9061528899815,-1749.533871970161,5155.3760099440469
-3303.2939714108034,2333.7476693598474,1665.6308266003721
-3685.5189558732018,-472.34307022995637,1566.1901802361576
-4182.7221876942067,-180.23617153511103,3952.7656929769946
-1591.050341827214,742.6973275326294,1674.9533871970102
-4359.8508390304405,1892.4798011187033,904.2883778744465
-835.92293349906492,-3663.7663144810313,2277.8123057799721
-1594.157862026095,201.98881292728632,1059.6643878185184
-3648.2287134866274,602.85891858297259,3958.9807333747581
-2156.6190180236099,183.34369173399722,1295.835922933494
-2734.6177750155275,-285.89185829707611,2970.7893101305053
-5142.9459291485218,2675.5748912367881,2178.3716594157827
-3579.8632691112366,-111.87072715972458,83.903045369787122
-111.87072715972423,-4580.4847731510063,4378.4959602237295
-4334.9906774393876,1429.4592914853943,2594.7793660658726
-2060.2858918582879,-3909.260410192654,5189.5587321317416
-4645.7426973275142,-1081.4170292106858,4400.2486016159028
-4024.2386575512623,-428.83778744561766,2625.854568054679
-2532.6289620882462,-1824.1143567433141,2399.0055935363466
-677.43940335611376,-1709.1361093847036,4574.2697327532505
-2837.1659415786053,211.31137352392895,559.35363579862337
-3520.8203853324935,-966.43878185207677,4033.5612181479032
-4086.3892537908341,475.45039699455924,369.79475947040413
-3113.7352392790399,1553.7600994406459,-894.96581727781415
-1808.5767557489062,-2128.6513362336841,1202.6103169670582
-3175.8856432564808,-1118.7072715969396,24.860161591524214
-2510.8763206960716,-1525.7924176507067,3704.1640770664912
-3657.5512740832705,-77.688004972031706,2234.307022995637
-6709.1361093846899,1218.1479179614655,5444.3753884400048
-2311.9950279676709,-2989.4344313237939,4092.6041019266468
-3449.3474207582221,-1525.7924176507076,3781.8520820385215
-2809.1982982793679,-198.88133320999208,2252.9520861210794
-4303.9154754505762,2100.6836544437524,2585.4568054692299
-4798.0111870727023,2141.0814170292065,2458.0484773150952
-2936.6065879428102,-1205.7178371659381,3157.2405220633827
-5360.4723430702115,2296.4574269732711,2106.8986948415081
-2970.7893101305031,-177.1286513362322,2498.4462399005497
-1345.5562461155876,-1115.5997513983787,2097.5761342448614
-5124.300807955231,1855.1895587321296,2784.3380981976311
-2616.5320074580368,149.16096954630081,3290.8638906152819
-3548.7880671224243,-1221.2554381603461,2983.2193909260286
-3408.9496581727676,-2949.0366687383353,3840.8949658172623
-1737.1037911746359,-372.90242386575352,1749.5338719701588
-2970.7893101305062,-1146.6749533871932,2296.4574269732648
-2420.7582349285194,-630.82660037289907,2510.8763206960721
-5074.5804847731288,1311.3735239279072,3968.303293971398
-1410.8141702921002,-3135.4878806712163,3903.0453697948878
-3461.7775015537472,-3318.8315724052109,3480.4226227470335
114.97824735861167,-2784.3380981976275,2619.6395276569201
-4801.1187072715848,2172.1566190180192,1712.2436295835855
-93.225605966431203,-1417.0292106898644,1413.9216904909792
-3384.0894965817151,543.81603480422723,2771.9080174021042
-2914.8539465506401,403.97762585456854,1935.9850839030364
-2287.1348663766175,-180.23617153511159,2100.6836544437465
-4555.6246115599588,565.56867619639536,1771.2865133623268
-3464.8850217526283,571.78371659415939,1121.8147917961401
-3421.3797389682909,1357.9863269111243,2489.1236793039056
-4745.1833436917159,1202.610316967058,4788.6886264760615
-3172.7781230577839,-736.48228713486083,3197.63828464884
-3719.7016780608978,-1556.8676196395245,3514.6053449347319
-4192.0447482908512,546.923555003106,2778.1230577998626
-3651.3362336855062,-1115.59975139838,4415.7862026103048
-1522.6848974518259,-2131.7588564325606,3766.3144810441158
-4770.043505282767,-1444.9968924797984,4378.4959602237295
-2830.9509011808441,-2007.4580484773073,3722.8091982597748
-2113.1137352392693,-1817.8993163455475,2523.3064014915994
-3070.2299564947043,-767.55748912367483,3952.7656929769955
-2181.4791796146592,-1908.0174021131083,3309.5090118085654
-1749.5338719701595,74.580484773153302,1861.4045991298833
-4592.9148539465386,981.97638284648758,3760.0994406463533
-2389.683032939703,118.08576755749039,1628.3405842137843
-2423.8657551273982,3.1075201988844814,2022.9956494717148
-3949.658172778114,-2650.7147296457406,2756.3704164076898
-2967.6817899316225,-2402.1131137352349,46.612802983208354
-3750.7768800497088,-3430.702299564939,1963.952765692969
-3194.5307644499539,-130.51584835301401,1793.0391547544966
-4282.1628340584057,-459.9129894344332,1681.1684275947682
-2486.0161591050246,-941.57862026103066,2119.3287756370341
-4481.0441267868082,-164.69857054070584,4223.1199502796671
-24.860161591047333,-1159.1050341827151,1799.2541951522624
-724.05220633933413,52.82784338098395,2759.4779366065791
-4664.3878185208014,-239.27905531385653,4384.7110006214943
-2392.7905531385845,-1914.232442510867,4052.2063393411927
-2315.1025481665542,282.784338098197,997.51398384088964
-1059.6643878185128,-1280.2983219390865,2399.0055935363484
-1544.437538843996,-174.02113113734771,714.72964574268826
-4216.9049098818996,2675.5748912367903,540.70851460534266
-3834.6799254194975,1581.7277812305763,1963.9527656929683
-5615.2889993784856,-537.60099440646627,-90.118085767566242
-801.74021131136578,-1485.3946550652563,2032.3182100683566
-4033.5612181479032,-1345.5562461155946,4018.023617153498
-3076.4449968924682,-251.7091361093824,2644.4996892479689
-1000.6215040397709,-1793.0391547545,2252.9521441889246
-2200.12430080795,-2939.7141081416962,3250.4661280298187
-3343.6917339962552,348.0422622747073,2582.3492852703425
-5543.8160348042111,236.17153511497747,4182.7221876942049
-3502.1752641392018,-1068.9869484151554,5531.3859540086833
-3023.6171535114931,-3408.9496581727717,1208.8253573648167
-2510.8763206960753,550.03104850813725,1395.2765692976996
-15.537600994403491,-2955.2517091360974,2557.4891236792919
-3331.261653200736,-2041.6407706650054,1373.5239279055256
-2942.8216283405691,593.53635798632786,2321.3175885643195
-2694.2200124300707,-602.85891858296827,2945.9291485394579
-2712.8651336233538,1000.6215040397771,3825.3573648228635
-1342.4487259167158,-3899.93784959601,4095.7116221255278
-1367.3088875077592,-571.78371659415336,2268.4897451833363
-2159.7265382224896,1488.5021752641392,469.23555003107134
-5111.8707271597104,87.010565568675972,214.41889372280306
-2799.875699192035,-3343.6917339962597,1385.9540087010444
-2091.3610938470979,-1591.0503418272158,3707.2715972653696
-4813.5487880671053,938.47110006215109,2579.2417650714642
-4008.7010565568589,506.52579241765068,3210.0683654443642
-1619.0180236171468,-708.51460534493242,1743.3188315723978
-1292.7284027346093,-4058.4213797389543,5077.6880049720157
-3275.326289620873,-658.79428216283225,2830.9509011808445
-1591.0503418272144,-279.67681789931277,1650.0932256059564
-3685.5189558732009,2576.1342448725886,2184.5866998135416
-3812.9272840273316,-304.53697949036308,2082.0385332504534
-2280.91982597886,-1513.3623368551866,2054.0708514605235
-4142.3244251087508,-348.04226227470406,3163.4555624611417
-1709.1361093847008,-1522.6848974518277,2871.3486637663
-388.44002486015967,-1758.8564325668069,1960.8452454940887
-3101.3051584835171,-1702.9210689869435,4711.0006215040257
-2032.3182100683607,-705.4070851460508,1612.8029832193833
-6622.1255438160106,2672.4673710379029,1050.3418272218726
-4375.3884400248444,686.76196395276611,1053.4493474207475
-1646.9857054070746,-2035.4257302672406,2458.0484773150938
-2305.7799875699116,-155.37600994406171,1945.3076444996816
-1385.9540087010478,-1261.6532007458002,2582.3492852703448
-480.9951087150435,-1121.2274623623289,2378.3394376444453
-954.00870105655451,-2616.5320074580418,3589.1858297078816
-2262.2747047855723,-1845.8669981354838,3200.7458048477179
-1963.9527656929658,-3247.3586078309386,4875.6991920447344
-1706.0285891858175,-1230.5779987569822,2231.1995027967605
-2153.5114978247252,-540.70851460533891,1190.1802361715263
-2560.5966438781757,-2082.0385332504561,1653.2007458048436
559.35363579863713,-4965.817277812288,5518.9558732131582
-3222.4984462398902,-997.51398384089271,3244.2510876320616
-2600.9944064636334,826.60037290242303,3968.3032939714017
-742.69732753262167,-1852.0820385332418,2653.8222498446162
-3119.9502796768038,2293.3499067743946,3480.4226227470413
-2753.2628962088088,341.82722187694475,1367.3088875077647
-2902.4238657551145,-2600.9944064636334,7082.0385332504484
-4120.5717837165794,105.6556867619681,2666.2523306401408
-4381.6034804226056,332.50466128030052,4080.174021131123
-3281.541330018636,-1861.4045991298879,1448.104412678674
-2886.8862647607116,-577.99875699192023,2790.5531385953927
-3884.4002486015966,12.430080795531149,3856.4325668116717
-4763.8284648850067,-71.472964574270648,556.2461155997463
-3620.2609057778168,1519.5777550095877,1880.0497203231744
-1650.0932256059552,-301.42945929148505,2405.2206339341151
-5447.4829086388918,1401.4916096954607,1852.0820385332429
-1444.9968924797965,-4493.4742075823369,4126.7868241143415
