-3959.1078066914347,285.00619578686491,994.42379182155332
-5130.1115241635525,1830.8550185873569,328.3767038413859
-2741.635687732336,-2741.6356877323333,2750.9293680297242
-1183.3952912019715,-947.95539033456453,4123.2961586121319
-858.1164807930553,-2592.9368029739712,2877.942998760831
-2314.1263940520371,-910.78066914497867,2143.7422552664107
-4284.3866171003574,-703.22180916976299,827.137546468393
-4358.7360594795409,-442.99876084262445,1809.1697645600871
-5195.1672862453379,117.71995043370555,3367.4101610904436
-2853.1598513011045,-693.92812887236403,1325.8983890954041
-3147.4597273853674,526.64188351920734,2973.9776951672725
-2292.4411400247718,-1319.7026022304753,3671.0037174721056
-2933.7050805452159,350.06195786865078,3190.8302354398929
-5343.866171003704,2112.763320941755,1090.4584882279996
-755.88599752167806,-1338.2899628252731,2527.8810408921854
-4526.0223048327007,879.80173482031739,1753.4076827757051
-1973.3581164807836,192.06939281288899,1112.1437422552583
-861.21437422551537,-4882.2800495662786,5334.572490706305
-4256.5055762081629,-650.5576208178386,3547.0879801734727
-1239.1573729863644,-1824.6592317224195,2673.4820322180822
-3169.1449814126258,-1319.702602230476,3097.8934324659076
-4064.436183395278,1062.5774473358097,1130.731102850059
-3525.4027261462106,241.63568773234067,-557.62081784387158
-2614.6220570012215,384.13878562577543,-179.67781908303172
-1350.6815365551367,-498.76084262700948,1598.5130111524097
-4792.4411400247691,-477.07558859975165,117.71995043369556
-2422.5526641883444,-731.10285006195261,2698.2651796778077
-709.41759603469382,-3091.6976456009838,3367.4101610904495
-3023.5439900867291,-659.85130111523881,2549.5662949194457
-3051.4250309789268,-2416.3568773234142,3884.7583643122584
-5607.1871127633049,-303.59355638165744,4275.092936802962
-2732.3420074349342,-861.21437422552196,3066.9144981412533
-3509.9132589838791,-192.069392812887,2868.6493184634351
-1716.232961586114,-1198.8847583643078,3469.6406443618216
-2478.3147459727302,-669.14498141263414,2574.349442379174
-1858.7360594795477,-3193.9281288723569,3565.6753407682613
-709.41759603469018,-4640.6443618339381,4572.4907063196879
-3345.7249070631815,-2487.6084262701265,4516.7286245353025
-1527.2614622056883,-1524.1635687732253,6006.8153655514116
-4213.135068153646,1322.8004956629468,71.251548946713072
-4532.2180916976295,1109.0458488227973,3550.1858736059421
-3931.2267657992443,-1397.1499380421265,3711.2763320941604
-3305.4522924411276,281.90830235439989,2060.0991325898267
-2459.7273853779329,616.48079306071702,-1201.9826517967811
-2726.1462205700022,-585.50185873605653,2128.2527881040792
-2286.2453531598444,-5368.6493184634282,5455.3903345724675
-5551.4250309789177,2766.4188351920648,1332.09417596034
-2623.9157372986265,-1409.5415117719876,2887.2366790582314
-3894.0520446096521,585.50185873605926,2747.8314745972657
-2803.5935563816502,-678.43866171003356,1375.4646840148625
-1824.6592317224192,-1700.7434944237857,2605.3283767038279
-3522.3048327137399,-718.71127633209062,2608.4262701362886
-4414.4981412639299,-1273.234200743492,1350.6815365551295
-7568.1536555142266,3023.5439900867327,570.01239157372197
-4783.14745972737,-545.22924411400038,4132.5898389095282
-5170.3841387856064,2326.5179677819046,666.04708798016998
-2053.9033457248984,-1059.47955390334,3104.0892193308428
-3996.2825278810255,703.22180916976401,1669.7645600991254
-1964.0644361833865,1456.0099132589824,2016.7286245353093
-975.83643122675971,-926.27013630730744,1260.8426270136238
-3844.4857496901946,2698.2651796778159,2568.1536555142397
-2874.8451053283648,-876.70384138785334,405.82403965302774
-1979.5539033457769,-2586.7410161090975,2233.5811648078784
-86.741016109036764,-557.62081784386021,2589.8389095415014
-1868.0297397769448,37.174721189592347,2781.9083023543953
-3714.3742255266334,969.64064436183128,985.13011152415606
-3652.4163568773079,458.48822800495731,2534.0768277571169
-3023.5439900867314,-418.2156133828978,-706.31970260223511
-2757.1251548946593,-2726.1462205699981,6542.7509293680096
-2791.2019826517894,-1105.9479553903307,2146.8401486988801
58.859975216854529,-2363.6926889714914,1731.7224287484451
-752.78810408921265,-2509.29368029739,2732.3420074349369
-359.3556381660436,-6713.1350681536305,5814.7459727385185
61.957868649322648,-2583.6431226765708,2010.532837670374
-2069.3928128872312,-1486.9888475836408,275.7125154894614
-1802.973977695159,-1781.2887236678994,3636.9268897149777
-4903.9653035935444,-681.53655514250295,1462.2057001239079
-5006.1957868649142,-898.38909541511407,1889.7149938042005
-4569.3928128872294,464.68401486988188,3051.4250309789254
-3190.8302354398907,-551.42503097892961,2837.6703841387784
-7558.8599752168257,2620.8178438661612,1988.8475836431112
-1239.1573729863605,-1449.814126394049,2196.4064436183326
-5278.810408921915,4011.7719950433648,1406.4436183395242
-4327.7571251548788,-1545.8488228004906,4098.5130111523995
-2146.8401486988782,-1229.8636926889669,1521.0656753407575
-2360.5947955390229,-1762.701363073103,4845.1053283766914
-6177.1995043370325,275.71251548946549,2314.1263940520362
-3993.184634448563,-1143.1226765799206,5161.0904584882164
-2772.6146220569899,-520.44609665427333,3847.5836431226639
-4228.6245353159748,508.05452292440776,2809.789343246583
-4358.7360594795418,377.94299876084244,2617.7199504336941
-2422.5526641883434,-539.03345724906956,1610.9045848822745
-4612.7633209417454,-1703.841387856251,3048.3271375464574
-1849.4423791821482,-2828.3767038413798,3742.255266418822
-4315.3655514250122,498.76084262701545,4625.1548946716075
-1651.1771995043298,-1449.8141263940477,2534.0768277571115
-4817.2242874844978,-2726.1462205700082,1595.4151177199351
-1734.8203221809101,-1812.2676579925662,-52.664188351928431
-2602.2304832713648,-3076.2081784386546,4194.5477075588451
-5762.0817843865989,1341.3878562577397,1040.8921933085414
-858.11648079305417,-4086.1214374225392,3990.0867410160959
-3262.0817843866121,-4275.0929368029701,-758.98389095416974
-665.9495712021295,-919.97495734168047,1703.912025009575
-3441.7596034696248,-864.31226765798624,2407.0631970260088
-3392.1933085501742,1118.3395291201962,1737.9182156133754
-5619.578686493167,-381.04089219330547,4507.4349442379007
-1682.1561338289882,-1226.7657992564973,2472.1189591078019
-2701.3630731102771,-1456.0099132589773,3296.1586121437317
-1260.842627013626,-2311.0285006195754,2763.3209417595926
-2515.4894671623188,-718.71127633208687,3097.8934324659158
-1437.4225526641771,-1236.059479553895,1933.0855018587201
-5105.3283767038265,1998.1412639405162,3026.6418835192021
-1102.8500619578633,-3324.0396530359276,901.486988847578
-2153.0359355638111,-3921.9330855018511,2973.9776951672789
-2239.776951672854,-963.44485749690318,-226.14622057001461
-2258.5254533213947,-3125.9373659450462,3819.5327035107607
-3249.6902106567409,446.09665427509185,2057.00123915736
-3500.6195786864782,257.12515489467484,3528.5006195786809
-3667.9058240396439,-439.9008674540845,3543.990086741002
-2038.4138785625705,-1437.422552664181,1988.8475836431123
-3039.0334572490588,-2292.4411400247709,6282.5278810408736
-3714.3742255266279,557.62081784386601,2075.5885997521609
-2871.7472118959008,393.43246592317308,1127.6332094175882
-2091.0780669144897,-2323.4200743494357,2376.084262701349
-1874.2255266418736,-666.04679960027761,2128.2527881040814
-2419.454770755875,418.21561338290456,1998.1412639405166
-6192.6889714993613,-1964.0644361833877,5848.8228004956418
-4191.4498141263794,1006.8153655514229,3472.738537794291
-1638.7856257744663,-470.87980173481907,377.94299876083721
-2837.6703841387762,-2527.8810408921859,4792.44114002477
-2304.8327137546421,-1694.5477075588562,910.78066914497151
-2543.3705080545101,1957.8686493184628,2583.6431226765721
-3156.7534076827669,-1855.6381660470838,1725.5266418835108
-1837.050805452287,-873.60594795538634,2565.0557620817808
-2283.1474597273796,-3008.0545229244035,2741.6356877323346
-4804.8326763274235,34.076865184329854,3048.3271749736618
-3509.9132589838778,86.741016109043514,724.90706319701428
-4959.7273853779288,-1713.1350681536514,3128.8723667905651
-1338.2899628252724,-2134.4485749690189,579.30607187112059
-3500.6195791932846,213.75464684015131,2292.4411390111682
-2785.0061957868547,-1378.5625774473301,3850.6815365551333
-5238.5377942998621,-154.89467162329692,2255.2664188351791
-1437.4225526641828,-3835.1920693927982,3980.7930607187009
-3252.7881040892066,935.56381660470981,2970.8798017348095
-5820.9417596034546,1499.3804213135011,926.27013630730607
-2109.6654275092851,-92.936802973977223,1716.232961586119
-2679.6778190830105,-2311.0285006195704,4064.4361833952767
-1595.4151177199394,-728.00495662948845,1985.7496902106454
-3413.8785625774317,2586.7410161090402,-254.02726146221346
-4448.5749690210505,-216.85254027261462,2741.6356877323265
-3324.0396530359217,-71.251548946716156,2843.8661710037127
-5260.2230483271187,2283.1474597273773,30.978934324656503
-551.4250309789295,-3138.1660470879697,3153.6555142502966
-755.88599752168136,-5381.0408921932976,2140.6443618339399
-631.97026022304306,-3547.0879801734714,3385.9975216852422
-4089.2193308550077,-325.27881040892129,3358.1164807930527
-889.09541511771897,-1970.2602230483221,2245.9727385377878
-3655.5142503097763,-1102.8500619578649,3466.5427509293568
-4293.6802973977565,-337.67038413878714,2577.4473358116425
-2320.32218091697,-3169.1449814126281,5034.0768277571115
-3680.297397769501,-1827.7571251548882,4711.8959107806513
-5040.2726146220384,-1483.890954151173,2611.5241635687589
-3218.7112763320811,1620.1982651796766,1762.7013630731049
-2794.2998760842515,-799.25650557620861,-272.61462205700963
-3732.9615861214284,-1796.7781908302309,3655.5142503097759
-2630.1115241635589,1000.6195786864898,926.27013630730437
-4656.1338289962741,-21.685254027262886,675.3407682775636
-3547.0879801734695,997.52168525402476,486.36926889714641
-1648.0793060718674,-635.06815365551279,1960.9665427509203
-2661.0904584882178,-570.01239157372891,1310.408921933076
-972.73853779429021,-65.055762081780912,3581.1648079305974
-2506.1957868649224,-1205.0805452292384,2750.9293680297296
-3599.7521685253919,-2781.9083023543908,3156.7534076827628
-5133.2094175960201,1034.6964064436181,2416.3568773234101
-2462.8252788104014,-1236.0594795538982,3004.9566294919368
-5473.9776951672711,4008.6741016108977,1279.4299876084192
-4148.0793060718579,-585.5018587360571,3937.422552664174
-4429.9876084262578,904.5848822800483,2986.36926889714
-6474.5972738537585,139.40520446096599,2840.7682775712392
-2868.6493184634314,1929.9876084262708,2874.8451053283657
-2543.3705080545133,-1322.8004956629457,3711.2763320941676
-4324.6592317224113,1418.8351920693915,2385.3779429987521
-2868.6493184634332,-1434.3246592317187,1614.0024783147371
-4123.2961586121273,2521.6852540272557,3392.1933085501773
-2444.2379182156023,1700.7434944237878,721.80916976455489
-2732.3420074349324,-666.04708798016998,1570.6319702602207
-4835.8116480792887,-1871.1276332094089,1263.9405204460847
-5387.2366790582273,3314.7459727385258,-133.20941759603895
-1421.9330855018534,-1790.5824039652985,1542.7509293680209
-4188.3519206939145,-913.87856257756664,4414.4981412639263
-4460.9665427509153,944.85749690210343,2072.4907063196965
-669.14498141263527,-3407.6827757125006,2304.8327137546403
-6037.7942998760664,3624.5353159851247,1846.3444857496843
-2425.6505576208087,848.82280049566441,1486.9888475836337
-3416.9764560098988,-548.32713754646181,3268.2775712515372
-734.20074349441916,-1378.5625774473306,2376.0842627013585
-4194.5477075588487,-706.31970260222988,548.32713754646397
-2623.9157372986265,-2986.3692688971446,2469.0210656753297
-4848.2032218091599,1384.7583643122605,1886.6171003717411
-1725.526641883511,597.89343246592864,1189.5910780669096
-3497.5216852540175,-2425.6505576208137,2825.2788104089104
-3416.9764560099024,520.44609665427311,1136.9268897149873
-4594.1759603469491,693.92812887236698,2434.9442379182083
-4358.7360594795382,-1771.9950433705023,4668.5254027261326
-3782.5278810408827,-1561.3382899628225,3423.1722428748358
-1889.7149938042021,-123.91573729863235,1610.9045848822766
-3912.6394052044484,-570.01239157373027,2657.9925650557548
-3767.0384138785521,-164.18835192069409,1198.8847583643044
-3729.8636926889567,2035.3159851301089,1942.3791821561297
-1778.1908302354291,-285.00619578686536,1171.0037174721142
-1954.7707558859895,-3748.4510532837589,2503.0978934324526
-4563.1970260222861,1245.3531598512991,2583.6431226765685
-3020.4460966542633,266.41883519206908,2503.0978934324544
-3314.7459727385249,539.03345724907149,3054.5229244113875
-2546.4684014869786,-774.47335811648145,1725.5266418835138
-3169.1449814126245,-653.65551425030719,3841.3878562577311
-3900.2478314745872,285.00619578686508,2459.727385377937
-1548.9467162329533,-2245.9727385377842,3048.3271375464592
-4879.1821561338174,576.20817843865825,1586.1214374225431
-198.26517967781297,-2438.0421313506718,2199.5043370507951
-4073.7298636926748,-957.24907063196406,2769.5167286245223
-4811.02850061956,-1013.0111524163535,4581.7843866170888
-5486.3692688971323,718.71127633209267,3618.3395291201905
-3956.0099132589653,3952.9120198265141,2165.4275092936732
-3878.5625774473187,-167.28624535315572,4175.9603469640479
-5179.6778190830064,1849.4423791821537,2608.4262701362945
-5786.8649318463258,-628.87236679057935,4067.534076827741
-6936.1833952911757,3497.5216852540184,2763.3209417595949
-1700.7436267462103,-2245.9728702147381,2444.2378084848096
-1208.1784386617012,-1406.4436183395221,2887.2366790582319
-2084.882280049555,-266.41883519206334,2100.3717472118865
-4299.8760842626834,1685.2540272614622,2893.4324659231606
-1880.4213135068021,-867.41016109045358,2230.483271375454
-2317.2242874845024,-1784.3866171003674,3060.7187112763231
-3466.5427509293554,-836.43122676579583,2354.3990086740955
-2614.6220570012333,-690.83023543989805,1982.6517967781845
-2747.8314745972634,-1068.7732342007366,3274.4733581164678
-2853.1598513011022,1019.2069392812871,1180.2973977695099
-2961.5861214374108,-1629.4919454770722,2292.4411400247709
-6192.688971499364,2050.8054522924331,2211.8959107806581
-3689.5910780669014,232.34200743494156,2137.5464684014796
-2890.3345724906981,-6.1957868649304633,1728.6245353159798
-3246.5923172242783,-169.60537697244962,2103.4696406443541
-1632.5898389095328,-1112.1437422552613,2180.9169764560011
-1390.9541511771924,-514.2503097893358,1579.9256505576168
-2493.804213135063,-1363.0731102850043,1047.0879801734741
-3915.7372986369132,-2403.9653035935526,2831.4745972738424
-1753.4076827757049,-3190.8302354398893,3478.9343246592202
-2397.7695167286179,814.74597273853908,907.68277571250871
-3828.9962825278703,102.23048327137474,470.87980173481344
-2314.1263940520334,-1359.9752168525313,2961.5861214374099
-5706.3197026022126,548.32713754646772,2732.342007434931
-4327.7571251548752,1350.6815365551427,3104.0892193308391
-2326.5179677818996,-951.05328376703255,1880.4213135068128
-2930.6071871127506,408.92193308549838,1140.0247831474521
-2078.6864931846249,-1102.850061957861,2766.4188351920593
24.783147459730298,-2958.4882280049474,3212.5154894671505
-3004.9566294919364,570.01239157373129,2605.328376703832
-2218.0916976455896,-322.18091697645542,2289.3432465923111
-4829.6158612143572,83.643122676579765,3135.0681536555012
-2682.7757125154803,-4346.344485749677,4299.8760842626871
-3884.758364312258,-207.55885997521474,916.97645600991086
-2450.4337050805366,145.60099132590099,1830.8550185873542
-1985.749690210645,21.685254027265277,1288.7236679058199
-5096.0346964064265,2472.1189591077996,2211.8959107806659
-4027.2614622056853,58.859975216854814,2630.1115241635621
-1490.0867410161002,-1663.5687732341953,1830.8550185873521
-2019.8265179677744,-238.53779429987316,1403.3457249070525
-2918.2156133828921,-1669.7645600991259,2766.4188351920602
-4033.0570879924949,709.81775711281648,2175.1213506691906
-2927.5092936802857,-452.29244114002262,2422.5526641883421
-3444.8574969020938,300.49566294919799,2952.2924411400122
-2425.6505576208083,-1672.8624535315919,2794.2998760842552
-4628.2527881040669,-480.1734820322136,2091.0780669144888
-3181.5365551424925,343.86617100371666,2134.4485749690061
-3122.6765799256405,-436.80297397769135,2716.8525402726054
-1849.4423791821487,-579.30607187112423,687.73234200743343
-2995.6629491945355,-24.78314745972537,2115.8612143742184
-870.50805452291877,-3004.956629491935,1756.5055762081686
-3550.1858736059353,390.33457249070813,3200.1239157372856
-2946.0966542750884,-1623.2961586121376,3475.8364312267613
-5560.718711276314,195.16728624535583,5099.132589838895
-3246.5923172242765,1211.2763320941758,2506.1957868649215
-2469.0210656753275,1675.9603469640647,250.9293680297352
-4219.330855018572,2187.1127633209385,836.43122676579401
-6056.3816604708627,1112.1437422552656,2438.0421313506736
-5198.2651796778027,2385.3779429987567,2419.4547707558822
-3599.7521685253896,480.17348203221979,1762.7013630731019
-3249.6902106567427,-1583.0235439900814,4538.4138785625646
-5009.2936802973827,1521.0656753407654,15.489467162322288
-3983.8909541511616,-263.32094175959878,4241.0161090458323
-1053.2837670384069,-4773.8537794299755,4547.707558859961
-3255.885997521676,-851.920693928123,1598.5130111524059
-3519.2069392812768,455.39033457249144,1899.0086741016034
-3082.4039653035802,2469.0210656753402,2078.6864931846317
-4513.6212789679166,2211.9082148528423,1815.3838038234755
-2794.2998760842534,-1338.2899628252774,2797.3977695167173
-1446.7162329615801,-1601.6109045848741,3519.2069392812773
-2800.4956629491858,-920.07434944236991,3828.9962825278617
-2447.3358116480681,-1136.9268897149939,-157.99256505576588
-2967.7819083023419,1688.3519206939282,1957.8686493184587
-3627.6332094175868,-2211.8959107806631,4008.6741016108917
-3355.0185873605851,628.87236679058265,1929.9876084262621
-2952.2924411400149,-2555.7620817843804,3280.6691449813989
-114.62205700123215,-2862.4535315985013,2636.3073110284881
-3404.5848822800385,-1016.1090458488206,3308.5501858735934
-4101.6109032294235,963.44485749690205,2809.789345053845
-2143.7422552664084,-1195.7868649318445,2527.881040892189
-2456.6294919454667,-5173.4820322180822,4157.3729863692542
-5226.1462205699954,-864.3122676579876,5966.5427509293504
-3314.7459727385221,1440.5204460966547,2233.5811648079243
-3200.1239157372879,1542.7509293680278,2403.9653035935512
-4811.0285006195663,164.18835192069099,3438.6617100371659
-3076.2081784386519,-762.08178438661264,1384.7583643122571
-5597.8934324659085,-427.50929368029671,1431.22676579925
-1995.0433705080497,-2286.2453531598453,718.71127633208516
-4780.0495662949061,2757.1251548946661,2540.2726146220493
-3203.2218091697482,-622.67657992564455,3720.5700123915608
-2682.7757125154794,-1000.6195786864893,2376.0842627013581
-6728.6245353159666,728.00495662948845,52.664188351914639
-4736.6790582403783,325.27881040892117,870.50805452291536
-5173.4820322180758,1043.990086741014,557.62081784385771
-4120.1982651796634,-346.96406443618054,2682.7757125154803
-3184.6344487981542,480.17348180901939,1936.1833950679902
-4628.2527881033684,-783.76703841292192,2970.8798017361964
-1245.3531598512918,-1363.0731102850002,2602.2304832713671
-4089.219330855005,-387.23667905823959,2425.6505576208056
-2577.4473358116397,-1332.0939043358073,263.320941759596
-3943.6183395291018,1223.6679058240393,2896.5303593556332
-1552.0446096654234,-1713.1350681536503,1781.2887236679005
-4606.567534076813,-1586.1214374225497,3042.1313506815191
-2298.636926889707,-204.46096654274666,2744.733581164799
-2592.936802973969,219.95043370507972,-250.92936802974421
-591.69764560098497,-2292.4411400247732,3909.5415117719881
-3633.8289962825133,-1279.4299876084187,3736.0594795538873
-3785.6257744733439,-827.13754646839755,1663.5687732341905
-3454.1511771994901,1623.2961586121392,978.93432465922308
-1555.142503097886,-3872.3667905823922,3928.1288723667753
-4888.4758364312147,1229.8636926889676,1889.714993804203
-3299.2565055761952,-895.29120198264934,1868.0297397769425
-5244.7335811647927,3135.0681536555048,-861.21437422553549
-2131.3506815365445,-1428.1288723667863,3466.5427509293622
-1440.5204460966477,-1009.9132589838897,322.18091697644883
-3615.241635687722,-1403.3457249070584,3689.5910780669083
-2791.2019827078666,1350.6815364990671,4575.5885996960787
-3296.1586121437308,-681.53655514250272,1366.1710037174601
-920.07434944237298,-2363.6926889714946,703.2218091697539
-3602.8500619578563,954.15117719950342,2286.2453531598453
173.48203221809547,-3946.7162329615712,5117.7199504336922
-1071.8711276332026,-1425.0309789343196,1964.0644361833895
-2670.3841387856146,-2431.8463444857362,4467.1623296158459
-910.78066914497856,-3166.0470879801665,2397.7695167286151
-4903.9653035935435,275.71251548947055,2874.8451053283634
-5027.8810408921763,2245.9727385377887,1490.0867410161045
-672.24287484509989,-2317.2242874844997,2565.0557620817735
-3630.731102850048,-1895.9107806691406,3258.983890954134
-4931.8463444857325,929.36802973977058,2211.8959107806641
-3522.3048327137426,-839.52912019826238,4910.1610904584732
-3076.2081784386496,-1614.002478314743,718.71127633208289
-2877.9429987608319,-365.55142503097812,1047.0879801734734
-3999.3804213134913,1146.2205700123923,3509.913258983881
-3869.2688971499229,-179.67781908302314,3782.5278810408759
-3559.4795539033362,18.587360594797442,3314.7459727385331
-6282.527881040879,1043.9900867410117,356.25774473357529
-2376.084262701354,842.62701363073131,994.42379182155923
-2946.0966542750848,997.52168525402385,1821.5613382899546
-3432.4659231722299,718.71127633209642,3221.8091697645514
-2670.3841387856123,204.46096654275257,3519.2069392812768
-4132.58983890952,-216.8525402726149,3506.8153655514093
-3986.9888475836274,824.03965303593179,1016.1090458488105
-4228.6245353159684,-3887.8562577447224,4200.7434944237693
-3466.5427509293581,-613.38289962824967,3630.7311028500494
-2007.4349442379103,-3404.5848822800403,2797.3977695167146
-4532.2180916976358,-2233.5811648079307,1499.3804213134933
-3228.0049566294788,889.09541511771931,1734.8203221809106
-3370.5080545229066,966.54275092936973,3228.0049566294842
-5415.1177199504173,1493.1846344485684,2893.4324659231629
-5353.1598513010995,1880.4213135068098,1883.5192069392697
-5833.3333333333157,2242.8748451053248,1592.3172242874766
-4965.9231722428594,2986.3692688971423,1158.6121437422464
-1666.6666666666586,-2019.8265179677765,3008.0545229244003
-5709.4175960346793,1208.1784386617064,2558.8599752168452
-3342.6270136307203,-1483.8909541511719,3856.8773234200589
-2908.9219330854921,1840.1486988847541,-244.73358116481447
-3302.3543990086623,-96.034696406442805,2543.3705080545124
-2843.8661710037081,127.01363073110511,1171.0037174721101
-3255.8859975216701,-520.44609665427254,2428.7484510532731
-4832.7137546468302,-173.48203221809027,154.89467162328495
-3228.0049566294838,-2156.1338289962782,3971.4993804212954
-6710.0371747211721,3035.9355638165957,1666.6666666666629
-4634.4485749690048,3336.4312267657906,1452.9120198265139
-1750.3097893432384,-6152.4163568773047,5111.5241635687516
-4516.7248339332318,811.65371000623645,-247.82341496762908
-1425.030978934316,229.24411400248175,3801.115241635679
-3125.7744733581039,972.73853779430101,1988.8475836431146
-3014.2503097893305,929.36802973977785,1102.8500619578638
-1706.9392812887158,58.859975216854387,1254.6468401486909
-4148.0793060718561,-941.75960346963507,2797.3977695167123
-5777.5712515489295,594.79553903345652,2041.5117719950269
-1632.5898389095325,-693.92812887236448,697.02602230482614
-1090.4584882279999,-4241.0161090458387,1273.2342007434831
-4321.5613382899473,-269.5167286245329,2670.3841387856182
-2376.0842627013544,157.99256505576238,715.61338289962623
-2450.4337050805311,387.23667905824288,1713.135068153651
-1245.3531598512939,49.566294919457924,768.27757125153732
-1799.87608426269,715.61338289963112,2363.692688971491
-1837.0508054522861,-6096.6542750929202,5346.9640644361698
-4662.3296158611993,3522.3048327137403,436.8029739776905
-4402.1065675340606,-1899.0086741016012,5408.9219330854867
-4420.6939281288569,-978.9343246592307,3915.7372986369096
-4789.3432465923015,1366.1710037174696,514.25030978934058
-1152.4163568773158,-3169.1449814126281,4501.2391573729719
-5653.6555142502903,-814.74597273853431,1589.2193308550052
-3128.8723667905715,1158.612143742256,2242.8748451053229
-3596.654275098278,-1632.58983891466,4073.7298636876649
-1425.0307555249169,-2165.4272674858489,2596.0350078654164
-4064.436183395278,-1239.1573729863653,2750.9293680297292
-3336.4312267657856,489.46716232961512,3039.0334572490647
-1394.0520446096587,-2580.545229244105,3767.0384138785503
-3469.6406443618212,-30.978934324656397,2605.3283767038338
-5021.6852540272484,-873.60594795538816,1350.6815365551361
-3314.7459727385271,-365.55142503097926,2050.8054522924281
-2512.3915737298521,291.20198265179562,2221.1895910780549
-3618.3395291201882,-1815.3655514250236,1573.7298636926796
-2651.7967781908178,771.37546468401422,2645.6009913258949
-1575.638152833603,-990.53699141785989,2961.1428932478434
-2431.8463444857371,-1223.667905824035,2946.0966542750834
-4262.7013630730971,1431.2267657992554,2781.9083023543913
-4959.7273853779243,582.40396530359442,4234.8203221809054
-3674.1016109045722,247.83147459727329,2094.1759603469559
-2193.3085501858613,241.63568773234377,-532.83767038414624
-3729.8636926889576,-105.32837670384068,2970.8798017348086
-2134.4485749690102,-969.640644361829,2422.552664188343
-5207.5588599752,2004.3370508054481,2004.3370508054445
-4386.6171003717327,2893.4324659231665,1047.0879801734793
-2546.4684014869786,2208.7980173482001,2496.902106567527
-4024.1635590892579,-402.7261354471583,136.30732640179579
-4848.2032272923716,4646.8401432490928,1387.856253966658
-3711.2763320941631,-477.07558859974898,2837.6703841387744
-2159.2317224287422,173.48203221809118,-362.45353159851618
-3110.285006195772,724.90706319702406,1818.4634448574866
-861.21437422552219,-5855.0185873605724,5229.2441140024612
-5613.3828996282327,1672.8624535315967,3221.8091697645491
-3280.6691449814007,-2692.0693928128771,2921.3135068153506
-2589.8389095415027,-585.5018587360571,1459.1078066914449
-3503.7174721189467,368.64931846344462,2630.1115241635598
-2019.8265179677724,-833.333333333327,2493.8042131350594
-1942.3791821561226,-325.27881040891617,2171.6232961586047
-4482.6517967781774,-1143.1226765799224,3937.4225526641735
-4017.9677819082881,1065.6753407682745,1700.743494423783
-4482.6517967781738,452.29244114002307,1310.4089219330817
-650.55762081783757,-3348.8228004956541,3255.8859975216724
-2654.8946716232845,-111.52416356877002,328.37670384138369
-1651.1771995043287,-198.26517967781692,1753.4076827757044
-1418.8351920693899,-1598.5130111524074,1741.0161090458423
-1093.5563816604638,-793.06071871127187,1480.7930607187011
-3986.9888475836337,-681.5365551424992,3289.962825278797
-1864.9318463444772,-1552.0446096654202,2766.4188351920616
-4814.1263940520275,1248.4510532837642,1728.6245353159754
-2664.1883548379301,-545.2292470892005,3813.5068133369941
-4237.9182156133656,-566.91449814126031,3348.8228004956509
-2627.013630731095,-470.87980173481378,3271.3754646840043
-1403.345724907053,238.53779429987779,1471.4993804213034
-2664.1883519206863,-2493.8042131350635,3153.6555142502966
-4039.653035935547,-1384.758364312263,4727.3853779429828
-1911.4002478314681,-1347.5836431226703,1957.8686493184587
-1294.9194547707466,-771.37546468401001,1059.4795539033387
-4730.4832713754495,799.25650557620679,-303.59355638166528
-3382.8996282527769,-1081.1648079306074,3035.9355638165875
-5421.313506815347,2057.0012391573705,263.3209417595998
-1552.0446096654171,-2410.1610904584822,1437.4225526641806
-985.13011152416027,-2645.6009913258886,2794.2998760842484
-4188.3519206940182,-381.04089219336345,300.4956629491208
-3351.9206939281162,1068.773234200743,1852.5402726146131
-3389.0954151177016,-315.98513011152204,2366.7905824039553
-2506.1957868649229,978.93432465923024,1725.5266418835104
-371.74721189590514,-3364.3122676579842,1660.47087980172
-3859.9752168525274,1279.4299876084231,1418.8351920693854
-362.45353159850521,-1688.3519206939197,1626.3940520446013
-3342.6270136307162,650.55762081784462,2589.8389095415077
-5139.4052044609498,-117.71995043370329,3791.8215613382813
-2642.5030978934233,-1415.7372986369228,1366.1710037174596
-2812.8872366790474,-1201.9826517967733,4197.6456009913127
-4860.594795539022,-427.50929368029415,5086.7410161090302
-3915.7372986369137,86.741016109047038,2571.25154894671
-3141.2639405204332,-2688.9714993804096,2140.644361833939
-5238.5377942998603,-864.31226765798885,3169.1449814126227
-2094.1759603469573,-864.3122676579884,2075.5885997521596
-5377.9429987608246,3035.9355638166012,594.79553903345175
-4064.4361833952757,2270.7558859975165,982.03221809169327
-4383.5192069392651,2710.6567534076762,706.31970260222852
-2688.9714993804109,1081.1648079306044,1852.5402726146181
-2332.7137546468266,-309.78934324658667,2670.3841387856173
-2946.0966542750803,1164.807930607187,3221.8091697645505
-5021.6852540272484,1409.5415117719899,1787.4845105328295
-1028.5006195786812,-4479.5539033457135,3931.2267657992384
-3138.1660470879719,-916.97645600990745,1171.0037174721133
-4913.2589838909398,2568.1536555142416,1093.5563816604631
-3221.8091697645496,-1434.3246592317157,3107.1871127633094
-4324.6592317224149,-1988.8475836431171,1260.8426270136151
-3900.2478314745827,1849.4423791821546,1663.5687732341964
551.42503097893245,-2980.1734820322104,2456.6294919454672
-1864.9318463453315,-669.14498141360252,752.78810408921152
-2908.9219330854889,2434.944237918211,799.25650557620713
-731.10285006195261,-3299.256505576197,3311.6480793060628
-4618.959107806676,2335.8116480793037,1982.6517967781806
-5089.8389095414987,2007.4349442379148,207.55885997521366
-2487.6084262701256,941.75960346964098,-157.99256505576531
-2871.7472118959017,653.65551425031003,3094.7955390334455
-1016.1090458488206,-4653.0359355638066,3305.4522924411276
-4141.8835192069218,136.30730558929184,3277.5712515489358
-6198.8847583642946,2534.0768277571192,2905.8240396530268
-3004.9566294919309,-210.65675340767925,2809.7893432465858
-1868.0297397769837,-1868.0297397769461,2834.5724907062599
-4337.0508054522761,644.36183395290925,3308.5501858735943
-5439.9008674101469,2001.2391573729826,1449.8141263940468
-1236.059479553898,-811.64807930606344,1933.085501858724
-2407.0631970260119,-1691.4498141263921,2877.942998760831
68.153655514253387,-3206.3197026022208,3881.6604708797895
-4154.2750929367921,2196.4064436183367,1604.7087980173405
-4395.9107806691309,92.936802973978629,1133.8289962825199
-2698.2651796778114,9.2936802973985806,1731.7224287484466
-1143.1226765799202,-1976.4560099132527,2518.5873605947872
-3559.4795539033362,161.09045848822737,1177.1995043370416
-1644.9814126393983,-381.04089219330666,1815.3655514250283
-2131.3506815365454,740.39653035935692,1232.9615861214297
-3937.4225526641785,-870.508054522924,802.3543990086697
-2038.4138785625657,684.63444857497052,2543.3705080545169
-2103.4696406443531,-322.18091697645264,2620.8178438661635
-3249.6902106567431,1009.913258983892,1328.9962825278762
-3850.6815365551338,-594.79553903345357,2382.2800495662868
477.07558859975876,-2177.8190830235358,1583.0235439900741
-3605.9479553903234,-430.60718711275933,4244.114002478299
-1242.2552664188265,-600.99132589838359,1976.456009913257
-3903.3457249070511,1530.3593556381632,291.20198265178936
-5353.1598513010977,241.63568773234144,4114.002478314731
-4281.2887236678898,2403.9653035935494,1895.9107806691352
-2233.5811648079225,-3135.0681536555048,3618.3395291201846
-2032.2180916976395,-1806.0718711276263,2506.1957868649229
-786.8649318463373,-1951.6728624535231,3265.1796778190719
-2977.0755885997387,529.73977695167332,1967.1623296158514
-2524.7831474597133,1403.3457249007447,1260.8426270136283
-3875.4646840148566,-1936.1833952911979,3890.9541511771831
-1716.2329615861142,232.34200743494424,923.17224287484157
-2097.2738537794221,-263.32094175959963,2267.6579925650485
-4448.5749690210496,322.18091697645821,2716.8525402726063
-4086.1214374225378,154.89467162329467,3116.4807930607085
-2757.1251548946625,-130.11152416356521,2552.6641883519128
-2623.9157372986256,1164.8079306071877,1753.4076827757033
-3949.814126394042,-1598.5130111524122,5006.1957868649151
-3767.0384270100926,3011.1524163568715,1747.2118937221878
-2648.698884758358,-542.13135068153383,2109.6654275092878
-2890.3345724906981,-241.63568773234161,749.69021065674895
-4191.4498141263757,2599.1325898389068,1682.1561338289844
-2292.4411400247782,-1025.4027261462206,2611.524163568768
-4166.6666666666542,-3531.5985130111449,5635.0681536554985
-3175.3407682775573,-529.73977695166911,4526.0223048326989
-2338.9095415117631,-1960.9665427509235,697.0260223048258
-1914.4981412639288,-1394.0520446096605,2961.5861214374113
-3299.2565055761943,130.11152416357055,2267.6579925650426
-2506.195786864922,-46.468401486990508,1232.9615861214306
-3135.068153655503,-802.35439900866834,3311.6480793060596
-3423.1722428748308,737.29863692689196,2967.7819083023437
-5074.3494423791681,-892.19330855018598,2438.0421313506695
-1790.5824039652923,-1635.6877323420013,1641.8835192069305
-5207.5588527937434,3138.1660542694303,938.66171721862486
-1833.9529120198195,535.93556381660983,1378.562577447329
-4293.6802973977556,848.82280049566225,1620.1982651796723
-3209.4175960346884,-842.6270136307287,3432.4659231722349
-2831.474597273841,-65.055762081782319,3339.5291201982541
-1167.9058240396485,-1084.2627013630688,1725.5266418835126
-1651.1771995043289,-4857.4969021065544,4987.6084262701197
-2156.1338289962691,216.85254027261999,4228.6245353159748
-2657.9925650557461,1641.8835192069378,2781.9083023543917
-5058.8599752168375,1840.1486988847546,2165.4275092936723
-1753.4076827757058,-1242.2552664188277,3057.6208178438615
-678.43866171003276,-1936.1833952911954,2221.1895910780599
-2983.2713754646757,-2868.6493184634382,495.66294919453895
-3596.6542750929243,-2276.951672862449,3974.5972738537689
-4962.8252788103955,-1945.4770755885968,2850.061957868636
-2688.9714993804146,-2465.9231722428681,3906.4436183395164
-1886.6171003717427,-504.95662949194417,1480.7930607187034
-3463.4448574968928,-1468.4014869888451,721.80916976455103
-5777.5712515489267,1316.6047087980146,3240.396530359345
-2840.7682775712397,-1790.5824039652971,3720.5700123915617
-2413.2589838909457,-61.957868649319764,848.8228004956585
-904.58488228004182,-4293.6802973977556,4553.9033457248952
-4089.2193308550095,-1644.981412639404,882.8996282527836
-2571.2515489467064,-969.64064436183014,3578.0669144981271
-5508.0545229243944,-114.62205700123828,2952.2924411400122
-5449.1945477075424,337.67038413878606,3686.4931846344321
-2348.203221809159,-455.39033457248632,1328.9962825278769
-2109.665427509286,-724.90706319702076,3020.4460966542656
-2667.2862453531502,-1298.0173482032174,3726.7657992564955
-4572.4907063196879,-2930.6071871127583,1905.2044609665322
-6248.4510532837503,-2091.078066914497,3497.5216852540088
-4064.4361833952762,920.07434944237741,2465.9231722428658
-480.17348203221201,-1313.5068153655413,2775.7125154894602
-2664.1883519206813,173.48203221809112,1205.0805452292343
-1741.016109045846,-3593.5563816604586,4160.4708798017227
-3178.4386617100258,-130.1115241635645,3482.0322180916887
-2877.9429987608291,-356.2577447335795,1161.7100371747142
-2853.1598513011077,-638.16604708797718,1232.9615861214277
-4600.3717472118797,-2143.7422552664098,4628.2527881040724
-2035.3159851301032,-700.12391573729622,2271.8390056814751
-700.1239157372903,-1332.0941759603397,415.11771995042534
-4714.9938042131189,1561.3382899628248,2057.0012391573646
-4795.5390334572294,-1421.9330855018529,4758.3643122676476
1833.9529120198279,-1304.2131350681466,1697.6456009913154
-3193.9281288723596,-498.76084262701119,-1127.6332094176037
-5839.52912019824,591.69764560099122,3348.8228004956513
-2856.2578205541054,-3150.557620817835,1412.6393546574332
-1682.1561338289901,-799.25650557620781,1567.534076827749
-1564.4361833952833,-1059.4795539033391,2763.3209417595963
-1263.9405204460897,-1378.5625774473301,2620.8178438661653
-3485.1301115241508,-749.69021065674895,2450.4337050805316
-6459.1078066914333,1691.449814126388,1555.1425030978812
-789.96282527880453,-4073.7298636926744,1198.8847583643062
-4416.8862761419023,-835.7214682113065,4084.2157540350586
-5449.1945477075424,-1449.8141263940463,4169.7645600991209
-4938.0421313506686,-1248.4510532837628,4832.7137546468275
-4368.0297397769364,978.93432465923138,3423.1722428748326
-5377.9429987608291,985.13011152416266,2450.4337050805398
-254.02726146220502,-3788.7236679058137,2877.9429987608337
-4457.8686493184459,-762.081784386614,3506.8153655514157
-3314.7459727385294,-303.59355638165857,1768.8971499380345
-3029.7397769516633,-3708.1784386617001,5659.8513011152199
-1933.0855018587274,381.04089219330979,1595.4151177199465
-1195.7868649318391,-988.22800495662364,1967.1623296158537
-2394.6716232961503,-1827.7571251548891,3426.2701363072947
-1418.8351920693813,374.84510532837851,777.57125154893868
-4625.1548946716121,24.783147459726145,2162.3296158612065
-635.06815365550995,-4256.5055762081683,3636.9268897149836
-3677.1995043370384,489.46716232961444,1462.2057001239057
-514.25030978933762,-4104.7087980173401,3776.3320941759503
-1496.2825278810342,-848.82280049565827,3841.3878562577379
-2812.8872366790515,-2376.0842627013558,2413.2589838909416
-3825.898389095405,-904.58488228004717,3017.3482032218003
-1364.8303386599359,-4026.121896906785,4597.4079202851653
-3599.7521685253887,-700.1239157372936,4671.6232961585993
-3122.6765799256368,1508.6741016109008,1462.2057001239109
-2905.8240396530282,-1344.4857496902084,2465.9231722428635
-3627.6332094175868,-1105.9479553903311,3097.8934324659135
-2298.6369268897079,213.7546468401485,2047.7075588599682
-4402.1065675340615,570.01239157372788,2980.1734820322063
-2493.8042131350639,-1406.4436183395255,2856.2577447335716
-3943.6183395291068,-250.92936802973534,3875.4646840148598
-3389.0954151177066,-511.15241635687215,2456.6294919454695
-3863.0731102849904,223.04832713755073,3612.1437422552558
-1387.8562577447308,-3701.9826517967672,1892.8128872366674
-2967.7819083023405,-1143.1226765799217,2605.3283767038342
-2357.4969021065604,-2317.224287484506,-12.391573729875281
-796.15861214373763,-2292.4411400247768,2444.2379182156042
-5520.4460966542574,576.20817843866052,3782.5278810408813
-1003.7174721189531,-1536.5551425030926,2639.405204460953
-3314.7459727385235,362.4535315985151,4495.0433705080477
-4337.0508054522816,-2081.7843866170952,4312.2676579925528
-2846.9640644361743,-1456.0099132589817,2856.2577447335725
-5504.956629491925,1078.0669144981384,3444.857496902096
-1750.3097893432396,-3550.1858736059371,3863.0731102849886
-5055.7620817843708,3228.0049566294874,1830.8550185873501
-1521.0656753407595,743.49442379182426,1877.3234200743452
-2465.9231722428676,-58.85997521685249,2382.2800495662855
-4315.3655514250177,855.01858736059216,1205.0805452292382
-2555.7620817843758,-3351.9206939281153,5092.9368029739608
-5399.6282527880894,703.22180916976299,2815.9851301115164
-139.40520446096329,-5068.1536555142375,1939.2812887236569
-4944.2379182155983,1291.8215613382886,3265.1796778190715
-2258.3643122676458,882.89962825278747,697.02602230482751
-4882.2800495662796,-495.66294919454504,3432.465923172228
-3054.5229244113925,-1421.9330855018536,2927.5092936802912
-3810.4089219330704,-653.65551425030708,3782.5278810408804
-563.81660470879262,-963.44485749689431,1428.1288723667885
-5889.0954151177002,3729.9169954793379,1700.7434944237839
-5006.1957868649106,1824.6592317224249,2797.3977695167182
-3478.9343246592193,-254.02726146220544,1660.4708798017252
-1363.0731102849973,-223.04832713754172,954.15117719950092
-2087.9801734820257,-3451.0532837670276,3543.9900867410047
-2936.8029739776871,-2912.0198265179574,3897.1499380421196
-2481.4126394051937,-312.88723667905475,724.90706319701462
-3070.0123915737167,-2125.1548946716166,3680.2973977695051
-3528.5006195786777,-622.67657992564932,2283.1474597273818
-2899.628252788088,-923.17224287483702,3977.6951672862301
-2518.5873605947822,1403.3457249070623,2757.1251548946666
-2710.6567534076712,610.28500619579074,1806.0718711276263
-3457.2490706319554,607.18711276332033,1725.5266418835113
458.48822800495958,-3640.0247831474476,3296.1586121437294
-3776.3320941759439,-1186.4931846344459,3135.0681536555016
-3262.0817843866075,560.71871127633267,2236.6790582403887
-4851.3011152416202,-2438.0421313506768,2527.8810408921786
-2484.510532837658,-501.85873605947631,2651.7967781908201
-3023.5439900867291,-1874.2255266418786,1493.1846344485691
-4402.1065675340642,-3100.9913258983815,3667.9058240396398
-1517.9677819082924,-929.3680297397699,2949.1945477075492
-3054.5229244113898,-2363.6926889714887,5384.1387856257643
-3039.0334572490633,647.45972738537773,1954.770755885995
-3816.6047087980087,328.37670384139108,2896.5303593556282
-1880.4213135068071,-2041.5117719950326,3438.6617100371654
-4668.5254027261317,-1762.7013630731071,1722.4287484510419
-2416.356877323406,-938.66171003716806,3073.1102850061843
-5520.4460966542583,-2221.1895910780595,5501.8587360594611
-4581.7843866170888,1700.7434944237834,-839.52912019826601
-2503.0978934324535,-343.86617100371706,1886.6171003717388
-2942.9987608426181,-396.53035935563412,2834.5724907063113
-1762.7013630787094,-1998.1412639461189,3076.2081784330448
-374.84510532837288,-3618.3395291201859,3308.5501858735929
-3289.9628252788002,-1084.2627013630668,3587.3605947955234
-2611.5241635687607,824.03965303593611,2670.3841387856201
-4600.3717472118806,-904.52069531822769,1830.855018587351
-2986.3692688971369,-498.76084262700948,2329.6158612143663
-4185.2540272614506,102.2304832713744,2617.7199504336986
-2794.2998760842574,-1716.2329615861167,3587.3605947955293
-3274.4733581164687,-43.370508054524223,1923.7918215613327
-3590.458488227991,-520.44609665427333,3234.2007434944162
-3652.4163568773092,-1837.0508054522866,3838.2899628252653
-3268.2775712515418,-2094.1759603469545,3807.3110285006096
-4656.1338289962669,133.20941759603522,3200.123915737287
-554.52292441139787,-2174.7211895910705,1979.5539033457164
-1759.6034696406325,-1421.9330855018575,3472.7385377942865
-2013.6307311248479,-1313.5068153874449,1087.3605947772799
-1790.5824039652914,-2397.7695167286179,1192.6889714993695
-1648.0793060718618,-904.58488228004319,1644.9814126393976
-1697.6456009913204,-1102.8500619578629,3054.5229244113912
-4371.1276332093994,604.08921933085594,2205.7001239157275
-1852.5402726146149,-1939.2812887236614,3051.4250309789231
-2153.0359355638084,-219.95043370507705,2859.3556381660401
-2438.0421313506663,1267.0384138785651,2438.042131350674
-6186.4931846344289,1871.1276332094124,1319.7026022304753
-5991.3258983890728,-127.01363073109948,4083.023543990073
-678.43866171003265,-3630.7311028500521,3516.1090458488075
-5195.167286245337,901.48698884758574,3537.7942998760714
-2574.3494423791694,-1251.5489467162267,4048.9467162329456
-3732.9615861214284,192.06939281288643,777.57125154894061
-3900.2478314745867,-1226.7657992565012,2366.790582403954
-2162.3296158611997,-1415.7372986369214,3472.7385377942837
-1837.0508054522843,-151.7967781908271,3971.499380421305
-3906.4436183395155,-681.53655514249874,3255.8859975216719
-3875.464684014858,-514.25030978934035,2072.4907063196952
-1167.9058240396448,-3097.893432465914,3178.4386617100263
-3640.0247831474467,-1589.2193308550136,2413.2589838909385
-1415.7372986369242,-4606.5675340768184,1991.945477075579
-4120.198265179667,-1335.1920693928073,4653.0359355638038
-1521.0656753407577,-802.35439900867038,2506.1957868649247
-3073.1102850061898,-3463.4448574968951,1084.2627013630606
-4510.5328376703719,-3376.7038413878504,3537.7942998760673
-1431.2267657992493,-3035.9355638165921,3602.8500619578549
-2995.6629491945341,-4386.6171003717354,5074.3494423791599
-2775.7125154894566,-3921.9330855018466,6874.2255266418661
-3574.9690210656677,77.447335811648244,2180.9169764560061
-1753.4076827757026,-672.24287484510057,1654.2750929367951
-5250.9293680297269,721.80916976455649,1242.2552664188231
-6022.3048327137358,2428.7484510532749,2537.1747211895822
-5297.3977695167114,-281.90830235439813,3900.2478314745831
-3255.8859975216715,703.22180916976379,3175.3407682775673
-731.1028500619492,-3720.5700123915626,4132.5898389095255
-1985.7496902106448,-548.32713754646034,2695.1672862453484
-1232.9615861214318,-1663.5687732341937,1846.3444857496825
-1945.47707558859,-1459.1078066914474,3237.2986369268779
-2326.5179677818987,-1301.1152416356824,3283.7670384138655
-1248.4510532837571,-2273.8537794299777,3630.7311028500467
-2735.4399008674004,-405.82403965303723,-1013.0111524163603
-2673.4820322180826,377.94254938512023,2286.2453531598476
-1626.3940520446067,-387.23667905823788,2103.4696406443554
-377.94299876083892,-1933.0855018587304,1951.6728787896686
-4287.4845105328268,-1298.0173482032183,3578.0669144981325
-3296.1586121437299,526.64188351920973,3110.2850061957797
283.20494090439485,-1563.1395448452909,1398.4465765921168
-2698.26517967781,291.20198265180062,-399.62825278810811
-2165.4275092936709,-2081.784386617097,1771.9950433704926
-1164.8079306071818,30.97893432466266,610.28500619577846
-3339.5291201982564,-1081.1648079306067,1945.4770755885879
-2041.5117719950331,-1192.688971499377,2998.7608426270021
-4775.25824491819,958.78724482032453,2084.8750983643081
-4011.7719950433561,-319.08302354398421,4222.4287484510387
-814.74597273852817,-2379.1821561338165,2627.0136307310922
-808.55018587359291,-65.055762081782319,2921.3135068153579
-4278.190830235425,-1003.7174721189549,4340.1486988847446
-6923.791821561319,1115.2416356877297,2546.4684014869795
-5254.0272614621872,1985.7496902106543,3584.2627013630599
-4699.5043370507901,2515.4894671623256,1985.7496902106489
-3184.6344485749601,-2434.9442379182092,1214.3742255266332
-2719.9504337050698,-105.32837670383843,1171.0037174721151
-4234.8203221809035,68.153655514249877,2193.3085501858627
-2877.942998760831,1747.2118959107779,842.6270136307254
-2413.258983890943,-58.830782306259358,3463.4448574968937
-2131.350681536549,-2317.2242874845015,2527.8810408921827
-1679.0582403965236,-3472.7385377942915,2202.6022304832582
-1923.7918215613283,-2698.26517967781,3745.3531598512827
-1775.0929368029626,-526.64188351920382,2029.120198265173
-2989.4671623296035,74.349442379182165,1542.7509293680221
-793.06071871127244,-2850.0619578686392,2815.9851301115132
-4575.5885997521509,-260.22304832713633,2881.0408921932976
-3416.9764560098997,-2552.664188351911,5517.3482032217889
-4922.5526641883389,3172.2428748450952,1397.1499380421265
-405.82403965303041,-1750.3097893432418,2143.7422552664079
-6558.2403965303429,3299.2565055761984,1933.0855018587324
-3890.9541511771818,-1177.1995043370466,2391.5737298636814
-3215.6133828996176,-650.55762081784223,3928.1288723667794
-3550.1858736059353,210.65675340768442,2738.5377942998662
-1737.918215613372,560.71871127633119,907.68277571250769
-3760.8426270136188,2930.6071871127556,1319.7026022304774
-1397.1499380421235,-830.23543990086307,2351.3011152416279
-2394.6716232961489,337.67038413878743,2884.1387856257638
-991.32589838908825,517.34820322181088,2723.0483271375415
-5278.8104089219141,133.20941759603289,957.24907063195906
-5065.055762081769,1750.3097893432428,2499.9999999999945
-1561.3382899628118,15.48946716233608,3302.3543990086628
-1988.8475836431196,-1929.9876084262648,774.47335811647008
-3144.3618339529012,-1604.7087980173455,2930.6071871127538
-5300.4956629491844,-935.56381660471027,328.37670384137493
-1074.9690210656697,-1090.4584882279983,1883.5192069392749
-4575.5885997521518,-315.98513011152443,3748.4510532837585
-2589.8389095415005,-749.69021065674974,2208.7980173481938
-5198.2651796778073,185.87360594795331,588.59975216851967
-740.39653035935135,-3224.9070631970148,2924.4114002478209
-1651.1771995043293,-3125.7744733581094,4578.6864931846212
-5241.6091536506592,2936.8384252507253,2685.9210193069734
-1861.8339529120187,-4293.6802973977647,1765.7992565055654
-4699.5043370507883,619.57868649318243,3004.9566294919327
-4219.3308550185729,2555.762081784379,288.10408921932446
-4157.3729863692479,1452.9120198265223,3454.1511771994974
288.10408921933185,-3587.3605947955275,3519.2069392812759
-2159.2317224287408,216.8525402726159,1917.596034696398
-4680.9169764559956,-461.58612143742204,3745.3531598512873
-2992.5650557620706,-566.91449814126202,2546.4684014869799
-5619.578686493167,-607.18711276332135,2496.9021065675201
-235.43990086740547,-2506.1957868649247,2534.0768277571206
-3983.8909541511603,89.838909541513317,5027.881040892179
-3946.7162329615694,-173.4820322180874,4045.8488228004817
-1793.6802973977617,-2174.7211895910714,1369.2688971499269
-3070.0123915737163,-1598.5130111524065,3376.7038413878458
-2719.9504337050721,-1217.4721189591035,2140.6443618339435
-656.75340768277101,-4101.6109045848707,4495.0433705080386
-2565.0557620817758,-2283.1474597273809,1459.1078066914426
-5151.7967781908092,-1533.457249070625,5480.1734820322017
-3872.3667905823886,102.23048327137593,2995.6629491945341
-3525.4027261462061,1812.2676579925626,765.17967781908214
-2391.5737298636814,-111.52416356876959,2546.4684014869827
-3148.9687277112494,902.31376057745797,1390.6834681246071
-3497.5216852540202,-638.16604708797638,2227.3853779429919
-4845.1053283766896,1260.842627013631,1821.5613382899578
-3909.5415117719808,2057.0012391573691,2078.686493184628
-2546.4684014869772,-1031.5985130111499,2648.6988847583561
-4033.4572490706159,-1267.0384138785587,4674.7211895910586
-2060.0991325898299,-396.53035935563776,1833.9529120198147
-1877.3234200743411,-1638.7855973303997,1672.8624535315923
-4733.5811648079125,278.8104089219355,5442.998760842609
-4646.8401486988714,1824.6592317224249,1517.9677819082981
-2326.5179677818987,-1598.5130111524122,3073.1102850061843
-1644.9814126393946,-570.01239157372595,2812.8872366790492
-2704.4609665427429,-238.53779429987682,731.10285006194977
-2332.7137546468275,-1257.7447335811592,2453.5315985130005
-1006.8153655514171,-3705.0805452292348,3556.3816604708641
-1741.0161090458403,-204.46096654275061,3268.2775712515445
-4247.2118959107675,-985.13011152416186,3568.7732342007316
-1511.7719950433618,-49.566294919449973,1341.3878562577406
-2614.6220570012251,1109.045848822796,1614.0024783147398
-2918.2156133828889,-864.31226765799295,1034.6964064436056
-929.36802973977137,-982.03221809169213,-746.59231722429445
-3342.6270136307185,235.4399008674113,2546.4684014869817
-2778.8104089219241,-3528.5006195786773,4281.2887236678916
-3435.5638166046965,257.12515489467285,71.251548946708141
-3141.2639405204332,-2636.3073110284913,4730.4832713754513
-4287.4845105328295,-684.63444857497041,1124.5353159851206
-3751.5489467162233,-49.566294919456794,1951.6728624535219
-3385.9975216852399,-176.57992565055346,3178.4386617100249
-3878.562577447321,1037.7942998760818,3156.7534076827669
-4377.3234200743391,542.13135068153451,1415.7372986369228
-1149.3184634448519,-947.95539033456942,1784.3866171003619
-4064.4361833952735,213.75464684014835,3237.2986369268779
-3643.1226765799142,-1486.9888475836431,1363.073110284997
-4522.924411400234,-309.78934324659144,2419.4547707558809
-5650.5576208178263,3.0978934324671314,3630.7311028500444
-2320.3221809169659,-2357.4969021065544,1140.0247831474544
-2214.9938042131234,-2016.7286245353105,5102.230483271358
-3581.164807930591,-1028.500619578678,5266.4188351920511
-659.85130111523472,-3020.4460966542633,3636.9268897149814
-1812.2676579925553,-1124.5353159851265,1322.8004956629443
-2605.3283767038329,-2447.3358116480726,1939.2812887236557
-3262.0817843866025,944.85749690211026,3621.4374225526594
-3345.7249070631865,641.2639405204485,504.95662949193616
-1713.135068153648,-737.29863692688662,1672.8624535315873
-885.99752168524947,-2438.0421313506695,3671.0037174721097
-2205.7001239157248,-3017.3482032217976,4061.3382899628086
-3128.872366790571,-1319.7026022304824,1220.5700123915635
-2503.0978934324548,-793.06071871127074,3057.6208178438528
-4662.3296158612038,1669.7645600991293,3370.5080545229061
-5675.3407682775533,3237.2986369268865,2918.2156133828921
-2342.0074349442298,-1700.7434944237868,3014.2503097893377
-2366.790582403959,-2822.1809169764488,2035.3159851301041
-2701.3630731102744,-777.57125154894436,139.40520446095886
-2921.3135068153533,-260.22304832713672,2942.9987608426163
-1651.1771995043264,-690.83023543989555,1496.2825278810342
-2580.5452292440991,2140.644361833949,666.04708798016748
-2128.2527881040814,-1003.7174721189531,2837.6703841387789
-3441.7596034696307,-1567.5340768277567,1201.9826517967699
-3990.0867410160936,1143.1226765799252,-492.56505576208644
-2778.8104089219255,-889.0954151177184,746.59231722427876
-3986.9888475836278,-718.7112763320938,1858.7360594795412
-2094.1759603469509,-1530.359355638157,3853.77942998759
-3203.221809169755,-2469.021065675332,3584.2627013630577
-3643.1226765799129,1347.5836431226755,916.97645600991052
-5635.0681536554966,120.81784386617331,3853.7794299875936
-2196.406443618328,114.62205700124095,2558.8599752168475
-4969.0210656753234,3915.7372986369182,77.447335811647463
-731.10285006194931,-1564.4361833952867,1827.7571251548841
-2775.7125154894534,-1183.3952912019781,3649.3184634448476
-2884.1387856257643,-1629.4919454770713,3085.501858736046
-4042.7509293680159,-758.98389095414848,3965.303593556368
-2825.2788104089141,-2685.8736059479525,2565.0557620817763
-3878.562577447326,1465.3035935563798,2286.2453531598412
-1675.9603469640538,-1508.6741016108999,2211.8959107806572
-4832.7137546468221,879.80173482032308,2304.8327137546426
-898.38909541510986,-734.20074349441688,1397.1499380421265
-1799.8760842626914,-30.978934324656752,591.69764560098713
-3441.7596034696294,-1347.5836431226769,585.5018587360496
-1995.0433705080425,-340.76827757124761,1778.1908302354279
-2329.6158612143631,-250.92936802973907,2066.2949194547605
-3962.2057001239014,715.61338289962816,2242.8748451053179
-2122.0570012391527,-1146.2205700123889,1359.9752168525356
-3546.5251910645675,7.8883169190771323,2650.7580602787766
-1263.9405204460907,-2648.6988847583561,3156.7534076827592
-982.03221809169077,-3364.3122676579783,3091.6976456009793
-2524.7831474597224,-2236.6790582403919,2679.6778190830114
-2230.4832713754545,-749.69021065674838,3265.1796778190728
-672.24287484509853,-1536.555142503091,3959.1078066914392
-4594.1759603469445,-559.68217702879895,4160.8180312151189
-1285.6257744733498,-1167.9058240396482,3317.8438661709956
-2391.5737298636841,-1285.6257744733559,1471.4993804213057
-5873.6059479553787,845.72490706319354,1700.7434944237853
-2995.6629491945364,-1775.0929368029676,3122.6765799256391
-2949.1945477075501,-2822.1809169764497,3844.4857496901936
-1307.311028500613,-3627.6332094175827,4411.4002478314651
-4120.1982651796634,-947.9553903345676,4107.8066914497977
-4962.8252788103937,1412.6394052044593,123.91573729862954
-3159.8513011152313,-728.00495662949345,2490.7063197025905
-3630.731102850049,1356.8773234200737,622.67657992564432
-4752.1685254027125,2091.0780669144929,1908.3023543989975
-3943.6183395291082,-700.12391573729417,4795.5390334572367
-3240.3965303593427,796.15861214374274,1821.5613382899589
-4349.44236569451,-690.8302148626143,4879.1821893341348
-3785.625774473343,58.859975216856363,3361.2143742255148
-3351.9206939281175,793.06071871127483,1319.7026022304751
-3494.4237918215481,213.75464853469902,3553.2837670384019
-2701.3630731102794,994.42379182156094,2354.3990086740919
-1660.4708798017257,-526.64188351920291,2311.0285006195722
-4340.1486988847437,-885.99752168524833,3732.961586121427
-1499.3804213134972,-1973.3581164807836,2840.7682775712474
-3271.3754646839998,157.99256505576489,2760.223048327131
-377.94299876083977,-3838.2899628252726,2013.630731102839
-4213.1350681536378,2729.2441140024748,1415.7372986369235
-2196.4064436183307,-2769.5167286245273,2515.4894671623174
-2444.2379182155987,-260.22304832713434,607.1871127633168
-3206.3197026022208,-1155.5142503097829,3646.2205700123804
-2221.1895910780586,-1037.79429987608,2856.2577447335739
-5204.4609665427306,-551.4250309789312,4804.8327137546285
-3463.4448574968883,-185.87360594795419,3274.4733581164655
-229.24411400247359,-2057.0012391573669,2825.2788104089141
-4950.4337050805307,814.74597273853487,1152.416356877317
-3178.4386617100276,-991.32589838909087,2273.8537794299764
-4383.5192069392633,-833.33333333332826,4253.4076827756944
-2047.707558859966,-3153.655514250303,3113.3828996282409
-4457.8686493184523,-2171.6232961586084,644.36183395290243
-1607.8066914498072,-3051.4250309789272,3088.5997521685135
-4011.771995043357,-566.91449814126224,1136.926889714985
-4922.552664188338,1016.1090458488189,-430.60718711277337
-3274.4733581164664,1263.9405204460957,1112.1437422552583
-3519.2069392812718,-600.99132589838598,3203.2218091697564
-5120.8178438661544,1716.232961586119,1892.8128872366742
-1753.4076827757058,-1787.4845105328334,3162.9491945476916
-932.46592317223917,-1775.0929368029711,300.49566294918679
-2927.5092936802853,-1105.9479553903325,2400.8674101610877
-3912.6394052044493,-213.75464684014881,346.96406443617605
-4538.413878562561,-477.07558859975376,1449.8141263940458
-3714.3742255266307,-1601.6109045848762,4110.904584882267
-2134.4485749690125,-5288.104089219315,3695.7868649318289
-1933.0855018587274,-337.67038413878242,1675.9603469640572
-4984.5105328376512,2642.5030978934278,1081.1648079306033
-2521.685254027253,139.40520446096983,2345.1053283766964
-2469.0210656753361,-951.05328376703369,3562.5774473358033
-3689.5910780669014,2379.1821561338252,966.54275092936336
-5024.7831474597087,2512.3915737298603,2685.8736059479488
-2193.308550185865,170.38413878562383,2053.9033457249025
-4337.0508054522797,597.89343246592057,1065.6753407682688
-2955.3903345724821,-1824.6592317224249,1267.0384138785562
-3265.1796778190701,-207.55885997521591,2487.6084262701252
-3537.7942998760686,-545.22924411399902,3147.4597273853656
-969.64064436182434,-1418.8351920693854,1369.2688971499292
-3209.4175960346847,-1976.4560099132491,5439.9008674101478
-3615.2416356877211,1688.3519206939243,1914.498141263932
-2791.2019826517849,-1995.0433705080468,3506.8153655514138
-2320.322180916964,1316.604708798016,1886.617100371737
-1682.1561338289898,-498.76084262701039,833.33333333332973
-1824.6592317224215,-557.62081784386532,2199.5043370507965
-923.17224287484169,-1802.9739776951576,2893.4324659231652
-4628.2527881040751,746.59231722428615,2314.1263940520348
-2007.4349442379087,-1530.3593556381604,3277.5712515489317
-4628.2527881040714,55.762081784390212,4107.8066914498004
-3221.8091697645473,836.43122676580174,3128.8723667905765
-631.97026022304749,-3085.5018587360496,3246.5923172242738
-3172.2428748450998,-2159.231722428744,3497.5216852540166
-3358.1164807930518,-241.63568773233888,1595.4151177199469
-6254.6468401486773,3432.4659231722358,3088.5997521685172
-2989.4671623296085,-3667.9058240396416,3008.0545229243944
-1920.6939172894581,1493.1846461621271,55.762085630628
-3138.1660470879669,3801.1152416356817,616.48079306071247
-4755.2664188351728,2425.6505576208133,777.57125154893708
-4749.0706319702394,80.545229244113187,2695.1672862453429
-5876.7038413878363,836.43122676579696,3568.7732342007307
-4439.2812887236587,1548.9467162329568,523.5439900867392
-2379.1821561338174,-145.60099132589693,2732.3420074349356
-5641.2639405204254,-737.29863692688639,3745.3531598512882
-3708.1784386616955,1669.7645600991309,1775.0929368029667
-2630.1115241635603,-991.32589838909269,3534.6964064436115
-1025.4027261462104,-2032.2180916976365,2769.5167286245228
-3228.0049566294811,-1988.8475836431182,1747.2118959107718
-2642.5030978934251,99.132589838910107,-669.14498141264505
-935.56381660470743,-6425.0309789343119,5365.5514250309616
-4340.1486988847473,858.11648079305928,3351.9206939281144
-3045.2292441139907,1158.6121437422537,2475.2168525402612
-3943.6183395291068,21.685254027262392,2444.2379182156028
-1068.7732342007357,-3401.4869888475723,5808.5501858735888
-1960.9665427509167,-1818.46344485749,3135.0681536555039
-1877.3234200743382,1812.2676579925642,2348.2032218091617
-1304.2131350681477,-2856.2577447335716,3581.1648079305965
-972.73853779429578,-1366.1710037174651,3838.2899628252662
-3686.4931846344339,1180.2973977695165,954.15117719949967
-2676.5799256505438,1022.3048327137507,1198.8847583643083
-2261.4622057001143,-2800.4956629491862,3416.9764560099034
-4730.4832713754522,-2187.1127633209394,4293.6802973977528
-5904.5848822800335,1982.6517967781867,2075.5885997521641
-2812.8872366790438,-594.79553903345641,2589.8389095414968
-1827.7571251548841,-1669.7645600991229,3513.0111524163422
-5706.3197026022135,2970.879801734814,755.88599752168204
-2236.6790582403864,740.39653035935794,2688.9714993804146
-4653.0359355638029,728.00495662949049,2633.2094175960269
-4017.9677819082926,-1226.7657992565025,2422.5526641883425
-1945.487497011135,-3014.2610502350185,1926.8842916004298
-5226.1462205699909,3026.6418835191985,889.0954151177117
-3420.0743494423705,-1279.4299876084244,2834.5724907063127
-5123.9157372986238,-2763.3209417595999,644.36183395290186
-3779.4299876084156,765.17967781908283,628.8723667905781
-2958.4882280049469,-2289.3432465923156,2320.322180916965
-777.57125154894561,-3246.5923172242751,2862.4535315985013
-4064.4361833952812,-40.272614622059479,1691.4498141263864
-5622.6765799256336,2828.3767038413807,127.01363073109667
-3469.640644361823,226.14622057001421,2797.3977695167182
-3835.1920693928023,1666.666666666664,436.80297397769232
-1759.6034696406325,-3311.6480793060587,5656.7534076827615
-5802.3543990086555,3581.1648079305983,3029.7397769516692
-5043.3705080545069,-1087.3605947955334,5662.9491945476939
319.08302354399382,-3048.3271375464556,2633.2094175960242
-2518.5873605947845,-3252.7881040892103,4646.8401486988687
-2230.4832713754568,-2884.1387856257643,3113.38289962824
-3193.9281288723473,3032.8376703841359,2360.5947955390243
-4653.0359355638002,-446.09665427508946,2174.7211895910664
-4584.8822800495445,1784.3866171003667,2125.1548946716157
-1982.5978868862535,-941.57862026102521,3850.2175264139114
-1476.0720944686052,242.38657551274355,1740.2113113735161
-1619.0180236171427,65.257924176509022,1180.8576755748841
-1413.9216904909783,-2709.7576134244805,2106.8986948415045
-2742.9370427896592,-1779.5225884587192,2069.0432896167817
-3098.1976382846365,-2439.4033561218084,4024.2386575512583
-3865.7551274083144,-823.49285270354164,901.1808576755659
-4990.6774394033382,-288.99937849595779,3620.2610316966957
-2078.9310130515787,-2224.9844623989993,2274.704785581097
-1227.4704785581025,-4151.6469857053917,5012.4300807955133
-3551.8955873213067,-752.01988812926936,3955.8732131758734
-3269.1112492231141,-2489.1236793039102,1566.1901802361599
-276.5692977004303,-2113.1137352392702,2029.210689869476
-4990.6774394033382,2753.2628962088193,894.96581727780699
-2945.9291485394519,-1065.879428216278,3206.9608452454804
-3477.3151025481561,229.95649471721629,-621.5040397762649
-4651.9577377252754,1749.5338719701642,3042.2622747047712
-5733.3747669359691,-1124.9223119950248,3175.885643256669
-3008.079552517082,-108.76320696084095,2169.0490988191373
-3896.8303293971339,-2992.5419515226786,4490.3666873834527
-2579.2417650714601,-1146.674953387193,2675.5748912367817
-4257.3026724673546,2775.0155376009916,1068.9869484151561
-2190.8017402113019,-388.44002486015734,2134.8663766314448
-3598.5083903045224,-661.90180236171159,4136.1093847109914
-2147.2964574269608,640.70867970325969,702.85908368088008
-4437.5388440024708,105.65568676196649,2644.4996892479753
-1864.5121193287671,-2271.5972653822205,2635.1771286513263
-5273.4617775015386,142.94592914853729,438.16034804225262
-4170.2921068986807,-512.74083281541402,3172.7781230577898
-5167.8060907395766,2470.4785581106225,1177.750155376006
-3865.7551274083125,-2517.0913610938387,2010.5655686761854
-2458.0484773150965,-1252.3306401491545,360.47234307021614
-3477.3151025481557,-1016.1591050341781,3800.4972032318096
-3756.99192044747,-627.71908017402245,2958.3592293349807
-2172.1566190180156,-1441.8893722809169,1684.2759477936515
-2343.0702299564841,-2026.1031696705973,2756.3704164076958
-3741.4543194530647,-525.17091361093867,2799.8756991920359
-1817.899316345543,-1171.5351149782421,916.71845866997569
-3300.1864512119237,-2513.9838408949572,444.37538844001597
-3042.2622747047712,677.43940335611899,-609.07395898073639
605.96643878185728,-307.64449968924248,3415.1646985705329
-994.40646364200632,-2855.8110627718975,3682.4114356743185
-2482.9086389061417,-1072.0944686140408,2234.3070229956393
-2694.220012430073,-447.48290863890412,2221.8769422001119
-4151.6469857053962,-55.935363579862361,3430.7022995649349
-4972.0323182100537,-1954.6302050963311,1727.7812305779842
-1845.8669981354803,-4282.1628340584111,4493.4742075823315
-3113.7352392790431,-220.63393412057133,2479.8011187072593
-1239.9005593536278,-966.43878185207984,506.52579241764431
-3262.8962088253434,-668.11684275947414,2843.3809819763678
-1311.3735239279004,-3962.0882535736318,5431.9453076444834
-2675.574891236784,-1575.5127408328096,3896.8303293971244
-1000.6215040397652,-783.09509011807813,4257.3026724673591
-3393.4120571783624,-3418.2722187694162,1563.0826600372793
-5180.2361715350999,1087.6320696084513,3321.9390926040915
-2719.0801740211177,2405.2206339341183,1581.7277812305754
-3893.7228091982424,913.61093847110192,2442.5108763206867
-1342.4487259167124,-2268.4897451833358,2812.305779987561
-2181.4791796146596,-2302.6724673710291,2573.0267246736998
-3909.2604101926463,972.65382224984694,2433.1883157240459
-3231.8210068365352,-1109.3847110006222,1715.3511497824625
-5208.2038533250361,-860.78309509011694,3436.9173399626957
-2967.6817899316247,649.47172156619024,1793.0391547544925
-4204.4748290863781,-1659.4157862026068,1367.3088875077653
-2802.9832193909147,919.82597886886185,1951.5226848974496
-2224.9844623989975,-633.93412057178091,1591.0503418272206
-2535.7364822871227,-568.67619639527277,2197.0167806090644
-388.44002486015501,161.59105034182829,873.21317588563613
-5285.8918582970618,3.1075201988788343,1513.3623368551819
-5745.8048477314942,2150.4039776258551,3831.5724052206242
-2551.2740832815371,-1183.9651957737688,3091.9825978868789
-4449.9689247979968,77.688004971864984,2302.6724673710291
-1625.2330640149112,-2644.4996892479739,4574.2697327532478
-3412.0571783716496,-1876.942200124297,1908.0174021131031
-3253.5736482287011,-490.98819142324123,3533.2504661280227
279.67681789931839,-4058.4213797389552,3194.5307644499603
-2756.3704164076958,599.75139838409211,2563.7041640770613
-3427.594779366053,1330.0186451211925,1575.5127408328085
-1270.9757613424442,-2287.134866376623,1901.8023617153426
-6389.0615288999206,-2650.714729645737,4645.7426973275151
-6376.631448104391,3965.1957737725188,2734.6177750155316
-1970.1678060907298,-2311.9950279676709,3123.0577998756876
-1855.1895587321224,655.6867619639537,1774.3940335612085
-658.79428216282292,-894.96581727780722,-174.02113113735041
-1967.0602858918505,276.5692977004374,2221.8769422001205
-5245.4940957116069,55.935363579862361,1528.899937849586
-1646.985705407079,-1793.0391547545019,1407.7066500932167
-565.56867619639286,-3657.5512740832714,5369.7949036668579
-3781.8520820385215,-584.21379738968312,217.52641392168218
-2172.156619018016,214.41889372281108,2162.8340584213688
-3436.9173399626948,-2252.9521441889278,5935.3635798632522
-3039.1547545058911,820.38533250466423,1920.4474829086305
-4732.7532628961972,-590.42883778744374,2818.5208203853199
-2545.0590428837745,49.720323182106107,2666.2523306401404
-3082.6600372902308,783.09509011808518,2383.4679925419437
-5975.7613424487154,2970.7893101305081,1883.1572405220545
-3775.6370416407553,267.24673710378954,1183.9651957737635
-3160.3480422622652,-1724.6737103791127,4120.5717837165803
-1211.9328775636989,-4406.4636420136585,3663.7663144810331
-3309.5090118085673,-1068.9869484151627,3057.799875699181
-3123.0577998756908,-901.18085767556738,3424.487259167176
-4422.0012430080697,-770.66500932256281,-264.13921690491424
-991.29894344313209,-1914.2324425108759,2181.4791796146601
-3250.4661280298169,257.92417650714964,3138.5954008700951
-2256.0596643878084,201.98881292728632,1718.4586699813458
-2252.9521441889283,-1786.8241143567373,3057.799875699181
-2367.9303915475371,-2697.3275326289531,3266.0037290242276
-4888.1292728402595,1510.2548166563051,419.51522684896736
-2100.6836544437447,-1668.7383467992488,1367.3088875077558
-3642.0136730888603,15.537600994409418,2889.9937849595922
-1252.3306401491564,-1140.4599129894291,1065.8794282162803
-2585.4568054692231,-1037.9117464263504,2983.2193909260263
-522.06339341205785,-2970.7893101305117,456.80546923554033
-1326.911124922307,-2678.6824114356655,3514.6053449347314
-1876.9422001242897,-285.89185829707412,2597.8868862647528
-4714.1081417029072,198.88129272840314,3840.8949658172637
-1165.3200745804795,-1448.1044126786783,2228.0919825978726
-3918.5829707892999,-1227.4704785581084,1131.1373523927796
-612.18147917960687,-3365.4443753884275,3387.1970167805989
-637.04164077065843,-2964.5742697327428,3135.4878806712086
-4397.1410814170167,-478.55811062771545,3446.2399005593388
-2113.1137352392652,-469.2355500310706,2694.2200124300698
-2395.8980733374669,-2955.2517091361019,2569.9192044748161
-3091.982597886878,-1935.9850839030389,2240.5220633934041
-2613.4244872591548,-1637.6631448104338,3691.733996270963
-3844.0024860161448,-251.70913610938464,2454.9409571162109
-1556.8676196395159,484.77315102548147,534.49347420757886
-3328.1541330018513,124.30080795525191,-354.25730267247314
-3648.2287134866269,379.11746426351795,1889.3722809198232
-2054.0708514605271,-422.62274704785563,2097.5761342448664
-2905.5313859539965,254.81665630827166,3440.0248601615781
-2849.5960223741345,-391.54754505903975,2762.5854568054624
-2100.6836544437456,-795.52517091360528,2256.0596643878116
-3138.5954008700933,-590.42883778744385,2389.6830329397071
-3315.7240522063312,-612.18147917961846,2212.5543816034769
-2706.6500932255972,-1559.9751398384067,1205.7178371659311
-2908.6389061528789,-792.41765071472639,1336.2336855189462
-3676.1963952765541,366.6873834679933,3113.7352392790453
-3514.6053449347314,-1746.4263517712877,957.11622125543147
-4167.1845866997983,-1982.597886886258,3113.7352392790381
-3188.3157240521905,3135.4878806712154,2532.6289620882503
-2361.7153511497754,-3561.2181479179512,4409.5711622125418
-2799.8756991920359,-1059.6643878185168,2790.5531385953905
-3318.8315724052081,-593.53635798632422,3098.1976382846383
-2529.5214418893643,108.76320696084377,910.50341827221712
-2088.2535736482209,-4496.5817277812175,3788.0671224362827
-2454.9409571162132,-1283.4058421379684,3197.6382846488386
-5988.1914232442323,74.580484773148498,3188.3157240521973
-4698.5705407084988,-612.18147917961039,4207.5823492852533
-1370.4164077066405,-2060.2858918582879,4422.0012430080651
-1292.7284027346104,-1954.6302050963225,2750.1553760099337
-4210.6898694841375,1494.7172156618997,-133.62336855190338
-2262.2747047855687,124.30080795525129,2753.2628962088156
-873.21317588563522,-2697.3275326289545,46.612802983214848
-3269.11124922311,-139.83840894965823,3275.3262896208721
-3492.8527035425577,1013.0515848352993,2731.5102548166478
-2489.123679303907,-574.89123679303862,2268.4897451833353
-1998.1354878806615,-969.54630205096203,2119.3287756370351
-3875.0776880049607,-475.45059042883628,2091.3610938471038
-2246.7371037911635,637.04164077066685,382.2249844623903
-4962.7097576134074,2122.436295835922,3206.9608452454881
-985.08390304536636,-5027.9676817899217,1786.8241143567293
-3172.7781230577889,335.61218147917828,1410.8141702921037
-4064.6364201367196,1115.5997513983816,1255.4381603480363
-3141.702921068972,-630.82660037289918,3269.1112492231086
-2293.3499067743842,-2364.8228713486606,1137.3523927905419
-3203.8533250466003,490.98819142324817,3023.6171535114895
-1733.9962709757515,236.17153511498088,1646.9857054070765
-3595.4008701056437,-1354.8788067122377,3710.3791174642497
-1075.201988812923,-1628.3405842137895,2868.2411435674217
-3362.3368551895469,-1190.1802361715283,3387.197016780598
-1354.8788067122382,-2072.7159726538139,929.14853946549647
-4039.776258545669,1603.4804226227452,1948.4151646985583
-2315.1025481665533,-947.79366065879003,1597.2653822249758
-5021.7526413921469,3076.4449968924778,1625.23306401491
-87.010565568671737,-2852.703542573016,3182.1006836544307
-1246.1155997513922,-1780.6090739589727,3561.2181479179467
-3365.4443753884252,-93.225605966435722,3269.1112492231082
-4552.5170913610764,-1152.889993784954,1295.8359229334883
-5257.924176507132,3570.5407085145989,742.69732753262349
-2004.3505282784242,-1187.0727159726539,960.22374145431581
-4136.1093847109851,59.042883778746912,3784.9596022374039
-5494.0957116221107,2793.660658794277,1417.0292106898626
-2420.7582349285153,-633.93412057178091,1727.7812305779901
-3135.4878806712131,-1382.8464885021694,2172.156619018012
-2482.908638906144,-1845.8669981354797,4437.5388440024708
689.86948415164943,-6376.6314481043964,5183.3436917339777
-2775.015537600982,-195.77377252951692,3216.2834058421267
-3812.9272840273334,-1354.8788067122373,3231.8210068365333
-4111.2492231199367,2352.3927905531332,1646.9857054070751
-3362.3368551895423,-1230.5779987569874,2458.0484773150911
-4742.0758234928353,-1100.0621504039764,3101.3051584835175
-1808.5767557489046,475.45059042883747,814.17029210689827
-1603.4804226227334,52.827843380983104,1140.4599129894257
-2389.6830329397089,-1786.8241143567384,2426.9732753262838
-3169.6706028589047,-1031.696706028584,4462.3990055935201
-1435.6743318831498,9.3225605966443386,1264.7607209446819
-3719.7016780608951,-2389.6830329397085,919.82597886885719
-3427.5947793660507,-857.67557489123101,3980.7333747669227
-248.60161591049663,-3629.5835922933388,3082.6600372902308
-4232.4425109575859,5450.5904287564945,1532.0074579840352
-2799.8756991920359,-1805.4692355500276,630.82660037289872
-770.66500932255281,-2324.4251087631983,2430.0807955251639
-2134.8663766314403,-335.61218147917782,1876.9422001242933
-4866.3766314480863,-553.13859540086992,3163.4555624611439
-2321.3175885643209,-1336.2336855189506,2113.113735239273
-2467.3710379117329,385.33250466128396,3825.357364822863
-3716.5941578620186,195.77377252952277,2215.6619018023544
-4275.9477936606454,1264.7607209446844,724.0522063393355
-1298.9434431323709,-1917.3399627097492,2793.6606587942733
-4005.5935363579765,-1118.7072715972622,4014.9160969546183
-4857.0540708514445,-49.720323182099541,1960.8452454940855
-3175.8856432566718,-2641.3921690490906,3505.2827843380896
-3669.9813548787934,-301.42945929148442,15.537600994400243
-1923.5550031075129,161.59105034182897,2200.1243008079482
-4602.2374145431822,500.3107520198879,3486.637663144797
-941.57862026102475,-2930.3915475450499,1911.1249223119883
-3741.4543194530684,-1109.3847110006213,-195.77377252952482
-5254.8166563082523,584.21379738967914,2893.1013051584755
-3017.402113113726,-261.03169670602597,2728.4027346177686
-4136.1093847109896,680.54692355500356,1979.4903666873747
-3259.788688626465,-1000.6215040397741,239.27905531385647
-2113.1137352392675,251.70913610938794,1485.3946550652524
-3064.0149160969445,-1236.7930391547543,1963.9527656929743
-3483.5301429459196,658.79428216283543,3645.121193287745
-1435.6743318831473,-661.90180236171113,1106.2771908017303
-3079.1956670560012,-198.32052838713929,2123.3093039581049
-2069.6084524549333,-2122.4362958359147,3085.7675574891173
-5320.0745804847584,2905.5313859540038,2228.0919825978813
-4061.5288999378367,195.77377252951945,1948.4151646985611
-3135.487880671214,-1028.5891858297055,1547.5450590428734
-3306.4014916096971,-99.440646364215311,3548.7880671224138
-3974.5183343691647,-1208.8253573648208,2691.1124922311878
-5577.9987569918985,522.06339341205751,3293.9714108141579
-1845.8669981354815,83.903045369799401,1743.3188315723953
-4620.8825357364676,-985.0839030453684,3119.9502796768029
-2411.435674331874,-1392.169049098814,2914.8539465506378
-2628.9620882535655,-2834.0584213797297,5034.1827221876774
-2930.3915475450503,-2280.9198259788636,2113.1137352392711
-2694.2200124300703,236.17153511497708,456.80546923554755
-4120.5717837165803,-6.2150403977628921,1724.6737103791033
-839.03045369794199,-4095.7116221255296,1873.8346799254098
-6109.38471100061,2573.0267246737039,12.430080795522679
-1967.0602858918485,-2619.6395276569215,1146.6749533871914
-1876.8336434951186,-521.78455187437942,2666.5162722483155
-1162.2125543815971,-3231.8210068365379,988.19142324423899
-5242.3865755127281,1507.1472964574236,1084.5245494095604
-4319.4530764449828,298.32193909260405,2619.6395276569169
-3206.9608452454818,-1827.2218769421963,2604.101926662514
-2697.3275326289531,-1103.1696706028565,2193.9092604101861
-3101.3051584835148,-1187.0727159726453,4266.6252330640045
-3377.8744561839503,-2262.2747047855714,4903.6668738346661
-3141.7029210689739,978.86886264760801,2560.5966438781788
-2862.0261031847058,-1671.8458670267175,1752.6413921502349
-2980.1118707271467,-559.35363579863065,3778.7445618396432
-2287.1348663766216,-2464.2635177128564,4039.776258545674
-4372.2809198259665,-929.14853946550079,4210.6898694841402
-851.46053449346857,-3017.4021131137247,2961.4667495338622
-4241.7650714729525,-624.61155997513697,3701.0565568676079
-3129.2728402734529,-494.09571162212222,2523.3064014915985
-1183.9651957737658,960.22374145432002,2367.9303915475411
-1640.7706650093153,-1100.062150403973,1709.1361093846999
-2806.0907395897957,-463.02050963330873,2405.2206339341137
-2032.3182100683584,-3104.4126786824036,3433.809819763816
-5223.7414543194418,2809.1982597886804,1367.3088875077651
-1177.7501553760019,-242.38657551273545,1435.6743318831523
-6883.2027092914504,5668.0705989542166,1758.823106025591
-3887.5077688004849,919.8259788688589,1435.6743318831516
-4412.6786824114224,-767.55748912368335,873.21317588563704
-2451.8334369173317,-118.08576755748457,2038.5332504661185
-1609.6954630205009,-5242.3865755127263,5180.236171535098
-3353.0142945929028,3458.6699813548717,1479.1796146674901
-3899.9378495960095,-1239.9005593536324,1808.5767557489028
-1438.7818520820313,-1603.4804226227413,2573.0267246737026
-5105.6556867619483,1438.7818520820367,1025.4816656308205
-4599.1298943442989,2178.3716594157809,-873.21317588564864
-6068.9869484151432,2896.2088253573588,2131.7588564325561
-3679.3039154754379,2610.3169670602792,-211.3113735239269
-2930.3915475450463,736.4822871348681,2075.8234928526963
-3023.6171535114872,438.16034804226297,2473.5860783095
-3023.6171535114868,261.03169670603063,335.61218147917504
-2554.3816034804117,-320.07458048477167,3008.0795525170824
-4021.131137352379,705.40708514605205,1951.5226848974448
-2085.1460534493367,-1339.3412057178311,3029.8321939092502
-2538.8440024860056,-1892.4798011186988,3548.7880671224279
-3306.4014916096849,696.08452454940948,2560.5966438781848
-3163.4555624611457,-3436.9173399627011,2395.8980733374624
-1889.3722809198159,-4462.3990055935228,5826.6003729024042
-1951.5226848974423,-835.92293349906458,1106.2771908017294
-1373.5239279055206,310.75201988813006,2430.0807955251644
-4220.0124300807774,-1081.4170292106851,4521.4418893722659
-3116.8427594779255,2821.6283405842059,-307.64449968924913
-2153.5114978247252,-2004.3505282784267,4807.3337476693432
-3567.4331883157147,-469.23555003107225,2731.5102548166474
-3881.2927284027232,248.60161591050763,2712.8651336233593
-2970.7893101305035,-863.8906152889947,2945.9291485394538
251.70913610939192,-1597.2653822249774,3697.9490366687264
-5894.9658172777954,1870.7271597265342,3151.0254816656216
-947.79366065878946,-3371.6594157861914,2961.4667495338608
-3405.8421379738852,-1426.3517712865091,4052.2063393411886
-3064.0149160969445,1264.7607209446821,770.66500932255985
-4872.5916718458493,2849.5960223741413,2389.6830329397035
-2566.8116842759382,-2619.6395276569192,3020.5096333126039
-1904.9098819142278,-3349.9067743940227,4785.5811062771763
-1510.254816656302,-6591.0503418272092,6435.6743318831286
-4291.4853946550484,1516.4698570540681,2532.6289620882453
-1796.1466749533799,-3269.1112492231086,3707.2715972653682
-2193.9092604101807,-947.79366065879003,3203.853325046603
170.91361093847459,-5602.858918582956,2843.3809819763728
-2675.5748912367812,21.752641392172311,2110.0062150403946
-2880.6712243629472,-99.440646364198656,2113.1137352392748
-1976.3828464884893,-633.93412057178068,2063.3934120571726
-2479.801118707262,-776.88004972031865,2902.4238657551191
-4707.8931013051442,316.96706028589227,2280.9198259788582
-1065.8794282162773,-1432.5668116842667,2582.3492852703453
-2619.6395276569156,18.645121193290652,4453.0764449968774
-6690.4909881914064,2069.6084524549374,282.78433809819091
-2548.1665630826506,-1258.5456805469178,2026.1031696705943
-2374.1454319456288,-739.58980733374415,873.21317588541206
-3999.3784959602149,-435.05282784338141,1221.2554381603443
-1211.9328775636964,-1243.00807955251,2787.4456183965103
-708.51460534492958,-189.55873213175656,692.9770043505215
-2249.8446239900463,-3626.4760720944582,4524.5494095711474
-369.79490366686747,-1463.6420136730792,1976.3828464884916
-4456.1839651957553,87.010565568679439,2134.8663766314403
-3331.2616532007319,-4070.8514605344781,6895.5873213175673
-3502.1752641392018,-403.97762585456132,2361.7153511497713
-4788.6886264760551,686.76196395276236,1696.7060285891778
-4928.5270354257163,-201.98881292728109,4372.2809198259692
-3079.5525170913465,1538.2224984462387,3312.6165320074465
-3452.4549409571046,-1500.9322560596615,1681.168427594765
-786.20261031696134,-3570.5407085145948,3735.2392790553008
-4126.7868406093003,2709.7575974008096,873.21317211536132
-1668.7383467992465,-2775.0155376009834,3340.5842137973759
-758.23492852702975,-935.36357986326618,1090.7395898073232
-3334.3691733996143,-1373.5239279055243,3222.4984462398866
-2156.6190180236067,3545.6805469235464,506.52579241765068
-3589.1858297078843,-776.88004972032354,3486.6376631447974
-2989.4344313237898,-515.84835301429166,2905.5313859539983
-1970.1678060907288,-627.71908017401938,1314.481044126783
-4611.5599751398277,1128.0298321939065,1737.1037911746439
-2408.328154132992,-270.35425730267099,80.795525170903346
-3480.4226512793516,394.65503672561084,3561.2181193856313
-3896.8303293971258,1264.7607209446887,1926.6625233063958
-2793.6606587942706,-3213.1758856432489,3095.0901180857545
-3365.4443753884275,-3029.8321939092511,4729.6457426973102
-1333.1261653200677,-2075.8234928526958,1435.6743318831536
-2172.1566190180133,-1852.0820385332422,3250.4661280298187
-2411.4356743318731,-453.69794903666502,2597.886886264756
-2765.6929770043416,-4437.5388440024753,2970.7893101304994
-4692.3555003107367,1507.147296457422,932.25605966438513
-5071.4729645742545,3303.2939714108065,1696.7060285891778
-739.58980733374358,-2103.791174642623,985.08390304536601
-5419.5152268489574,-298.32193909260297,267.24673710378335
-2992.5419515226745,-3278.4338098197541,4160.9695463020353
-3499.0677439403221,1904.9098819142289,2799.8756991920363
-2299.5649471721435,1196.3952765692986,1361.0938471099998
149.16096954630618,-2889.9937849595926,3110.627719080162
-4067.7439403356007,-851.46053449347266,1963.9527656929661
-2001.2430080795455,-1044.1267868241105,494.09571162212006
-3132.380360472333,-1317.5885643256631,1295.8359229334917
-4636.4201367308715,1954.6302050963297,1985.7054070851364
-2613.4244872591576,-1699.8135487880611,2862.0261031696632
-3368.5518955873099,-223.74145431944689,3306.4014916096876
-2088.2535736482187,-2420.7582349285171,4428.2162834058263
-3741.4543194530638,-1544.4375388439978,3682.4114356743153
-4891.236793039141,251.70913610938365,1755.7489123679206
-3017.402113113722,1118.7072715972638,1584.8353014294544
-2849.5960223741345,-2489.123679303907,6044.1267868241002
-2762.5854568054597,-1196.3952765692948,2964.574269732736
-2507.7688004971965,-643.25668116842508,2632.0696084524475
-1600.3729024238585,-1702.9210689869426,2840.273461777494
-2492.231199502789,-1681.1684275947709,3548.7880671224289
-1417.0292106898603,-668.11684275947425,1774.3940335612131
-2308.8875077687912,323.18210068365664,320.07458048476587
-1932.8775637041529,-217.52641392168712,2321.3175885643141
-1221.255438160337,-1131.1373523927855,2585.4568054692254
-4726.5382224984323,-1827.2218769421961,4220.0124300807875
-3673.0888750776767,-1743.3188315724001,2759.4779366065773
-3753.8844002485871,553.13859540086867,969.54630205096066
-2566.8116842759359,431.94530764450292,2315.1025481665565
-3275.326289620873,-301.4294592914834,2663.1448104412584
-3191.4232442510761,-1976.3828464884944,4297.7004350528114
-3632.6911124922171,-242.38657551273684,3427.5947793660548
-2775.015537600983,-3051.5848353014226,3657.5512740832614
-3095.0901180857581,80.795525170914217,2538.8440024860088
-6025.4816656308058,3200.7458048477238,-288.99937849596523
-369.79490366686775,-817.27781230577125,3017.4021131137238
-3206.9608452454859,-820.38533250465946,3648.2287134866301
-5832.8154133001717,-1379.7389683032916,4372.2809198259647
-3654.4437538843881,217.52641392169218,3312.6165320074497
981.97638284649349,-3977.6258545680425,4919.20447482907
-5543.8160348042129,-1137.3523927905519,2013.6730888750665
-4319.4530764449783,-177.12865133623276,3940.3356121814663
-4126.7868241143433,-1746.4263517712839,599.75139838408245
-3710.3791174642492,-1942.2001243008015,5080.7955251708981
-2942.8216283405741,-649.47172156618797,2454.9409571162073
-4086.3890615288874,2060.2858918582915,773.77252952143476
-2159.7265382224919,-1317.5885643256661,1991.9204474828964
-2169.0490988191336,-941.57862026102703,1065.8794282162755
-5124.3008079552365,-773.77252952143897,4723.4307022995472
-4530.7644499689104,1398.3840894965781,2566.8116842759437
-1904.8803966796715,-3679.2637912387254,1386.013587113137
-2834.058421379726,1072.094468614044,108.7632069608418
-4664.3878185208077,-770.66500932256099,1802.3617153511327
-2367.9303915475357,-727.15972653821666,3107.5201988812837
-7874.4561839651742,4574.2697327532551,-102.54816656308991
-3082.6600372902321,692.97700435052934,3862.6476072094365
-2653.822249844618,-3651.3362336855125,4409.5711622125373
-2852.7035425730137,1211.9328775637066,3707.27159726537
-4201.3673088874903,-1662.5233064014883,3965.195773772517
-1830.3276224112471,-1003.727934247107,3642.0159648659542
-5466.1280298321763,916.71845866997774,1115.5997513983743
-487.88067122435905,-5761.3424487259026,4773.1510254816485
-1373.5239279055254,848.35301429459219,239.27905531385306
-3539.465506525778,-251.70913610937941,3259.7886886264628
-3238.0360472342995,-2464.26351771286,1177.7501553759996
-1460.5344934742025,-1600.3729024238601,3763.2069608452334
-3850.21752641391,-2010.565568676192,4571.1622125543672
-1643.8781852081961,1429.4592914853954,944.68614045990932
-1062.7719080173938,-745.80484773150386,1721.5661901802307
-3722.8091982597748,111.87072715973036,3635.7986326911036
-5186.4512119328638,357.36482287134532,755.12740832814677
-1460.5344934741991,-254.8166563082624,3660.6587942821566
-1768.1789931634482,-854.56805469235496,1886.2647607209358
-1730.8887507768725,-4695.4630205096219,3119.9502796768024
-4045.9912989434247,-1889.3722809198166,6090.7395898073173
-655.68676196394665,-2492.2311995027849,4002.4860161590987
-3321.9390926040851,-170.91361093846621,4891.2367930391383
-1196.395276569292,-3884.4002486016034,4136.1093847109842
-5251.709136109369,2094.4686140459862,2632.0696084524434
-3026.7246737103578,1289.6208825357367,3682.4114356743225
-972.6538222498375,-3632.6911124922208,4403.3561218147797
-4521.4418893722641,1410.8141702921048,2622.747047855803
-4608.4524549409416,-43.505282784336295,2896.2088253573556
-3095.0901180857545,-1513.3623368551855,3070.2299564947075
-2228.0919825978754,-2486.0161591050255,4300.8079552516901
-3784.9596022373967,1417.0292106898671,627.71908017401404
-689.86948415164693,-3775.6370416407563,4347.4207582349145
-3614.0459912989345,-811.06277190801654,2284.0273461777447
-2889.9937849595944,-9.3225605966422922,1786.8241143567329
-2308.8875077687917,-3169.6706028589065,6152.8899937849401
-776.8800497203157,-1566.1901802361635,2986.3269111249092
-1945.3076444996796,-2082.038533250457,2585.4568054692222
-1631.4481044126724,-3328.1541330018549,3850.2175264139069
-5264.1392169048931,922.9334990677429,2911.74642635176
-226.84897451833066,-4279.0553138595278,4061.5288999378336
-4608.4524549409443,1451.2119328775602,2616.5320074580422
-4027.3461777501429,1612.8029832193843,562.46028337886924
-4965.8172778122898,2510.8763206960816,1883.1572405220613
-1584.8353014294535,-3365.4443753884329,2706.6500932255949
-4254.1951522684722,758.2349285270335,2178.37165941578
-2482.9070713324036,-4664.3861051262511,5301.4312212929599
-1149.7824735860738,-2775.0155376009875,2995.6494717215542
-3927.9055313859426,-236.1715351149758,1923.555003107509
-3772.5295214418729,-2942.8216283405741,5043.5052827843228
-1538.2224984462312,-786.20261031696327,4195.1522684897318
-1768.1789931634501,-2868.2411435674258,3415.1646985705274
-3739.9572404083397,-2074.3264138079712,3189.8128030969228
-3362.3368551895419,-27.967681789929557,3328.1541330018495
-3312.6165320074483,-1044.1267868241112,1752.6413921690382
-1911.1249223119851,-2486.0161591050278,2473.5860783094995
-2520.1988812927157,-257.92417650714202,2333.747669359841
-3915.4754505904107,789.31013051584932,2992.5419515226727
-5369.7949036668579,1528.8999378495946,2604.1019266625135
-4282.1628340584066,-565.56867619639252,1706.0285891858214
-4536.9794903666807,-316.96706028589398,2343.0702299564869
-5422.6227470478361,-1432.5668116842683,5161.5910503418108
-5152.2684897451691,1880.0497203231762,-248.60161591050681
-1939.0926041019186,-2513.9838408949599,2274.7047855810929
-3906.1528899937766,-2725.2952144188862,3850.2175264139105
-6152.8899937849383,3729.0242386575401,512.74083281541084
-4067.7439403355993,804.84773151025411,1587.9428216283361
-1749.5338719701617,-1995.0279676817834,3719.7016780608988
537.60099440646673,-2153.5114978247261,1637.663144810432
-4574.2697327532514,431.94530764449991,2818.5208203853249
-1100.0621504039736,-4207.5823492852605,1908.0174021131068
-3701.0565568676061,565.56867619639468,1970.1678060907325
-817.2778123057733,388.44002486016319,1842.7594779366027
-2818.5208203853208,-1103.1696706028547,1957.7377252952031
-2672.4673710378979,-770.66500932255292,3144.810441267859
-4254.1951522684767,-512.74083281541232,3079.5525170913506
-2700.435052827831,-6.2150403977602098,2274.704785581097
-3955.8732131758729,1696.7060285891794,497.20323182100134
-2961.4667495338576,1385.9540087010535,1765.0714729645642
-3390.3045369794768,-1985.7054070851375,3126.1653200745704
-4428.2162834058281,1162.2125543816001,960.22374145431002
-3682.4114356743175,-1031.6967060285872,4362.9583592293211
-1193.2877563704087,-2495.3387197016714,3144.8104412678576
-5752.0198881292563,1031.6967060285854,2806.0907395897989
-3589.1858297078752,739.58980733375085,3620.2610316966957
-5170.9136109384544,-205.09633312616768,3996.2709757613275
-3353.0142945929038,1504.039776258543,1389.061528899932
-1429.4592914853845,2513.9838408949645,2644.4996892479758
-845.24549409570102,-2137.97389683032,2538.844002486007
-3502.1752641392095,-1690.4909881914198,3119.9502796768056
-2908.6389061528785,-1852.0820385332445,4676.817899316331
-2019.8881292728338,618.3965195773751,1429.4592914853915
-3265.9734260674077,-1053.3991736725773,581.16961533824337
-3408.9496581727622,773.77252952144318,1967.0602858918512
-1267.8682411435593,-1858.2970789310029,2855.811062771902
-3645.1211932877418,2262.274704785576,1444.9968924797952
-2299.564947172149,-1348.6637663144743,3269.1112492231082
-1056.5568676196315,-2939.7141081416926,3210.0683654443646
-4978.2473586078168,1373.5239279055322,3679.3039154754415
-4338.0981976382709,1168.4275947793667,1923.5550031075106
-2644.4996892479676,-220.63393412056749,3548.7880671224234
-1852.0820385332456,-1855.1895587321246,2967.6817899316216
-2893.1013051584737,-1497.8247358607796,2650.7147296457324
-3259.7886886264619,1768.1789931634498,170.91361093846578
-1662.5233064014842,-1417.0292106898644,2442.5108763206808
-2868.2411435674217,164.69857054070798,2290.2423865754995
-3710.3791174642502,338.7197016780616,478.55811062771068
-4322.5605966438643,1814.7917961466708,3091.982597886878
-1330.0186451211857,-1507.1472964574214,3511.4978247358472
-2740.8328154132901,-658.794282162836,764.44996892478889
-6435.6743318831404,885.64325668116328,1118.7072715972586
-4704.7855811062636,-2004.3505282784331,2355.5003107520015
-5114.978247358591,2905.5313859540042,282.78433809819558
-3440.0248601615863,-2445.6183965195728,1755.7489123679243
-1793.0391547544959,-612.18147917961289,2299.5649471721481
-4620.8825357364676,1056.5568676196392,3536.3579863269024
-2775.0155376009852,-254.81665630826348,2809.1982597886831
-2557.489123679296,-1693.5985083902985,2970.7893101305008
-5873.2131746974173,3166.563084200302,1227.4704809235261
-2433.1883157240413,-1314.4810441267837,2277.8123057799735
-1889.3722809198155,-584.21379738967687,3032.9397141081304
-988.19142324424411,-1233.6855189558653,1525.792417650707
-2374.1454319452992,490.98819142324675,2032.3182100683543
-1243.0080795525075,-1009.9440646364147,1830.3293971410728
-4297.7004350528168,-649.47172156619172,-407.08514605345977
-4453.0764449968774,481.66563082659837,4027.3461777501466
-1861.4045991298897,-2961.466749533864,2635.1771286513303
-4372.2809198259647,-882.53573648228485,2834.0584213797297
-4310.1305158483392,602.85891858297316,3191.423244251082
-3356.1218147917834,-829.70789310130033,3722.8091982597766
-3281.5413300186333,-1078.3095090118038,1448.1044126786733
-2585.4568054692236,997.51398384089441,1749.533871970166
-1295.8359229334894,-1342.4487259167124,2162.8340584213715
-2917.9614667495239,-857.67557489123408,3545.6805469235383
-3119.9502796768074,-671.22436295835678,2417.6507147296375
-4751.5318962625424,416.27419447703011,2081.9050210773994
-1845.8669981354792,-310.75201988812415,1951.5226848974446
-2691.1124922311892,-537.60099440646115,2321.3175885643163
-46.612802983214777,-1721.5661901802264,1646.9857054070769
-4422.0012430080678,-1494.7172156618999,2635.1771286513231
-4586.6998135487756,251.70913610938055,2131.7588564325638
-4639.5276569297585,627.71908017401779,3095.0901180857586
-2408.3281541329875,1852.0820385332479,2594.7793660658708
-4841.516469857037,87.010565568675133,2442.5108763206836
31.07520198882159,-3533.2504661280159,2445.6183965195596
-4201.367308887493,-842.13797389682827,4524.5494095711438
-2902.4238657551168,-211.31137352392648,1777.5015537600893
-3735.2392790553013,2134.8663766314448,835.92293349906117
-4869.4841516469705,-2949.0366687383389,3576.7557489123501
-3095.0901180857554,428.83778744561982,2809.1982597886749
-3064.014916096944,-3626.4760720944605,2296.457426973263
-4555.6246115599606,969.54630205096134,2271.5972653822118
-2781.2305779987464,-3293.9714108141579,4754.5059042883604
-1096.9546302050908,-5183.3436917339804,5926.0410192666104
-2604.1019266625162,-2594.779366065874,649.47172156617796
-5068.365444375373,3126.1653200745732,720.94468614045502
-3514.6053449347305,-658.79428216283316,3958.9807333747526
-2330.6401491609618,-2998.7569919204407,4381.6034804226065
-4179.6146674953261,1746.4263517712811,1056.5568676196351
-2240.5220633933995,-1370.416407706643,3551.8955873213044
-960.22374145431229,313.85954008701367,938.4711000621453
-3163.4555624611453,71.472964574269241,1357.9863269111181
-2054.0708514605226,-422.62274704784829,4223.1199502796635
-2333.7476693598373,562.46115599751658,1575.5127408328085
-3747.6693598508282,1550.6525792417631,1886.2647607209387
-5459.9129894344151,2271.5972653822173,1389.0615288999338
-4449.9689247980004,705.40708514605137,1519.5773772529383
-2883.7787445618278,481.66563082659985,2290.242386575505
-3601.6159105034044,-459.9129894344303,1286.5133623368479
-1171.5351149782398,-1128.0298321939013,4086.389061528891
-4509.0118085767399,-9.3225605966438447,3455.5624611559811
-4055.3138595400696,2812.3057799875646,1274.0832815413264
-2778.1230577998631,1124.9223119950261,102.5481665630782
-1330.0186451211828,-3601.6159105034067,3986.9484151646825
-3359.2301267952485,-876.32148788910536,540.70772280075948
-96.333126165315164,-1426.3517712865068,2995.6494717215587
-1737.1037911746378,-876.32069608451957,2041.6407706650016
-3101.3051584835184,-400.87010565568278,2287.1348663766203
413.30018645121362,-5133.6233685518791,4021.1311373523768
-1802.3617153511425,-1476.0720944686086,3067.1224362958246
-3064.0149160969445,105.65568676196578,1939.0926041019188
-1025.481665630821,-2840.2734617774927,2970.7893101304944
-2939.7141081416944,-543.81603480422393,1003.7290242386508
-4359.8508390304332,2162.8340584213765,2224.9844623990039
-2591.6718458669902,-807.95525170913299,714.72964574268815
-3321.9390926040869,568.676196395278,1640.7706650093164
-2007.4580484773069,-2144.1889372280839,3135.4878806712118
-360.47234307022666,-5059.0428837787267,4776.2585456805282
-2308.8875077687917,-1314.4810441267803,680.54692355499481
-2150.4039776258483,-1690.4909881914173,4188.9372280919688
-2290.2423865755086,-1569.2977004350421,4288.3778744561732
-3104.412678682404,-254.81665630826578,1646.9857054070781
-3766.3144810441136,1935.9850839030426,2060.2858918582933
-5136.7308887507643,1538.2224984462371,1274.0832815413239
