-2685.8736059479425,1703.8413878562578,2806.6914498141186
-4975.2168525402576,1307.3110285006169,2072.4907063196965
-4414.4981412639272,483.27137546468157,1477.6951672862363
-4203.8413878562451,1226.7657992565034,2332.713754646833
-3714.3742255266284,1211.2763320941758,2815.9851301115164
-3228.0049566294751,241.6356877323438,2695.1672862453443
-486.36926889714476,-3463.4448574968924,4755.2664188351773
-2667.2862453531502,-1536.5551425030933,1514.869888475831
-4742.8748451053161,-2701.3630731102744,2094.1759603469509
-1722.4287484510439,272.61462205700144,4708.798017348191
-2419.454770755875,-2441.1400247831393,3890.9541511771863
-1942.3791821561233,-148.69888475836214,1883.5192069392697
-5281.9083023543853,2465.923172242869,1976.4560099132525
-3076.2081784386519,926.27013630730914,1573.7298636926796
-2029.1201982651737,-1505.5762081784335,539.03345724906808
-2162.3296158612056,-2118.9591078066842,3785.6257744733466
-2596.0346964064324,-1830.855018587351,4581.7843866170897
-18.587360594791015,-3392.1933085501742,3782.5278810408795
-4789.3432465923015,2242.8748451053225,2397.7695167286179
-3757.744733581153,-12.391573729865149,1675.9603469640556
-2388.4758364312174,-2026.0223048327071,3779.4299876084151
-5006.195786864917,585.50185873605596,2078.6864931846198
-3497.5216845431796,2004.3370508054516,1830.8550200090226
-2732.3420074349328,975.8364312267687,3135.0681536555062
-4811.0285006195636,675.34076827756985,3110.2850061957797
-1657.3729863692624,-3432.4659231722358,2682.7757125154762
-1806.0718711276288,-1806.0718711276247,3389.0954151177075
-1750.4405043032955,2112.7633209417595,2282.2324550069247
-5257.125154894652,1700.7434944237843,2072.4907063197002
-2843.8661710037036,-1189.591078066908,3525.4027261462106
-1366.1710037174612,92.936802973981017,1232.9615861214336
-3844.4857496901968,1304.21313506815,2084.8822800495582
-929.36802973976899,-3382.8996282527764,5263.3209417595872
-2069.392812887229,381.04089219331053,1827.7571251548889
-4708.7980173481901,-68.153655514249166,3401.4869888475732
-3993.1846344485625,377.94299876084426,2441.1400247831366
-2670.3841387856128,-855.01858736059125,2156.133828996276
-1446.716232961579,-712.51548946715855,2118.9591078066815
-4011.7719950433593,-2180.9169764560042,6130.7311028500462
-2537.1747211895849,-1620.1982651796734,1276.3320941759494
-2943.0191967290216,793.04320223721413,1418.8118367706386
-5303.5935563816456,2695.1672862453474,2001.2391573729808
-1757.9127543288282,50.04370220407295,2168.3961559971581
-5635.0681536554966,3726.7657992564968,2041.5117719950406
-3884.7583643122566,371.74721189591213,2685.873605947947
-2462.8252788103964,-377.94299876084006,2193.3085501858673
-2137.5464684014823,-3574.9690210656677,2769.5167286245237
-851.92069392812584,-1731.7224287484419,2723.0483271375374
-2388.4758364312179,-746.59231722428228,2509.2936802973882
-1490.0867410160993,-387.23667905823947,1688.3519206939238
-3066.914498141256,-926.27013630731062,3237.298636926877
-4872.9863692688787,1502.4783147459696,2053.9033457249002
-2992.5650557620693,-9.293680297395202,2534.0768277571165
-4965.9231722428567,117.71995043370333,907.68277571250883
-4067.5340768277415,1632.5898389095378,2338.9095415117658
-5105.3283767038292,430.60718711276002,783.76703841387302
-607.18711276331442,-532.83767038413657,1205.0805452292348
-7072.4907063196833,2407.0631970260156,681.53655514249476
-4457.8686493184514,-585.50185873605767,3909.5415117719854
-4978.3147459727252,117.71995043370133,774.47335811647451
-247.83147459726919,-2614.622057001231,2503.0978934324562
-2438.0421313506745,833.33333333333121,1490.0867410161036
-3345.7249070631806,2806.6914498141255,2859.3556381660392
-2097.273853779418,-1570.6319702602177,3333.3333333333244
-4067.5340768277438,793.06071871127847,3674.10161090457
-2633.2094175960228,-703.2218091697614,1397.1499380421249
-4606.5675340768157,105.32837670384293,3153.6555142502989
-3082.4039653035825,-631.9702602230484,24.783147459719885
-5030.9789343246412,1363.0731102850082,3593.5563816604649
-3912.6394052044484,684.63444857496825,1542.7509293680193
-3475.8364312267518,-811.64807930606855,3147.4597273853674
-1093.5563816604674,-4191.4498141263803,5120.8178438661535
-337.6703841387814,-3816.6047087980091,2939.9008674101547
-3097.8934324659122,-1728.6245353159868,359.35563816604008
-2992.5650557620675,-675.34076827756735,2565.0557620817735
-1877.3234200743429,-3079.3060718711199,2639.4052044609593
-5235.4399008673909,-55.762081784384442,4225.5266418835081
-2645.600991325889,-700.12391573729587,2657.9925650557539
-1939.2812887236569,-2230.4832713754549,4553.903345724897
-2577.4473358116347,-597.8934324659167,2459.7273853779329
-2831.4778320570999,-2729.2473487857292,3695.7836301485795
-1542.7509293680262,-3497.5216852540157,3705.0805452292325
-2754.0272614621958,-514.25030978934149,1316.6047087980085
-1548.9467162329513,-402.72614622056653,1768.8971499380393
-1976.4560099132545,-2521.6852540272575,2338.9095415117599
-4247.2118959107656,681.53655514250147,2688.9714993804146
-3494.4237918215476,-374.84510532837402,3190.8302354398916
-1527.2614622056915,-889.0954151177184,2122.0570012391472
-4999.9999999999882,111.52416356877058,381.0408921933028
-563.81660470879183,700.12391573729872,325.2788104089164
-2645.6009913258877,1025.4027261462204,1982.6517967781806
-3921.933085501847,1387.8562577447315,2391.5737298636873
-5037.1747211895799,1737.9180932476506,-535.93580854805953
-4188.3519206939145,-102.23048327137094,1979.5539033457153
-2642.5030978934224,-1493.1846344485677,2673.4820322180808
-1496.2825278810337,-1970.2602230483233,-12.391573729871622
-3153.6555142502984,-1756.5055762081738,2719.9504337050653
-3838.2899628252694,-439.90086741016421,1065.6753407682672
-2676.5799256505447,-597.89343246592034,3540.8921933085408
-3311.6480793060618,-86.741016109046754,334.57249070631229
-2772.614622056994,-291.20198265179232,2899.6282527880971
-4392.8128872366633,452.29244114002461,2732.3420074349356
-6319.7026022304563,4755.266418835181,783.76703841387894
-5257.1251548946575,2283.1474597273796,2199.5043370507951
-1902.1065675340676,-2651.7967781908183,3426.2701363073015
-6152.4163568773092,1638.7856257744718,3980.7930607187018
-3389.0954151177139,-1855.6381660470829,4200.7434944237775
-5418.2156133828721,18.587360594795754,4361.833952912003
-2589.8389095415037,718.71127633209608,2047.7075588599703
-4938.0421313506649,4454.7707558859884,173.48203221808942
-4098.5130111524004,2053.9033457249025,1223.6679058240311
-4764.56009913257,-65.055762081780628,4036.5551425030844
-4770.7558859975034,161.09045848822913,591.69764560098315
-1713.1350681536499,-1189.5910780669099,2363.6926889714887
-3128.8723667905688,-315.98513011152301,1604.7087980173383
-3652.4163568773129,-557.62081784386385,1338.2899628252751
-1849.4423791821439,-2589.8389095415064,3980.7930607186986
-4761.4622057001125,2716.8525402726059,780.66914498140704
-5213.7546468401306,2280.0495662949161,3355.0185873605851
1050.1858736059523,-2688.9714993804087,3333.3333333333226
-2016.7286245353118,-2856.2577447335707,3822.8004956629438
-743.49442379181039,-1570.6319702602154,2648.6988847583525
-3447.9553903345623,-1747.211895910775,4792.4411400247718
-2815.9851301115141,-1648.0793060718654,3429.3680297397646
-1614.0024783147394,-3218.7112763320829,2060.0991325898317
-1945.4770755885902,-1880.421313506811,619.57868649317925
-5213.754646840127,3760.842627013627,1310.4089219330797
-591.6976456009827,628.87236679058446,-161.09045848823624
-659.85130111523449,-2592.936802973969,3122.67657992564
-873.60594795538088,-3296.1586121437322,3779.4299876084133
-817.84386617099858,-5805.4522924411258,7149.9380421313344
-1948.5749690210555,-365.55142503097699,2270.7558859975211
-4814.1263940520266,576.20817843865825,61.957868649312232
-3042.1313506815291,-3135.0681536555066,3166.0470879801592
-1579.9256505576575,-3959.1078066914347,3416.9764560098729
-1991.9501764546335,-2044.6144518320957,37.173328780971801
-3333.3333333333203,68.153655514252264,2530.9789343246503
-3122.6765799256436,-855.01858736059251,3057.620817843856
-4067.534076827742,2379.1821561338261,6.1957868649283521
176.57992565056423,-1062.5774473358078,1533.4572490706221
-1474.5972738537675,446.09665427509611,3701.982651796769
-1486.988847583636,-2267.6579925650462,4665.4275092936668
-3627.6332094175814,-1053.2837670384099,3004.9566294919296
-3460.3469640644207,-1734.8203221809138,3822.8004956629316
-1660.4708798017271,706.31970260223181,1335.1920693928089
-216.85254027261161,-1985.749690210647,2382.2800495662855
-3646.22057001238,-876.70384138785414,1493.1846344485673
-7698.2651796777964,3853.7794299875982,1759.6034696406396
-1353.7794299876032,-3578.0669144981298,4095.4151177199387
-3838.2899628252626,1136.9268897149959,2868.649318463436
-1911.4002478314649,-424.41140024782698,1183.3952912019793
-2521.6852540272489,-1347.5836431226694,4934.9442379182019
-2908.9219330854876,288.10408921932924,1979.553903345716
-988.22800495662557,-2970.8798017348086,2794.2998760842529
-2444.237918215596,1112.1437422552624,1124.5353159851227
-4758.3643122676413,-690.83023543989634,3723.6679058240261
-2258.3643122676467,-3125.7744733581039,4389.7149938041957
-2342.0074349442357,-3286.864931846339,3051.4250309789272
-2351.3011152416275,37.174721189593967,2407.0631970260115
-1595.4151177199428,-1294.9194547707482,2193.3085501858595
-145.60099132589178,-2425.6505576208106,2939.9008674101528
-3785.6257744733443,-1180.2973977695117,715.61338289961566
-1595.4151177199433,-693.92812887236323,1059.4795539033387
-2159.2317224287381,-2933.7050805452213,2986.3692688971387
-3869.2688971499229,-554.52292441139718,3088.5997521685135
-1951.6728624535228,-2026.0223048327107,2057.0012391573641
-3506.815365551412,712.51548946716218,3986.9888475836306
-3271.375464684003,-1152.4163568773197,4327.7571251548788
-2735.4399008673981,-2524.7831474597178,1880.4213135068094
-408.92193308549474,-3537.7942998760714,3760.8426270136138
-301.64545981973157,-4824.4835024068807,4680.266199394423
-2819.0830235439753,1465.303593556381,2636.3073110284927
136.30731102850314,-1449.8141263940443,1053.2837670384074
-2100.3717472118892,851.92069392812891,3745.3531598512914
-5083.643122676559,4566.2949194547618,396.53035935563548
-2050.8054522924303,-551.42503097893086,2087.9801734820244
-4296.7781908302186,151.79677819083238,3410.7806691449673
-2301.7348203221727,-1019.2069392812874,2651.7967781908233
399.62825278810743,-5213.7546468401288,5058.8599752168366
-3370.508054522918,-1068.7732342007432,1598.5130111524063
-3506.8153655514134,-882.89962825278405,2741.6356877323365
-2044.6096654274982,-436.80297397769402,1217.4721189591012
-3547.0879801734695,-508.05452292441032,1517.9677819082956
-1644.9814126394019,-1586.1214374225485,1728.6245353159752
-2995.662949194535,-994.42379182155832,1536.5551425030887
-2261.4622057001156,-3444.8574969020947,4944.2379182155964
-5396.5303593556246,1651.1771995043348,3918.8351920693776
-2276.9516728624399,-1183.3952912019772,3413.8785625774344
-3819.6035103938548,-1626.2337601754211,4000.1527135083584
-2865.5514250309698,244.7335811648091,1759.6034696406377
-2372.9863692688909,-1192.6889714993752,3039.0334572490601
-923.17224287483577,-700.12391573729451,827.13754646839584
-3887.8562577447165,-1239.1573729863694,1449.8141263940358
-4024.1635687732187,851.92069392812948,3144.361833952903
-4560.0991325898212,1158.6121437422557,1889.7149938042087
-2785.006195786852,2026.3285304219692,2453.531598513006
-4476.4560099132405,1304.2131350681516,2921.3135068153592
-635.06815365550813,-2707.5588599752064,2184.0148698884632
-3017.3482032217985,-1071.8711276332049,2843.8661710037022
-879.80173482032001,-2571.2515489467064,923.17224287483873
-2410.16109045848,-1031.5985130111515,2893.4324659231665
-5486.3692688971323,343.86617100371905,3528.5006195786736
-103.9395504168082,-3712.8326390804064,3716.2235975064918
-5114.6220570012219,-80.545229244115831,1771.9950433704939
-2750.9293680297319,-1217.4721189591044,3032.8376703841304
-4826.5179677818969,-2995.6629491945428,1254.6468401486868
-4749.0706319702413,2044.6096654275086,997.52168525402658
-1161.7100371747131,-1542.7509293680255,669.14498141263539
-3528.5006195786741,297.39776951672923,1694.5477075588497
-3429.3680297397632,570.01239157373209,2286.2453531598462
-3531.5985130111412,61.957868649315188,3413.8785625774362
-4110.9045848822643,30.978934324659352,4597.2738537794148
-3042.1313506815245,-477.07558859974984,2633.2094175960224
-3314.745972738524,-631.97026022304567,2750.9293680297305
-105.32837670383401,-3104.0892193308428,3104.0892193308423
-4247.2118959107684,-2338.9095415117645,3680.2973977695056
-3742.2552664188202,-145.6009913258965,3336.4312267657883
-3562.5774473358024,-542.13135068153326,1737.918215613375
-3565.675340768264,-1474.5972738537771,1864.9318463444781
-3593.5563816604586,-666.04708798017191,3708.1784386616973
-3807.3110285006078,1644.9814126394001,1291.8215613382843
-2781.908302354384,-154.89467162329481,291.20198265179016
-2769.5167286245214,257.12515489467313,1511.7719950433614
-480.17348203221314,-377.94299876083932,1638.7856257744668
-3299.2565055761957,-2775.7125154894566,5303.5935563816411
-1768.8971499380357,-1614.0024783147428,2530.9789343246489
-4807.9306071870988,607.18711276331715,402.7261462205621
-2778.8104089219214,325.27881040892402,3218.7112763320902
-4206.9392812887127,-415.11771995043449,2360.5947955390247
-2428.7484510532745,-387.23667905823947,1592.3172242874759
-3392.1933085501787,334.57249070631991,2029.1201982651723
-2084.8822800495582,-4684.0148698884595,4820.3221809169627
-4064.4361833952776,461.58612143742175,2171.6232961586024
-5297.397769516715,-2905.8240396530286,2877.9429987608269
-2961.5861214374122,-839.5291201982559,2952.2924411400122
-136.30731102849495,-2369.8884758364252,1778.1908302354261
-5901.4869888475641,3135.0681536555071,2323.4200743494371
-1651.1771995043309,-715.61338289962237,579.30607187111968
-2614.6220570012283,343.86617100371666,647.45972738537341
-3770.1363073110151,322.18091697645627,2276.951672862443
-1567.5340768277485,-2097.2738537794226,2465.9231722428617
-4092.3172242874698,-127.01363073110046,3392.1933085501764
-4290.5824039652907,1090.4584882280037,3875.4646840148566
-1034.6964064436104,-3324.0396530359249,2050.8054522924313
-3401.4869888475714,-830.235439900865,2763.3209417595904
-3385.9975216852417,1710.0371747211857,1375.4646840148678
-1759.603469640635,-1316.6047087980103,3231.1028500619432
-3159.8513011152318,-473.97769516728619,892.19330855018325
-1415.7372986369203,-2778.810408921926,4618.9591078066805
-4981.4126394051927,-1437.4225526641862,2044.6096654274984
-6059.4795539033285,1381.6604708797981,2942.9987608426172
-2431.846344485743,-511.15241635687602,1651.1771995043314
-3785.6257744737136,-2199.5043370510748,5508.0545229242462
-3485.1301115241531,-1431.2267657992527,1449.8141263940422
-2992.5650557620684,-1552.0446096654225,3271.3754646840061
-3602.850061957859,678.43866171003947,2679.677819083015
-910.78066914497686,-3760.8426270136215,2342.007434944222
-3200.1239157372893,-139.40520446096434,2865.5514250309698
-3097.8934324659162,-1886.6171003717388,4513.6307311028422
-3844.4857496901982,-2407.0631970260183,2022.9244114002329
-1322.8004956629441,-2010.5328376703824,1802.9739776951574
-4141.8835192069237,-1530.3593556381613,4138.7856257744552
-1078.0669144981387,-2952.2924411400149,2645.6009913258927
-4188.3519206939172,-9.2936802973984403,2286.2453531598462
-2069.392812887229,-2939.9008674101533,3903.345724907052
-2444.2379182156051,-467.78190830235098,1288.7236679058201
-4563.1970260222934,-901.4869888475863,1294.9194547707468
-1806.0718711276249,-712.51548946715684,2419.454770755875
-876.703841387853,-1536.5551425030908,1025.4027261462077
-2636.3073110284927,-656.75340768277601,1923.7918215613286
-2100.3717472118888,-2407.0631970260101,3054.5229244113834
-3026.6418835191912,-591.6976456009894,1617.1003717472058
-37.174721189588553,-4293.6802973977565,3717.4721189590941
-3004.9566294919318,68.153655514251284,1140.0247831474521
-6043.990086740996,1545.8488228004919,526.64188351919813
-3017.3482032218003,-666.04708798017111,1926.8897149937961
-3754.6468401486841,508.05452292441345,2419.4547707558772
-1081.1648079306028,-1437.4225526641824,1050.1858736059401
-1047.0879801734739,-436.80297397769323,712.51548946716002
-2202.6022304832586,384.13878562577821,1517.9677819082935
-3903.345724907052,65.055762081788089,2986.3692688971378
-3389.0954151184569,1765.7992565052002,1149.3184634437334
-2574.3494423791717,-2654.894671623289,4640.6443618339326
-4606.5675340768112,216.8525402726159,3717.4721189590932
-2224.2874845105225,-1022.3048351606514,1775.0929368029631
-3887.8562577447155,2050.805452292439,1109.0458488227966
-4433.0855018587172,3169.1449814126345,796.15861214373365
-4460.9665427509153,1446.7162329615853,2679.6778190830114
-3543.9900867410024,-331.47459727385109,3258.9838909541427
-4479.5539033457108,523.54399008674238,1332.0941759603368
-4950.433705080527,-74.349442379183017,1920.6939281288619
-3454.0750885767939,-2763.3209417595976,2735.5540338014639
-4203.8413878562433,2527.88104089219,1105.9479553903309
-2989.467162329604,207.55885997521901,2614.6220570012274
334.57249070632383,-2063.197026022297,1914.4981412639324
-1452.9120198265121,-4876.084262701349,4758.3643122676422
-3612.1437422552599,-2140.6443618339499,3633.8289962825133
-3119.5786864931711,-192.06939281288689,300.4956629491864
-3568.7732342007357,-294.29987608426529,315.98513011151738
-281.90830235439284,-3587.3605947955257,4866.7905824039535
-4213.1350681536414,-195.1672862453492,3894.0520446096498
-2983.2713754646707,-1328.9962825278758,3971.4993804213082
-4780.0495662949052,-157.99256505576108,2967.7819083023414
-5009.2936802973836,-709.41759603469575,3451.053283767023
-4241.0161090458314,2295.5390334572471,1530.3593556381595
-1871.1276332094124,-3271.3754646840052,3897.1499380421155
-3615.2416356877229,-120.81784386616691,2385.3779429987521
-4355.6381660470743,-1177.1995043370473,3401.486988847571
-4253.4076827756971,-489.4671623296137,2633.2094175960224
-4079.9256505576063,328.3767038413896,2410.1610904584791
-2499.999994644143,-244.73357571157871,3568.7732363430741
-1567.534076827749,-1316.6047087980123,1675.9603469640576
-4157.3729863692615,-3215.613382899623,2806.6914498141118
-3661.7100371747065,80.545229244114878,2682.7757125154785
-1412.6394052044541,-3420.0743494423673,4213.1350681536451
-4451.6728624535181,1756.5055762081743,461.58612143741982
-3959.1078066914383,1626.394052044607,2001.2391573729765
-2853.159851301109,-768.27757125154665,328.37670384138028
-2543.3705080545124,570.01239157373084,1099.7521685253992
-1778.1908302354307,-381.04089219330604,2772.6146220569904
-2273.85377942998,-1112.1437422552631,1641.8835192069328
-1164.807930607177,-3011.1524163568697,2614.6220570012306
-1833.9529120198199,-2122.0570012391545,1356.8773234200653
-3816.6047087980032,-1087.3605947955316,3835.1920693927996
-3540.8921933085376,-861.21437422552242,2871.7472118959072
-6245.3531598512818,2462.8252788103978,2676.5799256505502
-6524.1635687732178,718.71127633208744,1273.2342007434877
-4120.198265179667,-151.79677819083005,3243.4944237918126
-3107.1871127633103,1638.7856257744718,-328.37670384139113
-3190.8302354398884,173.48203221809266,2382.2800495662855
-3624.5353159851225,-4216.2329615861117,3395.291201982634
-3695.7868649318325,-139.40520446096377,3162.9491945476966
-1465.3035935563721,-111.52416356876931,1694.5477075588528
-721.8091697645541,-1369.2688971499313,2648.6988847583598
-4470.2602230483153,322.18091697645588,3407.6827757125052
-4259.6034696406286,-353.15985130111511,77.447335811639874
-1022.3048327137525,-1254.6468401486986,-1006.8153655514307
-5635.0681536554985,-130.11152416356654,2633.2094175960228
-1232.9615861214281,-1229.863692688964,2657.9925650557498
-873.60594795538339,-254.02726146220263,898.34762793726964
-6028.5006195786691,3788.723667905816,2698.2651796778082
-1846.3444857496811,-461.58612143741675,1356.8773234200646
-2791.201982651784,-3543.9900867410024,4941.140024783127
-2447.3358116480676,331.47459727385893,2156.1338289962764
-1747.2118959107784,-2366.7905824039599,2583.6431226765753
-1775.0929368029661,-820.94175960346604,2425.6505576208087
-4135.687732341994,58.85997521685411,1260.8426270136288
-4275.0929368029547,3116.480793060713,-130.11152416358013
-263.32094175959963,-1093.5563816604679,1152.4163568773154
-3946.7162329615694,963.44485749690205,628.87236679057651
-2995.662949194535,-700.12391573729519,3636.9268897149868
-3983.8909541511625,-2211.8959107806641,2280.0495662949088
-4355.6381660470734,678.43866171003685,4089.2193308550045
-2270.7558859975102,-3197.0260223048235,3782.5278810408777
-3652.4163568773079,1149.3184634448567,2345.1053283766955
-3711.2763320941635,-334.57249070632088,1307.3110285006073
-3633.8289965111717,-557.62081807251741,2918.2156131542324
-3581.1648079305969,-1304.2131350681523,2221.1895910780513
-4526.022304832698,2016.7286245353105,1790.5824039652991
-3367.4101610904459,2540.2726146220525,2447.3358116480731
-4464.0644361833829,-269.51672862453398,3042.1313506815263
-3983.890954151163,-151.79677819083176,2710.6567534076726
-3801.1152416356745,-80.545229244112065,1130.7311028500587
-3141.2639405204377,-188.97149938042199,2084.8822800495545
-2685.8736059479434,-219.9504337050812,3255.8859975216742
-6161.7100371747092,2537.1747211895818,2397.7695167286147
-1731.7224287484398,-1827.7571251548902,1843.2465923172151
-2177.8190830235367,-315.98513011152335,1874.2255266418777
-4194.5477075588478,-365.55142503097812,3928.1288723667767
-5641.2639405204291,851.92069392812664,3407.6827757125056
-2986.369268897136,-192.06939281320717,2280.0495662949079
-3073.1102850061866,-210.6567534076824,2335.8116480793001
-3692.6889714993672,-18.587360594793783,2168.5254027261367
-3184.634448574961,-1183.395291201979,3516.1090458488129
-4560.0991325898267,-315.98513011152482,514.25030978933205
-2515.4894671623169,92.936802973978629,1933.0855018587324
-3872.3667905823886,-1728.6245353159832,3184.6344485749582
-4721.1895910780531,1691.4498141263894,2608.4262701362973
-2159.2317224287422,-1149.3184634448548,2775.7125154894579
-1936.1833952911943,-1205.0805452292386,2670.3841387856169
-2682.7757125154794,-1666.6666666666624,2769.5167286245296
-2741.635687732331,932.46592317224054,120.81784386616255
-5529.7397769516547,3076.2081784386569,752.7881040892164
-3943.6183395291041,-58.85997521685087,2022.9244114002411
-3342.6270136307203,-768.27757125154562,3965.3035935563689
-3398.389095415107,-1471.4993804213057,4055.1425030978794
-3853.7794299875986,-1558.2403965303531,3887.8562577447219
-1000.6195786864855,-1118.33952912019,2091.0780669144942
-3234.2007434944103,-650.55762081783985,2391.573729863685
-4842.0074349442248,433.70508054522674,1319.7026022304765
-3004.9566294919359,-281.90830235439529,2475.2168525402631
-4340.1486988847464,2518.5873605947895,709.41759603468813
-2583.6431226765685,346.96406443618463,1499.3804213134981
-3609.0458488227905,-285.00619578686167,3856.8773234200671
-3023.5439900867291,-1050.1858736059471,3379.8017348203061
-963.44485749689386,-2419.4547707558777,3395.2912019826422
-2973.9776951672734,557.62081784386601,2397.7695167286183
-3853.7794299875991,1821.5613382899596,1917.5960346964032
232.34200743494367,-3203.2218091697519,2332.7137546468257
-3147.4597273853674,-2184.0148698884705,1644.9814126393912
-1065.675340768272,1781.2887236679016,591.69764560098656
-4017.9677819082945,-1192.6889714993786,2354.3990086740955
-3763.9405204460813,120.81784386617197,2174.7211895910673
-3234.2007434944121,-4368.0297397769391,5539.0334572490501
-3048.3271375464583,-4795.5390334572376,5786.8649318463249
-2326.5179677818983,-130.1115241635645,3828.9962825278735
-3683.3952912019749,-1180.2973977695133,2552.6641883519151
-89.838909541507462,-3912.6394052044488,2657.9925650557489
-3063.8166047087839,-1325.8983890954109,1313.5068153655445
-2596.0346964064343,-3073.110285006187,3516.1090458488075
-2218.0916976455928,-2007.4349442379144,192.06939281287941
-3540.8921933085371,-690.83023543989759,2558.8599752168416
-1384.7583643122607,-972.73853779429521,2063.1970260222961
-3076.2081784386519,-1096.6542750929357,1982.651796778182
-2877.9429987608264,-1911.4002478314651,3671.0037174721097
-3491.3258983890828,1948.5749690210623,1310.4089219330817
-5566.9144981412483,2184.0148698884686,944.85749690210389
-1688.3519206939211,114.62205700124404,1536.5551425030899
-1982.6517967781813,-1242.2552664188327,1564.4361833952826
-1787.4845105328272,-1009.9132589838841,1592.3172242874757
-2651.7967781908064,-108.42627013629148,2345.105328376716
-3791.8215613382772,-2366.7905824039531,4547.707558859961
-2326.5179677819028,340.76827757125176,2403.9653035935471
-6013.0111524163367,1861.8339529120158,-1474.5972738537819
-3856.8773234200617,-1942.3791821561263,3469.6406443618221
-4107.8066914498004,89.838909541513246,3066.9144981412569
-4070.6319702602123,2345.1053283766987,960.34696406443186
-3590.458488227991,-789.96282527880885,2815.9851301115091
-4687.1127633209244,353.15985130111676,4185.2540272614515
-3457.2490706319581,-1425.0309789343221,2403.9653035935457
-5235.4399008673945,-783.76703841387905,1490.0867410161015
-4584.8822800495482,2314.1263940520412,-374.84510532838112
-3438.6617100371691,-151.79677819083238,985.13011152415743
-2270.7558859975138,-2515.4894671623206,1214.3742255266322
-3447.95539033456,576.208178438662,2611.5241635687612
-446.09665427508781,-3956.0099132589703,5130.1115241635516
-2905.8240396530264,-997.52168525402374,941.75960346963393
-3689.591078066901,-30.978934324658368,2636.3073110284895
-1787.4845105328263,-3847.5836431226635,5935.5638166046911
430.60718711276581,-4727.3853779429855,1858.7360594795409
-3739.1573729863599,-2723.0483271375392,4076.8277571251451
-2224.2874845105225,-1189.5910780669108,1806.0718711276286
-3147.4597273853651,-1533.4572490706266,2986.3692688971387
-5628.872366790566,-343.86617100371819,2530.9789343246471
-3355.0185873605842,390.33457249070574,2596.0346964064338
-1078.0669144981364,-557.62081784386373,1561.3382899628184
-2946.0966542750825,157.99256505576079,554.52292441139093
-3844.4857496901959,1397.1499380421294,2450.4337050805384
-3968.4014870891838,641.26394042064828,1902.1065674585273
-4931.8463444857298,594.79553903345959,4008.6741016108958
-2057.0012391573664,120.81784386617514,1973.3581164807874
-3193.9281288723528,749.6902106567544,3079.3060718711176
-3643.1226765799124,1753.407682775711,836.43122676579424
-2348.2032218091545,257.12515489467216,2719.9504337050739
-2744.7335811647968,-1189.5910780669117,2592.9368029739694
-2651.7967781908187,-1428.128872366784,2874.8451053283693
-3361.2143742255112,-3268.277571251539,4984.510532837653
-4377.3234200743382,1081.1648079306033,-192.06939281289462
-1164.8079306071763,-489.46716232961495,216.85254027260885
-2549.5662949194439,-616.48079306071577,2242.8748451053184
-721.80916976455444,-1737.9182156133757,2803.5935563816506
-2840.7682775712451,-2710.6567534076762,1446.716232961579
-7293.4561074549592,3105.7661583610411,1390.7511576911531
-830.23543990086,-3962.2057001239009,4160.4708798017209
-2230.483271375459,-2859.3556381660346,1871.1276332094071
-3825.8983890954,-926.2701363073063,2565.0557620817781
61.957868649321945,-2846.9640644361757,1995.0433705080425
-4033.4572490706191,-105.32837670384012,2512.3915737298516
-1564.4361833952821,272.6146220570061,1468.4014869888415
-3513.0111524163449,-1415.7372986369205,3701.9826517967608
-1316.6047087980123,-1062.5774473358049,1319.7026022304772
-4095.4151177199374,-1400.2478314745936,4941.1400247831316
-2057.0012391573609,-340.76827757125136,4312.2676579925565
-2543.370508054511,508.05452292441214,2270.7558859975125
-3878.5625774473206,740.39653035935692,2651.7967781908233
-5157.9925650557416,-105.32837670383898,2955.3903345724775
334.57249070632059,-2905.8240396530291,2942.9987608426168
-3590.4584882279928,272.61462205700104,2026.0223048327
-4042.7509293680182,607.18711276331737,-359.35563816605458
-1009.9132589838861,-2137.5464684014819,2416.3568773234151
-2047.7075588599637,-1716.232961586114,2915.1177199504241
-4333.7428851350587,-743.02396356997292,3138.4096782742772
-2227.3853779429883,-1988.8475836431173,3463.4448574968933
-2902.7261462205583,-278.81040892193107,3643.1226765799124
-2695.1672862453447,-2314.1263940520348,2729.2441140024666
-2202.602646572579,-1682.1565819251734,3317.84354610229
-814.74597273853408,-3119.5786864931752,3193.9281288723564
-2326.517967781896,-108.42627013630401,3289.9628252787984
-3224.9070631970135,-136.3073110284989,2162.3296158612015
-2614.6220570012324,-346.9640644361811,201.36307311027898
-4175.9603469640469,-99.132589838905574,3959.1078066914415
-1019.206939281288,-4662.3296158611993,3125.7744733581094
-2577.4473358116416,-188.97149938041775,1892.8128872366735
-2032.2180916976406,-3621.4374225526535,3001.8587360594688
-6638.7856257744534,910.78066914497833,1400.2478314745906
-3169.1449814126267,-1276.3320941759564,1511.7719950433618
-4433.0855018587199,2091.0780669144938,1102.8500619578606
-3745.3531598512841,-2060.0991325898335,4420.6939281288605
-2685.8736059479479,-161.09045848822612,2478.3147459727302
-2630.1115241635571,-334.57249070631809,2069.3928128872308
-4114.0024783147319,2084.8822800495623,1942.3791821561258
-3104.0892193308428,799.25650557620827,2853.1598513011045
-3853.779429987595,164.18835192069548,1617.1003717472024
-2007.4349442379098,-452.29244114002194,1892.8128872366719
-3441.759603469628,-1003.7174721189557,3630.731102850048
-2704.4609665427379,-827.13754646839652,2939.9008674101487
-4210.0371747211811,-3441.7596034696344,3389.0954151177002
-1022.3048327137478,-697.02602230482876,1967.1623296158537
-2338.9095415117627,-1226.7657992564982,2499.9999999999932
-343.86617100371313,-3503.7174721189508,2280.0495662949133
-3680.2973977695037,1434.3246592317205,3559.4795539033362
-2490.7063197025914,-2081.7843866170901,3345.7249070631806
-3482.0322180916864,365.55142503098102,2044.6096654275002
-1412.6394052044529,-1477.6951672862399,2493.8042131350576
-2184.0148698884664,-1421.93308550185,2472.1189591078046
-4241.0161090458387,-1620.1982651796739,1750.3097893432371
-737.29863692688366,-3159.8513011152345,3767.0384138785521
-3262.0817843866048,1000.6195786864927,2230.4832713754581
-226.14622057000955,-5446.0966542750784,2726.1462205700063
-2837.6703841387753,-136.30731102849819,2685.873605947947
-4383.5192069392651,-1353.7794299876039,4488.8475836431035
-4532.2180916976304,-867.41016109045768,2980.1734820322017
-3540.8921933085362,-421.31350681536418,1716.2329615861122
-2642.5030978934228,-706.31970260222624,1852.5402726146124
-6390.9541511771831,-1254.6468401486961,3262.0817843866021
-3667.9058240396439,-1514.8698884758344,2391.5737298636827
-895.29120198264695,-4674.721189591065,3008.0545229243976
-2202.60223048326,-1298.0173482032139,4203.8413878562469
-2815.9851301115164,-1276.3320941759562,2261.4622057001216
-1967.1623296158539,-2530.9789343246553,3150.5576208178318
-3100.991325898377,-2004.337050805445,5910.7806691449669
-1276.3320941859652,-3008.0545229304084,3060.7187112703118
-3974.5972738537689,582.40396530358896,1140.0247831474564
-6911.4002478314515,-49.566294919456794,2812.887236679047
-2385.3779429987526,-836.43122676579662,2521.6852540272525
-3825.8983890954019,508.05452292441282,978.93432465922433
-2995.6629491945332,-105.3283767038411,3488.2280049566184
-4557.0012391573591,-3983.8909541511671,1734.8203221808999
-4609.6654275092797,1899.0086741016057,3017.3482032218017
-4742.8748451053161,1741.0161090458391,229.24411400247527
-4067.5340768277415,-250.92936802973648,3503.7174721189463
-2881.0408921932999,-1254.646840148692,3925.0309789343128
-6387.8562577447165,-1167.9058240396525,944.85749690209809
-3026.641883519198,-164.18835192069437,2667.2862453531552
-2094.1759603469559,-446.09665427509066,557.62081784386021
-3844.4857496901991,275.71251548947157,3646.2205700123809
-873.60594795538509,-2673.4820322180813,1263.9405204460911
-2840.7682775712392,-889.09541511771704,2078.686493184628
43.370508054529637,-2896.5303593556296,2506.1957868649242
-684.63444857496381,-1889.7149938042053,2456.6294919454735
-1607.8066914498077,-1189.5910780669046,1167.9058240396494
-2410.1610904584772,-700.12452677092017,4172.8624535315876
-2287.1116195362765,-1406.2725511071221,2347.8870142048072
-3187.7323420074231,-1939.2812887236619,4625.1548946716084
-724.90706319702178,-3162.9491945476975,2856.2577447335675
-2627.0136307310941,-24.783147459726077,2524.7831474597197
-2707.5588599752041,-1366.1710037174655,2871.7472118958981
-3004.9566294919318,2614.6220570012338,436.80297397769107
-4405.204460966529,-2499.99999999999,5188.9714993804064
-1648.0793060718593,-3299.256505576197,3609.0458488227891
-1180.297397769511,179.67781908302635,3029.7397769516656
-3767.0384138785512,412.01982651796851,1232.9615861214304
-2075.58859975216,-2973.9776951672752,6713.1350681536351
-5523.543990086725,2707.5588599752127,1384.7583643122607
-1982.6517967781795,-548.32713754646852,2159.2317224287426
-3760.842627013622,-24.783147459726919,755.8859975216792
-3943.6183395291046,1641.8835192069391,2218.091697645591
-2060.0991325898285,-2871.7472118958985,4399.0086741015875
-4024.163568773216,-969.64064436182662,4560.0991325898258
-2100.3595501411746,-2230.4635684150708,1803.0042693213334
-2750.9293680297319,-2233.5811648079252,616.48079306071588
-3810.4089219330749,-845.72490706319024,2549.5662949194407
-4092.3172242874675,-111.52416356876819,3943.6183395291082
-3184.6344485749601,1050.1858736059473,477.07558859974893
-969.64064436183094,-3001.8587360594706,4504.3370508054395
-3618.3395291201846,1682.1561338289946,157.99256505576017
-3698.8847583642978,-424.41140024782965,3001.858736059467
-2859.3556381660355,-161.09045848822555,2540.2726146220466
-2490.7063197025936,-3584.2627013630636,4405.2044609665263
-4033.4572490706228,-666.04708798017225,-616.48079306072441
-2955.3903345724775,-297.39776951672644,2527.8810408921872
-5715.6133828996117,1725.5266418835145,991.32589838909121
-1279.4299876084167,1363.07311028501,2252.1685254027225
-3407.9732357403786,-613.38289962825195,1424.7986109120138
-4309.1697645600843,393.43246592317399,3770.1363073110178
-2568.1536555142388,731.10285006195727,127.0136307310954
-3258.9838909541372,1648.0793060718695,1294.9194547707475
-2376.084262701354,789.96282527881101,1394.0520446096596
-3894.0520446096498,678.43866171003413,1555.1425030978839
-3110.2850061957747,-892.19330855018188,3457.2490706319604
-1006.8153655514188,111.5241635687741,625.77447335811189
-4829.6158612143581,-910.78066914498163,1232.9615861214286
-1555.142503097886,-2868.6493184634351,3469.6406443618171
-3039.0334572490565,1508.6741016109015,1539.6530359355556
-6366.1710037174525,1415.7372986369217,1499.3804213135015
-3113.3828996282418,-855.0185873605908,3667.9058240396403
-2450.4337050805343,802.35439900867448,1322.8004956629425
-3187.7323420074217,-1886.6171003717418,4600.3717472118806
-3296.1586121437272,1561.3382899628241,1638.7856257744643
-1827.7571251548882,-1248.451053283761,2441.1400247831371
-1589.2193308550102,-1610.9045848822725,2692.0693928128749
-3379.801734820313,-306.69144981412035,3441.7596034696339
-3993.1846344485589,-2029.1201982651717,4191.4498141263739
-2977.0755885997419,-1892.8128872366744,4005.5762081784283
-4144.9814126430874,520.44609665290909,4386.6171003680611
-5659.8512652001591,185.87364489199732,3457.249119961079
-1384.7583643122571,-1877.3234200743429,3921.9330855018438
-5477.0755885997314,-656.75340768277272,4749.070631970244
-3875.4646840148589,-1895.9107806691404,2078.686493184623
-916.97645600990938,-5771.375464683998,4972.11895910779
-2242.8748451053207,-5071.2515489467023,5613.3828996282364
-4268.8971499380286,1558.2403965303565,920.07434944237446
-3519.2069392812728,659.85130111524234,2261.462205700112
-2877.9429987608301,-1093.5563816604661,3358.116480793045
-4656.1338289962687,4114.0024783147392,464.68401486988603
-1338.2899628252719,-1288.7236679058155,4411.4002478314651
-5514.2503097893277,34.076827757125216,3863.073110284995
-5508.0545229243971,2822.1809169764488,982.03221809169452
-1802.9739776951583,-709.41759603469609,2447.3358116480695
-4120.1982651796598,-1028.5006195786834,219.95043370507443
-3847.5836431226617,-201.36307311028108,3531.5985130111408
-4132.589838909531,-539.03345724906876,461.58612143741448
-3667.9058240396403,-666.04708798017111,1964.0644361833872
-2565.0557620817744,139.40520446096619,2676.5799256505525
-3444.857496902096,-164.18835192069014,2729.2441140024675
-5656.7534076827587,-480.17348203221923,-21.685254027266403
-5616.4807930607012,3773.2342007434818,1428.1288723667885
-2388.4758364312179,-1242.2552664188327,1592.3172242874805
-3791.8215613382772,-3739.1573729863567,6273.2342007434745
-1558.2403965303536,-2094.1759603469618,272.61462205699502
-2196.4064436183312,-3534.6964064436079,3107.187112763309
-3903.3457249070475,99.132589838908459,2812.8872366790511
-3190.8302354398888,77.447335811649012,2614.6220570012315
-1394.05204460966,-350.061957868646,1347.5836431226701
-337.67038413878106,-4668.5254027261353,1960.9665427509121
-2449.8238603188115,-1718.803945212547,3120.8934783782734
-1570.6319702602143,-2112.7633209417527,3869.2688971499233
-3708.1784386616978,-1232.9615861214356,3828.9962825278712
-3565.6753407682668,-1177.1995043370484,2639.4052044609543
-3070.0123915737217,-3231.1028500619536,1775.0929368029695
-1654.2750929367928,-597.89343246591829,1545.8488228004915
-1855.6381660470784,-1356.8773234200669,3516.109045848812
-1124.535315985122,-1641.8835192069357,1394.0520446096623
-1979.553903345713,-489.46716232961199,2242.8748451053202
-2800.4956629491835,824.0396530359352,470.87980173481685
-1747.2118959107754,-210.65675340767939,1744.1140024783124
-3537.7942998760691,-2577.4473358116384,4659.2317224287344
-2565.0557620817722,802.35439900867323,2094.1759603469577
-3131.9702602230386,-1025.4027261462152,2602.2304832713698
-4017.9677819082854,2283.1474597273814,2140.6443618339449
-2413.2589838909462,-758.98389095414927,2946.0966542750821
-2747.8314745972616,-1449.8141263940474,3258.9838909541395
-2850.0619578686387,384.13878562577452,108.42627013629965
-3522.3048327137449,1679.0582403965275,1366.1710037174664
-3519.2069392812796,151.79677819083062,3420.0743494423687
-2995.6629491945332,1056.3816604708827,3949.8141263940402
-1849.4423791821478,-1397.1499380421262,3082.4039653035843
-2252.1685254027198,-1109.0458488227955,2735.4399008674018
-2732.3420074349392,-1496.2825278810369,1081.164807930593
-5021.6852540272412,148.69888475836899,3986.9888475836342
-2159.2317224287403,684.63444857496802,600.99132589838462
-3286.8649318463295,-2010.5328376703824,1601.6109045848689
-1099.7521685253944,-1078.0669144981321,2905.8240396530277
-4578.6864931846176,904.58488228004956,2320.322180916965
-2026.0223048327061,-3184.6344485749569,4343.2465923172103
-3906.4436183395133,-523.54399008673749,4312.2676579925565
-1747.2118959107729,-669.14498141263812,2332.713754646833
-3819.7026022304708,2087.9801734820303,1874.2255266418767
-2670.3841387856173,-1140.0247831474571,272.61462205698939
-3890.9541511771854,1539.6530359355625,2704.4609665427406
-3940.5204460966429,-1666.666666666664,3906.4436183395173
-4002.4783147459584,635.06815365551404,2311.0285006195704
-3559.4795539033339,-2050.8054522924353,2757.1251548946602
-1948.5750642335472,136.3072294177974,1765.7992383698586
-7881.040892193284,4529.1201982651664,2032.2180916976395
-5092.9368029739644,3215.6133828996208,830.23543990086466
-2791.2019826517831,-728.00495662948879,2952.2924411400131
-2137.5464684014773,-1009.913258983888,1043.9900867410095
-2822.1809169764451,-1744.1140024783119,2481.4126394051941
-3472.7385377942887,-43.370508054519298,2063.1970260222965
-3429.3680297397614,-786.86493184634242,3317.8438661709883
-3525.4027261462074,-350.06195786864612,4185.2540272614488
-4953.5315985129937,600.99132589838894,2654.8946716232854
-2342.0074349442275,-1425.0309789343216,2785.0061957868597
-3763.9405204460868,1679.0582403965263,229.24411400246922
-3562.5774473357978,-1118.3395291201921,3277.5712515489358
-3224.9070631970135,554.52292441140025,1263.9405204460941
-3844.4857496901982,-1239.1573729863683,4349.4423791821464
-5957.2490706319504,-802.35439900867232,2357.4969021065535
-3035.9355638165925,-2146.8401486988782,4349.4423791821418
-3903.3457249070484,1601.6109045848782,1533.4572490706273
-1821.5613382899546,-2475.2168525402635,2465.9231722428644
-4894.6716232961426,2338.909541511764,1719.3308550185805
864.31226765799408,-3968.401486988836,2307.9306071870997
-3482.0322180916855,-2162.3296158612116,1579.9256505576132
-3723.6679058240256,1892.8128872366767,1784.3866171003667
-4752.1685254027097,2013.6307311028499,1387.8562577447312
-427.50929368029648,-2013.6307311028431,2146.8401486988755
-3522.3048327137444,185.96836219993469,2400.8674101610804
-477.07558859974841,-4368.0297397769391,4783.14745972737
-2221.189591078059,-52.664188351919144,2022.924411400239
-4529.1201982651619,-1146.2205700123861,4776.9516728624385
-2388.4758364312138,-176.57992565055557,1440.5204460966456
-6087.360594795523,2614.6220570012315,1902.1065675340681
-3224.9070631970139,-461.58612143741937,3039.0334572490601
-3234.2007434944139,-1672.8624535315978,2744.7335811648004
-4482.6517967781756,-281.9083023543995,1474.5972738537712
-4120.1982651796616,-176.57992565055528,4033.4572490706182
-3863.0731102849886,1332.094175960345,2335.8116480793014
-4566.29491945476,-1703.8413878562556,895.291201982644
-2822.1809169764488,-1078.0669144981396,1047.0879801734764
-3082.403965303582,808.55018587360587,2022.9244114002402
-765.17967781907851,-2499.9999999999873,3271.3754646840061
-1750.3097893432384,-1183.3952912019729,3785.6257744733452
-2623.9157372986278,-687.73234200743536,424.41140024782294
-1781.2887236678955,1951.672862453531,1802.9739776951631
-4845.1053283766887,-2063.1970260222988,6177.1995043370325
-1332.0941759603386,-3983.890954151163,2580.5452292441032
-2899.6282527880917,-263.32094175960191,1750.3097893432362
-2286.2453531598403,-127.01363073109863,2747.8314745972652
-3990.0867410160954,-635.06815365551427,3001.8587360594706
-4033.4572490706187,-201.3630731102846,2239.7769516728536
-631.97026022304408,-2168.5254027261371,350.06195786864362
-2422.5526641883453,-1208.1784386617092,1781.2887236678971
-3147.4597273853628,889.09541511771886,1152.4163568773135
-972.73853779429453,89.838909541513743,1180.2973977695099
-1778.1908302354343,-2450.4337050805384,1201.9826517967681
-3596.6542750929193,-1933.0855018587315,4522.9244114002304
-4516.7286245352989,-557.62081784386089,4659.2317224287353
-3463.4448574968915,941.75960346963632,2118.9591078066851
-2899.6282527880949,-529.73977695167139,737.29863692688104
-5442.9987608426163,-421.31350681536156,3330.2354399008573
-2335.811648079296,238.53779429987981,1654.2750929367953
-1394.0520446096584,-3218.7112763320861,4144.9814126393885
-1517.9677819082949,-2760.2230483271296,2809.7893432465821
-3708.1784386616978,185.87360594795717,1864.9318463444765
-3314.7459727385231,-350.06195786864413,3900.2478314745872
-2066.2949194547591,-774.47335811647781,-724.90706319703042
526.64188351921052,-4721.1895910780522,3720.5700123915612
-1713.1350681536453,508.05452292441578,3884.7583643122584
-2893.4324659231575,-1840.1486988847519,3537.7942998760723
-1641.8835192069289,-2812.8872366790438,4891.5737298636823
-4402.1065675340596,1521.0656753407638,-68.153655514259157
-1936.183395291195,-5037.1747211895745,2812.8872366790447
-3767.0384138785498,-1236.0594795539018,2193.3085501858623
-3116.480793060708,-1155.5142503097884,3190.8302354398884
-3023.5439900867268,-2453.5315985130055,2685.8736059479434
-5114.6220570012238,774.4733581164802,3150.55762081783
-5027.8810408921736,994.42379182156014,2444.2379182155996
-2156.1338289962737,381.04089219331013,700.12391573729451
-2781.9083023543908,-3039.0334572490588,2453.5315985129964
-2939.9008674101506,356.25774473358587,2388.4758364312197
-5353.1598513011013,1617.1003717472074,2599.1325898389018
-1964.064436183389,-2280.0495662949106,3082.4039653035884
-1428.1288723667824,173.48203221809513,1425.0309789343207
-3373.6059479553769,1883.5192069392763,1050.1858736059435
-4033.4572490706228,-3246.5923172242733,5607.1871127633021
-4770.7558859975061,402.72614622057188,3358.1164807930504
-4460.9665427509162,-1533.4572490706246,3209.4175960346834
-4637.5464684014714,616.48079306072009,3345.7249070631879
-2747.8314745972657,-1452.9120198265155,2270.7558859975111
-3934.3246592317096,498.76084262701494,2800.4956629491844
-5495.6629491945332,613.38289962824729,3773.2342007434836
-2986.3692688971373,1446.7162329615833,1192.688971499369
-1542.7509293680255,-1561.3382899628218,2410.16109045848
-4132.5898389095291,-1837.0508054522877,2657.9925650557511
-3828.996282527864,864.31226765798863,2345.1053283766973
-3878.5625774473197,3745.3531598512923,-294.29987608427109
-3320.9417596034591,201.36307311028477,3630.7311028500521
-1536.5551425030903,-319.08302354399058,1403.345724907058
-2428.7484510532754,452.29244114002574,1031.5985130111494
-3912.6394052044461,1109.0458488228003,3416.9764560099038
-4117.1003717471967,-579.30607187112469,2521.6852540272512
-1725.5266418835081,65.055762081789211,2871.7472118959008
427.50929368030012,-5430.607187112746,3878.5625774473206
-3674.101610904574,216.85254027261195,2515.4894671623256
-1412.6394052044523,-3262.0817843866052,2280.049566294907
-4330.8550185873446,1146.2205700123911,3382.8996282527742
-2363.6926889714864,-960.34696406442868,4250.3097893432368
-6053.283767038396,2184.0148698884741,-926.27013630731676
-3609.045848822785,1564.4361833952889,1669.7645600991241
-3187.7323420074208,325.27881040892453,2654.8946716232908
-2648.6988847583493,58.859975216854814,1864.9318463444763
-2642.50309789119,1124.5353159878478,678.43866171321361
-2400.8674101610759,839.52912019826533,1267.0384138785562
-1976.4560099132518,-495.66294919454293,2583.6431226765731
480.17348203221997,-3181.5365551424948,1325.8983890954078
-929.36802973977206,-4742.8748451053134,2983.2713754646684
-1418.835192069384,-1301.115241635679,2800.4956629491894
-2307.9306071871024,294.29987608426126,-631.97026022305056
-3813.5068153655416,-845.72490706319775,359.35563816603474
-2342.0074349442302,-254.02726146220598,2280.0495662949088
-436.80297397768874,-3342.627013630723,3559.4795539033325
-3141.2639405204332,1437.4225526641881,1217.4721189590994
-4433.0855018587217,-2035.3159851301057,2366.7905824039544
-1006.8153655514238,-4268.8971499380277,3373.605947955381
-5814.7459727385176,994.42379182156151,1403.345724907058
-2657.9925650557525,-105.32837670384139,-136.30731102850805
-3537.7942998760714,483.27137546468464,2973.9776951672793
-2747.8314745972639,-1381.6604708797995,2918.2156133828894
-5923.1722428748253,514.25030978934262,2038.4138785625651
-3224.9070631970144,-1019.2069392812886,2202.6022304832586
-1149.318463444853,-4368.0297397769418,3859.9752168525183
-2416.3568773234101,436.80297397769806,684.63444857496745
-5192.0693928128712,799.25650557620725,1437.4225526641824
-1700.7434944237823,-1914.4981412639311,3643.1226765799156
-972.73853779429282,-1003.7174721189562,2354.3990086740964
-4132.5898389095273,709.41759603469757,2162.3296158612079
-4228.624535315972,399.6282527881022,2936.8029739776816
-3212.5154894671487,-1576.8277571251494,4330.8550185873437
-4349.4423791821446,34.076827757125642,2561.957868649311
-2973.9776951672775,-2143.7422552664152,2357.4969021065554
-4811.0285006195618,2205.7001239157303,1929.9876084262614
-5182.7757125154694,1741.016109045848,2534.0768277571128
-3435.5638166046951,1861.8339529120155,1920.6939281288642
-4832.7137546468248,1028.5006195786852,439.90086741015227
-5034.0768277571069,-666.04708798016998,4640.6443618339381
-2280.049566294907,-641.26394052044361,842.62701363071994
-3624.5353159851152,1019.2069392812866,1583.0235439900812
-3519.2069392812778,-1341.3878562577381,4684.0148698884614
-2438.0421313506758,-3342.6270136307194,1737.9182156133734
-4733.5811648079198,3311.648079306065,904.58488228004774
-3252.788104089208,-916.97645600990984,3624.5353159851279
-3692.688971499369,560.71871127633028,1933.0855018587292
-4798.6369268897024,-1109.0458488227969,5653.6555142502903
-4312.2676579925501,-1254.6468401486959,272.61462205699286
-3333.3333333333221,-5350.0619578686374,4098.5130111524004
-2952.2924411400104,-1378.5625774473283,3063.8166047087839
-5446.0966542750793,1558.2403965303556,241.63568773233789
-4126.3940520445967,-557.62081784386385,2314.1263940520344
-4228.6245353159729,-1056.3816604708763,3466.542750929355
-1087.3605947955284,-1140.0247831474564,1976.456009913245
-1378.5625774473267,-1201.9826517967747,966.54275092936052
-3218.7112763320856,-1093.556381660469,3516.1090458488129
-1886.6171003717393,-2165.4275092936746,4117.1003717471986
-1985.7496902106477,-3630.7311028500508,4129.4919454770607
-2382.2800495662887,-1675.9603469640606,2977.0755885997355
-2171.6232961586034,-3767.0384138785539,3311.6480793060541
-3630.731102850049,-99.132589838908416,1043.9900867410104
-4008.6741016108931,-1270.1363073110238,2645.6009913258827
-2946.0966542750803,839.52912019826715,3113.3828996282446
-3593.5563816604567,-1205.0805452292382,4420.6939281288605
-3234.2007434944103,-1459.1078066914445,3404.5848822800385
-932.46592317223678,-2184.01486988847,2252.1685254027179
-2769.5167286245255,-1242.2552664188281,3410.7806691449741
-2177.8190830235371,-1084.2627013630693,3054.5229244113934
-3094.7955390334469,879.80173482032171,1871.1276332094101
-3311.6480793060564,340.76827757125358,4315.3655514250177
-3088.5997521685154,737.29863692688662,2701.3630731102758
-1886.61710037174,-4426.889714993792,4903.9653035935416
-2949.1945477075474,-402.72614622056767,501.85873605947
-3063.816604708788,-2193.308550185865,3215.6133828996117
-2249.0706319702485,-96.03469640644181,455.3903345724857
-5526.6418835191889,532.83767038413873,3104.0892193308446
-3463.4448574968901,1350.6815365551386,1105.9479553903275
-4380.4213135067976,548.32713754646716,1731.7224287484441
-1784.3866171003597,-1967.1623296158587,3144.3618339529021
-3568.7732342007312,102.23048327137931,2630.1115241635598
483.27137546468674,-2902.726146220557,1056.3816604708704
-2094.175960346955,-263.32094175960611,985.13011152415686
-436.80297397769186,-731.10285006195488,1090.4584882279926
-3193.9281288723546,-473.97769516728272,3751.5489467162201
-4454.7707558859811,2078.6864931846294,2354.3990086740955
-4222.4287484510378,92.93680297397708,2791.2019826517881
-436.8029739776884,-306.69144981412444,1121.4374225526601
-3122.6765799256386,-1682.1561338289882,3633.8289962825161
-2122.0570012391463,712.51548946716298,1706.9392812887181
-2577.4473358116384,-728.00495662948811,1765.7992565055683
-4203.8413878562415,1158.6121437422521,2989.4671623296058
-4268.8971499380277,365.55142503098222,2667.2862453531538
-5864.3122676579769,461.58612143742289,2416.3568773234097
-4578.6864931846158,-21.685254027259507,2729.2441140024675
-3100.9913258983747,-68.153655514246637,1685.2540272614508
-3265.1796778190742,-495.66294919454623,2323.4200743494375
-2261.4622057001156,-3035.9355638165966,4433.0855018587235
-2986.36926889714,-1267.0384138785605,2747.8314745972593
-3008.054522924398,1013.0111524163545,1239.1573729863624
-3218.7112763320838,498.76084262701397,1440.5204460966504
-5455.3903345724757,1641.8835192069328,-1146.2205700123961
-5185.8736059479388,-74.349442379178512,4436.1833952911893
-2540.2726146220434,-2518.587360594785,5003.0978934324467
-3804.2131350681402,-1514.8698884758294,3931.2267657992479
-2304.8327137546403,-2512.3915737298571,4408.3023543989993
-3571.8711276331951,-266.41883519206874,2800.495662949188
-5055.7620817843726,737.29863692688923,3500.6195786864828
-799.25650518382542,-1220.5700123915694,2546.4684016831698
-5985.1301115241449,1874.2255266418781,1995.0433705080484
-2165.4275092936746,-291.20198265179795,359.35563816604173
-2490.7063197025959,120.73408186569674,2255.1407758344699
-1933.0855018587251,-1802.9739776951617,1434.3246592317187
-5294.2998760842502,-461.58612143742079,3373.6059479553765
-2447.3358116480704,542.13135068153633,1768.8971499380336
-5817.843866170987,2239.7769516728572,1480.793060718707
-4739.7769516728458,-1220.5700123915663,4408.3023543989912
-2543.370508054511,-1013.0111524163515,3020.4460966542611
-3444.8574969020924,-123.91573729863221,3856.8773234200571
-2565.0557620817735,-1189.5910780669071,3584.2627013630636
-3327.1375464683915,-1236.0594795539034,120.8178438661631
-1638.7856257744663,-1629.4919454770647,2258.3643122676458
-2109.6654275092837,1409.541511771994,-449.19454770756505
-2264.5600991325828,-1037.7942998760809,758.98389095414711
-669.14498050633927,-2685.8736054948026,3045.2292441139871
-3835.1920693927973,2980.1734820322117,991.32589838908723
-6.1957868649270855,-4600.3717472118815,4138.7856257744597
-3819.7026022304713,-944.85749690210321,2664.188351920679
-3509.9132589838791,-2261.4622057001184,4522.9244114002377
-3767.0384138785466,-24.783147459726568,1827.7571251548852
-2797.3977695167232,-2465.9231722428672,3401.4869888475723
-5662.9491945476875,3454.1511771994956,-86.74101610905069
-315.98513011151869,-2394.6716232961489,2100.3717472118856
-2552.664188351911,-1586.1214374225476,1728.6245353159775
638.16604708798366,-2639.4052044609521,2338.9095415117622
-1403.345724907057,-4144.9814126393931,4141.8835192069246
-5532.8376703841241,3252.7881040892121,2509.2936802973886
-4603.46964064435,1741.0161090458444,2180.9169764560015
-4244.114002478299,-272.61462205699917,1573.7298636926771
-2568.1536555142402,-982.0322180916952,2871.7472118959017
-1756.5055762081686,-1003.7174721189542,2465.9231722428635
-5049.5662949194402,-2162.3296158612075,5043.3705080545078
-2970.8798017348086,-1490.086741016104,3193.9281288723582
-6372.3667905823859,-1886.6171003717379,6254.6468401486809
-2775.7125154894584,-145.60099132589545,885.99752168525015
-4250.3097893432287,-334.57249070632088,542.13135068152872
-3187.7323420074222,-1663.5687732341994,1483.890954151165
-1679.0582403965257,-1273.2342007434893,1824.6592317224204
-4073.7298636926703,-1180.2973977695112,4714.9938042131234
-1601.6109045848734,-1545.8488228004921,3410.7806691449728
-4696.4064436183244,483.27137546468424,3358.116480793049
-2233.5811648079202,-681.53655514249954,2540.2726146220448
-1009.9132589838844,-2574.3494423791731,2524.7831474597174
-2815.9851301115159,-1644.9814126393999,2527.8810408921845
-4361.833952912003,1499.3804213135043,2280.0495662949052
-1767.5338790689161,181.37436691737432,3068.1944497690665
-3221.8091697645509,-167.28624535315862,2323.4200743494375
-2859.3556381660405,-3085.5018587360532,2050.8054522924276
-1561.3382899628161,628.87236679058526,2041.5117719950424
-2942.9987608426145,-982.03221809169656,2924.4114002478223
-4829.615861214359,-1009.9132589838897,638.16604708797377
-3314.7459727385231,687.73234200743468,1756.5055762081763
-2478.3147459727265,-1375.4646840148614,1861.8339529120087
-1589.2193308550118,-975.83643122676096,2258.3643122676503
-2422.5526641883412,-498.76084262701016,1818.4634448574895
-2927.509293680288,71.251548946714053,2190.210656753402
-3590.4584882279883,449.19454770755885,1567.5340768277501
-1490.1914050400428,-2496.9230393723128,2524.6366178262028
-4690.2106567533965,-613.38289962825024,3469.640644361828
-2239.7769516728517,-1239.1573729863658,3252.7881040892112
-2819.0830235439798,-436.80297397768896,2961.5861214374136
-1074.9690210656686,-3664.8079306071763,3463.4448574968924
-4343.2465923172122,-2636.307311028494,3977.6951672862283
-4618.9591078066787,1294.9194547707532,2218.0916976455887
-3547.0879801734714,941.75960346963927,666.0470879801718
-4191.4498141263794,1583.0235439900857,3578.0669144981325
-3159.8603163115504,-1344.4951941815873,2850.056377032824
-2137.5464684014778,-1078.0669144981377,2673.4820322180808
-3531.5985130111412,-424.411400247828,1669.7645600991227
-4612.7633209417427,-2332.7137546468352,3274.4733581164642
-3791.821561338274,746.59231722429024,2995.6629491945355
-1462.2057001239104,-2218.0916976455965,4052.0446096654146
-2794.2998760842543,-1892.8128872366765,1731.7224287484441
-3776.3320941759471,-2915.1177199504286,3299.2565055761902
-2413.2589838909475,-2472.1189591078009,3404.5848822800399
-3661.710037174706,1471.4993804213118,2249.0706319702508
-2267.6579925650499,-1344.4857496902046,2918.2156133828939
-2115.8612143742175,-833.33333333333019,2366.7905824039581
-3004.9566294919327,309.78934324659298,3705.0805452292366
-3463.4448574968901,-616.48079306071713,2846.9640644361712
-2819.0830235439776,353.15985130111409,-594.79553903346095
-3460.3469640644225,-622.6765799256475,3243.4944237918066
-4857.4969021065526,-30.978934324655693,4606.5675340768148
-3423.1722428748326,74.349442379178015,61.957868649310548
-3692.6889714993649,1214.3742255266402,2224.2874845105271
-2543.3705080545151,-1620.1982651796739,2543.3705080545119
-2177.819083023538,-1279.4299876084219,3262.081784386608
-102.23048327136932,-573.11028500619364,551.42503097892654
-2936.8029739776835,-1957.8686493184571,3788.7236679058083
-3175.3407682775587,-92.936802973977635,2022.9244114002402
-3150.5576208178336,-1421.933085501852,2881.0408921932917
-3274.4733581164724,-1267.0384138785598,1973.3581164807842
-4011.7719950433548,625.77447335811473,3073.1102850061848
-2592.9368029739662,-176.5799256505567,2134.4485749690107
-3079.3060718711172,-1874.225526641879,1654.2750929367951
-6892.8128872366588,2800.4956629491894,2744.7335811647981
-2899.6282527880926,89.838909541513175,1403.3457249070577
-5102.2304832713598,1223.6679058240409,3395.2912019826422
-5312.8872366790429,-820.94175960346558,4030.3593556381511
-2661.0904584882192,2026.0223048327134,1449.8141263940468
-1895.9107806691372,-926.27013630730607,2307.9306071871033
-783.76703841386973,-2760.2230483271233,3553.2837670384033
-4535.3159851300952,-427.50929368029557,3345.7249070631847
-768.27757125154506,-3150.5576208178327,3224.9070631970148
-647.45972738537239,-4851.3011152416193,3351.9206939281148
-2456.6294919454713,-2469.0210656753356,2980.1734820322049
-3088.5997521685199,-2301.7348203221759,641.26394052043599
-3571.8711276331996,-473.97769516728511,820.94175960346308
-3593.5563816604563,-684.63444857496677,3550.1858736059353
-3757.7447335811548,1521.0656753407661,3314.7459727385317
-4395.9107806691327,687.73234200743525,1167.9058240396482
-4581.784386617087,1415.7372986369237,2958.488228004946
-1127.6332094175898,-3221.8091697645491,3286.8649318463349
-3060.7187112763227,718.71127633209278,1951.6728624535267
-3633.8289962825206,204.46096654275019,272.61462205699445
-2884.1387856257629,-210.65675340768163,1446.7162329615805
-3221.8091697645509,622.67657992565512,2772.6146220569913
-6332.0941759603256,-204.4609665427497,4330.8550185873455
-3246.5923172242774,-442.99876084262252,3686.493184634438
-1034.6964064436102,-5105.3283767038247,4708.7980173481901
-2843.8661710037118,-1347.5836431226724,1614.0024783147383
-5982.032218091681,130.11152416356606,3686.4931846344343
-3438.6617134822086,371.74720845086495,4925.6505541757624
-1923.7918215613327,-988.22800495662443,669.14498141263368
-4473.3581164807765,-216.85254027261436,4612.7633209417454
-1298.0173482032137,-805.45229244113534,2918.2156133828898
-2388.4758364312206,-2391.5737298636868,3466.5427509293604
-3729.8636926889567,789.96282527880498,1793.6802973977592
-532.83767038413032,-2834.5724907063081,3798.0173482032055
-7146.8401486988596,1583.0235439900766,1459.1078066914474
-1908.3023543989996,-3863.0731102849932,4823.4200743494257
-4684.014869888465,-659.85130111524097,83.643122676571878
-4956.6294919454585,464.68401486988722,3351.9206939281139
-1425.0309789343103,-130.11152416356745,3977.6951672862401
-3674.1016109045754,120.8178438661707,2066.2949194547582
-3717.4721189590919,-1855.6381660470756,4845.1053283766896
-4916.3568773234028,325.27881040892117,2283.1474597273791
-1929.9876084262576,-2490.7063197025923,4045.8488228004826
-5755.8859975216674,-892.19330855018359,3841.3878562577306
-3782.5278810408818,597.8934324659233,2351.3011152416298
-653.65551425030355,-1397.1499380421224,2673.4820322180854
-3968.4014869888397,-2896.5303593556323,2741.6356877323333
-5907.6827757124947,3094.7955390334491,1449.8141263940456
-4953.5315985129973,2623.9157372986283,848.82280049565998
-5260.2230483271223,1521.0656753407638,55.762081784381486
-4005.5762081784255,799.25650557620725,1208.1784386617035
-2168.5254027261412,-1127.63320941759,2112.7633209417504
-2503.0978934324526,1548.9467162329624,3723.667905824032
-3959.1078066914397,613.38289962825297,2050.8054522924349
-920.0743494423723,-2264.5600991325832,1499.380421313504
641.2639405204485,-4262.7013630730971,3587.3605947955257
-2561.9578686493064,-2933.7050805452141,4789.3432465923015
-2403.965303593548,-492.56505576208184,2252.1685254027179
-2592.9368029739667,1013.0111524163575,1251.5489467162272
-5303.5935563816402,2983.2713754646788,412.01982651796368
-1632.5898389095316,-734.20074349441995,3379.8017348203093
-4446.438679322906,776.75605717821202,1761.2539376537231
-4321.5613382899455,997.52168525402681,2769.5167286245214
-4117.1003717472004,-161.09045848822532,3457.24907063196
-557.62081784385771,464.68401486989029,2193.3085501858686
-1679.0582403965188,-6009.9132589838728,6957.8686493184377
-3100.9913258983765,-2022.9244114002372,2596.0346964064343
-3822.8004956629384,2713.7546468401433,-65.055762081786852
-5096.0346964064302,235.43990086740672,1102.850061957862
-3376.7038413878422,-1313.5068153655457,4117.1003717471949
-2264.5600991325805,885.99752168525652,1539.6530359354444
-2236.6790582403855,-2276.9516728624467,3853.77942998759
-5762.081784386598,-588.59975216852547,2874.8451053283607
-3153.655514250298,-402.72614622057046,2295.5390334572403
-6161.7100371747047,371.74721189590593,1555.1425030978853
-1786.8241143567363,-1112.4922311995008,2473.586078309505
-5142.9459291485218,-2038.5332504661233,5873.2131758856249
-2299.5649471721467,-1401.4916096954594,916.71845866997251
-1892.4798011187013,-211.3113735239269,615.28899937849474
-1886.2647607209392,24.860161591050581,-531.38595400870577
-1817.8993163455489,-1827.2218769421936,3157.2405220633805
-3039.1547545058957,-1323.8036047234268,4101.9266625232958
-907.39589807333027,-2162.834058421372,2551.2740832815311
-5848.3530142945756,2433.1883157240477,-630.82660037290839
-3654.4437538843849,9.3225605966455376,3178.9931634555519
-761.34244872591455,-2865.1336233685456,1068.9869484151582
-5369.7949036668597,540.70851460534323,4192.0447482908485
-3384.0894965817147,-270.35425730267218,929.14853946549783
-2153.5114978247275,-829.7078931013026,1221.2554381603386
-832.81541330018206,-556.24611559974721,1180.8576755748857
-4129.8943443132248,-276.56929770043774,2442.5108763206886
-1187.0727159726473,-3036.0472343070132,4776.2585456805364
-3147.9179614667355,-1311.3735239279049,-93.225605966444093
-860.78309509011206,-4021.1311373523827,3374.7669359850702
-2430.0807955251644,-4512.1193287756214,4164.0770665009231
-3446.2399005593425,-1485.394655065254,2917.9614667495221
-3555.0031075201873,-938.4711000621503,2041.640770665002
-6870.7271597265153,5301.4294592914766,304.53697949036155
-2871.3486637663063,-764.44996892479435,2821.6283405842009
-4328.7756370416246,-43.505282784338164,1606.5879428216151
-3701.056556867607,-1277.1908017402063,4471.7215661901701
-3638.9061528899829,-1504.0397762585394,2560.5966438781738
-4804.2262274704635,2523.3064014916054,2343.0702299564873
-3175.8856432566663,686.76196395276816,2088.253573648215
-2280.9198259788623,-2377.2529521441802,4723.4307022995545
-2594.779366065869,-3191.4232442510761,2349.2852703542421
-3157.2405220633814,167.80609073959332,1519.5773772529456
-2464.2635177128504,2983.2193909260359,2840.2734617774936
-783.09509011807893,-1786.8241143567366,2728.4027346177654
-2529.5214418893643,-2162.8340584213724,5994.4064636419998
-2290.2423865755031,-1233.6855189558667,2579.2417650714633
-2886.8862647607052,-559.35363579863099,1979.4903666873759
-4835.3014294592795,1646.9857054070794,2486.0161591050269
-2405.2206339341101,-1146.6749533871921,2775.0155376009898
-2818.520820385324,-807.95525170913311,2526.4139216904755
798.63269111249565,-3256.6811684275863,4512.119328775625
-3461.7775015537482,1196.3952765692975,3011.1870727159635
-2476.6935985083787,851.46053449347596,3337.4766935984953
-4322.5605966438598,-854.56805469235189,4198.2597886886097
-4300.8079552516947,1373.5239279055288,2178.3716594157777
-4353.6357986326757,2277.8123057799853,1724.6737103791113
-4114.3567433188191,-2476.6935985083846,2840.2734617774913
-2715.972653822238,-2339.9627097576026,4468.614045991284
-3660.6587942821529,-1407.7066500932253,1681.1684275947719
-4070.8514605344826,220.63393412057025,1973.275326289614
-2389.6830329397058,-1674.9533871970141,-307.64449968925197
-2775.015537600983,-2041.6407706650004,714.72964574269042
-2395.8980733374615,-40.397762585457599,3775.6370416407617
-1308.2660037290132,-177.12865133623049,2812.3057799875646
-4776.2585456805318,531.38595400870292,2479.801118707263
-4058.4213797389548,1152.889993784956,1037.9117464263452
-2626.5868734862479,99.45188642501293,1620.2685061652501
-3365.4443753884261,-736.48228713486583,2942.8216283405732
-3427.594779366058,-205.09633312616441,2399.0055935363498
-5261.0316967060126,1814.7917961466692,1547.5450590428761
-991.29894344313004,-1295.8359229334956,1513.3623368551835
-1646.9857054070796,-2392.7905531385823,3505.2827843380883
-3017.4021131137238,-31.075201988813191,15.537600994402501
-4704.7855811062573,-87.010565568673016,3912.3679303915374
-1727.7812305779889,-158.48353014294085,2212.554381603476
-4428.2162834058272,-3008.0795525170811,3586.0783095089969
-2489.1236793039052,-1684.2759477936538,3200.7458048477165
-2889.9937849595904,-2262.2747047855746,2740.8328154132905
-2660.0372902423755,-2246.7371037911657,3676.1963952765545
-4505.9042883778557,1597.2653822249804,2426.9732753262779
-5114.9782473585919,3542.5730267246649,1323.8036047234268
-4201.3673088874921,273.4617775015567,4279.055313859526
-2137.9738968303204,-500.31075201988324,2022.9956494717148
-1351.7712865133581,-2330.6401491609604,4521.4418893722705
-3840.8949658172678,-1022.3741454319425,2955.2517091360996
-3374.738123757812,-630.76897591838519,31.113618291816621
-3955.8732131758761,74.580484773150118,2395.8980733374674
-3412.0571783716464,1926.662523306398,1435.6743318831529
-4776.25854568053,767.55748912367926,2849.5960223741331
-2924.1765071472892,-1137.3523927905521,2806.0907395898012
-3508.3903045369711,-2566.8116842759428,518.95587321316304
-4732.7532628961944,2026.1031696705998,2374.1454319452982
-5290.7787446105613,4693.5488539317748,2136.6798123833237
-3803.6047234306884,276.56929770043507,3085.7675574891177
-5285.8918582970609,46.612802983220213,5776.8800497203047
-2663.1448104412607,-1678.0609073958933,3231.821004854276
-2022.995649471713,-428.83778744561556,1876.9422001242926
-1361.0938471100017,-1426.3517712865084,1737.1037911746323
-3955.8732131758734,-363.57986326910782,1842.7594779366034
-839.03045369794256,-3203.8533250466016,3474.2075823492733
-335.61218147917714,-4204.474829086379,3390.3045369794768
-2380.3604723770036,671.22436292441603,2150.4039775919005
-2271.5972653822155,-2778.1230577998685,1687.3834679925289
-3511.4978247358495,-1612.8029832193854,4288.3778744561714
-2998.7569919204379,1124.9223119950257,1435.6743318831523
-3492.852703542565,-1848.9745183343632,2715.9726538222399
-736.48228713486333,-3241.1435674331774,2156.6190180236094
-5400.8701056556692,-1155.9975139838359,3775.6370416407558
-416.40770665008955,-2330.640149160964,425.73026724673093
-2249.8446239900472,-1221.2554381603463,-320.07458048477434
-658.79428216282611,-1441.8893722809162,270.35425730266695
-1808.5767557488996,-1861.4045991298863,3567.4331883157124
-1525.792417650707,-3393.412057178361,1112.4922311994937
-5062.15040397761,-1255.4381603480383,5755.1274083281369
-832.81541330017933,-2022.9956494717123,916.71845866997307
-1246.1155997513899,-1898.6948415164618,2545.0590428837681
-3091.982597886873,770.6650093225586,2442.5108763206936
-3946.5506525792271,1019.2666252330627,2063.3934120571676
-5034.1827221876756,391.54754505904498,4002.4860161590896
-2535.7364822871255,-1976.3828464884944,5102.5481665630678
-4344.3132380360321,1637.6631448104365,571.78371659415518
-1861.4045991298851,-326.2896208825303,3141.7029210689766
-882.53573648227689,-133.6233685518911,3850.2175264139082
-1817.8993163455557,-4021.1311373523818,605.96643878184068
-6239.9005593536112,1743.318831572401,152.26848974518259
-3412.0571783716427,-1000.6215040397703,5435.0528278433649
-1957.7377252952099,-1516.4698570540668,1472.9645742697296
-3471.1000621503908,-602.85891858296861,3688.6264760720805
-919.8259788688548,-4449.9689247979968,3822.2498446239738
-2110.0062150403896,-3629.583592293337,4481.0441267868109
-3039.1547545058934,-1053.4493474207552,3284.6488502175189
-2778.1230577998699,-1131.1373523927871,2610.3169670602797
-1712.2436295835844,-640.14916096954278,2691.1124922311928
-1895.5873213175801,-755.12740832814904,2734.6177750155316
-3275.3262896208712,624.61155997513993,1979.4903666873763
-2771.908017402101,1280.2983219390926,1308.2660037290163
-596.64387818520242,-5003.1075201988679,4319.4530764449783
-2458.0484773150902,-1118.7072715972631,1662.5233064014785
-1653.2007458048402,-3912.3679303915369,4310.1305158483356
-4244.8725916718322,835.92293349906538,-183.34369173400384
-4291.4853946550493,-484.77315102548374,285.8918582970685
-3492.8527035425618,-665.00932256059684,2818.5208203853249
-5419.5152268489519,2762.5854568054624,239.27905531385264
-4446.8614045991108,1320.6960845245487,4073.958980733365
-2986.3269111249156,574.89123679303964,1482.2871348663675
-724.05220633933459,-5288.9993784959443,5316.9670602858769
-4592.9148539465377,-1619.0180236171475,3039.1547545058934
-1842.7594779366032,-1991.9204474829028,2607.2094468613927
-2280.8787456768482,1507.2120425855983,574.98857924780361
-4067.7439403355979,-1009.9440646364153,4838.4089496581573
-4095.7116221255314,422.62274704785642,-543.81603480422814
-3825.3573648228553,-848.35301429458605,4412.6786824114197
-1942.2001243007994,-947.79366065879094,2507.768800497191
-3906.1528899937721,-2740.8328154132896,6065.8794282162653
-2395.8980733374683,-2411.435674331869,4449.9689247980014
-3206.9608452454845,245.49409571162033,593.53635798632752
-1861.4045991298872,-62.150403977624123,1895.5873213175826
-2377.2529521441784,-3001.8645121193181,4223.1199502796662
-1361.0938471099987,-5102.5481665630659,5587.3213175885476
-4338.0981976382745,-2818.5208203853254,1768.1789931634478
-5696.1104124563999,1000.5966656425114,1901.7679028121001
-3551.895587321304,-201.98881292728066,1298.9434431323698
-3847.1100062150263,2799.8756991920395,-593.5363579863299
-814.1702921068927,-1737.1037911746344,2004.3505282784245
-2305.7799875699111,-2221.8769422001133,3949.6581727781086
-3921.690490988181,1041.0192666252317,1808.5767557489073
-4064.6364201367192,475.45059042883832,400.87010565568261
-2644.4996892479699,550.03107520198932,2389.6830329397035
-553.13859540086366,-2731.5102548166487,-236.17153511498566
-3312.6165320074501,-341.82722187694185,2321.3175885643195
-3014.294592914845,-3266.0037290242303,2206.3393412057062
-5546.9235550030917,-1109.3847110006191,3697.9490366687264
-3321.9390926040887,-195.77377252951968,1908.0174021131068
-4661.2802983219235,-242.3865755127361,4269.7327532628751
-4188.9372280919688,-1494.7172156619008,3256.6811684275813
-1019.2666252330595,-1594.1578620260971,2380.3604723430603
-3067.1224362958264,-1979.4903666873802,1755.7489123679197
-4400.2486016158919,826.60037290242417,2964.5742697327441
-3343.6917339962583,-1348.6637663144777,1743.3188315723967
-3001.8645121193181,-509.63331261652985,2069.6084524549296
-702.29956494716828,-3598.5083903045238,3275.3262896208721
-1929.7700435052736,-1727.7812305779892,2635.1771286513276
-3014.2945929148405,-2669.3598508390232,4844.6239900559158
-2305.7799875699079,1065.8794282162821,1426.3517712865057
-2790.5531385953905,640.14916096954857,2088.2535736482228
-1600.3729024238546,-758.23492852703021,1528.8999378495851
-2467.3710379117401,-3527.0354257302592,3060.9073958980621
-3079.5525170913506,-1541.3300186451172,3082.6600372902276
-4272.8402734617684,-717.83716594158034,2019.8881292728356
-4064.6364201367228,-2799.8756991920409,2669.359850839016
-4105.0341827221737,509.63331261653332,1454.3194530764349
-4403.356121814777,2311.9950279676796,1227.4704785581098
-3614.0459912989313,1128.0298321939067,2663.1448104412607
630.82660037290168,-2712.8651336233561,2265.3822249844552
-2973.8968303293864,-2113.1137352392725,3542.5730267246631
-1848.9745183343587,441.26786824114578,2818.5208203853272
-5689.8694841516308,4757.6134244872501,2352.3927905531345
-807.95525170913209,-6180.8576755748754,5814.1702921068818
-3651.336233685503,-2426.973275326282,5261.0316967060107
-2221.8769422001124,-1963.9527656929729,2927.2840273461657
-2364.8228713486528,-929.14853946550238,3570.5407085145953
-2510.8763206960739,748.91236793039172,1009.9440646364161
-3368.5518955873099,-192.66625233064048,1096.9546302050906
-3390.3045369794777,2364.822871348661,-431.94530764449894
-2007.4580484763683,-273.46177750054477,1811.6842759492117
-3570.5407698584991,1078.3094473232732,3228.7134394235195
-661.90180236170443,1556.8676196395274,2137.9738968303222
-1895.5873213175842,-2361.7153511497736,1420.1367308887413
-4683.0329397140922,2967.6817899316279,2122.4362958359175
-3657.5512740832705,-2886.8862647607152,1053.4493474207466
-4617.7750154064388,2069.6084527172325,1802.3617153511402
-1264.7607209446794,-3443.1323803604596,4282.1628340584075
-2408.3281541329907,-1510.2548166563054,1963.9527656929695
-2479.8011187072543,630.82660037290566,4089.4965817277671
-2100.6836544437438,-1339.3412057178273,3346.7992541951448
-4011.8085767557336,1155.9975139838371,1333.1261653200659
-1640.7706650093137,-1749.5338719701606,4297.7004350528205
-1469.8570540708447,-4670.6028589185671,3697.9490366687278
-3856.4325668116712,876.32069608452389,2066.5009322560518
-633.93412057177954,-1814.7917961466705,3343.6917339962624
-3151.0254816656156,848.35301429459446,1252.3306401491554
-2116.2212554381522,-2063.3934120571753,3293.9714108141579
-2604.1019266625185,-5214.4188937227991,3539.4655065257753
-354.25730267246286,-3971.4108141702791,4024.2386575512623
-2265.3822249844525,-1292.7284027346113,3182.1006836544361
-2486.0161591050201,2936.6065879428184,2150.4039776258505
-1827.2218769421895,-4182.7221876942049,5730.2672467370876
-2889.9937849595935,-403.97762585456712,3029.8321939092534
-3266.0037290242258,957.11622125543374,1693.5985083903015
-3396.5195773772411,105.65568676196338,2339.962709757604
-3623.3685518955722,779.98756991920197,2886.8862647607116
-3610.9384711000507,1177.7501553760071,2750.1553760099382
-6737.1037911746216,1761.9639527656905,2815.4133001864479
-2479.8011187072625,-1348.6637663144761,2535.73648228712
-5316.967060285876,1345.5562461155962,2110.0062150403892
-4798.0111870727051,-2134.8663766314467,1612.8029832193799
-1326.9111249223047,-2604.1019266625162,3225.6059664387699
-736.48228713485696,-428.83778744561414,3032.9397141081336
-4530.7644499689095,571.78371659415916,-692.97700435053105
-3800.4972032318074,-1799.2541951522653,534.49347420757476
-4210.6898694841393,-1619.0180236171489,509.6333126165278
-1572.4052206339295,-2880.6712243629504,3875.077688004958
130.51584835301693,-2249.8446239900445,3032.9397141081299
-3800.4972032318074,99.440646364203459,4229.3349906774265
-1205.7178371659347,-2448.7259167184484,3331.2616532007328
-1967.0602858918512,-1037.9117464263459,2420.7582349285217
-1817.8993163455416,-842.13797389682509,1895.5873213175773
-5316.9670602858741,164.69857054070627,1441.8893722809089
-3968.3032939713962,-2175.2641392168966,4608.4524549409407
-3983.8408949658015,1609.6954630205046,1603.4804226227423
-3178.9931634555514,-1050.3418272218739,2703.5425730267139
-2977.0043505282665,-3511.4978247358481,5111.8707271597086
-1811.6842759477877,441.26786824114606,910.50341827221371
-5444.3753884400085,2010.56556867619,1771.2865133623302
-4798.0111870727023,-223.74145431945283,2883.778744561826
-2492.2311995027881,-835.92293349906402,1090.7395898073244
-4316.3455562461022,1364.2013673088904,2883.7787445618305
-1469.0567361634874,-165.51471100671392,1382.5182374788981
-4953.3871970167693,1109.3847110006172,1646.9857054070785
-4192.0447482908457,-192.66625233063723,2389.6830329397058
-341.82722187693639,-860.78309509011183,1258.5456805469221
-2433.1883157240386,1690.4909881914243,2423.8657551274
-3225.6059664387699,-1783.7165941578526,2110.0062150403883
-2492.2311995027876,-180.2361715351127,2156.619018023609
-3589.1858297078788,-12.430080795525313,3275.326289620873
-2768.8004974178634,1112.4922310385177,1336.2336855189508
-3421.3797389682909,354.25730267246712,1827.2218769421977
534.49347420758784,-2896.2088253573565,2212.5543816034733
-2433.1883157240459,-643.25668116842451,2476.6935985083851
-2141.0814170292015,-3868.862647607194,4179.6146674953261
-4073.9589807333628,351.14978881287448,3651.3362336855084
-1985.7054070851373,-133.6233685518921,1392.1690490988085
-3147.9179614667346,702.29956494717248,1951.5226848974385
-2116.221255438149,108.7632069608468,2022.9956494717153
-1603.4804226227368,-1009.9440646364158,2044.7482908638844
-2094.4686140459803,2169.0490988191405,832.81541330018126
-1904.9098819142221,205.09633312616697,1482.2871348663675
-2775.0155376009811,-711.62212554381199,1951.522684897441
-4176.5071472964437,369.79490366687708,2535.7364822871277
-5419.5152268489528,2078.931013051581,2358.6078309508944
-2137.9739229162187,-323.18211558988094,1653.2007077939588
-5068.3654443753694,2436.2958359229269,-59.042883778748816
-1065.8794282162803,-2942.8216283405764,3489.7451833436771
-6162.212554381591,472.34307022995273,1609.6954630205028
-2464.2635177128541,-2703.5425730267152,4136.109384710986
-3234.9285270354139,251.70913610938464,2181.4791796146565
-2016.7806090739512,-1684.2759477936502,3259.7886886264623
-3763.2069608452325,62.15040397762737,3123.0577998756876
323.1821006836584,-1056.5568676196319,3098.1976382846365
-2694.2200124300684,-111.87072715972458,2069.6084524549342
-2371.0379117464163,-456.80546923554709,2246.7371037911694
-2802.9832193909178,-2013.6730888750744,1249.2231199502658
-6519.5773772529374,2585.4568054692272,1821.0068365444276
-2019.888129272832,-2066.5009322560545,1196.3952765692929
-5257.9241765071311,550.03107520198898,3688.6264760720842
-4546.3020509633134,1550.6525792417576,1497.8247358607807
-1143.5674331883049,-3691.7339962709611,4108.1417029210561
-2504.6612802983109,-1041.019266625231,2902.4238657551177
-127.4083281541275,-1870.7271597265305,5223.7414543194382
-3632.6911124922208,2535.73648228713,1367.3088875077638
-4819.7638284648683,-612.1814791796121,3393.4120571783601
-3471.100062150394,-3129.2728402734529,2380.3604723430567
-2299.5649471721495,-605.96643878185,133.62336855189167
-3492.8527035425609,621.50403977626047,2010.565568676185
-876.32069608451661,-233.06401491609353,-40.397762585461415
-4092.6041019266472,-739.58980733374506,3353.0142945929006
-2939.7141081416935,-1202.6103169670537,2743.9403356121693
-4431.3238036047087,-891.85829707892867,3558.1106277190665
-4543.1945307644355,-242.38657551274278,1559.9751398383985
-4422.0012430080633,487.88067122436451,1998.135487880663
-3488.3329814667909,-834.51073162217506,3170.7661223344221
-2237.4145431945244,-587.32131758856133,1469.8570540708436
-2234.3070229956402,-528.27843380981437,1348.6637663144784
-2458.0484773150924,-1429.4592914853899,2765.6929770043416
-2383.4679925419446,-1351.7712865133578,2784.3380981976284
-2290.2423865755031,-1317.5885643256638,1491.6096954630161
-2327.5326289620807,-848.35301429458741,3530.1429459291376
-5363.5798632690985,988.19142324424661,2554.381603480414
-5879.7022047494429,844.59713857981728,4028.8192355166511
-1413.9216904909786,-742.69732753262053,1709.136109384704
-2762.5854568054601,-1892.479801118702,2992.5419515226681
211.31137352393438,-3241.1435674331751,3418.2722187694108
-3219.3909260410001,689.86948415164932,2827.8433809819653
-2467.3710379117406,-1236.7930391547518,944.68614045990694
-3085.7675574891091,-789.31013051584398,3927.9055313859412
-2153.5114978247257,633.93412057178273,1957.7377252952081
-3514.6053449347291,-1538.2224984462318,4080.1740211311258
-2834.0584213797315,-31.075201988813898,1827.2218769421954
-894.96581727780904,-2728.4027346177663,3617.1535114978133
-4394.0335612181352,-1292.7284027346152,3247.3586078309368
-5599.7530760040045,997.51229675206719,2998.7557140329745
-1883.1572405220563,-1547.5450590428793,2492.2311995027917
-2834.058421379731,-587.3213175885636,338.71970167805779
-3017.4021131137192,-1385.9540087010537,3008.0795525170811
-2178.3716594157786,-201.98881292727867,487.88067122436013
-2380.3604723430631,-295.21441889372227,779.98756991919663
-1824.1143567433123,-2728.4027346177668,5114.9782473585956
-4067.7439403355993,-1960.8452454940928,2647.6072094468491
-4002.4860161590914,-416.4077066500908,2871.3486637663018
-3446.2399005593461,-1988.8129272840235,4129.8943443132257
-2806.0907395897952,885.64325668116567,1668.7383467992461
-2728.402734617765,-459.91298943442769,2280.91982597886
-6243.0080795524991,3809.819763828456,512.74083281541061
-5475.4505904288189,472.34307022995654,2989.4344313237916
-2924.1765071472892,770.6650093225652,1494.7172156618985
-2600.9944064636343,-901.18085767556818,2868.2411435674194
295.21441889372602,-2119.3287756370273,2106.8986948415068
-2672.4673710379029,-1339.341205717835,379.11746426351175
-5463.0205096332957,755.12740832815325,3495.9602237414429
-4959.602237414525,2837.1659415786116,1277.1908017402054
-1923.5550031075122,-4496.5817277812166,3151.0254816656129
-3421.3797389682936,-1628.3405842137947,2837.1659415786135
-972.65382224983739,-798.63269111248883,-954.00870105655918
-711.62212554380972,-1513.3623368551837,2290.242386575504
-2327.5326802447194,-1497.8247901600469,1351.7712774634729
-6314.4810441267691,1858.2970789310107,3495.9602237414442
-2700.4350528278324,-1034.8042262274651,3502.1752641392054
-2022.9956494717078,-1858.297078931005,2719.0801740211264
-2532.6289620882435,-3642.0136730888667,2249.8446239900463
-2927.2840273461693,-609.0739589807331,2852.7035425730182
-3060.9073958980625,-2026.103169670597,3809.81976382845
-3850.2175264139105,-344.93474207582346,149.16096954629671
-2781.2305779987455,304.53697949037041,1553.7600994406373
-2647.60720944685,2252.9521441889387,3471.1000621503986
-1581.7277812305724,-1423.2442510876265,251.70913610938041
-2678.6824114356637,-407.08514605344652,1793.0391547544968
-4499.6892479800972,-1563.0826600372868,3505.2827843380828
-4014.9160969546197,826.60037290242371,413.30018645120532
-1709.1361093847042,-2287.1348663766225,4636.4201367308769
-2977.0043505282688,1330.0186451211923,922.93349906773938
-4372.2809198259629,-1274.0832815413241,4210.6898694841384
-4077.0665009322465,1777.5015537600955,1737.1037911746378
-3144.8104412678554,1236.7930391547513,1811.6842759477881
-5919.8259788688438,-801.74021131137306,1995.0279676817818
-1264.7607209446762,-2299.5649471721467,3847.1100062150304
-3343.6917339962579,-3328.1541330018563,2762.5854568054547
-2703.5425730267139,-1174.6426351771245,3862.6476072094329
705.40708514605421,-2638.2846488502091,1625.2330640149071
-3886.400006805507,-2117.9403806033306,4470.4750861428438
-4111.2492231199394,1811.6842759477872,1463.6420136730828
-3645.1211932877418,-904.28837787445309,2678.6824114356596
-3172.7781230577848,1721.5661901802334,1115.5997513983807
-3132.3803604723339,-1485.3946550652543,5034.1827221876829
-3934.120571783707,-2933.4990677439314,2597.8868862647496
-2949.0366687383366,-136.73088875077531,1615.9105034182667
-2228.0919825978813,-1824.1143567433116,2681.789931634542
-459.9129894344282,-3610.9384711000521,3020.5096333126016
-3545.6805469235437,-801.7402113113701,2616.53200745804
-2299.5649471721499,-1193.2877563704112,1821.0068365444288
-4083.1697073574551,146.23238370349898,2964.7084704998006
-4987.5699192044613,487.880671224357,-170.91361093847721
-5599.7513983840745,2458.0484773150952,2265.3822249844538
-2442.5108763206863,-316.9670602858863,1317.5885643256597
-3408.9496581727713,584.21379738967903,1839.6519577377142
-4956.4947172156471,792.41765071472753,1441.8893722809134
-4316.3455562461031,276.5692977004324,3744.5618396519485
-1898.6948415164602,-2837.1659415786112,4185.8297078930846
-5133.6233685518828,2277.8123057799817,1901.8023617153453
-4611.5599751398204,-24.860161591048676,1354.8788067122323
-2563.704164077054,214.41889372281224,2796.7681789931517
-2753.262896208812,-1771.2865133623302,3931.0130515848196
-2371.037911746419,-1839.6519577377201,1587.94282162833
-3859.5400870105559,1718.4586699813512,49.720323182092834
-1668.7383467992443,-469.23555003107089,1873.8346799254157
-3079.5525170913506,-3.1075201988815166,441.26786824113162
-4832.193909260397,-152.26848974518384,4279.0553138595278
-3579.8632691112402,-2905.5313859540029,4502.7967681789778
-963.33126165319254,-2591.6718458669884,3032.9397141081254
-3175.8856432566686,-1976.3828464884962,1982.597886886253
-2526.4139216904805,-929.14853946550465,2221.8769422001146
-4092.604101926649,-189.55873213176108,3384.0894965817156
-3682.4114356743203,1640.770665777653,1715.3511497824643
-3455.5624611559829,-1970.1678060907354,4313.2380360472198
-3172.7781230577871,-257.92417650714668,3110.6277190801648
-2818.5208203853235,-1075.2019888129244,1068.9869484151573
-4956.4947172156471,-180.23617153511216,3806.7122436295754
-1628.340584213795,-2243.6295835922856,3536.3579863269001
-2504.6612802983104,189.55873213176054,3359.2293349906631
-894.96581727780904,-2047.8558110627623,3909.2604101926518
1112.492231199504,-2523.3064014916031,1640.7706650093132
-5975.7613424487054,2554.3816034804199,1883.1572405220541
-5198.8812927283852,-1544.4375388439978,3545.680546923536
-4490.3666873834491,-111.87072715972458,4182.7221876942049
-857.67557489123112,-1963.9527656929695,3495.9602237414424
-3697.9490366687269,776.88004972032161,-748.91236793039786
65.257924176511565,-1628.3405842137902,1559.9751398384017
-2336.8551895587243,-55.935363579856713,2293.3499067743833
-3368.551895587309,-1087.6320696084463,3508.3903045369666
-3241.1435674331751,1267.8682411435677,1413.9216904909822
-4574.2697327532496,1615.9105034182662,3356.1218147917862
-3393.4120571783569,-2144.1889372280834,4655.0652579241651
-4518.3343532191702,2675.5749119274051,1109.3847159863085
-2641.392169049092,1298.94344313238,2454.9409571162146
-4251.0876320695952,1124.9223119950257,2147.2964574269713
-463.02050963330828,-2837.1659415786144,2939.7141081416935
-4375.3884400248471,-1572.40522063393,3505.2827843380865
-5453.6979490366548,-935.36357986327073,2582.3492852703407
-2489.1236793039052,242.3865755127425,1690.49098819142
-1830.3293971410744,-839.03045369795268,83.903045369788529
-3607.8309509011719,-686.76196395276031,3617.1535114978128
-730.26724673710157,-1619.0180236171441,2563.704164077059
-2094.4686140459867,-1852.0820385332472,2019.8881292728342
-4384.7110006214907,792.41765071472776,2321.3175885643195
-5624.6115599751265,2548.1665630826551,1836.5444375388349
-4403.3561218147779,2684.897451833433,2001.2430080795477
-2762.5854568054619,-2386.575512740827,4580.4847731510108
-4229.3349906774274,988.19142324425036,2224.9844623990034
-2346.1777501553702,-2206.3393412057098,3679.3039154754401
-4288.3778744561696,1494.7172156618988,1202.6103169670516
-3663.7663144810281,-1093.8471100062072,4773.1510254816521
-3489.7451833436812,-2352.3927905531305,3648.2287134866237
-3887.5077688004831,-1180.8576755748882,2256.0596643878107
-2144.1889372280816,152.26848974518833,2998.7569919204425
-2430.0807955251621,-786.20261031696623,2402.1131137352327
-2454.9409571162132,-957.11622125543761,1665.6308266003648
-2032.3182100683573,-1243.00807955251,2579.2417650714629
-1883.1572405220575,-475.4505904288369,1746.4263517712773
285.89185829708515,-288.99937849595426,2694.2200124300739
-3822.2498446239742,-2231.1995027967573,5692.9770043505087
-2955.2517091360996,-2573.0267246737044,1488.5021752641271
-4331.8831572405106,-4362.9583592293238,4829.0863890615065
-4210.6898694841348,27.967681789931252,3259.7886886264678
-3825.3573648228598,-478.55811062771539,2778.123057799864
-2321.3175885643132,369.79490366687492,2106.8986948415086
-3909.2604101926518,-1761.9639527656893,4338.0981976382691
-3557.076042714395,-880.55554816425001,2605.4517127716408
-3210.0683654443656,1932.8775637041597,1218.1479179614582
-2793.6606587942715,-1988.8129272840217,2986.3269111249124
-3321.9390926040892,-2607.2094468613923,5540.7085146053269
-5978.8688626475914,1289.6208825357303,313.85954008700384
-2293.3499067743865,957.11622125543681,1280.2983219390876
-5310.7520198881102,279.67681789931942,5065.2579241764925
-3840.8949658172651,550.03107520198807,1898.6948415164602
-2840.273461777494,-4487.259167184573,6407.7066500932069
-4008.7010565568535,-835.92293349906549,3303.2939714107979
-3859.5400870105491,1255.4381603480426,3539.4655065257803
-4518.3343691733835,665.00932256059639,590.42883778744022
-3107.5201988812796,1003.729024238659,1609.6954630205037
-2731.5102548166478,-1619.0180236171491,-59.042883778750792
-3971.4108141702795,118.08576755748705,3151.0254816656247
-730.26724673709748,-4344.3132380360339,3632.6911124922221
-1929.7700435052705,-699.19204474828541,1824.1143567433098
-6072.095375468778,139.8375020949066,3135.4869738164625
-1761.9639527656871,-1594.1578620260991,1482.2871348663687
-4835.301429459274,-3486.6376631447974,7986.3269111249037
-3036.0472343070132,-136.73088875077465,823.49285270353494
-2290.2423865755077,-708.51460534493322,2653.822249844618
-4903.6668738346616,3632.6911124922285,680.54692355499935
-3054.6923555003018,-1392.1690490988155,478.55811062771153
-2967.6817899316188,-789.31013051584171,4157.8620261031556
-2125.5438160347944,-2190.8017402113023,1929.7700435052748
-4465.506525792398,4443.7538844002429,-87.010565568681344
-3924.7980111870611,-208.20385332504449,3039.1547545058966
-3635.7986326911023,-677.43940335611978,3567.4331883157092
-2715.9726538222349,211.31137352393088,2933.4990677439328
-2492.2311995027885,-798.63269111249167,2501.5537600994303
-3651.3362336855034,-3725.9167184586577,6392.1690490987967
-3775.6370416407635,-1600.3729024238605,2010.5655686761879
-991.29894344312515,-1991.9204474828966,3166.5630826600291
-2886.8862647607084,786.20261031696771,2433.1883157240459
-1056.5568676196303,-1525.7924176507104,2212.5543816034756
-4477.9366065879285,-99.440646364200632,3816.0348042262167
-5863.890615288984,177.12865133623433,3561.2181479179544
-1435.6743318831477,-1559.9751398384039,2420.7582349285144
-2821.628340584205,-1774.394033561211,2110.0062150403905
-4509.0118085767408,264.1392169049069,1339.3412057178282
-2781.2305779987464,913.61093847109873,77.688004972025354
-5270.3542573026534,2395.898073337471,363.57986326910725
-4474.829086389047,-1544.4375388439978,3464.8850217526297
-4192.0447482908494,136.73088875077812,2529.5214418893643
-2837.1659415786089,388.44002486016109,2364.8228713486556
-6637.6631448104208,4213.7973896830235,1833.4369173399562
-3001.8645121193222,-1308.2660037290195,3349.9067743940245
-4794.9036668738172,2125.5438160348017,2057.1783716594091
282.7843380982016,-2454.9409571162123,2156.6190180236076
-2877.5637041640666,-525.17091361093458,1730.888750776875
-7333.7476693598328,2523.3064014916017,2078.9310130515782
-3601.6159105034076,-1072.0944686140433,3744.5618396519462
-6016.1591050341658,1149.7824735860747,3281.541330018636
-1789.9316345556158,-2246.7371037911685,3293.971410814157
-4888.1292728402586,-1059.6643878185157,3325.0466128029716
-3418.2722187694153,-419.51522684897611,1354.8788067122405
-1591.0503418272174,-2840.2734617774922,3412.0571783716468
-4931.6345556245997,-658.79428216283077,2815.4133001864384
-2470.4785581106162,612.18147917961619,2190.8017402113128
-3701.0565570729977,-1681.1684278001665,4711.0006212986282
-2962.9381879782272,191.16188522424881,2541.265196455754
-3303.293971410802,-978.86886264760153,5015.5376009943902
-2709.7576134244769,-208.20385332504446,910.5034182722103
-2669.3598508390155,146.05344934742351,1982.5978868862537
-2482.9086389061417,1137.3523927905549,2100.6836544437479
-2821.6283405842028,-139.83840894965638,649.47172156618603
-2554.3816034804158,-1544.4375388439967,2880.6712243629468
-4173.3996270975622,1426.3517712865125,2426.9732753262792
-2277.8123057799767,-1494.7172156618967,1128.0298321938992
-5205.0963331261501,-34.182722187695255,217.52641392168303
-5369.7949036668597,49.720323182098056,2060.2858918582906
-1270.9757613424417,-1833.4369173399537,3834.6799254195021
-3384.089496581716,-717.83716594157556,2672.4673710379034
-5546.9235550030908,2116.2212554381558,1848.9745183343598
-1883.1572405220568,410.19266625233269,1709.1361093847088
-4192.0447482908457,1991.9204474829096,1469.8570540708511
-1982.5978868862558,-960.22374145431513,3135.4878806712118
-1830.3293971410712,-674.33188315723544,1845.8669981354806
-1016.1591050488757,-2032.3182100830293,105.6556867473879
-1653.2007458048413,633.93412057178477,2762.5854568054615
-2113.1137352392702,-2184.5866998135402,2091.3610938471029
-2868.2411435674185,-1519.5773772529462,2088.2535736482164
-1917.3399627097513,-2190.8017402113041,3551.8955873213054
-5410.1926662523174,-37.290242386577987,1721.566190180225
-1898.6948415164641,-1622.1255438160301,3828.4648850217377
-4794.9036668738236,-2333.7476693598478,2865.1336233685392
-3421.3797389682959,-773.77252952143829,4692.3555003107385
-2249.8446239900445,-90.118085767556437,2613.4244872591571
-3353.0142945929033,-2523.3064014916013,4592.9148539465405
-3934.1205717837047,-2980.1118707271512,4751.3983840894816
-2812.3057799875628,-994.40646364201109,894.96581727780426
-217.52641392168536,-1970.167806090732,2187.6942200124176
-2548.1665630826487,-90.118085767557062,2681.7899316345438
-4406.4636420136585,-1361.0938471100048,1389.0615288999254
-3054.6923555003027,-1715.3511497824702,372.90242386574926
-6348.6637663144611,2883.7787445618283,1625.2330640149053
-2386.575512740822,-37.290242386571002,2330.6401491609572
267.24673710379898,-2840.2734617774927,3272.2187694219897
-1640.7706650093148,-1687.383467992538,3325.0466128029752
-5637.0416407706507,2998.7569919204402,2019.8881292728311
-4965.8172778122926,-382.22498446240058,2159.7265382224891
-2038.5332504661203,-422.62274704785409,2019.8881292728311
-3020.5096333126025,211.31137352392719,807.95525170912867
-2796.7681789931557,-3853.3250466127911,3567.4331883157124
-4683.0329397140949,102.54816656308455,3738.3467992541855
-4844.6239900559203,-1789.9316345556213,3088.8750776879897
-3586.078309509001,-490.98819142324265,2675.5748912367853
-2781.2305779987464,-845.24549409570636,3293.9714108141661
-3200.7458048477192,316.96706028588886,646.36420136729828
-5059.0428837787294,2563.7041640770626,1634.5556246115548
-1932.8775637041533,-515.84835301429041,3896.8303293971244
-2069.6084524557737,-444.37538844090329,-46.612802983762876
-839.03045378022148,-2806.090739610368,2827.8433809819694
-4533.8719701677901,2147.2964574269686,2871.3486637663036
-2793.6606587942738,-1305.158483530141,407.08514605343862
-3859.539865238653,-1438.7816333903015,-385.33236913401356
-1591.0503418272169,-450.59042883778335,2747.0478558110517
-2013.6730888750703,-1513.3623368551846,226.84897451833066
-518.95587321316987,-403.97762585456303,2647.6072094468545
-3275.3262896208735,183.34369173399637,3011.1870727159703
-1793.0391547544971,640.14916096954698,2498.4462399005533
-4213.7973896830181,18.645121193290372,3480.4226227470394
-2532.628962088244,37.290242386576224,1932.8775637041549
-1317.5885643256597,99.440646364200489,133.62336855189449
-1547.5450590428773,-351.14978247358204,1873.8346799254102
-2346.1777501553629,-1041.0192666252249,2672.4673710379034
-4611.5599751398231,1215.0403977625838,2669.359850839016
-3001.8645121193176,34.182722065342475,2395.8980730927656
-2520.1988812927198,-1522.6848974518302,1982.5978868862592
-3023.617153511484,-683.65444375388154,2880.6712243629495
-3620.2610316966916,-910.50341827221678,2414.543194530755
-1013.0515848352986,-4024.2386575512578,4260.4101926662388
-755.12740832815109,1208.8253573648233,1749.5338719701588
-2336.8551895587211,-1808.576755748905,4244.8725916718349
-2228.0919825978772,-720.94468614045616,2883.7787445618274
-2712.8651336233579,-1827.2218769421956,3679.3039154754333
-2473.5860783095022,-1625.2330640149128,2433.1883157240432
-2128.6513362336755,-1218.1479179614637,4487.2591671845712
-5814.1702921068772,3014.2945929148427,2262.2747047855746
-1951.522699909907,876.32068115065999,1081.4170172635918
-3862.6476072094383,-233.06401491609739,3744.5618396519508
-736.48228713486196,-1420.1367308887479,1932.8775637041549
-3281.5413300186333,-1413.921690490984,2451.8334369173263
-3859.5400870105532,-15.53760099440836,1998.1354878806533
-789.31013051584239,-714.7296457426927,960.22374145431831
