-538.75715826564021,78.683090243266236,366.82810175618346
-551.55323973036081,26.938247851668166,459.76559898930293
-233.7058299198124,15.40743828144298,116.79186540187484
-322.22244961651967,-44.015340087477313,494.94652693795791
-456.38937295985215,74.122715837937619,101.73140381595042
-318.66497113565111,-160.92337443635495,353.66887283625607
-653.69580780653746,-3.182124744442806,371.85197273749134
-389.58088642591002,-210.0191060688237,158.19619629849737
-504.69344297881599,-54.003585288857671,421.06271782911114
-480.49822711155537,-46.822438403490935,390.03545776888285
-344.5767798853679,-94.099463771005745,389.1262840928581
-645.16695228164656,63.115991036076977,356.70647500428834
-390.03158134187316,-122.28190280282313,770.98112591958295
-431.08280045994258,-122.25548231190548,428.37223524142888
-602.7823567426899,142.73996346823529,409.5824036900695
-510.08439330476506,-44.587995453359305,582.52612219903551
-286.74785496200366,-21.995645615272547,-54.59688327590883
-588.39533841995842,42.448897426589646,579.14597200463788
-695.97236112347218,-100.00909173529124,288.206981564893
-528.22983907625598,-167.2879420439711,478.22528643138037
-517.46327812188463,79.043175426346963,290.51271896554493
-180.71280422882191,107.95306596526446,355.87148243747981
-431.8598883295939,-25.367895818376578,141.73722484341636
-299.70235204445777,25.302904270221447,560.50489720216069
-537.32157468860578,-245.47686153286887,385.48958996271989
-623.44168691361028,-91.094491685891583,272.874574252012
-392.76050796217669,-368.66480652607271,304.1264913128129
-357.30032842103429,-583.67234903833662,645.07083932064006
-486.39926849524124,-133.17675388905977,622.34647499749951
-341.24420200456694,-252.43991225973994,564.42119240699924
-385.2858538131772,-37.587822359387545,133.84489051324164
-118.64714974088457,-140.46731521047494,247.74979543594668
-703.96389498398116,-123.33432939480807,395.86532921719305
-688.85594873262085,-46.070597424996919,62.115708271642653
-374.57942313275214,-112.73744688913942,445.04053857536945
-409.12810255477353,-323.21120101827353,517.77434312209891
-317.86386541108533,-364.23394235958318,-3.2933760308619071
-253.19880084234308,16.825515176087169,39.552259943491229
-554.21754773733858,14.651354409679925,545.24703497773021
-414.57069877305327,-57.234646069879332,267.79490325136624
-426.85698700781222,-141.83107556127757,468.22438402765641
-339.33648422589852,3.8613230334636559,325.19510490667477
-397.09676301364237,-11.441993090311025,350.20845627475222
-355.04314435563219,-282.31024752011427,614.12937893242065
-492.84343188673881,-207.52479027934325,564.62350315339756
-423.164309372947,28.697698800236672,321.56724752716281
-526.86607873233572,-189.75984025550221,541.21570297641472
-357.88064266283379,-313.01779543081705,345.41085020931951
-577.32511605258674,-115.91950195661212,479.13457271586452
-544.57976064374361,-302.28163892509571,220.95371111600241
-535.5032275661415,-93.18742058213779,486.40785525956699
-594.14492226565915,-25.456859715295106,505.50037824854678
-335.9396308755301,-143.19483589417189,382.30748255473225
-388.43858282004652,-136.58040283943402,387.33663531119288
-231.10846808768272,-310.68281769524907,320.30258892507112
-505.50050019303814,-203.65487786406189,173.19756334790833
-486.74825667971879,334.11659223283851,375.37938555854163
-299.57250782767147,-300.48186198746174,496.40900523118194
-701.56260046032162,-13.427409400392362,480.65772100805128
-354.52972109366175,-144.96439759675673,550.1009703197235
-491.85878630605896,-154.09079940209492,367.78099620526393
-496.86335121374572,-208.20074542690301,368.21529231963098
-614.14965887471033,-120.92337130614165,591.86768484972845
-357.10902023172929,40.653238164298649,248.68015182040091
-391.85380275836025,-267.75161146568536,559.59632994109154
-385.0593360122698,-9.2424050528200077,447.15206726872083
-461.40558232478736,-68.188017091398336,407.76434221459931
-255.02306062924515,-90.008048133979941,222.74757175458345
-555.5050459459826,-212.74661333674669,625.05682329865931
-428.62990523793377,-292.25328106751175,548.26410662579008
-375.93224778589075,-287.74516718906978,504.60510131728631
-520.49884603098394,-60.073478311046621,409.04574553197108
-478.67506760744959,-221.3776709638565,624.61075078062402
-381.4086188831148,-330.03000272752058,390.93173665047698
-641.87653430343141,-130.92099570297572,-133.64851410389142
-458.68062019803568,20.908458610171202,492.7699835657923
-670.05698053454648,-68.638647298488237,410.12917405107953
-190.77739047423296,106.54592014343923,197.99718444470201
-386.39853177038191,-148.19536867103761,302.30031760930518
-673.49571319290965,127.27583614921616,387.6878120485506
-328.2116556050525,-196.83486302929205,512.32051473231775
-430.9482680250166,53.641240112067571,346.39512682907127
-442.36809258101954,-256.06618977402024,333.40803529566574
-527.5750027684719,49.310199289576708,536.10896020569714
-275.93417584960122,-148.64987727751361,390.94463131375403
-725.05860316537473,-114.09302654364473,595.51410757432393
-375.93647509074088,-58.180679710257841,318.67156043167648
-390.37555697724144,-1.1094944354499232,372.9356775609624
-641.87653423037898,95.917810710064657,183.65305936903084
-429.29648370086636,-194.16021628336702,460.98801792680337
-478.69116516340591,-27.763013755676116,311.88289399146106
-409.58267556326348,9.0918093119530354,277.7525341681125
-402.27742970968296,91.11151652102015,119.16515508063192
-511.38122151361728,-125.42418964400464,161.02718376449235
-403.09815244767088,-65.829980814874631,645.3854764928758
-201.83653059368828,-322.75661423765678,450.04091281025399
-353.66752336778262,-11.944556819440619,474.70739776206511
-558.26938711387936,-137.79551061487527,431.34789364777879
-470.49732023006766,-245.47686465091473,590.50822341592573
-225.92962661964887,-12.72842710680443,515.50141110394361
-283.66215273985796,-116.37421745658449,308.66442270736587
-316.95097588389291,-63.809945787882704,294.42793861433961
-457.05303068143894,174.57165829960277,174.62050608658768
-237.38822518820791,-110.95229265186001,316.72546042013283
-301.84562257159172,82.280207053631955,110.46458752583901
-426.85702153927315,-382.30754198475307,595.96321853689619
-524.13855805073126,87.280661878352717,140.46731521046988
-214.11037367032787,-185.01681971088286,550.50459132648211
-535.95827785476718,-18.183955177717511,244.59022443083617
-464.1331030093607,-169.10628238935598,462.31475588689705
-359.0574379032488,-77.627563644167125,59.325246639864879
-633.69177798120393,-13.629463036426234,316.86494178924733
-235.93053914001112,-80.916446949804993,360.94190401163269
-275.7961209016367,-319.75973669690711,450.79672542266894
-687.33521229202574,-45.913264842259039,352.30475497772517
-645.96766358485138,68.642603873078897,467.3154000625284
-341.11256644781213,-178.13055431921549,407.54905625489931
-263.93889986242533,-237.12682640892783,628.24416025524488
-594.14491490642945,108.64624905874061,328.20890910828098
-399.09854195043249,-186.28936596776404,520.08413199164272
-584.59859985998901,-28.638967554347392,369.57905265890258
-564.14219473807384,194.10855533209761,327.75706883663139
-470.49439846461109,-4.5425879039668358,521.48684709745271
-320.94213562999352,-163.20089697565899,307.29965381688504
-325.03356568705459,-307.30834007984828,582.25196864111388
-617.32884807709399,103.19119919992639,62.732975725065614
-604.14586692824435,-82.280242538967514,354.1230739194894
-605.50798587772681,-35.454981227005938,475.0629594293739
-429.1299209017123,143.64942267503469,310.93735794196834
-557.32339303572701,-134.10310028184426,537.7761614692231
-468.69741950921673,-275.04501813264477,238.63245193918107
-607.14371054348624,-244.20265025655044,69.137280131382312
-213.65626471022634,-274.11630066938324,715.06467465977596
-463.25298543065361,-18.674389498511953,364.2109987801885
-671.85899610678257,-82.259348092860009,525.52343197220262
-634.14445138313408,96.831859238772935,528.69145458940091
-447.76770082966726,-60.459770011024091,403.67315997423412
-725.52050186380063,219.40126588130957,334.86630815787589
-460.49640876437263,-160.01454677691655,392.76297845265918
-387.30792770973062,-262.29968882795657,366.14947162105153
-459.07345271724478,-166.31289324926368,403.34028701514916
-280.93463413897223,-0.90917708125640173,283.66214842062521
-461.37040536941498,50.952193259502884,318.69999163828641
-676.32659637307768,-56.514831055380633,35.129323126442259
-360.48731754535493,-244.56768954276421,466.40603581480553
-386.85335030457145,15.910537321574804,350.48640785525771
-417.60556905370117,-53.481557779360443,349.73691663492036
-637.78525320483402,61.369215383216641,484.58950813710084
-560.04976981821528,57.734428079816666,425.49506021813801
-470.04273115737652,-25.456859714517751,447.76797890717245
-391.01249736009817,-153.26742713267788,404.88111171395957
-575.50686425999379,-503.6821529225154,332.75752341179555
-558.52508163162713,-48.728911002324629,284.52900685353001
-669.45028972981765,229.73637726500431,325.69997140346203
-393.21275429511161,28.645702492036538,319.12944565014175
-547.33845292824674,-408.68110864877229,416.73953247877046
-430.493681243754,-245.47686153287631,368.21529229929138
-442.07299784681192,-36.714470835924899,434.00403606975806
-405.03682149904336,-139.10355483843554,474.58859899372482
-314.03959796152202,-93.565420594511494,406.10476826505908
-335.0279857025871,-124.5555446048383,364.12771668273388
-359.12355715490975,8.1825611880758036,557.32339221636846
-581.32749185375587,-42.980592302061112,336.71782067734898
-305.48231657828615,-211.38285299203986,389.58087098556751
-424.00069361663975,38.502521356163811,-100.27639485227148
-739.15782277848598,-20.910699614809758,90.917708553778056
-530.07616177415002,-27.756433296958473,575.93858075949436
-338.66715210176488,-139.5581416492407,99.127967020298172
-570.95624556608072,-49.544646875494927,254.12121226609139
-437.71618437836332,-16.309665233642491,424.65231590970421
-672.93646004478637,-6.5582949843244585,645.97430756001529
-267.39397063240415,-214.68381734963216,519.75396752226527
-373.67006403270386,-110.91890907148272,140.9221038637188
-660.94248078283283,110.46418505585164,87.771005951117587
-497.77252482579792,-122.73843079184128,271.84289476626878
-731.88484999259867,-210.92839940618097,169.10614918913558
-569.27366773665574,-104.68598769651304,435.06259839528713
-291.09475200885419,-190.65882377770913,478.28808307475992
-702.17616326392124,2.7607297644395237,508.69984959838541
-504.02123008187806,-3.1125844907155904,48.327724799650639
-576.86648929266619,-170.92014930571122,457.77458526725889
-222.74226513445299,-221.77562756133855,203.30025945639724
-484.26604080935834,34.465070743980341,375.7125304718237
-676.87901456771374,158.19708283461767,244.56888145825968
-454.9981315732482,-188.67020405771169,68.90499693512416
-425.49323318881233,-50.91371942903816,452.76840591542486
-555.58627516184936,-26.93399835063008,444.60666132981657
-319.78059792538585,-120.56243089397071,149.75390102031236
-346.44764049938789,53.718957590053954,38.95990970073197
-292.75441209272805,-60.460575510912626,440.03980320223843
-436.40330939176005,-177.28884444040315,355.9414492226515
-367.11736875746493,-82.558194019925082,238.2020787278222
-753.7056371721236,-46.824120414162699,344.12153725730843
-24.546205301504948,-408.67185724897831,336.85110496348807
-330.01728957190903,-283.19485116844481,493.23594185768252
-505.04591326492272,-16.36512410226149,417.76525138638851
-488.68662694014773,14.578464147288114,170.96089746864681
-359.12355668719272,-266.84244022206133,42.276570597169965
-606.85138352035676,-155.44789740902556,566.43344624684107
-303.20938267114883,-302.75479589053418,459.13264842258235
-270.46369413516868,-105.90692510815954,298.67805240302818
-566.41513071961219,-179.10719156286891,504.59132234111456
-270.93619967850748,-355.36949492048967,429.00511808697439
-280.39191655264079,-114.11799031564266,377.73797731158191
-637.23159230936494,232.34278750383518,202.43970734031373
-326.42392446895855,-160.16466086294366,375.91840516609773
-485.95326847934018,-206.83698518085501,51.820252154524823
-502.31911359149893,-42.277287425385502,194.10804808553658
-549.90931109551207,-208.20074552053239,357.413396580815
-390.06035357001946,-172.82378881225571,710.15874404104488
-705.9190498716747,47.785767514601282,430.87619586574368
-454.28266576670342,-97.381915926721376,369.75212676544766
-620.27026202064587,-70.006364214884954,590.67762378782754
-485.49141005418471,-48.492246289812918,72.875742747576837
-446.88027297944626,-125.0328322831505,390.46857713717816
-687.33521229202393,12.728429857259645,648.24074915901235
-243.63611275021339,8.163488428085234,276.85624671391116
-754.62569060113753,-137.2875347017355,305.46835484077201
-400.0363669433047,-92.281116466072191,286.38967178771736
-442.8596989001515,152.4678502273062,261.28435607289373
-250.38314535888219,-144.46495068399366,265.54930022042873
-703.24440372866638,-256.84016345413414,-76.824753471865819
-453.77795306667298,-32.855333542080963,466.26600634950267
-470.0013647125964,-14.503757890430213,326.89126552792578
-608.68987072639788,-93.18839576260838,543.23284475550452
-539.13992181107119,-235.9305391399196,211.38285298663124
-463.67851622891442,-55.914174015987562,555.50504591309232
-747.19148498654044,216.48350501713975,441.46448428747385
-576.83662255205547,50.325675751671959,446.47454750141242
-120.90732576869082,-383.65883507509477,321.40467874649357
-710.53205851126097,270.01056333476168,510.02843158552247
-435.03954904991207,244.56768797163537,-36.82152922993231
-453.67390894932475,-29.532968876975204,332.76508303039958
-376.85244113100867,-170.01545595053986,482.31657423401776
-300.93031851148862,-198.92380859833531,343.83895625756833
-545.25596628922574,73.753978550313647,260.15466185979858
-274.11583961658351,-199.56361631940067,551.41375049326655
-385.21196175677835,-27.441278091165142,369.36813295558818
-597.72749943930648,41.18113531548272,435.40961488031144
-387.28232186838125,-27.279313513260085,6.8491876866639068
-322.75746020119942,-436.85873376005037,599.5992726231807
-418.12417580979326,-18.065575816611172,437.87004584175571
-270.34509161227902,80.708288938007527,411.24556486659168
-315.93760659571825,-111.3738152324508,420.49304745279881
-428.67533412128205,-160.92372033821198,471.86107827984034
-540.92117093468801,-180.89750583944948,93.748058251391598
-630.4407011430784,-194.47446134642018,551.53802743247945
-477.28647398264252,68.667501468780614,386.42869156060135
-390.49060320988519,19.092083053105519,182.28891894620989
-570.48152595743659,-110.62200582357012,466.77866556524282
-300.93645164047661,-181.38012820034533,549.14082935235763
-419.14639680237451,-98.699047863092801,4.9470953374157647
-642.33128036642779,149.10430923976969,238.2035827529219
-557.92505846137954,-140.40855155974853,556.7666319135501
-295.48140740619903,21.82016546958987,231.83925810884307
-350.23097499396403,-91.46285938791101,119.96257146910847
-308.87556418434781,91.642092673549428,230.47476402652694
-203.20029093553691,-186.8560439463983,435.03954904991048
-625.96528939379868,151.37810546027589,495.49988464023988
-334.0253720307752,-149.91886093109329,189.17563620952114
-412.92804757542501,131.16011844730215,106.13174332398938
-189.38818462564277,-170.92484466058275,158.12564788043122
-702.3365026974792,225.02053213817732,436.85798897638699
-483.22444905870407,-207.7458626264721,524.11298118768627
-648.93986253183334,107.51842338678972,257.48029504440365
-377.92852791246759,45.245715292682739,276.31977162745068
-475.53641621724512,-14.642451109132187,155.16435632097816
-437.89084263170759,-47.295113957147578,377.66326180209393
-222.73568699974717,-137.16251949452396,102.62000763197472
-548.68621454421782,-326.36919510297759,250.02279854520879
-546.41331030093488,-19.547231566505879,545.95729343083633
-512.96190919508933,-72.600414239077438,289.31046246188504
-408.69579890817459,60.441881192691561,265.92264511554515
-397.17970172885606,-70.062837462023623,349.96426482042807
-181.95522605758092,-139.30228532078135,73.490334169910952
-442.54688380544292,-232.06345873894321,465.28050227676562
-448.74078119314305,-71.075940605439854,370.94231652026707
-726.94651617839759,-66.650908848189303,250.72141499650357
-492.31745199575056,2.7276149045728371,399.98861584361151
-525.68192891022511,27.5423662678634,554.84543309356206
-341.34430930031232,-233.04857209887476,549.65921082589591
-477.58699675138058,344.29769420634022,246.82420507489161
-430.95231986181119,-191.8396732582332,203.65082588391081
-445.4950450040875,9.5463223929459318,387.30793708518576
-278.78071190565549,-30.099736851805282,271.30210438040774
-265.10353627509659,-306.40319406499822,381.94810691999305
-388.35490790815908,-107.79647591278697,443.16617575546587
-652.78661668117047,160.00236486073587,672.13297085678232
-123.19302832247698,-147.28612752773617,480.04363350201032
-525.25927356565717,-85.672220929505144,188.07089780032643
-411.76753815576944,-162.53257895910292,490.39841746282843
-341.84825963268025,-244.0950282195611,391.39991359318475
-386.71201436897115,9.7243629451267779,311.10886155661791
-121.77734477043069,-409.59837010363879,308.81961852114904
-331.54938672414227,-196.53657374541348,429.24571908210555
-560.73803903971714,-67.354393701212985,549.85829738766961
-747.31244665154543,-175.20986142671944,260.54036535711947
-839.86159491729643,-371.63240163338469,480.4062293264036
-525.0477316533935,62.278388903019454,25.002272905553561
-655.94628928983127,-239.46547821351638,427.82706930688914
-500.04432725691748,1.8199028089484206,506.41040109602892
-635.05900139467531,-270.02725167022248,395.48656033515635
-669.60632784798088,404.12764796799843,165.01500136376075
-647.13788832545276,-164.36138488292866,285.15548958415235
-611.04385206481879,-123.86973987196173,473.10127090168993
-602.7810882169689,-300.93539810281356,395.94659977866672
-383.67124284025681,163.19665424129661,221.83834894080968
-518.83132230709339,-109.50011548430214,334.83650661984092
-425.49322795156343,-68.188018596993388,410.94644778918484
-349.12264751341343,-49.095061298567593,430.94889004040198
-586.62195421235128,-137.96917081666027,413.65014640315792
-477.97334285968327,-54.292073612576949,141.05153061465779
-671.88630484417331,-230.02795408501851,360.02920870164621
-400.91803080059526,-2.2454241999965578,419.61110821203886
-356.85059253706083,-122.7383177849475,253.20486096962111
-396.30224043717067,30.041252438116629,125.38553073428858
-389.12628420764935,-127.73884347716293,545.50419955377902
-416.43888767661286,-140.9631780006265,314.97509997263302
-494.26401453638982,65.279540174139044,417.24831886264502
-561.5917618595978,-210.77570085670996,523.62481069077398
-567.32467022697801,37.274219559934913,266.45912842726455
-291.84471315573671,138.19438130739326,343.6676061460106
-586.87582462837429,83.186699178341584,227.28963585515135
-320.95119283688553,135.81529661732904,254.19532765809876
-393.21757097012704,-173.65215626401096,271.38830040087475
-498.22711155559313,-150.46995806436792,402.30756718948834
-601.87285839556978,107.73710533122903,418.67476580225593
-453.65871832067666,-75.842482625367523,459.69399450639895
-599.14537440204072,150.92281116465412,381.85289939338998
-710.91858763832295,187.48713094775516,306.04920069081408
-584.59849845657675,-88.189729722105128,153.65040481039
-473.98743951523591,-456.13295382057953,375.33318850859388
-715.99131160084107,100.34170405647895,493.05002621928304
-407.76434221292777,77.734339485408924,176.37967087916965
-563.20422322276636,-24.970548976892946,24.131445320703492
-150.01363766520348,-92.281116494209755,143.6494219914625
-371.76715956834755,46.766952248543497,262.83526097960402
-612.78220167250277,115.92039645119155,260.02427912447899
-309.56648216386816,-147.73360129990559,337.31042192266455
-475.49777252490628,-293.20847349766336,15.919613139017159
-216.75193008615921,-286.7649069370824,336.452559267879
-245.93144831348181,-98.645331393764295,595.96326938812388
-602.25043944848517,-23.941794987407917,679.85889254006133
-681.32301666732246,58.836263801465059,563.24923677530194
-404.80537349635409,-151.12996805444649,432.57311804442725
-312.75569850689328,-270.02454060825698,626.87510290324883
-421.40194563141671,-106.37330677145657,368.63809340198492
-565.96054186743868,1.3637603418497257,460.49640876442868
-701.8790530985425,-125.46119282459026,253.66246100451602
-570.04150385406786,-73.183941662446358,609.15022968753601
-643.24029408124363,-103.19119872264729,494.13583073236856
-380.48913450211717,259.56915319595987,59.55086965886732
-526.96877690777364,-253.7667896525883,495.42315060047304
-494.59041731066264,-47.27702518410625,380.03454859532189
-448.67715246914906,3.5290720054814346,295.48140740006301
-436.40325888928203,-45.913215007465432,452.31388508458241
-385.03500318210365,-75.915949010876602,360.94194749612649
-413.32503468368412,-4.6859155849730278,362.18809533063569
-440.64279406464669,-170.1118820113218,270.92845122152352
-184.56223293026363,-105.46413310300898,228.20256386943922
-479.58848959703829,-209.10915422257588,39.095542222270119
-193.77698830383275,-72.701482619533238,62.227899468697025
-409.12810280052571,67.278843215970596,244.56768785358108
-307.29933884360452,142.28665597276157,186.83818170418175
-810.08063800621676,20.44936226937153,89.548951382975844
-521.39173405397321,-167.72707814327089,531.42402854367867
-554.21955605962398,21.800642140031101,415.86821795561445
-401.24089653739856,-36.167904013023083,215.13897029187473
-605.96759921245018,-502.77670183465233,425.94310500924036
-510.9555414128539,32.275661423763935,360.48731702794493
-193.75721130398975,-112.16512927196422,239.47626609684124
-290.02636513634377,171.3792177333595,538.68533720661082
-633.23938539866867,-236.38512592053897,530.04818619874345
-333.66669697269947,71.370124556525298,216.38330757316217
-140.0127302697783,6.364213052385943,127.73888394911638
-295.49943144253513,32.239941049893069,237.24317674484828
-295.38852591298473,-100.58936190483318,333.54939007200306
-510.50214643248182,-0.91182965942230876,382.7650563322976
-328.84704372203453,-48.364490976984818,335.67846079391472
-351.39669591215068,-137.28637328874558,331.39286713211629
-250.47731612077283,-274.11582871297014,421.40194563071248
-590.69807289334415,-185.28242433053353,584.01779938969833
-711.59068894582879,307.56637027019781,388.01174331513425
-37.739675691931545,-306.4005116856838,391.84671415607619
-435.03954904991343,-82.734794072187057,674.15219565414748
-551.867394888592,-182.28831891135283,90.009116005698587
-321.10674832384831,-220.24470199129027,411.68466028658355
-307.75525047731276,20.001818347123361,296.39058096190399
-251.38648945546308,-123.19301736671872,585.96236048506057
-472.70783460766819,-233.53018690006817,285.47877186097179
-634.60314574051938,108.39896483860647,347.5116124623878
-424.12946840859098,-199.10902106313179,413.6742546810994
-576.41603772033102,-20.456404971424664,480.49822736038601
-624.60223676335295,24.093099186893813,423.67487922862529
-736.43685906121743,-90.013818473201567,320.90521321036738
-433.40677281034425,-185.39251188734565,409.75831930233699
-297.75434110683051,-296.39058436804856,398.67260339138403
-617.78073173960024,-352.75599438738362,273.66604553807264
-461.86016910630326,94.554050368216238,87.735248431235476
-286.38967178831581,-300.48186198739785,440.49459041739578
-322.35169172161568,-193.90000579199574,652.05104426278695
-411.38827465128344,47.324901188973733,470.5447996125817
-435.03954174391578,-45.458670106663355,314.1194731372168
-369.12994940024862,93.639174000193648,515.49933000503563
-190.30606935642473,-10.752803866091345,431.37977064060703
-200.96698711082519,-158.63895735268599,247.23231753660664
-320.48367216360225,-136.3760263847613,-69.097184570333184
-424.99945107910122,173.23673234016627,266.87225346001532
-309.64771952318108,-246.37281593119715,417.25870251991807
-531.19946963683742,201.14524024803714,273.68989111169282
-499.60554420553956,-138.229509001395,383.65132389716211
-437.404228138343,177.40423823335706,511.10708415731114
-405.76212851990175,-44.629713941841196,338.74700961120487
-553.65338468981213,-72.245148779516697,555.07265613348443
-586.41745007581142,283.20746383745842,213.20086472200899
-855.35050160785613,153.84440945655987,530.42206033997752
-373.67050739761225,40.91261840538403,554.59561974940596
-555.96453520260843,-368.2203305998022,318.20565031126046
-412.30999059614913,139.10378082446454,268.66093306338058
-259.11446506556075,-20.001818463901259,255.4777717546018
-379.57996181465842,-541.41285571409367,766.8878988999902
-481.40832153093606,-108.64716142547415,239.11172574608307
-478.22530400029086,-31.366564609881685,267.75147957874657
-528.6855347385258,100.21018040054877,347.96020099013026
-411.40103645785842,167.74252204745994,168.19710882807001
-365.53916439215578,-14.585026689104691,290.4492251465212
-451.85925993392073,-332.75752341420173,414.58314392003155
-849.62269432549726,276.36053702930178,465.49686199792404
-489.58996272902829,-259.11446495650318,657.78707153090784
-749.61360123695908,90.462769342189972,342.30384580380581
-612.32839349031701,-2.7275206837020223,546.41331030093329
-435.84292612787573,-237.78992974457333,462.37667998691188
-662.7874710438042,-63.64206065510421,233.65766512273888
-567.08145750816584,-33.136045639140455,682.65884179490286
-337.30378738128934,-225.00687855904053,507.57520891925446
-640.43664360162859,-242.65716638238564,467.42739330512069
-283.66215109061841,-274.11582869735776,623.23847624525058
-468.67754212781352,-9.9935835825103485,287.70693238893
-599.59996363305379,-125.46595145013151,503.89469799033441
-584.59859588910433,176.83426263929616,272.29749055234936
-381.37598449538149,-193.16785485116924,229.6048876022343
-384.1258296208718,-139.55814164924297,389.12628420765128
-359.04519488594474,-252.21542788216667,330.14665605155932
-355.94173776273067,82.734104412061797,298.51045677433433
-494.16853070443824,120.92173415805155,658.6557285345383
-479.40317926147418,-310.15405446918481,453.51255439529524
-813.71088469048482,74.097224707590499,370.48665146888743
-406.25172527272952,80.604804225968721,380.09097747083933
-620.96554188700838,-115.46504681960627,497.77251954198584
-536.85891049811198,74.560171270241099,379.13127426602375
-402.30930084523106,-246.38603509372584,210.92826620651763
-489.29913980468274,51.661311924300769,405.29837622994273
-355.54028009200573,-105.0460322157675,462.69644386176503
-555.42746693316167,35.683566792210407,233.88268654992879
-524.13855805072853,61.82380216383558,397.76343303936653
-337.01714427311026,-74.17382707587393,530.4265911439619
-630.96609275850892,-54.095474236718395,204.10972594729995
-418.08804089103631,267.02678001217726,123.25809598717802
-367.25069401328653,6.75553977453563,147.79900551080328
-478.67988007451913,-64.096736151146928,324.120374515663
-277.27532055713266,-318.23585304841731,292.14851952186569
-629.55317356476598,123.51381123679134,515.49938535606418
-541.41285571415438,-112.28293481225543,255.93235791765082
-562.77843440313461,-77.734339485418502,321.39285389580107
-285.9742126847687,-135.3770208634771,350.99859843856905
-777.1264715216289,-247.53331371092753,379.24747812672211
-781.26814926478596,340.23907016962659,128.93272941142521
-395.08060757177554,-219.15867842965218,182.7091812870527
-390.12641366226239,7.6021587653592748,584.91419338961157
-192.74479497488548,-230.47549776421803,464.58768980153582
-498.67370035292458,-286.84025957731779,534.15146419921678
-489.43414394090865,12.923917451389189,361.93394800778441
-290.48122950345822,-5.4552898264542939,634.6026676697461
-348.37045456459174,-325.03675560935318,436.51617522206072
-459.12016110880961,-363.69968573421647,602.69203971527554
-345.03138969999065,-101.82743885807743,416.8560314009934
-566.40465022100932,-115.45788825668534,532.7861853043288
-315.9756796278989,-425.05804179122828,621.6777249314631
-522.80564271072376,206.80614017862771,319.54366177149132
-370.7150387421932,26.892006266828563,61.990944433155626
-686.42603873078122,211.83743976726598,318.78673718390968
-311.84652001985171,-68.18801216395741,91.826536387516938
-585.96028999891041,122.74056183596221,321.84945003040656
-345.4865100270153,108.64569375090221,273.66083430429347
-419.58359348432873,198.65442863255075,164.56042137244583
-587.61333561677964,65.657325475339533,407.23739642803679
-564.142194744976,-134.10310028184267,622.78388944449273
-313.16274012634443,-363.19626262301892,582.65394469551404
-474.10969474110419,-72.715479854615026,410.36837039324888
-431.40284006434689,-9.5463034407023759,336.84883087630999
-184.36049087456368,-106.78754971367368,243.48636132637878
-425.48618336351899,-46.814961676600078,491.38301150396404
-448.32819473251817,-314.72476235332306,561.15899448978223
-431.50370239446295,-194.94604650252759,205.8819690726076
-480.95281389217257,36.821529229930697,434.13037548867948
-488.08947636360773,153.74161518166667,274.84335749599114
-453.67752620887478,136.36474417658582,199.09770007474862
-505.12325284150404,-286.46701136500957,729.53444331268497
-551.41376488772585,-95.008637148835362,-149.10446404221898
-342.77353577904989,-39.566793528319089,387.28343401189125
-341.21170169316275,-56.127449974461356,377.64018152525813
-485.94978431985993,-267.25337205372404,399.60663384471144
-180.92480948090528,-101.37210173667638,355.03253986592267
-301.3910356089724,89.099008940530851,319.57450671304929
-555.95973461699543,-302.30031177160595,196.83601027388431
-248.65896899717623,-41.236126226058843,253.92152801193564
-270.93390777634028,-352.30496585581221,425.03838176298154
-455.42678194648596,-260.52802523062564,20.524195440159318
-499.59083220562383,-31.366449179811408,334.12134128366233
-761.8873330659826,24.547878999423453,-32.275527922205896
-731.01154568935772,-103.08092438247205,376.51977263854093
-304.04112786772055,-62.655575669397855,264.58987118117921
-265.9332666621745,-141.37648877339339,508.68260750921189
-623.23847622510959,-87.280661878352916,563.23302118373954
-706.94383811484408,-234.8682830418704,450.27053661548041
-476.40694608600455,-31.821106542279022,426.85695509968662
-259.14773008931064,-158.33545566188988,322.02893518784418
-650.06105581966006,-129.10524029873528,211.37946267460796
-383.21665605963653,122.73843076643247,244.11310119101523
-335.7106483654469,-256.63034311970927,110.17670238275629
-635.74700942992183,38.876263827677747,423.37175873115609
-432.31202836621151,-49.549959087190857,313.66487812807583
-304.5726767827893,-44.548997709006152,-130.55809340885969
-430.90873102160594,-32.051973255291429,377.23748742124428
-124.55623311717672,-115.00991380499822,361.39687839068745
-782.74876519899055,180.92505408109884,466.86062388871125
-541.24279221549921,-32.59367126630363,590.08513797500859
-297.75265243270098,-175.46879444220633,252.75268751105526
-355.95688927647603,-170.4835340403275,385.4740001189893
-235.41917184563039,-43.14315877425117,366.0133340399679
-260.47917639065287,112.73627891810131,357.30364060082371
-619.31291824866094,129.74316976040186,44.951402004940675
-269.569958803855,37.730707250883604,46.822443796794026
-371.32551801568803,-319.92543437820154,580.14922068906696
-486.79279486668594,-49.585884864240462,498.49256536855296
-363.92542642415299,-80.988992176827622,637.650828988586
-821.89289935447619,-192.76030568167562,402.76388762615676
-663.24211291935501,-85.007727975268978,216.83789435402787
-817.34703357271462,224.56586763423417,167.28793385658628
-333.27613109846243,-26.552344118020486,305.02898302255136
-209.10991908354555,-205.47322483862069,433.2212019274458
-793.24436357404215,161.84240415592228,397.31759714049565
-544.12238671815123,-73.643058459178988,562.81188547049248
-331.22262750531871,-203.87429961117957,-10.726017012349386
-604.75361949617877,-444.73907271920683,201.48219677533049
-578.6913714793609,-52.734498329489149,164.558626134972
-475.49777252570641,5.000454586268785,387.76252386440564
-267.29703123838999,-381.85289985444837,311.84652554607635
-443.67669784489857,62.732975764935013,710.06455137390776
-421.80194131849328,-67.759620130652749,372.97612362768928
-526.83702949565077,114.58496322755936,307.32972303182402
-471.96433779200868,-197.79249107579349,216.46750397659969
-491.40830984626456,-178.19801800155292,64.096736067021368
-608.80351572649863,-196.95730226655178,300.27320675667278
-375.30350352365059,-21.937852370264661,171.46672328577662
-339.69892602356475,-55.844572444082111,449.23039004548519
-628.71877488841665,-80.941574721039629,208.18053968558851
-598.23620329120536,100.91826529684575,278.20710973724806
-325.93872173795091,100.46367848250104,332.30293658784382
-581.41649240839865,155.01409204195005,252.75025002272795
-510.04636785162126,-149.10446404218604,318.66533321209687
-436.40345606343755,-103.64594511365864,303.66373619078519
-851.87013193275811,-44.978218630831662,340.04998581111261
-770.07332130726422,-95.920446138523204,585.05112335871604
-636.87608072125226,-95.917813982933097,355.03255076005001
-455.95054111773214,-331.3937632251056,567.77888887893687
-348.21347395217271,-41.821983816709867,278.20710973724556
-71.369954384878397,16.819954336934227,142.28593869740115
-445.15314099041302,-247.49316821255513,43.056716252758029
-328.21165560515243,-115.91962905728417,330.03000272742605
-340.48549867373634,108.64624057647839,288.08243677791563
-626.87517045592483,-53.186642542704092,-52.732066526778418
-415.07805616179121,-70.955863241291098,300.9720912322054
-377.75180577635905,55.015186636510442,410.49450525052509
-275.93031204611276,6.8228685185131939,289.57660898772247
-298.95793683630228,44.79483354364411,357.67230527847283
-332.91740217383835,-178.36993934692006,363.57047151596737
-666.42422038366612,158.18159495573695,590.03903654133546
-551.350427145509,72.141504401264356,92.735511535462649
-603.69373849726037,235.02136557868786,15.900583390536564
-344.57893551151136,-254.11673162570548,427.76227304415181
-393.2165634944248,-154.5580072095232,680.0639888884956
-462.93499260256755,249.36220570303803,212.25855134907215
-501.16624980712243,-11.092700932847352,394.49011031512185
-209.56450586416707,-358.21438312573849,353.98210448603731
-645.0570497305805,-5.4532460994813077,472.77286009079148
-515.50140921901914,-75.915992362942333,525.50231839257719
-169.10641599534193,-327.30257111451465,475.94090509270939
-498.68169813342627,-276.8433494345764,245.41755736132629
-325.98053923326739,-123.7709466722773,379.9889057538258
-308.66442404381178,-230.02091099190702,216.83789434350248
-546.68321004932329,-105.6168395395967,490.98217118090605
-303.33216824459316,-356.92658525628207,466.17696460806485
-329.66532076434237,-203.29187099802573,134.94247196617826
-354.11735647733087,-226.37732199954741,103.65038247882806
-721.94996364212795,0.093698726795119244,443.35686657108619
-457.76623465119883,-180.92266413667372,359.1272683294672
-445.71013954265226,120.49085111797473,446.12439832695651
-125.92053823074342,-137.28520774615751,223.65668857102807
-754.61405582325278,-257.75070460999513,396.85425947764713
-538.21969509946064,1.3751313885785017,313.2184712857906
-581.8710791890129,280.48004364033193,227.74797708882326
-561.46053005236013,-248.02509457259185,392.53887307871156
-460.4964088319515,-52.655902439373705,225.02045633723796
-729.20375756352075,-138.91972247751917,353.8996233226614
-464.58768979005282,-97.736157899067877,380.48913535373242
-555.50317003959094,195.02138683810367,437.31529676349925
-461.86048076959429,110.46435394230394,234.56638921892659
-669.35900384820263,220.71086931014986,89.687872155591592
-661.78806276137641,-210.38999828957196,55.313867857970877
-353.6836825461495,-90.021685035390604,503.21295383379601
-722.79298118010479,68.188017092466112,386.85335030457327
-566.7178822489426,298.8152481395025,220.81171187952884
-496.86335121374316,104.10120802035647,324.57663187851318
-570.96105342350995,0.45451191276839736,433.22109712006363
-390.50850290457413,-199.18536720025605,479.04416208560497
-287.34858071816359,13.637597272626058,328.1287626608642
-487.3170517128994,-22.729393032697207,376.39777041269269
-403.98783442805376,-164.46558812922768,649.57021418100192
-508.68260865798095,41.821982712602455,359.1235558122483
-319.6646591051491,-91.759254946935044,199.16902992144264
-650.51368306345228,-167.28793526946183,514.59223565522768
-385.9451649686705,87.279588952647131,121.36066942444064
-496.86335121374407,-140.01469018701172,613.6901920750098
-557.32309864654019,-85.007112441515659,546.91375868774526
-592.88867480527301,196.72686797548903,305.82676989922822
-340.1589127525653,18.37595449800714,379.68948723344795
-334.12522734050981,-155.92918105272713,586.45401465653663
-552.75213178027923,-46.796745502936012,250.06590576700424
-400.49095374839152,-39.549049939419064,388.31491139733441
-510.50095463238983,91.82652968420993,448.6771524680945
-576.44655281640973,-158.99473680479687,581.82605280452754
-700.97281570804591,-282.29839075847946,350.48640786179197
-539.59451934583831,-3.1821180983080444,358.66923675416979
-434.87794903270009,-253.40625989699973,206.51545841835832
-475.95236724458681,-191.8356301698754,518.68350857592623
-821.89802463315459,113.18672973414527,296.38852165166838
-227.29335824360263,-104.1003282771678,605.96421017467594
-301.95415603264843,-175.37150343449366,387.04744267371814
-580.21623684732708,31.488229610434423,560.0335560725581
-370.03363941768089,198.65442313655572,664.60587327208816
-458.67806445983427,-95.00864058085385,341.39466816062622
-647.5111890202387,-58.290981954709977,557.34644530135881
-665.96963354078468,53.18665340020263,562.77843449860472
-596.68207087321753,179.48565031816239,315.06364896139809
-724.25218997465845,35.754763975045591,376.59939851234344
-394.12674895344367,-288.20803624088552,347.30429023193147
-283.90022986578708,-410.46542881920919,575.6543393132913
-579.14410741759878,-55.005543532324047,490.04409693912413
-482.32505406453288,-38.217974844275808,99.093558301490106
-405.63745033328928,-318.15703880847661,694.93791325058896
-440.30586444207592,-44.299233373032848,230.67177136212354
-525.08410232992412,-130.50566988016854,433.56808176965052
-402.68125162380187,-163.97815515966218,581.71466090485433
-341.84925902354428,-225.9296309177854,385.94417646824945
-271.38830802802147,-470.04273115739784,510.95554141283156
-405.85378886270149,-47.366469550233269,414.58498515621864
-515.03789357066682,-262.05859397566547,586.2003386575708
-376.69075608210522,-273.3559145755691,570.22228344066991
-290.93531792179601,10.45591036276255,200.47294574057418
-410.30198598027243,-51.29764973389134,448.04821382660339
-506.78502412763083,-117.55594914496203,476.68587526639084
-532.77570688243975,2.7275206836990176,419.1290117283383
-343.94284264470946,-188.00477179136436,-34.751523233176059
-358.21386867079258,-108.64593206521488,46.822643932798712
-587.32611775659075,345.48595783705883,270.9337192422056
-465.79349374717418,13.650472559079876,375.94806676120373
-431.27371231713676,124.53349841945668,402.32144777417119
-362.76025101337996,-74.552232100742629,161.37830706203661
-434.13037092992766,-133.64851198164257,500.04546399660234
-216.83786602620148,-130.46637785001721,278.20713256863047
-614.59373246803079,-105.39487276592128,647.85155843415339
-397.30782530194665,138.64981658751063,189.56348112963391
-455.49595417764937,-452.76843349395182,-25.424322463987924
-286.38979555418865,-305.02785355946332,352.75921799248994
-383.213450558761,-44.565548858876539,410.92863758206869
-643.7634940884551,-138.02510353104705,792.43382665775448
-364.57836379863954,-210.92792653522164,193.6545131871471
-453.49113343982646,47.277754471365249,318.19513892158932
-356.8506226453693,-116.37421565547834,355.48686269539922
-559.14174016346237,112.28293480171524,306.39158198369267
-544.8619839252359,-89.916942491167944,530.7707248399746
-442.3134159048588,-25.002745954128724,470.49697319443698
-357.30750483758561,-40.007687176151336,155.46262028806055
-439.77881446926443,-194.61404218526275,470.05165446907114
-324.57546403084029,-288.20852158153042,459.5867325324777
-108.64624056732808,91.826480644112451,291.92795560939095
-348.96268011539263,-114.27475042606088,424.43945975968938
-275.8296318923035,21.809180518530418,307.96976996413986
-728.70992983684289,265.03035042792777,458.66576318730324
-572.98347369483622,-211.21903164217909,263.1491422283919
-173.21652897522543,-275.723785669226,567.98515448483556
-299.57268842621562,-255.34322113350845,54.095826893350107
-145.85469956830838,-251.07462502862151,307.98558661951745
-540.22983203041633,-220.05088727525842,316.01179665266721
-701.42740249113035,-135.46686062369275,524.59314483134699
-724.61132830256781,104.10037276116078,461.40558232566326
-238.1568072489317,11.290688744465188,385.72154993122672
-482.31655517657316,207.74618195027455,369.5790824537815
-504.13673970360571,-224.56586897773397,215.4741345446518
-410.9464519814486,30.00270898718118,99.554469740694515
-389.56624676021687,-70.869698538086226,265.92692335113617
-450.75396480644139,-89.475857708311963,277.08728593162499
-633.23938539868891,210.01909364745143,317.30157287025168
-650.51369175017226,254.11400102951526,318.66531963623225
-589.34271260622916,307.92950166325051,171.88996129532836
-482.61895226248043,-146.78101083692204,145.81075808570415
-625.05682334757694,267.75244990244141,185.921702932751
-575.15220208035942,175.09421997609073,85.161167762049644
-536.46209866148683,-160.53474202648044,290.37837662941138
-660.51459223634311,257.29611782821684,75.915992362516803
-209.1099197710038,50.913719429000807,156.37785115034848
-445.0404582084762,22.274752269573522,388.67169745490338
-339.12173833984781,-84.553141194654302,346.39512682954154
-502.59695911513876,-196.17722396169012,310.57815209080684
-567.59196386639587,-161.67446981790184,525.13886387408672
-285.615067637344,133.66307639088222,498.32713023509484
-497.61818053773567,-123.51427211228685,494.30805755365077
-589.39415769975619,-93.559388526207371,45.480774185225869
-497.31275548615213,-301.84049529330014,150.9265592730159
-645.85011534956595,229.60225319044216,120.50144151607657
-338.66715155922805,-425.03863987635197,304.11855623238063
-313.66487862532563,-188.50790066430338,265.16970639087958
-567.58476730085192,56.325793642199265,374.82928233686238
-522.8426895733877,-151.27329423048619,536.15913095936514
-447.31339212655593,159.5599599963644,335.48504409491562
-420.94666637345028,-16.81901840546865,465.04296904793364
-504.45676248315175,54.722553816065997,326.74205986821522
-307.76422668101594,-140.48574725553846,355.01637871314972
-224.11125586049945,-89.553570461189381,306.84621521553208
-666.92358849257607,115.42061745296836,302.57578941226603
-435.96726632511275,61.11651906603749,245.35030194084868
-370.48822620237945,-195.47231566506071,624.14764978633957
-671.22508758651202,-1.3222890262821809,368.74797084479667
-565.05145382668513,145.46768374237917,314.11940607690138
-278.66169651785975,-125.0113646695163,4.0912810255465333
-656.4233112101067,-9.0917356123301207,168.20843746868692
-476.84374808595982,14.564475005660881,435.05429740545691
-248.28914911971412,-55.602021531289601,426.71419801762221
-678.69781624790721,-104.55474523950659,503.22776062533831
-73.99457570106803,-98.704277032368395,51.630026076640505
-670.06090415987489,38.639889660777406,315.02865747004114
-737.11407450951106,-80.809533760691707,430.67689547620847
-275.47958905352715,-171.83380307298211,140.22743297633011
-664.02026661950094,-62.999431422596423,-78.953642032015154
-559.59634733196981,111.82828044882297,55.459510085539691
-604.92420103117274,1.6189707045892057,431.86101447041398
-454.26112110022785,-125.59661109259905,131.67060056294653
-409.58284064787858,5.9168313918423205,376.86305762497864
-476.86153286661352,-25.456859714511527,456.40359787265771
-530.36764691969813,162.01336674095859,-34.82255382976517
-510.53579194067032,-217.98668164637675,531.48930849129169
-542.3204439516818,-134.10156925004696,715.06713415240802
-821.03271176580097,127.56773376390009,374.22329680441192
-265.02409052964634,-340.94008258944109,487.77161968951731
-642.78314475979766,-90.914801390441824,552.32553410219316
-540.95826916602482,-283.66215133713172,542.32202904290352
-508.85042326199766,-186.13891852447307,565.02801152205529
-416.40149104463683,-15.001363760341613,216.83789500132647
-175.98270132426489,-38.146495078234771,620.87918802587353
-563.08222381777352,148.30838867073845,367.85500174109529
-535.64363010935483,-33.242522032695447,615.63044011971601
-703.24574575075724,-71.824707072682671,214.56496634675554
-655.49465965662978,-61.934903259828893,468.55439530301692
-195.84148448717283,-35.013741297706808,278.96610377077252
-359.12355668702617,134.55768706242748,270.93372124734981
-406.01033646485899,-26.830089853955027,349.54222066383176
-327.29277365093469,92.475523680257353,180.81583652764169
-549.14087761950975,92.735656199705303,348.21345019846143
-351.84651277845876,-155.9183503779694,243.66528781943703
-386.31143582521821,-76.370579143554096,413.7612982311324
-394.12674618500557,-43.185753746330597,325.93870896821073
-620.05636899868125,-466.86069521221333,135.92144722986058
-498.2271115556108,-213.20120010911887,475.95228776906617
-403.67306118737673,-300.02727520683715,518.22892990271464
-370.02775661763883,63.91339722737311,310.48689936652619
-419.48636744772807,-234.89789752933359,512.42211635190631
-628.23893081188953,-31.821074643147956,577.46435359652037
-540.95826007616586,-295.48139858034028,369.12446925585397
-441.92133098890457,-208.87060396913117,563.06122550753503
-383.87631712949809,-133.11495140853967,350.91796989591779
-696.68443374643346,10.556954613719714,353.5126362262493
-496.25364028098761,68.943648907143256,398.33306456452527
-293.92460336721598,-7.0725334345242468,364.6557573825728
-531.98689691381549,28.022149000897866,195.78353570884798
-496.51374888056665,-88.726294982663944,251.16386129907247
-465.0414454370474,-109.5554141285553,383.21776423770319
-556.42715432947534,-35.508704218229362,512.32535106575676
-253.25232516149396,-347.26017074852086,380.05078722635687
-422.7720374602402,-149.12820179122133,457.38903620204638
-438.0845012318016,-188.92522608744616,484.11336395356784
-218.20165469587738,-85.007727975268892,395.94508591689782
-662.41697888129215,-157.14077018850435,511.58639959854395
-515.95569208748691,-203.21081318828857,556.86911016725833
-710.79916202185927,167.03842479200964,71.65957919904865
-314.1636210016195,-125.99305349990324,484.08139375087438
-732.33930357320207,-117.28338939918193,535.04864078527964
-379.57996181470855,-168.19710882807553,705.51868351668111
-711.01873138837061,101.53188492771396,717.97006543811165
-501.97219038746027,-162.5020329612388,385.43056190770824
-720.48220669224622,372.34285699650297,353.25311882178528
-466.40603691244416,4.5458678061646269,185.01681971087947
-323.6657555208356,-0.45454586477170028,583.23490090463361
-614.64145193728643,-130.95882929408953,310.91166331271955
-663.24210486352661,-163.19665021424115,620.05637547398328
-335.48530215919976,7.7279726023824518,503.2274344421362
-331.78297455742432,185.47115198383116,425.6240571456562
-385.48959320816766,-72.733904289802922,483.68032161622438
-624.14765151061238,-130.46640776118306,372.30616465420621
-480.55574535069246,-243.20356818572017,327.22559722197155
-334.12392532511473,-153.65292902865909,409.12638080193045
-190.01727467366277,15.307308731763209,445.34633866911054
-400.52966887106896,-149.16387956943981,324.65957169426918
-286.36328302460828,-410.74648006384228,361.90447848940426
-284.93306121294347,-149.7399191115307,376.3098363065954
-548.64901224851769,213.17163407563385,-12.139602706590574
-255.41096898551348,18.722079286394354,19.963398184341735
-592.33488640388362,36.366942449315658,164.99837884237422
-430.03981835211437,72.732238418158502,348.6663938668317
-225.00808311600889,44.254695506077596,609.37976606086704
-310.96528948230554,-191.84834565586348,561.38785666496995
-667.33339396638451,-16.81969560362354,528.68442583859553
-665.51504682243626,-183.65305936903403,333.66669697245038
-295.02682064487675,47.277025166675074,309.1190107705383
-313.65471578269774,-313.66481331965406,541.88773150738712
-689.23354926956722,231.30322711768642,278.6498152852256
-597.32089052128276,-475.48675490274843,209.11848245223712
-267.75161378306808,-127.28429857259883,513.68306209655134
-415.94690259204958,-36.367597805816459,297.75278484845489
-581.40148313423754,-67.733430314196681,357.76980252703777
-596.19223627266626,-48.865055653897208,529.41042591049063
-524.59314598044875,-46.822439442735941,575.05227673701893
-486.39141046030363,-113.63763859798745,330.49650602934156
-527.7854336552416,-51.182037306799401,566.09788521796088
-446.85880528442027,-131.37557959814609,312.7557051871247
-651.4228566233287,-41.367397036093244,542.32202927538469
-460.49640733208173,-216.83789286200204,529.59360167109287
-558.36735240360019,-346.49578149567941,159.71957203121175
-690.06311830821835,-25.911816913277093,252.29530921326608
-153.32981785575609,47.138770312248489,274.46979937495752
-275.93417583416402,67.733430311848068,461.86016910627916
-642.53985697745122,-208.29932628243665,490.62159883493564
-419.12016934071403,-54.541301289782623,355.94819913686911
-389.85198418693494,8.0316833517941681,436.19844027998693
-684.34430185474685,115.18312770074446,384.9829879720271
-281.84383640997771,-19.547268567365247,107.28242741255912
-795.98145285934766,193.65396854259635,215.92872079279627
-481.86198745355586,-153.65033184849662,404.12764796774729
-597.32702972997004,-153.65033186468241,472.77025182473847
-707.79159407211193,-117.28336605138504,491.40833319399604
-582.32566596963113,141.37648877170963,377.30702791162503
-483.22574779511461,61.823802163989804,380.48913537273944
-415.94695081655397,-172.28838986039617,483.6802414752126
-348.66849102046291,-287.75388158909874,660.5140511743341
-522.32021093015601,284.57132466385531,265.02409309729063
-615.0554948191492,70.461507172100013,286.84501058995556
-667.28416582017803,61.248584827303745,448.85087990955373
-487.82339935399847,-112.3798358082106,246.11030265845341
-530.50993969994749,-372.76803813743851,547.31977039181493
-319.57450677333799,36.366942485289862,333.6666970084259
-150.46822438403035,221.38376216019788,240.02182016546527
-495.95417765250977,-233.20301845622282,507.77343394853955
-528.22974279178982,-245.02206202964953,490.49930870236426
-520.047436876353,-217.29262355631573,491.40804207992198
-631.42857190021607,39.090696321010427,335.47374365889505
-480.49822757842594,274.11582822479784,176.83425721176678
-314.28336740766747,-426.08063118416652,538.65672442637367
-172.74291298899971,9.5467169099643492,402.76430423862752
-654.37721753608412,-80.956357522883266,181.93138930008598
-307.30100843038105,-20.001818347121979,446.8581158785679
-544.14037632789518,88.189835535851671,365.48777174833953
-473.22656429189618,-188.65698132846322,-39.095644638029917
-284.11673788525883,-119.55632330211748,240.4764069460827
-497.27338808227915,-90.861198276155434,341.2090486722505
-210.0191237344082,-222.74755124035275,423.67484400350105
-477.77045112235413,33.639549418366457,362.30604710953639
-447.76797890717194,-100.46367851622665,571.4155832348365
-465.47351679478908,-83.165328193973295,635.52223359283482
-513.22774017696349,-107.28149726288412,75.917363267855208
-478.21052966584875,-86.345049393322654,471.41191473690486
-404.19342270907225,-194.37748984636573,447.63522066451492
-399.12660600705709,77.280390602323948,396.8550631259925
-690.58444844574001,-35.04584604870594,260.96752024267317
-788.70806436948476,-375.03409400854645,405.94601209309997
-357.50415909964215,-91.112286475893825,376.2380918449054
-415.03773070278788,-120.01091008273278,331.84834984998383
-214.11036829191983,-206.38239839985212,364.51941955571328
-687.78979438905105,336.39422235110737,357.305214173568
-382.67706221788575,-116.67552014355677,480.97096220868366
-652.78662080809841,15.910532445769984,360.94189763557762
-328.19201994604344,-325.40886497021251,466.00790262018899
-370.03463478474924,-43.186667691231271,402.30978523482344
-551.86828273277069,-294.11754019214749,314.57417443184545
-448.22256575410427,79.552689118680178,245.02227470093723
-482.08151291891693,-4.6637339894680077,342.15442123198096
-270.47913446676574,-14.092190199107181,233.20301845622035
-373.56666948535593,-163.45852068766399,491.11903630030884
-376.85247973188552,272.73793140829042,145.01315548506224
-134.58391702825344,-249.05080086864635,315.84156059062241
-577.47215581306841,-105.736748907266,313.4032959409393
-478.22480211364223,289.58669521462809,160.03723642374561
-397.30884625874859,99.099918174381301,142.28566233293392
-106.84971710291995,-68.19899237944685,230.55628700933747
-587.38953364052713,-98.310817621592079,493.95235898286205
-542.75959150351252,-173.27290708823671,464.96640721079353
-309.93693884666214,-92.258031600355466,212.89640085044965
-430.20770373547617,-220.49380398762318,463.58940774540781
-345.6197260055697,-217.3258922783391,481.76192580736739
-232.29384489563941,-232.7484316768774,407.30975543133292
-335.03016750005759,-157.28670822982201,579.59854638413015
-585.05318665332982,64.551322847533086,418.21983816710497
-764.16038426814316,-28.184326814187724,-26.365990673841932
-282.68698003752041,-45.376903901157704,366.48769185223773
-541.41285571412516,-125.92053823072023,466.40603691248208
-546.62507365219994,-122.05427777703208,546.16113076915883
-254.11401036533829,-20.001818347877009,202.29111737367819
-405.4914083098443,25.456859714520686,40.003636694242758
-559.91762788358506,-10.276066575824784,299.48826957421585
-534.13466141252366,-65.910216133451414,313.21343963230328
-260.08370666917716,-110.5864796486002,298.61360437163046
-527.7752522956589,-177.74343122101988,525.04773161196067
-337.11112707758019,-183.08909617433625,579.76219172535207
-416.40667507190625,24.087470399698013,367.2992666072044
-365.03339830473493,-222.2932080901378,419.58325310303769
-418.39796100737487,-238.61632097743407,366.66326368006924
-373.19311249082455,-198.61395283555154,162.62201536151258
-345.1062974561458,-160.46913355759662,337.91284090547191
-514.13764912729675,161.83289363007788,315.48322565159009
-190.93323550306704,237.74088038336814,417.75571069392521
-443.5107837329823,249.14065835239339,328.5101606334394
-663.24214889595601,154.55932552656006,28.184380398216099
-561.8692608418919,108.64624056732534,430.49368124374735
-370.49081809794171,-85.919565779015031,287.2961954284051
-739.61269223702777,-277.75252312989693,604.60041807559298
-484.58950813709902,-340.03091190108159,568.23347577052311
-465.04711219086244,-66.714924768638326,449.88939697299219
-509.593574777436,-80.465099360276341,339.11852842310242
-424.64222513765867,66.994080913607846,381.16864504169905
-555.95962960084626,-289.57177634340815,306.84607967230119
-422.09214342942693,290.81765741181329,473.91039562144209
-580.97468312882006,-166.39753074434017,245.44730690121287
-450.95008637148402,-72.279298118008981,295.02682062005317
-685.49258691926252,137.565811826268,370.9538426645052
-290.59481507533656,-132.28475315937575,232.40684489126502
-232.64997887023242,-54.911898229428253,241.99952404395259
-594.24326380355092,-187.05333663833375,487.0002251938547
-589.63664344262759,-47.766261949485354,224.07965788644836
-523.22868684909361,-229.11116644095114,95.009392850967345
-489.63065530618155,-148.3128555355338,552.64288433652689
-250.37988247706153,-50.823608471321648,219.55402018190503
-486.86268571676209,-60.460294359520752,280.93275505776995
-463.83478237408394,224.09575057982829,140.02255293814824
-577.37572978966682,-24.190355650092378,451.50534357004142
-586.31199819958397,122.66679542273071,145.23133368196753
-276.66121747765339,-137.86681390335985,244.63150007843606
-415.94690400279677,-49.549958689650154,416.85607833180507
-282.77403251734756,106.04063242690441,443.6993867752945
-711.42834768808007,43.185708317109011,366.39691624896102
-412.31020199306971,17.728892420821165,116.82880813322559
-441.54507206935097,-335.72185101240422,410.00366732244305
-332.32977545075238,-42.371673403941706,411.69387175320702
-371.85695478373384,-255.25572706343661,170.46622753271274
-536.8669879079896,27.275206836986996,497.31793818996829
-656.38791267489864,152.68223405685109,335.51521530135494
-589.48064889197337,139.55574708614276,463.63379969362512
-515.48370443352155,79.338768414395815,409.57085975070117
-476.42522586288794,16.798618832562401,433.19870374051828
-432.89686432143054,168.0683149458599,190.37799436126656
-479.48614981194584,-159.90545252389006,615.17887316642827
-386.85357559164947,90.917366998893215,351.39514171793837
-321.39644217726135,111.36888174963033,208.65077130223239
-339.1217383398469,30.002727520685248,297.29975452313749
-634.60314574051961,-75.917417065046052,612.78155556882837
-505.50049999355161,44.094917776100694,492.31748348055987
-444.08684339636193,-39.952973651143537,428.28932873282224
-616.87947640406287,-285.48639819946158,610.95674380703474
-378.24277350789083,-250.70590626064592,193.09429828816212
-564.18203241797869,-90.065937367749669,424.49979337066043
-494.28036482013056,-147.16915927741101,203.33932155881408
-299.4299186137398,-137.17553344766813,357.23619916031379
-535.52935521644372,-5.8000987838558506,650.9123048811274
-535.95775610417172,-160.46909221678249,706.42791532050092
-411.98730787609827,-51.414793194589137,418.05953407871976
-338.17009724964288,-176.3379849611612,83.672366165061575
-232.14124177654992,-116.04994657631022,255.88390911058477
-396.85425865906251,299.57269252155902,317.75618244340944
-665.06046004181871,58.64169469951986,453.22302027457067
-398.21801982000795,-280.93463042096846,526.86607873408104
-602.32107057780729,-269.10799827450791,379.13563733165716
-382.89040735674035,-67.871699312243166,277.57453026561745
-500.71983315317789,-207.48493810979988,517.2980871528423
-381.85289571778856,-219.11082825711301,384.12582962087413
-295.01806380328208,103.98554271950684,141.39338110874064
-375.13704579268034,-75.18352282312911,310.76640646905224
-383.21660223528289,-159.10537321574674,363.21491018706729
-372.29827975703,-285.46928532342474,331.40849244580806
-618.69574350686344,214.56158377743833,246.83746515485151
-531.4119465416353,240.93099372565018,554.5958723510663
-458.22645728902484,-93.19344727902201,370.48761795642253
-344.12219423687094,-164.56041529431786,387.76252297356001
