-787.99249530956308,-6738.586616635379,6047.5297060662697
-3502.188868042515,-359.5997498436501,4074.4215134458968
-1035.02188868042,-1566.6041275797288,3433.3958724202544
-2007.5046904315111,-825.51594746716194,3417.7611006879206
-4577.8611632270013,3564.7279549718533,2107.5672295184395
-1325.8286429018085,-2473.4208880550268,1944.9656035021799
-3145.7160725453282,587.86741713570711,-62.539086929332932
-372.10756722951476,-3001.8761726078706,2401.5009380862948
-3542.8392745465776,-87.554721701063087,1594.7467166979268
-4146.3414634146184,-15.634771732330853,3724.2026266416337
-2257.6610381488335,-1566.6041275797302,4315.1969981238162
-3614.7592245153078,953.72107567229511,2282.6766729205715
-3921.2007504690318,-847.40462789242974,3517.8236397748497
-3520.9505941213156,-2445.2782989368297,5159.4746716697782
-475.29706066290834,-3511.569731081921,-318.94934333959208
-1232.0200125078086,-515.94746716697705,859.9124452782911
-2520.3252032520213,-1150.719199499682,2723.5772357723467
-3796.1225766103676,1957.4734208880536,2020.0125078173819
115.69731081926498,-2958.0988117573384,2748.5928705440806
-3811.7573483427013,1338.3364602876759,2529.7060662914228
-3921.2007504690282,3373.9837398373938,2592.2451532207565
-2998.7492182614023,-2742.3389618511487,2648.5303314571465
-2426.5165728580314,-2554.721701063158,2854.9093183239429
-1238.2739212007416,1763.6022514071301,853.6585365853598
-3348.9681050656513,-109.44340212632478,1957.4734208880486
-2542.2138836772883,-506.56660412757566,1669.7936210131247
-3368.2307386998978,-454.61766753828158,3165.3936505590759
-1726.0787992495254,-2138.8367729831052,1810.5065666041205
-2098.1863664790376,-37.52345215759361,3789.8686679174393
-293.93370856784503,-1776.1100687929879,3039.3996247654741
-4488.6836455937,504.98907213216728,1030.0239080138097
-5778.6116322701519,3567.8549093183165,1328.9555972482724
-3880.5503439649692,284.55284552845353,2657.9111944965543
-5478.4240150093601,781.73858661663326,2557.8486554096212
-1669.793621013127,-362.72670419011291,2176.3602251407051
-2220.1375859912355,-256.41025641025459,2082.5515947467093
-1088.1801125703519,-3993.1207004377602,4502.814258911807
-2970.6066291432044,71.91994996873224,1085.0531582238832
-3236.3977485928585,-456.53533458411022,3771.1069418386355
-4115.0719199499536,1244.5278298936801,1622.8893058161252
-4909.3183239524496,2129.455909943712,2510.9443402126267
-3552.220137585975,719.19949968730225,2914.3214509068089
-3167.6047529705952,-1175.734834271414,3145.7160725453264
-5043.7773608505158,2367.1044402751663,1288.3051907442098
-3408.3802376485178,1616.6353971231997,2429.6435272044928
-5378.3614759224347,300.18761726078804,3971.2320200125018
-2332.7079424640315,46.904315196997246,1797.9987492182497
-2045.0281425891089,963.10193871169849,922.45153220762688
-3348.9681050656545,-387.74233896184802,3599.1244527829822
-5018.7617260787847,1419.6372732958041,1228.8930581613406
-4186.9918699186846,666.04127579737224,2270.1688555346977
-243.90243902438689,-2808.0050031269457,3133.2082551594649
-203.25203252031906,-2707.9424640400148,3061.2883051907356
-2773.6085053158131,-1400.875547217006,3799.2495309568349
-3721.0756722951746,-2611.0068792995553,2145.0906816760357
-4671.6697936210021,-603.5021888680418,2686.0537836147487
-3449.0306441525827,125.07817385866359,3330.2063789868544
-3686.6791744840411,575.3595997498436,2176.3602251407019
-3424.0150093808543,-1976.2351469668515,-112.57035647280235
-1444.652908067535,-2013.758599124448,3570.9818636647783
-1166.3539712320171,-1550.9693558473978,3245.7786116322545
-3183.2395247029281,1219.512195121948,794.24640400249723
-5187.6172607879771,3217.6360225140638,919.32457786115594
-2148.2176360225053,-2554.7217010631593,3802.376485303299
-3717.9487179487051,-106.31644777986057,2198.2489055659689
-3336.4602876797885,-1207.0043777360802,4074.421513445895
-1672.9205753595932,-2304.5653533458362,478.42401500937677
-3183.2395247029258,-3499.0619136960481,6463.4146341463211
-2582.8642901813532,-625.39086929330358,2695.4346466541506
-215.75984990618605,-3996.2476547842275,4196.3727329580852
-4803.0018761725851,984.99061913695891,2864.2901813633448
-3520.9505941213133,-78.173858661663786,1094.4340212632806
-4287.054409005611,1122.5766103814879,2010.631644777978
-262.66416512055707,-2179.4871794958553,3642.9018136335144
-3964.9781113195563,-1788.6178861788519,6616.6353971231865
-2370.2313946216314,-1885.5534709193182,3724.2026266416447
-4377.7360850531404,2973.7335834896762,1397.7485928705394
-3508.4427767354496,-1454.0337711069371,1153.8461538461534
-2338.9618511569583,-1385.2407754846702,4903.0644152595232
-2648.5303314571497,-56.285178236395133,2632.8955597248209
500.31269543465123,-5781.7385866166151,4033.771106941821
-3239.5247029393236,-1075.6722951844895,2310.8192620387645
-3495.9349593495785,-2148.2176360225062,4646.6541588492646
-5021.8886804252525,3055.0343964978042,1028.7679799874873
-3674.1713570981747,-390.86929330831549,3180.1125703564621
-3420.8880550343838,-46.904315196996961,3980.6128830518965
-2686.0537836147419,503.43964978111671,3974.3589743589632
-1100.6879299562136,-2435.8974358974297,3311.4446529080574
-1078.7992495309441,581.61350844277638,290.80675422138194
-4243.2770481550824,-1272.6704190118789,3886.804252657897
-156.34771732332592,-3574.1088180112451,3574.1088180112438
-3123.8273921200639,-400.25015634771455,3370.8567854909234
-1297.6860537836076,-1710.4440275171908,2123.2020012507728
-4402.7517198248743,2298.3114446529048,1766.7292057535869
-3114.4465290806666,1313.320825515945,1366.4790494058716
-4637.2732958098686,1332.082551594744,2995.6222639149414
-5165.728580362711,2007.5046904315157,2976.8605378361353
-2714.1963727329517,315.82238899312182,2576.6103814884214
-3317.6985616009874,-625.39086929330517,3292.6829268292563
-4505.9412132582747,-475.29706066291322,1238.27392120074
-4512.1951219512048,775.48467792370059,2720.450281425874
-4130.7066916822887,-991.24452782989067,4140.0875547216865
-1713.5709818636547,-1525.9537210756691,-165.72858036273126
-2332.7079424640292,178.23639774859549,1760.4752970606521
-4771.7323327079739,440.90056285173733,2220.1375859912041
-5809.8811181433584,-3033.1456008896203,5784.8656249506239
-2908.0675422138738,112.57035647279419,-616.01000625391498
-5694.1838649155461,4440.275171982481,1782.3639774859198
-4296.4352720450106,3702.3139462163786,337.71106941838315
-2420.2626641650982,-622.26391494684219,1597.8736710443982
-6385.2407754846599,2389.2799073306942,2523.4521575984909
-1819.8874296435199,-1094.4340212632849,2495.3095684802915
-5478.4240150093638,-5143.8398999374476,5944.3402126328729
-3036.2726704190027,-1960.6003752345157,3183.2395247029253
-2698.5616010006161,590.99437148217726,1413.38336460287
-519.07442151344185,-5494.0587867416998,2098.1863664790353
-2636.0225140712846,84.427767354602864,2495.3095684802952
-5741.0881801125506,2711.0694183864839,2041.9011882426425
-5331.4571607254366,1328.9555972482751,3449.0306441525804
-4124.4527829893577,-2254.5340838023758,3005.0031269543324
-3899.3120700437662,-1310.1938711694797,909.94371482174961
-3192.6203877423231,581.61350844277706,2388.9931207004242
-2817.3858579763137,1216.3852560738421,1103.8149070184277
-6194.4965603502033,4493.4333958724128,2157.5984990619122
-5469.043151969965,1885.5845242750945,209.50594121325096
-4515.3220762976744,559.72482801750959,1535.3345841150619
-1610.3814884302656,-1585.3658536585303,1019.3871169480897
-1735.4596622889242,-2001.2507817385813,1732.3327079424555
-4774.8592870543953,-4559.0994371482084,4349.5934959349415
-6325.8286429017962,794.24640400250007,384.61538461538026
-6707.3170731707087,2423.3896185115623,2808.0050031269461
-2423.3896185115627,722.32645403377148,1616.6353971231958
-4008.7554721700913,-719.19949968730396,3042.5265791119359
-2886.1788617886077,-96.935584740457287,2654.7842401500866
-5797.3733583489447,1763.6022514071294,3383.364602876788
-5988.1175734834087,212.63289555972923,5309.5684803001732
-4387.1169480925437,81.300813008129126,3026.8918073796021
-4984.3652282676512,-828.64290181363219,2639.1494684177492
-737.96122576609741,-2823.6397748592781,3771.1069418386387
-3993.1207004377634,825.51594746716364,43.777360850527351
-1491.5572232645329,312.69543464665981,2992.4953095684746
-2570.3564727954868,-878.67417135709445,3130.081300812994
-2592.2451532207524,-556.597873671039,4308.9430894308889
-1028.7679799874884,-1844.9030644152501,2370.2313946216304
-2232.6454033771015,-3292.6829268292586,3836.7729831144338
-4415.2595372107398,2360.8505315822308,628.51782363977031
-6072.545340838009,409.63101938711196,872.42026266415655
-2223.2645403377041,-1507.1919949968681,159.47467166978652
-3893.0581613508293,1297.6860537836121,2570.3564727954849
-4480.9255784865391,1882.4265165728557,1100.6879299562133
-7892.4327704815259,2923.7023139462094,1435.2720450281342
-3711.6948092557718,-1841.7761100687887,4115.0719199499536
-4130.7066916822896,1244.5278298936823,3186.3664790493945
-2310.8192620387595,662.91432145090857,1538.4615384615308
-4149.4684177610879,959.97498436522721,2367.1044402751659
-3111.3195747341956,1410.2564102564093,2263.9149468417677
-3033.1457160725363,2870.5440900562799,1626.0162601625932
-5325.2032520325047,78.173858661666628,3230.1438398999235
-2933.0831769856068,-4849.9061913695969,4430.8943089430704
-3023.7648530331371,847.40462789243122,2245.153220762973
-240.77548467791956,-1976.2351469668492,1410.2564102563992
-2495.3095684802888,-1419.6372732958062,3814.8843026891655
-659.78736710443002,62.5390869293362,3320.8255159474593
-3586.6166354178422,-4108.8180112777482,5409.6310193663767
-2973.7335834896685,-1200.7504690431472,3508.4427767354427
-4337.0856785490805,209.50594121325912,2614.1338336460167
-2470.2939337085554,-422.13883677298043,1175.7348342714095
-5850.5315822388829,-969.35584740462821,2851.7823639774679
-4399.624765478412,-1263.2895559724802,2726.7041901188118
-1550.9693558473975,-1563.4771732332626,1738.5866166353944
-4099.4371482176257,1200.750469043154,2332.7079424640374
-3139.4621638523981,-487.80487804877743,2592.2451532207588
-2867.4171357098071,1128.8305190744213,1951.2195121951179
-5706.6916823014171,909.94371482176496,4937.4609130706522
-6063.1644777986075,328.3302063789838,4008.7554721700944
-2238.8993120700316,-540.96310193870863,1888.680425265783
-3173.8586616635303,-1654.1588492807957,2173.2332707942314
-2338.9618511569647,112.57035647279555,1963.7273295809789
-4299.5622263914829,687.92995622263811,1766.7292057535874
-3126.9543464665257,-237.64853033145528,3592.8705440900449
-3417.7611006879188,-2263.9149468417713,1482.1763602251258
-1078.7992495309509,-2979.9874921825981,5506.5666041275654
-2914.3214509068043,1460.2876797998751,1366.4790494058736
-4136.9606003752206,165.72858036273055,4327.7048155096827
-3352.0950594121164,1857.4108818011262,3777.3608505315769
-3458.4115071919809,1078.7992495309559,-46.90431519700563
-3502.1888680425145,-1713.5709818636597,1319.5747342088678
-2301.4383989993662,-2023.139462163846,2523.4521575984904
-2485.9287054408878,-1010.0062539086856,3677.2983114446452
-1203.8774233896131,-1994.9968730456503,2833.020637898675
-3886.8042526578988,-1479.0494058786712,209.50594121324983
-494.05878674170788,-3655.4096310193754,3730.4565353345733
-3558.4740462789118,1497.8111319574734,1591.6197623514604
-4909.3183239524578,-1310.1938711694784,847.40462789242429
-4865.5409631019229,2160.7254534083763,2176.360225140706
-2639.149468417751,-4712.3202001250665,6185.1156973107945
-5994.3714821763342,3511.5697310819187,1629.1432145090639
-4415.2595372107435,981.86366479049161,2723.577235772349
-3908.6929330831649,-472.1701063164482,3267.6672920575224
-3633.5209505941093,225.14071294559346,1322.7016885553462
-2695.4346466541515,-1479.0494058786687,3245.7786116322604
-4896.8105065665877,2242.0262664165061,1869.9186991869858
-3958.7242026266281,687.92995622263902,3495.934959349589
-1485.3033145716013,-1313.3208255159427,2939.3370856785386
-4074.4215134458941,-512.82051282050804,2442.1513445903579
-3480.3001876172502,-1457.1607254534035,4534.0838023764709
-1006.8792995622168,-703.56472795496938,1529.0806754221276
-134.45903689805607,-2492.1826141338233,3261.4133833645901
-2989.3683552220009,68.792995622268165,3624.140087554712
-5228.2676672920379,716.07254534083654,3020.6378986866689
-4343.3395872420115,-134.45903689806048,2279.549718574096
-4127.5797373358228,-878.6741713570965,422.13883677297321
-1572.8580362726652,-459.66228893057962,1550.9693558473978
-1225.7661038148797,-3345.84115071919,5222.013758599106
-2348.342714196363,87.554721701065361,2016.885553470911
-2210.7567229518331,-59.412132582861759,1247.6547842401433
-2739.2120075046801,121.95121951219717,-666.04127579737678
-3755.4721701063054,-1041.2757973733558,3442.7767354596531
-1973.1081926203801,-56.285178236398473,1360.2251407129411
-2057.5359599749772,-487.80487804877782,87.554721701062377
-3417.7611006879188,1394.6216385240757,1572.8580362726655
-2789.243277048146,-766.10381488430289,-903.68980612883979
-4180.7379612257482,2307.6923076923031,731.70731707316372
-2676.6729205753495,-453.40838023764672,3026.8918073795953
-4696.6854283927278,1738.5866166353935,1969.9812382739085
-2611.0068792995521,-1335.2095059412072,3452.1575984990504
-4271.4196372732786,-1144.4652908067546,956.84803001875093
-303.31457160725313,-3489.6810506566485,3308.3176985615901
-1919.949968730449,-4249.5309568480188,4984.3652282676558
-3833.6460287679683,-459.66228893057786,1973.1081926203829
-3871.1694809255646,-1282.051282112526,2951.8449030644038
-3261.4133833645901,-4662.2889305815997,7323.3270794246191
-722.3264540337633,-2573.4834271419554,3236.397748592859
-3483.4271419637153,-2385.8661663539697,2507.8173858661526
-6344.5903689805946,1028.7679799874875,966.22889305815545
-650.40650406503755,-759.84990619136772,1303.9399624765379
-3783.6147592245043,-2904.9405878674106,5247.0293933708363
-3314.5716072545192,-2404.6278924327603,4990.6191369605867
-2761.1006879299466,-378.36147592244703,447.15447154471531
-2876.7979987492122,-3868.0425265791009,2845.5284552845378
-3161.3508442776597,-434.64665415884855,1285.1782363977441
-666.04127579736996,-2489.055659787361,850.53158223889409
-1513.4459036897952,-5622.2639149468268,5028.1425891181807
-3080.0500312695317,-1976.2351469668463,5059.4121325828473
-5134.4590368980453,425.26579111944847,-575.35959974985292
-4061.9136960600235,-1147.5922451532144,4290.1813633520787
-228.26766729205593,-2207.6297686053731,440.90056285177241
-2673.5459349198759,856.78552290229527,2060.6629354880965
-2145.0906816760394,-1763.6022514071221,2945.590994371466
-4380.8630393996064,709.81863664790785,4818.6366479049266
-1550.9693558473996,-415.88492808004526,2698.5616010006229
-3014.3839899937384,-2904.9405878674106,3186.3664790493945
-2138.8367729831048,-922.4515322076245,1457.1607254533985
-3946.2163852407634,-4480.9255784865436,5694.1838649155497
-1235.1469668542793,-2617.2607879924872,2360.8505315822285
-691.05691056910212,-2357.7235772357649,2154.4715447154363
-2329.5809881175605,-3436.5228267667208,4912.4452782989192
-2692.3076923076828,-881.80112570356573,-193.87116948093319
-2363.9774859286963,-62.539086929329805,3930.5816135084342
-3761.726078799235,231.39462163852713,2567.2295184490185
-3739.8373983739707,-1019.3871169480891,2420.2626641650868
-3148.8430268917955,-1616.6353971231952,3968.1050656660345
-3602.2514071294463,419.01188242651796,2739.2120075046796
-1216.3852407754789,-1735.4596622889253,2510.944340212623
-3005.0031269543374,-1210.131332082547,2892.43277048154
-3327.0794246403907,694.18386491557021,393.99624765477944
-5766.1038148842899,1929.3308317698468,2573.4834271419577
-4371.4821763602113,1125.7035647279572,3680.4252657911102
-4474.6716697936008,1291.43214509068,2923.702313946204
-4293.3083176985474,1253.9086929330813,3008.1300813008002
-3802.3764853032967,-813.0081300812974,4008.7554721700963
-6482.176360225114,-947.46716697935904,4324.5778611632168
-2895.5597248280083,-819.26203877423188,1604.1275797373246
-4674.7967479674635,-1128.8305190744168,2939.3370856785373
-3495.9349593495795,1616.6353971232024,1826.1413383364566
-2207.6297686053708,-956.84803001875946,2020.012507817373
-1779.2370231394545,-2557.8486554096207,3214.5090681675924
-2071.5710797824677,-235.91714236574413,1765.7947155158736
-2482.8017510944242,-2132.5828642901715,3336.4602876797862
-4074.4215134458877,-916.1976235146966,4477.7986241400695
-4171.3570981863486,3176.9856160099989,606.62914321450467
-1732.3327079424585,-1525.9537210756685,2792.3702313946105
-2035.64727954971,40.650406504061294,-350.21888680425803
-528.45528455284045,-2201.375859912438,2066.9168230143728
-1297.7401918089092,-3394.6412889988269,3663.7613754795057
-3017.5109443402062,-2520.3252032520313,-256.41025641026727
-2048.1550969355735,-40.650406504065344,1210.13133208255
-2917.4484052532753,1378.9868667917417,1744.8405253283274
-3949.3433395872266,706.69168230143907,2992.4953095684714
-2198.2489055633396,262.6641651059723,2482.8017510982841
-4537.2107567229395,-159.47467166979291,1869.9186991869799
-2460.9130706691562,-347.09193245778596,306.44152595371821
-3893.0581613508307,-1669.7936210131286,4102.5641025640944
-3145.7160725453355,-2711.0694183864885,1829.2682926829159
-1353.9712320200053,-4290.1813633520842,2038.77423389617
-2523.4521575984882,-1235.1469668542836,3120.7004377736007
-3843.0268918073721,-1844.9030644152563,1557.2232645403355
-3458.4115071919855,1826.1413383364579,1200.7504690431497
-165.72858036272447,-3749.2182614133699,3317.6985616009893
-4981.2382739211862,-794.24640400249723,4571.6072545340676
-3355.2220137585905,2460.9130706691676,-387.74233896185541
-4471.5447154471394,1163.2270168855521,1651.0318949343282
-1766.7292057535883,1350.8442776735446,2170.1063164477741
-1385.2407754846708,-259.53721075672053,2376.4853033145669
-2776.7354596622772,-125.07817385865847,1894.9343339587178
-891.18198874295661,-2961.2257661038016,4656.0350218886688
-1025.6410256410215,-2582.8642901813541,243.90243902437803
-4352.720450281412,31.269543464665826,3214.5090681675947
-6181.9887429643304,3076.9230769230699,2654.784240150082
-1694.8092557848574,-356.47279549718274,1482.1763602251331
-2886.1788617886082,-4759.2245153220638,2329.5809881175614
-428.39274546591275,-2732.9580988117518,1507.1919949968608
-1375.8599124452717,-2992.4953095684714,3730.4565353345733
-1691.6823014383922,-1313.3208255159436,2567.2295184490172
-3796.1225766103689,162.60162601625953,1801.1257035647193
-2926.8292682926749,-2548.4677923702243,3058.1613508442656
-4130.7066916822905,-800.50031269543217,4656.035021888667
-4552.8455284221955,-931.83239520214102,2351.4696686048433
-3774.2338961851056,-403.3771106941806,2889.3058161350746
-1716.6979362101215,106.31644777986668,1616.6353971231922
-3202.0012507817246,1513.4459036898029,2182.614133833637
-1710.4440275171921,-1053.7836147592195,2016.8855534709112
-3974.3589743589628,-556.59787367104127,3208.2551594746578
-3595.9974984365113,-325.20325203251952,112.570356472787
-3864.9155722326332,-281.42589118198606,3602.2514071294472
-1056.9105691056845,-1963.7273295809821,3480.3001876172516
-5578.4865540962919,3499.0619136960527,2354.5966228892953
-2023.1394621638467,-1288.305190744207,1519.6998123827307
-4918.699186991862,-1560.3502188868026,2276.4227642276333
-2970.6066291432039,-1194.4965603502144,3458.4115071919828
-4740.4627892432582,2667.2920575359567,1651.0318949343298
-2654.7842401500811,-318.94934333958406,1525.9537210756641
-4684.1776110068613,3705.4409005628449,972.48280175108994
-2742.338961851146,-1794.8717948717897,1472.795497185728
-5581.6135084427633,-759.84990619137022,2854.9093183239356
-1941.838649155713,-559.72482801750618,3361.4759224515228
-2007.5046904315111,-1338.3364602876729,2961.2257661038052
-3533.3983952476942,365.92275620375455,-37.436191675062915
-2883.0519074421391,703.56472795497416,4068.1676047529641
-1516.5728580362666,-4821.7636022513934,4584.115071919935
-5756.7229518448848,-403.37711069418043,5322.0762976860406
-3702.3139462163717,-256.41025641025658,2313.9462163852309
-3949.3433395872285,393.99624765478546,2148.2176360225067
-2442.151344590357,65.66604127579906,1654.1588492807939
-1810.5065666041171,722.32645403377228,1419.6372732957984
-2063.7898686679064,-1200.7504690431458,3549.0931832395095
-1819.8874296435165,-2060.662914321445,3280.1751094433885
-5343.9649781113039,-628.51782363977577,838.02376485302943
-5400.2501563477026,2113.8211382113786,68.79299562226106
-509.69355847404131,-4033.7711069418251,4412.1325828642757
-3617.8861788617774,-950.59412132583157,362.72670419011439
-5916.1976235146767,318.94934333958952,4790.4940587867295
-2213.883677298305,-184.49030644152421,1794.8717948717851
-1371.9406494127084,-2244.9656066022881,4438.735988495464
-2038.7742338961759,-318.9493433395844,2038.774233896178
-1988.7429643527125,-494.05878674170987,2417.1357098186295
-4349.5934959349461,-100.06253908693051,2476.5478424014877
-2551.5947467166884,-1848.0300187617211,2001.2507817385758
-2485.9287054408892,281.42589118199191,1985.6160100062502
-4627.8924327704663,5046.9043151969836,-425.26579111945421
-3855.5347091932322,-1278.9243277048063,5400.2501563477026
-8126.9543464665185,-2229.5184490306392,4568.480300187598
-4030.6441525965565,1979.3621013127179,1835.522201374057
-1091.3070669168164,-3839.8999374609002,4771.7323327079257
-2460.9130706691612,-4240.1500938086219,4671.6697936209976
-3989.9937460912929,1960.6003752345216,1197.6235146966787
-4853.0331457160582,2248.2801751094435,2617.2607879924908
56.285178236396185,-6438.3989993745909,5644.1525953720893
-825.51594746716069,-3011.2570356472697,834.89681050655588
-2357.7235772357653,-1397.7485928705385,2598.4990619136897
-3192.6203877423286,-2313.946216385234,3108.1926203877297
-2714.1963727329471,1035.021888680423,1694.8092557848577
-4865.5409631019247,-737.96122576610105,2207.6297686053658
-3871.1694809255659,-209.50594121325665,3070.6691682301307
-4308.9430894308834,-2845.5284552845465,3458.4115071919791
-3058.1613508442692,56.285178236395105,1382.113821138202
-2188.8680425265661,2495.3095684802984,2707.9424640400171
-1341.4634146341421,-1450.9068167604714,2213.8836772983
-4702.939337085666,-65.666041275797426,2267.0419011882336
-5247.029393370839,-1094.4340212632876,1510.3189493433272
-1325.8286429018087,-906.81676047529436,218.88680425265099
-5362.7267041901014,891.18198874296274,1738.586616635389
-2445.278298936822,612.8830519074445,3089.4308943089363
-1857.410881801113,1078.7992495309572,888.05503439649101
-2870.5440900562758,-1200.7504690431476,913.07066916822441
-4590.3689806128677,447.15447154471445,3564.7279549718478
-4140.0875547216865,1425.891181988743,1660.4127579737269
-2104.440275171974,-1732.33270794246,3774.2338961851056
-5600.3752345215626,656.66041275797113,2448.4052532832934
-2223.2645403377023,-1572.8580362726666,1663.5397123201951
-4315.1969981238162,778.61163227016891,4330.8317698561495
-5021.8886804252534,-994.37148217636036,2220.137585991235
-5259.5372107567046,425.26579111944937,4527.8298936835399
-7392.1200769638699,3176.9856144125119,2689.1807357247326
-1973.1081926203776,-931.83239524702481,2082.5515947467097
-4690.4315196997995,59.412132582861332,750.46904315196537
-4621.6385240775344,681.67604752970556,3939.9624765478329
-3879.1782772050278,-1211.2166623939609,1859.4477983776399
-2451.532207629763,-447.15447154471241,406.50406504064409
-3173.8586616635316,181.36335209506001,625.39086929330688
-1375.8599124452712,-1550.9693558473991,894.30894308942243
-2926.8292682926744,-741.08818011256847,515.94746716697455
-2667.2920575359458,-68.792995622262055,2945.5909943714737
-2976.8605378361353,112.57035647279695,3245.7786116322559
-4349.5934959349452,128.20512820512914,3739.8373983739684
-4527.829893683539,1998.1238273921174,1613.5084427767235
-4193.2457786116211,2414.008755472164,1257.0356472795434
-2476.5478424014932,-3373.9837398373857,5078.1738586616466
-4355.8474046278716,1588.4928080050024,1885.5534709193178
-487.80487804877322,-2911.1944965603402,2817.3858661663457
-1347.7173233270712,-1335.2095059412068,2110.694183864905
-3245.7786116322595,-503.43964978110932,2323.3270794246318
243.90243902439136,-2714.1963727329467,2317.0731707316968
-5165.7285803627155,-778.61163227017096,997.49843652282266
-4346.4665415884774,-187.61726078799234,2754.8467792370107
-822.38899312069464,-2923.7023139462021,3358.3489681050592
-3777.3608505315747,-431.51969981238483,-322.07629768606228
-400.25015634771285,-2010.6316447779802,4143.214509068157
-3373.9837398373875,697.31081926203808,165.72858036272234
-2326.4540337710946,-1156.9731081926143,3533.4584115071821
-6635.3971232019776,3180.112570356468,1475.9224515322032
-1141.3383364602789,-359.59974984365095,1879.2995622263854
-4552.845528455272,372.10756722951834,850.5315822388925
-6250.7817385865974,1982.4890556597825,3273.9212007504566
-3524.0775484677788,-1500.9380863039341,4446.5290806754074
-2485.9287054408901,-2367.1044402751609,6957.4734208880354
-3908.6929330831658,-866.16635397122775,3073.7961225765994
-1776.1100687929879,-1976.2351469668497,2085.6785490931716
-4080.6754221388219,2351.4696685428389,1851.1569731081897
-3999.3746091306939,675.42213883677186,2226.3914946841696
-4149.4684177610934,734.8342714196358,1366.4790494058734
-3458.4115071919805,1613.5084427767315,1353.971232020006
-3164.4777986241297,-1432.1450906816763,1697.9362101313216
-4878.0487804877957,-2151.3445903689781,-472.17010631645655
-5991.2445278298746,3545.9662288930544,2426.5165728580273
-5381.4884302688961,494.05878674171373,3739.8373983739707
-353.34584115071431,-2342.0888055034297,1954.3464665415761
-4418.3864915572076,340.83802376485249,2382.7392120074969
-4405.878674171342,1579.1119449655987,1885.5534709193121
-3896.1851156972962,-1772.9831144465197,6560.3502188867888
-1694.8092557848611,134.45903689806431,1879.2995622263859
-1353.971232020011,-1913.6960600375155,1869.9186991869851
-2642.2764227642178,-406.50406504065018,1663.5397123201903
-3480.3001876172525,-87.554721701064224,2301.4383989993653
-2073.1707317073046,-1810.5065666041198,3564.7279549718455
-3924.3277048155005,-581.61350844277604,387.74233896184546
-4493.4333958724046,-544.09005628517673,2176.3602251406996
-822.38899312069441,-3286.4290181363217,3583.4896810506475
-2435.8974358974278,-2198.2489055659707,3298.936835522185
-2342.0888055034343,-2007.5046904315179,-794.24640400251201
-2232.6454033771015,-762.97686053783457,1591.6197623514643
-3742.9643527204339,-9.380863039397461,4737.3358348968013
-6078.7992495309363,-656.66213188748895,2223.2645403376982
-1394.6216385240696,93.808630393997333,800.50031269543172
-2567.2295184490231,-1882.4265165728493,2564.1025641025576
-2632.8955597248191,-2892.4327704815441,4818.636647904922
-3264.5403377110529,838.02376485303341,2992.4953095684655
-2257.6610381488354,-375.23452157598069,1429.0181363352067
-5384.6153846153611,3455.2845528455205,1985.616010006248
-3355.2220137585887,612.88305190744063,2026.2664165103124
-1944.9656035021799,-2110.6941838649091,5412.7579737335709
-1085.0531582238816,-4740.4627892432636,5028.1425891181807
-1547.8424015009268,-1510.3189493433335,2357.7235772357685
-3536.5853658536448,253.28330206379195,906.81676047529152
-900.56285178235896,-3727.3295809881042,2464.0400250156235
-2332.707942464026,137.58599124453264,2182.6141338336397
-1541.5884928079977,-1819.8874296435192,3101.9387116947992
-3508.4427767354487,-306.44152595372003,2388.9931207004302
-5919.3245778611436,1288.3051907442118,787.99249530956229
-4731.0819262038649,888.05503439649601,1194.4965603502167
-1929.3308317698497,-1979.3621013133163,40.650406504058886
-4352.7204502814147,-1138.2113821138171,1751.0944340212557
-2210.7567229518372,1529.0806754221358,1400.8755472170051
-4487.1794871794718,-2582.864290181355,5650.4065040650257
-7010.6316447779618,1710.4440275171955,1794.8717948717847
-2954.9718574108711,153.22076297686195,3899.312070043768
-1566.6041275797322,-1641.6510318949304,3223.8899312069921
-4934.3339587241908,662.91432145090323,850.53158223889136
-6.2539086929292731,-4277.6735459662132,3752.3452157598399
-4080.6754221388223,1413.3833646028756,2267.0419011882332
-2029.3933708567799,331.45716072545315,-243.90243902439548
-3271.6746540326944,-3324.8008630997638,3639.3186480612544
-5863.0393996247503,3577.2357723577134,-981.86366479049559
-2454.6591619762266,1063.1644777986262,1378.986866791736
-3727.3295809881001,1701.0631644777982,3311.4446529080578
-4831.144465290794,-2582.8642901813573,3352.0950594121155
-5791.1194496560156,4953.0956848029928,1325.8286429018085
-3702.3139462163704,-1588.4928080049949,5087.554721701048
-3420.8880550343838,-65.666041275800268,597.24828017510242
-3023.7648530331339,-819.26203877423063,3073.7961225766012
-4402.7517198248761,-872.42026266416713,-143.83989993746766
-1219.5121951219464,-600.375234521572,2198.2489055659739
-1091.3070669168142,-747.3420888055,1691.6823014383879
-3176.9856160099957,-1885.55347091932,1716.6979362101233
-3005.0031269543365,325.20325203251849,459.66228893057672
-3076.9230769230667,-187.61726078799012,3398.9993746091168
-3367.7298311444533,-1763.6022514071251,2848.6554096310074
-3514.6966854283778,-1269.5434646654112,3320.8255159474534
-4690.4315196997986,-2026.2664165103158,1207.0043777360759
-1454.0337711069369,-1325.8286429018094,1888.6804252657828
-4696.6854283927323,-803.6272670419005,3646.0287679799803
-1444.6529080675366,-2379.6122576610301,2936.2101313320709
-46.904315196992272,-2820.5128205128085,2679.7998749218136
-2704.8155096935461,722.32645403377057,-537.83614759224849
-5140.7129455909799,-481.5509693558455,2489.0556597873565
-3989.9937460912956,-1532.2076297686028,4546.5916197623374
-3680.4252657911088,243.90243902439121,1203.8774233896045
-1688.5553470919253,-1307.0669168230104,2020.0125078173799
-2279.5497185740974,-1385.2407755335237,3189.4934333714314
-2651.6572858036166,-744.21513445903327,2867.417135709808
-3048.7804878048682,56.285178236399823,2904.9405878674083
-3843.0268918073721,-3652.2826766729104,4912.4452782989147
-3076.9230769230662,-1047.5297060662892,1797.9987492182545
-3430.2689180737802,809.88117573483316,2123.2020012507737
-3433.3958724202521,422.13883677298247,2901.8136335209397
-4652.9080675422038,1422.7642276422716,3220.7629768605275
-3799.2495309568326,-93.808630393996836,1485.3033145715995
-4606.003752345202,-1044.4027517198233,3098.81175734833
-1203.8774233896115,-2113.8211382113723,2607.8799249530925
-1178.8617886178797,1247.654784240151,3217.6360225140656
-2010.6316447779793,-1538.4615384615331,2620.3877423389504
-1447.7798624140028,-253.28330206378811,-759.8499061913717
-3289.5559724827899,1679.1744840525319,2226.3914946841746
-3714.8217636022409,-303.31457160725284,2636.0225140712837
-4868.6679174483916,575.3595997498403,1394.6216385240637
-2742.3389618511474,-1935.5847404627859,1410.2564102563963
-1954.3464665415818,-1119.4496560350169,2085.6785490931793
-7032.5203252032316,-2670.4190118824208,1951.2195121951079
-1938.7116948092494,-1238.2739212007468,2395.247029393362
-3530.3314571607116,-1303.9399624765429,2904.9405878674047
-2057.5359599749754,-2836.1475922451432,4631.0193871169331
-4343.3395872420169,-1766.7292057535965,1519.6998123827336
-2917.4484052532734,-691.05691056910268,3195.7473420887982
-850.53158223889363,-2073.1707317073069,2667.2920575359503
-2260.7879924952999,-997.49843652282289,2088.805503439643
-5184.4903064415121,-459.66228893058042,5234.5215759849725
34.396497811135717,-1466.5415884928016,1463.4146341463338
-3611.6322701688428,-3567.8549093183165,2873.6710444027376
-2714.1963727329521,-1644.7779862413972,2260.7879924952995
-1325.8286429018085,-709.81863664789796,1416.5103189493334
-2729.8311444652791,-209.50594121325608,1969.9812382739126
-3114.4465290806643,-4509.0681676047398,6716.6979362101083
-3708.5678549093063,337.71106941838758,4027.5171982488914
-2795.4971857410756,-1638.5240775484615,1388.367729831135
-1010.006253908683,-2032.5203252032391,4915.5722326453888
-1572.8580362726595,-603.50218886803498,-9.3808630394069787
-43.777360850524659,-1260.1626016260093,1141.3383364602805
-1960.6003752345107,472.17010631644791,2088.8055034396398
-2548.4677923702188,519.07442151344435,312.69543464664577
-3483.4271419637166,-772.35772357723454,3186.3664790493976
-3186.3664790493967,-500.31269543464327,2732.9580988117445
-1328.9555972482676,-675.42213883676925,3702.3139462163813
-465.91619762350643,-1382.113821138202,3664.7904940587728
-2673.5459662288872,-1038.1488430268889,866.16635397122491
-3761.7260787992395,-2851.7823639774797,2360.8505315822267
-2357.7235772357644,-2789.2432770481478,5959.9749843652144
-2435.8974358974215,-1848.0300187617165,6385.2407754846654
-3039.39962476547,-1582.2388993120694,331.45716072544582
-1860.5378361475844,-2507.817385866163,666.04127579736746
-4027.5171982488905,-153.2207629768584,2751.7198248905434
-4280.8005003126782,2808.0050031269475,2520.3252032520281
-2360.8505315822295,-734.83427141963091,2435.8974358974278
-3389.618511569719,-444.02751719824596,3714.8217636022373
-997.49843652282163,118.8242651657329,3370.8567854909247
-4727.954971857399,-1538.4615384615327,5046.9043151969836
-3536.585365853648,828.64290181363208,3180.1125703564667
-1303.9399624765406,759.84990619136533,440.90056285177968
-4909.3183239524569,1916.823014383983,622.26391494683446
-3292.682926829254,150.09380863039786,4874.9218261413253
-944.34021263288957,-550.34396497810724,1788.6178861788537
-4812.3827392119947,-1438.3989993746061,3608.5053158223727
-1113.1957473420853,-1410.2564102564072,-647.27954971857901
-625.39086929330279,-1794.871794871782,2595.3721075672206
-1741.7135709818538,419.01188242651483,1369.6060037523434
-2692.3076923076819,-3614.759224515316,831.76985616008619
-3914.9468417760881,619.13696060037557,3671.0444027517092
-2754.8467792370125,-662.91432145090153,3167.6047529705952
-1719.8248905565924,-1935.5847404627823,2911.1944965603388
-6203.8774233896038,1772.9831144465227,1879.2995622263854
-3999.3746091306962,-15.634771732333411,2367.1044402751622
-3924.327704815496,1688.5553470919292,1232.0200125078095
-4552.8455284552756,37.523452157598577,2088.8055034396384
-1163.2270168855473,1097.5609756097576,1447.779862414005
-3946.2163852407657,872.42026266416201,950.59412132581679
-3433.3958724202489,1163.2270168855516,1666.6666666666652
-4152.5953721075512,2191.9949968730416,2476.5478424014905
-2445.2782989368238,-1210.1313320853219,1010.0062539086852
-1575.9849906191284,-1385.240775484669,2742.3389618511465
-3860.0027563760914,-967.95809313939424,1599.8330944115457
-3126.954346466533,-1325.8286429018078,3714.8217636022409
-6838.6491557223035,1894.9343339587215,1479.0494058786669
-4599.7498436522665,737.96122576610378,3508.4427767354473
-2611.0068792995539,-3511.5697310819173,1685.4283927454551
-2786.1163227016787,2370.231394621635,1153.8461538461454
-2954.9718574108711,1550.9693558474034,619.13696060036875
-2248.2801751094275,-384.61538461538385,440.90056285178008
-2232.6454033770974,-2601.6260162601516,6153.846153846137
-3389.6185115697203,1913.6960600375223,1316.4477798624132
-3464.6654158849133,15.634771732334546,3742.9643527204362
106.31644777986568,-2729.8311444652823,2267.0419011882323
-3689.8061288305057,487.8048780487818,3364.602876797986
-3120.7004377735961,-703.56472795496836,1948.0925578486524
-5437.7736085052957,-53.158223889930355,4055.6597873670912
-4796.7479674796632,444.02751719824585,900.56285178235714
-3017.5109443402043,-778.61163227016584,3176.9856160099985
-3696.0600375234412,-1235.1469668542809,3649.1557223264399
-5210.9470591108548,1785.3920236000199,2695.8577088471452
-3752.3452157598381,46.904315197000088,2460.9130706691653
-2554.7217010631543,-3661.6635397123109,3824.2651657285664
-4984.3652282676476,2482.8017510944287,2632.8955597248187
-5831.7698561600891,-1100.6879299562233,-297.06066291433336
-2157.5984990618986,-2313.9462163852322,5031.2695434646521
-2032.5203252032418,909.94371482176416,1247.6547842401467
-4196.372732958087,-2726.7041901188163,4684.1776110068668
537.83614759225077,-4262.0387742338798,3436.5228267667148
-2970.6066291432039,115.69731081926371,2933.0831769856072
-1582.2388993120651,1313.3208255159477,1253.9086929330779
-5634.7717323326915,894.30894308942834,1732.3327079424585
-2951.8449030644056,-550.34396497810928,1378.9868667917447
-569.10569105690217,-3298.9368355221891,4424.6404002501431
-5991.2445278298774,3664.7904940587823,1463.4146341463345
-2185.7410881801056,-2001.2507817385815,2651.6572858036166
-3802.3764853033053,3058.1613508442724,938.08630393995998
-3586.6166353971103,290.80675422138762,1741.7135709818617
-4065.0406504064945,-78.173858661663786,-462.78924327704789
-4884.3026891807212,-168.85553470919663,2592.245153220751
-4183.8649155722151,-931.83239524702401,4587.2420262664064
-1729.2057535959875,587.86741713571109,1297.6860537836076
-5816.1350844277522,1835.5222013758539,2676.6729205753527
-1844.9030644152526,181.36335209505816,-21.888680425272202
-3480.300187617247,1203.8774233896174,2323.3270794246323
894.30894308943391,-5734.8342714196224,5290.8067542213676
-4215.1344590368826,365.85365853658533,2467.1669793620913
-2539.0869293308219,-666.04127579737099,1635.3971232019937
-250.15634771731865,-4862.4140087554597,4393.3708567854746
-2220.1375859912359,-2961.2257661038043,4437.1482176360078
-2041.9011882426439,-791.11944965603107,503.43964978110751
-3220.7629768605266,963.10193871169031,-909.94371482176393
-2904.9405878674061,225.14071294559233,2523.4521575984918
-1998.123827392114,-1260.1626016260118,925.57848655408782
-2088.8055034396452,-1353.9712320200065,3577.2357723577065
-4846.7792370230718,3011.2570356473357,318.94934333966722
-2842.4015009380728,446.7878923524039,2892.4327704815391
-2095.0594121325748,-309.56848030018551,569.10569105690558
-431.51969981237221,-2742.3389618511465,2320.2001250781664
-1898.0612883051826,-1413.3833646028706,2051.2820512820399
-2138.8367729831029,106.31644777986455,1604.127579737328
-4065.0406504064858,1291.4321450906798,2035.647279549712
-2157.5984990619086,-706.69168230143657,2151.3445903689721
-4824.8905565978548,1829.2682926829223,2614.1338336460199
-3123.8273921200635,925.57848655410089,2629.7686053783591
-1991.8699186991755,-2720.4502814258813,1804.2526579111875
-3520.9505941213124,1794.8717948717915,3646.0287679799785
-594.12132582863637,-1869.9186991869833,1804.252657911188
-1513.445903689797,-844.27767354596267,3001.8761726078706
-4155.722326454018,1191.369606003753,1885.5534709193171
-4283.9274546591469,1404.0025015634756,2542.2138836772888
-3345.8411507191931,-3542.8392745465812,5431.5196998123656
-3023.7648530331394,-1300.8130104207528,1135.0844277673493
-4602.8767979987369,65.666041275800126,3780.4878048780411
650.40650406503869,-6047.5297060662751,4052.5328330206216
-2357.7235772357617,619.13696060037569,1575.9849906191318
-7307.6923076922867,-872.4202626641644,1441.5259537210604
-4709.1932457785979,3023.7648530331403,2191.9949968730421
-2176.3602252014934,-1003.7523452157582,34.396497730074891
-2648.5303314571474,859.91244527829951,2210.7567229518363
-5403.3771106941676,1194.4965603502158,1669.7936210131254
-1819.8874296435179,-4652.9080675422001,2429.6435272044951
-2157.5984990619058,-1228.8930581613467,497.18574108817268
-1010.0062539086854,-2520.3252032520231,3705.4409005628381
-3486.5540963101835,-1679.1744840525271,1222.6391494684087
-3721.0756722951705,-200.12507817385406,4277.6735459662141
-3939.9624765478266,1494.6841776110011,2579.7373358348859
-1475.9224515321991,-2332.7079424640301,2670.4190118824185
-2954.9718574108715,159.47467166979163,2598.4990619136852
-2661.0381488430148,-1460.2876797998701,3311.4446529080556
-4893.6835522201236,259.53721075672001,2529.7060662914232
-2992.4953095684709,-3564.7279549718464,3749.2182614133699
-5600.3752345215598,1066.2914321450876,2229.5184490306415
-2767.3545966228803,-1407.1294559099399,2976.860537836134
-5375.2345215759688,3395.872420262654,-816.1350844277714
-2376.4853033145614,-3664.7904940587746,4734.2088805503263
-3836.7729831144338,-3111.3195747342002,2510.9443402126176
-697.31081926203512,-4368.3552220137472,4011.8824265165581
-5465.9161976234982,1769.8561601000583,3173.8586616635325
-841.15071919949457,-3746.0913070669044,3233.270794246389
-906.81676047529322,-3070.6691682301366,3198.8742964352618
428.39274546591616,-2332.707942464031,1535.3345841150615
-1197.6235146966767,-150.09380863039141,2789.2432770481514
-4430.8943089430795,-606.62914321450978,1372.7329580988023
-3055.0343964977997,528.45528455284477,2423.3896185115696
-2886.1788617886082,-318.94934333958372,2611.0068792995517
-3746.0913070669094,-334.58411507191875,-40.650406504073089
-2786.9000681739822,-34.396497811134864,886.48754345188615
-1253.9086929330717,-1035.0218886804207,1669.7936210131215
-1257.0356472795452,-3724.2026266416387,1969.9812382739092
-5734.8342714196224,916.19762351469478,-143.83989993746732
-2667.292057535949,1438.3989993746068,3.126954346461511
-3680.4252657911052,-1081.9262038774186,4590.3689806128659
-1757.3483427141857,-168.85553470918967,1313.3208255159432
-4262.0387742338735,2051.2820512820481,2557.8486554096207
-4227.6422764227509,-4208.8805503439517,4656.0350218886661
-781.73858661663076,-2079.4246404002415,2023.1394621638426
-2323.3270794246264,93.808630393997532,1932.4577861163127
-562.85178236397564,-2229.5184490306383,2338.9618511569647
-2035.6472795497141,-2404.6278924327626,153.22076297685825
-4690.431519699795,1563.4771732332654,-340.83802376486017
-3355.2220137585859,1732.332707942463,1688.5553470919217
-2426.5165728580237,-531.58223889931048,375.23452157598041
-4424.6404002501422,1131.957473420887,3348.968105065655
-6672.9205753595834,3242.6516572857959,1357.0981863664724
-3286.4290181363249,-2620.3877423389545,4706.0662914321283
-2251.4071294559026,-1332.082551594744,2720.4502814258794
-1691.6823014383947,-1450.9068167604726,1785.4909318323901
-3089.4308943089313,-343.96497811131854,2395.2470293933593
-2964.3527204502784,-206.37898686678852,1510.3189493433367
-3286.4290181363226,381.48843026891791,2489.055659787361
-5306.4415259537063,2226.3914946841755,2845.5284552845487
-2417.1357098186286,-2095.0594121325753,2786.1163227016814
-5262.6641651031732,-934.95934959349211,2013.7585991244396
-2154.4715447154354,-3442.7767354596517,4418.3864915572167
-4846.7792370231264,956.84803001876037,2761.1006879299503
-5206.3789868667709,2779.8624140087513,3305.1907442151246
-4631.019387116934,469.04315196998255,2936.2101313320736
-4793.6210131331927,2170.1063164477791,2445.2782989368252
-5372.1075672295001,2629.7686053783559,1726.0787992495207
-3461.5384615384455,-572.23264540337448,1253.9086929330729
-3055.034396497801,-481.55096935584322,2007.50469043151
-5572.2326454033591,2858.0362726704143,1385.2407754846722
-3042.5265791119359,412.75797373358489,569.10569105690331
-5140.7129455909753,559.72482801751346,3323.9524702939202
-5475.297060662896,606.62894955279319,2507.8173858661589
-4455.9099437148034,2526.5791119449614,806.75422138836245
-1891.807379612249,-753.59599749843346,550.34396497810758
-1663.5397123201903,1488.4302689180722,1619.7623514696625
-140.71294559099289,-3855.5347091932322,4843.6522826766623
-1944.965603502179,-500.31269543464413,1110.0687929956173
-2545.3408380237565,-650.40650406503971,1322.7016885553314
-2404.6278924327612,-3305.1907442151273,4477.7986241400695
-1779.2370231394511,96.935584740467931,2148.217636022503
-2338.9618511569647,-1663.5397123201931,3861.7886178861668
-2901.8136335209383,666.0418696356021,2629.7686053783559
-4005.628517823628,-1328.9555972482751,1601.0006253908639
-4049.4058786741625,-1156.9731081926182,287.67979987491759
243.90243902439164,-1188.2426516572789,787.99249530956172
-3561.6010006253764,3.1269543464670515,2629.7686053783546
-487.80487804877475,-4224.5153220762795,4158.8492808004839
-2285.8036272670374,-1432.1450906816719,1550.969355847395
-2145.0906816760348,-581.6135084427724,5065.6660412757838
-3339.5872420262549,-2070.0437773608423,5606.6291432144926
-6632.2701688555153,1923.0769230769179,2104.4402751719667
-5950.5941213258093,1269.5434646654139,4640.4002501563327
-1463.4146341463311,-512.82051282050702,2623.5146966854231
-891.18198874296104,-2764.2276422764171,487.80487804877333
-2363.9774859286977,-1232.0200125078154,1282.0512820512774
-2045.0281425891042,-497.18574108817495,2870.5440900562753
-5913.0706691682126,1782.3639774859255,434.646654158844
-2313.9462163852322,315.82238899312119,3717.9487179487064
-2229.5184490306387,-1494.6841776110011,2826.766729205744
-4343.3395872420106,2298.3114446529039,2304.5653533458312
-2767.3545966228794,-150.09380863039232,2551.594746716692
-2835.8339876962182,-364.35998218520058,4301.4576967165931
-5559.7248280174972,-4474.6716697936108,7582.8642901813464
-3061.2883051907306,1285.1782363977447,1188.2426516572798
-2883.0519025111967,-350.21887940783733,3273.9212036268382
-4074.4215134458914,-100.06253908692788,3705.4409005628427
-2770.481550969344,-1413.3833646028711,4840.5253283301918
-3289.5559724827935,-2445.2782989368316,1378.9868667917326
-1876.1726078799168,-2551.5947467166866,4480.9255784865427
-1797.9987492182511,-2185.7410881801047,2317.0731707316995
-3173.8586616635303,-1632.2701688555303,4330.8317698561486
-3958.7242026266304,412.75797373358216,2160.7254534083727
-2251.4071294559049,-1128.8305190744209,-25.015634771738966
-1676.0475297060589,-1338.3364602876736,2908.0675422138738
-4190.1188242651551,969.35584740462298,1647.9049405878627
-5859.9124452782826,-647.27954971857196,716.07254534082631
-3464.6654158849155,1156.9731081926191,625.39086929330631
-3467.7923702313797,1863.6647904939894,1338.3364602876752
-3614.7592245153114,-1941.8386491557162,4374.6091307066781
-2464.0400250156258,-1419.6372732958032,3442.7767354596513
-2038.7742338961784,-2707.9424640400152,4640.4002501563327
-5687.9299562226188,2808.0050031269498,3583.4896810506443
-1672.9205753595918,-2998.7492182614051,4840.5253283301918
-2385.8661663539629,-431.51969981238005,1563.4771732332636
-2692.3076923076824,-1181.9887429643477,2826.7667292057426
-4015.0093808630249,-3189.4934333958618,5953.7210756722752
-1632.2701688555287,-3752.3452157598426,3680.4252657911047
-3683.5522201375766,1122.5766103814833,1776.1100687929886
-2686.0537836147505,-1250.7817385866131,1413.3833646028668
-3871.1694809255682,-447.15447154471497,1150.7191994996754
-2207.6297686053708,-3389.6185115697235,3270.7942464039897
-1241.4008755472139,-1388.3677298311413,1200.7504690431488
-2654.7842401500843,-1579.1119449655985,4662.2889305816007
-2098.1863664790444,-3258.2864290181301,2098.1863664790385
-4152.595372107553,422.13883677298475,4665.4158849280711
-1332.0825515947386,-2260.7879924953004,3098.8117573483314
-6075.6722951844667,2551.5947467166902,2232.6454033771006
-3411.5071919949837,-959.97498436522471,3323.9524702939198
-4343.3395872420124,1363.3520950594093,2767.354596622878
-3020.6378986866739,-1244.5278298936805,825.51594746716205
-3083.1769856159999,-4715.4471544715316,3220.762976860522
-3764.8530331457032,-390.86929330831339,3452.1575984990513
-2410.8818011256944,-1332.0825515947431,2901.8136335209383
-1710.4440275171935,-3799.249530956839,4130.7066916822878
-4027.5171982488932,419.01188242651455,1253.9086929330745
-2867.417135709808,-1125.7035647279483,2983.1144465290645
-3026.8918073796012,1369.6060037523437,-800.50031269543911
-3983.7398373983592,3061.2883051907379,725.45340838023378
-3545.9662288930454,53.158223889933623,4480.9255784865472
-4999.9999999999873,428.39274546591588,2579.7373358348905
-2776.7354596622781,719.19949968730475,1594.74671669793
-2292.0575359599661,-2601.6260162601588,3355.2220137585841
-1963.7273295809866,-1388.3677298311395,300.18761726078282
-2557.8486554096248,-1185.1156973108148,87.554721701056408
-5153.2207629768473,-206.37898686679088,3921.20075046903
-1519.6998123827329,-2811.1319574734116,3261.4133833645938
-5053.1582238899155,-140.71294559099289,3836.772983114432
-4953.0956852484796,-525.32833042912421,1697.9362097600817
362.72670419012314,-2448.4052532832916,3883.6772983114383
-1147.5922451532133,-4168.2301438398863,4781.1131957473262
-5125.0781738586484,-1038.1488430562065,3339.5872420262544
-2748.5928705440801,553.47091932457579,2510.9443402126253
-3455.2845528455205,-1147.5922451532167,2498.4365228267529
-4077.5484677923564,1651.0318949343293,2273.29580988117
-5365.8536585365682,1513.4459036898043,3592.8705440900435
-1710.4440275171871,-2001.2507817385788,3605.37836147591
-2332.7079424640297,-206.37898686679017,2026.2664165103097
-3999.3746091306957,175.10944340212589,2223.2645403377023
-2795.4971857410796,-2767.3545966228785,3918.0737961225636
-2060.6629143214441,297.06066291432313,-878.67417135710491
-2367.1044402751613,-62.539086929331368,2920.575359599743
-3933.7085678548979,678.54909318323905,2826.7667292057436
-4046.2789243276934,-694.18386491557158,3020.6378986866703
-2839.2745465916087,247.02939337085621,1982.4890556597768
-3639.7748592870439,100.06253908692661,206.37898686678591
-1976.2351469668463,-1829.2682926829211,3420.8880550343861
-2045.0281425891028,-106.31644777985474,2933.0831769856077
-4627.8924327704699,-434.64665415884838,2460.9130706691562
-5071.9199499687165,1582.2388993120671,3336.4602876797885
-4693.5584740462627,4190.1188242651606,384.61538461538794
-3646.0287679799771,-228.26766729205383,3930.5816135084297
-3971.2320200124946,-1447.7798624140044,4233.8961851156828
-669.16823014383306,-1225.766103814879,1538.4615384615308
-5215.759849906176,584.74046278924402,3918.0737961225636
-4033.7711069418242,-65.66604127579501,2983.1144465290699
-2191.9949968730407,-4155.7223264540216,3714.8217636022364
-3495.9349593495795,-1482.1763602251374,4183.8649155722169
-2904.9405878674083,-666.04127579737167,669.16823014383226
-3039.3996247654723,-2917.4484052532789,81.300813008126568
-3020.6378986866675,-2958.0988117573397,4809.255784865526
-3198.8742964352632,-34.396497811132306,2045.0281425891119
-2983.1144465290713,-1135.084427767355,309.56848030018301
40.650406504070816,-159.48318135138399,1988.7429643527123
-3427.1419637273193,-1069.4183864915517,1663.5397123201928
-6081.9262038774032,625.39086929330711,4434.0212632895364
-1613.5084427767288,-684.80300187616638,1769.8561601000588
-4871.7948717948566,2191.9949968730407,1754.2213883677221
-1122.576610381479,-813.0081300812974,2329.5809881175614
-2063.7898686679082,-3158.2238899311956,4340.2126328955446
-2642.2764227642178,-1919.9499687304474,3833.6460287679656
-1169.4809255784817,-2467.1669793620954,1235.146966854275
-2792.3702313946096,-1010.0062539086865,5187.6172607879807
-3198.8742964352618,-1163.2270168855498,3105.0656660412642
-2854.9093183239411,-616.01000625390373,4205.7535959974848
-5884.9280800500146,3567.8549093183165,1585.3658536585299
-2489.0556597873533,228.26766729205724,2085.6785490931752
-2626.6416510318832,1041.2757973733617,2992.4953095684746
-3864.9155722326332,1285.1782363977445,1797.9987492182522
-3245.7786116322559,-1366.4790494058725,3846.1538461538316
-2173.2332707942355,-1166.3539712320094,4280.8005003126837
-134.45903689805772,-2829.8936835522054,3014.3839899937357
-2504.6904315196921,528.45528455284534,-196.99812382739512
-4158.8492808004839,1660.4127579737315,234.52157598498695
-5866.1663539712135,4305.8161350844202,1560.3502188868003
-5831.7698561600801,897.43589743589712,3749.2182614133717
-5641.0256410256234,1722.9518449030641,3073.7961225766016
-3314.571607254522,-168.85553470919194,2016.8855534709078
-997.49843652282004,-65.666041275794583,2095.0594121325717
-1413.3833646028688,-5403.3771106941667,5562.8517823639613
-3952.4702939337008,237.64853033145656,2479.6747967479564
-2779.862414008745,-2320.2001250781664,4427.7673545966063
-2401.5009380862971,-3067.5422138836666,6328.955597248264
-3864.9155722326345,-1597.8736710444005,4640.4002501563346
-4133.8336460287546,40.650406504065842,3595.9974984365072
-4027.5171982488928,706.69168230143964,2698.5616010006147
-1991.8699186991764,-703.56472795496904,2063.7898686679127
-2576.6103814884241,-1529.0806754221346,2414.0087554721617
-1344.590368980759,-1435.2720450282827,678.54909318308307
-4052.532833020623,-1397.7485928705355,4468.4177611006708
-3086.3039399629597,-1585.3658536590237,3205.1282051277012
-1810.5065666041207,1131.9574734208879,406.50406504064404
-5143.8398999374394,-1404.0025015634753,5669.1682301438241
-3499.061913696049,925.57848655409657,2601.6260162601548
-4978.1113195747175,-803.62726704189834,3342.7141963727227
-4587.2420262664027,-565.97873671044135,3855.5347091932363
-4108.8180112570235,265.79111944965661,3799.2495309568371
-3286.4290181363249,-409.63101938711225,3092.5578486554064
-3814.8843026891718,-4562.226391494668,4412.1325828642721
-619.136965740699,-1716.6979468655991,1047.5296956785342
-3689.8061288305075,625.39086929330915,2276.4227642276355
-1416.5103189493386,-4058.7867417135567,4077.5484677923587
-4555.9724828017379,1269.5434646654137,969.35584740462878
-2636.0225140712791,340.83802342411855,2245.153220762968
-1891.8073796122465,-406.50406504064222,5334.5841150719052
-3345.841150719189,-121.9512195121944,2029.393370856784
-5031.2695434646521,3139.4621638524054,2529.7060662914314
-2395.247029393362,-1785.4909318323873,2726.7041901188113
-2645.4033771106829,2126.3289555972474,506.56660412757992
-2917.4484052532734,-2892.4327704815423,5078.1738586616466
-3667.9174484052428,1776.1100687929948,1876.1726078799172
-2088.8055034396393,-225.14071294558764,1422.7642276422728
-456.53533458411073,-1772.9831144465209,1735.4596622889228
-2873.6710444027399,-1172.6078799249494,3511.5697310819128
-3186.3664790493958,-1094.4340212632849,3564.7279549718478
-5569.105691056895,-1588.4928080049979,5384.6153846153684
-1328.9555972482701,-1110.0687929956132,4543.4646654158696
-5253.2833020637754,243.9024390243892,93.808630393988523
-2348.3427141963612,-1072.5453408380201,1923.0769230769183
-4143.2145090681533,1106.9418386491536,1278.924327704809
-2851.7823639774747,-2116.9480925578428,4299.5622263914756
-2970.6066291432021,-390.86929330831606,3161.3508442776642
-2501.5634771732239,-1791.7448405253203,4996.8730456535141
-2123.2020012507728,-2539.0869293308251,762.97686053782752
-1638.5240775484604,-1397.7485928705389,3130.0813008129994
-5422.1388367729669,1704.1901188242648,3542.8392745465821
-3211.3821138211269,-1747.9674796747936,3986.8667917448279
-3758.5991244527686,941.21325828642603,2495.3095684802906
-2657.9111944965498,1072.5453408380231,1141.3383364602844
-2410.8818011256922,275.1719824890564,56.285178236392149
-5128.2051282051116,78.173858661663502,3949.3433395872357
-159.47467166979172,-2682.9268292682841,2385.8661663539642
-2120.0750469043073,-3026.8918073796031,4568.4803001876026
-4293.3083176985438,597.24828017510856,2848.655409631011
-2576.6103814884209,-1685.4283927454653,331.45716072544411
-3989.9937460912956,-753.59599749843608,4149.4684177610852
-4915.5722326453897,-3517.8236397748497,5506.5666041275545
-2504.6904315196848,-597.24828017510742,2645.403377110687
-3433.3958724202485,-872.4202626641619,2983.1144465290681
-2235.7723577235688,-1041.2757973733565,2535.9599749843583
-3727.3295809881042,-616.01000625390532,1810.5065666041176
-2398.3739837398293,-240.77548467792261,1479.0494058786692
-3627.2670419011711,-1754.2213883677255,3595.9974984365131
-4058.7867417135617,390.86929330831947,3148.8430268917964
-1951.2195121951149,-3308.317698561596,2479.6747967479523
-3220.7629768605284,-444.02751719824658,2673.545966228884
-2607.8799249530844,844.27767354596688,2629.7686053783532
-5409.6310193871013,856.78549093182949,1472.7954971857284
-4449.6560350218751,2348.3427141963671,1266.4165103189393
-5275.1719824890415,2263.9149468417736,2138.8367729831034
-2839.27454659161,68.792995622265465,3133.2082551594622
-3827.3921200750378,478.42401500938138,2714.1963727329489
-4136.9606003752224,603.50218886804214,2714.1963727329494
-3083.1769856160013,-803.62726704189993,3008.1300813008033
-3405.2532833020528,1663.5397123201969,1916.8230143839824
-3536.5853658536471,-200.1250781738562,3552.220137585975
-3492.8080050031144,-519.07442151344333,2210.7567229518368
-2942.4640400250082,-2782.9893683552141,2861.1632270168752
-4033.7711069418242,146.96685428392968,3398.9993746091181
-450.28142589117414,-984.99061913695914,1147.5922451532149
-2107.5672295184413,53.158223889935329,1710.4440275171905
-3101.938711694796,384.61538461538595,1704.1901188242548
-5062.5390869293133,150.09380863039269,1760.4752970606507
-5619.1369606003573,3630.3939962476461,-272.0450281425924
-4418.3864915572067,-1294.5590994371398,5415.8849280800341
-2251.4071294558998,-1497.8111319574693,3480.3001876172493
-1053.7836147592211,-3927.4546591619678,5134.4590368980453
-3868.0425265790982,1203.8774233896138,-168.85553470920061
-2176.3602251407046,-1375.8599124452751,2226.3914946841664
-3727.329580988107,-1766.7292057535903,1404.0025015634662
-2845.5284552845446,991.2445278298942,2404.6278924327621
641.02564102564497,-4418.386491557213,3955.5972482801603
-6081.9262038774032,2201.3758599124371,62.539086929327489
-1772.9831144465195,-2410.8818011256972,4205.7535959974839
-3414.6341463414474,-981.86366479048968,3377.1106941838484
-4637.2732958098641,-1300.8130081300762,5797.3733583489457
-4118.198874296424,1360.2251407129388,1960.6003752345141
-2682.9268292682782,-794.24640400249689,3733.5834896810388
-1863.6647904940489,300.18761726078958,1488.4302689180633
-2904.9405878674079,-2007.5046904315122,3436.5228267667208
-3492.8080050031149,575.35959974984405,3514.6966854283792
-1272.6704190118789,-4787.3671044402663,4818.6366479049266
-4127.5797373358209,2407.754846779234,1801.125703564722
-3689.8061288305075,1222.6391494684142,734.83427141963034
-3086.3039398352316,259.53721088395616,1257.0356474067726
-4212.0075046904167,78.173858661665363,1500.9380863039357
-3186.3664790493963,-800.50031269543058,581.61350844277013
-1554.0963101938635,-9.3808630393978873,1616.6353971231963
-2664.1651031894821,540.96310193871307,1785.4909318323889
-2611.0068792995507,-731.70731707316634,1016.2601626016217
-1210.1313320825489,-3511.5697310819173,2023.1394621638367
-2485.9287054408951,56.285178236401102,1510.3189493433299
-1266.4165103189416,-3195.7473420887923,3727.329580988106
-4706.0662914321283,1185.1156973108191,2338.9618511569633
-1257.0356472795468,-3198.8742964352605,3530.3314571607152
-2432.7704815509614,-1969.981238273916,1313.3208255159434
-2817.3858661663462,-859.91244527829701,2954.9718574108738
-2338.9618511569679,-250.15634771732363,2445.2782989368275
-1722.9518449030593,-3627.2670419011783,5553.4709193245626
-2439.0243902438979,-3033.1457160725381,3502.1888680425136
-2132.5828642901743,-2332.707942464036,3158.223889931191
