-698.71607889025677,-218.65062604636418,697.19658027315643
-500.07143877696126,-165.73796256607682,435.77653950563797
-1147.3067581082903,514.35919417059119,506.50092870409964
-430.77582511786784,-187.88398342620067,655.80797256750407
-583.65480782968336,-96.442348906983938,625.80368624088737
-896.55665095014069,-332.90470067153296,430.77582511786022
-765.13119851605472,-12.175580130320693,1019.3918217370126
-659.38006777994747,65.723518446430873,400.05699465731055
-505.78662527663369,-385.7694799701643,858.69401481479804
-507.92970424345947,-210.74439205600459,930.84726389483785
-671.52450214263638,-255.75081822673178,535.07644175444375
-784.39774349969036,8.5726901787719108,512.92898982653105
-372.24166594833531,-152.34714671975519,259.94588997289486
-1049.4356336619437,298.61408772681852,-121.4459208458417
-475.06786683811424,-60.00857265323291,531.50450064294523
-863.69481354478569,-184.31204457779845,82.868981283032781
-614.14006291004478,149.61199546693817,532.61231764439003
-675.09644234935354,82.868981282592827,822.26032290281614
-836.32977120222051,-238.59339788543065,915.27627102496308
-793.68481211600999,92.870410058578159,144.30632947563339
-228.6040862980384,-78.582654664951392,863.69481354478557
-401.46532575576435,-260.73021244856204,243.62804266398925
-991.72676185197292,303.21361292654711,550.07858265465995
-610.08715530785685,-18.574082011662277,601.51450207178789
-907.98685526503266,-174.3106158022542,607.22960422917095
-695.81108922346618,-75.005413936432348,585.08875401449995
-864.40920131446296,-178.5969424203457,491.49878554078595
-903.7005286469406,339.33340232736862,437.20531504500082
-366.77738446192075,86.61250007977084,97.864797107385513
-836.54807829689321,193.59908558365788,479.35419345620153
-232.8944880196625,-515.63594622829726,728.95795186982957
-731.53307615372853,-352.19317045291717,475.06786683811464
-446.49235605904647,-222.88898415390784,317.1881697274585
-682.24410526723545,-614.37767877384567,402.19513022287674
-563.65193856357632,195.74226039395674,546.50665548812901
-976.56457399963995,249.85981021564893,304.87109870468913
-684.06641024130352,-44.747048781330157,486.33774480965673
-627.28154384269385,123.54000209243657,378.59214212866368
-535.7908272610299,-287.89827118159667,645.09215602228107
-787.96970995855565,239.31990284326477,20.717245320755637
-301.7968013924874,-558.34899236275078,501.86521395863866
-757.3048618349668,-196.30032847895129,-114.87501072133659
-845.12074052713558,-140.0200186993699,720.81724754828701
-555.79370878756333,277.89666927582806,247.89238402917553
-431.48727608180525,-219.31374591782702,552.94088338218012
-709.38705529360504,313.61623089012608,487.92684669237792
-478.28144662685924,-203.96041294649402,544.70249017045671
-673.66766680953822,180.36319601635796,613.65909406295179
-698.32152059644329,-299.58098274076667,428.2933014357684
-630.74724299483648,36.65303568828076,402.84283957811067
-598.43665723258505,-57.281459192115349,651.65793346563476
-1193.1145737383235,282.59311504569564,420.77439634233087
-902.98613391190338,-330.04714365512001,324.33205240243814
-841.5488285738777,442.9203714127388,352.90748984594029
-859.76517180745475,78.887335808470269,3.9288440791328925
-823.65187880085261,-77.831047253515067,225.06936709140436
-1208.0322430608212,466.4933202047269,662.94869460231689
-818.68838405485974,167.88112587512816,725.10358622659885
-1437.3481925989367,130.73296185169184,13.573367623940587
-841.54881505737285,316.47375794361585,216.45946459504171
-642.94899271323879,-202.88612658959431,372.9103985607407
-477.21103014715914,-450.77868266895013,738.67695385054401
-1013.7162451779043,356.47949707098212,516.50235747961199
-438.63409058436889,-435.06215173596871,1005.1435919416931
-684.38348335475894,-301.47163880554217,652.95042148877815
-716.53093299041848,-145.73510501500328,827.97542506071909
-503.6433776253682,-102.15745106443327,646.52093156164585
-508.52535582302301,-167.749853651324,925.14469777107149
-991.60231139185271,120.37420843622826,725.1952621786495
-705.10075776039446,-62.151768403101521,900.84293636464474
-1087.2981854550569,-156.45092156750036,372.91041577367599
-468.63837691098223,89.298471210175933,761.53736248035125
-877.98256893841085,-143.59194170595515,972.8870509944129
-610.08715530957545,-235.03357622685593,840.12001714410565
-783.68338334046803,-46.435205029287651,566.50950135733353
-640.87083504953796,417.13143976731851,312.09877713432178
-640.80582940419299,-223.60337191027034,490.07001000142543
-896.55660154174097,43.584603895378102,776.53957879374263
-603.65685954235312,145.02165032137478,690.10013357020762
-897.18768590818172,358.01166434417672,378.04297815411314
-151.44378098095726,-155.01577933114186,336.47955510680623
-1308.0440061716572,75.010715978623338,416.48806995572414
-625.80368624088385,-327.18959851406976,890.12716102299771
-516.50235747963029,-120.7491223481006,482.193954621307
-1002.989984349338,-117.97412726054503,752.80534286548311
-535.53086324806486,151.65497844170994,90.572707139440581
-868.69552793255707,-425.77511073010015,442.92041720245322
-859.4123274830082,83.579575332461999,716.52826333542384
-1367.3260122639251,27.826155992144148,523.61116855535624
-775.91157237677442,59.254007572489861,477.96235961923304
-399.34276325188949,207.17245320760395,108.58694099156631
-813.68765948053829,107.8725629557009,644.37777119538237
-1025.8608524470696,9.287022199105742,366.48089275874213
-545.7922558787094,-204.31490181056122,454.35062201941145
-580.49824783843076,-168.29650473144625,498.94167216615011
-908.7012240468664,-200.74294405114435,665.095033594195
-648.66409487068859,230.03286183740963,567.22388912701626
-640.09144163451197,-147.87826832436764,747.24960708672199
-637.03325821904127,-396.9006577610923,673.40068915080349
-853.6933847692485,77.153879125589384,891.55593656235988
-827.26103717217381,-10.001428656676611,485.06929573251495
-912.27292287848695,-247.89229835701067,650.80746717851696
-756.52688651959897,-387.90837540571056,310.76983589480352
-500.7858265466395,37.862551793114413,450.06429489926489
-537.21960280039104,-147.16388055436468,909.41563080439357
-800.11430782788921,-419.34563005855165,859.4084799850142
-652.88111638774137,-219.95885885229015,855.15877432424827
-691.52736105157203,152.87898271181592,672.95327903986106
-547.31834268583975,-332.58323833477715,542.50112647560081
-1085.1550221460127,-30.470751323426008,732.9631003798014
-437.84378508021712,-446.41642921472135,885.2023598188548
-586.4011272592528,-487.97459959844781,528.94998178088917
-885.84083440491031,-271.46735247892531,539.36276610943867
-897.27103871980989,-112.87326760965499,522.93184740676884
-917.27398213268623,-187.88419808201994,-140.02013164626641
-569.36705243606013,-622.94616313969789,509.35846113113269
-342.1917416773756,-456.49378482640265,691.5273610515726
-512.93041863122721,-295.04214888249754,464.35209144756135
-812.66937156953225,-250.44619685664583,516.45443000024591
-636.51950278610786,-170.73867695384712,736.53379054149718
-733.27634286817965,340.43387696863658,414.23521822517608
-633.94946889436562,-122.22309829024248,643.98567841407521
-572.22460351478526,136.44806400914544,280.75439348477806
-1020.7458171179263,-196.98074763418148,762.29155729213164
-735.81940277181684,-522.21745963708645,693.67052436061795
-167.88112589083579,-132.87612521883378,142.87755388769978
-707.95827975424788,85.012147902191458,472.21031906949634
-530.07572510357772,10.001428775542134,670.81011573081264
-637.23121866697954,-67.786161281996428,315.76216459078745
-520.78868485392229,-265.75225110567783,560.08001087472178
-747.96399485640063,-453.63623374767644,337.19102728960883
-740.82011715959152,-233.60480068580932,639.37705386483219
-805.75740133812928,-438.63409058436127,647.35532410209646
-624.35047540698758,-62.128411362676324,677.25848747586042
-696.52807543934307,-503.64337762537042,552.93613373338223
-626.79201157837372,-213.90734143124584,706.17167137052729
-524.3606229461285,222.88898414059042,363.62337476781966
-805.8295377039816,-493.64204897737687,655.09341791858537
-570.08144020573627,-180.02571795970567,577.22531790255312
-925.83830110546921,-303.60663578663974,583.66153786879784
-770.1100157165248,-172.16745249321218,37.862551793107173
-935.13359051292082,353.62194599228343,597.94256322331478
-1184.4546329933632,517.21705671560505,115.73092697131788
-830.13859884418207,182.86120929855835,507.18710893754474
-472.21031608939603,-265.03786288407554,609.3729496347645
-924.41777396770271,-87.155307901130016,704.80543365381379
-1015.1450026684204,-209.31559961988205,325.04646695045142
-691.52736105157146,104.30061437348299,940.84868821047814
-647.23531933132563,-402.20031420221312,460.06572431681479
-717.95970852977962,-204.31490212887221,850.83583369051837
-1011.5730818699009,-428.63266180996618,345.0492927550381
-1122.3031861694451,319.3917171175006,218.60265752249748
-507.21531647377594,102.15745106444044,412.20174310615232
-445.77796828117346,-78.582654664952344,547.22103157593301
-1020.1457350631424,99.299900037377753,922.27461072622316
-1174.453493356187,-299.32847549649716,618.65980854406735
-724.38919845691623,3.5719388484095855,715.10215745105972
-1005.1558045823472,117.14738158709613,784.38555846950408
-808.68695527931993,-364.33776253750415,140.02000285754346
-1110.1697368040604,-269.33254622313484,900.82904917387805
-310.75871262299393,340.76293525651312,352.90752348090331
-340.04857836833122,56.43663380483293,157.87969709958267
-924.4177739676976,335.7622517502482,316.47378196884904
-1050.1693252151924,-248.6268002224522,562.93058516087456
-846.54950707243142,-93.584797828258388,610.80154307757812
-659.95958116320321,-6.2947718990428498,728.46560266907022
-721.531350124401,-44.291744466458709,242.89203986085491
-1164.4520645806463,4.2863266180896371,503.64337762537264
-664.37974671365316,-126.44596867083484,479.35658921803434
-700.85890383896697,-171.46114607280242,248.55640167450269
-470.06715245039396,-162.16602371777003,480.0685812257903
-900.84297756821593,352.90755822260411,364.3377625375042
-765.82368909227318,-54.293470487563731,808.68695529021227
-197.17102443211886,-280.29285063340245,669.84288304295364
-260.75153705774869,-165.02357591359245,126.44663423632647
-894.41348764108272,475.78225460779959,403.6083079668133
-672.95327903985287,-109.30132876124949,598.65695099299012
-220.55841023917361,-70.048438198112393,845.94724744121902
-806.54379197027231,-163.59479925703712,695.81368766966432
-960.85155022145409,-154.30775825117402,775.11073010429732
-888.19139539176911,191.58210794648866,832.53672189873521
-797.97113873410115,-0.78627120752287061,915.77323729368209
-557.9368481211543,-25.003571938847173,880.12573224746075
-775.83389066345615,85.436334910994347,754.36540642054342
-773.68195456492924,-62.151735962279425,332.90470067152046
-810.09474652550341,-32.078501243781453,608.67636630554694
-927.49556928144534,-31.787069158800158,726.04724352326718
-727.02763618350423,642.32892250185796,272.5472762165266
-856.55093677435013,-206.45806543791784,926.56093604158048
-567.22388912701444,-304.32918988426604,865.1235890841491
-1030.1471707710514,75.7250932504693,883.69767109586735
-452.20745820831121,-290.04143449063935,578.65409344191653
-471.90302690993474,-21.807769774928747,595.75809121324778
-982.28318331189382,-7.8582654664963503,466.49521360193836
-727.24674953571332,-347.19286348836272,760.82297471055927
-100.97987378553067,168.32231311734839,305.47378366321107
-346.03679733843933,-268.40204911377788,600.93463761753571
-805.11501643281701,-499.35705100918921,39.291327330565501
-855.12214499801928,-162.88151235351916,361.48025855043915
-745.82083162297681,431.49021246999001,56.436633393834171
-1186.2884969859763,287.65836136466851,650.10870757159523
-967.99542791826502,-232.89041291613071,581.51164452063892
-485.78368347573019,-535.7908272764588,915.84512070071901
-698.22031771760305,-266.72736038484948,551.29329146867371
-688.02221337619392,267.96180320461258,163.80421481449824
-572.16761367232948,-549.3072050425252,834.46190483030296
-794.39919988569056,90.727246749534316,695.09929989998204
-998.29225235012211,-13.025631323858388,633.64651892751306
-522.93895078466744,-594.37747406073879,360.04598153995209
-674.38205457921663,-231.46163737676551,946.56379482782847
-770.82440348620582,99.299899985713083,443.63480497212942
-977.99685669380597,-60.722960422916643,843.69195599370892
-955.85083583368237,-48.575508490084083,823.00779129415048
-567.93827689669354,-180.74010572938744,750.82154593512746
-1383.7691098728296,182.16888126875151,397.91398771252432
-420.77439634233014,153.59337048150002,207.88684097727321
-597.94256322364208,186.4552078864761,500.78582654634988
-1000.1428870751208,-52.864662737058943,575.79653284199787
-657.95113587654816,-635.09072724674866,874.41063009000504
-737.95438749473294,-167.1585996104225,507.93647964079031
-1016.498281079286,32.231030112659589,817.24480207036549
-1086.7467099235701,-75.26900871404851,616.27307439372885
-556.30184001705118,-196.04417153289572,848.57346986419384
-485.1528665013754,522.88035195372447,430.2932749014401
-1318.0454350621396,92.870410058578614,295.7565366425967
-687.95542220316406,-321.47449635661695,668.6669524217707
-761.537374272443,-139.30562261776271,877.98253967128244
-711.5302186026513,-277.1824546363743,361.48021145877374
-848.69267038147609,-151.45020717245143,675.81083011858141
-777.2540606520289,-262.89468408184865,768.68110341024078
-610.85084118163741,-247.09829903250392,211.76355445132236
-554.36490927274531,371.48164023432105,233.60480068580739
-1133.0190027146652,45.720817259197069,980.14002000285438
-586.51235890840758,-288.61265895127644,541.5059294184839
-550.78048717278227,-34.278192652072839,77.163903419852446
-809.40297943706355,841.54643488343049,435.77612598739438
-830.95427773208723,-142.33067788976791,490.54179458581922
-1086.5840381795567,-137.87711397744687,608.65802271582299
-385.055504662114,-380.76917804403411,-4.2868234219499755
-655.80797256750259,105.72938991284565,489.35562223174168
-697.825573550831,-54.172799310077401,654.65890359949435
-452.92184599081673,-333.61908844120171,930.84726387863384
-553.65026731873547,-386.48378621491253,740.10624057585585
-805.82940420058787,-11.430286603598168,562.93756250892898
-675.81083013206364,-568.65266469109349,453.63623373554356
-806.5345871214887,-294.31548797701475,637.24002712164429
-685.81225889412144,-150.73581946212587,625.80368624088476
-593.65623660521874,340.04857836833708,660.09429918559147
-564.20450540605145,31.600504204941917,177.43377891262963
-650.09604231244828,-554.37118970202971,982.99217884600739
-742.24889269894902,155.02214602086127,215.74510644377415
-1015.8594084869221,19.288469781395211,903.70052864694242
-662.95185026431648,228.60408629804405,462.92327475353113
-804.40062866123333,-347.19245606514863,719.38848406914383
-816.54522027321082,-151.45020693615197,735.82258434100117
-527.21817402485601,117.87398199743022,229.31847406771433
-922.27461065865714,-157.8796970995833,535.79082726103252
-457.9226921579376,-140.02000285755037,508.6435648444205
-826.0356523093277,78.900045240767014,565.13098067167164
-590.79868552649873,-662.951850264325,117.87398199742134
-734.91486007695391,-319.55510299176836,397.19960041098437
-350.76439491355529,-264.32347478210511,737.24817995971682
-1286.6123731961645,712.95899414202052,524.36062294612896
-585.08358336905076,-341.47735585882833,176.45377911129452
-1090.8701243034673,-312.18745535076533,345.76368052578579
-495.7851121588746,67.152450350050984,652.95042148877633
-744.3920560079946,153.59337048150039,530.79011287326171
-1045.1531455065738,320.03391041631852,508.63656291462019
-952.27889698527804,-838.69124160593674,442.92041720245095
-1102.3003286183628,253.60765823689059,707.95827975424766
-397.19958905462562,-32.147433536270619,555.07933370535056
-522.21745963708349,-177.88255465066018,654.37919702814202
-910.84440634210375,-150.02143163083684,187.16959565978522
-429.60381136081133,-316.72722762075654,598.95208659074763
-772.25135668729854,165.02536427915715,615.0892152073701
-704.38634090136384,-167.88112586942717,517.93113268150887
-745.66935284358715,-217.41138974989761,181.71958123066148
-542.93464031163285,-569.36697152045588,452.20755921801401
-602.2315289012522,155.73282587618289,340.04236522185369
-561.50878696956192,244.3206172310349,557.22246035147305
-1102.3003286183664,-115.73081868839451,555.79368481211191
-922.27461065865941,-94.299185597941403,-162.16602371767908
-942.277468209738,448.63551935990841,377.91113016144794
-962.99474951130071,-107.15820548718531,584.36917634203508
-345.76368052798222,-260.03714816622301,657.63991442588144
-407.20102871838014,186.06539858935159,377.52132086395875
-841.16136960973836,58.26657082602901,664.93290976155026
-1194.9262536282497,121.56842918755024,627.06211969825654
-860.1228742315991,-592.94184864963438,657.95113624836961
-647.94970710100904,-147.16388717290366,741.53450451561196
-934.41920274323991,251.46449492784782,150.73581940276679
-617.9454207743878,104.30061437348445,399.34276325188756
-721.20796804743918,-143.59194170595882,700.0329851795783
-1108.0163662235273,345.04823660546788,437.20392696130472
-435.06215173603698,-81.440205743762021,43.577653950472325
-995.14216316615705,-219.31704529218374,664.38062580368023
-539.36276573588611,-108.58694072474681,15.716531199805907
-566.8560783823151,-34.71911874250447,26.027125776822366
-717.08686987322551,248.20945785319594,452.9218459779932
-640.80580416828195,-67.152424162332693,408.62981331297635
-920.19497396005079,216.2135647845146,615.99877444604408
-636.51953817310698,-183.59769514324898,717.95970041303156
-952.27889698527736,-335.76225175024717,1080.154307758243
-747.77608891651289,433.74285183114614,111.66180937468384
-751.5354173536756,-82.15360211918248,513.64629372138768
-552.22171862871357,-295.75650153485162,481.49740654603909
-362.19459922845499,-97.87112444634748,480.06858122588454
-325.76082296484554,-53.579082714969871,429.34704959332362
-813.68766966708586,-231.46164366367319,615.80225746534211
-786.39995131636329,-660.92017078209881,525.71513607368888
-450.06429489926614,-207.88684097727636,215.03071867409162
-1154.4506358051731,95.727961137237386,1068.0097156736113
-869.64103223672521,264.93946820966232,776.75053011674618
-957.27725096499626,229.32149229303027,539.36706127818832
-385.13167187782693,-472.29960679395015,648.53151121331507
-571.5102157451006,-158.59408486926608,544.36348068278778
-680.81168283049124,-268.60978033121643,817.97370950256925
-722.96042291755464,-130.01857408200954,404.34347763965604
-146.44949278468297,-386.48378339763013,622.23174739247418
-997.99971424488717,165.73796256608352,530.79011287326273
-735.81940277181718,-45.720817259607486,-19.288469781415689
-1104.4434933609073,15.716529977326092,817.97399628517667
-531.50449665335248,-574.36776283424183,796.54236718432435
-739.39134162022606,-88.58408344049171,590.79868552649873
-461.49446953688329,-151.45017749516339,474.35350329455315
-534.36135047132507,12.145346594447384,487.92798289546374
-1092.701643255258,-15.493328655190009,819.67362070902709
-665.1950053331359,-529.27518520122442,27.444807805474323
-647.23531933270408,67.15245049221636,227.88969867033589
-1062.2946135162099,-138.59122731818638,556.50807258178929
-675.81079678491142,-67.864167491347132,-66.437525306819737
-1133.7333946991243,-372.91042057384379,462.92326805086253
-662.95184819106441,-199.31418566785186,113.58765745259048
-929.41848835547239,18.57408201171485,802.25746535219014
-712.95899414201222,-434.34776355356803,6.4294899271261228
-802.25746535218639,-192.17029669661889,253.60765819961628
-645.09211209812281,-264.3234310764775,224.31779508151109
-823.68909844262885,-445.77796828117943,1136.5909415630731
-436.49092727531843,-135.73367623945904,499.35705100728222
-829.41205973364322,160.01483042433389,743.67305526861389
-493.64194884982754,101.44306329475691,495.77269283647536
-1047.2637250409223,-14.34566685721366,614.81099251684145
-725.40261872000235,249.15065006303618,536.07388987848526
-660.80868695527079,217.17388198313949,521.50307186740588
-1027.0313184674285,-369.79715330390667,620.30038543763578
-865.81636228070795,-176.43238177007098,626.5356697937126
-646.52093156164301,79.297037329214859,739.39134162022981
-639.37705386483219,-34.290612944703298,-34.290612944711611
-667.95256465208774,15.716530932993544,467.20960137161586
-919.41705957856516,99.080892082606738,657.95113587836249
-452.92184597798905,-207.17245320759861,415.7736819545579
-1530.9367078994017,525.07092800062912,600.79497683732689
-356.47943381681404,-78.582577976245119,542.22041067001737
-1105.1578796970948,-437.2053150450169,279.32561794541425
-778.6826689526979,175.7393913416189,662.23746249463932
-737.95555954281974,-35.71338288003038,387.20367630433969
-734.37719798313344,-405.04413986331525,686.53553346578587
-732.00040190020923,-41.330590953992562,574.2206889707544
-756.10873025375042,-545.73943645326233,673.75629513420404
-680.83474754141764,-501.51877677368674,875.46175993379245
-736.5310809553157,367.19859200386492,759.39965298192328
-702.95756536647264,-525.07501071581419,642.94899271323914
-492.92756108162985,-2.1431633105785912,917.27389626968534
-571.68089955913626,210.60215554431088,417.91684526360245
-648.66409487069006,118.58836976710872,472.21031575939008
-627.85715229904417,68.850317642064155,397.4653473489538
-665.09501357336114,-95.013573367622556,166.45235033575599
-848.69267038148382,215.74510644377119,684.38348335475609
-785.11215887982996,-248.60694384912037,766.53807686798291
-1361.6230890127069,390.77011001571731,211.45877982568663
-863.69222291211463,-77.865834097465054,789.40037268681124
-536.50521503071207,-513.64480640091597,685.09787112443439
-687.24103443354716,-28.575510787314915,586.51235890839371
-789.39848549792134,-355.76510930132781,134.30490070009085
-585.79797113872826,-380.76868124017284,662.95185026431648
-461.61277476119125,-371.86460942143765,767.01597631591153
-630.80440062863272,-71.915029403841132,10.945734479541995
-1024.432061723096,399.34276325189194,725.10358622659896
-737.96256608086219,-372.91041577368048,591.51307329617737
-592.94184883554692,-277.18245463637498,143.59194170594967
-527.93256179453635,22.86040862980882,385.05500785826166
-424.34633519073589,-184.31204457779501,866.55236436690143
-877.69213209897691,87.742973957117385,965.55733697894675
-533.64766395198876,-482.92613230461365,1003.7148164023383
-988.71267323902657,-253.60765823689044,445.06358051150028
-772.96756632026961,-233.6048003685402,520.78868504775369
-1302.3289041291525,225.03062468917747,482.21174453492893
-527.93257690941357,-477.21103014716107,807.25815958677913
-532.48849983729781,-308.89293235858645,198.2053359502095
-364.33776253750119,-283.61194456350563,707.24389198456515
-689.45263157900342,-166.53505871481497,637.12683148645522
-317.18816973852989,-9.9471492848419647,656.5766398278746
-801.54334777891938,27.146735247895602,620.08804369060806
-622.23174739247497,-32.861837405343103,625.80368624088601
-642.23460494355709,-475.06786683811788,686.52664666380167
-808.6869552153986,-127.16102289553798,812.2588942957409
-476.49664237748243,-412.20174310616176,89.93783235874055
-1189.4556365194935,-367.19531361623154,729.38991284468705
-719.38848425415506,-389.34133459154782,391.48449764925743
-875.125017859683,-337.90541505929122,293.61337333904191
-804.40062877630623,-278.61123029902984,204.83037882890966
-760.82297471066659,292.89909254300665,531.50460761658076
-850.12144592084121,-450.06429489926956,321.47449635661604
-789.39848549792237,287.18388299268645,248.60694384911869
-846.54950707243336,-227.17531075867811,748.67838262608234
-687.95542220316554,71.235055896489158,154.3077582511726
-804.40062866123912,82.15459351334907,367.9097013859049
-921.07958013757036,165.84129719066024,482.94900996124835
-1113.7305324104514,9.2870425743163025,709.38705529360755
-540.07715388174677,-202.88612659560019,101.44306328981698
-856.82198929290053,-140.27258403631478,601.69306730043832
-413.63051864551375,-144.30632947563871,427.91827403914232
-476.49664237747658,210.03000428632629,258.60837262465685
-779.91630200360339,-77.709191110392879,400.98937647048706
-655.09358479782168,-437.20531504500639,682.95470781539723
-852.26461389246253,-272.18174689851224,25.003562537256453
-959.42277386817273,-21.431631131013873,1120.8744119263188
-760.33305933638155,113.07874905033661,525.04960923745284
-791.54164880696419,-188.59837119588309,301.47163880553751
-564.40918457670773,-335.87376932723475,242.9028177137557
-957.99399904983932,212.1731676882587,824.40348630519873
-531.71375163273808,-542.45595778707104,837.07960510311
-499.35705100727819,-80.725817973994481,247.89255607943304
-880.84012001713688,-250.03571938848387,477.92541791683982
-731.53307615372808,-154.307758251179,527.93256179453806
-576.51077251907623,-430.7832002856411,775.11075698988532
-641.52021717324533,96.442348907713907,391.48449778641532
-893.69909987140113,132.16173739105571,680.81154450634983
-654.84983843658745,-166.68898099222264,722.97664893296371
-676.52521788829461,-250.03571938850635,721.53164737816815
-1038.0054293470441,-307.18674096299156,1268.7526789541303
-862.98044221800922,112.14344308024816,485.0692915029291
-555.07929704242838,-255.75082154593122,395.77082440348084
-918.70267181025019,-246.46378054007451,731.53307615373012
-914.41634519216154,-151.45020717245501,620.08858408343337
-594.3706164186392,-103.58600284027814,613.3734744213175
-447.92113159022301,-302.18602657521939,820.11715959422281
-844.40634376338824,-9.2870410058575796,510.78725532218454
-657.23674810686452,-147.1638805543646,817.25960851549712
-955.13689280396034,103.58576407424577,642.9485657628785
-810.49692427541981,-70.518957402882094,374.38596700958635
-919.29415606094665,-55.670967839372317,57.198636770595755
-717.24532076010269,-323.61765966566503,339.33419059865116
-1171.5959422781466,25.717959708470154,920.13144734754894
-461.49407075520008,-175.73879625972208,946.56465571296803
-389.34133447634588,-287.89827118159684,581.51164452063892
-488.64090669224612,353.6139194455821,857.25964481670451
-642.2241378162613,-431.47712897841069,890.85903991337614
-675.09644317311768,330.04714875312715,905.12930354753496
-1090.1557365337871,-306.47235319331355,520.78862560327718
-868.69552793255627,1.4287755393637409,570.08144020573673
-685.09787112443848,-85.012144592081967,292.18459779968396
-587.68862764333426,252.50711041477641,419.26234313481973
-646.52093156164631,293.61337333904885,592.22746106585942
-575.08219103822398,180.02566642173292,391.48442820911851
-638.66266609515287,-37.862551793109674,794.3991998856917
-465.07218151540542,-297.19105564028735,562.21743128640776
-482.92612654947328,176.45380203308238,269.32419816400011
-758.67981140162192,302.18602657522302,-275.03929132733771
-643.70841403691372,47.149101867820285,77.838175366986263
-562.22317484439532,-319.33133312644185,282.89755666237852
-1015.8594497754353,487.92680915736253,666.52389909138014
-1320.9029860833982,372.19602807501263,477.92541801018268
-830.11858836975955,-483.64052007429018,982.28318331189905
-918.70267181025122,-372.19341373540294,802.25746535218821
-975.85369338483645,91.441634519201926,715.10215745095729
-494.86687322839038,50.492483415302644,389.30619133793959
-783.68338912015167,-395.77083073224532,923.70342937261
-677.23960565794312,447.2067438205487,186.4552078868353
-667.95256465208615,-30.004229372219083,625.08929847120874
-485.20076819944518,167.75030738180109,559.9740484506076
-880.84011803856788,-182.88326487472992,550.07858935122192
-520.78868409772372,-537.93399057008162,210.74439205600086
-1050.8644092013094,339.33419059865861,87.869695670802955
-769.39562794683866,51.435919417060745,-240.03429061295265
-792.2567889860461,-168.59698836510225,-237.89347481509046
-707.97213961905061,444.34919274181993,313.59775107037683
-715.81654946907349,23.574788903449036,1083.7262393342066
-587.94113444777327,-260.0371481640222,404.34347763965593
-955.13644806400328,67.866838112153829,641.52021716629929
-795.87576151848339,-134.30490087975528,616.69105970034866
-461.07927158296746,-355.3743743130442,141.75553860948068
-545.1345751680949,-546.52082053155652,975.09677543918167
-698.67123874838865,-125.73224746392118,993.71338762679977
-510.78725510157085,146.44949310479038,395.05643712044366
-476.49664237747567,294.32776110873317,154.30775825117178
-771.53879125588924,-442.92041720245356,592.9418488355401
-1097.2996119963805,275.75367909701185,832.97614279981485
-786.66370226129197,-89.298464028057339,404.09792967636872
-991.5702243177534,-343.62051721674482,1000.8572653236132
-690.09858775695682,-57.865411641143915,932.99042568997982
-435.77653950565275,-625.08929847122431,762.9661380196942
-830.11858836976,-250.03571938848162,-67.152450350055133
-879.41134438228016,59.294184931304912,1015.1450208604834
-602.94311446904101,-360.76574211807582,747.96413080810134
-320.04572081725701,-295.75653664809511,895.84226318044807
-995.85655317384055,571.51021126813396,415.05929076206149
-150.73581940276318,-29.289898556932705,216.45949421345242
-848.23250326415643,-426.07116721144337,530.38142562181224
-685.09787115204267,37.148163909777168,307.18674088180796
-853.69288726018135,175.74021709043839,343.62116060254669
-710.81622844720732,-450.77917968674774,740.10543117922862
-729.90443369123682,90.338724803994708,400.8221443491118
-485.06928922156703,-163.59479250313368,429.34705247303253
-567.93827689669274,299.32847471257503,169.309899846631
-737.24817831118196,-255.75082154593329,780.11144449206381
-259.32276039558855,-185.74082011840278,565.08072581693091
-819.40277182454133,-127.1610230032863,815.11644520645132
-850.12157385574517,58.579618538069667,452.92150481824194
-1238.0340037795299,295.04215010858661,467.9239909789685
-952.27889698527338,-246.46378054007801,747.96399485640165
-737.24817941657705,-78.582655759293331,448.06541300794885
-499.8889292880416,-422.7163941659673,687.40514354303912
-841.54879268466175,114.30204314902012,451.49307043862865
-437.2053150450011,68.58123013149428,343.62051714222849
-687.95542413283124,-90.012861295451813,361.48020991504154
-719.3884927291881,456.49375432798951,308.61549541702919
-572.97995193480062,-476.30535846734068,734.05115729584645
-702.9575653666061,-157.16530933004239,754.393484716432
-431.49021288754813,-212.17306911387814,233.6048991672927
-866.55236462351104,73.58194027718416,660.09429918559306
-694.38491213029761,-41.434490641517769,-158.59408486927325
-475.09922298709222,-280.7857496337628,571.47885959612211
-523.64623517644554,-28.575510787256043,-310.04429204172726
-641.66216408609318,139.26321161816705,333.82393159075747
-962.99471353050092,-290.75582226032037,1028.7183883411881
-400.77153879125052,-310.04429204171737,490.0700100014227
-790.68626698968535,124.48624044004119,595.61786972741413
-845.83511861955606,232.17602590847255,438.63409129383672
-850.83583301652072,605.0864418945464,262.89470048128919
-315.04500642948329,-252.89327049359588,488.64123444446886
-749.39277039576154,130.01857408201107,410.05857979710873
-330.04714959279056,-146.44949278467999,407.20102871838827
-953.70770829172363,168.59544842247038,148.59255790956692
-624.39589033710274,-270.03849444784754,460.73823466502728
-584.36919559936371,-352.19836478914698,413.62012997306402
-574.1342508486656,-475.52917491710303,637.57531911917272
-457.20817259608083,-95.013573367619003,425.0607229604189
-285.04072011984908,-202.17173883681426,381.48306899286962
-877.9526975486624,-462.15686496833422,363.66432068828823
-546.50664380625392,-483.64052007429603,745.10644377767665
-909.41563080439573,-84.297756822400444,704.38634090584003
-742.96328046863346,-618.65980854407417,702.95756536647582
-485.06929561365217,-320.76010858694087,687.24173901673282
-24.289184169159707,-235.74796399485527,317.18816973852756
-475.78225460779402,-247.1781683097567,702.243177596794
-940.84877299880395,-132.87623226530795,551.50730464173853
-535.07643949135024,-174.31061580225335,621.51735962279599
-753.67909701384929,-197.171024432059,510.78725532218277
-540.79154274252676,-145.02071862686685,735.10501373571913
-912.27318188311995,-97.160806316178622,263.60908701242505
-648.1045452157133,-115.0891071130511,1015.2617424590154
-737.96256608086003,-230.74724960708474,1030.1471638805492
-429.34704932054302,-450.06429489927007,712.95899448596845
-663.66623803399796,245.74939277039476,-74.296328046866975
-522.94191838533254,-125.7453835229183,851.53069251916088
-512.9304186312271,227.88969852835993,161.45163594798495
-737.24816746128874,-114.30201105143347,249.32135196233924
-802.25746671301511,362.19459772773445,321.47449340603561
-827.97542506071625,-165.02357479639727,797.97113873409955
-587.69399257199348,203.19453155304811,415.83598980469367
-1022.2888984140542,147.16388055436758,772.96756679525106
-498.64402912322055,-455.78081785231717,675.09469895720417
-547.22158033637731,-876.55447386200717,471.49499509694874
-1173.0629681435803,-170.02304022671944,1042.3133790434076
-810.11573081867971,200.74296328046921,700.81440205743002
-1025.1466117385496,380.05409223543126,-18.574370029408339
-635.80513462073861,434.34774436196523,137.87681994389507
-660.80866566843872,-224.31771710628877,768.6833012868658
-635.80511501642468,-776.53501181993124,592.22746106585896
-808.36371293636535,-55.765958799052477,187.70672224931053
-642.2402073355787,101.43703991373749,481.48964942824654
-1152.3074724960652,-127.87541077296746,1027.2896128018222
-1185.8836965682924,600.9734035502338,542.9347060606467
-1270.8958422631722,462.208886983855,679.38276896698892
-732.96185169314595,-559.36562366057194,971.56736676659398
-643.68185240313574,-331.72647960860741,824.47334768989094
-682.24032004571438,-595.79939991427125,400.05715102156887
-882.98328332618189,147.87826832404284,182.88326903843097
-877.26818116873164,-24.289184169169506,457.20817259608231
-822.97471067295044,45.006429489930206,533.64766395198706
-777.1224686369726,-496.33344707442251,247.33941767756198
-803.3976671126286,-336.48163498612837,541.28696763497362
-689.3841977425277,-183.59765680811267,637.23389055578934
-459.46747734262817,-107.98321605082762,992.75575976493928
-584.873399518317,69.350307401823486,557.47874682474617
-454.35062151735411,-372.19602800399741,800.11430204314229
-559.36539480843692,-322.90310025692668,797.25703702951841
-765.82368909844035,-11.430204314901133,576.51093013286868
-732.9618516931148,-311.47306758112751,669.38134019144934
-547.16448799924535,-19.198780340003491,479.48872817314714
-664.30396461140458,-612.23031912279828,476.59246895826209
-595.08501364646622,-37.148165231710891,519.359907530756
-692.95614370419196,-130.73296303723524,867.9811283074381
-445.82097793742457,-365.11791132297958,947.85821581468713
-486.39414291976271,-316.83334024140942,702.70980963113846
-685.8122588941186,-207.17245320760307,745.82083154735858
-554.40077707556782,-302.89647782373584,637.17416613996159
-744.39205600799198,-127.16102300328482,759.39419917130499
-460.78011144448624,-412.91613087583715,153.59337001288358
-878.68017430063878,-457.90280235415185,299.35585105475656
-1093.727675382192,255.03643377625599,759.39419917130783
-395.79593172527734,-105.7589917552088,610.05073419294411
-387.91255893698195,-135.73367623946177,567.93827689669331
-577.9397056722338,-175.73939134161523,675.81083011858095
-390.77026485526767,-137.87683954850442,602.94304535174558
-515.0814344303825,-74.304378461680272,444.33330058656878
-720.10261171822526,-10.715560307016107,703.67216019733144
-736.53378985031429,-589.36990929595163,358.62266107123162
-633.66046665359863,-178.59540763536467,667.2385910509056
-520.78868409772292,-402.20031433061752,447.20674382053988
-1005.2807389912765,-96.585729913364048,678.49452306880357
-686.52664666380019,285.04072010287115,305.75796542362912
-842.97756822402494,15.716530932990883,627.94684954992783
-850.1214459208386,-37.148162426393817,441.49164166308913
-905.1293041863031,-22.860408629801828,265.75225032147011
-180.02571795970465,-190.02714673524466,357.19388484068412
-719.38848406914406,-196.45663666237732,636.51950278610673
-735.10501500213638,17.859694242035271,439.34847835404395
-735.95963809201612,-25.190626750754802,575.84380816475027
-895.84088429960616,-247.88952642576055,605.80242120007506
-850.83583369051632,218.60265752250334,891.55593656236192
-928.99002747523491,-74.296328046862129,619.70734823083865
-531.52149850967646,-183.49395983623515,606.45529648305137
-544.88188760909463,-8.958302588411712,546.63940156590138
-997.31486510806769,-201.99733369277325,557.74236083221774
-773.6819545649322,283.61194456351086,709.38705529360959
-387.19817116730047,-100.72867552507154,608.6583797685314
-670.09573368653037,-139.30562134280959,492.92755340216746
-985.03498515294234,-185.62888383406252,890.29876008235726
-437.20531504499917,-504.35776539505412,770.82440348620889
-795.11358765537011,-70.010001428774174,651.52164594941564
-836.54807829689537,187.88398342620059,852.26460922988065
-648.66409487068859,-416.48806972424512,480.78296899556238
-612.23031861693642,402.20031433061757,224.31775967994739
-890.1271610229943,-44.292041720245983,532.93327618230683
-569.36705243605309,-246.46378054007567,676.52521788826459
-680.09715673667154,-30.004286326615496,730.10430061436693
-542.93470495847055,122.87469638458872,502.21460208555555
-304.32918995506077,-242.17745399238279,700.10001423505037
-397.91398771252688,-72.867552507495049,820.11715959421997
-841.12899710007309,91.899977039210469,10.656726677385366
-622.96060190675553,-44.964750003295798,569.40322078188842
-626.51807401056692,-74.296328046859443,664.38062580368285
-903.70052864694196,372.9104157736864,541.50592941848265
-764.72800764522719,-19.169901200378106,906.71275340417162
-877.98256893841676,-347.90684383482562,1018.7169595656458
-459.12871009812665,-655.20081127568892,133.19994451636967
-434.347463905859,-597.94225325524974,642.23491915776162
-527.09758452386495,-214.42460863739043,577.03218641056696
-449.3499071295476,-477.21103014712264,-191.4682509379885
-453.59765314863074,-497.92055934811214,555.83998153095843
-596.54707582754315,22.819438606919771,595.15255708996858
-691.52736106035741,-8.5726532504913724,645.80654378280076
-725.81797399627715,-114.30204314901724,607.22960422917129
-776.53950963337979,-632.2331784478647,1195.8851230268633
-757.96542363194146,112.87326760965931,507.21531651638713
-891.55593656235783,175.73939134161895,467.2096013716212
-1027.2896128018224,-142.16316616659677,556.50807258179111
-804.40062866123185,-482.92613230461484,354.33633376196207
-595.08501214458465,-5.715102157448781,654.37919702814361
-417.91684526359859,-487.92684669238207,759.39419917130203
-621.51735962279542,-765.10930132964813,505.78654093329362
-714.38776968137711,-70.010001428773279,0.71438776967721129
-535.7112366147802,202.24880277889588,363.67769854224258
-555.12791833171582,-614.42210321526807,586.46373761912037
-785.82654664951292,-165.02357479639869,306.4723531933098
-888.02123998066338,108.70514790744397,518.82283116248925
-1527.0936158471241,513.91419421820945,776.71128955219683
-422.20086143557802,-130.7306380352876,314.33299863141809
-410.77296756682568,-108.58694099164209,582.94042005995425
-464.43163647660731,-245.08806245652187,897.8793115778758
-380.05429347314038,-50.007143879401688,336.47663951325814
-612.23031861694233,-472.92470352907071,541.50592941848197
-337.9054150592857,84.297756822408942,696.52807543934455
-764.39491355907205,-87.155307901127472,609.372767538213
-923.70338619801998,-4.2863266180860178,654.37919702814293
-864.40920131446592,-340.76296613802043,320.7601085869353
-1032.2903271895905,261.46591524102706,615.08786123331049
-1360.9087012560453,95.727961124775589,272.18174023295938
-645.80671390282566,117.15942064523767,-70.724423914963822
-739.39134162022299,185.74082011716126,512.93041863122687
-536.5052149214373,-233.6048005765372,224.31775978922423
-966.56665237890161,232.17602514644815,688.66980997284793
-655.09358479802836,-240.74867838255668,629.37562508930489
-830.83297613943932,620.80297185312065,130.73296185168817
-836.54807829689059,43.577623196074768,545.07786826689107
-623.66052293183907,82.868981283043283,424.34633519073338
-560.79439919988022,-252.89327046720669,655.80797256750566
-857.26532361765317,-23.574796399485596,739.39134162022697
-802.24448646537269,178.6102208199332,462.93265948707477
-859.40848692669556,-142.87748178829139,265.03786255178818
-667.25815593562618,-107.88059673681825,642.88386618910715
-596.0218332844338,-15.725222051934816,878.26101388453344
-245.74939277039047,-340.04857836833554,580.79725675095926
-570.10382796794124,-47.881848235566117,761.75001967310357
-709.38705529360743,-335.04786398056763,548.64980711529802
-545.07786826688789,-116.44520645806435,495.07072438919124
-834.39875670633751,-227.14517211459918,680.62585988732576
-608.17474168342301,137.62645009582255,352.36257224824215
-661.17688690454338,-144.69616929508049,766.70805092057662
-569.36705243604627,-56.436633804808203,445.77796828120455
-557.22246035147032,-311.47306758108027,789.39848549792407
-675.09644234900691,-73.581940277285938,410.05857979702353
-1142.3060437205247,128.58979854265053,552.93613291489419
-293.61337333904436,150.02143163309375,377.19674239176487
-662.00397558635314,-87.640455073818771,906.03546160731594
-748.67838262608211,6.429489927132094,-52.150307186744868
-236.46235176453459,64.294899271328077,720.10287183882963
-581.51164452064006,-446.49235605086096,672.95327903985276
-528.98215034119357,-413.13790717329488,399.32066689447197
-670.80587562008873,94.303924483123524,688.67163893005625
-580.79726117370831,-337.19103162085582,275.75367632135391
-929.58527465980637,-12.646460615396323,867.22303228240469
-487.21245142138054,-137.16244444237483,487.92685147343724
-775.82511787397345,148.59265609372923,615.08787261133159
-627.23246218235795,76.439244945294803,557.22245874303087
-997.28532753355682,-64.294899678374449,1114.4449164310529
-415.05929418487869,-342.19174167738043,615.08786969562448
-605.02128737050998,-190.02714673524568,634.40891625187112
-610.07795413611223,-99.290249962422081,599.38278426838167
-512.21603086154687,-195.02786112301587,517.21674524931541
-878.69695670809529,-187.20924580683138,732.20781377310061
-792.97143450261012,-71.439560243581354,427.20275813513655
-1004.4380975908309,-65.734345890856773,746.52154894806461
-415.7577846448574,42.228364959699988,452.92184597798422
-934.419202743239,82.684223266856122,364.33776253355995
-873.69624232032641,-227.17531075867606,302.9004143448995
-537.93399057007332,-84.297756822401439,217.17388198313344
-892.98467447925066,-244.32057020294451,870.12436168506906
-751.53593413932106,-107.15816590120669,778.68266863405768
-602.94327750431239,-37.862551826904458,489.35562249944923
-796.54236319473762,-216.45949421345506,665.09501357336364
-828.95830351793018,-83.923937338966766,278.01227138886401
-552.93613373338428,194.31347335333743,287.89827118159133
-799.39991427346081,2.8575510695251114,304.32918988426582
-652.59013887609706,348.05083078534784,197.22111525788185
-374.33919131303935,-205.74367766823403,468.63837691098189
-510.07286755250055,47.863980568653531,859.40848692669897
-795.11406181771122,262.89422156809729,535.7905041281781
-912.98756965279847,-207.17245320760048,555.07929704243077
-671.52450350049219,211.45877982568993,953.70767252464077
-909.41563080454091,152.16459494201666,904.41491641657308
-477.21977371518989,-42.873310182620337,467.93542312354577
-782.96899557078996,-260.03714816402106,776.539505643658
-734.39062723245297,-127.87541077296625,42.148878411197835
-625.80368624082257,-47.149592798887163,651.52164594953069
-324.33204743534219,-186.45520788684053,380.76868124017432
-1131.5900238114177,-248.60674048523188,340.76399780113178
-460.78011144541807,-221.46020860122582,235.03357622454658
-433.63337619659814,-70.010001428773322,592.94184883554215
-930.41735256198956,-197.44321886571879,251.74149157937549
-487.92684669237877,-515.0735819402737,897.27103871980955
-565.79511358765228,-235.74796399485388,670.81011573081196
-870.33240583564452,92.662307694850909,635.59701265270155
-278.61123017573374,-346.47806829546761,780.8258322617495
-1160.1657405009407,447.92112900038711,186.45520613740885
-570.79582797541923,-122.87469638519654,937.27675382196958
-420.7743963423311,-300.75725103585785,614.37348192598188
-282.1831725354516,-400.05715382889662,655.09358292175898
-272.75262052826042,-280.08683282392644,390.05677213950116
-943.70624374909914,442.20602943277555,552.22174596366733
-777.25358344611845,-240.74834600813713,759.39470706939539
-575.08215459350731,-652.95042148878076,177.8825545585845
-922.2850031146952,-59.305553113873053,476.48592466334736
-673.66766680953754,-442.20602943277299,99.299899985706546
-998.71410201456899,462.20888698385227,391.48449778539521
-699.38562247011214,-684.38347643407496,848.69267573521927
-776.18613293302792,-28.734598583090801,758.8277662266247
-310.75867981139521,-288.61265895127593,500.78582654664609
-555.07929704243179,-400.05715102156933,754.39348478353588
-512.21603086154505,-202.17173881982907,457.20817259608049
-418.58118174024469,-325.11273967709275,582.45874382054126
-568.64078697056254,-356.43658464839035,665.83930333961928
-705.82454875102849,2.1339697957699419,550.78592604403673
-551.50735819401962,-347.90684366315043,1058.0082870698036
-342.19273461817755,-871.55445070240046,900.12670628285855
-897.98542648949297,-217.17388198313515,212.88755536504405
-762.2517502500292,22.860408629806145,465.780825832255
-817.25960851549053,366.48084240416642,616.51664523502916
-718.46170501038443,42.254515684455413,185.32941166746627
-809.40134304899834,119.30275753679325,650.09287041005553
-405.93129541196134,-288.65077420265584,674.29801759821726
-887.26960620701732,-500.0714346125925,786.54093945915167
-896.55665095007214,-6.429489927061125,302.1860265753719
-441.4916416630889,122.16032384648503,336.47663951992479
-525.78939848549123,-102.87183883411782,397.19959994284608
-644.37776825259891,127.16102300328814,375.7679668524043
-687.26330208956108,-432.23185360944859,543.6012338846167
-1110.1585940848622,-64.294899271321682,798.68552650378069
-811.44331482615235,42.974697332071962,523.06917877148146
-343.22910846785817,-354.4502077546893,770.89765440414851
-635.09072599965066,-168.59551226379176,982.28318524530903
-782.96899234008492,-35.004996758014904,-13.573362379907939
-880.84012001713575,-166.45235033576193,860.12287469637693
-513.6448064009079,-447.92113159022705,512.21603086154619
-690.75637084847438,43.976622647419155,416.66329312885165
-780.11144449206381,-151.44873115242152,808.68695527932096
-780.82583223757229,-391.46938827253513,82.154593561703322
-547.22103157593529,-186.45520788683825,735.10501500213684
-819.40277182453849,-251.46449492784365,-101.44306329476123
-577.22531790255618,-347.19245606515136,652.95042148877894
-765.0038756929689,26.528957233274774,572.55069284792899
-1083.0120551414168,223.58102585677955,750.97077588596699
-766.53807686811865,93.584797828263646,591.51285531913743
-916.59141218151535,32.132057125408345,483.03842169730774
-637.23389055578639,31.433061865979852,625.80368624088521
-92.861744873969755,-239.31026314933766,265.72413658402144
-503.64334121113387,-260.75142669099472,708.67277676663593
-98.585512215960847,-496.4994999284574,426.48949849992118
-840.12001714529913,217.88826975280475,521.50307186740292
-897.27104180023673,-40.265141477645358,796.99732150850434
-622.94613525063221,-125.01785985275357,682.95470775641786
-522.21745963708543,-97.156736676664792,665.09501357336319
-684.3758841110897,-150.73039137158054,865.84231927878761
-447.92114814355295,-415.77371482131701,81.440174556235547
-469.35269946043275,-205.7436135472264,621.51052899936076
-608.05655100008369,-14.643149125547307,505.67958230588124
-888.77522398979102,18.479060347611572,612.09482476257415
-754.39348468333253,235.74796411228758,452.92184613018634
-765.82368909843456,-22.145788947424592,710.81606274566514
-943.70624374909812,170.0214894767179,714.38496997392838
-627.94681394986128,-405.77221779212681,768.68126469218271
-1003.0004286326567,162.8804114873553,536.50521503071468
-900.84297756821593,15.00214316331312,400.77153879124899
-520.21809143037126,-247.9527379196698,223.57841124107472
-1073.7248178661973,127.16102296837414,545.79225600829318
-779.24866449227011,-505.54032235573209,658.27734619931971
-281.46878125467981,-142.16316382769102,547.93541946734729
-909.41563101409338,126.4466352336034,495.78511173946805
-394.34204886411698,-104.30061437348006,438.63409058436332
-857.97971138733521,192.88469781397256,633.66195170738104
-499.54159894686347,3.95414032683379,516.35471912796788
-663.66623803400012,72.153164737822479,427.91827403914147
-655.80797256750145,-27.146735247890135,-6.4294899271404669
-591.51307329617862,37.862551793116033,532.93327618230819
-642.94899271323584,-246.46378054007366,395.05643663380266
-605.80706651901778,-201.46349837815066,772.96958151167064
-720.81722306458789,-252.17884615183326,447.92116813463019
-728.67552507500761,-149.30704386340724,690.81297328188384
-563.99764247210021,-287.28408299741432,734.72135004538154
-567.93827689670502,-535.79082726104571,1058.0082868981112
-145.02071724531035,-122.87469638519917,160.02286040862541
-1160.8801257329433,467.20960137092703,504.35776539454963
-905.84369195598333,-144.30632947564013,821.54593513358577
-633.66195170738149,-363.45739481309113,154.30775825117161
-873.69209998209874,-354.32984409874655,307.905685304717
-792.97042434632681,-371.48586173531805,468.63696974398226
-734.41023138295441,-198.60984154070974,725.81776443940271
-634.37633947706524,-309.32990212666061,710.81583083297153
-568.63548512774855,-245.17877193885207,549.94825351574605
-850.83583844979103,-251.46450152941122,532.93327219065668
-482.21174453492671,-50.007143877696194,662.95185026431636
-1099.4428801751994,568.65249360711016,419.3455352733302
-810.11960041356122,214.31244790255826,682.95082183420971
-656.52236033718361,-512.93041863123187,857.26532361765169
-712.24467877299219,-166.45242830569902,472.2102600665778
-737.24817833150757,-29.289898577057301,391.48449776882569
-417.91684526360189,268.6098014002024,372.91041577367633
-1152.3073234410701,-187.88387695835056,650.80736464758945
-955.31838741333388,41.810508352861824,493.63247262021991
-1299.4713530504284,410.05032483949742,654.37919702814384
-1017.2881840262814,-435.77653950564309,605.8008286898048
-856.92169026414979,-176.25143510781251,582.81336374708326
-725.81797399627658,320.04572081726275,392.19888555507379
-865.44423005919339,82.281952682637325,580.73911363093077
-866.55176119869918,-6.4282513183095098,380.0561672633213
-678.25709700230959,-23.194372460438281,521.16859143099759
-153.59337048148868,-179.30800299215025,297.90302715500627
-315.04502830310787,-31.433086905527055,182.16884529239158
-660.09429918558772,59.29418490894416,552.93613373338644
-491.49878554078794,-483.64052007429262,666.52378911272081
-460.06573877554484,-291.47054542932437,739.39134230715945
-1382.8240291036891,906.11535095159547,195.28155428345011
-542.22031718816527,10.001428775541841,1088.0125732247409
-975.85380434608498,-107.87291658815553,232.17580168895307
-725.22382134830775,-299.98391229424726,539.68930591882497
-424.30024493382501,-37.811074363315264,463.70320645998794
-1068.0097157556295,-142.16374300327857,647.94970703862055
-795.82792285964706,508.64414935722237,325.76089435613511
-330.69601347755292,-379.92324570066046,487.92684669237821
-666.12993830636913,-20.663965037945474,469.74260877497295
-665.09409669800891,-96.441349747951094,359.17292093868753
-540.23961063351715,-385.14711356905525,699.72650440252255
-862.97131513421459,675.82029571950784,191.45959019496115
-371.48164023431377,84.297756822399165,334.33347621088177
-605.08644092012833,-110.01571653092846,537.21960280039389
-784.39777111015053,-179.31133019002675,840.12001714529777
-652.23603371909599,-1.4329187566773274,422.91755965137406
-805.11501643090969,68.581225889414014,730.10430061437114
-570.94998555152154,174.79376720778649,230.99581411680114
-825.83226175167169,67.152450350048866,427.20388626946112
-857.26533927592141,159.30845949334923,559.36561353626098
-385.05500791383196,-634.3763395326398,715.10215741046886
-687.95542220317759,262.18031147305857,642.23460494354208
-712.24460637233005,-83.583369052720144,632.23317616801944
-324.33204743534213,-319.33133304757632,552.22174596370439
-627.23246178024817,-372.19602800399673,840.83440491498402
-866.54209120154337,-112.84287648390858,806.56048617440365
-277.1824546363693,29.289898556940429,366.48092584654393
-768.43616809835873,-158.3531398680357,-61.354653408606282
-886.55522217459043,-10.715816545219377,422.20317188168872
-592.2274610668552,-280.04000571617104,275.03929132618077
-508.05031333365872,50.496966342545107,275.56654134297855
-822.97471067294657,-51.435919417058507,450.77868266894666
-763.91476112964892,-205.97796444943242,792.69800237441552
-486.49941984789808,-205.74536353684164,460.06346993467241
-1208.0283219666239,130.02121238649968,694.38661919562367
-652.97575621637384,-97.182071404262558,727.94271204889083
-1028.0040005715,-97.156736676667521,654.37919702814054
-436.49092727531763,-305.75796542362968,690.0985855122085
-604.71848777762671,-552.28928877113674,461.47952114138144
-1141.5916559508462,-307.90112873267492,473.639091298751
-798.68552650377819,-200.13736600545067,682.9547078153962
-677.95399342770008,187.88398342616514,615.0878696955557
-604.37205315044241,-206.45806543791801,527.21817402485408
-541.50592941848186,-292.89898556936424,741.53450492926834
-721.53192918809339,-260.75181774360402,370.76697065473434
-605.80083268041858,-115.01643490931387,462.92327375587894
-597.22817545363239,-156.45092156022153,663.66623803399762
-993.64202082126735,-458.55666047922494,370.09746894840845
-127.15994508181016,-200.74296606358419,152.16603530327072
-570.79582797897353,-75.725103589783075,567.22388912345389
-864.40952947225685,262.89434647312106,359.33652719923242
-439.34845120292135,-377.91109828839279,-6.4294450687646192
-452.21010446636546,150.68174740909242,220.74383613800038
-627.23246178024817,-247.89255615176904,582.22603229032347
-657.95113587654737,-382.19745677953637,727.96113730532568
-370.76928517383868,-412.91833198761736,775.82229613481729
-928.70382065351532,107.15580507378162,523.64380560128598
-594.39427999770089,104.98350247501133,1016.5422965884449
-789.61226154212034,-205.24715126117334,-37.61854725784535
-614.37348192598415,2.1431633072735625,443.6348049721355
-593.65622895937304,231.46164159688161,37.86255516919762
-909.03558075861963,159.33308696610729,264.5847349402033
-1264.5738102112466,312.07999747555561,704.99327080031082
-725.84135076553036,-169.30990141448561,462.18551021460371
-375.05358472181473,-230.03286714478369,442.20602545223755
-347.90684383483159,-800.82868981282763,860.83726246605966
-915.8450284486114,412.91639256588968,127.16117294479955
-737.50698222131416,-344.61694066765239,164.66564866293032
-552.22119079588026,-122.4212550474581,423.00891852679285
-805.82940420059253,-145.02071724532058,467.92398914129939
-913.70717791025913,232.17058251026123,339.32591557015917
-832.25891216854654,-67.860415417958322,762.26162092854156
-662.9518502643175,-165.73796256608131,722.24603514787316
-835.60554125440001,-60.722960422914859,658.48588393871285
-1054.4363480497102,-137.87683954850519,360.76582368909374
-340.04857836833241,39.291327332478666,212.17316759536544
-632.29322731306331,32.364784226881575,535.58649415783282
-874.41063009000413,161.45163594799112,401.4859265609312
-967.28104014858172,347.9068438348308,295.75653664809067
-539.84746225627805,-140.64030932919147,642.64524612026321
-396.21175481912894,-261.88302004251034,481.79464819580215
-487.92684669238008,113.58765537934187,266.46663727467245
-897.27103871981001,-166.4523503357633,662.24054011928399
-473.63794317721459,-462.92115651940668,809.40222938053296
-926.56093727724055,-122.16030858618939,382.1974567786196
-770.11001571775785,232.17602514514445,716.53093298902843
-638.66268662270295,193.59908558302257,155.02210496574952
-860.83726246605897,-291.47021003000287,338.61980282897161
-1012.2874716994029,-26.432349520497652,832.26175017680009
-345.76344341316519,-345.04899985147989,587.22718952724358
-360.05265678808172,-153.59450510320536,415.05740735605588
-980.14002000285041,-38.576939562794252,702.24317759679388
-939.42358916726016,-331.47927883307034,340.75483740702293
-722.96042291755543,-2.8657455970575634,534.36205172167206
-1008.7155842235444,-347.90689865615434,811.54446576251178
-901.55736533790059,-543.64909272753164,225.03214744962818
-580.79725675095972,-295.75653664808806,507.21531647377219
-830.11880266191986,-158.59419201534371,911.55847267520392
-700.96122320023471,-30.749583600342735,637.84554920023038
-428.63266180882249,-62.152823103027643,717.24423361935351
-767.96682717968383,-114.30201792678872,342.90613574129509
-517.93113301914491,-282.89755679383933,577.22531790240498
-882.26889555650268,-441.4916416630922,674.38205457921845
-1083.011858836968,-133.59051293149506,217.17388198313336
-845.12073153306687,70.010001428776533,918.70267181025338
-804.84718879827392,-362.37213114071727,627.12758404506258
-620.80297185311815,-315.75939419916676,893.69909987140193
-657.23674810686634,-123.5890841548767,722.2460351478752
-937.27675085283101,168.59551742403718,809.40134816356124
-398.61147994600481,-230.01161442066413,548.67950229962037
-598.29307094013598,-113.93816309616338,180.3895980125595
-277.40198853910249,-239.89232073101044,311.97652472728106
-317.18816955980526,-592.22746071586266,723.67481121223648
-815.83083297613098,315.04500642948904,193.5990855836508
-1131.5902271753021,-113.58765537933978,835.11930275753457
-702.4647511165623,-198.00293463476166,776.20714536400737
-1094.4527278535629,105.71841608936434,454.34613741853127
-1020.8601228746869,-25.003571938847951,825.11787398199226
-177.8825546498156,-400.77154018316054,486.49807115451216
-640.09144163810925,-64.294899274903941,917.27389626799106
-933.70481497356093,202.17173881983058,661.52307472495397
-765.82368909843706,-242.01489379041129,901.77682949496534
-542.2203171881614,-16.430918702671338,353.62194599227809
-572.93899128446378,112.87326760966208,430.06143734819119
-591.5130732961801,-260.75153593370186,837.97685383625787
-768.07177580025541,-416.56048359801525,1083.4604189156933
-852.97899699955974,-168.59551364479415,665.80940134305956
