-371.84945428980393,-353.66585645242594,186.38380867712067
-439.47165781005964,-295.36730735369201,591.0713451608982
-509.59501929238496,-34.094602452212413,432.76209553819257
-740.52186562414579,-99.099918174379965,113.64669515410233
-50.913719429033172,15.00136376034153,260.93281207382717
-559.59632777533147,-579.143559034075,592.78116130235935
-396.3996726975152,-256.38694426766108,354.57768885811549
-365.942337564198,-21.36555211841404,224.1113097760994
-409.70929805898732,-100.66580871069311,270.23924328729697
-249.51208782977042,-309.94399287385096,481.12372626153683
-540.97430060656768,83.171624252929874,265.47671512788281
-540.04658679013983,189.11067050352662,100.01278322643856
-307.30065372519647,-111.8952262397049,240.93084546102895
-597.32702972997117,241.38735469698079,250.02625523884876
-628.23875066972084,7.7283355706110148,466.40603689928031
-37.730702791160482,-208.20074001168621,105.93377654176332
-372.00091571362606,9.4852214144957827,251.40226114715298
-546.41312218555652,121.82949612545873,119.55662263899016
-483.93939205441177,-12.560514434229647,255.54099853113499
-589.14446767887716,-130.01181925629751,490.04454950449701
-606.50448037249396,240.92028810209752,480.55463532918372
-371.41729421459263,-41.387293110355913,370.9221292975713
-506.86426030254097,-24.093099387784015,403.21847475807459
-585.50774630981618,-72.279256889328181,457.76891411989982
-696.88153468473467,231.83925811466,160.01454677737286
-629.4248915883071,50.54866976699855,417.12277717339896
-566.86971542868423,342.30384580415563,203.65487777034662
-578.23438486375483,96.826989539627732,239.11264671462965
-294.57223383319132,220.92917538737262,95.46322183176072
-640.96736066914673,-30.457170477765114,221.83834894081059
-337.57881752241326,-186.25260982810468,409.23047902605401
-650.5377384514984,145.44004738073323,415.476391058697
-600.96372397440587,-92.735736687818743,76.370545701751311
-306.84607693321362,-33.639421779889823,290.02636600757484
-171.87753617701452,-4.577147896327193,388.48093461288937
-418.39093820475733,83.541307610832362,251.73841643889554
-601.47783314073888,-285.10111877555335,240.37696554518513
-409.58268933539159,-122.28384398581561,523.22938448949662
-214.56496045094693,-57.27793435766867,415.49231748340526
-576.58103383233788,-51.083736134251488,130.90996660916645
-559.5958729503385,-76.369898158925011,373.6705606750802
-508.22754112301368,39.082754107535322,319.08830191939063
-199.11435101286909,47.725095147373274,340.02234598136477
-424.66653355710298,-87.170000915687723,350.35586807777474
-625.11168456155497,4.9500270370435659,81.776512420552706
-368.2271082751858,-119.11400421475071,441.84011339866623
-111.17367754955501,2.973487422472973,479.45393696836356
-479.58905355031965,-72.279298118011653,287.29884534957176
-300.93644957320669,-265.02409411957734,380.03454749740416
-90.462769342664956,45.004082864697182,299.57268562077485
-504.34046041100476,56.868963175052862,422.94772680691972
-565.96054186743891,100.91826529621098,496.8633512137439
-470.04273303169498,-206.38239910615164,553.23211363385246
-228.20256386944018,-212.29200394092018,305.48231657423031
-481.55282580893675,-100.61710870574615,513.45892714251238
-460.95099554544549,26.366033274998298,428.67533412070316
-609.14628605236783,-148.19529051319896,175.89950780429243
-533.23029366305502,316.39239930902983,248.65896899718118
-599.628106755266,-40.291584613289587,461.25161832385032
-307.87671599439966,-63.642149289146772,309.78525334730028
-398.67628012110271,129.09894242945253,346.3914234217587
-361.39635923604288,242.74947084638126,139.88744347802279
-634.14955593172601,20.90974508979458,180.92343481498543
-515.03087152010539,-341.39559768359925,176.90028866473855
-355.94140900123205,93.190339607493144,255.02324843186869
-334.00669256478471,-23.30396844605216,220.81125337938761
-665.98030989162555,-151.38802697619477,624.13629308400584
-437.76706973360979,-24.54768615328841,35.457768888079237
-653.34225833742232,15.433562397696706,538.59417533075361
-447.31319468550282,39.549252055658393,252.75037538212632
-497.56218875236135,-298.90353024396597,629.57440310423522
-389.12627929927635,-159.10536841852064,183.65306280767507
-193.19986833822315,-121.37515700083007,397.76319759924411
-445.94963178470351,34.548595326847739,253.65942358395949
-515.50145380198626,2.2728256990677682,316.84690547040981
-590.50822802888683,222.29293571531096,262.75115919628712
-300.7618027051343,74.378101721725031,157.26130292739825
-606.28819556370422,-477.1855502038635,119.68689375114674
-557.32339303572837,-216.80580816397477,568.72051746358363
-783.90528307908357,-92.99160707707567,551.18593535410866
-473.22420967284484,-7.7273525074476739,263.66084430064552
-400.6355397995606,-70.679387892105382,358.04013859585922
-561.86648883437829,-383.66856056170315,265.48072700590046
-320.92775740022148,-155.91979362751155,537.77978916515963
-350.03182107463891,-321.84744067642504,427.76616056004826
-413.75480700999799,-173.27824598732687,563.60682715428322
-600.50913719429047,-16.819710882807541,650.51368306209497
-323.28596397991402,26.378630658090859,557.08286008508571
-691.4264933175707,376.39785435039431,176.37967087916795
-455.04135789400158,-92.281108446409164,195.4723226789099
-296.35963276627399,-216.36449398623671,330.55224119696061
-185.16047512962317,-42.013023847907164,469.70066482034133
-390.76207611919062,144.19620935931178,42.733880923062124
-313.06910707466454,145.1658600755521,168.86353137753912
-682.33413447946361,-144.10290089235741,624.60389432944578
-444.25979324858105,98.704618338178236,177.43706180138332
-143.19483589417069,116.82880261841989,163.19665424129158
-465.04222257794231,-168.19705346851165,411.85566795217022
-192.29031989185145,-178.66020488657057,413.67388641918717
-450.76581504424229,124.11703194116872,302.98408689234947
-330.03000456631844,-149.55905274518815,562.7784326479059
-640.96736066914752,-58.641694699517238,470.04273115737374
-418.21986406834174,-1.363786243086148,-29.093579860690731
-347.39709291414681,315.92417600202469,234.45928434611167
-635.96688756668732,-129.55721854321536,513.22852182255235
-618.66994646367675,-28.616673647435995,387.77936071174167
-428.22067910434248,11.819331044625983,490.04465652283125
-588.38128123771344,-212.92996038780186,419.37363915373771
-467.3152105051721,-238.65805983943466,45.913264763766975
-520.50186386934797,-2.2729339702313003,174.10673690901598
-506.31550084029493,-203.76390835661286,81.475922014089349
-560.29999171210591,-49.114043545783062,472.51494712207295
-385.94416592964188,302.24029548977501,548.47963353854891
-311.65347222658392,5.0504873717015455,294.92681447042338
-18.669704962297686,7.2454111934275556,377.26410030830721
-676.87971633784457,-41.367397036093003,322.75490345846822
-542.77661605600099,18.212257199096179,415.97859939100795
-589.4175719013997,137.40619783811894,92.068505298465723
-386.85335030457736,48.186198745335886,162.74206746066349
-604.38753223366882,-150.39059619922929,617.6481770563463
-766.19703142153389,-27.990422954607627,670.85271495916049
-214.18856264614476,-79.933240719609827,224.71601311573642
-354.18595467273406,19.92312665282898,446.29893792937736
-231.13191758465115,-151.43767356914424,446.15484190359234
-448.92246641587803,50.409425115193017,262.1833669191912
-324.13360277126441,112.71904979356648,209.08382021872492
-390.69879540484862,164.83288484638891,278.19840577413441
-375.48868079184194,-57.277934364575536,248.20438221209236
-498.9977374205103,-214.82434978766895,512.98130451350858
-262.75400253497764,-211.38630473765434,372.75688871248178
-480.49822676550201,190.92644801138081,394.12673975783161
-588.89154307244917,-150.63882564164302,150.37305678097118
-645.02566540215935,3.4135575081807699,44.947027812155682
-535.50324574550734,-334.57588490723691,142.28564156395274
-488.68076439515329,30.014443752815072,89.122450824400332
-571.20557959987445,-86.948366984846359,580.59503093330613
-582.75693127495811,-195.89909692151514,267.32303234008208
-365.12854166409301,-163.76344124041611,198.65261714537326
-507.77343394853585,-108.64624056732325,191.83562142012801
-568.7426601264923,-197.34944946084849,615.76387173094656
-407.30973871164457,-10.916643815304681,242.29476772651975
-487.31702882080282,74.552232021088898,362.76025093189764
-521.55073794193652,-105.60173677034449,469.03765592274692
-430.49368124427161,13.637603416561525,400.94554050224809
-719.15629056891078,-89.737419123217535,294.11764066184247
-180.94560459203734,-235.4859797104202,35.912368654392232
-551.86835166833043,-54.095826893354669,323.21120101827017
-157.13464564962018,99.793285821796587,550.41366637409612
-84.790517826930596,-37.476103524481978,188.34433259779786
-425.58785253049638,-231.93563865755166,466.56817031828342
-745.06794729603746,-37.276327526089318,596.41770105733167
-568.68806255113827,-159.40258756932064,221.38376216019316
-529.57887305053816,186.84977176037927,218.21625404516524
-301.8456224886009,105.4641329564185,-58.187108026518487
-579.59815220433802,-247.29521570185528,412.27746772882074
-508.68330098981806,-37.731383018576203,385.94361708686051
-194.57084159436485,138.18899626377379,193.82391900400665
-372.30691703966136,-330.48498821732346,584.45136222547069
-428.67533412109123,16.819710883047318,44.094917720099929
-382.12375381748393,-196.83607600702209,323.07577196833432
-222.72678778080584,-277.29205526384015,429.29579360217389
-374.12492044731107,-18.638058005272107,361.39649059005501
-630.28228793612141,-54.504416778779238,75.260402369627087
-685.84675158523385,157.8790731652993,281.56471241956643
-695.96552139537005,-452.75804398997491,295.49718203136229
-251.30160167648009,216.94256252295537,201.57309547784732
-642.48191002982173,-10.326877051233385,522.39437020802586
-423.00805626100822,-82.412361650573033,347.70857904284514
-227.83741318890608,26.644411580282291,443.04914465151171
-464.81769022976192,-290.24988287911503,588.04419524151513
-150.01363272396367,-388.67169355234813,586.87153858645763
-780.07091553777479,373.67033366669796,469.13355759613296
-491.84646140158674,-68.275354569458941,39.552188060868254
-284.62636328530073,-121.29865724713791,534.37210328092556
-18.562238667866556,-332.01877873723953,330.35878698393742
-630.96645149558663,-117.28320731255434,177.28884444040193
-450.51844632734577,85.462314755889892,307.66346353140142
-332.83666083295452,-263.07446672498651,444.97707717399874
-521.41103736703337,-87.686245155079149,247.29520865532928
-270.02454768617497,-204.56405127744074,378.21620147280538
-415.49231748340236,-207.7461587417007,451.85925993265113
-380.96609074586769,-14.982355752534009,259.99351631367239
-326.54720717309681,141.21807509407361,94.989281120479376
-745.87215822088694,279.88115948378305,496.53720328238228
-378.83112725885888,-11.005275664686641,194.68548868653744
-571.41558323483628,-32.730196360842569,241.38558050731626
-318.86611197332621,-129.90689278970922,315.96081549576701
-458.92428464214424,24.56332672996281,312.93052806749733
-598.23611145863094,-11.272020103014668,350.57911219467383
-245.70358465452696,-165.64260269188247,379.40538106441755
-527.77525229566072,-71.370124556777853,485.49869002316149
-274.17679733406464,-84.179107305149543,264.52060128319908
-587.32438883101713,-57.276020719045277,524.14106593923509
-334.4953385916715,21.446014208338692,193.28231484772863
-657.07298485083516,85.267228866310816,332.56243682795116
-462.31049336678132,-173.19322502642044,259.57405633132834
-673.69760896488845,-243.20392776947463,490.49913616211364
-245.14895518240263,-16.170291018636618,188.56837758820947
-399.55627608969093,-32.174934545519157,156.34126845171897
-593.66339419418682,-182.74356590456196,521.97242960135839
-594.14492226565858,36.821529229928259,135.92144740430726
-440.94912355671505,-186.38051918763642,449.58644520541247
-241.38558050731578,-26.366033275754194,467.76979725429152
-555.05045949780072,50.459132291763098,245.93144806084811
-297.48182832325966,55.837709513121595,174.46198664987887
-391.39986652604233,-44.550812124296897,236.38426445690499
-475.89809280113127,-257.67222322329491,357.94210281912427
-233.65766152278769,-99.554560390297738,443.67665642003715
-332.81848213307234,-137.57674001952549,471.8168804083511
-482.23002709258975,-199.97491220490389,361.98090132777253
-435.49444609360006,6.363856177698703,61.823540378769437
-683.24392330951412,-263.66032540259397,485.95317264720831
-361.04349882960958,43.06453507309012,143.33078122337682
-541.90304287945912,-118.26375127514679,311.32074839917277
-751.43139166476647,105.01031121113748,478.22632060341169
-390.34817456911475,-203.64890915405866,416.18497486110283
-385.94180534401761,-131.37060821335152,472.77736603902497
-503.52538611061868,-288.50644022342721,575.18270437918
-515.04682838086728,100.91825759653423,426.40238922985628
-773.5535659975103,-235.33150525600351,498.56719691524444
-448.7721340181817,-93.908857362126255,407.22525592962654
-291.39012637512354,-263.66033275752341,378.67078825347318
-309.2080387065634,-115.57273740725003,326.02362564934941
-421.4019649958006,175.89582448606456,261.06376858702555
-330.9374807486027,2.7526180317455657,206.40923035264419
-510.9555414128539,7.7279752704814273,212.29202654786752
-65.460495621368736,-302.30020800008447,542.32203081497926
-563.87215405862401,-288.17302289706163,596.66914541540075
-449.13173915693642,-157.28690295651586,444.58598492694762
-508.68262085178515,-297.75435279254788,235.93051405237645
-418.21967693781994,-116.37421583780507,351.39571577422583
-598.69080023500999,-205.47323586827898,627.78433409955721
-433.6757887150315,-192.74479497803816,335.48504412012596
-339.57632732996143,-19.547235367714112,240.47640662759514
-323.66578779894769,90.917356123286524,134.10310028176707
-337.30438123723053,158.19522000136249,141.83027731642005
-220.59534765837859,-54.550303839461343,260.4670328750741
-361.39649059004927,-104.1003727611606,153.19574506773125
-433.22242898115542,-61.370442436926353,364.12313480681468
-344.40175020296937,-618.67088442940849,755.45127498777049
-376.05795159929767,-132.33899971564338,490.94328102898106
-526.41063258668305,-107.73618601966383,454.13288565336217
-163.65124102190762,75.46140558232544,588.23529411764639
-747.11908122351781,-212.0715373989332,200.65157488503226
-469.12818941049625,1.3691098786613503,253.97478296524565
-352.30473265713971,-218.20165469587945,133.64860278354948
-173.10803904749253,-233.09243942274344,221.11853179759336
-732.74247155578428,-294.83269970744323,30.733281784076457
-411.40103645788503,-100.91826529687236,425.4932266569445
-349.57637271151037,-11.817963922252359,201.38237460432774
-515.51083081368381,-169.71127081128461,249.72304338292403
-395.94508591671303,-230.02091099169598,811.89199018126476
-409.5826893353896,-18.648021481018453,190.92644785889269
-313.81518313229975,-378.82212570528242,467.56784358458992
-545.95872838302535,-157.28703092785798,641.87653050640881
-529.59359946558777,149.10446404218715,320.47721702104559
-538.23354399209427,89.095405311611387,211.8323784497629
-365.94235839621609,-22.729339030819631,564.596760104993
-461.86016910627899,403.67306078362759,213.6557864859592
-322.68357885222974,-218.3102378030222,516.37852179946753
-412.6502769679139,187.05097223343839,370.48713930264637
-446.85880534593667,-153.1957450677312,366.39694517683296
-665.96481159607993,-21.814247551938184,425.0466243684167
-424.98479920653489,86.718635517104971,330.32248291139615
-374.63471595085775,-343.72454024747009,453.62412376635359
-317.81381439958426,-319.23181207983464,547.06897205812686
-426.7900861752351,-134.08972011712871,255.10346491410624
-260.47822529321979,-78.188926266034969,274.57041549231081
-650.29254268104398,-28.196700261783413,575.49473287530964
-493.2268154235274,-239.11282955008173,207.73215718523542
-370.86295963143635,-208.11383320942022,531.90602160035689
-625.96593064624381,-335.03039222756968,81.371082257709574
-590.50820724459572,-87.645387020286549,478.76974092393681
-569.14266034109323,-105.91873087755786,741.43103177198645
-661.76671717881266,57.053009770187387,547.89762143180303
-314.58574704983573,-295.05213532501307,431.56881402503393
-557.77797981634433,-15.455950540958606,347.75888717155846
-222.29293572010337,-93.644876805283332,624.14764978865696
-232.52983558374038,-91.703744761484529,252.03883153728572
-721.88383735252,-103.19122127623197,321.39281651058462
-353.63279022195121,30.036001727336277,549.19546184205103
-208.72293133275144,-206.78861610693775,429.52805510353846
-381.39830895684099,-132.73933995310705,493.68124373631696
-298.20892808436884,-368.669879079917,505.04591326484149
-452.25689190027686,-11.70107802675124,383.90961907686926
-529.13901263751097,147.74070370033766,335.0304573142995
-442.2153714924093,-32.378841124279333,425.02014652876477
-418.67442494771916,-319.11991999278456,589.59905445698689
-667.78798229199958,111.37418697401529,398.21809025354071
-344.57678721696192,-319.11992487856583,118.64713064991624
-443.62120086238679,-19.932447073078542,216.00502919424383
-505.04591326484132,-156.83243931266571,337.75797799799773
-555.82918858766391,27.39021118697752,457.46018516255413
-652.78151364605185,-288.31780846499191,347.90878869309057
-147.28611691971776,-85.46231475588462,309.57359759977919
-472.32413731468392,-380.6645444658181,258.17962350667437
-517.38811019284628,-121.96202218568276,435.0354950930672
-345.27686914297635,-186.32935990866892,429.31083999326597
-570.05181820092787,-19.547227454967533,523.68397924670853
-422.76651794219799,339.57524249522652,310.48090363247593
-622.86142078498051,-432.95416653027479,586.52582072917301
-430.40955695924333,-248.6968205591435,585.89955277633544
-501.36138244642251,-1.9114658116099355,246.2737514976908
-506.86426038730525,-252.29566324211299,85.916901536498798
-399.33634398646154,-149.09201359634076,222.2677786319214
-273.20665515210595,39.094463131367995,294.57223383779302
-335.03045671395586,-72.733884118179532,354.5776899013926
-525.50231839321998,135.01227384148171,145.01318301546939
-450.04090779318756,203.2002959019276,165.0150055446542
-298.20454932872678,-136.37036980406799,406.40874607874179
-653.65883469090329,150.46822438403527,166.90726015722831
-481.86204882058473,-173.6522309169136,372.76105624272196
-447.76791402381497,-188.65344569133842,526.8662443239341
-670.94136555034493,118.8079019349089,408.79900859201962
-523.23734053853195,179.09892473048671,450.48729491668956
-330.03949115461137,-311.85489169765083,383.19185402326849
-492.27494098679347,-253.61691804823138,150.96569684967164
-311.21387206140662,-93.999405198615221,407.69685653718392
-575.5072620797971,-25.457448487286417,26.819744853649848
-450.54264105969963,-343.12058964179602,-5.0051105291013691
-560.9600562946971,-115.91959916807318,520.50189232385162
-285.69483796902841,-218.29337155975,475.84060940700562
-616.03234916874749,56.285534977897044,511.58992382270321
-480.04364110820126,23.638511819253647,400.03636632152552
-315.20651064835801,-132.64049652173929,354.57199548371671
-341.83044175017221,85.93617347717958,326.86898587310293
-428.65162188773479,157.30277315503184,166.45257859872265
-494.51994919177633,125.56989494037516,269.27203006568374
-464.16244637717375,67.24384713412762,145.41842001604849
-431.40311645225029,29.482605608732754,285.48009926141719
-280.93463042094515,-270.93372124738352,456.40512773888366
-385.03499772789712,-233.20301232957524,490.4991448400034
-440.49459052742083,221.83834866553252,569.14264916658794
-507.79261072842502,-248.22409151304782,412.72815366761785
-672.78843520169016,-223.65669689189559,288.20801875133742
-356.85062126594204,-273.20667302178003,425.9477955663782
-396.45516677634669,436.81477642236587,309.17024567604142
-375.16509904088406,-288.33392969973812,531.13369803852629
-342.30384288895277,-241.38557759211096,304.11855914758661
-463.6785162287473,-62.732975732686093,505.95508681464082
-573.24367824169701,-134.18148886911578,499.80235066737237
-366.85153195744903,-54.550413673968777,249.11355577779608
-251.38635935763082,-262.75102887304473,253.20496712659212
-469.58777864595538,-94.553684637413824,65.460862139566217
-534.59405400490687,134.1031002808281,490.49913628511615
-442.76752720955074,-159.10537603131539,520.95644864805422
-120.0102651643537,-200.92636172661247,405.49329351221172
-412.31021001908783,-119.97409292577564,198.72805744329466
-392.23141045857545,-104.46490415706751,340.57628550457696
-320.93964042689873,63.640782868987486,309.11787437458486
-201.38194381307108,-423.66586398180129,181.84372779926699
-517.87316501840303,37.666756566636089,458.52847628342158
-367.76070390713107,-30.457308056541155,272.29748603656515
-523.11228581387434,-122.14172746062657,551.58512519156545
-718.27980828101602,-182.71982018849781,558.17968076966883
-352.30475497772221,-40.003636694243148,455.49595417765181
-369.12446586019985,-122.28384398537743,453.67760705584612
-430.94826802440247,-408.21898671053606,155.46862125381529
-567.60493780623426,-66.195718786328143,531.13131094364451
-497.77478985080404,-80.920371269914313,320.02617479215371
-366.39694517683182,55.914174015821196,377.76161469224371
-523.03078660605831,385.4293409565347,616.87925887020322
-700.3995936514558,369.13619656032273,128.71738177336408
-521.41103736703019,87.280661878352433,340.03091190107978
-295.29486847732289,-111.70502606061355,363.0537831276996
-524.06409439992478,-107.77136979693073,546.35378597437955
-558.2326715078616,270.47906444756757,425.94779353751414
-597.38953826145053,-115.98366182241125,379.08075736492748
-639.15332085843897,-60.010204128608976,215.46792154375649
-561.41467406127606,-133.19392672060994,585.96236021456491
-595.0540958268889,-111.8283480316388,385.03500318210536
-335.48422847641638,-295.05183026238262,174.16672492374462
-315.55697331518184,-163.76408786645942,724.00455132077116
-433.76428289585294,-332.62166878814617,621.45758704764353
-587.32612055878246,-246.84062187904226,461.86016910393317
-258.26552022703754,-194.33748419885006,318.2941072493187
-314.59784088999237,-131.39952079326829,206.36608178915984
-566.41509118914564,33.639460933725935,346.84972434358622
-335.34049493661473,186.8636566911,196.27484667300817
-338.21256477861357,-173.65215019547179,446.85880534593895
-576.8549115206124,199.57773846406567,336.43782145769615
-477.49227882049672,-110.29241452522389,548.85897139772726
-372.00955283900191,141.775043497094,221.82613217123588
-299.57374225543799,95.462144239388167,139.10270146090753
-312.75570506409423,88.18983543958565,96.372397251120404
-561.68949621037245,74.276498246141216,220.61909971589969
-157.74161274158192,-142.28566216064263,268.20620084284025
-384.12582962086958,-43.175824250021314,213.11062916419942
-590.9571403173328,-320.02341906994917,357.3108840485213
-295.58626658685955,87.648585049208123,546.02983398737047
-248.65896899718072,-345.94054004909538,565.05136830620711
-337.31721711812628,-315.50320350655988,379.09495609383362
-382.48140409223009,-145.49989793911755,347.1041026474731
-411.65544170774189,-320.29945255904676,497.23008161607277
-471.40560363562031,8.6497630479556573,422.32621287390066
-504.13673970360611,-69.551772345739252,158.6507881313195
-337.79932773238886,74.314819351009206,194.27481160610589
-409.12433995667635,-328.66219035694866,615.96660724601998
-314.68468312404809,-359.131707354789,532.65764730668263
-502.77297936395206,32.788719213708305,434.6434332789845
-679.60723702157077,14.546776979725585,234.18251422432954
-616.05918855996993,-138.79251277793622,357.20497115718189
-409.75150399062477,102.65186253499262,179.26958400529034
-411.85562323847506,24.093099463950018,210.47367942539907
-449.13173924902009,103.64578598054216,20.910991908351143
-399.12353663265287,111.37445917369257,177.74665544063242
-529.90183277099482,137.58926146171561,362.2344542958017
-596.8724429493559,-49.095376670319844,473.67942388047493
-455.4961518106752,187.74414004824368,247.74973984030055
-335.93963087591482,-144.55859623733798,385.94417674297091
-401.40045844221572,-85.916979417318174,270.02411835709825
-532.77570699925286,35.912355458432508,53.186653238669969
-609.77459908532001,-151.99520461483823,299.85636094786713
-399.35013241253097,-47.675894064695015,277.14658539400438
-341.40943500227058,-32.29054088476115,440.94286662387094
-617.78307543715982,-176.01566013133655,465.4973432833612
-446.24568363207499,59.335702637760008,449.954517643163
-291.85462563637299,52.260319053908091,513.21947120560026
-180.09952624045204,-81.270943076333737,471.34097258389016
-431.37699799939782,-196.34663748895522,450.99846291057941
-309.43996016342368,-163.74210233180278,387.61588741669999
-557.32339303572894,-23.638512592054106,-42.276570597331045
-567.77908575417155,-233.20370591778919,456.40480072197937
-377.31123172972019,166.90412086409836,224.10603648014228
-667.78798072551797,17.316853105092985,451.85925993271911
-623.23998640619322,-250.93322654566938,699.60751503869619
-580.96190526496378,-197.74524916113293,113.19210888049902
-402.88637296892546,-330.10712312853053,508.37412590573115
-622.32936770196591,139.10348544138182,476.86147149457622
-348.21347395217288,-276.8433842441558,519.13809762065318
-364.72067802986618,-115.12029237130204,226.12871859601699
-722.58442523884048,-29.292659948936929,222.17073497219911
-660.96917901626955,-188.65351395581118,265.02409309937048
-480.95281389216791,-104.10037276115973,291.84471291421943
-461.84192144434428,-106.78741710346995,227.32132102279786
-369.57905264114271,-552.32293844894787,491.40817518728096
-492.5900950557658,-205.74154753617756,205.20741855954
-511.69485666971451,-122.82585506008544,576.15879780836497
-405.94599509045923,-78.643513046637381,568.68806255113566
-500.95463223928999,-45.004451586499414,630.5118647149726
-655.04770142371433,-94.54231824490482,314.583731188287
-520.04727702517926,-128.19347213382935,478.67987495191903
-257.75066807347065,-238.65802291935265,-30.457273112872507
-788.70215546832344,149.66463382776169,489.69565528911875
-518.40005758302516,-221.81829163331199,340.60894037939306
-489.58996272388225,270.47913446677131,311.84653150286186
-365.48776520340255,-359.57813445871432,315.48323772429404
-400.94584240169587,-173.197868339313,199.56329466932041
-456.8422190657576,-89.046522708789851,158.24868592347278
-235.80871542199498,-218.99168811183779,234.23133216334864
-465.49686362615955,24.093099089754705,532.33973053398631
-426.34241118554826,-193.06869809491135,333.32308048654585
-471.86107827983972,44.09491771979561,358.66896990635308
-446.27780651204387,-37.179634253737731,310.4549315905864
-273.20666306753225,69.551767858942952,337.30337827190539
-279.11628338425226,-6.8188017842968449,16.819710764865352
-457.75932866314685,-101.80923920301936,326.42143523057092
-588.69273199328154,175.46601702576368,420.94735885080229
-550.4074033462158,-23.99597137847357,239.66427603037491
-350.73192179222451,-95.711246538700323,310.64086372275767
-293.18171558884927,23.212170270666014,331.42795373053718
-399.00256342135287,155.24716341872849,146.5602771365206
-122.28371480705422,-194.56300742809847,179.88331794316744
-523.25383318863283,-16.096016585837866,228.90523395440198
-593.69033659197191,113.64669295874752,563.23301531179754
-359.39334634414342,-8.3685654232505904,313.27716405928072
-527.3222594104717,-29.796426272509091,590.67722261046424
-490.4991362851319,45.004091281003198,334.57587053365722
-554.47975674269537,83.632154951603084,574.94039009091864
-369.37522909971739,14.037825431087432,350.52428654065892
-481.349706401699,-172.62034587392534,384.86512122731671
-799.57057128346742,268.71200345160082,309.6354934144785
-469.13355759704353,-321.39285389850869,-130.46640603931718
-473.22483884289829,-37.276117116592374,632.78479861805556
-260.93036868456124,-224.28644551037647,181.45361127750547
-138.64896808817275,-88.644422220381728,-125.46595145020447
-535.95781435042898,10.455495950505096,572.32475679337369
-545.51239012640258,87.693981725453384,394.5813255750499
-392.31006509877636,-52.738465453972879,596.41243037708534
-404.12838373671917,17.721109829347409,226.82932438038091
-395.12544713801037,486.60742649602435,327.67335781474804
-549.14083098469837,-225.47504318578231,760.06909719058569
-310.68682164738635,-318.3897524578943,499.00866160104562
-410.94644983280392,-113.64669527633097,58.641694555064483
-444.63644120985725,-171.69956888004145,273.33880170954558
-331.76636378739164,-102.94011557553948,525.49483435395382
-232.46119940030187,-241.59613660753047,390.46107440354592
-98.892089836845017,-334.25367183033904,247.3486868238499
-600.50913719428672,155.92326575143338,384.12582962087419
-282.2983895661439,-85.396881947923717,263.6603348100877
-547.56900181317224,-135.57941395273224,345.58714804520423
-594.70206967503157,-21.236411530683789,250.14098095904254
-375.03363219723246,-94.553563879963235,284.57197729076091
-516.87282500509514,-222.30381067289073,438.66981366582809
-696.90947973418008,291.35671991424772,173.18168928215189
-351.44403415693341,-31.414714063861233,551.82817962711738
-369.57895524104856,143.64953008798187,150.46843556929099
-366.61608720890064,-73.404959797765144,307.12338703692859
-893.31101690078901,204.28404253814213,102.82503395613051
-505.93692417838662,-79.080343044343792,522.78768411215606
-415.88916054235284,-233.50979614490373,254.65661058236441
-13.752156392291655,-119.24346880485982,314.386792439256
-581.41382439415156,57.279268364793403,521.87229418326649
-435.94872261131712,-43.640330939174582,367.76070551833743
-181.00504174195001,-320.8016978738014,497.81677276443799
-358.6689631944854,-15.500449970793159,393.21758108288509
-493.6812434215596,-48.188095135422131,295.02655014434669
-418.21983861940907,-78.188926266023486,153.19574446466046
-135.63654156308024,-151.99820032284529,334.35764566133128
-368.67712279480395,-63.650202856849511,306.83536881935271
-464.12173360229883,306.40273321578275,389.13493758544024
-184.56223293028188,33.18483498497914,109.55541412854201
-171.83379827221489,-422.76570501309607,304.11856295348821
-277.75251999159013,-202.29111434960853,202.74570547117713
-572.09797861468132,-20.64590215448322,355.86482607768494
-358.76840118007817,231.75939082111995,249.23764061266601
-655.9687244294928,-140.01272842985713,322.30202745703969
-256.3334963945187,20.966320457651797,200.94894669091823
-450.9323581741636,-221.83834894081113,340.97554185695611
-455.15102270284132,-247.81035512067464,132.44174211844197
-424.87834493310612,-24.34268283746496,333.93093398762807
-491.86289662696237,-217.20759556872355,577.20197764461966
-347.30430039094068,-11.363377171185537,623.24106091355748
-354.57768888125787,-362.30566415128413,324.12037457904046
-276.84334939539747,-216.38330757341595,334.57587053368383
-435.31667635400709,-91.649106808270162,404.74288308931636
-207.95941260710566,-74.724182817477299,229.33664171169414
-344.01594841394677,-36.201296960238842,222.11405554741742
-627.32975725065648,324.574961360126,261.38739885443994
-352.30475407505526,-170.01545420251924,464.58769242633957
-398.21801981998135,-241.84016728793236,615.96508773524818
-369.05426218463293,-112.24626659177717,418.34799152314883
-322.75661947201382,208.20073720545847,153.65031887906787
-401.68445435196651,91.277223243828431,279.65414920982948
-460.04424272405765,347.75733212650499,-35.006676950996848
-408.2307298491632,-197.74524948504828,379.10177309358966
-357.70886188585933,-48.589851066693527,454.63771492567338
-428.67539940104803,103.19113507249696,305.02768068932266
-438.67101054666574,-320.06616520817465,533.62396618378432
-405.47624688458717,-29.078386150203908,115.02563571850888
-394.39396249461026,37.472598013724081,256.74184885651692
-397.63902235435165,-383.81117169426221,191.7431138220964
-347.75894990142638,65.915019318971261,389.12625683461954
-525.09533635161995,26.773788904649361,366.81662181503145
-440.95586973597801,54.900182550526118,489.35136754696822
-459.58723520319671,122.28384398581915,132.28475315937555
-605.51618109509639,-107.74698360578432,486.84795904673598
-366.23501659230993,-49.409634329024385,373.0744567146412
-461.86087809048075,94.554030981109676,423.6740773773559
-590.43275872318509,-349.9571289933395,145.52620131332992
-380.94372220580038,-320.93826716419568,455.04136735619994
-308.34269693270539,62.87037384060983,308.44597769796741
-306.84513899529895,-86.370737980492692,531.86803399446046
-526.85076542800005,-132.26458650425613,494.60427257502397
-630.96066545796964,216.4249668473139,356.2641148625907
-715.06500590962685,-63.642089532219501,270.93384075553888
-689.60814619510506,276.84334939540213,338.21256477861652
-610.88188771394346,201.34141650740685,257.29603685071839
-340.48558507841409,-291.84471459174256,427.31157162543155
-267.86377995923812,123.51741956200084,212.85771582680886
-405.03576228545973,-560.04667674436052,249.11643086802172
-525.04497508427698,-76.368021698562274,341.39897924046426
-740.793026973667,-185.99921077922284,580.67868190191325
-540.40718745523441,237.27623963562789,147.28044516093394
-598.69079007182268,174.56132375670538,531.41194654059075
-631.77261354794973,-130.36350322353127,221.48433961589592
-808.25529413416268,-67.27884207789171,286.3899112784772
-500.0454586881483,-183.19847259093837,494.13583052121948
-334.11513855700269,66.379429987276083,171.38283111359974
-601.61580036150167,82.31385737826858,417.89150723662493
-764.49047533793635,28.763456837713612,481.39985148297217
-530.50277297936009,-26.820620056368767,387.76252386580285
-723.81358769471876,28.529768988568151,164.08958019019545
-390.49004454958953,114.55586871525139,356.39603600318418
-537.32157448566261,114.55586978545783,310.93735793557721
-449.68326602258787,-122.38112280906059,386.3536796069082
-283.68630746510348,-63.215053748878951,463.18772112404241
-431.85744158694376,-136.8309324570202,491.86289662612808
-309.11902259960516,198.19982508559434,67.278836172668804
-389.35893820712079,-97.189645619402754,343.5425577605929
-572.16476581160794,91.101073899205986,268.04237978842042
-337.307160988698,-224.11915018860981,484.12230082872389
-543.2312028366199,-216.38330757341359,384.58041551862317
-501.35920496329254,-15.443447026804638,181.50516060748083
-362.30426633466163,-143.19343801723093,404.12904593762147
-480.04364033093509,-207.74615874170436,359.57814346758261
-217.2924248595275,-189.56533923659717,394.12584898523284
-709.61563950481468,-224.5687071491443,205.23487855717707
-436.73534082917507,8.7577741697289841,115.54706750891964
-361.87343335598149,-98.656414969817675,29.969003887095063
-645.05864169506333,-134.55768706282214,430.03909446284877
-315.90119904781409,-347.26772023649187,345.20715721369277
-680.06182380215932,0.011249850589116931,694.60860078188739
-379.16066676652036,-133.2547633216293,49.511368403883239
-654.60496408850804,92.281116464266432,345.48571871654087
-302.30020910991612,-50.004545867805298,165.01500078180061
-389.58113715447331,90.008165524547138,513.22808975498663
-403.85353815456602,-168.99076545794239,657.76518746683507
-344.38076633278632,170.55666724418145,413.3302138085586
-568.68806255113827,-215.47413401218054,641.42194744976609
-317.0057976815246,-277.8659598079746,103.0777623485215
-611.87380670969912,356.85062278388921,474.13401218292489
-415.49481242685289,252.74713556684046,288.20352801260225
-170.9246295117693,-9.5463223929438872,563.23302118374011
-310.02133029655676,53.193493585780509,311.39165428812976
-766.88667116897636,-283.20634267098552,421.40293632517995
-341.7581800377252,-43.160422368586005,382.92404026511679
-476.40694608664182,-100.00909173626189,130.92099281699515
-372.34747573303844,-334.162197882653,136.04764535006208
-531.86653332120784,-110.94086039808013,34.548598546401244
-588.02873593229253,83.460803495055714,386.30777013699554
-357.99132144840127,-6.10477262544096,-10.444845476966657
-382.76206928076766,-2.2843214311858961,393.66076448463616
-656.91454999439657,-122.77792034458308,602.72744778867241
-284.15760463814593,-80.465454794371979,562.41188575808462
-544.58965064786264,-149.5537382921934,446.38981147941234
-359.04709018190039,-210.93103110072684,417.96423022807818
-473.80382701381257,-152.8713974781333,546.38393323812727
-406.90833391217183,-88.69474757668651,9.4604609874035326
-499.59087242312899,-71.370125067270138,225.82906842431959
-246.84066169369234,205.0185798610373,212.29193343271626
-420.00148127138863,193.44843706007035,466.11014059631162
-425.58817866809545,-45.881917476828264,488.54375378104555
-620.78550768448986,-288.4570478922372,257.20505794972127
-596.45871571033547,91.384582891656564,374.31524026573021
-158.42363209532652,-283.98548879159245,151.78238392685788
-463.61702022656044,147.09465875886158,351.80570452979902
-448.2193931269735,-190.92225837856441,-80.001443661635122
-591.87198836257755,-38.639876352395675,236.38512592053712
-243.40109759694852,-371.80209020348099,252.06552303337205
-326.06494349380768,-272.72228330379647,227.21732645475424
-269.268183296541,-210.17190181641001,251.24412383632207
-564.14219474497372,535.50322756614401,220.47458859027665
-285.93499102459162,-227.74787350234348,440.94921606638661
-629.89469014364147,99.685257578891807,208.33539498598145
-615.96508558177493,-94.554048368561467,456.40570279870678
-510.24802683819524,74.18869604328151,503.9302868468402
-358.71842591071356,95.347498182476727,-17.12975724275713
-588.68988089826053,-70.460956393542673,280.02545685971376
-495.0449966248039,174.56133479410445,217.74708436315106
-764.6149781715435,110.91915086531425,104.10032761059541
-344.22206359800521,-83.723864172112627,426.73714217535166
-274.56721583857893,-168.64529630121891,377.76161469224002
-345.48475393465708,-35.91235566869581,164.11030952364538
-258.20682917202538,128.6467553638569,407.76285915821717
-385.95447915699265,-182.75495136320802,402.75969034650905
-416.85208779418042,-118.63200158101806,331.85624069030865
-325.48413488333114,-242.74934080055112,253.71316467030852
-481.71364535004727,-267.78191440811662,106.57109936058876
-425.49322665696718,-20.910991908356181,474.58859896353982
-327.30241251733423,-133.6484435374669,438.22171248523551
-361.85107737066841,-171.37921629238957,417.76525138648788
-536.97614715509985,57.159104526596373,285.75131496334546
-437.76820010832188,-284.57132466587922,468.22212328548073
-275.02444363362531,-40.454871639036043,15.001363760340229
-472.68713184883075,-104.73609468443209,510.11469310221401
-719.15519426783248,154.56042578304684,413.22065833363803
-316.82011877109341,-22.247884931653555,275.96103209173896
-265.65508299849552,-116.2980167087651,357.47286767968433
-203.47469881653177,-403.52973813203727,992.10491980785503
-147.7406112595047,-88.644300793688117,483.68049968109068
-569.14264933175468,-105.00954632239196,509.59178107100513
-487.38466147248761,40.763280843263651,228.08524330357341
-406.73301826376314,-51.261538880106457,-5.9008439802767532
-323.24847481350037,27.101226286939493,194.79789306029195
-454.58678061641604,-26.366033216284904,547.32248386216406
-322.75661423749119,-265.47867987974013,467.3152517548254
-457.76888752023899,22.729339030820189,323.66578891987103
-514.13840262906774,144.10306726564039,257.29555279104642
-492.49267819391406,-69.954664591191431,588.30929345497645
-524.59313912527398,110.46459352554831,334.57587611007176
-358.66896990628987,-225.4765052894322,257.90174616862419
-431.55133314604149,-58.800491302587076,29.769983373223663
-334.57219848956032,-53.637746323179023,403.22414290206137
-546.86812059324336,-53.641959832705666,413.3986037745604
-513.683048055217,-180.47095190471802,458.22349112003519
-397.09582989980754,-53.979474308519741,350.77231655147807
-555.30520713037095,128.46490573716392,537.67451794647957
-546.86179969780483,-237.28515340650611,356.85367147698327
-598.23620329120695,68.642603873080674,287.29884534957517
-315.78333065423897,-168.08595510087937,430.84669066447412
-356.85062403892317,113.64669145930273,121.82925470413228
-539.22405376897461,-29.589180719531075,327.39591700514006
-24.141210264648763,-125.97254248970941,549.98326111190534
-325.93991326510309,69.095980757873093,230.02077528787228
-543.24571482181364,4.5014845952891598,350.44801750141647
-370.93732407269675,-95.459101752644756,420.04501702844163
-345.03163347454426,-131.37580844387384,374.24650831508529
-448.67715605794075,119.55632426151742,148.64987439354491
-518.3831189249355,-130.90593620600876,648.7669890254914
-263.66033490498734,-224.11128413237546,391.39921424529257
-368.1818122335514,-56.936088413535273,404.22849626957276
-476.16307110008574,-20.039267282626394,201.23282224592816
-638.80027477087765,-64.657170852343583,549.48956976043723
-647.88777661151551,212.43920994755317,243.98775661718605
-447.73776362432108,101.405069355093,248.70028726730831
-612.0762550314073,0.090021621315693523,401.38802641428424
-483.61376959085811,-128.05069444299571,326.94493345127324
-564.59322246937495,-3.6146191981354612,112.22750538184756
-504.1367412603891,-108.19165526565199,243.71635766743645
-433.22120192744762,235.02136557868877,120.46549686334782
-854.52820637993409,-104.89940947363141,600.71563144140543
-443.06990162069945,-82.256739375278144,608.37709772747633
-341.84925793597051,-134.55768510483003,279.57087094915266
-875.07955259649668,39.549050029171021,155.01409235515541
-386.39861507269467,-58.641645215763198,401.40030047743448
-446.41351170211129,-162.53092591498887,531.24144499036049
-106.90589364309629,-161.40216400296904,309.61186222401165
-454.13219383580071,-106.82789344485695,442.31293753977405
-676.42512946207887,-397.76343291327044,470.49731823373043
-718.19343970559817,-19.283782126166294,432.19980533307574
-157.7416128738931,-192.29020820074555,351.39558141648718
-421.85655131413068,-37.730736407861734,353.21388106316692
-212.57503603154419,-159.70736220394656,455.44923956134306
-497.77248086875136,23.184042894703467,386.39875263842464
-454.6939554404932,-99.394257644069967,650.7267487990224
-322.9989414324354,-54.515829115334427,329.31687466979173
-323.66578779989698,65.9150831887073,212.73101140106945
-432.74212955450076,-403.21237177317676,364.17052547937146
-625.32486985949276,2.4539426071091519,133.39601800204582
-470.0427183677599,-48.604148399558817,213.65599462956038
-237.29429948176718,-328.66624238566999,485.95326847895211
-760.47101568480673,170.79897572621977,542.25922407066162
-274.56951891272331,-60.912790369242359,191.83840151885801
-528.22958832758491,-73.748375423457006,550.62897327091093
-579.59814528593131,-225.02045716742168,540.50349555293053
-521.41094801712313,-70.006364214928112,-94.55393123500582
-563.52815794475896,-241.35741298445055,180.06837602272552
-549.14083103736232,-169.56086922407789,169.10628233800441
-775.12015545499389,405.26194927954401,244.70817694288678
-287.06088151216233,-7.5156538992395916,321.7534611402848
-673.69760887353164,-95.917810710065055,604.60041821983543
-575.05227783032728,-14.087926149359806,47.731527043400412
-497.79755909012795,-26.326344686850714,453.35246608266846
-613.23758165301217,58.18710791926857,381.85286651464162
-429.58440421098783,-179.10707842653761,429.58465502297793
-345.03136653270911,-92.735703290351935,558.68715334387787
-210.93230730436605,-175.01990994505289,270.89025412139046
-320.48367044851818,-44.549471678590308,268.66083075947404
-766.88789889989675,-133.64984055318547,374.5781801759685
-496.9001418308136,-261.93986802743382,542.22096066177687
-445.27163742171308,-27.509556091802949,484.26750825449943
-390.98178426717891,109.52503428283012,464.08996551637728
-545.66706010712448,277.28587147425691,302.49583856178543
-499.13598994404185,-11.818962591760588,493.68148164988332
-715.32283702396808,81.112408323684406,168.39181457503219
-629.14823503595903,33.184682843340063,485.95304474121735
-594.59950904627499,322.75661423765786,187.28975361396215
-279.55564817903161,-133.63298716316345,377.31068116764226
-325.48417283038066,-220.02003762484998,439.5854911097756
-477.77070642785367,7.273388489863696,275.47958905354687
-492.21296878185927,10.572480193587735,425.21916360881676
-419.1290117283354,-45.004091281024628,226.9874666389625
-340.03117797241168,-260.02394910556615,517.77418313519149
-236.83971270115208,-285.02591144649466,528.22983907627702
-408.25314198515844,-249.91681289530851,544.77094792690923
-163.55805987072964,-213.07641696185658,375.7309627589936
-507.31884716792365,184.56223293026713,510.04636785161836
-420.35072221863601,-65.773033337065044,311.98858135637579
-174.31240860882124,-37.404081872457567,183.30748753421838
-405.03682152922727,96.826984271298059,248.62953546817013
-400.94554083577395,-90.462769784513313,148.19529017165158
-596.21194173543472,-56.674630498839122,682.75799681418528
-424.58405309573476,-39.549049913628153,561.4146740612764
-391.40911726110107,-67.743218857181958,191.82848739555979
-366.85153195744624,-54.550413673969025,357.75979634403205
-438.35286250467084,-5.9135145066240025,189.48527822406348
-310.45796796273322,-111.61009480827623,394.21398681428883
-384.16767681687782,-199.13830294719742,-28.70592269244964
-474.06592837451979,-8.3846253125190895,496.78598715454439
-373.40566696261061,45.294613230352638,184.92041405693817
-525.46937951913208,-52.772147235373446,541.43792417188661
-177.37234115470676,-266.05837815890982,350.39789049927521
-397.39717401519414,-162.92535642715094,169.60869350667843
-259.11446495135459,143.6494226747875,463.67851622874332
-540.27171521552737,-290.26427054861438,263.57269570164618
-770.14393057783911,-47.569674919642239,433.98940733085692
-520.50174614151479,74.552313787124561,293.20874473345691
-575.71970105251455,-26.589942216370673,542.74524490449915
-504.59132667204898,45.462970288304412,452.76843311829754
-379.11926046895866,-152.72485278010441,158.81078422268047
-480.04364032676125,-50.459132643885418,651.42285662897314
-635.9541802268775,-16.352475603768958,109.5642034620912
-549.57284343327387,174.12490815860107,270.95089839210124
-256.63940534732916,93.710089568946472,321.63670221995653
-332.75752346328562,-20.456405179806438,178.65260474753828
-333.66669697194885,-45.421471325134092,311.39194472300193
-298.16452391654047,-197.70084365034347,320.68447274502569
-193.24684297047222,-215.61196906246388,402.56576496491959
-466.4060369124461,183.65305936903351,331.8483498499844
-492.70813186363972,123.57308537211264,474.27994250273707
-328.43431659129601,-49.045818095532901,178.51577502220042
-411.40103645785632,-0.45458678061667845,299.57268842622136
-519.86143558927904,-155.29562229031322,334.52192942526676
-270.02434198867223,-130.9207274445786,455.95094069008258
-529.77419842427457,32.534646752980407,596.15433650273837
-368.67006548014189,-60.914614062210468,240.02198048041373
-347.75888717155851,-244.11310121888587,452.31384671333569
-400.27370786049943,31.952059903797398,446.43800902688935
-492.31748345047703,82.734794029134719,-23.638512632858699
-388.67169687512524,-115.01045476006971,73.643059441031269
-465.74474454926872,-229.32857832232764,459.71658723688876
-479.07605733073979,43.185750558044226,408.29680611233096
-587.14864197606255,-181.65786126689744,540.36471500855737
-623.455165521651,79.91444023471513,424.60904283803188
-358.2142736825698,-294.57223383943955,407.30984663494894
-617.0453013197457,92.457612729071641,527.26105564220131
-535.29389593605708,-135.60605740807719,536.86335312401593
-435.49286794896278,-246.38465124775735,339.12350100445786
-432.99566651756538,-32.999454084451529,474.78036250408149
-403.89534473702486,-244.92326322834683,37.653007120834914
-623.6930581518485,-4.0912675425504652,373.63713061269522
-552.72197762469307,93.814949500281713,106.81174785595037
-903.64783755248061,-200.40267736322369,413.27447818464248
-673.24302209680582,-80.007273392379943,481.86198745221895
-430.52795903905422,-62.150484722385393,133.46794148627754
-202.41555820173116,-29.217994785787326,237.60412935378631
-708.24620420037979,62.732975725067206,410.52618741694181
-544.70896457362903,-49.663139921596773,482.24522174312835
-360.98957256153045,-60.37247252421534,444.0479207535202
-502.98984525569642,134.34244976739504,619.56411324303565
-501.00577129872784,-120.51663511269427,566.36398812169409
-675.71227528228394,-74.7467109641766,654.05389900951889
-377.30702719959572,141.195901863275,412.41389607667583
-319.11991643147263,99.099922354639475,270.98980912735982
-730.94795452429378,112.36186846845074,233.65846812576649
-387.30793708518627,-225.9296299663591,473.22483862169258
-648.03939079369661,-108.97352270729328,516.48244016025444
-244.34761672773945,-203.65487799982364,385.92956724039431
-551.77461878958627,-242.42455606424883,126.58568983874599
-462.31468487096151,-251.38636658659124,461.40565537062588
-664.60569585785356,-33.638987906558704,347.30538546784237
-428.27402460722959,51.840329163435229,203.49147929716096
-584.38650418637917,-260.77542915696938,355.84864533323139
-322.30202196746387,-54.545090663417476,309.57891862135574
-603.23665787798541,-27.729793617599832,415.94690426402127
-477.3464986904047,-140.52830762317464,74.048745967980679
-272.2974812277148,-175.47049700806528,318.21074694794504
-285.03047394717714,21.360807325902414,495.94744406843279
-357.75979634511879,-107.73706700609166,563.68760796435595
-356.85061594369637,-178.19801129050535,171.83380487984738
-469.09875268782139,-147.24537014222949,137.3352559611489
-467.09840243308969,31.751491940555603,470.21851675928082
-568.71366384050498,36.338135302538767,455.45672264877544
-703.67692882100755,185.49897242522349,296.49208597635987
-580.05273214083866,-23.18392587897414,406.85516861117043
-306.43972765169377,3.1340434790107525,272.11417895301685
-576.71585887145829,-93.703640621701837,544.50125454843419
-413.21682775762378,-263.65322437563998,164.56680413988991
-441.85882774266537,-299.11816279733131,177.28842453184572
-591.4443670337904,-230.04787644373801,599.47001568404926
-444.04773015735867,131.00200245117662,186.32199178393893
-503.22756614237858,-52.277479770895887,205.01859612952927
-529.13901263750995,278.20710973724965,102.73661241930786
-589.11193035341159,-223.58294479222334,397.34572189427701
-772.79722191711085,-335.02982774063423,125.46623726885596
-261.84198563505635,-165.92417492499234,339.12173833984491
-352.18771055805365,-40.984102104429326,225.15973146351942
-630.42217502395113,-72.097178379008611,603.59921716637007
-417.31066460592103,81.371033730289639,313.21029961538011
-333.28631798840843,-304.64452768705695,180.41973239277246
-545.95872105338367,-134.55767972761328,484.58950834771105
-517.77434312377511,141.37648876994302,250.0227293359055
-605.67434282671604,464.41774208414603,316.19615156445553
-445.10624587828175,-127.33035341702363,490.98659946283982
-470.77476588178507,-32.51142964109512,460.78934720403356
-504.22632058417184,-72.729059689105384,309.30101915744149
-307.75524837181723,-359.12355668697018,651.87745182593324
-505.50052494144717,130.46637074707556,337.30335683719915
-143.57406884834987,-263.5778868062452,402.86539366293312
-610.05545958723189,-89.099009079379641,210.92826620601775
-540.94308653987514,45.473802706609398,614.61217698227438
-605.50582019215676,-236.35707198248795,651.92355066444156
-508.20374457930012,-247.29520865533209,-7.7334708720123118
-308.20983725792905,89.098994603218173,204.10945009916759
-680.26848376494013,-587.92785359361721,548.17997766521887
-294.57223383943881,-161.3783071188783,463.67851622871382
-553.23211201018125,-205.01863805800602,178.19801800163521
-432.97335590057236,-166.5790165838643,289.30572874517497
-508.13752763858491,-45.290316418045414,649.00312368540506
-372.76521825448026,-240.48220430182417,518.67887879873786
-602.78207115463601,5.0004544694034694,575.50686420018269
-508.20690201327881,-215.90760207995066,138.66584183283734
-771.45424862602795,-79.826974772846,132.01039455940489
-565.53391360289447,84.984950341482048,398.31958423438192
-454.83250989912972,76.132657617776431,407.55862768448713
-280.68421679073816,-348.65040448546279,26.654520477151497
-223.04393384814753,-369.44689738133326,460.20701039318675
-403.68360633820674,31.798179161869424,465.44524503271748
-460.49593516480263,43.186728501027524,359.12495891020291
-378.21620147285813,203.65487771615787,140.0127284298548
-509.59177820037007,-69.097190634337409,378.21620722315845
-558.72019305655442,177.25245080577676,506.05697390341805
-500.50007431122128,-112.28294923852538,410.98328288949506
-557.32339710728934,-38.639880688143691,399.58177542006632
-219.53445588791172,14.08078658584412,378.3611135824072
-520.04727702536729,-212.29202654801563,318.6653332119198
-380.19794301898816,9.4923977308133818,306.40328744842543
-283.20760092387252,-237.29449326031016,686.42589843137944
-637.74277930089363,-48.585777312539797,588.75693769531426
-109.32949093464902,-124.81436859465059,564.16183831541116
-467.76996057278728,-119.10190350250433,275.93404302257045
-310.29828002974688,163.67114912034637,265.15701791588708
-230.91020824430316,-83.626028799437421,591.88643599103909
-515.50140921901743,-160.01454677697976,482.77116101463633
-483.22626481553317,-213.65587061906763,367.30465807652627
-437.87749028718889,-128.02951160906107,566.93583160050821
-388.66342974280286,51.81372243067495,558.69414012120967
-402.76747031872105,3.6319001281957526,614.5917065174724
-560.50550050004108,-101.82743885807729,89.553595781431738
-1125.1022820256262,158.65078643514059,430.94826802437933
-381.85289571778867,-46.822438403489528,353.21442108780104
-245.47686153286136,-385.94417674334034,480.49822711155394
-258.65987817167655,188.2062538124168,190.0252201288009
-472.99600036514647,17.894945862942222,428.75892956700028
-460.52121206094262,100.36887841325834,331.43895657931063
-348.19895327664295,71.377384894545216,172.31017086692336
-668.6971542886032,47.731611962928511,405.03682152884824
-626.42058607911042,183.18259925761353,507.77342763823538
-330.93101748561378,-59.541933061211203,460.0530023733794
-459.46126091220344,182.86986027042582,431.98342466136461
-343.30251312410968,125.41438554918329,361.13190411006013
-500.04421148258581,161.36626893877821,242.2952198885468
-480.0436403309339,-80.461860169104483,550.50394682862964
-192.2902083528364,-127.28429902887902,367.7607049863521
-681.8801709246269,-176.83425765978592,210.92826620601511
-595.82965560844741,-94.003028271866469,532.38482367657764
-389.58087098632626,-335.03045731177883,667.33339394839686
-365.47050471946642,-52.266472125594554,414.17474608951431
-238.20347301792381,60.914628649315596,150.01363767323991
-389.26089865265459,203.06564800459083,489.64590625881766
-411.49498012060508,-37.345150950470071,195.2012030060333
-638.8195854010678,-22.876547019462386,496.18227552561393
-121.90347836037294,-246.00483552309177,369.52827317054602
-464.24632133129808,-12.827592346100525,348.81252790943233
-544.40396877449496,-131.82942987889257,414.73202124342123
-439.58541683476517,-380.94372213419837,655.51413767543431
-308.99828581881752,-346.27561514595448,520.1461623269704
-460.04182198381386,43.18574415855938,27.729793617599544
-594.01829789941178,96.954605639041574,419.71899302476351
-476.3418327404745,113.34393835470041,290.41794200724866
-563.23800263554085,-140.92011325881248,573.6772998068343
-643.21555986092505,-303.06234770179924,316.73286522620236
-462.43940949623573,-223.93372235434273,557.70281517037188
-575.96145240589692,58.641681050549856,391.39920855645602
-507.76585769451953,-84.091819966020253,482.3250242614132
-388.21711501577454,-150.01364195081334,407.3097519192595
-299.57268843566089,225.47504317630103,165.92417492221395
-625.06346588856877,88.182007565423788,505.49181335682516
-518.22892990114747,-277.29793617397468,577.77979816613879
-542.7766161272674,74.552165707390571,350.03182098912265
-459.56385688368761,26.15042904518539,237.55666035136275
-508.68278529618505,78.188559581540673,5.4547258834193411
-696.42694791669624,-107.73706702152056,382.30748248297499
-348.11598048631475,-180.37523104732713,395.0820001758903
-480.49822711155264,-12.728429857255763,420.03818528956913
-621.71227898310019,-257.01123325746954,495.3335352607055
-409.03928931045522,-223.56366785570233,331.90402147397089
-385.48958996304702,-236.84506049426045,779.16174197615339
-289.67214371271558,117.10741035576774,169.51446999659129
-642.71902369466875,-111.30711156793163,303.73060192792906
-587.99698779814571,133.41439149888294,-30.995101735769651
-479.61351512737184,-74.139584228255345,600.02240026497827
-296.84516773827022,-203.23622664061747,287.6815607177295
-496.40872338307156,-35.003087236240241,142.74039506930708
-309.40731770222283,-216.18950084627994,445.80553832217032
-359.12355668696699,-220.47475230841889,425.49311751732819
-568.23347577072968,-410.49186289683348,392.30839174530024
-336.33551209664,54.154192605837594,184.62177046804462
-732.79388417127734,-214.5649536841548,179.56178483345016
-268.15834907600515,-63.131178079872576,642.40549376012336
-533.23029366305866,-161.37830711882856,324.12037457950515
-522.32055430478499,-273.29816611897411,505.86324043516436
-224.83276864463244,150.84575378676672,363.69934648172949
-545.50413673970309,-327.75782126894535,291.39012637512445
-458.67809707305821,-42.731183389373108,410.94640009713186
-442.20872853522542,-147.15295830937805,373.14285669993461
-204.56779410993667,-305.69006043805791,403.71590307297311
-531.45093107327102,18.134870507244425,506.34334763517779
-347.75888717155931,-143.64942267478972,122.28384398581282
-595.05371849975631,-108.62465895348004,499.15283971424475
-318.91214601472473,187.57331018189731,197.22981936218406
-203.20259436711353,-121.82925720520046,225.92617481683055
-391.3780936268696,-152.25929354449246,310.05077346948087
-413.49980826095521,-84.173238973611035,316.16682014875306
-471.77654363905526,-11.011791311992029,443.65757281312858
-416.11742650216553,-247.02087574613287,585.73648444032824
-142.74024911355875,-284.57132466588155,407.76434221290805
-596.41785616874938,35.457768888078967,625.96599690879555
-348.2135826422325,170.46983790289792,187.74415340078534
-295.47700430497122,7.2777922551424679,313.66814266589301
-437.76710286012366,189.56267087360149,378.67073847699749
-331.39376306936731,-135.9214474043097,307.75525047731435
-490.71132891356007,10.652589476630958,230.66314625510188
-704.15492317483415,90.462769342667485,387.30793708518911
-224.11108221765252,60.005976669595725,205.47334521436383
-535.50322756613991,98.645331393762476,171.83380307300393
-499.13628511682435,-223.51609675351884,514.73283496754277
-374.39030590637992,-108.73473449574226,507.77139600012345
-391.43686056854182,76.787523466369436,374.99645132342653
