-659.94050049020223,5.5747704230593467,306.14271696929069
-366.39374059214657,102.28474466163905,415.0355886966758
-273.66124193108311,-101.82743885807666,-27.275206836986211
-632.56611418895352,-14.630078479629431,328.9357930806583
-596.41785616873949,-230.93008455313858,320.4836803345741
-512.7739863449475,191.83552361049991,20.910894098724587
-527.02135451695688,-83.530935270494354,689.74998560051415
-452.80747972389918,155.22259659430622,118.93418664477437
-437.66191430058592,86.508181519058752,460.147017888763
-277.75252295666206,57.732521138227384,139.55814164918718
-300.56219082425207,-52.368404488878696,293.98934711815065
-536.56205190886521,-100.46367163009572,548.48671477672656
-406.87145536797806,164.53751642757726,265.00458038383982
-507.79426956897362,209.03999897441233,259.97435174972168
-582.32566596962988,14.546776979725637,409.12810255477604
-304.98753682554332,-46.178236561942995,339.26078938453168
-440.9503004186804,377.76052355804899,35.002367052363503
-358.83353520144777,-6.4972882363260931,315.16324755235928
-174.62237748552181,62.135349163175206,132.15811058859069
-521.86562414764762,113.19210837348912,143.19483589416902
-577.77979816346681,-78.188926266023884,515.95599599963452
-460.397591025851,126.35183420270501,171.9718993559178
-384.12582962405992,-100.91826533604751,293.20847346552125
-609.14750115505524,0.45352354269233291,609.5995057864269
-615.05591417394578,19.54723156659346,490.9537230658388
-121.37469795082131,-9.5463223929446919,206.83696682964344
-410.89940298422943,-52.657025144106875,295.95214222359692
-258.94357176714129,197.90094779889415,253.54921497149286
-9.691213245204386,-213.90574835695955,259.18429090644702
-385.94417727626421,114.10128137218585,451.40467365761015
-692.33435109349,-74.095977789802518,588.69089045627891
-502.59120375365683,-239.37977720328169,35.056120569673986
-527.42540907046191,-171.61517038210275,379.46167471588069
-703.78757334116801,40.685851472713608,303.61736020701289
-434.13037548867908,-289.57177925265938,406.85515969612084
-388.67168774298398,-155.01407899985671,269.11539173986836
-219.96045529974887,-135.5180850379943,271.85175765765717
-357.30615302600131,-168.6531771547086,545.95804619164039
-309.57359759977982,-103.64414661389732,218.65624147649535
-354.5776889747039,-81.371033821087835,520.95645051822237
-605.79429324775845,155.20693819348975,493.4024178314811
-362.92314937546968,-180.7726426675091,667.72894323457433
-552.77752522956541,-89.099009000815144,540.9582689335374
-414.12856717494805,-9.5463274091918269,356.85060773421799
-647.11467704003803,-69.576086532516015,454.12578878535402
-447.15019932478504,160.64152129834267,289.44330701273219
-582.95698710143347,-367.77444529458393,86.668128915090136
-775.0053613739002,-11.180225429078066,273.6088996602918
-337.09930008502465,2.9942854708726672,234.00793489710347
-387.11058378835469,3.100030451371345,319.94051517682414
-775.994976850375,120.44984268906117,229.55048293531445
-766.43342074593306,-121.3747149248355,24.092936432686294
-334.12128036445284,-215.47413067852176,115.46504478597355
-300.7691946268688,28.86997368424398,300.86128207348969
-412.20147076896882,-176.9173665676519,435.06949780155708
-389.12731287990908,-229.56632421129191,-139.55951321225223
-457.04267751135529,-369.37367153109693,-16.979773350368365
-366.39694517683068,-62.27838894444826,77.279752704788251
-542.78964258100245,50.900769356887281,410.93591904968906
-449.54095692945742,-75.62508417695885,345.15858394062474
-609.60050344366584,-22.274357436077292,401.85521725541213
-359.57871977512787,-232.75017860670641,245.02097806071527
-321.84744067642214,43.185744158559629,345.03136648785886
-529.59358900561733,-150.46822438403493,73.64307234320431
-361.85105041405785,-147.740643330061,615.0559566185151
-594.5995114423107,-176.83426005582112,370.94281058696288
-202.48915640418696,-310.68460623386619,467.13345765171357
-472.77025184106952,58.641694699526141,404.58223474861984
-480.49830216806799,28.638892933742966,263.66027474086366
-442.30706832511208,37.285662825153331,319.59018060028393
-553.72196812806465,-43.572821018866676,527.7452361813971
-435.14165475171791,193.84633619762459,493.1894218117319
-314.57404062693888,55.459597016421881,250.93191179227898
-537.92163949741894,-154.15505883966483,322.43794382135587
-750.540450402798,97.254013681046118,251.314475651902
-241.3825651760086,-53.637465820483321,297.75672074886677
-739.15163453330945,48.192669494324107,518.25206823970268
-603.69125288594432,88.189817560921156,195.02533510619574
-358.36266573315856,-110.24286596971341,174.95221038301901
-533.48720353290616,-111.63265782349228,-33.023912072717152
-349.12264751340638,-71.370116140669495,373.18602242523804
-498.68169861901254,146.83152984788552,603.69124496946756
-797.80009636788191,69.096597720131555,311.84579053769733
-642.78570779161453,140.46731521047462,400.03636694244665
-443.67484821095337,-139.55627412409743,278.66355214002647
-500.50004545867432,-188.65351395581175,358.66896990635468
-384.12582962087123,-399.58178016183166,601.41831075552193
-512.77388853531852,-143.64942267478625,335.93963087553146
-369.12446586052863,-259.56905173197458,248.65896899717816
-556.97891314592789,113.36809376159781,181.11932997879518
-532.73851198557702,-21.282917797155918,517.82097985990526
-418.67084971561002,-73.637119273325425,293.21190302293326
-369.48258421490192,-443.21497602504331,79.409380067651384
-400.03637830284634,-208.20075761780274,250.47730365662116
-555.9596326938821,41.427259400395208,418.73428731202313
-708.70079098099586,6.6529759230131278,427.31157377943168
-559.50211163343658,148.54463950987909,305.40521801431009
-478.7625211538716,-207.35903787171461,348.65758660362053
-585.05037506278927,151.38042026826719,255.93688821248463
-441.40376397854095,-102.73613235085936,444.61200891841628
-414.12855712518473,196.38148924266451,90.917356139653378
-466.40603876585317,39.094462901336861,146.83152828569013
-418.28985447811874,75.767407180481015,382.98823012188888
-350.45821261030255,248.97155268109469,349.06697486793496
-370.48821918179624,-196.83606898632405,136.37604120550694
-723.24756473702382,115.01046187887341,134.10310963056011
-653.67756608076718,-19.983812915293303,354.590896232202
-516.68823388339467,-95.74087465657702,377.93854770146191
-635.51439102658765,-29.552116212053036,95.914451156272207
-506.16615495639013,230.06966812349202,193.25294908443217
-723.2474328684433,196.38164069339405,408.21903133617775
-371.15071096390466,-269.7833298858987,486.5487714022974
-412.21923805580087,231.49435109114478,31.586552754754845
-480.49822683929636,-110.9191737897697,385.03500359048797
-335.03045731430046,-115.01045549595342,261.95250484283758
-698.25477070259774,-0.37794530971334328,377.47420103775619
-605.05500618031328,-23.626666024156251,56.368759597230692
-479.58912312210902,58.187028684364002,-80.461968779687908
-741.88562575451897,-165.0151496846523,457.31430162839786
-650.59829103600532,-211.93002516886654,536.96430906743535
-475.95235886609044,-47.73161141469776,225.92963070408928
-424.69036348563401,300.29050328562954,496.31521129001703
-477.20600687505475,256.57689244918498,240.85966340026428
-331.64078369267622,-219.57072593539183,237.96810633274097
-631.68313410516089,-181.10661542836303,305.17621924736062
-348.66806073279008,159.55995999636463,140.92195653051652
-477.21469066761898,-142.46995383009931,487.49258373178219
-252.29960406538751,-284.09244306812138,99.577119149342678
-570.05102609664789,-320.02909303656872,154.10651178385191
-502.31839258114337,63.187562505681733,445.04045822347052
-348.03532992319288,-95.817900596791645,365.66865628750008
-245.02227475224771,-72.733884898624197,280.93463040250111
-555.94521472740564,-274.10148784665159,226.85206855794712
-236.38581030798881,-260.93365613684307,425.03749942506386
-315.02858029821607,-78.188926266022435,348.66829540863023
-418.14329772730099,-71.714441790420096,-2.1925007727709485
-668.38565951897613,39.995702915484834,402.447337428742
-665.06046004641121,0.9091735566846485,449.5863260258057
-516.41054532149201,-156.37780808920004,306.39153907013855
-546.36682984611423,-30.908902014113931,294.9556950736652
-310.02832851790566,-243.09044086253746,367.07850549194234
-387.76252386580325,-150.92281116464952,321.3928538958067
-580.50557989210688,-59.092583147952745,324.12338958198671
-512.22115345435509,37.477086326632048,143.97658366274484
-450.4954995908675,-165.46958814437582,803.70942812982696
-475.55623382579205,-364.80059576405739,650.03871606289738
-375.18938974738467,-68.785431540727018,320.81285227642587
-320.93826711526879,-378.21620147293703,192.74479498132817
-551.70469370903049,124.5654460818419,312.80105960876608
-455.05478684959206,-280.50044531285727,545.48152355365937
-415.07485789372186,-154.14204279883225,208.7459505053819
-491.66278927323816,155.70156334628598,183.28713392612028
-540.95826893353478,-259.56905173197549,154.55950540958125
-570.51489057040169,186.78185614972062,132.28509694532963
-297.74728982901485,-111.81524236177988,307.31244930144686
-421.76402051272879,-317.20904282681335,251.0244461248102
-729.6117828895608,150.92281116427614,240.47640625543892
-609.1524689060401,144.0896132018367,340.47388321855271
-339.14282005330563,-224.58748377673732,466.38680318671879
-315.41900639717966,-46.779587500325377,293.94604591188602
-778.25256841548264,-57.732521138500267,249.56814255825839
-457.97836148672928,-5.5719795821879163,38.56572480881006
-277.75304289127547,223.20177233171995,426.40168681949922
-316.39239930866512,-119.99708257464846,364.57859805491023
-400.00238497487226,49.957811451592633,373.3682160134432
-490.04105309123054,-63.184187609508733,380.03774190563502
-632.0951858813695,-204.96368836237031,373.50431093922003
-384.58041640148656,-233.65760523683812,60.005455041365458
-618.23802164583628,-90.008182569619166,533.68488043610921
-285.48042512234014,-165.46950839371829,310.93742440050829
-535.36776070742201,-63.177536492268025,418.81209568503874
-514.39095208529761,77.482459329008464,127.09772691402505
-174.55615357562587,-45.887413970252993,73.207163867693438
-561.40023755616198,62.906180189638974,183.25620959302219
-371.69831379416951,-44.837536129400164,307.51598726006364
-504.59255351417801,-121.37597925652183,495.04385886338326
-313.21014309540425,184.56242011488351,137.28549024934892
-560.50550050003562,-5.0004545867754091,386.85335030458043
-408.69998363082919,-176.40437350068979,389.99603938962656
-356.68533264174368,-333.23707419257005,639.83369513669822
-555.50501261628312,7.7280080747604893,390.49007231652683
-593.69033548573702,62.732975724367613,295.48140740006949
-664.6058092361626,-53.64117445993557,371.39749525858997
-350.03182106088769,-19.547231541223663,647.33157563539544
-365.48777551577729,20.456401153972525,274.1158256945775
-451.14037239001578,-128.8167851897698,311.08661098428405
-395.49046478301972,48.186269621547659,230.9301547061186
-359.59632948402691,55.437518621479434,244.44582721689383
-363.21575914114089,37.275501724961885,313.67841506819008
-424.12946631493725,-155.92326575123701,473.55318219104635
-575.50686426038578,38.63987635239495,306.39149013546228
-533.67494557583495,117.29315512625755,44.55927457026835
-321.83418660997597,68.655857943615743,232.30709902698467
-389.58087098826684,-202.2911173743046,413.2193835803248
-596.10211332169956,-189.69816553790835,609.05204044903201
-548.68713038923738,148.19418598245812,127.28285374982048
-320.35825512421309,19.753040480588627,350.50709715363848
-269.12279843811035,-120.48787209885727,305.45993169325322
-643.70390572270571,163.66990941541968,597.31800536011565
-467.31182971042165,155.47682353683655,175.02082801114179
-422.31117021014671,-97.736232039797258,442.31286797046118
-543.20157743026323,-288.55079477890649,637.44271057294395
-714.1558241236944,49.549967985256565,259.56906313111875
-261.85138024479733,-103.65806068961921,229.55082653390235
-662.87653333907008,-95.776068833458567,638.75902890244322
-761.43285753250166,-182.28929902718349,574.14310391853587
-560.50652570478348,-62.7341729828251,357.30332200003699
-510.0284084937602,223.81869383899371,541.22738850328255
-527.78830717197957,-244.12607265393396,430.02873109946597
-497.3179379943607,-235.02136557868855,75.00681880170626
-406.6479967703246,90.471573530972407,440.51489415202684
-417.30979698507298,145.46863325686354,735.0675439094864
-724.6854562583186,-141.68199158355569,355.53313644613741
-624.76805336295968,-5.8836145230627883,375.36555781300302
-690.15654502393454,73.395518179908038,190.95831300216778
-480.89012809089132,-156.82681394072955,280.53721991859516
-412.31021001902621,-18.622651943562609,348.67319608676161
-479.23704443742037,-316.88179237423674,348.89918056266725
-581.65875263579255,-69.406795076228804,579.72572219489859
-553.42970136512838,-176.37967087918429,392.4023450637506
-526.41149152701257,-254.56859652110168,308.20983816387024
-523.69173955378756,361.29452048547574,532.1193206476147
-617.7834346793768,-97.281570738474045,467.76979772445043
-705.13784093390666,-220.57261442296331,544.47355504785321
-459.58723225461733,-137.73979089232938,258.6598782343151
-394.12673879449414,-173.65215019553608,511.41012819342853
-630.05727769668431,-267.28059840155356,700.08007089314697
-345.05305910601595,-71.846403955550713,523.66779169303516
-471.46128438355788,-60.074366505037013,289.02218412837789
-410.03561459926362,22.274752250204834,264.57227551332642
-203.17950167695574,-174.22633144328285,120.25563397082098
-496.8633750841521,225.92961206453984,5.9095983100028393
-555.70314116491181,-159.12440655153912,239.45173710015587
-580.05232236940458,95.612289292843101,496.4102330764494
-425.49322665696593,-125.01136466951539,453.67760705518509
-538.2611729422598,-201.83653051981383,603.23665795186469
-316.91787815940916,-79.660132400839046,484.06347545096008
-663.09213385914575,112.06984530793798,222.87346327460349
-274.50489696027205,-191.4459933640459,186.24940205904892
-708.0905242907146,-214.48714119814218,494.56855689993341
-385.48958996271966,-227.74797708882588,536.41240112737216
-577.35929966512469,25.698465794650694,463.20995876433318
-488.63764806790397,186.15808661583952,532.84355470616777
-555.57570667274751,-8.2506633037762391,382.56599268596557
-483.68033457585551,-168.19710882806572,379.12537503410414
-503.22992104122585,139.55581041771265,337.75606094465815
-680.08542313944054,221.11937774761188,455.6878485620411
-523.22938448949378,-185.92599327211315,503.2275661423746
-559.60156804351629,-209.11603527564802,504.59133374701867
-444.78299396155234,-177.38597542611674,115.30891236765004
-426.85698215229235,75.005471504236397,381.85289915845243
-617.19380526707459,131.97654821811059,424.34490788412677
-626.17495884113339,158.46691085177298,145.5438552009785
-463.38628796779687,-35.538762550810191,28.271199665181346
-539.58835989130068,-381.39152141074152,500.05544033455539
-541.12816189995976,-192.24678205778764,27.542555471120309
-439.13083007507925,-215.0195472310954,343.21301936600935
-440.94142199670961,-66.816555396803338,393.2221430015498
-271.84877511228046,117.27857824149304,126.37031385381692
-547.32248386216702,-353.66851531957349,206.38239839985292
-649.60450950085919,513.68306209655248,205.92781161923642
-344.90296693763327,-181.8891039387168,416.06201060208275
-446.85880656025438,-273.20669279428591,354.1230899131715
-240.51086930078105,-95.508738263945489,489.54547660312119
-470.95189695297069,-99.554495706665961,237.74889934029778
-451.13690186227376,-55.528234861236911,560.02755242995704
-597.2991551294532,93.202846337599496,313.97299547697099
-638.23989186335291,-70.076065466747778,602.18823212558243
-482.77116101463338,62.278388944449965,294.1176470588203
-417.31066460587141,207.58840837553291,484.58950813710214
-197.71587572651998,-134.99741504106763,258.72173534543282
-671.12635435854656,234.98978859316765,249.45202558392731
-447.19407126941428,-69.282236810929817,222.7820015956745
-403.28170518907569,12.212470677865589,334.96546941363124
-680.51641489606118,-74.552237641256681,588.23528632065563
-425.0016332846501,157.10620575692781,318.34501065918073
-325.48413492134733,-112.73752159286346,224.56586962451971
-427.23728398242173,124.82499602415518,381.76292067143072
-378.21477970376765,-42.987720863116849,180.4718992693395
-499.35333904394537,68.880156538650866,274.63099743113207
-415.03773070278811,-262.29657241567429,387.30793708518775
-440.16503638218092,-156.50288527753619,564.01716199948362
-572.96079731592977,-209.02572064582938,206.43681974242131
-440.03685828916991,128.16327007252275,204.39561271140985
-403.24777205231453,-19.561940741459928,365.83065825726766
-341.36592117033263,-204.97140928138825,427.34994703709947
-673.24288300593241,-116.3738970992936,486.07761404751466
-346.85177525363014,-190.92850950220006,116.82733006101031
-303.2093866332047,-99.554510168225946,211.83743559666314
-223.65668953075053,-149.10445583294,430.94827729548058
-478.22529320846911,-215.47413444674896,207.2915719610852
-433.54176010658892,-236.29132635722755,371.11619187615736
-119.10067743167039,-434.58382171101704,561.86966818413305
-536.13095758075565,-223.28793335840112,126.52767773077277
-382.4867319839185,175.94027343553307,226.85299248984967
-395.24198898428864,-15.938223631880179,250.80056553105419
-667.98868149796806,-155.23724409276264,126.16025513454365
-284.57132466587569,-98.645331393762163,479.58905355032033
-438.67624332137535,-284.11673791179453,269.56996087900143
-428.67533412196855,-345.48595327136167,271.84289479771553
-290.49732619703644,-35.596491848143621,424.68274419127738
-353.23929237725207,161.8331069445787,560.53212970593381
-528.52137829126798,117.94349834488727,508.25197828953378
-326.37893644246094,-27.75507178367365,436.01367965628253
-759.6768652062633,125.87247597181359,365.67324450597727
-565.96054186743788,-65.915083189381534,465.95145013182679
-554.14128753709315,33.184789779474144,296.84512304830008
-493.18319966193792,-204.52565025566295,316.34484348316386
-449.58632629006468,-411.40103475988735,586.87153492378661
-491.40742623327861,43.64130974087783,298.66409943931774
-530.502615740029,83.643964505535394,330.93949543272737
-312.79614143710853,-197.62454488030573,286.36778315410641
-640.96736063190758,-77.279769574351633,484.58950253874099
-651.01141536215584,69.179246609398518,564.10173589593126
-410.96350486328782,-55.485020407364665,354.08596538465582
-719.15623461202222,-166.37870439930089,254.56867936728983
-290.83377120468697,-247.28706183723955,363.35692102130008
-206.73313215338209,-239.8305741659473,776.67601400093929
-422.31111919265084,-120.9200843091386,387.30793708518809
-352.79642091859409,-11.475906996171931,321.26987784721467
-400.94405436928349,-402.83309956811092,531.7266233028912
-685.0618269006427,-348.66760582412985,387.30825859958026
-265.72658514825906,-325.62136072205487,775.24351558588614
-571.21399769788172,-116.17263030084098,392.05539042861932
-436.46760899284692,-33.703721368291511,549.98570494469902
-418.21983816710264,-82.280207291569411,460.49640876407614
-439.57764864858399,-94.744773100668795,327.30615036392254
-647.7861850688796,170.92459633228904,423.22030259443699
-481.40749876089927,-215.06721537328633,599.14532185033192
-707.35850712465231,-71.848238707301135,42.69737194937067
-445.49504500408955,-136.83062240677464,433.22120144703564
-451.40434600020495,-138.19337839145842,261.84314084999824
-470.80549648730954,83.332246175971349,-35.772442244389069
-365.85011727644809,-158.54597328161441,254.96968758254431
-421.40194563141563,44.549499341124218,427.31046668674298
-335.63329094064136,-250.50701711136344,450.011558383855
-348.14602665067963,138.76331742093717,237.67262090471962
-351.00182058376379,-68.546536582582533,153.32844689795047
-388.36420192837096,-198.80151441132531,251.30243751976218
-457.14676931336476,-107.03555955734652,469.18260790154744
-576.55551220871553,86.831242252993391,191.28676154283227
-423.51755994905852,-44.834823372637899,493.59876931480414
-533.86333836659992,-52.830872144511019,313.19217457308878
-309.07027707792281,-176.90878123708802,535.72189289342975
0.16559429650230775,-238.89814135457743,588.49378014126773
-359.12355906090289,-255.93236322101066,500.04545641369128
-512.76673669329602,-14.983408071857442,486.41257243196139
-486.069199625691,-140.54036287912132,470.83431215253358
-241.24000641995298,-58.689479483194148,230.30448369155997
-781.71552772237271,171.10389646261027,381.26483229084636
-345.40249986084211,-89.925190222969235,303.72667477462886
-391.94277132317376,237.27565571198633,87.258387043562962
-610.54824352582341,5.3764487086061523,340.28516993474329
-696.42697173924671,-146.37697327887591,305.47774205595937
-573.15436564475078,14.008782193065272,325.78801814816444
-373.07581133390846,-74.023543400352153,97.450789816480139
-545.06649599123409,-131.11097982127674,280.66312636402068
-485.27871226766655,-208.57873106791666,504.03363726218475
-580.59400933264317,-318.04549826738838,418.18507764543216
-784.15718632521498,-80.12539199658697,437.19913093658056
-523.6839712701119,3.1821074643157372,167.287935266842
-402.30930083086832,12.728429875810077,382.30756226602841
-630.43986083750997,52.804663494505235,420.97437423283708
-598.23617877932486,86.826100451922187,365.03320423278041
-323.21120101827245,-225.9296299663599,384.58041640148707
-385.85351096821677,2.3956744900023499,544.755422284921
-339.12563362078333,272.22124649539609,50.004804756361679
-702.79102384575469,195.92698281408099,347.30441198263441
-567.00999812820646,-120.28809517578794,461.17189442539694
-298.3987344448081,-182.98415669133504,321.40531170050616
-581.44981240229276,-144.94603591120517,92.06079729600134
-260.02363851459097,-128.64805891638116,584.14402539526645
-285.92881483608784,-62.996446789775426,280.48631313605136
-655.17219572715715,-130.22626887256064,401.97745175533231
-105.81838088398204,-404.04010497923753,459.31936274578936
-550.95851031434177,-139.10288707592017,289.11786026477614
-514.8159540295386,13.666414960111361,401.74265450384218
-519.67479289004802,-277.2361782734107,576.57104867301405
-380.53732152749217,-101.82694661220818,243.55403857583104
-425.94781343883949,195.47231565752816,573.68851713792037
-423.67609716937113,190.47052958494166,222.74628077813091
-291.45884558425945,-89.370893000231703,1.7282352421499445
-791.54180051386425,134.51743067138702,546.75578076194461
-404.86793599045939,-3.1982939311613205,166.63682363518524
-704.15492341529273,-20.456405548548592,54.550413673968706
-322.30202745703838,45.4586780616429,219.56541503772743
-434.58496226977547,-114.5558687157707,355.48686244161718
-639.73755960879566,432.20747914593267,292.6297307893434
-504.1367397263424,229.11173740794084,424.58405307884175
-101.37289601586045,-248.20442623955594,316.84694612902814
-487.32322969549182,-43.639528575347931,532.7835124838241
-297.29975452315404,19.232231934122325,362.30566415127066
-664.60587326147265,-295.48140476469518,296.39058359751493
-538.22939399877555,133.19504048933058,70.914648933542679
-481.07132644175005,-44.851876924840418,227.53096629169698
-445.94158090963623,-196.37386240879715,486.41435216413191
-504.13673970360588,45.913264842260133,308.66442403850539
-241.39660317660352,-17.451546026523683,193.8947112147286
-372.76116010546394,30.911901081915406,300.0272752068322
-202.2914926163474,22.274345331771968,158.19562704490141
-480.63607769675428,45.227298105605406,442.1816593332822
-549.73342586205501,-289.32215128319353,68.422239479404908
-295.02557423635216,-222.74519384372201,439.13360066567373
-534.15403038507725,-212.30658970865662,485.60743795071278
-466.77090025313538,-173.06069299587074,414.76374849622613
-544.97507821176009,346.04262944649122,266.07597854803424
-356.85062278608683,-57.732521140460101,562.32384762071968
-232.28580308921741,68.64258243479749,504.15282876324409
-468.78150586173797,96.648318061372493,231.57241770694429
-454.13144565006502,32.730881284622313,257.7512801369964
-388.21674471526927,-138.64842495559876,341.39508396817661
-581.41420124490719,115.92251467198288,287.75725629157688
-556.41968249099432,-143.65482661506266,460.03720442892501
-486.97977685648084,-144.36805084383886,110.71950912642465
-389.12645039808041,11.819013281725502,24.547333390584193
-316.39239930902545,-287.29884534957699,502.31839258113951
-512.7739062284287,2.2728958462003805,308.81370961795807
-634.60307310068458,172.28844796549734,309.57368476757927
-388.21799611641831,-75.462245875284736,405.03542152519293
-512.77423951333424,-74.098047760718345,518.22837521018732
-253.27462421217501,-311.46088888819037,330.43614560702878
-405.03682152355054,103.19119920607564,402.30930085343459
-431.92301236463072,-111.4510472839344,420.40845679598442
-444.24809247767411,115.65977168007885,333.86531584943435
-547.59401795351096,-117.99503266636826,626.67292600882672
-264.11489902313929,-7.2733616296246533,240.93097181149415
-585.50789200905353,-116.37434119341141,672.08318477441571
-308.65834742141186,-382.78168043022015,146.45514847805529
-331.84878168756984,-211.38331298753985,323.66507902198475
-375.48272237122836,41.373357302119445,272.75802701879132
-273.28413391692038,-484.69619286337633,599.37403751620491
-282.29839076279472,-165.46958695157898,31.821075835945805
-406.40135589716783,153.19498996955551,228.65662221814731
-563.12572905086756,-74.408531704281316,273.35462094041924
-749.61360123663144,-151.83198472604201,7.2720510200381261
-407.76434221292652,23.638512592053857,275.47958905354778
-509.59170929708932,33.639511117695839,410.49199137429554
-699.15446858780751,-140.46731521015215,377.30702791204988
-497.31793799434297,-76.370579143538293,481.86198745343097
-540.50366739566266,-180.47093692720372,570.9610115418659
-268.66078734430067,-67.278843531228787,272.75206836984813
-534.59405400490812,-327.30248204382269,695.51777434311771
-208.20074552231875,-246.8406218747144,303.20938267115099
-168.95031887500036,-134.02309593969215,306.17283166458242
-381.79792281818823,-87.370557674273002,402.31930851985913
-309.25324701041285,1.2676521047355565,186.90257673545148
-434.05798111488332,-187.41684406563044,528.28582462453539
-420.49277207018423,182.74388580780152,357.52454303328483
-485.04387458897338,112.28352918747153,412.31064042872765
-260.08987140039216,-65.453515038087872,385.7043746687537
-607.67303219824646,-207.19618923373673,424.64950052712231
-327.83671172183335,-124.46426782473024,211.07835998513494
-669.98617173158357,49.283189030093297,110.516030208134
-377.72093170775952,-216.81076888896575,92.362482434291991
-317.30157288508849,-83.644005734768356,418.21983815227321
-463.39284054963065,0.28567567913859737,195.62109162777853
-369.57905395733809,-150.01363891050431,522.37669919072539
-429.58451690327109,-311.84654135613016,725.97508135640931
-313.28114887350927,-104.08107791015453,264.24264352303544
-611.17158635420708,-173.11626792499627,485.41935443049192
-407.76436388951322,83.189359055792593,339.57234283538406
-698.98112303915093,396.70282072190321,322.42790570105274
-495.49144816445278,-43.176938692406402,370.49930406477142
-160.92362480626184,-122.28371503651394,284.57114539506057
-337.30339121738103,-51.218831976160921,317.30157287025929
-565.33153903210382,-172.33815675770524,537.26027051002484
-567.2201427050079,158.27690967565638,403.45024289852233
-463.19676417551551,2.3282734484089427,144.60193133741669
-362.7602298575103,182.28931999672619,162.28749766538652
-670.06305301572434,324.57402814789492,-127.73987452824031
-392.7629788791786,-100.91826575718925,211.83743945637553
-407.30975543230846,-182.28929902718585,479.13446676970614
-327.11192844171683,-182.03999688844488,536.14401528227825
-522.31944989290275,5.9104203799485688,608.2382104432952
-665.06043161842615,-71.370096132781754,675.20452743234716
-247.38830942285429,58.514568560746248,477.13081184046621
-515.9560027245733,-86.826084373510454,694.15398907261931
-465.95145207085176,-90.007911138960338,566.86895787006119
-439.20921381041683,-127.77271896561716,394.82109470398257
-444.71455951544755,34.741188604060248,300.05454848262218
-392.39414781284074,15.32987746269337,415.53506649270366
-628.27082762696637,195.4332402866138,399.07567930335966
-574.84610737321577,-252.9960654750779,268.921581551038
-334.61050205780538,210.43964930749948,86.801108187396736
-401.89916784595295,-146.88000839099521,364.98470665507955
-785.52595690516853,25.002272933904159,538.6853350304583
-187.74434040839461,-175.92508410546284,-95.917810730792255
-704.73754748588033,-123.0617523240771,426.92423343705877
-455.02592793492778,-70.916290786996313,393.26675490791501
-412.19946563263454,-316.84931016882484,493.96333913706837
-629.60269241277945,56.774136677392299,207.74615622361466
-536.41240454050717,-14.092194465649904,326.39330293099312
-538.9847442693947,76.011378715565314,313.77059552832856
-471.86107827958642,-308.66442403822487,273.20665515082425
-500.94045215991162,-88.175862534920938,561.88406526268909
-443.22748174322913,104.09490517036494,215.4723703785001
-437.70903424712225,-10.399997561726767,422.40411156213122
-454.2847105567879,-75.660006146697114,347.02779618656757
-610.96463314846562,-217.74706845833774,-29.54814128314219
-589.08698177259316,-51.287932396241075,189.22200807770398
-585.51236663741702,107.27698817705021,324.10548090297664
-667.34765545928826,46.803370625308389,220.90099095762588
-184.17897918863071,-135.81586606076797,350.15548149449228
-227.29339029696629,-408.67351576028233,497.77252479252616
-365.27643875809594,-247.61777174708001,538.39090545362524
-490.04070112000187,-100.45955026498517,287.30052394594406
-414.12776531586826,79.100131340488375,409.12883928905018
-258.65987820620052,-347.30430042576563,372.3065733008541
-488.68101615187828,227.29275081789712,5.3138154221873029
-254.55893985520311,-81.360881195811217,257.75788567127762
-70.46095099554239,-210.01909264478442,217.29248113464783
-473.22482224796886,40.003654556487874,83.620305894857708
-726.42971433489913,69.551699614581537,448.67703794125345
-313.66487862532802,-82.280207291570591,274.11582871169941
-401.95500279770891,19.634998831029126,286.60434531761928
-476.32361239254675,-10.910082736294227,274.37846925383093
-505.04591326490385,24.093099372607625,440.04000363662516
-317.84373164464893,-165.22720426502451,385.16015708065191
-435.94862102507329,-441.85821480392792,574.56213735631275
-550.50039332718882,29.106147957329195,442.78431631756371
-567.99960208062078,-9.0151142962759803,380.78515554558317
-513.68306209655077,-50.459132648420805,421.85653307175534
-306.27373307036203,43.346382823480909,347.536077897545
-461.84988327066304,-137.69831854282251,125.00216669650018
-622.4658987553737,-96.751867044071631,435.55228684754002
-347.30430039094125,-115.91962905718391,375.94326756977767
-217.72684730670917,-97.259745001374128,374.61316942944137
-502.31830178025757,-74.098662148839466,535.95790663331866
-471.40621894863671,-29.092829942933403,562.32434924963752
-246.84062318324908,-279.57087007909593,498.68169571913808
-693.26005760421106,87.718129255535558,460.48689787952935
-195.38731985161002,-265.85351328707196,643.82454838690728
-233.03483866388819,22.782976584191903,180.20842138002118
-619.60178448598981,130.01181520815109,379.57995976473563
-428.21797210111004,88.647122856541912,301.39306475610078
-389.58087048472748,161.83289444876036,154.55950607905768
-524.59314483128082,43.185744158637405,353.92137348085072
-433.08256743288791,27.868413293928224,260.73184142293724
-351.04720021427204,-223.37617774490155,310.20948189275731
-385.39752077915171,-141.71864159377679,253.76550795470618
-362.76025093189412,-167.74252204745076,399.12719338122383
-755.822646306867,22.88295230490186,376.9787671811651
-671.42566589744797,-75.916971700315003,346.86148799672441
-426.40240021819756,64.551322847531878,350.03182107464221
-546.76835853445846,34.650783487623187,48.142858219616421
-129.55723247561565,-306.39149013540214,75.461405582398967
-278.66169944404328,-380.94372515780043,635.51231695704428
-550.05000454586411,-170.47004273115672,469.58814437674863
-599.14537704082477,220.47458843921262,455.95054076758851
-540.49271397879932,-21.345835975622141,415.94690426395607
-274.56741623767601,35.91595747887439,-55.908070802956409
-296.84516775472264,-27.275206849356834,204.85852849843343
-332.75752341121046,41.821983816720333,408.21892899355231
-547.32248390055258,-216.38330761067283,200.9273570245536
-410.49141434713488,-202.74526251306406,152.74152509958262
-299.57268842621983,-184.56223293026633,430.03909446312946
-476.78603754333784,-144.9443114527939,453.46437706754523
-505.04591326483711,33.639421765616198,576.8706246022349
-398.22077274152292,28.616524282852872,333.1836633359128
-143.1948445350927,-243.20394043686542,325.93868821839249
-418.66205509723801,11.831625497882275,460.50561536630266
-208.65534817766309,-79.09811599280161,123.64759037814748
-675.96582922582741,200.02334901314808,484.14158411920465
-345.32789518687724,-128.88920925793892,36.775184037436127
-383.21661317563741,62.278431805895032,184.10770617586792
-663.00264645809614,-119.7492929860972,448.54325114543514
-431.40285482435235,-133.64851352060364,486.86244202080923
-545.25065012681262,-200.67781205979284,148.05595767994348
-546.84564108473955,-173.1753074180466,713.72350156343123
-471.86107827816738,-141.83107554996539,525.95690517680316
-508.91180981594061,18.558834427397247,504.28524475806086
-497.20281838127983,3.7787479770054575,378.40192654643766
-367.30611873513885,94.099463591305593,250.93190290501374
-495.95277272156784,208.20264131526685,270.93672506635943
-632.33022141100855,101.8257539096421,163.65122187476686
-372.30658160525485,-87.735256939377308,336.84879803826647
-340.94008546231214,32.764165120836019,400.97945742013411
-482.83855846041803,-216.90931552791832,364.49376445346519
-261.47090966261118,-104.30369098370865,357.92096092204923
-432.59604130348424,89.933922191706998,231.91385967030317
-631.8757118856206,17.728884444040858,-132.2851004745844
-414.58387142347613,-77.735263465164991,265.02289298772962
-581.41649240839706,-18.638058005272605,555.9589699724138
-410.44978404545623,-21.791683494786501,365.43430227295079
-523.68341836051854,-9.5457504613282431,417.76548057233174
-756.4324029641532,-73.64305847214797,95.463223904866098
-433.64468642243116,-192.25228443718646,166.42836723261235
60.460020130140109,-149.55907119566939,340.94006714082656
-615.49007996560624,-275.4496287090966,115.50817798602958
-557.76145162248679,137.74639520080282,216.47870149082948
-746.61523459828857,-283.34144051601476,418.22976692255014
-702.79116283297128,-80.007273388473266,587.27558094104972
-485.22641850328074,-15.226292913024514,259.72928910024808
-544.59220930937113,-15.907449259280598,-6.3605735375620336
-269.56996090552343,-28.638967178818525,275.47958905356455
-595.31059837770488,-319.85930707825446,196.55127571309129
-405.79811488418864,-147.7216125971905,431.12268295670845
-335.5003537811437,-159.08082470778177,320.17933604469704
-413.75121026991724,-56.749821730322225,391.00066992859621
-477.77071503223846,26.82061163662047,385.49232281550661
-265.02331871013655,-292.75349952235558,603.23781946183942
-554.45190944994454,-133.84793663518502,535.67665398751615
-665.06046590138919,27.275200821204297,439.13082801461371
-452.11218037060007,84.079794733641208,441.11364342520818
-540.50368215291962,-238.71009243393445,575.0522774797704
-338.66715155923112,-427.76616056004877,355.03227566142181
-408.21892899354128,-125.46595145013065,644.14946813346421
-413.5703110211295,-188.59765381807091,344.66573265481952
-380.59718415002527,-49.379658063228078,344.03681812249954
-576.41603493383172,-149.10445826661811,130.01181925628711
-748.24984098395964,127.28429848255436,495.95417756246695
-305.03305467560324,-349.12782038481771,535.50065667762681
-561.86926085374307,-241.8401672997278,65.460496398933032
-540.94803403226263,62.289501122976183,364.13453860077317
-308.32531341994536,-61.489191234583387,286.70360346313197
-470.56575150025571,-45.63382133345344,599.07496343628407
-364.57861641536499,-252.29568623067729,326.39327519394999
-293.18958972088689,-94.991047281423647,354.13931702522359
-465.49686328131389,-380.03454853268306,192.74479509745584
-575.961501768581,36.821481318792365,442.7674745151441
-577.02252679571905,-111.07337763048648,83.136449793788785
-489.1150576688417,-60.408028155624002,485.53031335665929
-596.87244310322217,-154.1049194366467,631.42103807104945
-382.76206927902138,-202.68830462717307,165.46958814437232
-219.56541503773849,84.553141194644638,391.85380489134383
-480.04490902052748,35.910822219670102,397.76047299995685
-584.59951708982283,-15.911566092347798,452.76687174453576
-613.69215383217477,252.75025002272298,390.94463133011004
-514.59154325542681,-172.28717101030156,181.83512909527019
-546.10993093425122,-83.806151658363689,20.796780485286117
-481.86198745340278,57.732521138286302,459.58723520320058
-657.78707155195639,-275.93417583416675,566.86971542867343
-485.95326847894859,-112.28293481225273,255.02318392581097
-510.50095463234175,135.01462961027497,510.95554141270929
-693.79861395182456,10.200462402455205,135.16164013450256
-341.07403937462715,-301.57943851495719,519.27539076232608
-583.73560647151066,-89.575665708585717,314.98060008163014
-635.05773252238737,182.74412834963152,351.39558141031716
-535.79307933479686,173.03659763179155,344.51487768251855
-631.42103827715221,-7.2733884921128968,542.32202927431956
-630.96228045954194,250.02356353334682,274.12083395568777
-509.59178107100513,-195.47231566506019,340.93925672542451
-271.8428948123173,-188.19892662713551,397.30878405643227
-383.63129144351666,-253.56321538370858,360.10223556973875
-160.27016384175607,-149.45386292253585,318.19354572655595
-720.92099452503646,-54.494637849601382,259.18376642407679
-569.59407659251815,-116.86543486004939,529.53878998860762
-397.32445732539821,-90.601691290934596,445.78772671590752
-579.14341992639527,27.729935575532629,565.05161314470001
-651.87751458885009,-290.0266270446009,359.95083791351635
-612.78298027502069,-38.178223821363829,92.742921879937001
-451.55587642938843,-90.185249557822345,549.79733590864828
-791.54555344701055,81.715652117129082,511.30015979964412
-320.93827862485335,-189.56271203173802,407.30973866271853
-452.76772388655911,-25.454729054458767,63.188351297920079
-251.34383833680491,54.827986006320664,101.90976274081774
-365.80798832976086,27.543155838013273,287.75264099831082
-454.58376466063902,-344.57374243518018,188.20150718661193
-327.75709078275423,38.185264204941745,-62.278432293251321
-491.87263125151208,-106.38429738484444,367.29167378038193
-558.41721174486997,-180.73340521403404,468.52649910013673
-323.21120082682944,-1.2573263317810763,395.49049942344499
-395.49067973841176,-147.74099608031585,277.29768679667353
-562.80064982705312,172.0120869649846,216.078656038942
-633.81710363279046,7.5905571742628464,529.0365257093888
-297.30060686430977,-103.64591835211992,325.02783661157747
-363.708555844768,-282.82092986246136,559.07401171526567
-421.40194626656722,-2.7275211789979408,482.77116052795657
-321.37999495096182,344.11298977319615,386.75669123832205
-557.77797981634387,-424.58405309573629,223.2021092826609
-311.17135066001805,73.70158335701565,342.88888103524596
-457.67843121340832,-41.956198968878539,675.8135278028152
-222.73665113959746,-84.253098021306528,221.58811433178343
-352.69463534139408,-25.325898009133688,417.15744275584882
-512.76961386281971,-66.352096316392604,579.14830814142647
-520.20780605911727,54.075576652463276,469.74700973805164
-544.1403763978542,-79.552686607874122,408.67351577415639
-241.38550054190696,197.29079390785603,25.002364148296685
-481.40739879758274,149.55906465249177,175.47050063474992
-265.78434347423581,45.521927428470242,291.02372989553521
-628.38010301587508,-41.572640226838381,274.58953559610228
-340.00080038233244,-234.83411821492697,157.09943126230277
-484.91600950265018,193.91026899162995,240.4762891107174
-444.59085551733551,-54.556539932186851,362.75239409226464
-335.93963090621736,-41.367397052242197,394.58132613487703
-446.39475074417652,-22.265378636234832,385.49731495111985
-607.18596766158998,-130.61484109574863,295.33777050256401
-475.49777252477281,355.03227566142493,195.92690241126502
-497.11644331918751,108.74333447711574,307.66568920833413
-471.40649149880687,-179.10719156243425,554.14128557193214
-531.67658628225468,-225.14067447668418,281.15858937078895
-300.79987835953614,-104.71127284883069,164.04738795512847
-481.86141263301295,121.37467042458393,19.548381207280507
-312.30048487194028,-265.0231429820663,651.87776010971277
-404.04437734327394,64.658646863221804,278.7006102215355
-350.77468167061778,177.0050199138791,124.21885803036496
-604.14201595216457,-106.36660451163915,462.32463784057416
-385.94373430550326,-122.73803660881325,336.64592743088815
-543.23120283664707,-165.01500136378957,510.04636785159767
-255.02318392580943,-293.663060278209,534.59405400490357
-200.11570181568746,-93.317704505632506,44.84317106684027
-362.77565434345229,70.00636421493013,371.36659294050764
-646.87698881716517,-3.6366942449315691,486.40785525956863
-464.07267912370378,-424.00793376578861,414.07559656554992
-248.85686397059109,64.733605323847087,156.16377424863924
-386.49307726608237,-91.987524026100559,224.32517966248633
-698.78029087301059,-172.45292868246332,237.54468460136377
-610.05540091813259,-150.01357389525236,397.30892904337105
-688.47935292500267,-240.78042081286725,652.06375438220812
-463.28067678299834,22.594530548750853,327.99876097566118
-255.93235748704114,16.819710882807378,245.93144831348116
-705.22601624734955,-52.439039773494152,443.51342069386294
-361.39649060955861,-235.93053913991997,248.65896893865144
-605.05500500044843,-220.92917537957956,561.86926084189361
-390.94399767788627,-62.732397685739414,157.74239754279515
-391.37352972081993,16.382437286229351,480.08447865092023
-419.5278685227247,-222.6893955733029,633.75377696778628
-621.87471588325798,-60.460041821982635,533.23464412295891
-356.25217239652,212.90117406557141,147.52057820848887
-506.46959471300704,54.330946016610888,374.06940416630783
-424.13243411402186,-328.22366331491793,145.00129269676253
-416.36780638690482,-13.855531287279762,267.77266669415116
-437.57533520521122,-140.62721003956273,274.87058589401721
-523.99216013151965,-283.48817331800564,618.71634003005727
-564.01602026986473,116.9661774847707,450.67855508492755
-289.11719247419728,-6.7185441447446808,189.93258374697888
-378.42108655459896,148.09254755299654,291.01098517989158
-486.90661200584009,-226.42824363279439,419.38137238566361
-459.13264771661449,-287.29884408370361,289.11719439519294
-337.75595641982119,-303.66227992070776,583.28182470174602
-394.58132553276414,-3.6366942449312285,425.49322677126133
-335.03058732958988,-125.46608646601103,433.67566869394432
-327.30248204403534,161.37830711851902,201.83653059345409
-495.3821413079047,158.76987211835313,334.63363982580779
-340.86939436281801,59.550868248104877,162.83632225113038
-364.96078288578161,105.68102084821857,328.28886282818723
-320.87698660324958,-228.12461492573158,377.81995383907957
-471.40732711662793,-29.094366326118607,510.95539716600661
-424.12946631512426,-53.641240112742253,494.59041731065724
-585.39458748001482,-325.8628329306303,629.28058612142843
-577.7797981634651,101.82743885807901,415.49231748340435
-545.95872352031745,-118.647147832557,365.03318483495428
-520.956608370764,-189.56284873149184,495.95413306128216
-523.22898779509137,384.58083868908079,104.55511310105304
-537.32160930690361,-94.099498033662826,397.30881835743651
-270.0245551933649,-229.5663392257236,332.75752341121898
-552.77752522956143,-7.2733885039110806,310.93735794162865
-487.31673454144243,-8.6369289798130087,315.48395976805398
-290.93553959451089,-110.46458768979009,370.48822620236933
-562.32384762250615,-211.83743976725222,605.96417856168557
-435.94872336778894,191.83562017456629,195.47231471554724
-245.47686150181582,-52.277479758479373,217.29248119452336
-352.27221838822214,51.098559629018858,306.64104251047644
-588.73474579399397,46.56231153791596,700.39987085856455
-421.86600427011763,-12.613811890709069,190.9291608110799
-682.78935279157588,16.819702404053597,360.48731131863735
-602.78207109736809,-261.84198563505697,518.22892990271339
-644.67764803666228,177.64901113443054,278.75826889929118
-423.20340043402604,-263.64361147440201,495.96799131110839
-192.743477395968,-171.83224624345235,399.58213281147925
-547.72463477077338,112.28950285958008,171.17404937182869
-461.84292224934558,97.753718268658233,277.30483491878999
-250.41371847960659,-72.208524540510552,251.93954377149842
-492.77000578084369,-222.74544494486884,586.41850685698091
-452.50181003655621,-120.83125666091455,388.45947653828699
-456.86782296687966,-222.73746563741545,581.41033237826684
-382.76781050835456,106.8250231389533,230.91573060965604
-248.84475433961057,-92.695260565022537,301.16409812590945
-321.68275299882896,-129.4520614618657,276.39388541515228
-393.05965170018658,-410.277223254582,375.35298712700848
-200.47277025183817,-110.01000090917088,-69.097190653695336
-507.31884716792035,-81.825620510954508,634.60314574052109
-384.59038838200189,19.063521803772449,332.2669959511959
-424.58405332051382,-160.46913355759673,393.23359998419488
-565.05067549425439,-567.32353072319188,683.2445454042836
-324.44378891049757,-123.6603470674406,260.33431010380423
-449.21243153294108,-194.89615989744487,447.94300387278815
-535.89117535951038,-106.43800928550924,-10.081111208730219
-430.94826802384227,-153.19574507423766,569.5972361131885
-440.63152417497224,-77.8185148693195,62.084509322664339
-335.03045630020819,-154.55950490249356,499.13628663800586
-552.09656760966516,-325.43630275557297,545.7508552776618
-310.91905520073459,-179.08911962326565,457.33029907051844
-245.47706269519932,-51.822866659807232,307.75481683302314
-515.02814887505122,-228.20256927761528,668.72049438784404
-590.06150067581268,-150.02191876442316,359.56840543637094
-324.2633294224031,141.63498705050435,390.20919521212602
-279.80258266912779,-162.61634409231112,374.40446246527944
-427.5786103942051,99.274571168726212,420.01201612492321
-371.39744008996519,-270.47920653793039,325.02943198987333
-422.93924111643423,-79.300236640206322,149.43293037766503
-229.79168511894974,-148.65741646430763,339.72421190401781
-670.95483968580652,-108.96366949096603,275.79163229079114
-384.59687303486021,-28.65642118392546,100.44273371011494
-368.18896122037916,-230.55392313906387,544.96913446386941
-302.3002091099159,-183.19847258841762,237.74868776440707
-474.58859897534472,-359.5919824685875,273.20665512882181
-484.58950812007652,-6.3642149025259851,267.29702704331044
-656.41701183914722,-89.546982673430279,342.76190263847576
-468.26155524496346,-253.25786045046556,574.52334826728418
-706.56322042123031,13.183160260953654,418.29199156797335
-483.68033459881502,-70.460951033795951,52.277479738064891
-544.14084643289198,103.64526171069147,598.23521851246346
-309.11901081916233,-218.20165469588082,455.95054095826504
-537.65909874276929,-178.05256969592406,492.02465035358034
-647.62779703566332,-198.44064852877079,625.27059806161105
-332.00656188770432,-9.1117850454826428,-33.817683135880721
-566.8693880255862,65.460980616806594,335.48579362886562
-317.76620209521809,46.645379874940048,-9.4607780309460807
-392.30821216935237,-170.92441461427748,292.75968788214618
-635.30084068100575,78.019995263486848,322.39101052738448
-453.67865229403208,107.7365443866659,-8.6387166899896961
-353.21555101250544,-144.10576723365557,162.28521052396997
-181.37161551022498,-361.38623718870178,123.14680932792194
-268.66078734487689,232.29384489499145,437.31248295222207
-600.59928819608513,-109.17321516117852,214.16099311798038
-371.85198654422749,102.73661236861284,278.9347982107704
-505.71078719684652,-70.625706310473291,216.83862593806893
-449.58637395170609,76.825118002525144,399.58175660627955
-684.6076916083249,-93.644876806980349,607.78252568415166
-378.67078790542934,-324.1203745010892,407.76434270545298
-560.63667978333285,-322.98350288403827,199.92437501425778
-520.50186376237036,23.18392584028096,314.57405224479362
-475.61194003800017,-161.81925007873568,499.42104674524342
-407.7643422129226,257.29611782889185,193.6539685425962
-394.12682142147946,279.57078543580633,198.65436893229864
-391.3992181107339,-134.09157838496776,370.49810211398466
-390.90368358927566,-52.701355745871609,390.99581600617222
-339.5763251204624,-262.29657243521461,497.7725247749774
-423.88950703618326,-35.239007456671786,397.18720371304687
-373.67029531384611,67.278935345624532,599.14543496281647
-395.75339277150306,-215.35698479921632,478.42430566403749
-212.71963443248598,22.304215757817602,323.7032006344939
-667.78798072551433,464.58768978998052,193.19938176197863
-474.58853661685038,-335.93955805506982,205.92789332337887
-625.04031717956786,-176.36014245419989,457.7960883866055
-342.7584325847767,-91.826529684517581,370.9428129829941
-480.49822864132892,-133.64851476833744,446.85880443103514
-788.71253822135395,-256.84603177228962,783.24986272875606
-693.82747649654345,-36.776406912970202,315.027073831525
-324.72054644630953,33.668783599816969,463.57802765196783
-469.87513344543356,100.67399721356645,659.88365278444155
-117.73797617966166,27.275206836974213,361.8510773706613
-453.20914087281648,110.56169317836981,281.09226397267088
-264.56950631875242,-80.007273388488386,230.02091096191251
-547.77707330794215,-39.549051485387395,365.03317615613054
-463.67851622879596,-66.369669970047596,97.74311504073134
-338.21256477861408,-299.57268842622045,532.3211201018255
-348.21348212031404,-149.10448256991472,345.03133859665144
-54.095826893351465,-333.21211020277894,474.58859896354028
-636.53676930996448,-202.19128150932281,545.9582792424726
-680.97099736339169,-31.82107464314932,474.13401218292398
-39.866610110668937,-191.78066703782122,194.53161468155048
-320.51790033323874,-89.690617697600629,774.29467566350695
-720.07060052033478,24.996483953966656,427.75727047412909
-650.05909628147913,-13.637603418490752,435.49413583052848
-760.06909719064936,-363.66942449313404,262.75115919628831
-475.49777252477196,-25.456859714527468,398.21801981997265
-544.59496317846674,-72.279298118010175,536.86698790798937
-684.15340754606859,-110.01015231310676,52.731612534779856
-546.80878569002709,-218.14285117936794,99.601609385555804
-564.14529756454533,144.44191927191832,191.74201041241349
-445.36008346267027,195.46014516308068,183.82601907481461
-499.68841967335385,55.240247544764017,424.86601489334828
-475.94922168961978,18.056862124358833,337.91128315246169
-697.57243919443852,209.10991614574874,-181.21600580725308
-536.78958817702801,-103.85244713199599,669.87606753784962
-282.33489670613363,-63.61840268843924,320.47621870955209
-469.77001113230767,89.278114854207161,536.98414711601083
-300.48182223846879,-173.65210742900345,263.20578315083816
-686.88062511277849,-31.821074184725457,177.74343138046976
-155.88174153280383,-422.21812804667275,290.70397789084581
-602.24902542859627,-52.066022764180111,220.43122580136946
-390.24858621324677,5.7841428041198881,292.31601072209372
-110.9191656791847,-72.751065334577291,316.3752168594454
-422.31111533671037,198.1995809820244,78.643524386166447
-443.28371825659008,-253.99477436436484,562.54807421562839
-695.50733950934443,53.197350128249084,514.14856397525932
-606.87319304593291,-42.730941503537203,400.94583904936496
-565.05136830620756,75.461405582326151,357.75979634511896
-334.56540548113782,-290.02271234854055,509.1517024643814
-305.02768624207397,-97.736157999325442,310.48282931722224
-483.22645285323006,-66.824852440545627,295.02572273931111
-370.03363942176151,369.12446586053198,485.49868169833462
-443.54580308974113,-272.60335948401024,167.3607129488185
-426.40252320451123,-165.01537032269678,562.77806544418502
-308.63091428033869,-19.058496479767623,204.31987603336518
-356.85062232532198,-7.2733875727324886,275.02500288435027
-418.27530944856477,-5.5768969363499847,519.97078950910316
-364.23290790011833,-8.6410173705856881,428.41003955864545
-445.10777462893952,114.92122291685948,221.33488690766615
-148.10127727473613,-280.83252365254731,366.80044150965955
-508.33049954359353,125.46595145013293,223.5029778416158
-494.10116665114776,-157.84875692502894,263.14798912214502
-459.13264806613074,14.546778476825391,321.84744160319673
-359.12356477508592,-35.457776773994112,396.85425846712042
-531.86650547272131,166.3790011653405,353.66853357785362
-317.32757579120346,-232.71501495688761,489.46268349598739
-449.45285126393696,-198.70826370571189,242.37471016509556
-324.88291142596336,-73.490888284151978,246.89318975359549
-283.31190304442288,190.64341478991315,191.98029263651557
-195.47231566505948,-5.9096281503100085,453.22302027227011
-470.04272449138375,152.7411660666186,300.02721160247148
-520.5423236641634,-321.34903017522595,210.74227455548032
-496.84550306363326,-285.94815282651496,255.468258167503
-441.85835075915713,18.041326026987292,179.56177834348378
-511.08879718326455,-239.97708615747226,590.53098670406359
-696.44417183427868,-0.4723945725705751,613.23026877615644
-550.98343014435261,-216.38165941342325,525.47278896857256
-324.22070100171646,-136.19890400572172,209.54098319894621
-547.31836262508398,118.19396051687897,232.75000972435103
-721.88380761936889,188.65351395548399,277.29793617535017
-297.11671805847175,-55.278999385862484,673.83734453422255
-447.75117018929046,-15.427528527091132,161.87598533982069
-550.50464830236001,-240.9310483128987,49.095327849807461
-495.4954613796757,-153.64625099012119,580.96539970112599
-468.52298692981179,264.1149195381376,418.38918692935425
-505.95508288905239,262.75116333016183,89.554278120003957
-403.2184744067618,-298.20892808436986,486.86857827283313
-683.68291405358525,-77.29280723722529,399.43120494839354
-440.04000363586351,58.641694700348076,-45.004091279869861
-540.95826185694636,-246.84061698966804,362.30567181357424
-446.85880534593599,-201.38194381307164,460.95099554504981
-538.97760129921141,12.067606679170824,375.85552514596014
-293.65895520333385,-169.55682300779193,274.11984810385536
-436.78436226994404,195.56144813561801,177.34232388684933
-153.94708975746065,120.0730134214852,331.28357797089978
-632.79431495405572,104.5374540217248,256.82956899668949
-610.9599995224454,22.729339030822668,522.78406496091986
-310.48277116101076,-174.56132375670498,517.31975634148318
-300.02727394552301,-281.3892150229313,587.7807114675436
-301.51790231559801,-4.7586440722048193,309.56871930954634
-408.78082902341708,10.142055862736131,479.04815778604063
-577.77948076835355,-95.917532902811232,517.31999676107637
-264.10656166630474,-324.28420070606478,181.60513358204392
-683.72007768581773,75.893501450416977,553.20123683582847
-486.86278490172504,95.084023790775575,226.38396531517728
-579.59814442382572,-36.821527878200364,578.23438718984357
-448.48920594441756,-233.46965871285281,483.86828109985623
-701.88198927175006,131.37556295912466,493.22665696881194
-291.78451475203144,-117.65197846007148,320.55247851023785
-467.31013711175092,114.5626015881751,48.650552933027619
-690.07769992495878,78.116767082797793,397.1439258804615
-359.7769505822547,111.8628176525235,123.8437293656937
-537.77616715532349,-297.2997594984775,188.19892077832887
-520.41650278775785,-98.73321696525862,276.6168196952346
-569.59855176694509,-3.1834151456938229,548.23074842566689
-440.49459041730898,-29.548140740055118,506.69441793807977
-359.62707178565478,11.772903225516036,511.84411414363802
-213.20121404639079,96.826976662547679,142.74028872803854
-481.75792245102309,-75.993344051459601,597.07822878828847
-364.27385722920553,39.855437397624023,362.19698466710116
-593.6907526090755,10.000405149111852,402.30870644718357
-504.13683944412259,-48.640889080564335,394.12660083123609
-495.49960732122656,-87.280679152632374,484.58949171220746
-155.92326575142661,-638.39636148776424,552.32293844894764
-500.95473483922967,13.538472246288544,244.36952822715571
-570.28055001970506,-13.872781962519321,381.55964125938169
-287.28805185657438,-99.997386273098883,228.21704231278102
-262.75115927970467,-265.93326666060358,591.87482881026449
-263.20574519994028,-75.915991571851009,265.93326699964535
-425.49322673477724,220.47457939179964,110.00999576210975
-321.39285390022502,-269.56996090969375,515.04682243372383
-578.1460434803688,-318.42462004700349,511.78124752201245
-196.02802208603572,-70.960237980525264,349.58286873828712
-449.13173924902139,-104.10037276115997,393.21756523320045
-314.86231282607901,-139.16737294858802,321.68563518625564
-338.56746824398078,61.707945556058107,248.68233524760794
-346.84973335916516,-208.20077013882721,166.83331691257018
-420.03818528956765,-60.914628602599748,584.5985998727167
-422.23979664802744,-31.962598536224302,756.38674691524568
-432.05409315859208,98.448569661356586,14.349788448535664
-542.31251488433873,-7.7185123152835926,409.58988941217666
-346.84931229385342,-245.02173604815968,493.22743067804555
-412.31021004777813,40.458223388845646,376.8524410449894
-643.24029457223003,207.29157196108704,257.27354529551928
-427.31157377981248,-126.37512501217955,441.8583507580862
-334.12128375306747,-75.006818801707894,349.57723429402381
-550.05000454586468,-408.21892899354435,640.51277388853168
-504.13674010950012,-184.10764658052312,433.09762192968236
-655.4672075829543,-183.5037506469553,534.42456745969685
-597.71288225125363,-35.880290866813915,446.40885778710174
-327.48975835948841,-180.28781800313106,330.51882153314131
-432.27484766106858,-180.8705619975774,442.01159676568153
-652.33203020269127,-269.11537414459605,511.40350138483473
-500.95463223715927,-86.826075095119251,311.39194472594374
-166.85365606261703,-168.22360386737003,358.63422491236514
-400.49193086444063,22.273675159562561,379.57846279101494
-544.66547508275482,11.621785584152489,418.6566847081283
-440.94745692277604,58.190680004252783,13.640633498854951
-429.12996320923645,97.736116377017979,287.75340629148178
-420.49277795380584,-78.643518325772177,629.50115941023955
-463.71234000251206,-397.35510444365008,428.20053165836794
-448.2263793449896,-64.553575258407179,413.67141075804255
-359.06319279716161,34.166728130799285,233.70561343389133
-377.76161469224263,-20.0018183471214,471.40649149922245
-377.30647913922468,21.820822394212975,395.6617718656143
-297.75434130375265,-64.048468875749208,234.11219201708363
-356.1210639447022,-466.21827495842388,298.83476125738491
-522.77593464051836,-98.191314805223357,444.58416846931578
