-474.16692078403202,-312.33226919303269,345.00016335301945
-449.58632602963644,217.74706362627148,430.94826377143266
-478.08149103292874,-28.501028863764393,301.66384265463608
-202.74570415491894,-183.1984725884156,419.58359850895204
-504.13673970360992,-40.912810255476444,412.76479679970538
-709.83481382318735,-332.64966287169887,485.98887526499175
-469.5881443767596,-299.11810164560251,502.77297936175546
-431.92436072431047,-52.245746344076451,368.73486966147516
-455.56383254323879,172.95792595411359,173.6452376155332
-544.14063450257856,-8.1824201766856604,380.03460578598151
-295.4814074006693,75.915992362943356,186.83516683334352
-475.0427313789915,21.820663628985763,314.57467625437801
-321.39285389580635,-27.729793396735069,436.85789617237725
-633.73875254306995,311.93603308567208,343.35025906868469
-313.210291844712,57.277934357669572,220.92917537957663
-629.60269115373694,-5.0004545867792292,504.13673970360759
-618.69416081647296,-79.099656752923522,560.95893068873715
-338.47976557778867,193.6778309087349,354.22360941718921
-542.94594237517401,-174.73496057084336,558.52294988578694
-687.64387330114084,-200.04482572276834,301.0326111612838
-328.21160290483226,39.549105468975952,231.38474886179191
-677.31602991617945,-65.421242491045547,549.96669310589175
-294.67879639767278,-136.93718496052051,286.283105104264
-575.65250317543996,-117.62607121504197,323.89387663881428
-618.6926084189447,7.2733884898635512,225.47504318574192
-353.50125798997368,-528.64636155135054,399.17972612984107
-531.6298002511993,102.94189480541392,300.80406147434928
-457.83115062291699,-225.10492597967772,618.53781657524644
-349.57723429402409,125.46595145013261,351.83816466233361
-506.86427215014538,59.550858850479358,600.05453629826263
-512.31977637183843,-177.28929814055985,540.04875410394766
-502.45194632297301,-95.114451157367753,586.087339481855
-310.48278648036768,-220.47451084670058,308.20991569409057
-472.63121155771125,58.652418972312113,243.72810974968505
-638.69442962319579,-62.278398853080688,514.59223042990675
-419.58363352365348,-162.74206746067691,504.13666921697717
-559.65463888743409,-311.40350961315914,187.20802039658997
-420.49294898633951,-231.83948410216342,602.32719634374178
-507.77344111728434,-212.29203337650489,636.87606800568585
-616.4196745158622,-97.736157832529685,297.29975452313732
-514.59396394202986,-188.1998949477703,305.02324416319954
-623.22437653097768,-201.82250070002377,289.12856994800069
-150.01363760341573,-209.10991908355231,297.29975452313801
-660.92398980584221,151.86317479670862,281.60264198402473
-594.59950934595781,-267.75161408463885,474.58859872605501
-412.79694746931995,-60.92534549731328,371.81447743435757
-469.55392502598517,37.272243552361473,217.81937907499241
-486.40785746911303,-316.39240547734948,449.1317344616665
-776.43418924115065,111.05086570385113,563.72921037624508
-692.96100972084662,49.114029688042265,329.90390957598527
-275.47958905354437,308.20983741311676,350.03182107464005
-719.16047766683255,-169.11083591253421,458.2176513526619
-538.68531371473898,29.548156726879437,333.21211907346924
-386.51266367516587,-186.87264296126057,482.2391365855753
-410.03442417786266,33.187686923145613,-13.634751480349298
-446.85880534593713,-106.37330666424224,458.22347486134981
-420.94735885085248,224.56586962446656,145.92235657782746
-557.53855082398047,95.239419025380727,471.03905570989019
-349.6373602019745,81.760761260096771,207.67297175662469
-568.25595131078387,-89.121484541078075,209.08744354329005
-602.78207136186666,-119.55632357335512,275.02500206234623
-306.84606485211202,54.095839477320297,484.14356346834921
-740.0672788444117,-92.73570324751104,168.65169560869126
-208.65533230293451,94.099463587598706,184.10764614964864
-297.29975452383349,7.2733884891757725,509.59178107048609
-516.56141973324918,-188.11569119350483,441.78491096802077
-495.49959093270269,-288.2080189564204,563.68760785794552
-320.9414167515111,-216.83789435403264,469.58604461920811
-405.49141464954369,79.098090536319717,535.06219965538321
-306.17838023995319,-410.26984786325073,655.7490192336985
-88.644558429523983,-236.38526529711694,214.56486154778867
-300.02727475344824,156.83243976841803,301.3910360683293
-265.47867987998507,-193.19938176197888,496.40876443312862
-347.95570635666627,71.170339815948722,339.51546426267555
-334.12128637873974,-66.824258990348682,72.733882247890662
-393.43426180717813,-10.169770430891473,47.311869523845751
-420.49613190870235,-24.096975946184422,244.11247070848893
-486.38459574233383,-247.49154204688182,476.17612304927354
-197.6522027539439,184.20069296389272,521.93564415238518
-568.55738881586103,266.55113045941886,355.46776421688747
-271.75601365552154,-137.49064684917474,161.51881263875478
-384.12582962087015,-102.28202563869539,212.74661332848069
-209.19189702661271,-189.29013029669358,250.96799456307824
-353.21392853895691,-185.92599327211431,318.66533321210846
-403.84769693013186,-146.01898334902074,429.89188911904625
-457.3139479994735,17.275048427287871,291.84044029686044
-355.03227566142021,-198.19983634875757,544.42519940248235
-506.15924468969587,-167.09818019865926,531.7702545307086
-214.11037367033143,-210.47367966523242,123.64760424772012
-447.12747594763709,-112.63107665080028,452.57360254474753
-471.4064914992228,26.366033275753555,420.94735885080144
-681.42558509479068,-246.3860358694923,660.0600047289505
-390.03545776889035,102.73661241930861,350.94099463587048
-392.26057303075771,-164.7627395472465,428.77555753214978
-505.50050004545568,38.185289571777652,455.49595417764579
-379.35202433084845,-177.28419532158455,399.38717777185559
-233.40426643720485,-154.31820832922079,515.70612839741977
-240.02149748276392,-352.30419452882006,533.23075383554647
-511.70849456680202,-154.07688607459906,425.68167868529724
-396.62967698199827,118.01019355664017,157.82821049559863
-514.03129638650387,-158.26314200765981,532.55829407263786
-559.59632693882054,-43.64033318955557,724.15674152193935
-549.24183202482175,-83.972871756356739,106.03045803352224
-523.72887664819291,-62.198813227224441,276.12089766294667
-344.84667065467596,-199.9393577826165,437.02898032775425
-383.48771722501289,-113.00980633780341,611.07993745453427
-1055.5884346437842,184.5506509690554,369.24298389594816
-429.12992189380986,-162.28748167197588,487.94317139204156
-295.93625260172684,-133.64880606715809,368.66950362926792
-286.21709514551679,-46.585649974036059,457.00416117445855
-640.06931044566636,-19.541090315571875,561.47810412773231
-450.0409128102516,-44.09247900245137,216.83789435402898
-610.05545909357386,-72.737531598969724,514.59251053740343
-185.92598958246782,185.92599650058997,208.20074621425923
-426.51927678991899,6.2473383569110545,350.56569597523338
-555.05045869674018,28.638968923977988,435.03955104522521
-355.94144922265428,-68.188020336595216,143.64941943065557
-296.84210440808982,205.87164184426169,60.49272172477643
-355.88469589046969,63.464620448664817,252.85971373787808
-404.15330561044368,-118.29460819132325,185.95429071213138
-471.84280984138809,-148.16067659757181,267.7854264191505
-267.75161378306842,-324.7864172108761,453.40947728999589
-368.21514368232727,49.095520458717132,318.21088807606299
-203.20031879521653,-300.48163030643957,491.40852933875146
-606.41852093557043,146.83157902182208,348.21376722105657
-482.31658148427192,82.734786821932914,483.68032727426066
-362.05038607607173,119.84104088822782,314.04909856952133
-487.31983440244323,-131.38249435513862,249.111430837721
-120.89269245224061,-370.89527643921855,429.94291492035535
-306.10449484603191,-87.900161602895608,667.20786679905598
-625.5114082992535,-154.10491619020007,41.367399474693464
-332.85077864215748,45.965370400987389,372.2619128926774
-540.04868685299459,-84.098145231827274,618.23848528977715
-397.30884627206513,-235.93053917810224,120.00467687808379
-440.50025156068824,-126.82968615935553,635.04639920638613
-713.2466587871603,-284.57132466587956,781.43467587962311
-553.36638730175002,-199.24328518813525,228.97746216741885
-318.66533289346989,-315.93799905136871,543.68572779751605
-535.04864084722658,-38.639876383931856,415.03772716633114
-450.0409228280447,-264.07429314952753,172.28836504456888
-415.54926216236549,-155.07339449356448,488.62239905758037
-479.75581384687422,-53.730004341004069,564.99115154271931
-519.86791463560849,-52.040978898992314,470.54882354246519
-557.04384798164733,-233.63678610025582,314.1971681891601
-354.19196004859083,33.937693872009788,409.11742986084221
-460.49640876443635,-515.04682243840966,88.644422220192723
-527.77525229565913,-81.825620510952973,461.86016910628149
-572.76043643615265,-158.33593220017255,579.61064400219743
-446.85880521675756,5.9096283235044478,507.7734342032432
-666.4305830765544,-88.647381356024383,225.92403728227563
-725.97508864441852,11.364669515411737,512.31930175470313
-366.85154826092122,-149.10447898703464,139.10354026342804
-282.88411099954209,-307.43392077133427,681.74638294659758
-592.33072604470624,-274.13172250052514,734.57947037634199
-245.43639827595629,-234.62943120290822,554.94068690074903
-569.14253802246208,-0.0073755273861084419,464.5878080226459
-307.75525047731418,-386.39876352395635,302.75479589053214
-468.15166468219195,-360.86061814368827,494.22896560037867
-315.0286389671781,315.0286469943382,6.7025989725687705
-619.60316631442231,-133.6495517519117,534.59232358710028
-410.03727710939472,0.45458585617144398,549.59541726208499
-599.02685106353647,-232.63983531561374,73.109335205017217
-145.46775342032745,-150.01361210469153,288.66264533942007
-414.12855802195594,-110.46458857873793,-102.73661288088401
-363.21483771251735,-88.644635466389119,367.7607055186819
-355.92840401467828,-15.0390828124349,286.84026612316717
-641.05638251381481,43.337235833787474,439.06773315244033
-552.2437888945517,12.366906036436774,332.40101972993506
-619.14720032826381,10.455490824566654,468.22437890499737
-554.57938495204451,79.561086490565287,409.62406401805441
-501.86380466777365,167.74252326117832,225.02045711587175
-438.40352758585482,195.22186931569539,26.116298658692909
-166.83334848622181,-106.373306664241,209.56450586416855
-850.10218874510247,-175.95957854012553,359.52324830048804
-440.76631961877047,-153.25466651427573,628.4564050650846
-284.1167299466324,-525.50231045395424,130.92099185035576
-587.78070733702668,55.459669193669683,272.75206498934563
-248.20438220666193,-116.82923577082175,236.83851439872581
-529.24447047355886,-98.071727555195793,52.666154775557281
-478.22452505671095,95.464078152170799,236.38623802190475
-467.75896070830339,-328.65520530734068,178.66210132524421
-521.8656241476458,204.5640469850355,412.31021001909329
-587.25415579883884,-237.22122536677387,179.65555598648612
-553.68670685854136,-334.5758785293952,262.75115120057376
-616.84501441644818,95.499061217104881,351.89278846058636
-446.85880527854141,27.729793703165942,365.94235851159419
-717.38940802857485,185.79630031049692,541.53487133918043
-414.60325839277573,-57.816832740041555,716.64889815721051
-503.64520375286946,125.15469472395601,480.47872419556137
-405.99702906221574,-74.567537379264564,399.87208418826503
-539.14240727162849,-140.92205281934952,525.95189380314775
-556.90340200261494,-114.63940250233854,210.44415623407292
-335.48508490786276,-100.463723625543,351.85010160729593
-605.36977562847812,136.15537813240326,-50.87524174551514
-367.73918176393551,-142.825903629588,301.97747501656659
-419.58360074261236,102.28202519196505,547.77706796239067
-464.00294742554712,26.820620058070578,389.2998249867689
-378.20577779766217,-147.27207422973353,615.07540103764632
-139.87796753923644,7.4082495524062679,112.41788146245551
-642.38698623450819,-132.35770113718269,245.37528825479603
-313.57370986912497,-418.51066036868792,484.00832792174333
-296.40490917380441,-105.93619487605483,436.83292353100995
-637.62568884912366,-65.193038612070922,572.14130905991487
-512.31930054620193,-42.712163175735718,313.68387248225054
-347.13188082155779,-181.23233726361954,417.96230232292669
-529.14995361104047,30.9008597390131,326.82228579100536
-441.85835075909426,-394.58132557497021,202.74570415504076
-583.23483953086463,-18.183471224656255,284.11673788525752
-543.93073774599281,-51.488346997284019,508.89711269899925
-402.30962099166629,35.911936041090939,436.40316575220623
-592.78116494290327,85.916897752006719,521.41103583621998
-499.13628511682612,81.825620510956398,188.65230306102487
-421.79441127113711,310.521858083761,48.728779182531717
-505.95508720030926,-108.64624099823527,242.29475374930539
-418.08729004107909,-84.098554414037665,495.9257064512401
-590.05492871320484,240.93006141859951,323.20682804930982
-289.50271507278512,-25.930314328328134,313.52437284942857
-331.54206156526794,-275.21865571571385,237.24427825694426
-601.8883793644352,-42.299290101019345,391.27034080208688
-517.68530952192668,-42.031245510054077,281.57292756319578
-516.72407983215555,-264.13527642239092,109.16972807239357
-568.75421354553771,79.847954669294822,273.95335701513409
-468.65519864602936,-235.50348398637516,524.04655801998263
-325.48413492135256,63.642149286300871,249.56814255841252
-137.15436870653394,-286.04945673817031,490.79288777413439
-430.49368124374547,-180.9255386853346,378.67078825347699
-586.87153378282198,-8.6371488404421459,465.04227656335524
-528.68442585689093,233.2030184562218,301.39103554868353
-526.76146223453418,-155.46867897081518,371.53688683711573
-270.71329893236867,-221.5641122521651,430.21137434657771
-556.70301279956834,34.26788291176593,135.39064621118033
-56.366454757897344,-58.184719521843142,484.13689796094701
-360.03281597438047,-79.098226955833738,271.84269827359776
-592.93022868839057,-144.31416181486352,329.03278850623468
-444.00689432673579,28.764175143236379,370.08764520332642
-633.23937972351916,233.20302558957204,264.11492840555889
-519.5926900130421,-132.73613856829709,594.14492312138532
-529.76723835495659,-65.149414852874983,491.93545067212011
-588.48351797463954,135.46585386502235,256.2986889043982
-429.82668651244421,-124.74145726479367,168.46816260432036
-342.3038458041604,-35.912355668694737,391.85380489132575
-345.49859956377009,-186.41851893864089,445.91169289880168
-574.49125792020789,-64.298642422407411,623.91978367308161
-449.13100661127402,-206.84261280597056,538.67971069508576
-662.34598631018287,120.82936426796576,156.18310877488338
-444.13128472509328,60.919508333383064,210.01909260288167
-647.33140493327971,-122.28359221343959,298.2093015185705
-489.13638076628735,-172.7438756883088,733.7025879765514
-751.43275386844732,-168.19794631984576,391.39738987566773
-421.40194563141989,202.29111737428138,307.3006636966972
-426.40240021820017,-180.92548544291805,369.90800623020709
-249.10320006811673,-303.65154260015322,439.08977802311495
-556.4142194744943,-264.56950631875469,231.83925811437419
-180.92719606826444,-68.189337960034649,344.57413117850376
-360.94190380943138,-282.75297754341398,359.12355668696756
-275.93417857165423,-319.57450947922524,31.821072696664654
-240.68224393923686,-1.6115307693171945,488.68386789972442
-330.48481490628137,22.274552058768439,598.23610373588133
-545.22376579211334,-116.16119613104382,289.20960970489114
-393.21755211404115,-153.65030877727207,457.31432065758975
-541.83733268448134,-222.21237624440789,457.84782718478698
-515.39860033153218,71.808472083654792,329.73246270921845
-339.12174459578608,192.29019244056579,140.92189513361632
-395.79449964250591,3.8249270879231863,262.03021847804371
-580.21568395243651,-118.30437785514266,240.96273455823211
-500.50004545869007,152.74115828708381,257.75085444757292
-103.64091118466624,50.853578980683466,273.49208396124527
-617.33232302791998,134.54726220999322,153.63643204505522
-817.97895824301656,-18.360925891489511,571.6661278596813
-491.40830989465962,-239.56727109835023,500.04538330682442
-232.70809313871317,11.410120272311129,294.67280057009214
-337.75797802137498,-25.911446508122815,450.4954995648921
-475.95235930587484,-53.186653333576537,289.11719247155423
-358.95047345420943,-117.69711671745009,508.63855180832945
-513.44311935260271,-38.287374198409879,331.41906375303353
-530.83114177787172,-29.305867898946573,555.55934229004515
-798.70875418243747,375.94350123651253,363.66964862245021
-393.50280506205149,-186.12238714865515,446.03720094805931
-311.74384630266223,26.876768121503787,380.55792940168914
-617.78343096588276,213.20120427424584,402.30921821983355
-462.76934266751067,-219.56541503773065,528.68442585689593
-204.10946431837516,60.423493634640899,439.13083041092165
-561.41467406127754,120.46549686335229,15.001363874188604
-420.49277207163658,-91.371942905114679,142.74024911309377
-767.9345754420815,191.70561642177205,286.59190633137871
-633.18295946328601,-21.319698485104706,454.64320029203805
-594.14071639799806,-135.00596504158358,342.30875264976521
-388.21703474869685,-75.461329178614008,42.276621701791093
-381.86720523620477,-34.097437213071657,199.31443271313393
-359.75270926605344,-89.928778014729886,8.8043758795018352
-417.74116334693662,-256.36120636238934,556.44094729919902
-348.2127838144595,-123.64725925877646,206.38343360644723
-532.77570688309754,-41.367397036850562,368.66987907943576
-321.68170616074542,-89.925315589053582,420.74137429496085
-363.68587440205715,-29.09355395945154,393.64473549894268
-628.40688731309695,107.57316527729925,449.46174638881615
-378.21620147285955,-265.93314711139578,633.69406354903856
-686.42616433911348,22.729338874448992,459.13239712569481
-306.39155142412108,-398.21808589681541,151.83196174263489
-496.40873752509913,-26.365982931702487,235.930566915946
-451.40467315210191,12.72842985726072,218.20165469587869
-567.32429967915994,116.37422126701144,86.826082898918841
-310.8974631809985,-46.784139433282093,249.60005836691832
-471.51886770287547,-37.599891820057159,358.30422980216031
-582.780255066883,-75.915995262902214,460.10674172673805
-480.04364021070552,-83.189380808877246,506.86426103841819
-737.79434636728092,-44.549508347866201,481.86198673998695
-352.22572508167178,1.6106621778980474,308.93193732017033
-549.25959252838084,168.52009306091759,475.66457989097444
-566.8697154286732,104.10037276115946,526.86606830074356
-443.99895497521226,-113.94224015510602,366.7368634583716
-436.38175069906407,119.5761911185018,246.40738242991043
-490.47000262287315,-3.6080355880534261,571.89170359189256
-479.58127995123743,70.014137814010468,-18.178152446340128
-515.50140923958543,28.638967127448705,325.93872167162743
-447.77023956249053,-177.29128007469021,789.15951918909661
-525.61386050318106,-25.911446495135102,488.00314498332119
-343.66760046841335,-328.66623491856689,213.20121038683777
-290.02636425201808,-80.461858224992255,207.29157433269793
-463.22352911486109,155.92378197064488,363.67019706610591
-478.22529320847093,-75.006818801708164,359.12355668696893
-451.85925993271746,-270.47913446677092,522.32021092826517
-502.31839257804126,-86.826077865284006,409.5826865694666
-342.75856144302497,-118.64727859913347,337.30329565957783
-774.61587417037686,288.66260569142696,592.78116192380901
-221.38376216019273,-9.5463223929444236,276.38876261477998
-381.68233570982289,-6.5373920905314078,156.58545837320344
-412.34820126432908,69.030539346258365,275.37894557931799
-633.85959048794064,18.899723062211987,385.3404983175775
-686.48556243668622,112.22248124960474,144.93075635754164
-255.48792224176489,-163.66134205209852,290.01818574680283
-306.3914901354633,-130.67858437690228,464.58768978997864
-565.84669432870373,-18.5262305108307,406.92665703730961
-370.48822620239321,159.10537321573651,245.93144831347078
-355.78937556220461,38.963887939767233,533.82847242015816
-393.76175890986934,161.31837348093367,219.09535054594866
-317.30157194802229,-210.47367810116401,255.93235848021953
-345.03064561148523,-425.49252122971973,328.21232685695946
-470.44555142321684,-133.12438153485641,439.65393096938158
-450.49549912359453,21.365579283373997,320.30228925879425
-240.44400308210308,-59.518109549262057,250.05548805051788
-323.21120101993404,-385.03500318544491,303.20938266790512
-543.86463397490252,-72.499422409571665,402.91816070410357
-476.86153286662295,-152.28620716300676,155.46940765780087
-642.77773956272767,125.92885698040585,474.59608315002998
-425.0386398763477,-278.20710973725346,622.32940443183656
-365.94235839621268,-293.20845126962882,446.20449076849832
-205.01863805800224,-305.48231657423406,385.94417674333886
-553.54176032201894,-76.699244487540867,412.28581477396483
-343.55761367163063,-187.34830640329295,426.94963464532725
-416.72405332828566,-89.967749308760816,508.7129324497372
-682.78944267908582,59.078299437018529,172.2883898536212
-424.57946854340321,-7.7226328403341915,374.12796275947034
-427.76616056161424,224.1112828422022,221.3837621584681
-434.17474829527748,-156.74016924071393,471.31722851527894
-611.41921992908067,215.92872076577348,298.66351486498564
-314.67469011698842,-112.98456394205557,668.02645017493319
-235.93053913991761,-134.10305469175512,33.639474046327585
-314.79101922481749,-118.40998084443456,334.50829407992637
-468.22438403490924,-240.47640694608336,221.81973082905873
-487.84200573684126,-99.762440537206203,423.99762366925847
-459.58876240999439,-8.6376390691451661,35.001071504944278
-334.762779996174,-33.241864687312827,217.95648693624884
-569.7711909900255,-137.01809988615173,430.26472116871076
-382.30748243233222,-84.098554381001151,384.12582978605798
-372.64269554493353,-20.422051937205776,202.66800509527974
-520.08627804063428,-229.1897448950117,185.79657389291285
-553.036641789903,-100.05151217392999,241.34220343143133
-425.45691803040006,-155.39764111767337,545.84855097459047
-790.03428147253385,24.788707645172337,363.7928984591839
-486.40785525956761,-68.189662441571755,472.77025184107481
-308.66445569428686,-157.74164791026814,56.368725846067761
-560.5055005000421,-36.36694244931433,416.40149104463882
-385.94417674333818,-23.638512592052741,370.94281298299558
-554.73130303390064,-163.42960249773756,268.48307425998826
-354.12302515836637,-180.92548742460048,540.04913382935877
-441.85835075915571,286.84425856896229,195.58429817028974
-242.82327752947117,-220.58023851285495,350.89904245198329
-369.12446632396518,-267.29702748014432,505.0459129225959
-382.02773864361467,217.97607580908374,90.354864905179397
-419.12901172833693,-225.47504318574349,73.188471679241516
-279.57087052735926,10.455495393848425,246.38603486996263
-302.21183041662977,21.410195975651057,358.79663770641349
-356.85062929132641,67.733403280949119,336.39420397384163
-426.37466468477174,-135.39963354272368,297.2123709512951
-545.9730728324605,-222.58803957353103,164.4352321854426
-595.08005961845049,229.54182233501999,110.35006549426154
-583.59575318457541,-156.92277741974249,315.74587193314835
-623.06200384378758,-98.552126331204462,405.19382145080124
-780.980088970819,-140.01272829042543,165.46958831828729
-542.32147925774302,25.45736136935141,556.8695778260095
-356.39548785052392,-116.11101051183805,144.32744316072274
-370.15461339826237,-321.89554604311411,522.46790916491182
-369.57905264476244,13.183016637877376,292.29994803220995
-327.61794849624806,-118.31491529204268,219.3902490912746
-551.60527536143786,133.80812034654781,203.04643318849224
-434.73076467169432,-60.899596475807535,450.65203922658242
-432.31202836621287,88.189835439585849,205.47322483861922
-660.04874127503842,-76.801905746656132,432.34899825517533
-277.752509210212,-185.92597949784138,369.57906315943848
-335.65957321328483,-23.841769214067295,335.16681778234704
-382.39029793944451,-12.356640084885294,376.31502092629682
-600.50739894211665,26.825317029609618,110.46435432690488
-546.86720614240005,-163.65056272467564,490.04511618858055
-499.7755154833078,-123.29418741127863,533.44609156363481
-565.50758763684314,-243.20553326962025,621.87351389589548
-540.50368215292167,-115.91962905718592,23.183925811436662
-252.51379731261028,-52.501104820317025,269.83061366312972
-599.65309931107515,-99.82545176026494,439.54204436430962
-510.49818625219325,33.187812401906086,400.49205206678579
-620.42866584374497,155.88034667465439,141.25806973239017
-605.50959178106825,-147.28611691971813,332.7575234112154
-412.68916839974287,-75.933803150262349,457.17190338133582
-501.65716051086048,-69.799718925252108,522.98144299867363
-307.30064168224959,-147.7407037601734,416.3998908167834
-565.6065019880358,-59.393213985701543,489.02039994934393
-540.50368205746622,-63.187562400510473,406.40058200825871
-29.093553959398651,-17.274297663339901,239.56723338497858
-308.81422498244251,-102.80396222290719,424.4760027096699
-445.94965232881952,2.7275206836981707,384.42131979554216
-337.75797799799381,-25.91144649513506,386.39876352395447
-613.67115231507944,-75.862265560723287,259.14931545264193
-609.14628602600044,-7.2733884898620023,440.94917667846204
-391.85380612229159,178.29447551812322,151.83255139529072
-449.58632602965451,-184.10764614969713,478.67987998897905
-480.72950866036899,-59.332658669471094,290.32792702770422
-313.84876446600231,-263.38963181758459,114.83047299906058
-315.04691374973686,126.32426813282187,546.09025435725061
-482.79030260782906,524.09322720984233,380.74656998551711
-420.94735885080195,111.82834803163989,393.21759407165797
-283.66215086422073,-118.64714926441354,285.02591212841492
-448.21203863802134,81.384354094131083,20.474967517526725
-565.50595957022779,-311.39195035112482,651.42284797964442
-413.21938358032082,-172.74297663423982,302.75479589053242
-827.8025275024952,259.5690517319772,586.41694699518018
-582.32566596962727,-287.298845349575,599.14537685244125
-909.173561232834,-164.10582780252724,303.64330581710362
-477.40857156010713,-50.845577045442717,429.62993593824348
-591.41694859157917,140.46778409525248,378.67097103676849
-368.66911184608608,-218.65549797153409,577.32575653944184
-328.16060229796426,165.64375604811798,200.18575749806473
-242.29474863141743,-117.28338398837988,350.48641250560155
37.276116010547099,-322.30202745704031,487.31702882079964
-316.39239930902494,132.28475315937746,178.65260478224693
-389.12628420765338,-300.02727520734959,520.95645058538821
-648.47715119559609,-67.851648945368567,463.94215612780107
-240.02118936991988,-245.93107596888859,427.31229655687554
-405.49871792690033,-40.013005914934482,397.75091542736584
-333.66669697244851,-68.642603873079153,354.12310210018688
-526.93013017088936,201.31579232951387,624.10249877375293
-546.86789708155243,-65.915083189379217,345.03136648786
-482.02036919202305,-15.487777460827905,404.02359849167345
-346.00396170012664,-29.15831875436232,398.62010591511978
-124.10219110828022,20.910991908354386,292.75388671697095
-421.8280566404577,32.763356944643085,435.63840396444948
-674.62346283487364,116.89333403802038,324.0066180268434
-377.66410516732805,59.922459497459784,281.48672949883877
-424.58422398793374,-143.19500584740405,558.6870247389428
-309.11901081917819,-124.5567778889157,297.99027040313717
-197.74525678065146,-131.8301663787619,236.83969827612978
-476.44778755576664,-275.71775231717635,584.40929123617195
-676.61463691653569,104.02455166708512,427.61453623462785
-457.34367333595981,-275.05486380492766,164.54224970436294
-231.83859846987724,-123.18938157397808,260.72193160813708
-757.8250149702842,-375.06247266834913,485.47739758645076
-605.06168872435433,-20.689546816133738,362.87264427200387
-340.48354206800815,-202.29125604864541,415.49631002258229
-639.14891062983713,-97.281420815506351,496.86374939286685
-386.88242840034638,77.230555284080594,255.85242261183015
-387.68813571056216,-258.65962619328968,226.48658118835459
-387.30793708518621,66.369669969999478,272.75206836984938
-395.03591235566807,-50.004545867803756,347.30430039094193
-479.04590062350235,-283.0082638716562,303.06532548339811
-530.55434120852954,45.407989909784703,415.45043780242258
-562.77843440312495,26.820620056369304,444.13128466224089
-640.5127738885343,-207.74615874170382,287.29884534957347
-396.50112511587889,-38.63987635239684,329.87782409997158
-308.68168987041963,-231.40199771426262,478.11123200704242
-529.84496283881867,-31.208901477191247,457.20698066402946
-420.49277269815775,71.370124139536458,387.76252306521383
-476.39625892389284,-14.65558239392981,417.87931121014122
-384.33007537105124,-239.78953464868454,298.81692827827754
-204.10946449676928,-372.30657332484606,337.30339121738069
-474.1262509974548,-123.64559685217635,562.33632301069247
-411.43330671154479,41.352647380664443,266.59615408271333
-73.468149590341426,-90.349996205374154,182.07760828609045
-560.50568623073525,47.731378840675418,277.7522027312981
-633.69368040595941,-60.459755353088354,417.31047304162854
-705.97327029729877,28.186369957798355,340.48549868169624
-345.48595326847669,-157.28702609328036,363.21483771251854
-316.84698608953715,-0.45458678050489165,220.92917537974088
-436.29303330291839,57.25297918547691,104.58243395578809
-359.10560097175846,-48.63311563181648,383.89989630190678
-514.13764887716479,-50.004545867804396,494.13583053004527
-399.38215243045147,57.52640015535016,140.13825639114418
-161.37830711918406,-139.55814164962499,322.75661423738643
-590.50822802075322,-130.39376347151799,576.41603782159575
-358.21007988456017,-430.94396477074503,147.74500730467699
-608.81463399242659,-64.316533606104713,188.97972361416964
-267.09450889044939,-107.36161072308863,517.74461278812885
-405.94599507016954,137.28520776870354,256.84153108011861
-486.86919697405881,15.903168303774775,360.94006155043604
-396.85248797890989,132.74288293843645,443.68024088006217
-597.77503327000966,69.551862362478417,466.88667089947614
-248.58524538350557,-125.39222783645965,10.529219567847823
-537.32157468860487,146.83078202720438,411.40103645785717
-472.77025183702091,-200.0181834662713,518.22892990925811
-307.3006637432573,-127.7388853532146,180.01636503097569
-444.60596822594562,71.080441652173675,465.28908366907751
-171.84013012230071,-374.96758417172106,276.88839390870044
-294.29199932739198,-62.807368073295457,282.79037038765574
-550.50459132653441,-7.7279752705306608,197.74524956810853
-534.59405400490903,-94.55405036821584,500.0454586780578
-208.92238643933069,-13.535929093312834,123.76013433722329
-320.02909355395855,-43.185744158560993,277.75252295663245
-401.40012728429451,-249.11355577779668,339.57632512046501
-398.67260660059588,-160.01454677698004,307.3006636966989
-726.42283617118835,-68.117266695619435,331.69639812620738
-356.85062278388608,-85.620006528894507,410.03727611600749
-330.93917547041167,-151.37739705621087,256.38694541939225
-406.85516865169348,-51.822892990269644,192.29020820074373
-464.54284472469436,-101.42212715738397,600.83368666143917
-566.02903766335191,-140.76237402362398,636.66005444111624
-373.65658899764435,-190.00366504407222,80.0185768181952
-448.6771524684051,-82.734794072187881,342.3038458041641
-474.52869442112222,-70.758382999854362,647.88116913055001
-370.94281298081637,-94.099463584461262,157.28702609757423
-771.43376670606335,1.8183471224671268,60.914628602599706
-589.61322930269569,-127.31264825900121,615.49160116369467
-362.74808690687939,-44.533638800773211,418.70139987392145
-569.59727487879763,-105.46418897226908,314.57400543880993
-247.29520889408525,-81.371033970435079,241.38558032623968
-578.23479444263057,38.184882413200306,474.13372436388164
-287.65272722579817,-278.71045212149107,482.12367691635433
-498.22690825846848,-352.30457201031396,484.13500267533328
-400.9455405036781,-67.733430311845581,288.6626056914248
-452.76823760658345,-3.1821651951455219,335.93968597210898
-174.27345195234261,18.150123765898094,318.91986465450054
-390.0352457350852,-22.7290769025904,341.39501883667214
-339.77538234495012,-86.220028110614408,487.54169703740615
-455.49596919846931,180.4709339474841,292.29927441225306
-677.34987798401573,-100.4938276489102,176.33486822296726
-773.25285832250404,6.8178899822762506,672.0139756209561
-395.89649865634163,-211.7654832459076,640.8543043989647
-327.91057027991093,133.74035501197562,318.41410538774039
-583.68944152181564,-45.007056272485521,44.08798892638017
-576.41235724603416,268.29254067043968,263.34314770609615
-385.48950001344383,-25.0021829846267,364.57868800365048
-262.75115376117691,-155.92326036668251,284.57132885379332
-815.07410647388508,-39.094495731093978,486.4078362440091
-472.75283837508033,-194.08567483882371,455.06951241765216
-325.93872170196914,-91.37194290389813,132.7393399399939
-434.13037548867749,-373.67033366669602,359.1235566869687
-559.59632693878973,-154.55950540955516,525.04773161199466
-630.93586905805751,-228.59960183273637,376.90954021281675
-612.32847518164294,15.001181237040445,485.95316911661297
-545.05395317250543,-239.57178416665957,600.96209648136198
-550.09454692839336,118.07284139343879,343.5433050801837
-259.11445335172016,-232.29383267881153,144.55861052666154
-498.56303727762656,-120.34758210073274,492.39808337189913
-433.88514421504101,40.25588049499413,414.97700762067825
-841.89314519223399,-29.546575380324853,649.60577186452861
-463.23339595822227,-7.7279752704785158,295.91706116109481
-601.44042884606404,-40.941601750402953,294.52132425397076
-580.04161375417686,64.562441159748161,335.49615264424989
-475.95235930538905,-293.6630602782065,220.92917537957646
-346.43381233090128,41.328710753960252,529.10813957687037
-596.42197177280366,-228.66168554580733,712.33184656717697
-477.28068200897246,-8.9655578061303327,551.35137483039455
-490.50797578408134,-134.56974204022018,489.57435592720981
-752.79570870078715,316.3923993090296,285.93508500772629
-230.82266149937334,9.6431898307660102,273.85984707085811
-615.51050095462654,0.90917356123401782,420.49277207018434
-244.57420830379766,-54.102357024836763,245.92644756941584
-158.31170952976788,-295.11721381226761,386.59120300092684
-267.29874250135975,-424.1311226588939,14.545416411622947
-311.38919881218857,0.070295500883077081,138.11131727256324
-368.58756571610468,-474.50712789522606,309.6421876712256
-475.49608078250589,-60.206728020267839,178.20215634281789
-537.77616146922026,356.8506227838904,122.2838439858141
-473.67942017075796,62.732991419706025,328.53226177477035
-567.32430525429504,-122.28384399555306,251.38648764073289
-381.0611308198483,-194.45422198402758,153.13279646433807
-644.60187698392383,-224.10829198805916,239.11753589484897
-113.64669515410311,-280.93463042094749,241.84016728793284
-448.06793037437262,-98.03843631521039,73.415294492355514
-452.31449999340032,-116.83001585398583,-0.4557725670247777
-390.63124281891101,-132.8823640567874,503.53608574486742
-536.41240112737091,-183.65305936903326,300.93644876806707
-522.77479776199368,-59.096281502452911,414.58314394638091
-602.1559548765199,-98.800177322453706,484.03984768015533
-479.10426744046913,-107.01394337452579,495.42315211816492
-661.42376578250594,53.641240147901947,485.95326853407687
-438.67639561017126,112.2827242587141,380.94356312143645
-474.13401031022596,25.911454271985701,457.31429537854734
-552.57499776744157,199.40347240445948,258.48279261420322
-200.92735703245503,16.81971088280876,330.48458950813443
-416.40149094757857,233.65760536458836,564.21060167846213
-173.4758956325332,93.680127647795359,97.493076527433871
-526.40618446261453,-220.46665472037574,372.77336186356445
-406.79684979970227,-197.95089783157238,502.02457907977424
-468.4728297647473,100.42219678352701,202.77632118721618
-420.49277207018781,40.458223474859707,380.48913537594098
-718.70170015455687,-19.092644817088434,24.093099372666259
-641.421951006992,-103.64624365951524,209.10976282573694
-338.22194721815504,-142.74963154931157,424.57467066506416
-584.5985998727125,-185.01681971088223,109.55541412855493
-590.05364124011271,-115.46504227657142,216.83789435402824
-178.647767467271,-114.09649227758749,358.67294937267735
-345.03144200265302,148.64978216888059,177.28872137925515
-250.47731611964369,-204.56405127738748,409.12810255477467
-351.39558141648916,-12.273843076643075,90.462769342664018
-647.20475215522492,-140.25620716509758,-114.65256560751195
-472.24628270200805,100.53315898872536,411.54806098889424
-348.66806073279332,-279.57087007909564,452.76843349395278
-387.76252386580336,-140.85552292210033,431.40285480497869
-474.31715724279468,-66.071084088011702,574.38516670504146
-398.21693991746781,-201.83504439121853,60.007561385874858
-270.31795640546028,-9.8624983285109948,281.10793190598019
-145.79484114618333,21.94585686661787,170.08961731930694
-270.975392019487,-134.52529673484617,340.4926763082409
-225.03021723580974,-149.5687639537876,-16.827670609481057
-420.0381852895693,-193.19938176197863,630.96645149558867
-351.30202813449546,-66.82602990424482,254.23739939360897
-683.65685164786714,-226.40572597701978,266.1101867261591
-569.43547409854909,71.077299852291929,192.90655833475736
-336.84019539085182,-115.45730807388857,-75.571753490087175
-728.2470579013185,180.08441449535823,410.56043169274204
-304.09739947800176,70.078287167773624,277.48642486980907
-146.41998697799664,-559.66695959339563,255.42512968344465
-421.85653241203443,16.819710882807151,95.008637148827518
-341.84925902354485,-160.92372034231394,389.126284207651
-331.01225150425023,181.07884902692541,424.20931243844916
-539.13992181107164,-20.001818347120842,461.86020383414552
-539.19792204966086,198.80223638963867,271.31931439881572
-283.66215110464333,-263.20574597690677,490.04454950449946
-564.62863287636389,8.1726437555692506,352.5575092278159
-375.94328685613209,95.008607546857903,290.02633301498486
-360.48731702881889,-102.28202563869615,219.56541503773045
-207.29157196141736,-5.4550413677296987,252.29566324177543
-444.30293567357387,-360.20428209562249,364.92719897563296
-469.59579681895707,-274.05589932062327,468.6375274972853
-735.97598568505407,-47.731611964894334,469.13377599048124
-626.53387474226622,105.32009482543995,466.62825963198583
-606.82423334303633,-229.15067384403034,493.69077724352042
-524.14569176248392,-148.20230396160991,261.38214876320387
-774.3444426860284,-109.28216922982293,288.05841186187769
-454.98531460383776,125.37485371453181,608.24461918292559
-446.40421857322201,20.456405124352795,479.13446676067292
-557.26210584125909,172.46851209524232,298.28558526684463
-665.51498632613777,-156.83239772145953,104.10041813338022
-443.51868612639504,-219.02870151898074,341.55098352372511
-468.22438471877712,-390.03545879468675,44.549504158475202
-279.29388519182328,-347.42402802762081,562.42502596601173
-380.03454859532303,90.917356123285558,250.47731611964497
-470.19626156352558,102.06500990194927,42.408187116604601
-611.41913156259454,-92.735637008345734,290.93565001016339
-611.41973994541127,-268.66134733970091,339.57613064133852
-444.58490839687693,-360.94068294012351,423.67650988785675
-362.30306083856823,-122.45528296975341,219.99402709969607
-369.57899403569627,-214.11029932741658,395.03600682415384
-485.95274467610119,-219.56632422444426,359.57502838436687
-285.00865932527728,-85.462013690750766,328.24615984747277
-649.59610289343937,200.27719967756238,169.47030082163104
-747.07228172211546,-63.860185551411398,336.04836781996806
-601.94001656109162,-153.37472913427581,58.030496860673182
-467.32541805759371,144.54844099880901,213.6479349033641
-374.04836932276828,-192.92146676310458,383.39085299460476
-680.06182380216262,-249.56814255841397,612.32839349031633
-274.17611029274195,-74.14727346830891,236.47749869195042
-609.82351889639472,-107.08523790393492,462.00883988290718
-583.23483953086122,-17.274297663422278,390.94463133011885
-421.40194563141551,34.082970187150352,377.30702791162634
-490.52775044447969,-270.06587036648546,615.95245106086736
-214.56543282164142,-62.733888643498489,235.47481404679061
-205.01863805800326,-6.3642149286299254,245.47452834381295
-422.31111918179045,273.20665516355035,427.76616057703308
-320.0291202743249,-296.8451953606226,59.096269625493001
-349.5772342939124,85.91366395711114,293.21105078696218
-337.30339121738103,15.455950540958911,593.23574870442087
-244.14028469772211,12.698892151163122,540.46692499951848
-309.57366375132784,-61.823868315381546,181.83464609501644
-560.63148566408904,-292.044448097307,427.71858272440068
-674.15219565432074,-63.187562505856135,490.95372306555686
-417.31066236220113,-193.19937951828945,447.76798115093158
-682.79808296687122,60.914628591234276,349.10517056824341
-553.16417828099384,-230.81138633419596,221.15005370596631
-172.74297756518695,-222.74752250457541,498.22711016031087
-564.14210267401063,-135.46686916299197,745.52245019366933
-252.75025002272463,-346.39512682970985,479.13446676970381
-480.95281389216854,-68.642603873079011,205.01863805800255
-459.58723528730877,143.77972087470269,2.7275206147914539
-279.11628329847758,-174.56132375670384,308.66442403854933
-288.20801891053776,-243.65851441010301,244.56768797199899
-490.49913628511297,-41.367397036094239,388.67169742703805
-370.03363943057877,-297.29975453190997,3.6366942378247957
-390.94463133011783,-329.12082916629117,432.76661514677505
-590.05364124011282,-279.11628329848207,470.04273073974025
-377.76162150314457,-33.184841795898869,374.57950041702622
-384.12505951225796,-140.92120838730014,645.51402479703813
-572.32475679606932,127.73775761199951,471.85995053862717
-752.34156178811963,211.74711543644409,147.3649543393031
-374.91464500425644,57.849192258740189,281.88548745281196
-558.68464617438599,-133.18182275498182,557.3307313156273
-258.74446072433796,-54.163492936232117,339.47482605614596
-103.97824419800908,-201.86368580497376,219.02375363385235
-663.26074122532827,-377.3074947663689,647.74962333947462
-532.95382927423202,-127.43625445045026,397.22724091520649
-526.86607873442676,-128.18443927748416,510.04636770966027
-451.40467315210157,-265.93326666060557,384.125829620871
-444.90673608817644,-75.039483792830836,362.20829337858197
-415.26539284595003,90.830975544593485,283.25814629586506
-477.85536160008309,-218.29689176463444,263.6074232748735
-534.15509476738384,301.37585450682468,225.92605795650724
-542.7750668920819,-149.82947331718043,496.74435436864223
-392.30839167196655,-129.10344689668807,184.56143172863898
-430.03909446312883,44.549504868858605,104.55495841594417
-573.23393035730305,-91.371942903898642,211.38285298663141
-795.88461440617493,269.22216349540338,294.27734642312981
-361.71996107309121,-171.98667937541217,529.51730569438416
-549.56038605117215,-58.079811424518255,223.32472055716426
-265.39896668946494,-7.1906094073846853,565.62935244522032
-280.93463042094385,-208.65533230293491,160.4691335575921
-763.23804259551127,181.39347980741596,286.85357929692094
-566.27596355577759,1.6216747431267748,512.51832371605553
-384.12582967655806,264.11493245936975,394.12673876658044
-240.93099372670076,21.365578688973315,278.66169651786475
-565.83772740316761,-88.24637019861251,461.90573640363471
-513.36814223195177,-208.44449332179556,260.93281207381665
-396.33857671727691,-39.531621438866345,392.32668413892173
-629.16066502717092,-9.5733045388118132,398.20452874846183
-452.55645233843609,-130.84287170268786,506.6759554354926
-332.09741681921372,-126.16960956042762,347.50982212589827
-534.55745487262232,-26.6439595409996,348.87542988809514
-284.49567565804062,-259.52378156711478,524.42038688462173
-715.07397888880325,46.813557454871884,60.453047499751605
-605.50959404768105,-106.37330830320771,506.40967230048744
-315.02038639137822,-44.092167525744358,411.87381521713871
-256.38694426765898,-25.002272933900258,648.6953359396299
-220.92917619138862,484.58947050397524,138.19430928806878
-380.4872544067905,-140.91952128622461,382.31083336747781
-449.58655478954893,-79.098768858880831,535.50270045330569
-466.07757157355923,100.48607287868576,214.16859752111748
-379.6473113154812,36.29759436455987,209.96912907753477
-431.40288977127619,23.183890845139832,164.10579283622758
-370.48508136884146,-236.83598506281214,462.77499536094962
-460.49639170901497,-202.29108344113922,504.59334543967844
-41.300358526023523,-53.254781681222092,435.28769196501372
-373.21756275789465,109.55165417923349,135.01221702778022
-525.50231839257924,-91.826503280761557,414.12855714155563
-329.5692135824678,27.736984196938089,236.85027348383915
-424.04574720060509,-82.478995468723227,491.96228449098351
-271.02072432166699,-200.4562078590246,396.52152667042958
-520.50186380579771,-73.643058459859034,262.75115919629178
-492.77207018819729,95.463223927526627,387.30793708326559
-573.23326171668361,-264.1141796289391,283.2086605662779
-686.88056628784966,-100.91819291249656,618.2381225377236
-719.15628693516919,175.01591053732056,165.92417492499212
-230.02091099190741,-251.38648968088026,253.20483680334519
-823.71829231453296,151.82504463356236,100.91133794451105
-396.85425947813189,-83.189380852802287,308.66442403854847
-528.68442684800925,72.279296114235592,433.6757794914277
-408.21892902753802,-16.365124102192453,267.29703269250217
-375.03223438758232,-34.091547694431455,416.85922380056576
-801.436494226744,118.192562960271,465.95145013183048
-470.0427311573772,39.094463133013818,149.55790401233122
-374.11856496969119,-32.097398191687262,679.59573516890418
-609.10841800824494,-95.862168415208373,307.51351481716301
-392.80291508569201,31.747753693736886,446.49220072836624
-305.02777150577657,-273.66129250108895,260.93275110554572
-856.840207906768,81.560243074716752,508.20505069196003
-554.06904891439319,-168.1038765489925,370.26044575321879
-289.52039138942087,-230.67191823213469,415.7193686796889
-516.1538187346257,290.79460699131295,211.90770194690822
-581.87110420845499,-108.19174552465412,607.32786847844272
-534.13940488181231,-80.461801982792366,293.20853791815091
-597.95241104393972,108.93180761791498,34.413870015864127
-467.17301624296323,-34.725922266431937,523.53695025183811
-600.74331906530733,141.73005333885106,274.26735541831465
-700.0636421492859,52.277479770887737,85.462314755882844
-448.67658829855276,164.5604503556373,340.94117126656533
-313.66487855114474,-70.460950946087721,418.01021719265498
-185.12166199749242,-87.641493173519009,339.03256705677393
-534.58765454997024,166.84045644374646,435.96013199235517
-252.35290140506211,61.393057060772158,179.51883872734567
-325.94754162273392,-25.920163446642182,309.5673723501132
-150.46822686604017,-102.73661560188532,228.77841521665545
-294.57223383943352,90.917356123287348,420.49277207018849
-365.48778736317405,-301.39105129626046,591.41691603379491
-474.50511137685351,-40.461460392320859,368.91493658400236
-372.03294196987486,-195.97165893831021,450.81523960474516
-608.30589749519595,32.999944347124135,148.30145474177993
-504.59197291906958,130.9202869404055,508.22715881604591
-378.21558643369019,1.8189525986796251,274.57092465215993
-470.5098258417558,-123.99224989273685,450.84880793502822
-511.45139200160764,-104.63277863340375,402.43489007964394
-338.07731803268337,51.949005758509983,130.89489237338992
-480.53574029927432,-107.48463591002549,292.01876740044287
-404.58223474860944,-80.461860169105563,91.371942903899395
-154.5595054022281,-95.46322391987087,173.65215020801659
-282.77835164215662,-247.75415245224704,382.2170002518032
-592.32658745090532,65.005897445919089,395.94507592254934
-336.8488044302436,-102.28202563182668,195.9269024556001
-726.88426221364318,23.183925803448915,434.58496226130529
-519.72866870253006,203.80318422181969,253.57150399418902
-506.41933680319698,-7.4071590135619605,167.4154798220282
-439.37014062334219,-53.932334043345051,450.60720905815572
-430.49368124374638,-44.54950450040981,354.57768888080261
-467.27210209366496,-256.56984359824258,201.89902246298468
-413.92226076089145,-147.28611691971912,265.35453453202774
-472.77025085491056,-41.3673970986858,577.77979420410122
-611.13618915760003,30.911901081918565,336.46852417971229
-575.05227747976676,-71.37012455677538,583.23483953086634
-420.49277207018389,80.916446949723934,355.48686244203702
-231.70788306439508,76.007519391334711,188.14561472936762
-549.82931103866645,-49.353597783892646,-127.6642148241891
-600.9635076834204,150.46854882126317,225.93000847645442
-684.42349840187035,-52.307145066678146,82.536140022023332
-192.27731235716143,-385.02230888173824,560.51533370629886
-457.40056315194533,176.15904165501007,203.15736111659908
-212.74665749891719,-188.19897288193812,516.52316594043054
-426.85698699881272,-130.01181925629695,470.04273115737487
-495.81533066710131,-211.73586043715338,489.72976674616552
-442.78825541157556,-0.93043010027145456,405.4623967328651
-436.8566489560074,-97.281571051912067,210.0215870775223
-375.02164891521488,-86.890539763372146,347.48767068306108
-257.75070463163621,135.46686060788795,333.21211017602684
-257.29228747010427,104.56198186682089,190.02791443777173
-579.59814474770019,-14.546776391058886,566.41512938374308
-859.62951308464426,199.04119776117909,437.30066108246365
-425.00754093664841,89.615793660840993,177.80562910042255
-130.92099280042194,-333.66669695328227,435.94872263777336
-405.50788698754081,94.082419465076143,260.91229450453005
-381.5600302342595,-116.99603243696171,246.5705985140971
-528.34909463292979,58.641710939861682,450.34223369162993
-314.10205640047587,34.111499664510603,311.76862902790316
-544.5515986721532,-74.504797177660038,428.73444907411863
-502.77297935939453,68.188017094940903,75.006818804889761
-490.49905398981826,-115.46495143111392,525.50245198883886
-457.71621639868204,-337.24168552964824,556.40644262024739
-415.94690174745392,-65.0059071266502,153.19574680069903
-532.32112133842315,-199.5635967401625,439.58541620252043
-325.48419604846225,28.638881574550393,340.48541763170635
-396.89263052426338,-187.43304884114832,226.40825016990541
-303.42394322645799,-206.0578966280062,337.22042272897488
-369.12446586374239,7.7279752674661193,47.277025182015009
-686.1794118305653,-370.4741827027766,335.72515616589556
-515.50140921901868,166.83334848622607,337.75797799799909
-613.69215383413825,102.28202563663942,413.6739703593297
-244.1605824070154,-191.38107298703488,294.50897701195248
-242.74935520577941,-123.64761868427699,301.84561335641888
-664.15128626035528,206.38239864330751,123.64760464005168
-601.886383898487,-163.2113741122904,540.0303460399216
-408.21963580350632,-88.645132430791492,373.66975997966824
-693.03685463921454,-65.34292368448385,593.61192210568379
-437.8999538859498,-121.96769349027738,354.88828724360917
-624.60261014074706,265.93290109788336,361.39621713862778
-491.19393621629246,79.827338110439797,91.690102275511251
-338.64700431244478,-30.894020111108262,603.35923987473643
-184.82726981719932,14.87454797050194,417.9806370674666
-634.11280457527084,72.742484211229055,293.37614466908224
-225.02040947345338,-138.19433437571286,447.3134390585185
-279.5708700896364,128.4390254670262,317.99837149249282
-233.65758532344711,-58.187083320007574,382.7620868496607
-308.20983281306064,-100.91825603619705,334.12129399159375
-309.05815447760057,-40.99969449897997,298.7258379694108
-503.68215983974756,-297.75434476213366,388.67168705189772
-342.30358890616196,-231.38435318855369,514.13804868530906
-424.58405313082034,401.40012725196294,326.84789521779322
-398.67995253788604,-216.84540212614417,354.11538268927097
-399.3269502808314,-94.747230940864824,400.86744548409195
-532.31596365549694,15.460587662060206,608.69701038509925
-518.22892990271703,-43.640330939177197,604.14583143921868
-650.51368237280337,220.84727467198965,328.21107649556632
-531.4120638425361,131.37558725731247,416.85559546804171
-529.27530327718603,66.890335753889261,349.55162417627736
-464.5876897899783,64.096736066916975,582.32566596963272
-528.68442585803632,57.73252113711586,344.97951384159563
-281.3892172018526,-330.98456805237134,502.29521132099745
-370.93319704556984,-25.447402281555306,483.68746727670742
-484.13492135648391,-300.47971287868842,115.01045549595197
-652.7866517384382,-138.19441573291874,310.48274282080359
-496.40876227538888,-154.10491602369518,556.41422311867734
-404.63811147459268,-203.25616766152137,546.81202035556964
-484.13492135648477,-87.280661878349505,477.77070642785651
-450.04091302591831,-67.278843917724032,392.76297818837151
-367.76070551873153,101.37285207740938,285.93508500770395
-451.86604275669742,-33.323456899520572,355.0729029696588
-435.4941358305262,-107.28248022547382,181.38012546594979
-490.49893898146655,-102.28180780634524,212.74688476355308
-461.86800825890668,44.495822160394013,26.228354747533036
-374.99207805569586,-205.01023626216573,539.65332717177012
-466.17758905439058,-36.061965756533638,239.58061392142693
-155.15651538324983,-316.54543529365191,188.55234387891264
-303.66396945176393,-42.27657059732654,275.02500227293268
-510.5715531687888,320.34986650164552,114.81821106380467
-707.33680389314441,-6.8185309677513688,160.01491810312356
-475.49777252477128,-252.7502500227275,388.21711064642113
-464.13310386551183,-135.46686151551566,501.8760831767155
-515.50134874440209,99.554564540097346,269.11543637856033
-497.64628077818799,83.52745831891589,342.6744325249179
-566.87145451475953,-48.64078552595516,620.05289058861956
-347.75900400593588,-4.0914000036172542,201.38182099507011
-413.83313223262951,-221.87408028649946,485.86115199582156
-239.16717276476615,-149.6135769833337,424.07494015458292
-434.13037726591659,-544.59496472716671,258.19791833287383
-449.58632602963706,101.82743885807824,391.85380489135292
-388.02097199987941,-15.736150259214767,338.02948948940076
-495.25361784395847,48.065040477731785,282.51612399164333
-421.85626102975976,215.92900378512573,212.74695387339
-422.50630895775748,-386.64220881626812,420.2745379448927
-384.57476497427228,79.558482943580984,275.48411744098507
-637.77687876590926,7.7276275385836728,280.0380339239407
-385.92046624489154,-345.23806574257895,639.8656745353635
-376.39880756859861,-263.2066934872206,417.3100081862691
-495.49957554470393,-18.8331647221809,100.47992667321307
-716.42878083003234,-103.99925380470889,482.31655918320212
-625.5114101281896,64.096736066915469,579.59814528593154
-494.39295104311304,27.873227313555947,275.07341317056631
-459.49309877215268,-105.69369504120105,272.54012734632812
-443.67669788162311,-365.48777161560133,456.40512773888241
-370.06365511883575,18.153455529026601,-22.298704122822357
-543.68578961723574,88.189835439586972,595.50868260750701
-522.77479770888078,-95.463223929450123,542.77661605600372
-378.21620288422082,-187.28949759593846,425.49322453992409
-358.3463646595132,18.003912970567761,264.03572917455591
-590.96281480134439,-48.186198745340739,480.49423756612919
-380.94372216067165,31.821074265298769,285.48049785034669
-839.16719701827037,84.553145786261553,560.96008881076602
-716.06985404768102,-306.41545464569577,307.68359044695558
-363.23743901732519,-321.42084701799587,187.70574257382745
-571.67081203924454,222.90640574960426,258.31720671729744
-704.60843057921659,-26.819206880127119,316.2655178030202
-440.66185098391975,-27.342808075016329,232.43564411427337
-464.43383843040522,-299.52473193270066,333.29216655228959
-405.49141690943185,35.457758196676288,252.75023803219264
-465.04209334552075,-195.47219879211772,536.86717144195734
-437.76706973359614,-78.357648628899923,415.49231748317686
-413.21938358032332,-204.21152791150294,576.87062460223524
-367.30179077231412,-82.676736942453033,298.94932546149556
-687.61814167402724,81.542691128256209,258.39157310585847
-439.75222171847554,28.781344468246594,381.37844376965154
-757.81004893241141,-419.13943470798063,204.10077284973087
-462.04752940610831,-60.642531944419602,297.78096173786571
-311.62286975333018,35.625515731058179,255.99945344528848
-447.76797890717052,165.92417492499408,106.3733066642382
-425.29218557731127,27.021661135737506,286.36642708187543
-374.57950722792776,-104.55495954177607,323.66576446810978
-499.13628511682799,35.003182107463722,405.94599509046088
-450.41179524185799,-34.821852555136843,256.50136972822168
-556.86880625511378,-61.369215383214915,418.67442494772246
-730.06636966996962,-304.11855623238347,166.83334848622499
-461.86014484518267,-35.452266053255258,475.9492789212091
-380.94372215655977,-24.093099372669172,111.82834739070974
-336.39421650378739,-408.21892899355402,170.01545775038753
-421.39075771272229,-124.54335413145327,405.04577128125123
-578.22762103353841,-65.906796032170419,570.9688323655746
-472.98297696785556,-357.9646532146113,495.64413529673794
-599.29933448023576,10.049511466768628,166.89926338386567
-645.98208721821186,265.86519167687607,287.92553429258504
-563.25336332230893,19.979870837114561,634.11476436010742
-567.77892856447329,-277.75256328132764,306.84606192519323
-557.91917689959382,-131.06185347230272,267.27495626958785
-197.74524956827415,-274.57041549245156,265.9332666604696
-525.04586277650674,-154.10351563376506,337.7612339267074
-485.04287439921808,-19.545560225853784,363.67178856049469
-272.29748092764271,-322.75661355432885,377.76161568999203
-722.79298118010445,-225.92962996636183,450.95008637148624
-651.71036241440299,21.08147894974535,521.10570524534967
-483.22574779525087,-228.65715065005696,375.48868078916058
-485.04434695191173,-81.371567202717202,388.67152100302621
-315.02863896717633,-250.47731611964798,462.76934266751232
-427.31157594874708,-265.02409530878168,254.11397469466465
-585.1011735930698,17.667075520789417,493.14434065737629
-603.39614744407834,8.2185533382866414,411.31409059823136
-348.66806759850311,118.64713500821514,525.95688228749304
-414.58314392217443,180.01636512410391,219.11082825711324
-596.49303538068943,92.66052377612705,161.35951205816764
-523.62880157551729,-128.13858090770228,626.9194734754077
-619.12720351027144,150.48978852372437,268.66810739363927
-345.4859532684747,149.55905082280233,553.22681459710441
-526.00654845974452,29.97997833425023,263.83904344168178
-352.75956736183468,-35.990552820770638,541.86737713836339
-148.19617839593144,-245.47752747133424,530.50121912591146
-483.22574779529685,-170.9246295118169,373.67033366667943
-430.29824153917173,-525.74493093494948,180.73452710338543
-460.04181882857381,-153.19574184965145,430.49367733839904
-345.50162172464394,-80.493212253724067,166.78508150693929
-425.12227448107353,44.545131106796944,287.45123520293919
-75.446340085864421,-235.69222801881273,245.54064567741577
-462.76934266751147,-105.00954632239224,536.70011342470434
-190.36880306427065,-125.28796043655714,264.75265303397515
-535.96264009917365,56.363651181319717,234.10963719529803
-315.02864115881601,-114.10128658520189,385.94430901755965
-555.05046022688407,-23.63851335590817,499.59087121090352
-361.04707714770535,-104.50012136128018,457.37758043488026
-590.02005252061758,-172.06327829568008,382.9061463524252
-336.84880443676036,-78.188995275709914,557.77791080665747
-354.56801924332899,60.016882747278174,20.457287143558137
-593.52693174598232,-6.3540365181838387,594.46234654759417
